{"learner":{"attributes":{"scikit_learn":"{\"_estimator_type\": \"regressor\"}"},"feature_names":[],"feature_types":[],"gradient_booster":{"model":{"gbtree_model_param":{"num_parallel_tree":"1","num_trees":"200"},"iteration_indptr":[0,1,2,3,4,5,6,7,8,9,10,11,12,13,14,15,16,17,18,19,20,21,22,23,24,25,26,27,28,29,30,31,32,33,34,35,36,37,38,39,40,41,42,43,44,45,46,47,48,49,50,51,52,53,54,55,56,57,58,59,60,61,62,63,64,65,66,67,68,69,70,71,72,73,74,75,76,77,78,79,80,81,82,83,84,85,86,87,88,89,90,91,92,93,94,95,96,97,98,99,100,101,102,103,104,105,106,107,108,109,110,111,112,113,114,115,116,117,118,119,120,121,122,123,124,125,126,127,128,129,130,131,132,133,134,135,136,137,138,139,140,141,142,143,144,145,146,147,148,149,150,151,152,153,154,155,156,157,158,159,160,161,162,163,164,165,166,167,168,169,170,171,172,173,174,175,176,177,178,179,180,181,182,183,184,185,186,187,188,189,190,191,192,193,194,195,196,197,198,199,200],"tree_info":[0,0,0,0,0,0,0,0,0,0,0,0,0,0,0,0,0,0,0,0,0,0,0,0,0,0,0,0,0,0,0,0,0,0,0,0,0,0,0,0,0,0,0,0,0,0,0,0,0,0,0,0,0,0,0,0,0,0,0,0,0,0,0,0,0,0,0,0,0,0,0,0,0,0,0,0,0,0,0,0,0,0,0,0,0,0,0,0,0,0,0,0,0,0,0,0,0,0,0,0,0,0,0,0,0,0,0,0,0,0,0,0,0,0,0,0,0,0,0,0,0,0,0,0,0,0,0,0,0,0,0,0,0,0,0,0,0,0,0,0,0,0,0,0,0,0,0,0,0,0,0,0,0,0,0,0,0,0,0,0,0,0,0,0,0,0,0,0,0,0,0,0,0,0,0,0,0,0,0,0,0,0,0,0,0,0,0,0,0,0,0,0,0,0,0,0,0,0,0,0],"trees":[{"base_weights":[-3.144239E-5,-7.85063E-2,4.63916E-1,6.537634E-1,-8.2694106E-2,6.697792E-1,1.8676843E-1,-8.750002E-3,7.1511626E-1,-8.6974606E-2,5.236842E-1,8.37863E-1,4.0819934E-1,1.5875553E-1,7.5636363E-1,8.4179103E-1,2.5499997E-1,1.008361E-1,-9.419947E-2,-2.2222245E-2,6.852273E-1,8.766623E-1,6.8333334E-1,3.060538E-1,6.632768E-1,6.489969E-2,3.1144857E-1,8.2199997E-1,8.333331E-2,2.6666665E-1,8.553846E-2,5.7777774E-1,-8.333355E-3,-9.97783E-3,7.1148646E-1,3.181816E-2,-9.5820315E-2,6E-2,-9.600002E-3,7.530864E-1,-8.750002E-3,8.7921566E-1,-6.6666687E-3,7.7256095E-1,2.4571426E-1,7.860465E-1,2.542079E-1,3.0714282E-1,7.683823E-1,3.7462663E-2,6.965517E-1,1.7277226E-1,4.3348014E-1,2.4999999E-1,8.8E-2,4.4999998E-2,-8.000002E-3,4.4999998E-2,-5.0000013E-3,7.714286E-2,-6.6666687E-3,4.4999998E-2,-9.090912E-3,1.9285712E-2,7.6E-2,-9.333336E-3,6.382353E-2,5.230769E-2,-9.63391E-3,8.119403E-2,4.3999996E-2,8.90535E-2,6.324324E-2,8.6060606E-2,6.287879E-2,8.1818186E-2,-1.6000023E-3,-5.0000013E-3,8.0714285E-2,3.677536E-2,9.3023025E-4,-9.000002E-3,4.1818183E-2,8.300885E-2,4.458333E-2,1.5544848E-3,3.2765955E-2,8.608695E-2,5.714284E-3,4.013158E-2,3.4645647E-3,-9.444447E-3,4.7666665E-2,-7.5000017E-3,6E-2],"categories":[],"categories_nodes":[],"categories_segments":[],"categories_sizes":[],"default_left":[0,0,0,0,0,0,0,0,0,0,0,0,0,0,0,0,0,0,0,0,0,0,0,0,0,0,0,0,0,0,0,0,0,0,0,0,0,0,0,0,0,0,0,0,0,0,0,0,0,0,0,0,0,0,0,0,0,0,0,0,0,0,0,0,0,0,0,0,0,0,0,0,0,0,0,0,0,0,0,0,0,0,0,0,0,0,0,0,0,0,0,0,0,0,0],"id":0,"left_children":[1,3,5,7,9,11,13,-1,15,17,19,21,23,25,27,29,31,33,35,37,39,41,43,45,47,49,51,53,55,57,-1,59,61,-1,63,65,67,-1,-1,69,-1,71,-1,73,75,77,79,81,83,85,87,89,91,93,-1,-1,-1,-1,-1,-1,-1,-1,-1,-1,-1,-1,-1,-1,-1,-1,-1,-1,-1,-1,-1,-1,-1,-1,-1,-1,-1,-1,-1,-1,-1,-1,-1,-1,-1,-1,-1,-1,-1,-1,-1],"loss_changes":[6.9532404E2,5.0147057E1,1.5751642E2,4.2920837E0,4.2205902E1,6.934619E1,1.8692059E1,0E0,4.797859E0,2.1896393E1,1.006859E1,5.180786E0,1.6003227E1,1.6102312E1,2.3611412E0,2.957077E-1,1.7047777E0,7.332913E1,3.1757507E0,1.2970667E0,4.680313E0,1.9060669E0,7.541626E0,1.0899181E1,6.3894043E0,1.2070702E1,7.1681023E0,1.4388008E0,3.9533332E-1,1.9666666E-1,0E0,1.174603E0,4.9507576E-1,0E0,3.5771942E0,1.5086584E1,4.9743958E0,0E0,0E0,1.1352844E0,0E0,1.5737305E0,0E0,1.5348587E0,5.256893E0,7.987709E-1,1.1231001E1,1.889766E0,2.3367615E0,4.2564297E0,2.9977293E0,6.3628206E0,5.2204437E0,7.2749996E-1,0E0,0E0,0E0,0E0,0E0,0E0,0E0,0E0,0E0,0E0,0E0,0E0,0E0,0E0,0E0,0E0,0E0,0E0,0E0,0E0,0E0,0E0,0E0,0E0,0E0,0E0,0E0,0E0,0E0,0E0,0E0,0E0,0E0,0E0,0E0,0E0,0E0,0E0,0E0,0E0,0E0],"parents":[2147483647,0,0,1,1,2,2,3,3,4,4,5,5,6,6,8,8,9,9,10,10,11,11,12,12,13,13,14,14,15,15,16,16,17,17,18,18,19,19,20,20,21,21,22,22,23,23,24,24,25,25,26,26,27,27,28,28,29,29,31,31,32,32,34,34,35,35,36,36,39,39,41,41,43,43,44,44,45,45,46,46,47,47,48,48,49,49,50,50,51,51,52,52,53,53],"right_children":[2,4,6,8,10,12,14,-1,16,18,20,22,24,26,28,30,32,34,36,38,40,42,44,46,48,50,52,54,56,58,-1,60,62,-1,64,66,68,-1,-1,70,-1,72,-1,74,76,78,80,82,84,86,88,90,92,94,-1,-1,-1,-1,-1,-1,-1,-1,-1,-1,-1,-1,-1,-1,-1,-1,-1,-1,-1,-1,-1,-1,-1,-1,-1,-1,-1,-1,-1,-1,-1,-1,-1,-1,-1,-1,-1,-1,-1,-1,-1],"split_conditions":[1.3278319E-1,-7.732322E-2,-2.0891018E-3,1.1956471E1,7.7430464E-2,5.246221E-3,8.2043536E-2,-5.365789E-4,3.6127895E-2,7.857431E-21,-9.515803E-2,3.935926E-3,9.359865E-2,3.1082472E-1,7.4505486E-2,9.450465E-4,-5.8618564E-2,1.3934527E1,-4.1221898E-2,2.0057034E-2,5.093077E-2,5.093077E-2,2.7073894E-2,-6.9566324E-2,4.2055464E-1,8.540239E-2,-5.5066757E-3,1.3750099E-5,1.6449776E-2,1.673901E-2,5.751701E-3,1.6820383E-3,1.9689372E-2,-2.719295E-2,-5.0797546E-5,1.3252803E1,-4.340068E-1,1.589644E-3,-1.960309E-3,2.2985982E-2,-4.4707657E-4,1.1749581E-2,-5.343199E-4,-2.8637291E-3,1.8875774E-2,1.5834987E1,9.89476E-3,1.0121442E-4,9.575562E-4,4.534407E-1,1.5043492E-2,-1.2675805E-1,7.979931E0,4.884518E0,6.6783577E-3,1.5168965E-3,-2.0703375E-3,7.4884895E-4,-5.86766E-4,8.611935E-3,-1.0679484E-3,4.6433808E-4,-1.0721929E-4,9.038264E-3,1.0635394E-2,-5.610438E-3,4.1878936E-3,4.1482514E-3,-3.5907052E-2,6.644866E-3,4.8856437E-3,7.28153E-3,1.8737627E-3,4.882288E-3,5.2004135E-3,5.611181E-4,1.9015341E-4,-9.1442466E-4,4.6840133E-3,3.6611462E-3,4.379738E-5,-2.1688582E-3,3.150059E-3,7.010143E-3,4.794001E-3,3.418034E-4,9.250723E-4,6.6185677E-3,4.31512E-3,4.3448517E-3,4.4646743E-4,-2.0391587E-3,3.6681935E-3,-1.08611975E-2,9.779709E-3],"split_indices":[13,32,24,0,33,11,30,0,4,43,44,11,39,9,4,5,44,2,42,1,4,4,4,4,21,33,10,37,5,1,0,47,1,0,28,0,10,0,0,4,0,37,0,26,7,0,11,31,41,20,4,44,0,12,0,0,0,0,0,0,0,0,0,0,0,0,0,0,0,0,0,0,0,0,0,0,0,0,0,0,0,0,0,0,0,0,0,0,0,0,0,0,0,0,0],"split_type":[0,0,0,0,0,0,0,0,0,0,0,0,0,0,0,0,0,0,0,0,0,0,0,0,0,0,0,0,0,0,0,0,0,0,0,0,0,0,0,0,0,0,0,0,0,0,0,0,0,0,0,0,0,0,0,0,0,0,0,0,0,0,0,0,0,0,0,0,0,0,0,0,0,0,0,0,0,0,0,0,0,0,0,0,0,0,0,0,0,0,0,0,0,0,0],"sum_hessian":[1.9096E4,1.6334E4,2.762E3,9.2E1,1.6242E4,1.584E3,1.178E3,7E0,8.5E1,1.6129E4,1.13E2,9.63E2,6.21E2,1.124E3,5.4E1,6.6E1,1.9E1,5.97E2,1.5532E4,2.6E1,8.7E1,7.66E2,1.97E2,4.45E2,1.76E2,6.97E2,4.27E2,4.9E1,5E0,2E0,6.4E1,8E0,1.1E1,4.5E2,1.47E2,1.97E2,1.5335E4,2E0,2.4E1,8E1,7E0,7.64E2,2E0,1.63E2,3.4E1,4.2E1,4.03E2,4.1E1,1.35E2,6.69E2,2.8E1,2.01E2,2.26E2,5E0,4.4E1,1E0,4E0,1E0,1E0,6E0,2E0,1E0,1E1,1.3E1,1.34E2,1.64E2,3.3E1,1.2E1,1.5323E4,6.6E1,1.4E1,7.28E2,3.6E1,9.8E1,6.5E1,1E1,2.4E1,1E0,4.1E1,2.75E2,1.28E2,9E0,3.2E1,1.12E2,2.3E1,6.23E2,4.6E1,2.2E1,6E0,7.5E1,1.26E2,1.7E1,2.09E2,3E0,2E0],"tree_param":{"num_deleted":"0","num_feature":"48","num_nodes":"95","size_leaf_vector":"1"}},{"base_weights":[-3.382754E-3,-7.685341E-2,4.309808E-1,-8.0369145E-2,6.296296E-1,6.497218E-1,1.9343889E-1,-8.390373E-2,5.092783E-1,7.042253E-1,9.090907E-2,8.0286586E-1,3.2445884E-1,1.3473874E-1,4.6398303E-1,2.3940926E-2,-9.540477E-2,1.6666643E-2,6.1375E-1,7.3970586E-1,-7.5000017E-3,6E-2,-8.888892E-3,8.4238327E-1,6.0182923E-1,2.2268654E-1,5.882812E-1,3.0046925E-2,2.8211918E-1,3.456647E-1,7.7656245E-1,-7.7301115E-2,4.9241874E-1,-9.608585E-2,5.733333E-1,6E-2,-9.375002E-3,7.2968745E-1,1.4117645E-1,7.7656245E-1,1.1999998E-1,8.53875E-1,1.7333332E-1,7.679687E-1,1.0810788E-2,5.433962E-1,1.6183743E-1,2.9268292E-1,7.1931815E-1,9.4488166E-2,-6.486489E-2,1.3520406E-1,3.9263564E-1,8.311686E-2,5.505154E-1,8.8163264E-2,4.0624997E-1,3.2765955E-2,-9.263757E-3,6.97561E-2,3.2645162E-2,-9.963328E-3,-2.3718912E-3,-8.000002E-3,8.1818186E-2,-8.000002E-3,7.8499995E-2,6.7499995E-2,-2.1428594E-3,7.904761E-2,-5.0000013E-3,4.4999998E-2,-7.5000017E-3,8.848392E-2,7.114865E-2,7.2E-2,-9.090912E-3,-8.000002E-3,7.959677E-2,-4.000002E-3,6E-2,6.974359E-2,1.0666665E-2,5.1388886E-2,1.1008062E-2,6.2142856E-2,1.1785712E-2,8.45283E-2,5.1388886E-2,4.410256E-2,5.481047E-3,-7.237356E-3,6E-2,5.398771E-3,5.2058823E-2,4.5601852E-2,6.511626E-3,5.454545E-2,5.970126E-4,3.999998E-3,6.361446E-2,-8.000002E-3,5.75E-2],"categories":[],"categories_nodes":[],"categories_segments":[],"categories_sizes":[],"default_left":[0,0,0,0,0,0,0,0,0,0,0,0,0,0,0,0,0,0,0,0,0,0,0,0,0,0,0,0,0,0,0,0,0,0,0,0,0,0,0,0,0,0,0,0,0,0,0,0,0,0,0,0,0,0,0,0,0,0,0,0,0,0,0,0,0,0,0,0,0,0,0,0,0,0,0,0,0,0,0,0,0,0,0,0,0,0,0,0,0,0,0,0,0,0,0,0,0,0,0,0,0,0,0],"id":1,"left_children":[1,3,5,7,9,11,13,15,17,19,21,23,25,27,29,31,33,35,37,39,-1,-1,-1,41,43,45,47,49,51,53,55,57,59,61,63,-1,-1,65,67,69,71,73,75,77,79,81,83,85,87,89,91,93,95,97,99,-1,101,-1,-1,-1,-1,-1,-1,-1,-1,-1,-1,-1,-1,-1,-1,-1,-1,-1,-1,-1,-1,-1,-1,-1,-1,-1,-1,-1,-1,-1,-1,-1,-1,-1,-1,-1,-1,-1,-1,-1,-1,-1,-1,-1,-1,-1,-1],"loss_changes":[6.094752E2,4.062358E1,1.4344025E2,3.3920776E1,3.1910667E0,7.136926E1,2.0995663E1,2.00447E1,4.9817715E0,2.0184364E0,1.0602021E0,7.2547607E0,1.2273613E1,1.6825136E1,8.459763E0,7.3933464E1,6.7058105E0,1.215625E0,4.2801075E0,1.4599495E0,0E0,0E0,0E0,6.1104736E0,1.6095104E1,6.4495487E0,4.7474594E0,3.914403E0,7.302067E0,9.258722E0,2.132E0,7.9924183E0,9.203262E0,3.7426147E0,2.4649696E0,0E0,0E0,2.9290962E0,1.490105E0,7.755585E-1,3.5549998E-1,2.897583E0,2.2322426E0,3.102684E0,1.1316757E0,3.4911108E0,5.099991E0,2.283162E0,1.8427849E0,5.2145033E0,1.3364182E0,6.106596E0,5.3261604E0,2.7431674E0,4.2149067E0,0E0,1.358875E0,0E0,0E0,0E0,0E0,0E0,0E0,0E0,0E0,0E0,0E0,0E0,0E0,0E0,0E0,0E0,0E0,0E0,0E0,0E0,0E0,0E0,0E0,0E0,0E0,0E0,0E0,0E0,0E0,0E0,0E0,0E0,0E0,0E0,0E0,0E0,0E0,0E0,0E0,0E0,0E0,0E0,0E0,0E0,0E0,0E0,0E0],"parents":[2147483647,0,0,1,1,2,2,3,3,4,4,5,5,6,6,7,7,8,8,9,9,10,10,11,11,12,12,13,13,14,14,15,15,16,16,17,17,18,18,19,19,23,23,24,24,25,25,26,26,27,27,28,28,29,29,30,30,31,31,32,32,33,33,34,34,37,37,38,38,39,39,40,40,41,41,42,42,43,43,44,44,45,45,46,46,47,47,48,48,49,49,50,50,51,51,52,52,53,53,54,54,56,56],"right_children":[2,4,6,8,10,12,14,16,18,20,22,24,26,28,30,32,34,36,38,40,-1,-1,-1,42,44,46,48,50,52,54,56,58,60,62,64,-1,-1,66,68,70,72,74,76,78,80,82,84,86,88,90,92,94,96,98,100,-1,102,-1,-1,-1,-1,-1,-1,-1,-1,-1,-1,-1,-1,-1,-1,-1,-1,-1,-1,-1,-1,-1,-1,-1,-1,-1,-1,-1,-1,-1,-1,-1,-1,-1,-1,-1,-1,-1,-1,-1,-1,-1,-1,-1,-1,-1,-1],"split_conditions":[1.3278319E-1,5.867788E-1,-2.0396877E-3,7.8579344E-2,5.093077E-2,5.4401406E-3,8.210389E-2,7.709377E-19,1.3939778E1,-1.85396E-3,5.545562E-2,4.193763E-3,7.387061E-2,3.1082472E-1,2.6379468E-2,1.3596983E1,1.0511732E-1,1.673901E-2,3.972222E-2,1.07708834E-1,-1.10524896E-4,7.7507435E-3,-3.5679937E-4,4.407362E-2,2.216091E-2,1.436893E-1,4.2055464E-1,-2.530725E-1,-1.7662605E-2,8.540239E-2,4.6494527E0,9.968936E0,1.2481001E-22,-1.2980957E-18,1.0785875E1,5.8988336E-4,-3.143621E-4,-1.4493673E-2,4.042022E-3,1.2811415E-1,1.1594587E-1,1.7468771E-4,1.7852764E1,7.5683706E-6,3.8542464E-2,2.0456212E-2,1.1275804E-2,3.759419E0,6.6884137E-3,-7.7677906E-2,9.342893E-4,9.891817E-2,-1.0472328E-1,3.50352E-3,-3.4664744E-3,6.008982E-3,3.1823352E-2,3.6239882E-3,-2.860402E-2,9.635201E-3,4.598724E-3,-3.2925136E-2,-2.6874677E-3,-1.622862E-2,9.8317545E-3,-6.793738E-5,5.9866607E-3,2.896142E-3,2.7579055E-4,5.300097E-3,-9.611547E-4,4.2740703E-3,-2.2755265E-4,6.919191E-3,4.249144E-3,9.0588926E-4,-3.1365157E-4,-9.048939E-4,4.554465E-3,-5.90086E-6,4.3734908E-4,4.2099142E-3,2.8791307E-3,1.8229727E-3,1.3671141E-3,2.9677565E-3,1.8995916E-3,6.304629E-3,2.4603787E-3,4.4900025E-3,6.01639E-4,-8.9006426E-5,1.1734188E-3,4.937346E-4,5.664054E-3,2.8733602E-3,1.9324617E-3,2.4406302E-3,3.46004E-5,5.73027E-4,6.275464E-3,-1.8633008E-3,1.1184092E-2],"split_indices":[13,9,27,33,4,11,33,45,3,26,6,11,32,9,5,2,40,1,4,45,0,0,0,4,4,13,21,6,10,33,12,3,47,44,0,0,0,34,23,22,13,41,0,29,4,23,1,12,43,30,28,46,38,17,26,0,5,0,0,0,0,0,0,0,0,0,0,0,0,0,0,0,0,0,0,0,0,0,0,0,0,0,0,0,0,0,0,0,0,0,0,0,0,0,0,0,0,0,0,0,0,0,0],"split_type":[0,0,0,0,0,0,0,0,0,0,0,0,0,0,0,0,0,0,0,0,0,0,0,0,0,0,0,0,0,0,0,0,0,0,0,0,0,0,0,0,0,0,0,0,0,0,0,0,0,0,0,0,0,0,0,0,0,0,0,0,0,0,0,0,0,0,0,0,0,0,0,0,0,0,0,0,0,0,0,0,0,0,0,0,0,0,0,0,0,0,0,0,0,0,0,0,0,0,0,0,0,0,0],"sum_hessian":[1.9096E4,1.6334E4,2.762E3,1.6254E4,8E1,1.437E3,1.325E3,1.6158E4,9.6E1,7E1,1E1,9.76E2,4.61E2,1.09E3,2.35E2,1.557E3,1.4601E4,1.7E1,7.9E1,6.7E1,3E0,2E0,8E0,8.13E2,1.63E2,3.34E2,1.27E2,6.38E2,4.52E2,1.72E2,6.3E1,1.281E3,2.76E2,1.4587E4,1.4E1,2E0,1.5E1,6.3E1,1.6E1,6.3E1,4E0,7.99E2,1.4E1,1.27E2,3.6E1,5.2E1,2.82E2,4E1,8.7E1,3.8E2,2.58E2,1.95E2,2.57E2,7.6E1,9.6E1,4.8E1,1.5E1,4.6E1,1.235E3,1.22E2,1.54E2,1.3905E4,6.82E2,4E0,1E1,4E0,5.9E1,3E0,1.3E1,6.2E1,1E0,1E0,3E0,6.52E2,1.47E2,4E0,1E1,4E0,1.23E2,3.4E1,2E0,3.8E1,1.4E1,3.5E1,2.47E2,1.3E1,2.7E1,5.2E1,3.5E1,3.8E1,3.42E2,2.56E2,2E0,1.62E2,3.3E1,2.15E2,4.2E1,1E1,6.6E1,1.4E1,8.2E1,4E0,1.1E1],"tree_param":{"num_deleted":"0","num_feature":"48","num_nodes":"103","size_leaf_vector":"1"}},{"base_weights":[-1.0033013E-2,-7.6975845E-2,3.857401E-1,4.8190475E-1,-8.058655E-2,6.6686684E-1,2.2640224E-1,3.8313252E-1,8.173913E-1,-8.334573E-2,5.2297294E-1,7.9795617E-1,3.796825E-1,1.8162127E-1,7.073333E-1,5.0166667E-1,7.083331E-2,2.6666665E-1,8.571428E-2,2.1120388E-2,-9.444751E-2,6.431034E-1,8.235292E-2,8.924855E-2,4.9940118E-1,4.961702E-1,3.7037015E-2,2.7497265E-1,5.9686586E-2,7.42446E-1,2.4166664E-1,6.1041665E-1,6.153844E-2,-4.761907E-2,6.7499995E-2,4.4999998E-2,-5.0000013E-3,-7.081041E-2,4.3392223E-1,-9.580244E-2,2.9411763E-1,-6.6666687E-3,6.696428E-1,5.2E-1,-9.230772E-3,7.794392E-1,-2.3451008E-8,-1.0869589E-2,6.163158E-1,-1.9736866E-2,7.5E-2,4.6528494E-1,2.2378974E-1,4.5282993E-2,7.642857E-1,4.8611107E-1,8.2403845E-1,-8.750002E-3,7.2E-2,6.255319E-2,-5.0000013E-3,4.25E-2,-9.000002E-3,-9.5000025E-3,4.4999998E-2,2.4411762E-2,-9.820515E-3,6.5691054E-2,2.6086954E-2,-9.984394E-3,-4.641888E-3,-9.615387E-3,6.7307696E-2,3.25E-2,7.466667E-2,-5.0000013E-3,6.7499995E-2,5.714284E-3,8.217822E-2,4.8571426E-2,-6.1818208E-3,3.5555553E-2,-9.736844E-3,2.7450979E-2,7.364286E-2,2.210526E-2,-9.827589E-3,1.2676055E-2,6.5691054E-2,4.9351852E-2,1.7613634E-2,1.6359648E-2,-1.3203487E-3,-5.0000013E-3,8.307692E-2,6.535714E-2,-8.888892E-3,2.4999999E-2,8.505051E-2],"categories":[],"categories_nodes":[],"categories_segments":[],"categories_sizes":[],"default_left":[0,0,0,0,0,0,0,0,0,0,0,0,0,0,0,0,0,0,0,0,0,0,0,0,0,0,0,0,0,0,0,0,0,0,0,0,0,0,0,0,0,0,0,0,0,0,0,0,0,0,0,0,0,0,0,0,0,0,0,0,0,0,0,0,0,0,0,0,0,0,0,0,0,0,0,0,0,0,0,0,0,0,0,0,0,0,0,0,0,0,0,0,0,0,0,0,0,0,0],"id":2,"left_children":[1,3,5,7,9,11,13,15,17,19,21,23,25,27,29,31,33,35,-1,37,39,41,43,-1,45,47,49,51,53,55,57,59,61,63,-1,-1,-1,65,67,69,71,-1,73,75,-1,77,79,81,83,85,-1,87,89,91,93,95,97,-1,-1,-1,-1,-1,-1,-1,-1,-1,-1,-1,-1,-1,-1,-1,-1,-1,-1,-1,-1,-1,-1,-1,-1,-1,-1,-1,-1,-1,-1,-1,-1,-1,-1,-1,-1,-1,-1,-1,-1,-1,-1],"loss_changes":[5.0598892E2,3.3002174E1,1.23615204E2,3.1661873E0,2.7073532E1,3.7306183E1,3.7883553E1,3.0369682E0,2.7494717E-1,1.8741394E1,3.8639984E0,1.8886536E1,1.2554523E1,1.837815E1,2.2732086E0,2.8342724E0,1.7497023E0,1.9666666E-1,0E0,5.8965836E1,7.717926E0,1.1371822E0,1.347475E0,0E0,2.3355167E1,1.4322571E1,3.2934942E0,8.808647E0,7.089818E0,2.506607E0,1.9524164E0,5.104294E-1,7.5426924E-1,5.3788096E-1,0E0,0E0,0E0,1.0989366E1,1.0749245E1,2.9004974E0,7.6074657E0,0E0,1.2438946E0,4.755E-1,0E0,3.2255478E0,1.8616104E0,1.4926063E0,7.598343E0,1.4589882E0,0E0,1.2436634E1,9.206146E0,4.7698603E0,7.994509E-1,3.5245237E0,1.367424E0,0E0,0E0,0E0,0E0,0E0,0E0,0E0,0E0,0E0,0E0,0E0,0E0,0E0,0E0,0E0,0E0,0E0,0E0,0E0,0E0,0E0,0E0,0E0,0E0,0E0,0E0,0E0,0E0,0E0,0E0,0E0,0E0,0E0,0E0,0E0,0E0,0E0,0E0,0E0,0E0,0E0,0E0],"parents":[2147483647,0,0,1,1,2,2,3,3,4,4,5,5,6,6,7,7,8,8,9,9,10,10,11,11,12,12,13,13,14,14,15,15,16,16,17,17,19,19,20,20,21,21,22,22,24,24,25,25,26,26,27,27,28,28,29,29,30,30,31,31,32,32,33,33,37,37,38,38,39,39,40,40,42,42,43,43,45,45,46,46,47,47,48,48,49,49,51,51,52,52,53,53,54,54,55,55,56,56],"right_children":[2,4,6,8,10,12,14,16,18,20,22,24,26,28,30,32,34,36,-1,38,40,42,44,-1,46,48,50,52,54,56,58,60,62,64,-1,-1,-1,66,68,70,72,-1,74,76,-1,78,80,82,84,86,-1,88,90,92,94,96,98,-1,-1,-1,-1,-1,-1,-1,-1,-1,-1,-1,-1,-1,-1,-1,-1,-1,-1,-1,-1,-1,-1,-1,-1,-1,-1,-1,-1,-1,-1,-1,-1,-1,-1,-1,-1,-1,-1,-1,-1,-1,-1],"split_conditions":[1.3278319E-1,-5.868544E-1,-2.4053787E-3,8.5953064E-2,5.867788E-1,7.5190724E-3,8.2043536E-2,1.7669614E-2,-8.4135723E-1,7.709377E-19,3.972222E-2,2.216091E-2,1.6104233E-2,-1.9983244E-3,1.7582625E-1,-1.4464608E-3,3.2872654E-2,2.6924668E-2,6.9609457E-3,1.3720102E1,5.8947835E-2,5.4645583E-2,4.042022E-3,6.6114697E-3,4.0130064E-5,-2.1484951E-4,4.562737E-4,-6.648288E-2,8.540239E-2,4.8933406E-3,1.2931794E-4,5.6593444E-2,-1.7245171E0,1.9779405E-2,3.3013762E-3,4.147947E-4,-1.5497148E-3,9.969006E0,1.2481001E-22,-3.983411E-16,1.23535E1,-3.052354E-5,-7.215296E-2,1.7852764E1,-1.7480917E-4,-1.9003673E-2,2.0853325E-4,1.5281487E-1,4.735775E-5,1.9234847E-2,5.680078E-3,7.1858466E-2,-4.3353933E-1,-6.060272E-1,-3.2156236E0,1.5246443E-4,1.3750099E-5,-4.6489836E-4,4.227549E-3,3.770748E-3,-2.0479561E-4,9.892822E-4,-1.6837145E-4,-3.5929683E-4,8.320153E-4,3.275231E-3,-2.656818E-2,8.6716795E-3,4.222354E-3,-2.993461E-2,-9.306437E-3,-2.1454714E-2,7.965361E-3,3.037786E-3,5.185419E-3,-1.9823313E-4,2.253592E-3,9.0664624E-5,8.135032E-4,2.708137E-4,-4.522505E-5,1.8658042E-3,-2.9689074E-4,4.0175538E-3,4.0366473E-3,8.701921E-4,-8.501298E-5,1.346424E-3,5.682805E-3,2.3776328E-3,1.28368E-3,1.5268099E-3,-1.4589072E-4,-1.3312727E-2,4.917263E-3,9.7472174E-4,-6.0755014E-5,7.6833307E-3,5.7072E-3],"split_indices":[13,8,27,33,9,37,30,4,6,45,4,4,4,26,43,24,1,1,0,0,42,13,23,0,35,28,28,4,33,19,35,36,12,40,0,0,0,3,47,44,0,0,46,0,0,44,47,13,25,1,0,43,21,38,15,28,37,0,0,0,0,0,0,0,0,0,0,0,0,0,0,0,0,0,0,0,0,0,0,0,0,0,0,0,0,0,0,0,0,0,0,0,0,0,0,0,0,0,0],"split_type":[0,0,0,0,0,0,0,0,0,0,0,0,0,0,0,0,0,0,0,0,0,0,0,0,0,0,0,0,0,0,0,0,0,0,0,0,0,0,0,0,0,0,0,0,0,0,0,0,0,0,0,0,0,0,0,0,0,0,0,0,0,0,0,0,0,0,0,0,0,0,0,0,0,0,0,0,0,0,0,0,0,0,0,0,0,0,0,0,0,0,0,0,0,0,0,0,0,0,0],"sum_hessian":[1.9096E4,1.6334E4,2.762E3,1.04E2,1.623E4,9.98E2,1.764E3,8.2E1,2.2E1,1.6157E4,7.3E1,6.84E2,3.14E2,1.615E3,1.49E2,5.9E1,2.3E1,2E0,2E1,1.552E3,1.4605E4,5.7E1,1.6E1,5.18E2,1.66E2,2.34E2,8E1,9.14E2,7.01E2,1.38E2,1.1E1,4.7E1,1.2E1,2E1,3E0,1E0,1E0,1.27E3,2.82E2,1.4555E4,5E1,2E0,5.5E1,4E0,1.2E1,1.06E2,6E1,4.5E1,1.89E2,7.5E1,5E0,1.92E2,7.22E2,6.88E2,1.3E1,3.5E1,1.03E2,7E0,4E0,4.6E1,1E0,3E0,9E0,1.9E1,1E0,1.01E2,1.169E3,1.22E2,1.6E2,1.3453E4,1.102E3,2.5E1,2.5E1,1.1E1,4.4E1,1E0,3E0,6E0,1E2,6E0,5.4E1,8E0,3.7E1,5E1,1.39E2,1.8E1,5.7E1,7E1,1.22E2,1.07E2,6.15E2,2.27E2,4.61E2,1E0,1.2E1,2.7E1,8E0,5E0,9.8E1],"tree_param":{"num_deleted":"0","num_feature":"48","num_nodes":"99","size_leaf_vector":"1"}},{"base_weights":[-1.3803239E-2,-7.945945E-2,3.4849826E-1,4.127907E-1,-8.20867E-2,6.3097256E-1,1.8851493E-1,-9.56522E-3,5.8906245E-1,-8.396935E-2,5.7608694E-1,7.7603424E-1,3.4596097E-1,1.4556004E-1,6.806666E-1,8.4375E-2,4.9387753E-1,4.218726E-3,-9.595583E-2,8.1363636E-1,3.4399998E-1,8.9625984E-2,4.5721647E-1,7.5E-1,2.8566876E-1,3.8237408E-1,9.993082E-2,7.2554743E-1,1.9285712E-1,5.466666E-1,-8.000002E-3,-6.696835E-2,2.9866308E-1,-9.7009964E-2,2.7749997E-1,8.571428E-2,-5.0000013E-3,7.5E-2,2.0499998E-1,6.8347824E-1,1.2624997E-1,8.775E-2,-8.57143E-3,2.3252593E-1,8.653846E-2,6.9523805E-1,2.8935182E-1,6.8302155E-2,3.4846625E-1,4.8611107E-1,8.0294114E-1,7.2E-2,-9.000002E-3,8.357143E-2,4.03125E-2,1.1666665E-2,-8.838386E-3,6.2439024E-2,1.38492035E-2,-9.869731E-3,2.8876981E-3,7.8125E-2,-5.6000026E-3,3.999998E-3,5.8333334E-2,7.747573E-2,-9.230772E-3,4.7499996E-2,-6.037738E-3,9.466018E-3,5.6785714E-2,7.3220335E-2,1.1999998E-2,1.5999999E-2,4.9878046E-2,-2.2893797E-3,1.3558862E-2,-1.206899E-3,5.4245282E-2,6.535714E-2,-8.888892E-3,2.4444444E-2,8.4787235E-2],"categories":[],"categories_nodes":[],"categories_segments":[],"categories_sizes":[],"default_left":[0,0,0,0,0,0,0,0,0,0,0,0,0,0,0,0,0,0,0,0,0,0,0,0,0,0,0,0,0,0,0,0,0,0,0,0,0,0,0,0,0,0,0,0,0,0,0,0,0,0,0,0,0,0,0,0,0,0,0,0,0,0,0,0,0,0,0,0,0,0,0,0,0,0,0,0,0,0,0,0,0,0,0],"id":3,"left_children":[1,3,5,7,9,11,13,-1,15,17,19,21,23,25,27,-1,29,31,33,35,37,-1,39,41,43,45,47,49,51,53,-1,55,57,59,61,-1,-1,-1,63,65,67,-1,-1,69,-1,71,73,75,77,79,81,-1,-1,-1,-1,-1,-1,-1,-1,-1,-1,-1,-1,-1,-1,-1,-1,-1,-1,-1,-1,-1,-1,-1,-1,-1,-1,-1,-1,-1,-1,-1,-1],"loss_changes":[4.5429462E2,2.0943367E1,1.3229123E2,7.764021E0,1.9976967E1,4.3515045E1,3.947561E1,0E0,1.1348057E0,1.6953606E1,2.2561865E0,2.6459625E1,8.531136E0,1.857991E1,3.1440659E0,0E0,1.528163E0,4.0264412E1,5.585205E0,8.6948013E-1,1.2570996E0,0E0,1.444141E1,4.976677E0,9.472406E0,7.8895493E0,1.1342978E1,2.148407E0,2.1522856E0,1.5301695E0,0E0,6.094101E0,1.9425877E1,2.9936218E0,6.7637744E0,0E0,0E0,0E0,1.2251667E0,8.215012E0,5.235583E0,0E0,0E0,1.3306915E1,0E0,1.2517586E0,5.7716312E0,7.8820515E0,1.1406603E1,3.5245237E0,2.3523254E0,0E0,0E0,0E0,0E0,0E0,0E0,0E0,0E0,0E0,0E0,0E0,0E0,0E0,0E0,0E0,0E0,0E0,0E0,0E0,0E0,0E0,0E0,0E0,0E0,0E0,0E0,0E0,0E0,0E0,0E0,0E0,0E0],"parents":[2147483647,0,0,1,1,2,2,3,3,4,4,5,5,6,6,8,8,9,9,10,10,11,11,12,12,13,13,14,14,16,16,17,17,18,18,19,19,20,20,22,22,23,23,24,24,25,25,26,26,27,27,28,28,29,29,31,31,32,32,33,33,34,34,38,38,39,39,40,40,43,43,45,45,46,46,47,47,48,48,49,49,50,50],"right_children":[2,4,6,8,10,12,14,-1,16,18,20,22,24,26,28,-1,30,32,34,36,38,-1,40,42,44,46,48,50,52,54,-1,56,58,60,62,-1,-1,-1,64,66,68,-1,-1,70,-1,72,74,76,78,80,82,-1,-1,-1,-1,-1,-1,-1,-1,-1,-1,-1,-1,-1,-1,-1,-1,-1,-1,-1,-1,-1,-1,-1,-1,-1,-1,-1,-1,-1,-1,-1,-1],"split_conditions":[2.866556E-3,-4.340068E-1,-2.4053787E-3,1.3939778E1,5.867788E-1,2.0465598E-4,8.2043536E-2,-1.2030787E-3,2.0267373E-5,2.704125E-16,4.261179E-3,9.653861E-3,-4.505742E-2,-8.306596E-2,1.292716E-1,6.513439E-3,-1.0124537E-18,1.3720102E1,5.8947835E-2,1.9762201E1,-1.07529365E-1,5.99767E-3,4.0130064E-5,2.4201438E-2,1.840232E-1,1.6077353E-2,8.4911734E-2,4.8933406E-3,7.0367835E-4,-8.1415296E-2,-1.1532903E-4,9.969006E0,1.2481001E-22,1.3654143E-1,-1.408116E-3,5.0265226E-3,-2.747178E-5,2.722156E-3,-1.6271855E0,1.6245562E-4,3.067083E-2,3.0551553E-3,-2.6720166E-4,2.6283466E-4,4.4495095E-3,3.5638355E-2,1.4940077E-3,1.3694964E1,-6.894474E-1,1.5246443E-4,-1.1512876E-1,5.884677E-3,-1.2666067E-5,4.5419703E-3,4.8490684E-3,2.1265806E-3,-2.1002175E-2,7.8045093E-3,3.4191243E-3,-2.690084E-2,4.31212E-3,9.103615E-3,-1.0836964E-3,2.796507E-3,2.8652549E-3,7.288074E-4,-1.18970875E-5,3.752878E-3,-3.1811E-5,7.774102E-4,2.9568553E-3,3.795055E-3,1.0788739E-3,1.2752973E-3,5.7724356E-3,-2.3254394E-4,9.499931E-4,-4.1104663E-6,4.71962E-3,8.772503E-4,-5.4681303E-5,4.8368457E-3,5.2134083E-3],"split_indices":[17,10,27,3,9,41,30,0,29,45,23,4,4,32,43,0,20,0,42,2,4,0,35,1,13,37,33,19,34,4,0,3,47,46,24,0,0,0,12,41,4,0,0,28,0,5,41,2,6,28,22,0,0,0,0,0,0,0,0,0,0,0,0,0,0,0,0,0,0,0,0,0,0,0,0,0,0,0,0,0,0,0,0],"split_type":[0,0,0,0,0,0,0,0,0,0,0,0,0,0,0,0,0,0,0,0,0,0,0,0,0,0,0,0,0,0,0,0,0,0,0,0,0,0,0,0,0,0,0,0,0,0,0,0,0,0,0,0,0,0,0,0,0,0,0,0,0,0,0,0,0,0,0,0,0,0,0,0,0,0,0,0,0,0,0,0,0,0,0],"sum_hessian":[1.9096E4,1.6167E4,2.929E3,8.5E1,1.6082E4,1.058E3,1.871E3,2.2E1,6.3E1,1.6037E4,4.5E1,7E2,3.58E2,1.722E3,1.49E2,1.5E1,4.8E1,1.919E3,1.4118E4,2.1E1,2.4E1,5.07E2,1.93E2,4.5E1,3.13E2,2.77E2,1.445E3,1.36E2,1.3E1,4.4E1,4E0,1.546E3,3.73E2,1.4079E4,3.9E1,2E1,1E0,5E0,1.9E1,1.14E2,7.9E1,3.9E1,6E0,2.88E2,2.5E1,6.2E1,2.15E2,1.283E3,1.62E2,3.5E1,1.01E2,4E0,9E0,1.3E1,3.1E1,1.61E2,1.385E3,1.22E2,2.51E2,1.3893E4,1.86E2,1.5E1,2.4E1,1.4E1,5E0,1.02E2,1.2E1,2.7E1,5.2E1,2.05E2,8.3E1,5.8E1,4E0,1.34E2,8.1E1,5.45E2,7.38E2,5.7E1,1.05E2,2.7E1,8E0,8E0,9.3E1],"tree_param":{"num_deleted":"0","num_feature":"48","num_nodes":"83","size_leaf_vector":"1"}},{"base_weights":[-1.8044744E-2,-7.995425E-2,3.235836E-1,-8.228094E-2,3.9493668E-1,6.035883E-1,1.6501066E-1,-9.244133E-2,1.4819648E-2,5.516666E-1,-9.5000025E-3,8.2435125E-1,4.0465114E-1,1.2466626E-1,6.273333E-1,-1.0788016E-2,-9.888159E-2,-9.191832E-2,3.1524998E-1,6.5192306E-1,-8.888892E-3,8.976316E-2,5.8934426E-1,5.335897E-1,1.0647056E-1,1.0083795E-3,1.897254E-1,6.666666E-1,9.999978E-3,3.0660376E-1,-4.5785666E-2,7.5E-2,-9.925165E-2,7.575734E-3,-9.802076E-2,-9.894739E-3,4.4281045E-1,7.1458334E-1,-8.000002E-3,8.233766E-1,1.8478258E-1,7.1782607E-1,2.6708072E-1,6.9473684E-1,3.223682E-2,7.8549825E-2,-9.584908E-2,4.1103446E-1,1.5695429E-1,4.3555552E-1,7.670103E-1,-8.888892E-3,4.4999998E-2,1.3392855E-2,4.9019605E-2,-6.864227E-3,5.7941176E-2,6.285714E-2,-9.962196E-3,2.2272727E-2,-9.77778E-3,4.999998E-3,-9.99046E-3,4.9525544E-2,-6.0606294E-4,8.321428E-2,5.238095E-2,-6.6666687E-3,8.48E-2,-4.000002E-3,8.25E-2,8.3E-2,3.9344262E-2,1.258333E-2,6.642857E-2,7.882353E-2,-6.6666687E-3,4.222222E-2,-5.1587326E-3,2.6666643E-3,3.9148934E-2,-9.962124E-3,4.4999998E-2,3.0090908E-2,7.361111E-2,6.691174E-3,2.202422E-2,5.513513E-2,-8.888892E-3,3.749998E-3,8.2333334E-2],"categories":[],"categories_nodes":[],"categories_segments":[],"categories_sizes":[],"default_left":[0,0,0,0,0,0,0,0,0,0,0,0,0,0,0,0,0,0,0,0,0,0,0,0,0,0,0,0,0,0,0,0,0,0,0,0,0,0,0,0,0,0,0,0,0,0,0,0,0,0,0,0,0,0,0,0,0,0,0,0,0,0,0,0,0,0,0,0,0,0,0,0,0,0,0,0,0,0,0,0,0,0,0,0,0,0,0,0,0,0,0],"id":4,"left_children":[1,3,5,7,9,11,13,15,17,19,-1,21,23,25,27,29,31,33,35,37,-1,-1,39,41,43,45,47,49,51,53,55,-1,57,59,61,-1,63,65,-1,67,69,71,73,75,77,79,81,83,85,87,89,-1,-1,-1,-1,-1,-1,-1,-1,-1,-1,-1,-1,-1,-1,-1,-1,-1,-1,-1,-1,-1,-1,-1,-1,-1,-1,-1,-1,-1,-1,-1,-1,-1,-1,-1,-1,-1,-1,-1,-1],"loss_changes":[4.0392825E2,1.7896904E1,1.2999579E2,1.587542E1,6.118641E0,4.6175537E1,3.483859E1,7.6587524E0,4.893165E1,3.9111385E0,0E0,8.098877E0,2.1435051E1,1.3861475E1,3.6355972E0,1.1855129E1,4.3156586E0,6.8440056E-1,2.1177895E1,2.4420147E0,0E0,0E0,1.139888E1,1.8957527E1,7.4013686E0,4.476257E0,8.123604E0,2.9357948E0,4.7511113E-1,3.2947435E0,1.3772354E1,0E0,3.7000885E0,1.5177981E0,3.0085373E-1,0E0,7.206566E0,6.40625E-1,0E0,1.7440529E0,6.6528473E0,8.042534E0,8.949185E0,1.40516E0,4.99069E0,5.3637753E0,5.9047174E-1,4.9693813E0,5.5983887E0,2.7817898E0,3.9546776E0,0E0,0E0,0E0,0E0,0E0,0E0,0E0,0E0,0E0,0E0,0E0,0E0,0E0,0E0,0E0,0E0,0E0,0E0,0E0,0E0,0E0,0E0,0E0,0E0,0E0,0E0,0E0,0E0,0E0,0E0,0E0,0E0,0E0,0E0,0E0,0E0,0E0,0E0,0E0,0E0],"parents":[2147483647,0,0,1,1,2,2,3,3,4,4,5,5,6,6,7,7,8,8,9,9,11,11,12,12,13,13,14,14,15,15,16,16,17,17,18,18,19,19,22,22,23,23,24,24,25,25,26,26,27,27,28,28,29,29,30,30,32,32,33,33,34,34,36,36,37,37,39,39,40,40,41,41,42,42,43,43,44,44,45,45,46,46,47,47,48,48,49,49,50,50],"right_children":[2,4,6,8,10,12,14,16,18,20,-1,22,24,26,28,30,32,34,36,38,-1,-1,40,42,44,46,48,50,52,54,56,-1,58,60,62,-1,64,66,-1,68,70,72,74,76,78,80,82,84,86,88,90,-1,-1,-1,-1,-1,-1,-1,-1,-1,-1,-1,-1,-1,-1,-1,-1,-1,-1,-1,-1,-1,-1,-1,-1,-1,-1,-1,-1,-1,-1,-1,-1,-1,-1,-1,-1,-1,-1,-1,-1],"split_conditions":[2.866556E-3,2.405459E-1,-2.4053787E-3,-1.2980957E-18,-5.8744155E-2,3.3320629E-3,8.2043536E-2,2.704125E-16,1.3720102E1,8.083795E-2,-8.978895E-5,7.0341974E-3,2.2985982E-2,1.3694964E1,3.011246E-3,-1.21029474E-1,-7.760717E-2,-1.0705283E-3,-2.1841678E-19,1.9849578E-2,-4.0174127E-4,5.4976405E-3,4.0130064E-5,3.4147562E-4,1.9815397E-3,9.959972E0,-1.4872807E-1,5.2775362E-5,6.3119695E-2,2.7654588E-3,1.0236939E0,8.850152E-3,-5.868544E-1,2.7032097E-6,6.548022E-19,-2.1619199E-2,-2.3790287E-18,-7.925695E-2,-8.126497E-4,3.765979E-2,3.043257E-3,5.0489396E-2,3.2072535E0,1.7821672E1,4.756281E-5,9.970265E0,3.362492E0,-2.358552E-3,-4.9808854E-3,1.5246443E-4,-1.1512876E-1,-1.1396408E-5,3.7150742E-3,1.3407763E-3,3.2671902E-3,-1.5914423E-2,4.4941497E-3,4.5170425E-3,-2.4251066E-2,1.09549705E-2,-3.3703964E-2,1.7489123E-3,-2.3001557E-2,7.1065533E-3,3.4720493E-3,4.5026345E-3,4.7055753E-3,-3.6998987E-4,6.610751E-4,-2.0658983E-5,2.998879E-3,3.1366765E-3,2.572612E-3,2.0460242E-3,3.4722313E-3,3.1130777E-3,-6.7830088E-6,2.437597E-4,-7.969737E-5,5.2911293E-4,2.6365432E-3,-2.6552568E-4,3.4133196E-4,3.2978826E-3,6.633857E-3,6.769796E-4,1.4610965E-3,6.245904E-4,-4.9215556E-5,4.3531596E-3,4.786593E-3],"split_indices":[17,7,27,44,4,11,30,45,0,43,0,4,4,2,41,44,32,27,38,5,0,0,35,41,5,0,44,25,1,5,12,0,8,25,13,0,8,4,0,5,31,19,14,2,47,3,14,26,22,28,22,0,0,0,0,0,0,0,0,0,0,0,0,0,0,0,0,0,0,0,0,0,0,0,0,0,0,0,0,0,0,0,0,0,0,0,0,0,0,0,0],"split_type":[0,0,0,0,0,0,0,0,0,0,0,0,0,0,0,0,0,0,0,0,0,0,0,0,0,0,0,0,0,0,0,0,0,0,0,0,0,0,0,0,0,0,0,0,0,0,0,0,0,0,0,0,0,0,0,0,0,0,0,0,0,0,0,0,0,0,0,0,0,0,0,0,0,0,0,0,0,0,0,0,0,0,0,0,0,0,0,0,0,0,0],"sum_hessian":[1.9096E4,1.6167E4,2.929E3,1.6089E4,7.8E1,1.058E3,1.871E3,1.4565E4,1.524E3,5.9E1,1.9E1,5E2,5.58E2,1.722E3,1.49E2,1.065E3,1.35E4,1.125E3,3.99E2,5.1E1,8E0,3.79E2,1.21E2,3.89E2,1.69E2,5.94E2,1.128E3,1.4E2,9E0,1.05E2,9.6E2,5E0,1.3495E4,6.5E1,1.06E3,9.4E1,3.05E2,4.7E1,4E0,7.6E1,4.5E1,2.29E2,1.6E2,1.8E1,1.51E2,3.3E2,2.64E2,1.44E2,9.84E2,4.4E1,9.6E1,8E0,1E0,5.5E1,5E1,9.27E2,3.3E1,6E0,1.3489E4,2.1E1,4.4E1,1.3E1,1.047E3,2.73E2,3.2E1,2.7E1,2E1,2E0,7.4E1,3.4E1,1.1E1,1.69E2,6E1,1.19E2,4.1E1,1.6E1,2E0,2.6E1,1.25E2,2.84E2,4.6E1,2.63E2,1E0,1.09E2,3.5E1,4.07E2,5.77E2,3.6E1,8E0,7E0,8.9E1],"tree_param":{"num_deleted":"0","num_feature":"48","num_nodes":"91","size_leaf_vector":"1"}},{"base_weights":[-2.244334E-2,-7.954701E-2,3.1516466E-1,-8.215321E-2,4.4444442E-1,6.399761E-1,1.7367598E-1,3.5268813E-1,-8.465015E-2,7.3749995E-1,3.1551722E-1,7.832203E-1,2.9799193E-1,1.2779678E-1,6.3199997E-1,2.4799998E-1,7.473684E-1,-9.54853E-2,-6.3581113E-3,8.5499994E-2,1.1999998E-1,4.6666664E-1,4.9999775E-3,8.4934086E-1,1.8499997E-1,5.6752133E-1,5.8646593E-2,6.805555E-1,1.16132766E-1,6.6566265E-1,9.999978E-3,4.133333E-1,-2.3072765E-8,-6.6666687E-3,8.470588E-2,-2.1349886E-2,-9.9473044E-2,-7.636366E-2,2.0933607E-1,4.4999998E-2,-7.5000017E-3,2.6399997E-1,7.733333E-1,6E-2,-9.444447E-3,2.944444E-1,8.671206E-1,-8.888912E-3,7.1875E-1,8.168675E-1,-4.000002E-2,6.583333E-1,-8.1969576E-4,8.296296E-1,2.0999998E-1,3.0138245E-1,8.9273795E-2,-8.750002E-3,6.9937104E-1,-8.888892E-3,4.4999998E-2,6.2399995E-2,1.42857125E-2,4.25E-2,-6.071431E-3,2.1233765E-2,-8.411869E-3,2.6666665E-2,-9.95472E-3,2.088351E-3,-9.587715E-3,-7.2282637E-3,3.819398E-2,5.1E-2,9.374998E-3,8.357143E-2,-5.0000013E-3,-9.090912E-3,7.875E-2,-8.000002E-3,8.747058E-2,6E-2,-5.1162816E-3,-6.6666687E-3,8.357143E-2,-6.6666687E-3,8.395062E-2,-9.696973E-3,6E-2,-6.6666687E-3,8.1E-2,2.8571427E-2,-5.9803943E-3,8.653846E-2,-5.0000013E-3,-8.333336E-3,5.1999997E-2,8.608695E-2,2.3384614E-2,6.170693E-3,2.938202E-2,4.949152E-2,8.118812E-2],"categories":[],"categories_nodes":[],"categories_segments":[],"categories_sizes":[],"default_left":[0,0,0,0,0,0,0,0,0,0,0,0,0,0,0,0,0,0,0,0,0,0,0,0,0,0,0,0,0,0,0,0,0,0,0,0,0,0,0,0,0,0,0,0,0,0,0,0,0,0,0,0,0,0,0,0,0,0,0,0,0,0,0,0,0,0,0,0,0,0,0,0,0,0,0,0,0,0,0,0,0,0,0,0,0,0,0,0,0,0,0,0,0,0,0,0,0,0,0,0,0,0,0],"id":5,"left_children":[1,3,5,7,9,11,13,15,17,19,21,23,25,27,29,31,33,35,37,-1,39,41,43,45,47,49,51,53,55,57,59,61,63,-1,-1,65,67,69,71,-1,-1,73,75,-1,-1,77,79,81,83,85,87,89,91,93,95,97,99,-1,101,-1,-1,-1,-1,-1,-1,-1,-1,-1,-1,-1,-1,-1,-1,-1,-1,-1,-1,-1,-1,-1,-1,-1,-1,-1,-1,-1,-1,-1,-1,-1,-1,-1,-1,-1,-1,-1,-1,-1,-1,-1,-1,-1,-1],"loss_changes":[3.681895E2,2.2344017E1,1.2686841E2,1.7679108E1,2.827715E0,4.0817932E1,4.0418278E1,3.657259E0,1.3710579E1,1.6387491E0,2.7198668E0,2.3180115E1,1.6029858E1,1.1216782E1,3.657524E0,3.0752E0,1.5983486E0,4.1952515E0,2.9702173E1,0E0,3.5549998E-1,2.2197342E0,1.2400556E0,4.98349E0,6.21568E0,1.7756199E1,4.7434716E0,2.3510933E0,8.516228E0,4.275589E0,4.7511113E-1,2.4749722E0,8.2571435E-1,0E0,0E0,1.0667039E1,3.923645E-1,2.8199835E0,2.3456873E1,0E0,0E0,9.9922514E-1,8.1219006E-1,0E0,0E0,3.4916034E0,3.7626343E0,1.1890026E0,1.5255661E0,1.7161331E0,1.334303E0,1.3734999E0,2.0790076E0,8.9245033E-1,9.5266664E-1,7.998188E0,8.445564E0,0E0,3.2557144E0,0E0,0E0,0E0,0E0,0E0,0E0,0E0,0E0,0E0,0E0,0E0,0E0,0E0,0E0,0E0,0E0,0E0,0E0,0E0,0E0,0E0,0E0,0E0,0E0,0E0,0E0,0E0,0E0,0E0,0E0,0E0,0E0,0E0,0E0,0E0,0E0,0E0,0E0,0E0,0E0,0E0,0E0,0E0,0E0],"parents":[2147483647,0,0,1,1,2,2,3,3,4,4,5,5,6,6,7,7,8,8,9,9,10,10,11,11,12,12,13,13,14,14,15,15,16,16,17,17,18,18,20,20,21,21,22,22,23,23,24,24,25,25,26,26,27,27,28,28,29,29,30,30,31,31,32,32,35,35,36,36,37,37,38,38,41,41,42,42,45,45,46,46,47,47,48,48,49,49,50,50,51,51,52,52,53,53,54,54,55,55,56,56,58,58],"right_children":[2,4,6,8,10,12,14,16,18,20,22,24,26,28,30,32,34,36,38,-1,40,42,44,46,48,50,52,54,56,58,60,62,64,-1,-1,66,68,70,72,-1,-1,74,76,-1,-1,78,80,82,84,86,88,90,92,94,96,98,100,-1,102,-1,-1,-1,-1,-1,-1,-1,-1,-1,-1,-1,-1,-1,-1,-1,-1,-1,-1,-1,-1,-1,-1,-1,-1,-1,-1,-1,-1,-1,-1,-1,-1,-1,-1,-1,-1,-1,-1,-1,-1,-1,-1,-1,-1],"split_conditions":[1.3278319E-1,5.867788E-1,-2.6036813E-3,-6.170675E-1,-8.5645854E-2,1.6104233E-2,8.2043536E-2,8.6102076E-2,-3.983411E-16,4.9184803E-2,-5.4934045E-4,8.5272745E-4,1.2573105E-4,8.4987795E-4,3.011246E-3,-5.4934045E-4,-8.4135723E-1,7.709377E-19,1.3720102E1,4.57288E-3,1.1988617E-1,-1.1301016E-5,5.545562E-2,1.5819241E1,-7.913872E-5,4.0130064E-5,1.2505094E-5,2.5099276E-3,-8.457878E-2,3.4886685E-1,6.3119695E-2,-1.7642261E-3,2.8367084E-3,-2.3368001E-4,5.196584E-3,-1.3433764E-3,-7.760717E-2,1.441623E-18,-2.1841678E-19,4.993081E-4,-6.1035157E-6,-9.3176045E-2,3.9683867E-2,1.3915062E-3,-2.5441652E-5,1.801161E-1,-4.337706E-4,1.78406E1,1.7845572E1,3.765979E-2,2.961858E-2,1.6881999E-2,1.6811048E-3,-7.5418175E-5,2.9154222E-2,9.975409E-3,8.4911734E-2,-3.0020476E-4,4.0130064E-5,-1.025796E-5,3.3435642E-3,3.0004855E-3,1.5482971E-3,2.0464899E-3,-2.6681437E-5,3.0208905E-3,-2.0034997E-2,7.965135E-3,-2.1826921E-2,1.3838853E-3,-2.0661047E-2,-1.9227458E-2,6.4375955E-3,2.1188557E-3,2.09784E-3,3.4698606E-3,-1.2357355E-3,-6.286025E-4,4.984725E-3,-1.9321442E-4,4.84814E-3,1.3442219E-3,-3.4484998E-4,-1.2750983E-3,2.7805015E-3,-3.3299328E-4,5.949551E-4,-4.4339897E-5,4.092932E-4,-6.95169E-4,2.6681542E-3,1.116192E-4,-6.761314E-5,3.0102776E-3,-8.8757275E-5,-1.2531877E-4,3.051895E-3,3.1891768E-3,3.2312032E-3,5.0958496E-4,3.5966404E-3,8.865594E-4,4.304634E-3],"split_indices":[13,9,27,8,32,4,30,33,44,22,4,47,41,23,41,4,6,45,0,0,13,28,6,2,28,35,29,11,32,20,1,27,23,0,0,26,32,13,38,0,0,4,5,0,0,13,28,0,0,5,19,4,43,28,19,37,33,0,35,0,0,0,0,0,0,0,0,0,0,0,0,0,0,0,0,0,0,0,0,0,0,0,0,0,0,0,0,0,0,0,0,0,0,0,0,0,0,0,0,0,0,0,0],"split_type":[0,0,0,0,0,0,0,0,0,0,0,0,0,0,0,0,0,0,0,0,0,0,0,0,0,0,0,0,0,0,0,0,0,0,0,0,0,0,0,0,0,0,0,0,0,0,0,0,0,0,0,0,0,0,0,0,0,0,0,0,0,0,0,0,0,0,0,0,0,0,0,0,0,0,0,0,0,0,0,0,0,0,0,0,0,0,0,0,0,0,0,0,0,0,0,0,0,0,0,0,0,0,0],"sum_hessian":[1.9096E4,1.6334E4,2.762E3,1.6254E4,8E1,8.37E2,1.925E3,9.2E1,1.6162E4,2.3E1,5.7E1,5.89E2,2.48E2,1.751E3,1.74E2,7.4E1,1.8E1,1.4197E4,1.965E3,1.9E1,4E0,3.8E1,1.9E1,5.3E2,5.9E1,1.16E2,1.32E2,3.5E1,1.716E3,1.65E2,9E0,4.4E1,3E1,2E0,1.6E1,7.25E2,1.3472E4,1.484E3,4.81E2,1E0,3E0,2.4E1,1.4E1,2E0,1.7E1,1.7E1,5.13E2,4.4E1,1.5E1,8.2E1,3.4E1,1.1E1,1.21E2,2.6E1,9E0,2.16E2,1.5E3,7E0,1.58E2,8E0,1E0,2.4E1,2E1,3E0,2.7E1,1.53E2,5.72E2,2E0,1.347E4,2.48E2,1.236E3,1.83E2,2.98E2,9E0,1.5E1,1.3E1,1E0,1E1,7E0,4E0,5.09E2,2E0,4.2E1,2E0,1.3E1,2E0,8E1,3.2E1,2E0,2E0,9E0,2E1,1.01E2,2.5E1,1E0,5E0,4E0,2.2E1,1.94E2,1.323E3,1.77E2,5.8E1,1E2],"tree_param":{"num_deleted":"0","num_feature":"48","num_nodes":"103","size_leaf_vector":"1"}},{"base_weights":[-2.7365578E-2,-7.98531E-2,2.829533E-1,-8.221473E-2,3.950617E-1,6.1327076E-1,1.6070364E-1,-8.4938996E-2,3.0086955E-1,7.3749995E-1,2.465517E-1,7.5899416E-1,2.8304344E-1,1.1237621E-1,5.970149E-1,-8.095509E-3,-9.5350005E-2,-6.071431E-2,4.1249996E-1,8.5499994E-2,1.1999998E-1,4.0263155E-1,-4.761907E-2,7.9675454E-1,-1.6000023E-2,5.333333E-1,2.3684187E-2,3.1300446E-1,8.427316E-2,2.6666665E-1,6.5798813E-1,-4.1456446E-2,3.0815214E-1,-9.9183664E-2,-1.0985484E-2,2.6666665E-1,-9.615387E-3,3.0724636E-1,7.55E-1,4.4999998E-2,-7.5000017E-3,6.55E-1,1.1578945E-1,-9.5000025E-3,4.4999998E-2,8.3995533E-1,3.5869563E-1,6E-2,-9.56522E-3,7.686747E-1,-4.000002E-2,7.2E-2,-8.181842E-3,7.5409836E-1,1.4601225E-1,6.8845876E-2,3.1938773E-1,6.1176467E-1,-9.411767E-3,7.492424E-1,3.236842E-1,2.9577464E-2,-5.573479E-3,5.51E-2,1.8823507E-3,2.6666665E-2,-9.925711E-3,-8.136534E-3,4.7820512E-2,-5.0000013E-3,4.4999998E-2,4.4375E-2,-4.5454773E-4,-6.6666687E-3,8.5E-2,6.9473684E-2,-5.0000013E-3,6E-2,2.352939E-3,3.3913042E-2,8.650234E-2,1.970588E-2,7.538461E-2,2.7272725E-2,8.328767E-2,-9.696973E-3,6E-2,1.7931033E-2,-7.439027E-3,8.140351E-2,-8.000002E-3,6.5068468E-3,7.9444446E-2,3.260274E-2,5.5641183E-3,7.7192965E-3,6.404762E-2,8.1818186E-2,1.9999998E-2,1.1999998E-2,7.6796874E-2,7.0833312E-3,7.066666E-2],"categories":[],"categories_nodes":[],"categories_segments":[],"categories_sizes":[],"default_left":[0,0,0,0,0,0,0,0,0,0,0,0,0,0,0,0,0,0,0,0,0,0,0,0,0,0,0,0,0,0,0,0,0,0,0,0,0,0,0,0,0,0,0,0,0,0,0,0,0,0,0,0,0,0,0,0,0,0,0,0,0,0,0,0,0,0,0,0,0,0,0,0,0,0,0,0,0,0,0,0,0,0,0,0,0,0,0,0,0,0,0,0,0,0,0,0,0,0,0,0,0,0,0],"id":6,"left_children":[1,3,5,7,9,11,13,15,17,19,21,23,25,27,29,31,33,35,37,-1,39,41,43,45,47,49,51,53,55,57,59,61,63,65,67,69,-1,71,73,-1,-1,75,77,-1,-1,79,81,-1,-1,83,85,-1,87,89,91,93,95,97,-1,99,101,-1,-1,-1,-1,-1,-1,-1,-1,-1,-1,-1,-1,-1,-1,-1,-1,-1,-1,-1,-1,-1,-1,-1,-1,-1,-1,-1,-1,-1,-1,-1,-1,-1,-1,-1,-1,-1,-1,-1,-1,-1,-1],"loss_changes":[3.1107202E2,1.8353355E1,1.1147467E2,1.6989693E1,3.9374638E0,3.5684082E1,4.248406E1,1.2912323E1,4.6668777E0,1.6387491E0,2.682192E0,1.5142273E1,1.4917818E1,1.02239895E1,3.8731613E0,2.0343239E1,4.596405E0,3.5050368E-1,2.9403734E0,0E0,3.5549998E-1,2.6749744E0,5.3788096E-1,9.028503E0,1.2840348E0,1.5817444E1,2.5354164E0,1.6315903E1,5.7669897E0,4.1662745E0,4.913101E0,8.4140215E0,1.291799E1,3.9178467E-1,2.1350561E1,1.9666666E-1,0E0,2.9387064E0,1.6178331E0,0E0,0E0,5.95026E-1,8.3467484E-1,0E0,0E0,5.3311462E0,2.7895083E0,0E0,0E0,2.415638E0,1.334303E0,0E0,1.3788307E0,3.114708E0,8.503613E0,5.072467E0,7.571621E0,1.2812829E0,0E0,1.4632568E0,3.629768E0,0E0,0E0,0E0,0E0,0E0,0E0,0E0,0E0,0E0,0E0,0E0,0E0,0E0,0E0,0E0,0E0,0E0,0E0,0E0,0E0,0E0,0E0,0E0,0E0,0E0,0E0,0E0,0E0,0E0,0E0,0E0,0E0,0E0,0E0,0E0,0E0,0E0,0E0,0E0,0E0,0E0,0E0],"parents":[2147483647,0,0,1,1,2,2,3,3,4,4,5,5,6,6,7,7,8,8,9,9,10,10,11,11,12,12,13,13,14,14,15,15,16,16,17,17,18,18,20,20,21,21,22,22,23,23,24,24,25,25,26,26,27,27,28,28,29,29,30,30,31,31,32,32,33,33,34,34,35,35,37,37,38,38,41,41,42,42,45,45,46,46,49,49,50,50,52,52,53,53,54,54,55,55,56,56,57,57,59,59,60,60],"right_children":[2,4,6,8,10,12,14,16,18,20,22,24,26,28,30,32,34,36,38,-1,40,42,44,46,48,50,52,54,56,58,60,62,64,66,68,70,-1,72,74,-1,-1,76,78,-1,-1,80,82,-1,-1,84,86,-1,88,90,92,94,96,98,-1,100,102,-1,-1,-1,-1,-1,-1,-1,-1,-1,-1,-1,-1,-1,-1,-1,-1,-1,-1,-1,-1,-1,-1,-1,-1,-1,-1,-1,-1,-1,-1,-1,-1,-1,-1,-1,-1,-1,-1,-1,-1,-1,-1],"split_conditions":[1.3278319E-1,5.867788E-1,-2.683517E-3,7.7430464E-2,-8.5645854E-2,2.216091E-2,8.2043536E-2,2.704125E-16,-9.515803E-2,4.9184803E-2,-4.1188453E-3,5.600861E-2,1.2573105E-4,2.2162097E-3,4.549663E-3,1.58683815E1,-9.066465E-20,2.0057034E-2,8.6102076E-2,4.115593E-3,1.1988617E-1,2.1012448E-1,4.672321E-2,4.226741E-3,1.78406E1,4.0130064E-5,1.9815397E-3,-8.3813846E-2,8.5953064E-2,2.084861E-2,2.3838709E-4,-1.06287755E-1,1.8340622E-19,-6.338077E-1,1.1940985E-1,1.3925453E1,-6.312443E-4,5.41265E-2,-8.4135723E-1,4.4937732E-4,-5.4955485E-6,3.9683867E-2,-1.07529365E-1,-1.3202435E-5,1.2523532E-3,-3.4888668E-4,2.573861E-3,1.2098014E-3,-3.1036267E-4,1.3391929E-3,2.961858E-2,2.40134E-3,1.8313993E-5,6.543927E-2,7.387061E-2,-8.608245E-2,-3.4073223E-3,-6.2022495E-1,-3.7099137E-5,3.251969E-5,8.423573E-2,2.609892E-3,-1.0189774E-2,5.957317E-3,1.3838246E-3,7.05868E-4,-1.9654734E-2,-2.068714E-2,6.288653E-3,-8.462072E-5,5.103767E-4,2.1229994E-3,2.749514E-3,-2.1030904E-4,4.621645E-3,2.7272932E-3,-1.1121631E-3,1.7877877E-3,1.8232971E-3,1.8738763E-3,4.448396E-3,1.8353462E-4,3.0027644E-3,1.762271E-4,5.3547026E-4,-3.990531E-5,3.6836267E-4,5.0225215E-5,-5.9825183E-5,2.7571123E-3,-1.0847986E-3,6.370485E-4,2.753644E-3,4.06228E-3,4.8804274E-4,8.791416E-4,4.2555253E-3,4.0060426E-3,2.7516484E-4,3.785789E-4,3.543072E-3,3.9732215E-4,4.458061E-3],"split_indices":[13,9,27,33,32,4,30,45,44,22,4,19,41,23,19,2,44,1,33,0,13,19,1,17,0,35,5,32,33,7,25,44,39,8,45,0,0,46,6,0,0,5,4,0,0,28,43,0,0,37,19,0,35,19,32,32,26,6,0,25,30,0,0,0,0,0,0,0,0,0,0,0,0,0,0,0,0,0,0,0,0,0,0,0,0,0,0,0,0,0,0,0,0,0,0,0,0,0,0,0,0,0,0],"split_type":[0,0,0,0,0,0,0,0,0,0,0,0,0,0,0,0,0,0,0,0,0,0,0,0,0,0,0,0,0,0,0,0,0,0,0,0,0,0,0,0,0,0,0,0,0,0,0,0,0,0,0,0,0,0,0,0,0,0,0,0,0,0,0,0,0,0,0,0,0,0,0,0,0,0,0,0,0,0,0,0,0,0,0,0,0,0,0,0,0,0,0,0,0,0,0,0,0,0,0,0,0,0,0],"sum_hessian":[1.9096E4,1.6334E4,2.762E3,1.6254E4,8E1,7.45E2,2.017E3,1.614E4,1.14E2,2.3E1,5.7E1,5.16E2,2.29E2,1.817E3,2E2,1.926E3,1.4214E4,2.7E1,8.7E1,1.9E1,4E0,3.7E1,2E1,4.92E2,2.4E1,1.16E2,1.13E2,2.22E2,1.595E3,3.2E1,1.68E2,1.743E3,1.83E2,1.3596E4,6.18E2,2E0,2.5E1,6.8E1,1.9E1,1E0,3E0,1.9E1,1.8E1,1.9E1,1E0,4.47E2,4.5E1,2E0,2.2E1,8.2E1,3.4E1,4E0,1.09E2,6E1,1.62E2,1.498E3,9.7E1,1.6E1,1.6E1,1.31E2,3.7E1,7E1,1.673E3,9.9E1,8.4E1,2E0,1.3594E4,5.41E2,7.7E1,1E0,1E0,4.7E1,2.1E1,2E0,1.7E1,1.8E1,1E0,2E0,1.6E1,2.2E1,4.25E2,3.3E1,1.2E1,1E1,7.2E1,3.2E1,2E0,2.8E1,8.1E1,5.6E1,4E0,1.45E2,1.7E1,7.2E1,1.426E3,5.6E1,4.1E1,1E1,6E0,4E0,1.27E2,2.3E1,1.4E1],"tree_param":{"num_deleted":"0","num_feature":"48","num_nodes":"103","size_leaf_vector":"1"}},{"base_weights":[-3.108344E-2,-7.91797E-2,2.532754E-1,-8.1353456E-2,3.5802466E-1,6.762548E-1,1.5560995E-1,-2.4377832E-3,-9.19668E-2,7.3749995E-1,1.9482756E-1,8.502941E-1,3.4189942E-1,1.1728946E-1,4.7541663E-1,-5.041803E-2,1.970588E-1,3.1413043E-1,-9.4584554E-2,8.5499994E-2,1.1999998E-1,5.9999996E-1,7.608693E-2,1.7333332E-1,8.788343E-1,6.7764705E-1,3.7894715E-2,3.220447E-1,7.941001E-2,3.0071425E-1,7.1287125E-1,1.9053252E-1,-7.974047E-2,2.9887214E-1,-5.3211033E-2,2.1216214E-1,6.9473684E-1,-9.761392E-2,2.0491779E-2,4.4999998E-2,-7.5000017E-3,1.1999998E-1,8E-2,6.7499995E-2,1.8604629E-2,7.2E-2,-9.090912E-3,-8.000002E-3,8.909938E-1,7.813333E-1,-9.090912E-3,-7.042256E-2,3.4399998E-1,1.6135263E-1,6.2990654E-1,6.6102736E-2,2.9099998E-1,5.681818E-1,6.133331E-2,2.3809521E-1,8.271605E-2,5.7903226E-2,-3.4259283E-3,-9.422767E-3,3.354428E-3,3.366255E-2,-9.583335E-3,-9.871798E-3,5.9374976E-3,3.547619E-2,2.42424E-3,-7.5000017E-3,8.4375E-2,-9.782878E-3,2.0999998E-2,-8.581317E-3,4.1410256E-2,4.4999998E-2,-7.5000017E-3,-4.3243268E-3,3.4285713E-2,8.971875E-2,-6.6666687E-3,2.7272725E-2,8.553846E-2,1.9999998E-2,-9.846156E-3,3.999998E-3,7.272727E-2,-5.56522E-3,4.27957E-2,7.3452376E-2,2.3749998E-2,1.444041E-3,1.2206264E-2,8.813557E-3,5.690476E-2,1.5624997E-2,6.862745E-2,-9.714289E-3,1.9512193E-2,5.454545E-2,-9.090912E-3],"categories":[],"categories_nodes":[],"categories_segments":[],"categories_sizes":[],"default_left":[0,0,0,0,0,0,0,0,0,0,0,0,0,0,0,0,0,0,0,0,0,0,0,0,0,0,0,0,0,0,0,0,0,0,0,0,0,0,0,0,0,0,0,0,0,0,0,0,0,0,0,0,0,0,0,0,0,0,0,0,0,0,0,0,0,0,0,0,0,0,0,0,0,0,0,0,0,0,0,0,0,0,0,0,0,0,0,0,0,0,0,0,0,0,0,0,0,0,0,0,0,0,0],"id":7,"left_children":[1,3,5,7,9,11,13,15,17,19,21,23,25,27,29,31,33,35,37,-1,39,41,43,45,47,49,51,53,55,57,59,61,63,65,67,69,71,73,75,-1,-1,77,-1,-1,79,-1,-1,-1,81,83,-1,85,87,89,91,93,95,97,99,101,-1,-1,-1,-1,-1,-1,-1,-1,-1,-1,-1,-1,-1,-1,-1,-1,-1,-1,-1,-1,-1,-1,-1,-1,-1,-1,-1,-1,-1,-1,-1,-1,-1,-1,-1,-1,-1,-1,-1,-1,-1,-1,-1],"loss_changes":[2.6120203E2,1.555349E1,1.140356E2,1.3614319E1,4.8725863E0,2.9852219E1,2.7469303E1,1.846455E1,1.5261276E1,1.6387491E0,2.7447526E0,6.416687E0,1.8244646E1,1.5540754E1,9.74176E0,1.1001669E1,9.545727E0,3.4231024E0,4.9651337E0,0E0,3.5549998E-1,1.152E0,1.5710793E0,2.2322426E0,3.8720856E0,6.84457E0,3.1740918E0,1.5382774E1,4.753351E0,8.92888E0,5.283493E0,1.4778869E1,2.2794752E0,3.996048E0,5.6431687E-1,1.9744003E0,2.2425985E0,9.373627E-1,1.5349991E1,0E0,0E0,3.5549998E-1,0E0,0E0,8.771626E-1,0E0,0E0,0E0,1.9697418E0,2.5914345E0,0E0,5.580412E-1,2.883782E0,1.1999683E1,4.2181625E0,4.6123037E0,5.5904427E0,3.1034145E0,1.609128E0,2.17316E0,0E0,0E0,0E0,0E0,0E0,0E0,0E0,0E0,0E0,0E0,0E0,0E0,0E0,0E0,0E0,0E0,0E0,0E0,0E0,0E0,0E0,0E0,0E0,0E0,0E0,0E0,0E0,0E0,0E0,0E0,0E0,0E0,0E0,0E0,0E0,0E0,0E0,0E0,0E0,0E0,0E0,0E0,0E0],"parents":[2147483647,0,0,1,1,2,2,3,3,4,4,5,5,6,6,7,7,8,8,9,9,10,10,11,11,12,12,13,13,14,14,15,15,16,16,17,17,18,18,20,20,21,21,22,22,23,23,24,24,25,25,26,26,27,27,28,28,29,29,30,30,31,31,32,32,33,33,34,34,35,35,36,36,37,37,38,38,41,41,44,44,48,48,49,49,51,51,52,52,53,53,54,54,55,55,56,56,57,57,58,58,59,59],"right_children":[2,4,6,8,10,12,14,16,18,20,22,24,26,28,30,32,34,36,38,-1,40,42,44,46,48,50,52,54,56,58,60,62,64,66,68,70,72,74,76,-1,-1,78,-1,-1,80,-1,-1,-1,82,84,-1,86,88,90,92,94,96,98,100,102,-1,-1,-1,-1,-1,-1,-1,-1,-1,-1,-1,-1,-1,-1,-1,-1,-1,-1,-1,-1,-1,-1,-1,-1,-1,-1,-1,-1,-1,-1,-1,-1,-1,-1,-1,-1,-1,-1,-1,-1,-1,-1,-1],"split_conditions":[1.3278319E-1,5.867788E-1,-3.0067584E-3,2.704125E-16,-8.5645854E-2,1.3939961E-2,8.2043536E-2,1.3894694E1,-5.868544E-1,4.9184803E-2,1.8336801E-3,-4.191621E-3,1.0991136E-4,2.2162097E-3,2.683177E-5,9.969006E0,2.0968166E-19,8.6102076E-2,9.891817E-2,3.704035E-3,1.1988617E-1,2.743979E-5,-1.285928E-3,1.7845572E1,1.0128913E-3,4.0130064E-5,3.5337567E-2,4.77524E-1,8.5953064E-2,-7.756696E-4,5.38607E-6,1.2728295E-18,1.418772E-18,-2.3790287E-18,1.8255537E-18,-4.1188453E-3,-8.6269066E-2,1.0511732E-1,3.356069E-1,4.0444135E-4,-4.9471855E-6,1.5498367E-2,3.0110658E-3,1.6342402E-3,-3.9435267E-1,1.0958195E-3,-2.3636819E-4,-3.3261775E-4,2.1515312E-2,1.3391929E-3,-1.8131734E-5,1.436893E-1,-3.480246E-3,1.5880704E1,4.5532633E-2,1.596635E-2,-3.4073223E-3,4.412466E-4,-5.339067E-3,7.327261E-1,3.3283655E-3,4.6470994E-3,-8.813422E-3,-1.6607288E-2,2.8918386E-3,4.460396E-3,-1.2174617E-2,-2.2399053E-2,7.0471996E-3,1.8207356E-3,4.899371E-4,-1.8928052E-4,4.2700456E-3,-1.7696023E-2,4.1182516E-3,-1.8207913E-2,7.404083E-3,2.9952527E-4,-1.1879206E-5,-5.0371887E-6,6.637335E-4,4.050124E-3,-1.336676E-3,1.5860201E-4,5.172669E-4,1.8110276E-4,-5.0765288E-5,2.861023E-7,3.31527E-4,-9.8785786E-5,2.3634916E-3,2.4050416E-3,1.6074609E-3,1.5533475E-4,8.709105E-4,8.703397E-4,3.8299717E-3,4.5357348E-4,3.428362E-3,-4.6989324E-5,1.9808463E-4,7.645273E-3,-7.518179E-5],"split_indices":[13,9,27,45,32,4,30,0,8,22,17,26,41,23,29,3,39,33,46,0,13,29,28,0,1,35,4,6,33,44,44,9,45,8,6,4,22,40,12,0,0,1,0,0,20,0,0,0,1,37,0,13,24,0,22,23,26,31,22,16,0,0,0,0,0,0,0,0,0,0,0,0,0,0,0,0,0,0,0,0,0,0,0,0,0,0,0,0,0,0,0,0,0,0,0,0,0,0,0,0,0,0,0],"split_type":[0,0,0,0,0,0,0,0,0,0,0,0,0,0,0,0,0,0,0,0,0,0,0,0,0,0,0,0,0,0,0,0,0,0,0,0,0,0,0,0,0,0,0,0,0,0,0,0,0,0,0,0,0,0,0,0,0,0,0,0,0,0,0,0,0,0,0,0,0,0,0,0,0,0,0,0,0,0,0,0,0,0,0,0,0,0,0,0,0,0,0,0,0,0,0,0,0,0,0,0,0,0,0],"sum_hessian":[1.9096E4,1.6334E4,2.762E3,1.6254E4,8E1,5.17E2,2.245E3,1.927E3,1.4327E4,2.3E1,5.7E1,3.39E2,1.78E2,2.006E3,2.39E2,1.554E3,3.73E2,9.1E1,1.4236E4,1.9E1,4E0,1.2E1,4.5E1,1.4E1,3.25E2,8.4E1,9.4E1,3.12E2,1.694E3,1.39E2,1E2,1.68E2,1.386E3,2.65E2,1.08E2,7.3E1,1.8E1,1.3871E4,3.65E2,1E0,3E0,4E0,8E0,3E0,4.2E1,4E0,1E1,4E0,3.21E2,7.4E1,1E1,7E1,2.4E1,2.06E2,1.06E2,1.595E3,9.9E1,6.5E1,7.4E1,2E1,8E1,6.1E1,1.07E2,1.229E3,1.57E2,2.42E2,2.3E1,7.7E1,3.1E1,4.1E1,3.2E1,3E0,1.5E1,1.3862E4,9E0,2.88E2,7.7E1,1E0,3E0,3.6E1,6E0,3.19E2,2E0,1E1,6.4E1,6E0,6.4E1,1.4E1,1E1,1.14E2,9.2E1,8.3E1,2.3E1,8.3E2,7.65E2,5.8E1,4.1E1,1.5E1,5E1,3.4E1,4E1,1E1,1E1],"tree_param":{"num_deleted":"0","num_feature":"48","num_nodes":"103","size_leaf_vector":"1"}},{"base_weights":[-3.3754017E-2,-7.991432E-2,2.3916031E-1,6.64E-1,-8.104962E-2,6.627413E-1,1.413624E-1,-7.5000017E-3,7.681818E-1,-8.992829E-3,-9.08047E-2,8.267647E-1,3.4748602E-1,1.23391524E-1,6.9014084E-1,8.0952376E-1,-5.0000013E-3,-5.031809E-2,1.6426665E-1,2.5894734E-1,-9.312642E-2,8.6572325E-1,2.521739E-1,6.7764705E-1,4.842103E-2,2.8367874E-1,8.877719E-2,2.1538459E-1,7.8305084E-1,-5.0000013E-3,8.5499994E-2,1.7278104E-1,-7.713678E-2,2.5265148E-1,-4.553574E-2,1.5466665E-1,6.190476E-1,-9.564259E-2,4.780874E-2,-8.57143E-3,8.8429487E-1,6.363636E-1,-9.230772E-3,7.813333E-1,-9.090912E-3,-4.2253546E-2,3.04E-1,1.6821426E-1,5.8317757E-1,7.0602246E-2,3.5304347E-1,-8.333336E-3,4.1249996E-1,8.775E-2,5.5499995E-1,5.68421E-2,-2.831861E-3,-9.56485E-3,1.6308989E-3,2.8630704E-2,-9.583335E-3,-9.87342E-3,7.941174E-3,4.6874996E-2,6.833331E-3,-8.333336E-3,8.4375E-2,-9.613767E-3,3.4374997E-2,4.4727273E-2,-6.395941E-3,-6.6666687E-3,8.9064516E-2,-6.6666687E-3,8E-2,2.7272725E-2,8.553846E-2,9.523808E-3,-9.803924E-3,5.733333E-2,-9.090912E-3,-4.786327E-3,3.213414E-2,6.8875E-2,2.6071427E-2,5.80545E-3,3.859375E-2,2.033896E-3,6.9122806E-2,-7.5000017E-3,7.2E-2,-6.6666687E-3,6.277778E-2],"categories":[],"categories_nodes":[],"categories_segments":[],"categories_sizes":[],"default_left":[0,0,0,0,0,0,0,0,0,0,0,0,0,0,0,0,0,0,0,0,0,0,0,0,0,0,0,0,0,0,0,0,0,0,0,0,0,0,0,0,0,0,0,0,0,0,0,0,0,0,0,0,0,0,0,0,0,0,0,0,0,0,0,0,0,0,0,0,0,0,0,0,0,0,0,0,0,0,0,0,0,0,0,0,0,0,0,0,0,0,0,0,0],"id":8,"left_children":[1,3,5,7,9,11,13,-1,15,17,19,21,23,25,27,29,-1,31,33,35,37,39,41,43,45,47,49,51,53,-1,-1,55,57,59,61,63,65,67,69,-1,71,73,-1,75,-1,77,79,81,83,85,87,-1,89,-1,91,-1,-1,-1,-1,-1,-1,-1,-1,-1,-1,-1,-1,-1,-1,-1,-1,-1,-1,-1,-1,-1,-1,-1,-1,-1,-1,-1,-1,-1,-1,-1,-1,-1,-1,-1,-1,-1,-1],"loss_changes":[2.4059944E2,1.3849846E1,1.1436452E2,1.9823732E0,1.1464508E1,2.6498093E1,2.2064953E1,0E0,7.846317E-1,1.3941611E1,1.1689705E1,7.392685E0,1.7641575E1,1.2047775E1,2.9631271E0,8.63595E-1,0E0,9.418958E0,6.9652615E0,3.4716468E0,5.0656433E0,5.694763E0,3.102706E0,6.84457E0,2.2144237E0,1.3250349E1,8.577295E0,7.998396E-1,7.837982E-1,0E0,0E0,1.3462254E1,2.4302568E0,3.1237469E0,7.523062E-1,2.0016584E0,3.384673E0,3.0833282E0,1.1235092E1,0E0,1.9434967E0,1.318788E0,0E0,2.5914345E0,0E0,5.539117E-1,2.7111754E0,9.279836E0,3.4630585E0,6.613056E0,1.2925226E1,0E0,1.25325E0,0E0,9.4672203E-1,0E0,0E0,0E0,0E0,0E0,0E0,0E0,0E0,0E0,0E0,0E0,0E0,0E0,0E0,0E0,0E0,0E0,0E0,0E0,0E0,0E0,0E0,0E0,0E0,0E0,0E0,0E0,0E0,0E0,0E0,0E0,0E0,0E0,0E0,0E0,0E0,0E0,0E0],"parents":[2147483647,0,0,1,1,2,2,3,3,4,4,5,5,6,6,8,8,9,9,10,10,11,11,12,12,13,13,14,14,15,15,17,17,18,18,19,19,20,20,21,21,22,22,23,23,24,24,25,25,26,26,27,27,28,28,31,31,32,32,33,33,34,34,35,35,36,36,37,37,38,38,40,40,41,41,43,43,45,45,46,46,47,47,48,48,49,49,50,50,52,52,54,54],"right_children":[2,4,6,8,10,12,14,-1,16,18,20,22,24,26,28,30,-1,32,34,36,38,40,42,44,46,48,50,52,54,-1,-1,56,58,60,62,64,66,68,70,-1,72,74,-1,76,-1,78,80,82,84,86,88,-1,90,-1,92,-1,-1,-1,-1,-1,-1,-1,-1,-1,-1,-1,-1,-1,-1,-1,-1,-1,-1,-1,-1,-1,-1,-1,-1,-1,-1,-1,-1,-1,-1,-1,-1,-1,-1,-1,-1,-1,-1],"split_conditions":[1.3278319E-1,-8.5645854E-2,-3.0067584E-3,-3.3276656E-3,2.704125E-16,1.3939961E-2,8.3329186E-2,-7.809997E-5,5.219258E-2,1.3939778E1,-5.868544E-1,1.4420805E-4,1.0991136E-4,2.2162097E-3,2.5299843E-5,2.9127012E-4,-2.2956908E-3,9.969006E0,2.0968166E-19,8.5953064E-2,3.5898343E-2,1.1761879E-3,1.7877966E1,4.0130064E-5,3.5337567E-2,4.77524E-1,4.833434E-1,5.495204E-3,1.2851917E-4,-4.4524672E-6,3.3336338E-3,2.8929205E-19,8.018156E-20,-2.3790287E-18,2.833365E-19,2.6956415E-2,-4.8145562E-2,3.9669672E-1,8.369872E-2,-1.7181635E-4,3.1457725E-3,-4.505742E-2,-2.1272898E-4,1.3391929E-3,-1.6319753E-5,-4.037272E-3,1.0194074E-1,8.161339E-2,7.483905E-1,8.6102076E-2,1.1066449E-4,-9.951591E-5,4.549663E-3,3.4143683E-3,4.2674267E-3,4.217915E-3,-4.1065677E-3,-1.4946358E-2,6.6937116E-4,4.058955E-3,-1.0957156E-2,-2.0233493E-2,6.2907203E-3,3.0367635E-3,1.0754935E-3,-1.0538101E-4,3.8430437E-3,-1.5860736E-2,5.987452E-3,4.7394363E-3,-6.0276943E-3,-2.6600956E-4,3.6516965E-3,-1.6135574E-4,1.4032364E-3,1.427412E-4,4.65542E-4,1.47103E-4,-6.491542E-5,2.983749E-4,-4.3770713E-5,-1.0174515E-4,1.6134965E-3,2.1776021E-3,1.6676376E-3,4.853056E-4,3.3904922E-3,3.5935818E-4,3.379041E-3,-2.5681258E-4,4.2816997E-4,-2.46346E-5,3.652506E-3],"split_indices":[13,32,27,24,45,4,32,0,5,3,8,25,41,23,35,35,0,3,39,33,42,1,3,35,4,6,18,40,28,0,0,9,45,8,36,36,22,10,9,0,17,4,0,37,0,24,7,33,6,33,29,0,19,0,19,0,0,0,0,0,0,0,0,0,0,0,0,0,0,0,0,0,0,0,0,0,0,0,0,0,0,0,0,0,0,0,0,0,0,0,0,0,0],"split_type":[0,0,0,0,0,0,0,0,0,0,0,0,0,0,0,0,0,0,0,0,0,0,0,0,0,0,0,0,0,0,0,0,0,0,0,0,0,0,0,0,0,0,0,0,0,0,0,0,0,0,0,0,0,0,0,0,0,0,0,0,0,0,0,0,0,0,0,0,0,0,0,0,0,0,0,0,0,0,0,0,0,0,0,0,0,0,0,0,0,0,0,0,0],"sum_hessian":[1.9096E4,1.6334E4,2.762E3,2.4E1,1.631E4,5.17E2,2.245E3,3E0,2.1E1,1.945E3,1.4365E4,3.39E2,1.78E2,2.175E3,7E1,2E1,1E0,1.571E3,3.74E2,9.4E1,1.4271E4,3.17E2,2.2E1,8.4E1,9.4E1,3.85E2,1.79E3,1.2E1,5.8E1,1E0,1.9E1,1.68E2,1.403E3,2.63E2,1.11E2,7.4E1,2E1,1.4021E4,2.5E2,6E0,3.11E2,1E1,1.2E1,7.4E1,1E1,7E1,2.4E1,2.79E2,1.06E2,1.676E3,1.14E2,5E0,7E0,3.9E1,1.9E1,5.6E1,1.12E2,1.171E3,2.32E2,2.4E2,2.3E1,7.8E1,3.3E1,1.5E1,5.9E1,5E0,1.5E1,1.4006E4,1.5E1,5.4E1,1.96E2,2E0,3.09E2,2E0,8E0,1E1,6.4E1,2E1,5E1,1.4E1,1E1,1.16E2,1.63E2,7.9E1,2.7E1,1.613E3,6.3E1,5.8E1,5.6E1,3E0,4E0,2E0,1.7E1],"tree_param":{"num_deleted":"0","num_feature":"48","num_nodes":"93","size_leaf_vector":"1"}},{"base_weights":[-3.574386E-2,-8.0820166E-2,2.1300338E-1,-8.207468E-2,4.146341E-1,6.1660445E-1,1.225887E-1,-1.7089615E-2,-9.090719E-2,5.4642856E-1,1.2142855E-1,7.936599E-1,2.8999996E-1,1.0778492E-1,6.056338E-1,-5.1673125E-2,1.2513225E-1,3.2542372E-1,-9.2637934E-2,7.733333E-1,2.6428568E-1,4.1666666E-1,-8.888892E-3,8.401899E-1,3.09375E-1,7.1969694E-1,6.0799975E-2,9.802888E-2,6.232558E-1,1.2142855E-1,7.120689E-1,1.6686389E-1,-7.8282855E-2,3.4024388E-1,6.531984E-2,2.1458331E-1,7.416667E-1,-9.409468E-2,2.0579708E-1,8.307692E-2,2.6666665E-1,7.2E-2,9.999978E-3,5.2E-1,-5.0000013E-3,-8.888892E-3,8.646104E-1,-9.333336E-3,6.2777776E-1,8.808511E-2,3.0499998E-1,2.5777775E-1,-4.938274E-2,2.8864467E-1,7.210341E-2,-9.090912E-3,8.424242E-1,-8.750002E-3,3.4285712E-1,8.51282E-1,4.0499997E-1,5.1451612E-2,-3.4259283E-3,-9.259563E-3,3.354428E-3,4.9824562E-2,-1.9230793E-3,4.3235295E-2,1.7803006E-3,4.4615384E-2,1.2499998E-2,8.1818186E-2,-5.0000013E-3,-9.638714E-3,6.067959E-3,7.882353E-2,1.5094316E-3,-5.0000013E-3,4.4999998E-2,-8.888892E-3,4.4999998E-2,-5.0000013E-3,6.7499995E-2,8.8355705E-2,2.7272725E-2,8.25E-2,1.9999998E-2,-9.166669E-3,8E-2,8.1818186E-2,7.4285693E-3,4.25E-2,-7.3076948E-3,7.531915E-2,1.911894E-2,3.247692E-3,1.9372469E-2,-5.0000013E-3,8.71875E-2,-7.5000017E-3,6.7499995E-2,-5.0000013E-3,8.7631576E-2,-8.333336E-3,5.733333E-2],"categories":[],"categories_nodes":[],"categories_segments":[],"categories_sizes":[],"default_left":[0,0,0,0,0,0,0,0,0,0,0,0,0,0,0,0,0,0,0,0,0,0,0,0,0,0,0,0,0,0,0,0,0,0,0,0,0,0,0,0,0,0,0,0,0,0,0,0,0,0,0,0,0,0,0,0,0,0,0,0,0,0,0,0,0,0,0,0,0,0,0,0,0,0,0,0,0,0,0,0,0,0,0,0,0,0,0,0,0,0,0,0,0,0,0,0,0,0,0,0,0,0,0,0,0],"id":9,"left_children":[1,3,5,7,9,11,13,15,17,19,21,23,25,27,29,31,33,35,37,39,41,43,-1,45,47,49,51,53,55,57,59,61,63,65,67,69,71,73,75,-1,77,-1,79,81,-1,-1,83,-1,85,-1,87,89,91,93,95,-1,97,-1,99,101,103,-1,-1,-1,-1,-1,-1,-1,-1,-1,-1,-1,-1,-1,-1,-1,-1,-1,-1,-1,-1,-1,-1,-1,-1,-1,-1,-1,-1,-1,-1,-1,-1,-1,-1,-1,-1,-1,-1,-1,-1,-1,-1,-1,-1],"loss_changes":[2.1414435E2,1.0083328E1,1.06844406E2,9.255623E0,1.5180049E0,3.0765182E1,1.7061108E1,9.504149E0,1.0260643E1,1.5881672E0,9.063492E-1,7.55925E0,1.8668686E1,1.1631218E1,3.5726242E0,9.049898E0,4.8412538E0,2.5629063E0,6.1666565E0,2.1497345E-1,1.6151427E0,3.1533325E-1,0E0,7.24646E0,4.161743E0,4.142128E0,2.7256732E0,1.126133E1,6.807049E0,6.776786E-1,2.1346169E0,1.1834261E1,2.2214785E0,4.6669855E0,5.172057E0,9.399841E-1,7.6780224E-1,4.9987717E0,7.652109E0,0E0,1.9666666E-1,0E0,4.7511113E-1,4.755E-1,0E0,0E0,3.2129822E0,0E0,1.353611E0,0E0,4.0003333E0,4.566557E0,9.4150764E-1,1.2215397E1,9.685568E0,0E0,9.109173E-1,0E0,1.0221429E0,9.23748E-1,1.6918328E0,0E0,0E0,0E0,0E0,0E0,0E0,0E0,0E0,0E0,0E0,0E0,0E0,0E0,0E0,0E0,0E0,0E0,0E0,0E0,0E0,0E0,0E0,0E0,0E0,0E0,0E0,0E0,0E0,0E0,0E0,0E0,0E0,0E0,0E0,0E0,0E0,0E0,0E0,0E0,0E0,0E0,0E0,0E0,0E0],"parents":[2147483647,0,0,1,1,2,2,3,3,4,4,5,5,6,6,7,7,8,8,9,9,10,10,11,11,12,12,13,13,14,14,15,15,16,16,17,17,18,18,19,19,20,20,21,21,23,23,24,24,25,25,26,26,27,27,28,28,29,29,30,30,31,31,32,32,33,33,34,34,35,35,36,36,37,37,38,38,40,40,42,42,43,43,46,46,48,48,50,50,51,51,52,52,53,53,54,54,56,56,58,58,59,59,60,60],"right_children":[2,4,6,8,10,12,14,16,18,20,22,24,26,28,30,32,34,36,38,40,42,44,-1,46,48,50,52,54,56,58,60,62,64,66,68,70,72,74,76,-1,78,-1,80,82,-1,-1,84,-1,86,-1,88,90,92,94,96,-1,98,-1,100,102,104,-1,-1,-1,-1,-1,-1,-1,-1,-1,-1,-1,-1,-1,-1,-1,-1,-1,-1,-1,-1,-1,-1,-1,-1,-1,-1,-1,-1,-1,-1,-1,-1,-1,-1,-1,-1,-1,-1,-1,-1,-1,-1,-1,-1],"split_conditions":[2.866556E-3,6.210189E-1,-3.0067584E-3,2.704125E-16,-2.3362588E-2,1.3138224E-2,8.3329186E-2,1.3720102E1,-5.146969E-1,6.3485E-4,-8.1415296E-2,1.377736E-4,3.1823246E-3,1.786493E1,2.5809284E-5,9.969006E0,4.754479E-18,8.5953064E-2,5.3762007E-1,1.0252588E-2,7.682712E-1,3.756318E-2,-4.165888E-4,2.8706738E-5,-1.3700346E-4,1.2775084E-4,1.3706312E-4,-8.457878E-2,-3.249305E-4,4.6639377E-3,1.2851917E-4,1.2728295E-18,1.418772E-18,1.6586745E-19,-1.6725228E-4,5.77863E-2,1.6998234E0,1.3654143E-1,-4.4639397E-2,2.8446708E-3,2.7186362E-2,1.3934792E-3,1.790674E1,2.1101326E-1,-6.5756444E-4,-9.627343E-5,1.98079E1,-1.4522077E-4,6.8744873E-3,4.5451522E-4,1.6492564E-4,5.057568E-5,-4.340068E-1,2.527983E-4,8.210389E-2,-4.4362547E-4,-3.197813E-1,-2.295971E-5,5.495204E-3,-7.343064E-2,4.8554313E-5,3.7605986E-3,-7.521422E-3,-1.3504267E-2,2.5357187E-3,4.553056E-3,2.9102454E-4,5.271145E-3,2.4077394E-4,2.9001662E-3,1.0842156E-3,3.7351444E-3,-2.752006E-4,-1.4438762E-2,3.126502E-3,2.441124E-3,1.285675E-4,-2.140212E-3,8.46839E-4,-2.1269322E-4,1.4958918E-3,-2.580166E-4,1.274997E-3,3.2883E-3,6.419659E-4,1.6379999E-3,1.5975178E-3,-1.4686585E-5,3.836453E-4,1.6242266E-4,2.6853682E-4,1.151526E-3,-2.9581786E-5,2.0231348E-3,2.1967178E-3,2.3814313E-4,1.964777E-3,-1.8640757E-4,1.4697516E-3,-8.956194E-5,3.8535596E-4,-4.2259694E-6,3.1673058E-3,-2.2172928E-5,3.3041686E-3],"split_indices":[17,9,27,45,8,4,32,0,10,41,4,25,11,0,35,3,9,33,4,5,9,1,0,41,28,47,41,32,28,19,28,9,45,39,10,43,12,46,32,0,1,0,3,6,0,0,2,0,11,0,29,47,10,41,33,0,10,0,40,10,25,0,0,0,0,0,0,0,0,0,0,0,0,0,0,0,0,0,0,0,0,0,0,0,0,0,0,0,0,0,0,0,0,0,0,0,0,0,0,0,0,0,0,0,0],"split_type":[0,0,0,0,0,0,0,0,0,0,0,0,0,0,0,0,0,0,0,0,0,0,0,0,0,0,0,0,0,0,0,0,0,0,0,0,0,0,0,0,0,0,0,0,0,0,0,0,0,0,0,0,0,0,0,0,0,0,0,0,0,0,0,0,0,0,0,0,0,0,0,0,0,0,0,0,0,0,0,0,0,0,0,0,0,0,0,0,0,0,0,0,0,0,0,0,0,0,0,0,0,0,0,0,0],"sum_hessian":[1.9096E4,1.6167E4,2.929E3,1.6127E4,4E1,5.35E2,2.394E3,1.93E3,1.4197E4,2.7E1,1.3E1,3.46E2,1.89E2,2.324E3,7E1,1.553E3,3.77E2,5.8E1,1.4139E4,1.4E1,1.3E1,5E0,8E0,3.15E2,3.1E1,6.5E1,1.24E2,2.282E3,4.2E1,1.3E1,5.7E1,1.68E2,1.385E3,8.1E1,2.96E2,4.7E1,1.1E1,1.4071E4,6.8E1,1.2E1,2E0,4E0,9E0,4E0,1E0,8E0,3.07E2,1.4E1,1.7E1,4.6E1,1.9E1,4.4E1,8E1,2.72E2,2.01E3,1E1,3.2E1,7E0,6E0,3.8E1,1.9E1,6.1E1,1.07E2,1.228E3,1.57E2,5.6E1,2.5E1,3.3E1,2.63E2,1.2E1,3.5E1,1E1,1E0,1.3866E4,2.05E2,1.6E1,5.2E1,1E0,1E0,8E0,1E0,1E0,3E0,2.97E2,1E1,1.1E1,6E0,1.1E1,8E0,1E1,3.4E1,3E0,7.7E1,4.6E1,2.26E2,1.517E3,4.93E2,1E0,3.1E1,3E0,3E0,1E0,3.7E1,5E0,1.4E1],"tree_param":{"num_deleted":"0","num_feature":"48","num_nodes":"105","size_leaf_vector":"1"}},{"base_weights":[-3.820498E-2,-8.032536E-2,1.9423206E-1,-8.375097E-2,1.1087717E-1,5.7929105E-1,1.07974924E-1,-2.0298071E-2,-9.260351E-2,4.6588233E-1,-3.980102E-2,7.705696E-1,3.031674E-1,9.445159E-2,5.492957E-1,-5.489063E-2,1.1653942E-1,4.7499996E-1,-9.373924E-2,7.3749995E-1,3.532258E-1,-8.268159E-2,2.9565215E-1,-8.888892E-3,7.931818E-1,6.843373E-1,7.3381275E-2,8.53263E-2,5.7674414E-1,1.2142855E-1,6.431034E-1,1.3136092E-1,-7.756135E-2,3.298701E-1,6.435329E-2,7.1875E-1,1.3846152E-1,-9.493865E-2,1.7142855E-1,1.1999998E-1,8.5499994E-2,5.513513E-1,5.7692286E-2,-8.820227E-2,4.4999998E-2,8.1E-2,-9.285717E-3,8.2743055E-1,2.8571427E-1,8.2461536E-1,1.6842103E-1,6.6249996E-1,3.7121188E-2,2.5201464E-1,6.2655374E-2,-9.090912E-3,7.8181815E-1,-8.750002E-3,3.4285712E-1,7.487179E-1,4.0499997E-1,4.45614E-2,-2.831861E-3,-9.178196E-3,3.354428E-3,-9.375002E-3,4.3387096E-2,1.609589E-2,-1.802328E-3,-5.0000013E-3,7.733333E-2,5.1999997E-2,-8.888892E-3,-9.646871E-3,-3.9130673E-4,7.642857E-2,1.9999767E-4,-7.5000017E-3,4.4999998E-2,6.088235E-2,-7.5000017E-3,3.4285713E-2,-4.5000026E-3,2.6666665E-2,-9.375002E-3,8.565693E-2,2.3999998E-2,8E-2,-9.230772E-3,3.2E-2,8.52459E-2,6.285714E-2,-9.230772E-3,-5.0000013E-3,7.714286E-2,2.2790696E-2,-5.444447E-3,7.106383E-2,1.5594712E-2,4.922035E-3,3.556818E-2,-5.0000013E-3,8.09375E-2,-7.5000017E-3,6.7499995E-2,8.171429E-2,1.1999998E-2,-8.333336E-3,5.733333E-2],"categories":[],"categories_nodes":[],"categories_segments":[],"categories_sizes":[],"default_left":[0,0,0,0,0,0,0,0,0,0,0,0,0,0,0,0,0,0,0,0,0,0,0,0,0,0,0,0,0,0,0,0,0,0,0,0,0,0,0,0,0,0,0,0,0,0,0,0,0,0,0,0,0,0,0,0,0,0,0,0,0,0,0,0,0,0,0,0,0,0,0,0,0,0,0,0,0,0,0,0,0,0,0,0,0,0,0,0,0,0,0,0,0,0,0,0,0,0,0,0,0,0,0,0,0,0,0,0,0],"id":10,"left_children":[1,3,5,7,9,11,13,15,17,19,21,23,25,27,29,31,33,35,37,39,41,43,45,-1,47,49,51,53,55,57,59,61,63,65,67,69,71,73,75,77,-1,79,81,83,-1,-1,-1,85,87,89,91,93,95,97,99,-1,101,-1,103,105,107,-1,-1,-1,-1,-1,-1,-1,-1,-1,-1,-1,-1,-1,-1,-1,-1,-1,-1,-1,-1,-1,-1,-1,-1,-1,-1,-1,-1,-1,-1,-1,-1,-1,-1,-1,-1,-1,-1,-1,-1,-1,-1,-1,-1,-1,-1,-1,-1],"loss_changes":[1.8698164E2,1.0599083E1,9.7254715E1,8.920464E0,1.526363E1,2.807605E1,1.4241789E1,9.217902E0,9.030228E0,2.340454E0,2.9157143E0,6.2117157E0,1.9306631E1,1.018325E1,2.7716522E0,6.571887E0,4.354003E0,2.1973548E0,4.440918E0,1.6387491E0,3.5984616E0,5.660881E-1,4.671279E0,0E0,5.1166687E0,5.8679695E0,2.9446547E0,8.611618E0,5.958563E0,6.776786E-1,1.1553059E0,8.493003E0,2.1929455E0,3.433053E0,2.5255985E0,7.1004295E-1,1.1738802E0,1.9285812E0,6.3266287E0,3.5549998E-1,0E0,1.3775787E0,7.768187E-1,3.754331E-1,0E0,0E0,0E0,4.724106E0,4.1564837E0,6.404877E-1,2.3375363E0,6.594641E-1,2.3183722E0,1.191724E1,7.8994303E0,0E0,7.969017E-1,0E0,1.0221429E0,1.5797234E0,1.6918328E0,0E0,0E0,0E0,0E0,0E0,0E0,0E0,0E0,0E0,0E0,0E0,0E0,0E0,0E0,0E0,0E0,0E0,0E0,0E0,0E0,0E0,0E0,0E0,0E0,0E0,0E0,0E0,0E0,0E0,0E0,0E0,0E0,0E0,0E0,0E0,0E0,0E0,0E0,0E0,0E0,0E0,0E0,0E0,0E0,0E0,0E0,0E0,0E0],"parents":[2147483647,0,0,1,1,2,2,3,3,4,4,5,5,6,6,7,7,8,8,9,9,10,10,11,11,12,12,13,13,14,14,15,15,16,16,17,17,18,18,19,19,20,20,21,21,22,22,24,24,25,25,26,26,27,27,28,28,29,29,30,30,31,31,32,32,33,33,34,34,35,35,36,36,37,37,38,38,39,39,41,41,42,42,43,43,47,47,48,48,49,49,50,50,51,51,52,52,53,53,54,54,56,56,58,58,59,59,60,60],"right_children":[2,4,6,8,10,12,14,16,18,20,22,24,26,28,30,32,34,36,38,40,42,44,46,-1,48,50,52,54,56,58,60,62,64,66,68,70,72,74,76,78,-1,80,82,84,-1,-1,-1,86,88,90,92,94,96,98,100,-1,102,-1,104,106,108,-1,-1,-1,-1,-1,-1,-1,-1,-1,-1,-1,-1,-1,-1,-1,-1,-1,-1,-1,-1,-1,-1,-1,-1,-1,-1,-1,-1,-1,-1,-1,-1,-1,-1,-1,-1,-1,-1,-1,-1,-1,-1,-1,-1,-1,-1,-1,-1],"split_conditions":[2.866556E-3,3.5898343E-2,-3.0067584E-3,2.704125E-16,-1.208365E-3,3.2477654E-3,8.3329186E-2,1.3720102E1,-7.760717E-2,-2.0390458E-19,1.3939778E1,2.8706738E-5,-4.505742E-2,1.786493E1,2.5809284E-5,9.969006E0,9.368564E-19,5.2825366E-3,5.3762007E-1,2.4888225E-2,3.0277757E-2,1.3914397E1,4.672321E-2,-8.664728E-5,1.98079E1,2.6279904E-5,-4.340068E-1,-8.457878E-2,-3.249305E-4,4.6639377E-3,1.2851917E-4,2.8929205E-19,1.418772E-18,-1.958543E-18,-2.1165553E-17,1.9815397E-3,-1.02327034E-1,1.1433043E-3,-4.4639397E-2,1.9213237E-4,5.852961E-3,2.9633773E-2,-2.2366604E-18,3.412658E-2,1.4467597E-3,7.7300663E-3,-1.210924E-2,3.972222E-2,2.6772693E-2,1.4793711E-5,2.0373859E-2,3.6891006E-2,1.3706312E-4,2.527983E-4,8.6102076E-2,-3.992617E-4,-1.2565154E0,-2.0664931E-5,5.495204E-3,7.6298707E-4,4.8554313E-5,3.4200647E-3,-2.9437675E-3,-1.2153841E-2,2.2821457E-3,-1.4645675E-3,4.038067E-3,2.657647E-3,-1.2009802E-4,-2.5461317E-4,7.23231E-3,1.1474967E-3,-2.3221374E-4,-1.308616E-2,-3.5843452E-6,2.556583E-3,1.06796324E-4,-3.3157915E-3,8.693076E-3,3.6837936E-3,-8.4008573E-4,3.220588E-3,-1.49721E-4,3.8278403E-4,-6.6559943E-3,2.98874E-3,8.763101E-4,5.777717E-4,-1.23173E-4,4.5797825E-4,6.8748585E-4,2.0209551E-4,-5.9815055E-5,-8.334994E-4,1.4377654E-3,1.9284709E-4,-2.6625396E-5,1.8208188E-3,1.9770449E-3,3.9730902E-4,2.5129186E-3,-9.868145E-5,1.3227784E-3,-8.0603364E-5,3.4682156E-4,2.992138E-3,2.3976744E-3,-1.9955636E-5,2.9737502E-3],"split_indices":[17,42,27,45,27,11,32,0,32,38,3,41,4,0,35,3,23,23,4,7,37,2,1,0,2,35,10,32,28,19,28,9,45,6,8,5,4,27,32,28,0,4,32,9,0,0,0,4,7,35,1,19,41,41,33,0,8,0,40,34,25,0,0,0,0,0,0,0,0,0,0,0,0,0,0,0,0,0,0,0,0,0,0,0,0,0,0,0,0,0,0,0,0,0,0,0,0,0,0,0,0,0,0,0,0,0,0,0,0],"split_type":[0,0,0,0,0,0,0,0,0,0,0,0,0,0,0,0,0,0,0,0,0,0,0,0,0,0,0,0,0,0,0,0,0,0,0,0,0,0,0,0,0,0,0,0,0,0,0,0,0,0,0,0,0,0,0,0,0,0,0,0,0,0,0,0,0,0,0,0,0,0,0,0,0,0,0,0,0,0,0,0,0,0,0,0,0,0,0,0,0,0,0,0,0,0,0,0,0,0,0,0,0,0,0,0,0,0,0,0,0],"sum_hessian":[1.9096E4,1.6167E4,2.929E3,1.5883E4,2.84E2,5.35E2,2.394E3,1.945E3,1.3938E4,8.4E1,2E2,3.15E2,2.2E2,2.324E3,7E1,1.553E3,3.92E2,2.7E1,1.3911E4,2.3E1,6.1E1,1.78E2,2.2E1,8E0,3.07E2,8.2E1,1.38E2,2.282E3,4.2E1,1.3E1,5.7E1,1.68E2,1.385E3,7.6E1,3.16E2,1.5E1,1.2E1,1.3849E4,6.2E1,4E0,1.9E1,3.6E1,2.5E1,1.77E2,1E0,9E0,1.3E1,2.87E2,2E1,6.4E1,1.8E1,7E0,1.31E2,2.72E2,2.01E3,1E1,3.2E1,7E0,6E0,3.8E1,1.9E1,5.6E1,1.12E2,1.228E3,1.57E2,1.5E1,6.1E1,1.45E2,1.71E2,1E0,1.4E1,4E0,8E0,1.362E4,2.29E2,1.3E1,4.9E1,3E0,1E0,3.3E1,3E0,6E0,1.9E1,2E0,1.75E2,2.73E2,1.4E1,8E0,1.2E1,4E0,6E1,6E0,1.2E1,1E0,6E0,4.2E1,8.9E1,4.6E1,2.26E2,1.923E3,8.7E1,1E0,3.1E1,3E0,3E0,3.4E1,4E0,5E0,1.4E1],"tree_param":{"num_deleted":"0","num_feature":"48","num_nodes":"109","size_leaf_vector":"1"}},{"base_weights":[-4.2341754E-2,-7.9147734E-2,1.6872352E-1,-8.085805E-2,3.6190474E-1,4.633333E-1,9.45743E-2,-8.384038E-2,8.24742E-2,2.3555553E-1,6.421052E-1,7.0301366E-1,3.6407743E-2,8.074645E-2,5.2112675E-1,-2.418269E-2,-9.205523E-2,-6.395941E-2,3.8526314E-1,8.484846E-2,5.9999996E-1,8.357143E-2,8.333331E-2,-9.090912E-3,7.256338E-1,3.7352937E-1,-3.0057827E-2,1.6428547E-2,1.324302E-1,4.999998E-2,6.2586206E-1,-4.4959933E-2,1.752747E-1,-9.761E-2,-4.1696645E-2,5.8333334E-2,-8.385419E-2,-9.285717E-3,4.621951E-1,2.3888886E-1,-9.375002E-3,7.272727E-1,-6.6666687E-3,-8.000002E-3,4.4999998E-2,7.721875E-1,2.9166666E-1,8.4E-2,4.9999775E-3,1.10344805E-1,-5.7931058E-2,-3.3262041E-3,3.918367E-1,5.5064934E-1,1.0411556E-1,-9.090912E-3,4.2499998E-1,4.8611107E-1,8.173913E-1,1.2544376E-2,-6.318127E-3,1.8348388E-4,4.2837836E-2,2.033896E-3,-9.815733E-3,1.2893398E-2,-6.979082E-3,3.2E-2,-9.414895E-3,3.8714286E-2,8.307692E-2,4.083333E-2,-8.57143E-3,-5.0000013E-3,8.1E-2,8.082237E-2,8.2352925E-3,-4.5454773E-4,7.066666E-2,-9.285717E-3,1.9999998E-2,7.2E-2,-1.6000023E-3,-9.904765E-3,4.8780465E-3,-1.4590372E-3,2.3571426E-2,7.733333E-2,2.1714283E-2,3.7142854E-2,8.3448276E-2,2.6839215E-3,2.4254275E-2,6E-2,-5.0000013E-3,-8.333336E-3,5.8064517E-2,-5.0000013E-3,8.590909E-2],"categories":[],"categories_nodes":[],"categories_segments":[],"categories_sizes":[],"default_left":[0,0,0,0,0,0,0,0,0,0,0,0,0,0,0,0,0,0,0,0,0,0,0,0,0,0,0,0,0,0,0,0,0,0,0,0,0,0,0,0,0,0,0,0,0,0,0,0,0,0,0,0,0,0,0,0,0,0,0,0,0,0,0,0,0,0,0,0,0,0,0,0,0,0,0,0,0,0,0,0,0,0,0,0,0,0,0,0,0,0,0,0,0,0,0,0,0,0,0],"id":11,"left_children":[1,3,5,7,9,11,13,15,17,19,21,23,25,27,29,31,33,35,37,39,41,-1,43,-1,45,47,49,51,53,55,57,59,61,63,65,-1,67,-1,69,71,-1,73,-1,-1,-1,75,77,-1,79,81,83,85,87,89,91,-1,93,95,97,-1,-1,-1,-1,-1,-1,-1,-1,-1,-1,-1,-1,-1,-1,-1,-1,-1,-1,-1,-1,-1,-1,-1,-1,-1,-1,-1,-1,-1,-1,-1,-1,-1,-1,-1,-1,-1,-1,-1,-1],"loss_changes":[1.483677E2,1.2296341E1,6.190885E1,7.898102E0,2.0791454E0,5.8300026E1,1.332938E1,7.7949295E0,1.2927138E1,2.420687E0,1.9858398E0,6.62088E0,4.627066E0,7.3010683E0,3.472103E0,7.9937043E0,3.9076767E0,2.5858305E0,3.5372791E0,9.302715E-1,1.151515E0,0E0,3.9533332E-1,0E0,6.946762E0,5.8406763E0,6.834236E-1,7.2690763E0,1.4365883E1,7.784091E-1,1.1551075E0,5.4292254E0,7.9886975E0,8.1503296E-1,6.6770735E0,0E0,8.2838416E-1,0E0,1.9466839E0,1.0250398E0,0E0,7.47818E-1,0E0,0E0,0E0,7.888321E0,4.4286213E0,0E0,4.0021428E-1,2.2452965E0,6.410355E-1,2.5129347E0,3.0976882E0,3.6069489E0,1.2209635E1,0E0,3.6249995E-1,1.9863348E0,8.748617E-1,0E0,0E0,0E0,0E0,0E0,0E0,0E0,0E0,0E0,0E0,0E0,0E0,0E0,0E0,0E0,0E0,0E0,0E0,0E0,0E0,0E0,0E0,0E0,0E0,0E0,0E0,0E0,0E0,0E0,0E0,0E0,0E0,0E0,0E0,0E0,0E0,0E0,0E0,0E0,0E0],"parents":[2147483647,0,0,1,1,2,2,3,3,4,4,5,5,6,6,7,7,8,8,9,9,10,10,11,11,12,12,13,13,14,14,15,15,16,16,17,17,18,18,19,19,20,20,22,22,24,24,25,25,26,26,27,27,28,28,29,29,30,30,31,31,32,32,33,33,34,34,36,36,38,38,39,39,41,41,45,45,46,46,48,48,49,49,50,50,51,51,52,52,53,53,54,54,56,56,57,57,58,58],"right_children":[2,4,6,8,10,12,14,16,18,20,22,24,26,28,30,32,34,36,38,40,42,-1,44,-1,46,48,50,52,54,56,58,60,62,64,66,-1,68,-1,70,72,-1,74,-1,-1,-1,76,78,-1,80,82,84,86,88,90,92,-1,94,96,98,-1,-1,-1,-1,-1,-1,-1,-1,-1,-1,-1,-1,-1,-1,-1,-1,-1,-1,-1,-1,-1,-1,-1,-1,-1,-1,-1,-1,-1,-1,-1,-1,-1,-1,-1,-1,-1,-1,-1,-1],"split_conditions":[1.2846634E-1,5.867788E-1,-2.962757E-3,3.5898343E-2,1.7902615E1,1.3138224E-2,8.3329186E-2,2.704125E-16,1.3939778E1,9.89476E-3,1.9832691E1,3.3423148E-5,1.9234847E-2,-4.6829496E-2,2.5809284E-5,1.5894582E1,3.3042108E-4,3.412658E-2,3.2804534E-1,-3.0578086E-2,-1.8995351E-3,1.7131374E-3,3.8343925E-2,-7.798076E-5,8.937316E-2,2.0518082E-5,5.057568E-5,3.955086E0,-8.457878E-2,6.484095E-5,6.0847884E-5,9.969006E0,-2.637406E-18,2.5741164E-7,-4.0274084E-2,6.931514E-4,3.0643916E-2,-2.1491613E-2,6.3798725E-5,-8.923325E-3,-1.7491702E-4,-3.2903769E-3,-3.807485E-4,-2.4183393E-4,1.3027192E-4,2.262793E-2,5.8659258E-5,1.4312864E-4,1.9007705E-2,1.1152844E-2,8.088648E-3,1.7861729E1,9.4870925E-2,-8.527423E-2,1.3589043E-4,-1.486838E-5,4.8698794E-2,3.9441613E-3,-7.343064E-2,2.0200985E-3,-4.6662674E-3,4.861515E-5,3.8507115E-3,1.6647319E-3,-1.2169725E-2,1.4934267E-3,-4.5928783E-3,1.3020814E-3,-5.2763736E-3,3.3364773E-3,6.2733158E-3,1.3767957E-3,-1.396358E-4,-3.8673877E-4,3.3825634E-3,2.6588202E-3,1.3058067E-4,6.58998E-4,6.6928857E-4,-1.94031E-4,1.5390516E-4,5.9610607E-5,-6.4611554E-6,-6.6244604E-5,2.541226E-4,-1.4594913E-4,1.541012E-3,6.7467513E-3,4.3550283E-3,1.3891355E-3,2.4580664E-3,2.6538E-4,2.022216E-3,3.1213762E-4,-4.4850112E-4,-4.4132472E-4,1.5056104E-3,-2.4356843E-4,4.0612333E-3],"split_indices":[13,9,27,42,3,4,32,45,3,11,0,41,1,44,35,2,25,9,21,30,24,0,1,0,7,35,47,12,32,28,25,3,32,13,32,0,7,0,29,22,0,24,0,0,0,23,28,0,1,19,43,0,37,32,35,0,10,43,10,0,0,0,0,0,0,0,0,0,0,0,0,0,0,0,0,0,0,0,0,0,0,0,0,0,0,0,0,0,0,0,0,0,0,0,0,0,0,0,0],"split_type":[0,0,0,0,0,0,0,0,0,0,0,0,0,0,0,0,0,0,0,0,0,0,0,0,0,0,0,0,0,0,0,0,0,0,0,0,0,0,0,0,0,0,0,0,0,0,0,0,0,0,0,0,0,0,0,0,0,0,0,0,0,0,0,0,0,0,0,0,0,0,0,0,0,0,0,0,0,0,0,0,0,0,0,0,0,0,0,0,0,0,0,0,0,0,0,0,0,0,0],"sum_hessian":[1.9096E4,1.6261E4,2.835E3,1.6199E4,6.2E1,5.69E2,2.266E3,1.5909E4,2.9E2,4.4E1,1.8E1,3.64E2,2.05E2,2.196E3,7E1,1.926E3,1.3983E4,1.96E2,9.4E1,3.2E1,1.2E1,1.3E1,5E0,1E1,3.54E2,3.3E1,1.72E2,9.79E2,1.217E3,1.3E1,5.7E1,1.745E3,1.81E2,1.2593E4,1.39E3,5E0,1.91E2,1.3E1,8.1E1,1.7E1,1.5E1,1E1,2E0,4E0,1E0,3.19E2,3.5E1,1.4E1,1.9E1,2.8E1,1.44E2,9.31E2,4.8E1,7.6E1,1.141E3,1E1,3E0,3.5E1,2.2E1,1.68E2,1.577E3,1.08E2,7.3E1,5.8E1,1.2535E4,1.96E2,1.194E3,4E0,1.87E2,6.9E1,1.2E1,1.1E1,6E0,1E0,9E0,3.03E2,1.6E1,2.1E1,1.4E1,1.3E1,6E0,4E0,2.4E1,1.04E2,4E1,8.9E2,4.1E1,1.4E1,3.4E1,4.8E1,2.8E1,7.33E2,4.08E2,2E0,1E0,5E0,3E1,1E0,2.1E1],"tree_param":{"num_deleted":"0","num_feature":"48","num_nodes":"99","size_leaf_vector":"1"}},{"base_weights":[-4.553597E-2,-7.871725E-2,1.3757677E-1,-8.723482E-2,-1.7709408E-2,5.3749996E-1,1.0055905E-1,-8.881344E-2,3.1999996E-1,-7.299665E-2,1.4718874E-1,5.595236E-2,7.793939E-1,2.8799975E-2,1.758594E-1,-9.011023E-2,1.7681158E-1,9.72222E-2,7.05E-1,2.4899574E-2,-9.2643514E-2,-2.5180094E-3,3.348416E-1,-9.850749E-3,6.2777776E-1,-9.090912E-3,8.36129E-1,-2.1406751E-2,1.5341769E-1,7.0731705E-1,1.5855001E-1,-2.056454E-2,-9.398741E-2,7.294117E-1,-3.7736082E-3,5.454545E-1,-9.615387E-3,8.470588E-2,-7.5000017E-3,2.1904759E-1,-4.0641736E-2,2.461536E-2,-9.906226E-2,3.441176E-1,-5.0612267E-2,1.5909068E-2,4.1179773E-1,8.307692E-2,8.333331E-2,8.6689186E-1,1.6249998E-1,3.6785713E-1,-3.2809246E-2,7.6080665E-2,6.979592E-1,-8.57143E-3,8.457143E-1,1.3856906E-1,6.0555553E-1,-5.6628264E-3,4.705882E-2,3.6363635E-2,-9.43585E-3,1.7499998E-2,8.357143E-2,-5.6250026E-3,4.1666668E-2,-7.5000017E-3,7.875E-2,-9.473687E-3,3.4666665E-2,2.5499998E-2,-7.5595262E-3,3.7647057E-2,-9.795921E-3,-9.99147E-3,4.4999998E-2,3.999998E-3,5.5499997E-2,2.7368417E-2,-7.7533065E-3,4.25E-2,-2.4390267E-3,4.7399998E-2,7.5862044E-3,4.4999998E-2,-8.000002E-3,8.7346934E-2,-5.0000013E-3,-8.333336E-3,6E-2,7.1875E-2,-9.230772E-3,-5.6938506E-3,3.3203103E-3,1.693548E-2,-3.1481504E-3,7.8863636E-2,-8.333336E-3,8.735294E-2,-5.0000013E-3,2.979827E-2,7.482756E-3,7.6E-2,3.0499998E-2],"categories":[],"categories_nodes":[],"categories_segments":[],"categories_sizes":[],"default_left":[0,0,0,0,0,0,0,0,0,0,0,0,0,0,0,0,0,0,0,0,0,0,0,0,0,0,0,0,0,0,0,0,0,0,0,0,0,0,0,0,0,0,0,0,0,0,0,0,0,0,0,0,0,0,0,0,0,0,0,0,0,0,0,0,0,0,0,0,0,0,0,0,0,0,0,0,0,0,0,0,0,0,0,0,0,0,0,0,0,0,0,0,0,0,0,0,0,0,0,0,0,0,0,0,0],"id":12,"left_children":[1,3,5,7,9,11,13,15,17,19,21,23,25,27,29,31,33,35,37,39,41,43,45,-1,47,-1,49,51,53,55,57,59,61,63,65,67,-1,-1,-1,69,71,73,75,77,79,81,83,-1,85,87,89,91,93,95,97,-1,99,101,103,-1,-1,-1,-1,-1,-1,-1,-1,-1,-1,-1,-1,-1,-1,-1,-1,-1,-1,-1,-1,-1,-1,-1,-1,-1,-1,-1,-1,-1,-1,-1,-1,-1,-1,-1,-1,-1,-1,-1,-1,-1,-1,-1,-1,-1,-1],"loss_changes":[1.1604256E2,8.399971E0,4.3322388E1,9.148819E0,1.808017E1,2.8844292E1,1.4492483E1,4.884178E0,4.648778E0,2.8584871E0,1.3991107E1,7.4810615E0,8.223167E0,8.606175E0,1.1929619E1,3.7905731E0,6.888359E0,3.1728342E0,2.2796469E0,3.1773565E0,9.334717E-1,4.652006E0,5.417631E0,0E0,1.9200859E0,0E0,3.0711594E0,4.366316E0,1.658162E1,4.5723763E0,1.1250288E1,1.3204969E1,2.296608E0,8.5565186E-1,1.192787E0,1.7110229E0,0E0,0E0,0E0,2.5556695E0,1.9516824E0,2.8402312E0,5.93977E-1,2.1583238E0,2.1601477E0,7.357539E-1,3.6835232E0,0E0,3.9533332E-1,9.362335E-1,9.104167E-1,4.5874653E0,1.5214494E0,3.4867024E0,3.5371456E0,0E0,9.1567993E-1,1.2333799E1,2.2748337E0,0E0,0E0,0E0,0E0,0E0,0E0,0E0,0E0,0E0,0E0,0E0,0E0,0E0,0E0,0E0,0E0,0E0,0E0,0E0,0E0,0E0,0E0,0E0,0E0,0E0,0E0,0E0,0E0,0E0,0E0,0E0,0E0,0E0,0E0,0E0,0E0,0E0,0E0,0E0,0E0,0E0,0E0,0E0,0E0,0E0,0E0],"parents":[2147483647,0,0,1,1,2,2,3,3,4,4,5,5,6,6,7,7,8,8,9,9,10,10,11,11,12,12,13,13,14,14,15,15,16,16,17,17,18,18,19,19,20,20,21,21,22,22,24,24,26,26,27,27,28,28,29,29,30,30,31,31,32,32,33,33,34,34,35,35,39,39,40,40,41,41,42,42,43,43,44,44,45,45,46,46,48,48,49,49,50,50,51,51,52,52,53,53,54,54,56,56,57,57,58,58],"right_children":[2,4,6,8,10,12,14,16,18,20,22,24,26,28,30,32,34,36,38,40,42,44,46,-1,48,-1,50,52,54,56,58,60,62,64,66,68,-1,-1,-1,70,72,74,76,78,80,82,84,-1,86,88,90,92,94,96,98,-1,100,102,104,-1,-1,-1,-1,-1,-1,-1,-1,-1,-1,-1,-1,-1,-1,-1,-1,-1,-1,-1,-1,-1,-1,-1,-1,-1,-1,-1,-1,-1,-1,-1,-1,-1,-1,-1,-1,-1,-1,-1,-1,-1,-1,-1,-1,-1,-1],"split_conditions":[2.866556E-3,-3.983411E-16,8.4987795E-4,2.8270993E-1,1.3720102E1,1.5888755E1,1.3939778E1,5.3762007E-1,5.807138E-4,1.441623E-18,4.1860198E-3,-2.7898636E-3,3.3423148E-5,1.992508E-2,1.3069268E-3,7.709377E-19,-4.4639397E-2,-1.02327034E-1,8.535972E-2,9.967752E0,-1.06E-3,2.7435126E-18,1.1834083E-18,-1.715243E-4,5.870345E-4,-7.018447E-5,1.2589887E-2,-8.5645854E-2,7.7585965E-2,-4.5415462E-4,8.332989E-2,1.1065451E0,-5.146969E-1,-6.82242E-2,1.0739168E-1,2.7724282E-18,-2.0719052E-4,2.0351368E-3,-1.068759E-3,-7.893399E-19,2.7032097E-6,2.8061763E-6,-2.7928795E-4,1.2728295E-18,2.4427858E-20,-1.9902358E-17,1.1412595E-1,1.3791894E-3,-7.03992E-3,4.8261423E0,7.0341974E-3,4.1282237E-5,-2.3362588E-2,2.2081235E-2,5.141433E0,-1.3797999E-3,1.6079822E-1,-4.265656E-2,1.2851917E-4,-2.230866E-3,2.8808105E-3,2.0647382E-3,-1.0596241E-2,6.1781704E-4,2.1515812E-3,-1.05150415E-4,1.4019549E-3,-6.8237784E-4,1.2482464E-3,-1.4636176E-2,6.9762887E-3,1.0721593E-2,-8.047009E-3,1.7091142E-2,-1.1878611E-2,-1.1442657E-2,1.3004661E-3,2.298283E-3,3.4469129E-3,1.0798149E-3,-5.6168935E-3,3.4831764E-4,-6.615716E-5,8.3329175E-3,6.726772E-4,5.422771E-4,-5.525351E-6,2.6214551E-3,-2.2970438E-4,-4.848242E-5,1.8037557E-4,1.9121837E-3,-5.575896E-4,-3.7837034E-4,2.2979973E-4,1.3382855E-3,-1.2197307E-4,2.1458506E-3,-6.042123E-5,2.993487E-3,-2.5385618E-4,8.005951E-4,2.7844906E-4,2.4226932E-3,2.2420643E-3],"split_indices":[17,44,23,7,0,3,3,4,35,13,12,26,41,23,5,45,32,4,46,0,27,9,33,0,23,0,43,32,30,28,30,15,10,21,19,21,0,0,0,38,25,25,24,9,37,22,7,0,46,14,4,27,8,23,12,0,22,4,28,0,0,0,0,0,0,0,0,0,0,0,0,0,0,0,0,0,0,0,0,0,0,0,0,0,0,0,0,0,0,0,0,0,0,0,0,0,0,0,0,0,0,0,0,0,0],"split_type":[0,0,0,0,0,0,0,0,0,0,0,0,0,0,0,0,0,0,0,0,0,0,0,0,0,0,0,0,0,0,0,0,0,0,0,0,0,0,0,0,0,0,0,0,0,0,0,0,0,0,0,0,0,0,0,0,0,0,0,0,0,0,0,0,0,0,0,0,0,0,0,0,0,0,0,0,0,0,0,0,0,0,0,0,0,0,0,0,0,0,0,0,0,0,0,0,0,0,0,0,0,0,0,0,0],"sum_hessian":[1.9096E4,1.6167E4,2.929E3,1.4186E4,1.981E3,2.47E2,2.682E3,1.4132E4,5.4E1,1.484E3,4.97E2,8.3E1,1.64E2,1.374E3,1.308E3,1.4064E4,6.8E1,3.5E1,1.9E1,2.48E2,1.236E3,2.77E2,2.2E2,6.6E1,1.7E1,1E1,1.54E2,9.8E2,3.94E2,4E1,1.268E3,7.43E2,1.3321E4,1.6E1,5.2E1,1E1,2.5E1,1.6E1,3E0,6.2E1,1.86E2,6.4E1,1.172E3,3.3E1,2.44E2,4.3E1,1.77E2,1.2E1,5E0,1.47E2,7E0,2.7E1,9.53E2,3.46E2,4.8E1,6E0,3.4E1,1.215E3,5.3E1,6.93E2,5E1,1E1,1.3311E4,3E0,1.3E1,4.7E1,5E0,3E0,7E0,1.8E1,4.4E1,1.9E1,1.67E2,1.6E1,4.8E1,1.171E3,1E0,1.4E1,1.9E1,1.8E1,2.26E2,3E0,4E1,1.49E2,2.8E1,1E0,4E0,1.46E2,1E0,5E0,2E0,1.5E1,1.2E1,6.98E2,2.55E2,1.85E2,1.61E2,4.3E1,5E0,3.3E1,1E0,3.46E2,8.69E2,3.4E1,1.9E1],"tree_param":{"num_deleted":"0","num_feature":"48","num_nodes":"105","size_leaf_vector":"1"}},{"base_weights":[-4.700217E-2,-7.822244E-2,1.2529008E-1,-8.681113E-2,-1.3948634E-2,4.6710095E-1,8.52515E-2,2.3529409E-1,-8.79609E-2,1.1808116E-1,-3.5797212E-2,5.714262E-3,7.0344824E-1,7.515598E-2,5.081967E-1,4.392857E-1,-1.2500023E-2,-8.9380994E-2,1.705128E-1,3.8082188E-1,2.1105504E-2,-5.5785976E-2,1.7342655E-1,-8.720933E-2,4.0499997E-1,-9.090912E-3,7.4507767E-1,1.2546444E-2,1.20349206E-1,3.3846152E-1,7.73913E-1,5.863636E-1,-8.57143E-3,4.4999998E-2,-5.2173935E-2,-2.5809223E-2,-9.513195E-2,-9.615387E-3,2.981132E-1,5.9999996E-1,1.9512193E-1,1.06542036E-1,-7.741938E-2,1.2333331E-1,-6.721197E-2,-5.0000023E-2,4.66129E-1,-9.8765455E-3,8.333331E-2,6.7692304E-1,-8.750002E-3,8.086207E-1,1.5499997E-1,-3.2226802E-3,3.169811E-1,1.0973449E-1,8.571428E-2,4.34375E-1,-8.750002E-3,-5.0000013E-3,8.136364E-2,7.388889E-2,-8.000002E-3,1.7499998E-2,-9.5000025E-3,-7.337019E-3,1.3370368E-2,1.6842103E-2,-9.551146E-3,-8.57143E-3,3.4893613E-2,7.733333E-2,4.3157894E-2,5.1E-2,9.062498E-3,-9.677421E-3,1.8701298E-2,4.4999998E-2,-8.80435E-3,3.275E-2,-3.921571E-3,1.0095236E-2,-8.072199E-3,-8.589746E-3,5.1999997E-2,7.375E-2,2.8717948E-2,-8.000002E-3,4.4999998E-2,-6.6666687E-3,8.1818186E-2,8.35503E-2,-8.333336E-3,7.2E-2,-3.1250024E-3,-3.0110183E-3,1.02403825E-2,4.742857E-2,1.0526293E-3,4.7076922E-2,9.295371E-3,5.4090906E-2,1.8181816E-2],"categories":[],"categories_nodes":[],"categories_segments":[],"categories_sizes":[],"default_left":[0,0,0,0,0,0,0,0,0,0,0,0,0,0,0,0,0,0,0,0,0,0,0,0,0,0,0,0,0,0,0,0,0,0,0,0,0,0,0,0,0,0,0,0,0,0,0,0,0,0,0,0,0,0,0,0,0,0,0,0,0,0,0,0,0,0,0,0,0,0,0,0,0,0,0,0,0,0,0,0,0,0,0,0,0,0,0,0,0,0,0,0,0,0,0,0,0,0,0,0,0,0,0],"id":13,"left_children":[1,3,5,7,9,11,13,15,17,19,21,23,25,27,29,31,33,35,37,39,41,43,45,47,49,-1,51,53,55,57,59,61,-1,-1,63,65,67,-1,69,71,73,75,77,79,81,83,85,-1,87,89,-1,91,93,95,97,99,-1,101,-1,-1,-1,-1,-1,-1,-1,-1,-1,-1,-1,-1,-1,-1,-1,-1,-1,-1,-1,-1,-1,-1,-1,-1,-1,-1,-1,-1,-1,-1,-1,-1,-1,-1,-1,-1,-1,-1,-1,-1,-1,-1,-1,-1,-1],"loss_changes":[1.02732765E2,8.923973E0,4.005905E1,5.3025894E0,5.50528E0,3.347355E1,1.1165894E1,2.5834346E0,5.231842E0,6.8968954E0,6.855813E0,3.9311414E0,6.7806854E0,7.253396E0,2.4892464E0,2.2123055E0,4.638587E-1,5.165283E0,2.6827526E0,2.854126E0,1.6833556E0,3.0679803E0,9.375149E0,1.7772031E-1,2.737673E0,0E0,7.111244E0,5.16654E0,1.1551195E1,1.6313701E0,7.9343796E-1,2.2951303E0,0E0,0E0,2.4039131E-1,8.916464E0,1.312561E0,0E0,1.0637932E0,6.2961483E-1,1.302837E0,1.7687303E0,5.6073296E-1,2.9996815E0,3.2024455E0,1.722513E0,2.7990313E0,0E0,3.9533332E-1,1.4200463E0,0E0,4.2417603E0,2.127125E0,2.9112773E0,2.549965E0,8.856094E0,0E0,7.626424E-1,0E0,0E0,0E0,0E0,0E0,0E0,0E0,0E0,0E0,0E0,0E0,0E0,0E0,0E0,0E0,0E0,0E0,0E0,0E0,0E0,0E0,0E0,0E0,0E0,0E0,0E0,0E0,0E0,0E0,0E0,0E0,0E0,0E0,0E0,0E0,0E0,0E0,0E0,0E0,0E0,0E0,0E0,0E0,0E0,0E0],"parents":[2147483647,0,0,1,1,2,2,3,3,4,4,5,5,6,6,7,7,8,8,9,9,10,10,11,11,12,12,13,13,14,14,15,15,16,16,17,17,18,18,19,19,20,20,21,21,22,22,23,23,24,24,26,26,27,27,28,28,29,29,30,30,31,31,34,34,35,35,36,36,38,38,39,39,40,40,41,41,42,42,43,43,44,44,45,45,46,46,48,48,49,49,51,51,52,52,53,53,54,54,55,55,57,57],"right_children":[2,4,6,8,10,12,14,16,18,20,22,24,26,28,30,32,34,36,38,40,42,44,46,48,50,-1,52,54,56,58,60,62,-1,-1,64,66,68,-1,70,72,74,76,78,80,82,84,86,-1,88,90,-1,92,94,96,98,100,-1,102,-1,-1,-1,-1,-1,-1,-1,-1,-1,-1,-1,-1,-1,-1,-1,-1,-1,-1,-1,-1,-1,-1,-1,-1,-1,-1,-1,-1,-1,-1,-1,-1,-1,-1,-1,-1,-1,-1,-1,-1,-1,-1,-1,-1,-1],"split_conditions":[2.866556E-3,3.1369412E-4,1.0549804E-3,-7.2409E-2,-4.0274084E-2,1.5888755E1,8.3329186E-2,8.349811E-2,6.087631E-2,-2.2868896E-3,1.0236939E0,-2.7898636E-3,3.3423148E-5,-4.6829496E-2,6.0847884E-5,2.0309374E-1,-8.281895E-2,4.0422173E-4,1.3939778E1,4.8438225E-2,-1.4104024E-2,1.441623E-18,8.888679E-20,8.332989E-2,7.074319E-4,-6.3169005E-5,3.1249512E-3,3.955086E0,8.6102076E-2,-6.338077E-1,-7.343064E-2,-1.3948013E-1,-1.09291075E-4,1.0737717E-3,7.336349E-2,1.3934527E1,8.017509E0,-4.9841293E-4,2.3160573E-2,1.2533428E-2,-7.377212E-2,-4.6482395E-2,1.4552566E-5,9.967752E0,-4.9877465E-2,1.7902615E1,1.3885525E1,-1.6658366E-4,2.6107656E-3,-2.2826128E-2,-4.9710275E-6,-2.4053787E-3,1.3261159E-3,1.5885223E1,8.30269E-2,-8.457878E-2,2.6228044E-3,1.2851917E-4,-6.991029E-5,-4.61483E-4,3.412842E-3,6.289465E-3,-4.0650964E-4,1.4980137E-3,-1.1331444E-4,-7.124118E-3,2.4866879E-3,1.6320152E-3,-9.915993E-3,-2.513528E-5,2.2257022E-3,3.882467E-3,1.101714E-3,7.538199E-4,7.1863405E-4,-4.1603353E-3,6.0494523E-3,2.174905E-3,-2.3573288E-3,6.37216E-3,-2.1592162E-3,3.7710217E-3,-4.7696363E-3,-9.302906E-3,2.5892972E-3,1.3348691E-2,4.1219047E-3,-2.1579266E-4,4.1842463E-6,-1.0297895E-4,1.2974751E-3,2.385457E-3,-1.2411773E-3,7.1525574E-4,9.905077E-6,-3.0276462E-4,5.6481344E-4,5.815577E-3,1.2815016E-3,1.5188482E-3,3.146558E-4,1.1116446E-3,1.2037264E-3],"split_indices":[17,25,23,34,32,3,32,43,34,24,12,26,41,44,25,6,36,13,3,9,6,13,37,30,42,0,11,12,33,8,10,18,0,0,7,2,3,0,9,7,4,12,29,0,46,3,2,0,1,22,0,27,5,0,4,32,0,28,0,0,0,0,0,0,0,0,0,0,0,0,0,0,0,0,0,0,0,0,0,0,0,0,0,0,0,0,0,0,0,0,0,0,0,0,0,0,0,0,0,0,0,0,0],"split_type":[0,0,0,0,0,0,0,0,0,0,0,0,0,0,0,0,0,0,0,0,0,0,0,0,0,0,0,0,0,0,0,0,0,0,0,0,0,0,0,0,0,0,0,0,0,0,0,0,0,0,0,0,0,0,0,0,0,0,0,0,0,0,0,0,0,0,0,0,0,0,0,0,0,0,0,0,0,0,0,0,0,0,0,0,0,0,0,0,0,0,0,0,0,0,0,0,0,0,0,0,0,0,0],"sum_hessian":[1.9096E4,1.6167E4,2.929E3,1.4261E4,1.906E3,3.06E2,2.623E3,5E1,1.4211E4,2.7E2,1.636E3,1.04E2,2.02E2,2.563E3,6E1,2.7E1,2.3E1,1.4134E4,7.7E1,7.2E1,1.98E2,1.494E3,1.42E2,8.5E1,1.9E1,1E1,1.92E2,1.075E3,1.488E3,3.8E1,2.2E1,2.1E1,6E0,1E0,2.2E1,1.173E3,1.2961E4,2.5E1,5.2E1,3.2E1,4E1,1.06E2,9.2E1,8.9E1,1.405E3,8.1E1,6.1E1,8E1,5E0,1.2E1,7E0,1.73E2,1.9E1,1.023E3,5.2E1,1.468E3,2E1,3.1E1,7E0,1E0,2.1E1,1.7E1,4E0,3E0,1.9E1,9.04E2,2.69E2,1.8E1,1.2943E4,6E0,4.6E1,1.4E1,1.8E1,9E0,3.1E1,3E1,7.6E1,1E0,9.1E1,3.9E1,5E1,1.04E2,1.301E3,7.7E1,4E0,2.3E1,3.8E1,4E0,1E0,2E0,1E1,1.68E2,5E0,4E0,1.5E1,8.16E2,2.07E2,3.4E1,1.8E1,6.4E1,1.404E3,2.1E1,1E1],"tree_param":{"num_deleted":"0","num_feature":"48","num_nodes":"103","size_leaf_vector":"1"}},{"base_weights":[-4.873019E-2,-7.723283E-2,1.0856653E-1,1.5329668E-1,-7.98524E-2,5.634831E-1,7.911367E-2,2.9375E-1,-7.042256E-2,-8.868597E-2,-2.4189891E-2,7.9999995E-1,8.499998E-2,6.876167E-2,4.1975307E-1,3.8271603E-1,5.9374977E-2,-9.843753E-3,1.6249998E-1,-9.462256E-2,-3.2500025E-2,-3.813059E-2,1.4176469E-1,-8.750002E-3,8.5625E-1,-9.714289E-3,3.2692304E-1,1.3093257E-1,2.6398467E-2,-2.5000023E-2,6.4259255E-1,5.7941175E-1,2.3541665E-1,1.8333331E-1,-9.333336E-3,6E-2,-8.333336E-3,3.2631576E-1,-9.525684E-2,-6.7546874E-2,2.4761902E-1,-5.8127232E-2,6.646152E-2,3.3263156E-1,-9.868423E-3,8.82243E-2,2.4999999E-1,1.1578945E-1,7.875E-2,6.4259255E-1,1.03980556E-1,1.7673498E-2,4.0277776E-1,-9.56522E-3,2.4999999E-1,7.1836734E-1,-8.333336E-3,-8.000002E-3,6.6999994E-2,6E-2,9.722221E-3,-8.333355E-4,4.8571426E-2,6.363636E-2,-8.888892E-3,-9.573257E-3,2.3888886E-2,-8.855673E-3,3.21951E-3,4.0816094E-4,3.6565658E-2,1.1382977E-2,-6.816202E-3,2.0567374E-2,-4.0000025E-3,-5.2173934E-3,4.4931505E-2,-7.5000017E-3,6E-2,-9.333336E-3,7.2E-2,7.525E-2,3.0666664E-2,2.917763E-2,2.5309469E-3,1.4391891E-2,4.4002602E-4,5.4399997E-2,7.499998E-3,-5.0000013E-3,3.2E-2,4.083333E-2,7.973684E-2],"categories":[],"categories_nodes":[],"categories_segments":[],"categories_sizes":[],"default_left":[0,0,0,0,0,0,0,0,0,0,0,0,0,0,0,0,0,0,0,0,0,0,0,0,0,0,0,0,0,0,0,0,0,0,0,0,0,0,0,0,0,0,0,0,0,0,0,0,0,0,0,0,0,0,0,0,0,0,0,0,0,0,0,0,0,0,0,0,0,0,0,0,0,0,0,0,0,0,0,0,0,0,0,0,0,0,0,0,0,0,0,0,0],"id":14,"left_children":[1,3,5,7,9,11,13,15,17,19,21,23,25,27,29,31,33,-1,35,37,39,41,43,-1,45,-1,47,49,51,53,55,57,59,61,-1,-1,-1,63,65,67,69,71,73,75,-1,-1,77,79,-1,81,83,85,87,-1,89,91,-1,-1,-1,-1,-1,-1,-1,-1,-1,-1,-1,-1,-1,-1,-1,-1,-1,-1,-1,-1,-1,-1,-1,-1,-1,-1,-1,-1,-1,-1,-1,-1,-1,-1,-1,-1,-1],"loss_changes":[8.562733E1,9.775925E0,3.9213303E1,5.7395096E0,7.8586426E0,2.0076138E1,9.679041E0,2.3126345E0,4.7929356E-1,4.5989532E0,5.074333E0,6.0156326E0,2.6756318E0,7.036578E0,8.043859E0,2.2104225E0,6.228542E-1,0E0,9.104167E-1,3.3626556E0,1.2975549E1,4.2328587E0,7.834761E0,0E0,1.5443573E0,0E0,2.437141E0,1.4868042E1,5.2175627E0,5.679348E-1,3.0302334E0,2.084588E0,2.3600698E0,1.047262E0,0E0,0E0,0E0,2.5024986E0,2.0034943E0,2.4630432E0,4.224251E0,2.9377456E0,4.82497E0,4.2889833E0,0E0,0E0,7.2749996E-1,2.4679298E0,0E0,1.7629528E0,1.5209934E1,2.6067328E0,1.6256232E0,0E0,1.4199999E-1,8.7456703E-1,0E0,0E0,0E0,0E0,0E0,0E0,0E0,0E0,0E0,0E0,0E0,0E0,0E0,0E0,0E0,0E0,0E0,0E0,0E0,0E0,0E0,0E0,0E0,0E0,0E0,0E0,0E0,0E0,0E0,0E0,0E0,0E0,0E0,0E0,0E0,0E0,0E0],"parents":[2147483647,0,0,1,1,2,2,3,3,4,4,5,5,6,6,7,7,8,8,9,9,10,10,11,11,12,12,13,13,14,14,15,15,16,16,18,18,19,19,20,20,21,21,22,22,24,24,26,26,27,27,28,28,29,29,30,30,31,31,32,32,33,33,37,37,38,38,39,39,40,40,41,41,42,42,43,43,46,46,47,47,49,49,50,50,51,51,52,52,54,54,55,55],"right_children":[2,4,6,8,10,12,14,16,18,20,22,24,26,28,30,32,34,-1,36,38,40,42,44,-1,46,-1,48,50,52,54,56,58,60,62,-1,-1,-1,64,66,68,70,72,74,76,-1,-1,78,80,-1,82,84,86,88,-1,90,92,-1,-1,-1,-1,-1,-1,-1,-1,-1,-1,-1,-1,-1,-1,-1,-1,-1,-1,-1,-1,-1,-1,-1,-1,-1,-1,-1,-1,-1,-1,-1,-1,-1,-1,-1,-1,-1],"split_conditions":[2.866556E-3,-3.835215E-1,6.3443184E-4,2.0748842E-1,2.7295316E-4,4.7413085E-2,8.789632E-2,4.1837677E-2,1.2238067E1,-2.2448129E-18,3.6018184E-1,-5.0406938E0,8.2043536E-2,8.041235E-3,-2.397192E-3,3.4756772E-3,1.8166653E-4,-8.710425E-3,1.3252803E1,8.017509E0,1.5819241E1,3.5874184E-2,-3.204178E-3,-5.685091E-5,1.8750662E-1,-1.1107029E-4,7.4626333E-3,-8.457878E-2,8.3329186E-2,1.384368E-1,1.7892694E1,3.1868313E-4,-2.2905667E-3,1.5543304E-4,-5.732478E-4,1.3051388E-2,-2.5413392E-2,1.2809607E-2,7.7430464E-2,1.22061405E1,-3.7681618E-19,1.441623E-18,1.8572418E-2,5.3521874E-3,-1.930836E-3,2.17313E-3,3.3461817E-2,1.4323033E-3,1.8922448E-3,1.3138224E-2,-1.5388836E-2,-8.5645854E-2,1.2275446E-4,-2.3242187E-4,3.2872654E-2,6.60327E-3,-1.3066828E-3,-2.0482957E-3,4.9395585E-3,1.2506484E-3,8.707448E-4,5.411575E-4,1.3482095E-3,2.4018884E-3,-2.284646E-4,-9.000719E-3,3.0016245E-3,-8.672631E-3,5.3633604E-4,3.37648E-5,4.6703178E-3,4.8460583E-3,-4.379609E-3,5.473453E-3,-7.22039E-4,-1.7530235E-4,2.1665527E-3,-9.267926E-5,8.0129504E-4,-1.6650567E-5,1.1958302E-3,2.4435578E-3,8.7624183E-4,6.5813464E-4,1.0873786E-4,1.7471969E-3,2.633914E-5,2.6538186E-3,9.470246E-4,-3.0224682E-3,7.8350306E-4,1.3069463E-3,2.1566593E-3],"split_indices":[17,22,23,21,25,38,33,37,0,44,4,12,30,37,40,5,25,0,0,3,2,43,26,0,13,0,40,32,32,19,3,35,27,25,0,0,0,43,33,2,30,13,31,37,0,0,7,11,0,4,4,32,28,0,1,1,0,0,0,0,0,0,0,0,0,0,0,0,0,0,0,0,0,0,0,0,0,0,0,0,0,0,0,0,0,0,0,0,0,0,0,0,0],"split_type":[0,0,0,0,0,0,0,0,0,0,0,0,0,0,0,0,0,0,0,0,0,0,0,0,0,0,0,0,0,0,0,0,0,0,0,0,0,0,0,0,0,0,0,0,0,0,0,0,0,0,0,0,0,0,0,0,0,0,0,0,0,0,0,0,0,0,0,0,0,0,0,0,0,0,0,0,0,0,0,0,0,0,0,0,0,0,0,0,0,0,0,0,0],"sum_hessian":[1.9096E4,1.6167E4,2.929E3,1.81E2,1.5986E4,1.77E2,2.752E3,1.11E2,7E1,1.3796E4,2.19E3,1.18E2,5.9E1,2.672E3,8E1,8E1,3.1E1,6.3E1,7E0,1.2477E4,1.319E3,2.021E3,1.69E2,7E0,1.11E2,3.4E1,2.5E1,1.082E3,1.59E3,2.7E1,5.3E1,3.3E1,4.7E1,1.7E1,1.4E1,2E0,5E0,1.8E1,1.2459E4,1.173E3,1.46E2,1.697E3,3.24E2,9.4E1,7.5E1,1.06E2,5E0,1.8E1,7E0,5.3E1,1.029E3,1.555E3,3.5E1,2.2E1,5E0,4.8E1,5E0,4E0,2.9E1,1.2E1,3.5E1,1.1E1,6E0,1E1,8E0,1.2442E4,1.7E1,9.69E2,2.04E2,4.8E1,9.8E1,9.3E1,1.604E3,1.4E2,1.84E2,2.2E1,7.2E1,3E0,2E0,1.4E1,4E0,3.9E1,1.4E1,3.03E2,7.26E2,1.47E2,1.408E3,2.4E1,1.1E1,1E0,4E0,1.1E1,3.7E1],"tree_param":{"num_deleted":"0","num_feature":"48","num_nodes":"93","size_leaf_vector":"1"}},{"base_weights":[-5.0720032E-2,-7.679988E-2,9.3208164E-2,-8.785064E-2,-3.1210417E-2,6.776596E-1,7.381034E-2,-2.947643E-2,-9.5718175E-2,-4.23129E-2,1.4136124E-1,2.4687497E-1,8.857142E-2,5.2708334E-1,6.598564E-2,2.9545453E-1,-4.3927148E-2,-9.6999586E-2,4.6601918E-2,7.0853055E-2,-6.1060928E-2,-9.850749E-3,2.688E-1,6.399998E-2,7.875E-2,1.4285712E-1,7.9642856E-1,5.649444E-2,3.8271603E-1,2.1754384E-1,7.1E-1,4.897957E-2,-7.184213E-2,4.1249996E-1,-9.734991E-2,-9.852944E-3,3.1944442E-1,2.176056E-1,-3.5587426E-3,1.1374997E-1,-6.670724E-2,3.8271603E-1,5.7777755E-2,-9.523812E-3,7.2E-2,-9.333336E-3,6.285714E-1,8.6399995E-2,1.7499998E-1,-3.2397028E-2,7.827283E-2,-2.3072765E-8,6.078431E-1,3.40625E-2,5.7692286E-3,-5.0000013E-3,8E-2,-1.2167324E-3,2.4691356E-2,3.6923077E-2,-7.6861726E-3,1.1999998E-2,6.7499995E-2,3.2E-2,-9.752513E-3,7.5E-2,2.2580644E-2,5.9310343E-2,1.2017542E-2,2.9444441E-2,-2.386366E-3,-9.600002E-3,2.0535713E-2,5.1999997E-2,-6.7871674E-3,6.399998E-3,5.1578946E-2,3.6923077E-2,-6.666669E-3,7.5E-2,-5.0000013E-3,-6.6666687E-3,4.4999998E-2,2.7708331E-2,-6.28337E-3,8.296296E-2,6.880518E-3,2.0999998E-2,-9.545457E-3,6.6808514E-2,-8.000002E-3],"categories":[],"categories_nodes":[],"categories_segments":[],"categories_sizes":[],"default_left":[0,0,0,0,0,0,0,0,0,0,0,0,0,0,0,0,0,0,0,0,0,0,0,0,0,0,0,0,0,0,0,0,0,0,0,0,0,0,0,0,0,0,0,0,0,0,0,0,0,0,0,0,0,0,0,0,0,0,0,0,0,0,0,0,0,0,0,0,0,0,0,0,0,0,0,0,0,0,0,0,0,0,0,0,0,0,0,0,0,0,0],"id":15,"left_children":[1,3,5,7,9,11,13,15,17,19,21,23,-1,25,27,29,31,33,35,37,39,-1,41,43,-1,45,47,49,51,53,55,57,59,61,63,-1,65,67,69,71,73,75,77,-1,-1,-1,79,-1,81,83,85,87,89,-1,-1,-1,-1,-1,-1,-1,-1,-1,-1,-1,-1,-1,-1,-1,-1,-1,-1,-1,-1,-1,-1,-1,-1,-1,-1,-1,-1,-1,-1,-1,-1,-1,-1,-1,-1,-1,-1],"loss_changes":[7.169014E1,8.14267E0,3.316765E1,5.9735413E0,6.0527964E0,8.206257E0,1.002728E1,7.276895E0,2.0957565E0,6.297106E0,5.865076E0,3.1133375E0,0E0,4.8537207E0,8.365539E0,1.97718E0,3.8470695E0,2.0687103E0,4.110069E0,4.609066E0,2.519598E0,0E0,2.9827385E0,2.6800761E0,0E0,2.4678097E0,1.0245419E0,5.2488604E0,6.97894E0,1.1018071E0,7.2400045E-1,4.1543503E0,2.552349E0,5.332501E-1,8.6177063E-1,0E0,1.2820339E0,5.1237674E0,1.7073377E0,1.5568821E0,1.7200146E0,3.4024134E0,1.7687522E0,0E0,0E0,0E0,6.142857E-1,0E0,2.9583335E-1,5.0474505E0,1.5429178E1,6.414546E-1,2.1667347E0,0E0,0E0,0E0,0E0,0E0,0E0,0E0,0E0,0E0,0E0,0E0,0E0,0E0,0E0,0E0,0E0,0E0,0E0,0E0,0E0,0E0,0E0,0E0,0E0,0E0,0E0,0E0,0E0,0E0,0E0,0E0,0E0,0E0,0E0,0E0,0E0,0E0,0E0],"parents":[2147483647,0,0,1,1,2,2,3,3,4,4,5,5,6,6,7,7,8,8,9,9,10,10,11,11,13,13,14,14,15,15,16,16,17,17,18,18,19,19,20,20,22,22,23,23,25,25,26,26,27,27,28,28,29,29,30,30,31,31,32,32,33,33,34,34,36,36,37,37,38,38,39,39,40,40,41,41,42,42,46,46,48,48,49,49,50,50,51,51,52,52],"right_children":[2,4,6,8,10,12,14,16,18,20,22,24,-1,26,28,30,32,34,36,38,40,-1,42,44,-1,46,48,50,52,54,56,58,60,62,64,-1,66,68,70,72,74,76,78,-1,-1,-1,80,-1,82,84,86,88,90,-1,-1,-1,-1,-1,-1,-1,-1,-1,-1,-1,-1,-1,-1,-1,-1,-1,-1,-1,-1,-1,-1,-1,-1,-1,-1,-1,-1,-1,-1,-1,-1,-1,-1,-1,-1,-1,-1],"split_conditions":[2.866556E-3,1.7710819E-4,3.9847216E-4,3.6656797E-6,1.0236939E0,2.2381142E-4,-8.400705E-2,-1.21029474E-1,3.7178782E-1,-3.902915E-2,6.758403E-22,1.2814025E-3,1.9424086E-3,7.682712E-1,8.789632E-2,-1.4116819E-1,-1.0705283E-3,2.1206376E-6,1.3885525E1,-1.0056718E-3,7.954387E-19,-1.7952288E-2,1.1412595E-1,1.785093E1,2.147001E-3,-8.608245E-2,2.1933142E-2,1.2589096E1,7.0642405E-3,4.468463E-2,7.979931E0,2.5213592E-18,8.189996E0,1.7891814E-3,-4.12374E-1,-1.841298E-3,2.346488E-2,1.6984255E-3,-2.3372504E-3,2.9577407E-20,1.2481001E-22,5.8171616E-19,-2.2905667E-3,-2.5839225E-5,1.953125E-4,-1.2376012E-4,6.288337E-5,2.822676E-3,2.095963E-3,1.4403654E-4,1.3683812E1,7.455717E-2,1.7892694E1,2.1196872E-3,7.1831694E-4,-4.0543377E-3,7.643646E-3,-2.5008895E-4,2.3808877E-3,1.9426451E-3,-8.159484E-3,9.046829E-3,1.7938513E-2,4.061675E-3,-8.163272E-3,7.1813944E-3,2.0574764E-3,4.6602627E-3,1.164232E-3,1.6571534E-3,-1.4377482E-3,-1.8631559E-2,4.7228592E-3,3.8547756E-3,-3.2873824E-3,1.470649E-3,6.859957E-3,1.5949112E-3,-2.030069E-4,5.446851E-4,-1.7732382E-5,-3.4902693E-4,8.116961E-5,2.9490944E-3,-1.0012538E-3,1.6932607E-3,2.608657E-4,7.051527E-4,-8.5735366E-5,1.8974667E-3,-1.1760116E-3],"split_indices":[17,25,23,45,12,23,30,44,22,32,41,11,0,9,33,44,27,11,2,27,31,0,7,2,0,32,40,0,40,13,0,33,0,43,8,0,13,11,24,37,47,11,27,0,0,0,41,0,5,31,2,30,3,0,0,0,0,0,0,0,0,0,0,0,0,0,0,0,0,0,0,0,0,0,0,0,0,0,0,0,0,0,0,0,0,0,0,0,0,0,0],"split_type":[0,0,0,0,0,0,0,0,0,0,0,0,0,0,0,0,0,0,0,0,0,0,0,0,0,0,0,0,0,0,0,0,0,0,0,0,0,0,0,0,0,0,0,0,0,0,0,0,0,0,0,0,0,0,0,0,0,0,0,0,0,0,0,0,0,0,0,0,0,0,0,0,0,0,0,0,0,0,0,0,0,0,0,0,0,0,0,0,0,0,0],"sum_hessian":[1.9096E4,1.6167E4,2.929E3,1.3012E4,3.155E3,9.3E1,2.836E3,1.546E3,1.1466E4,2.965E3,1.9E2,3.1E1,6.2E1,4.7E1,2.789E3,6.5E1,1.481E3,1.1364E4,1.02E2,4.21E2,2.544E3,6.6E1,1.24E2,2.4E1,7E0,2E1,2.7E1,2.709E3,8E1,5.6E1,9E0,3.42E2,1.139E3,7E0,1.1357E4,6.7E1,3.5E1,1.41E2,2.8E2,7.9E1,2.465E3,8E1,4.4E1,2E1,4E0,1.4E1,6E0,2.4E1,3E0,5.33E2,2.176E3,3E1,5E1,3.1E1,2.5E1,1E0,8E0,2.62E2,8E1,1.2E1,1.127E3,4E0,3E0,4E0,1.1353E4,5E0,3E1,2.8E1,1.13E2,1.7E1,2.63E2,2.4E1,5.5E1,4E0,2.461E3,2.4E1,5.6E1,1.2E1,3.2E1,5E0,1E0,2E0,1E0,4.7E1,4.86E2,2.6E1,2.15E3,9E0,2.1E1,4.6E1,4E0],"tree_param":{"num_deleted":"0","num_feature":"48","num_nodes":"91","size_leaf_vector":"1"}},{"base_weights":[-5.1714953E-2,-7.6057665E-2,8.262796E-2,-8.651491E-2,-3.0797126E-2,6.56383E-1,6.358828E-2,-2.9748896E-2,-9.4119705E-2,-4.0726397E-2,1.0945271E-1,2.4687497E-1,8.539682E-1,8.4E-2,5.944029E-2,2.2499998E-1,-4.1386295E-2,5.7777774E-1,-9.4634086E-2,-5.6356993E-2,5.953E-2,2.81E-1,-5.9803944E-2,6.399998E-2,7.875E-2,8.852459E-2,-6.6666687E-3,5.060151E-2,3.5802466E-1,3.6410254E-1,3.6666643E-2,-5.523812E-2,1.13934405E-1,-6.6666687E-3,7.714286E-2,-9.5980495E-2,5.333331E-2,5.7777774E-1,-5.8667235E-2,2.5982904E-1,-2.8464444E-2,5.931034E-1,1.5138887E-1,-7.87879E-2,4.2499998E-1,-9.523812E-3,7.2E-2,-3.6142346E-2,7.153844E-2,1.8032785E-1,8.571428E-2,4.7499996E-2,7.499998E-3,2.4444444E-2,-5.000002E-3,3.6923077E-2,-5.927571E-3,4.695652E-2,3.0999978E-3,4.1249998E-2,-9.632702E-3,-9.855076E-3,3.3513512E-2,7.714286E-2,-6.6666687E-3,-7.0707574E-3,1.9571842E-3,6.55E-2,1.765306E-2,-4.842522E-3,3.3571426E-2,5.714284E-3,7.304348E-2,3.7288112E-3,6.2142856E-2,-8.8541685E-3,1.7499998E-2,-5.0000013E-3,6E-2,2.7428571E-2,-5.7800026E-3,7.925926E-2,6.2591555E-3,4.423077E-2,-1.3888913E-3],"categories":[],"categories_nodes":[],"categories_segments":[],"categories_sizes":[],"default_left":[0,0,0,0,0,0,0,0,0,0,0,0,0,0,0,0,0,0,0,0,0,0,0,0,0,0,0,0,0,0,0,0,0,0,0,0,0,0,0,0,0,0,0,0,0,0,0,0,0,0,0,0,0,0,0,0,0,0,0,0,0,0,0,0,0,0,0,0,0,0,0,0,0,0,0,0,0,0,0,0,0,0,0,0,0],"id":16,"left_children":[1,3,5,7,9,11,13,15,17,19,21,23,25,-1,27,29,31,33,35,37,39,41,43,45,-1,-1,-1,47,49,51,53,55,57,-1,-1,59,61,63,65,67,69,71,73,75,77,-1,-1,79,81,83,-1,-1,-1,-1,-1,-1,-1,-1,-1,-1,-1,-1,-1,-1,-1,-1,-1,-1,-1,-1,-1,-1,-1,-1,-1,-1,-1,-1,-1,-1,-1,-1,-1,-1,-1],"loss_changes":[6.2458652E1,7.6496506E0,3.1965923E1,5.666641E0,4.2323275E0,7.3949814E0,9.086755E0,4.6133575E0,4.057213E0,4.447557E0,5.8529434E0,3.1133375E0,1.8731155E0,0E0,7.432124E0,1.7680898E0,3.203385E0,1.174603E0,2.3107529E0,3.6290207E0,6.7578487E0,3.955418E0,9.722416E-1,2.6800761E0,0E0,0E0,0E0,4.9842854E0,7.029462E0,1.2147441E0,5.5244446E-1,2.3612652E0,3.583716E0,0E0,0E0,2.0605774E0,4.5271535E0,1.174603E0,2.3055763E0,3.7356763E0,1.9571575E0,2.092783E0,3.8383236E0,2.6055872E-1,3.6249995E-1,0E0,0E0,3.606016E0,1.4207517E1,3.1098764E0,0E0,0E0,0E0,0E0,0E0,0E0,0E0,0E0,0E0,0E0,0E0,0E0,0E0,0E0,0E0,0E0,0E0,0E0,0E0,0E0,0E0,0E0,0E0,0E0,0E0,0E0,0E0,0E0,0E0,0E0,0E0,0E0,0E0,0E0,0E0],"parents":[2147483647,0,0,1,1,2,2,3,3,4,4,5,5,6,6,7,7,8,8,9,9,10,10,11,11,12,12,14,14,15,15,16,16,17,17,18,18,19,19,20,20,21,21,22,22,23,23,27,27,28,28,29,29,30,30,31,31,32,32,35,35,36,36,37,37,38,38,39,39,40,40,41,41,42,42,43,43,44,44,47,47,48,48,49,49],"right_children":[2,4,6,8,10,12,14,16,18,20,22,24,26,-1,28,30,32,34,36,38,40,42,44,46,-1,-1,-1,48,50,52,54,56,58,-1,-1,60,62,64,66,68,70,72,74,76,78,-1,-1,80,82,84,-1,-1,-1,-1,-1,-1,-1,-1,-1,-1,-1,-1,-1,-1,-1,-1,-1,-1,-1,-1,-1,-1,-1,-1,-1,-1,-1,-1,-1,-1,-1,-1,-1,-1,-1],"split_conditions":[2.866556E-3,1.8684914E-4,3.9847216E-4,3.6656797E-6,3.6018184E-1,2.2381142E-4,7.562826E-4,-1.21029474E-1,-7.2409E-2,2.9965682E-2,-2.3372504E-3,1.2814025E-3,3.5959838E-3,2.090177E-3,8.789632E-2,4.3493167E-2,1.51956835E1,1.1954814E1,3.7178782E-1,1.2481001E-22,2.4101185E-3,3.5781646E-3,1.56279E-2,1.785093E1,1.9322991E-3,1.7592472E-3,-7.593632E-5,1.2589096E1,4.360541E-2,2.1174455E-18,-2.0818619E-4,8.189996E0,1.5923268E1,-2.3429388E-2,1.2995616E-2,2.1206376E-6,1.3885525E1,-6.018097E-19,4.395316E-2,2.2065317E-2,3.4589868E-2,1.1873753E-1,9.639944E-2,2.2849508E-1,1.3858409E1,-2.3252382E-5,1.7578006E-4,-7.85339E-2,1.3683812E1,2.059962E-2,1.9551131E-3,4.3784915E-3,2.4711732E-3,7.5974467E-4,-8.8259025E-5,1.7483815E-3,-5.418247E-3,1.9906997E-3,3.7639088E-4,1.6144661E-2,-7.3475167E-3,-1.7053894E-3,2.7465457E-3,3.4693002E-3,-2.761811E-3,-4.2238976E-3,5.4657913E-4,1.2478693E-2,1.6066307E-3,-1.8449499E-3,2.809857E-3,9.875894E-5,3.5482738E-3,2.888148E-4,1.5677897E-3,-8.075204E-4,5.0115585E-4,-1.7438888E-3,4.300773E-4,3.016597E-3,-8.2148454E-4,1.5239358E-3,2.5718656E-4,1.3632309E-3,-3.639586E-6],"split_indices":[17,25,23,45,4,23,19,44,34,46,24,11,1,0,33,13,0,0,22,47,47,47,23,2,0,0,0,0,40,33,28,0,3,0,0,11,2,10,43,43,23,1,13,10,2,0,0,33,2,1,0,0,0,0,0,0,0,0,0,0,0,0,0,0,0,0,0,0,0,0,0,0,0,0,0,0,0,0,0,0,0,0,0,0,0],"split_type":[0,0,0,0,0,0,0,0,0,0,0,0,0,0,0,0,0,0,0,0,0,0,0,0,0,0,0,0,0,0,0,0,0,0,0,0,0,0,0,0,0,0,0,0,0,0,0,0,0,0,0,0,0,0,0,0,0,0,0,0,0,0,0,0,0,0,0,0,0,0,0,0,0,0,0,0,0,0,0,0,0,0,0,0,0],"sum_hessian":[1.9096E4,1.6167E4,2.929E3,1.3132E4,3.035E3,9.3E1,2.836E3,1.552E3,1.158E4,2.835E3,2E2,3.1E1,6.2E1,1.4E1,2.822E3,6.7E1,1.485E3,8E0,1.1572E4,2.453E3,3.82E2,9.9E1,1.01E2,2.4E1,7E0,6E1,2E0,2.742E3,8E1,3.8E1,2.9E1,1.364E3,1.21E2,2E0,6E0,1.1468E4,1.04E2,8E0,2.445E3,1.16E2,2.66E2,2.8E1,7.1E1,9.8E1,3E0,2E1,4E0,5.33E2,2.209E3,6E1,2E1,2.7E1,1.1E1,8E0,2.1E1,1.2E1,1.352E3,2.2E1,9.9E1,7E0,1.1461E4,6.8E1,3.6E1,6E0,2E0,2.119E3,3.26E2,1.9E1,9.7E1,2.53E2,1.3E1,6E0,2.2E1,5.8E1,1.3E1,9.5E1,3E0,1E0,2E0,3.4E1,4.99E2,2.6E1,2.183E3,2.5E1,3.5E1],"tree_param":{"num_deleted":"0","num_feature":"48","num_nodes":"85","size_leaf_vector":"1"}},{"base_weights":[-5.2709874E-2,-7.512991E-2,7.102387E-2,2.5451872E-3,-8.302674E-2,4.5548385E-1,4.9531676E-2,-3.3010587E-2,1.15363106E-1,-8.9075714E-2,5.7630497E-3,-9.629632E-3,5.674418E-1,8.307692E-2,4.583934E-2,5.8333334E-2,-3.6251128E-2,5.6679924E-3,3.5625E-1,-9.55374E-2,-3.1779077E-2,-7.305125E-2,7.8118585E-2,-9.600002E-3,7.1999997E-1,1.9016972E-2,1.45068E-1,2.004355E-2,-7.4591406E-2,-1.6597534E-2,7.714286E-2,2.1311472E-1,5.1730764E-1,-9.671583E-2,9.420266E-3,3.885714E-1,-4.2573553E-2,3.3571425E-1,-8.60092E-2,1.8930478E-1,9.2409E-3,7.988636E-1,2.944444E-1,1.1524998E-1,-2.6434434E-3,1.08064495E-1,8.064516E-1,-2.2349595E-3,1.5315314E-2,1.5833331E-2,-7.870093E-3,6.625E-2,-3.9743613E-3,3.272727E-2,7.5862044E-3,2.0869564E-2,7.366666E-2,1.5416664E-2,-9.720196E-3,-5.000002E-3,4.352941E-2,5.4399997E-2,-2.1674418E-9,-5.6444122E-3,2.027397E-2,-8.750002E-3,7.714286E-2,-9.50472E-3,2.1538459E-2,2.784808E-3,3.0458713E-2,2.5952378E-2,-3.0916054E-3,3.7647057E-2,8.875E-2,6.888889E-2,-9.000002E-3,-4.0131602E-3,2.0963853E-2,4.408738E-3,-3.8961065E-3,4.3265305E-2,7.6666647E-3,8.689655E-2,-6.6666687E-3],"categories":[],"categories_nodes":[],"categories_segments":[],"categories_sizes":[],"default_left":[0,0,0,0,0,0,0,0,0,0,0,0,0,0,0,0,0,0,0,0,0,0,0,0,0,0,0,0,0,0,0,0,0,0,0,0,0,0,0,0,0,0,0,0,0,0,0,0,0,0,0,0,0,0,0,0,0,0,0,0,0,0,0,0,0,0,0,0,0,0,0,0,0,0,0,0,0,0,0,0,0,0,0,0,0],"id":17,"left_children":[1,3,5,7,9,11,13,15,17,19,21,-1,23,-1,25,-1,27,29,31,33,35,37,39,-1,41,43,45,47,49,51,-1,53,55,57,59,61,63,65,67,69,71,73,75,77,79,81,83,-1,-1,-1,-1,-1,-1,-1,-1,-1,-1,-1,-1,-1,-1,-1,-1,-1,-1,-1,-1,-1,-1,-1,-1,-1,-1,-1,-1,-1,-1,-1,-1,-1,-1,-1,-1,-1,-1],"loss_changes":[5.2982605E1,9.91745E0,2.41877E1,5.9927216E0,7.8828125E0,9.629955E0,7.969546E0,2.2900658E0,9.457813E0,5.0839615E0,5.3490906E0,0E0,1.3125656E1,0E0,7.353759E0,0E0,2.442593E0,4.224169E0,2.471693E0,1.5280533E0,6.341767E0,2.407121E0,3.7431343E0,0E0,3.2886658E0,