{"learner":{"attributes":{"scikit_learn":"{\"_estimator_type\": \"regressor\"}"},"feature_names":[],"feature_types":[],"gradient_booster":{"model":{"gbtree_model_param":{"num_parallel_tree":"1","num_trees":"200"},"iteration_indptr":[0,1,2,3,4,5,6,7,8,9,10,11,12,13,14,15,16,17,18,19,20,21,22,23,24,25,26,27,28,29,30,31,32,33,34,35,36,37,38,39,40,41,42,43,44,45,46,47,48,49,50,51,52,53,54,55,56,57,58,59,60,61,62,63,64,65,66,67,68,69,70,71,72,73,74,75,76,77,78,79,80,81,82,83,84,85,86,87,88,89,90,91,92,93,94,95,96,97,98,99,100,101,102,103,104,105,106,107,108,109,110,111,112,113,114,115,116,117,118,119,120,121,122,123,124,125,126,127,128,129,130,131,132,133,134,135,136,137,138,139,140,141,142,143,144,145,146,147,148,149,150,151,152,153,154,155,156,157,158,159,160,161,162,163,164,165,166,167,168,169,170,171,172,173,174,175,176,177,178,179,180,181,182,183,184,185,186,187,188,189,190,191,192,193,194,195,196,197,198,199,200],"tree_info":[0,0,0,0,0,0,0,0,0,0,0,0,0,0,0,0,0,0,0,0,0,0,0,0,0,0,0,0,0,0,0,0,0,0,0,0,0,0,0,0,0,0,0,0,0,0,0,0,0,0,0,0,0,0,0,0,0,0,0,0,0,0,0,0,0,0,0,0,0,0,0,0,0,0,0,0,0,0,0,0,0,0,0,0,0,0,0,0,0,0,0,0,0,0,0,0,0,0,0,0,0,0,0,0,0,0,0,0,0,0,0,0,0,0,0,0,0,0,0,0,0,0,0,0,0,0,0,0,0,0,0,0,0,0,0,0,0,0,0,0,0,0,0,0,0,0,0,0,0,0,0,0,0,0,0,0,0,0,0,0,0,0,0,0,0,0,0,0,0,0,0,0,0,0,0,0,0,0,0,0,0,0,0,0,0,0,0,0,0,0,0,0,0,0,0,0,0,0,0,0],"trees":[{"base_weights":[-2.3840602E-8,4.2174742E-1,-3.793165E-2,6.405769E-1,3.1286937E-1,-6.6712655E-2,2.7236485E-1,-1.2500023E-2,6.7082494E-1,3.6297092E-1,-7.438019E-2,3.4303278E-1,-7.307156E-2,2.1681747E-1,7.4580646E-1,4.2499998E-1,-9.523812E-3,5.6696695E-1,8.7636364E-1,1.6677113E-1,4.6481177E-1,4.1666666E-1,-9.913796E-3,2.030769E-1,8.8199995E-2,3.2506872E-3,-8.723968E-2,6.5705127E-1,1.579846E-1,7.8581077E-1,-8.750002E-3,-5.0000013E-3,6E-2,6.934866E-1,1.0684929E-1,8.8231705E-2,-5.0000013E-3,-5.7500023E-2,3.0049998E-1,4.033543E-1,6.785185E-1,6.7499995E-2,-6.6666687E-3,-9.818184E-3,3.191489E-1,-7.445621E-2,1.4982413E-1,-9.320271E-2,1.7773971E-1,7.499998E-2,7.006896E-1,1.09108314E-1,5.5193794E-1,-8.57143E-3,8.232394E-1,3.8620688E-2,7.287554E-2,6.928571E-2,-3.1666688E-3,4.6666663E-2,-9.910717E-3,2.3771426E-2,7.115384E-2,5.047468E-2,2.030864E-2,8.082474E-2,3.384615E-2,7.310345E-2,2.1061946E-2,4.353739E-3,-8.626114E-3,-7.310609E-3,2.4932202E-2,-9.937535E-3,-4.9185487E-3,-8.176473E-3,5.3495932E-2,-8.888892E-3,4.25E-2,7.696721E-2,3.2083333E-2,3.3890554E-3,2.3704661E-2,8.2531646E-2,1.1764704E-2,3.4285713E-2,8.419117E-2],"categories":[],"categories_nodes":[],"categories_segments":[],"categories_sizes":[],"default_left":[0,0,0,0,0,0,0,0,0,0,0,0,0,0,0,0,0,0,0,0,0,0,0,0,0,0,0,0,0,0,0,0,0,0,0,0,0,0,0,0,0,0,0,0,0,0,0,0,0,0,0,0,0,0,0,0,0,0,0,0,0,0,0,0,0,0,0,0,0,0,0,0,0,0,0,0,0,0,0,0,0,0,0,0,0,0,0],"id":0,"left_children":[1,3,5,7,9,11,13,15,17,19,21,23,25,27,29,31,-1,33,35,37,39,41,-1,43,-1,45,47,49,51,53,-1,-1,-1,55,57,-1,-1,59,61,63,65,-1,-1,-1,67,69,71,73,75,77,79,81,83,-1,85,-1,-1,-1,-1,-1,-1,-1,-1,-1,-1,-1,-1,-1,-1,-1,-1,-1,-1,-1,-1,-1,-1,-1,-1,-1,-1,-1,-1,-1,-1,-1,-1],"loss_changes":[3.0398578E2,3.7158325E1,1.5571501E2,1.0280624E1,2.0379478E1,4.159635E1,3.8759995E1,9.0922624E-1,1.0112503E1,1.848497E1,1.5123315E0,1.8226202E1,1.6990356E1,3.4239872E1,5.235817E0,3.6249995E-1,0E0,1.9311134E1,9.541092E-1,9.584573E0,7.751114E0,7.9416656E-1,0E0,6.8500376E0,0E0,2.804137E1,2.095575E1,3.909813E0,2.2487358E1,4.898323E0,0E0,0E0,0E0,2.5471115E0,5.947457E0,0E0,0E0,2.6633391E0,4.992325E0,9.583298E0,5.681988E0,0E0,0E0,0E0,6.1489735E0,2.2449408E0,1.8938692E1,3.516655E0,2.7112164E1,7.261112E-1,3.5525513E0,1.0028996E1,1.5218529E1,0E0,9.8506165E-1,0E0,0E0,0E0,0E0,0E0,0E0,0E0,0E0,0E0,0E0,0E0,0E0,0E0,0E0,0E0,0E0,0E0,0E0,0E0,0E0,0E0,0E0,0E0,0E0,0E0,0E0,0E0,0E0,0E0,0E0,0E0,0E0],"parents":[2147483647,0,0,1,1,2,2,3,3,4,4,5,5,6,6,7,7,8,8,9,9,10,10,11,11,12,12,13,13,14,14,15,15,17,17,18,18,19,19,20,20,21,21,23,23,25,25,26,26,27,27,28,28,29,29,33,33,34,34,37,37,38,38,39,39,40,40,44,44,45,45,46,46,47,47,48,48,49,49,50,50,51,51,52,52,54,54],"right_children":[2,4,6,8,10,12,14,16,18,20,22,24,26,28,30,32,-1,34,36,38,40,42,-1,44,-1,46,48,50,52,54,-1,-1,-1,56,58,-1,-1,60,62,64,66,-1,-1,-1,68,70,72,74,76,78,80,82,84,-1,86,-1,-1,-1,-1,-1,-1,-1,-1,-1,-1,-1,-1,-1,-1,-1,-1,-1,-1,-1,-1,-1,-1,-1,-1,-1,-1,-1,-1,-1,-1,-1,-1],"split_conditions":[-8.609024E-2,-8.837564E-2,8.2262665E-2,2.8563715E-3,4.3202434E-3,-8.10667E-2,8.898817E-2,1.8728383E-1,1.392008E1,4.3583536E-3,-8.468968E-2,1.3901704E1,8.3259406E-20,5.491268E-2,3.351001E-2,1.0823682E-2,-1.181934E-3,-5.727596E-1,8.417705E-2,-3.2866402E0,2.9954234E-1,4.1135717E-2,-7.549032E-3,-2.018155E-3,8.382934E-3,1.3901704E1,3.9107788E-1,-1.3647431E0,9.777121E-2,2.052184E-3,-4.040468E-3,-2.0986914E-3,3.4294726E-4,1.4991365E-2,-9.6199386E-2,1.2214504E-2,-2.299428E-4,-2.8922115E-3,-1.6878528E-3,-9.103586E-2,3.323178E-2,3.192842E-4,-9.213686E-5,-5.075175E-3,3.0653633E-4,-1.0167206E-1,7.7564866E-19,6.183216E-1,1.784215E1,9.0431176E-2,-8.2692075E-1,7.3632975E-3,6.812539E-4,-8.627492E-3,3.4697854E-3,4.068497E-3,9.222811E-3,6.467867E-4,-2.6105584E-3,2.8365732E-3,-1.1836876E-3,1.482385E-3,6.4847516E-3,7.5837346E-3,2.5237126E-3,8.173025E-3,2.1748708E-3,4.7545116E-3,2.2683048E-3,2.2981793E-3,-4.6223705E-3,-2.9827948E-3,4.4541354E-3,-4.1768316E-2,-1.7272773E-3,-2.3046136E-4,4.4030477E-3,-9.545088E-5,3.194833E-3,5.183466E-3,2.9089318E-3,3.7093504E-4,4.9293325E-3,5.4106275E-3,2.0111834E-3,4.409814E-3,9.006972E-3],"split_indices":[32,30,33,23,47,33,32,13,3,23,33,0,45,39,37,1,0,20,4,14,8,1,0,24,0,0,8,8,33,11,0,0,0,1,45,0,0,24,27,32,4,0,0,0,46,46,33,12,2,33,8,5,35,0,19,0,0,0,0,0,0,0,0,0,0,0,0,0,0,0,0,0,0,0,0,0,0,0,0,0,0,0,0,0,0,0,0],"split_type":[0,0,0,0,0,0,0,0,0,0,0,0,0,0,0,0,0,0,0,0,0,0,0,0,0,0,0,0,0,0,0,0,0,0,0,0,0,0,0,0,0,0,0,0,0,0,0,0,0,0,0,0,0,0,0,0,0,0,0,0,0,0,0,0,0,0,0,0,0,0,0,0,0,0,0,0,0,0,0,0,0,0,0,0,0,0,0],"sum_hessian":[1.9E4,1.567E3,1.7433E4,5.19E2,1.048E3,1.5954E4,1.479E3,2.3E1,4.96E2,9.28E2,1.2E2,2.43E2,1.5711E4,1.325E3,1.54E2,3E0,2E1,3.32E2,1.64E2,3.18E2,6.1E2,5E0,1.15E2,1.94E2,4.9E1,2.46E3,1.3251E4,1.55E2,1.17E3,1.47E2,7E0,1E0,2E0,2.6E2,7.2E1,1.63E2,1E0,1.19E2,1.99E2,4.76E2,1.34E2,3E0,2E0,5.4E1,1.4E2,1.608E3,8.52E2,1.296E4,2.91E2,1.1E1,1.44E2,1.042E3,1.28E2,6E0,1.41E2,2.8E1,2.32E2,1.3E1,5.9E1,8E0,1.11E2,1.74E2,2.5E1,3.15E2,1.61E2,9.6E1,3.8E1,2.8E1,1.12E2,1.46E2,1.462E3,2.63E2,5.89E2,1.1365E4,1.595E3,1.69E2,1.22E2,8E0,3E0,1.21E2,2.3E1,6.57E2,3.85E2,7.8E1,5E1,6E0,1.35E2],"tree_param":{"num_deleted":"0","num_feature":"48","num_nodes":"87","size_leaf_vector":"1"}},{"base_weights":[-3.1051235E-3,3.3027726E-1,-4.7566526E-2,6.244394E-1,2.5683972E-1,-7.4157916E-2,2.2753718E-1,5.375817E-1,8.085106E-1,2.023302E-1,5.3827584E-1,1.0690492E-2,-8.99814E-2,4.8073876E-1,1.4009088E-1,7.0410955E-1,1.1704543E-1,1.1999998E-1,8.277372E-1,-9.056628E-3,2.4741516E-1,2.9067793E-1,7.040462E-1,-6.898777E-2,1.5538639E-1,5.3125E-1,-9.074666E-2,2.0546873E-1,6.186508E-1,5.0369434E-2,3.9169547E-1,7.5459456E-1,4.1714284E-1,2.2972949E-2,5.733333E-1,-7.5000017E-3,4.4999998E-2,-5.0000013E-3,8.345588E-1,-6.3013725E-2,2.4255317E-1,2.8999996E-1,-6.577183E-2,1.01428546E-1,5.55102E-1,3.04E-1,7.6644295E-1,-6.3043716E-3,-9.5329694E-2,-3.7591264E-2,2.4612734E-1,8.1818186E-2,-8.333336E-3,-9.812746E-2,-3.8840424E-2,-1.2857166E-2,4.6101692E-1,9.374998E-2,6.5147674E-1,3.095652E-1,7.5930995E-3,5.8582675E-1,2.3803678E-1,2.7272725E-2,7.805714E-2,9.523808E-3,8.4E-2,4.0714286E-2,-6.55738E-3,-7.5000017E-3,7.416667E-2,7.2549015E-2,8.895349E-2,-8.009711E-3,1.9285712E-2,4.1935485E-2,-9.411767E-3,5.9520956E-2,2.3452379E-2,1.5624997E-2,-9.179107E-3,-1.6393466E-3,8.1E-2,6.775E-2,9.999978E-4,8.1E-2,-3.1250024E-3,-8.333336E-3,7.965278E-2,-6.763851E-3,1.7203389E-2,-1.7741959E-3,-9.990304E-3,4.083333E-2,-5.7794703E-3,1.9781744E-2,5.5512816E-2,-9.856942E-3,2.3999998E-2,-5.623396E-3,5.1428568E-2,-9.833336E-3,4.5454543E-2,-1.5384638E-3,5.8297873E-2,4.1666668E-2,-9.090912E-3,8.5301206E-2,5.393548E-2,7.9111114E-2,-2.3506057E-9,-2.7840023E-3,3.0675674E-2,7.217949E-2,3.6199998E-2,3.9080437E-3,4.5974024E-2],"categories":[],"categories_nodes":[],"categories_segments":[],"categories_sizes":[],"default_left":[0,0,0,0,0,0,0,0,0,0,0,0,0,0,0,0,0,0,0,0,0,0,0,0,0,0,0,0,0,0,0,0,0,0,0,0,0,0,0,0,0,0,0,0,0,0,0,0,0,0,0,0,0,0,0,0,0,0,0,0,0,0,0,0,0,0,0,0,0,0,0,0,0,0,0,0,0,0,0,0,0,0,0,0,0,0,0,0,0,0,0,0,0,0,0,0,0,0,0,0,0,0,0,0,0,0,0,0,0,0,0,0,0,0,0,0,0],"id":1,"left_children":[1,3,5,7,9,11,13,15,17,19,21,23,25,27,29,31,33,35,37,39,41,43,45,47,49,51,53,55,57,59,61,63,65,67,69,-1,-1,-1,71,73,75,77,79,81,83,85,87,89,91,93,95,-1,-1,97,99,101,103,105,107,109,111,113,115,-1,-1,-1,-1,-1,-1,-1,-1,-1,-1,-1,-1,-1,-1,-1,-1,-1,-1,-1,-1,-1,-1,-1,-1,-1,-1,-1,-1,-1,-1,-1,-1,-1,-1,-1,-1,-1,-1,-1,-1,-1,-1,-1,-1,-1,-1,-1,-1,-1,-1,-1,-1,-1,-1],"loss_changes":[2.8166086E2,4.81429E1,1.2266669E2,6.6960144E0,2.7366722E1,2.0527939E1,3.265786E1,2.1347076E1,1.767189E0,1.4316853E1,1.1698235E1,2.772672E1,6.1742935E0,1.42608795E1,2.4812029E1,2.8579865E0,3.764152E0,3.5549998E-1,8.620224E-1,3.6129596E0,1.6530289E1,5.8486643E0,4.0853577E0,2.560412E0,1.4963625E1,2.8896775E0,4.9271927E0,7.1474047E0,4.2809753E0,9.000654E0,8.481411E0,2.1028442E0,4.684191E0,2.5439556E0,1.6926675E0,0E0,0E0,0E0,1.7012787E-1,9.727272E-1,2.837095E0,1.831614E1,8.7509114E-1,5.8572507E0,3.262473E0,4.266225E0,3.8756027E0,5.043218E0,3.857069E-1,2.4921227E0,8.56324E0,0E0,0E0,1.7075195E0,1.5460711E1,2.8413224E0,3.4370327E0,9.919508E-1,4.895302E0,1.7143036E1,7.4075513E0,3.6037407E0,7.17185E0,0E0,0E0,0E0,0E0,0E0,0E0,0E0,0E0,0E0,0E0,0E0,0E0,0E0,0E0,0E0,0E0,0E0,0E0,0E0,0E0,0E0,0E0,0E0,0E0,0E0,0E0,0E0,0E0,0E0,0E0,0E0,0E0,0E0,0E0,0E0,0E0,0E0,0E0,0E0,0E0,0E0,0E0,0E0,0E0,0E0,0E0,0E0,0E0,0E0,0E0,0E0,0E0,0E0,0E0],"parents":[2147483647,0,0,1,1,2,2,3,3,4,4,5,5,6,6,7,7,8,8,9,9,10,10,11,11,12,12,13,13,14,14,15,15,16,16,17,17,18,18,19,19,20,20,21,21,22,22,23,23,24,24,25,25,26,26,27,27,28,28,29,29,30,30,31,31,32,32,33,33,34,34,38,38,39,39,40,40,41,41,42,42,43,43,44,44,45,45,46,46,47,47,48,48,49,49,50,50,53,53,54,54,55,55,56,56,57,57,58,58,59,59,60,60,61,61,62,62],"right_children":[2,4,6,8,10,12,14,16,18,20,22,24,26,28,30,32,34,36,38,40,42,44,46,48,50,52,54,56,58,60,62,64,66,68,70,-1,-1,-1,72,74,76,78,80,82,84,86,88,90,92,94,96,-1,-1,98,100,102,104,106,108,110,112,114,116,-1,-1,-1,-1,-1,-1,-1,-1,-1,-1,-1,-1,-1,-1,-1,-1,-1,-1,-1,-1,-1,-1,-1,-1,-1,-1,-1,-1,-1,-1,-1,-1,-1,-1,-1,-1,-1,-1,-1,-1,-1,-1,-1,-1,-1,-1,-1,-1,-1,-1,-1,-1,-1,-1],"split_conditions":[-8.28009E-2,-8.936285E-2,8.2262665E-2,1.392008E1,-4.7390318E-1,6.901272E-19,-2.4193E-3,2.2226892E-1,2.64153E-3,1.4161573E-2,-1.9567763E-2,1.3939539E1,-7.9849795E-2,-1.0404572E0,9.333619E-2,8.9073606E-2,2.3922218E-1,1.0688328E-3,7.946989E-3,2.9805527E-4,4.3202434E-3,-5.491268E-2,-9.801924E-2,1.762531E-18,1.0621105E-18,-2.357902E-4,4.2209136E-1,8.609024E-2,8.313784E-2,1.7366752E-2,-4.1435513E-1,1.5918024E-2,-1.4637178E-1,-7.983393E-2,1.5343786E-2,-2.0910501E-4,1.2674333E-4,-4.683018E-4,8.351537E-3,-4.2619348E-2,-8.609024E-2,-9.718533E-2,-8.468968E-2,-2.7749196E-3,-4.582753E-1,-8.609024E-2,5.515499E-6,-3.7321348E-5,9.968953E0,1.3939772E1,-1.2548297E-18,3.9342446E-3,-6.8462495E-4,5.964359E-1,4.189399E-2,2.237303E-2,1.5430665E-1,-3.4270354E-3,8.7082796E-2,2.1156538E-1,4.707848E-2,5.0145597E-3,9.6584134E-2,1.2117804E-3,8.6266985E-3,3.204484E-3,9.138721E-3,9.054017E-4,-1.4587793E-3,-1.6900062E-3,4.076209E-3,3.0140905E-3,1.1479271E-2,-1.082566E-3,2.4114584E-3,7.327789E-3,-8.9223153E-4,8.610147E-3,3.7102492E-3,9.118241E-4,-2.7867758E-3,-6.3190484E-5,5.865848E-3,4.422772E-3,2.3775273E-3,6.836474E-3,1.6584819E-3,-7.027292E-3,6.5253745E-3,-1.4652265E-3,4.4400585E-3,-1.23958E-3,-3.8823426E-2,4.477478E-3,-1.8692919E-3,3.8003826E-3,4.054248E-3,-3.800514E-2,2.4810494E-3,-2.0870666E-3,5.2115214E-3,-1.7922536E-4,4.427942E-3,3.149966E-5,5.700452E-3,3.7895085E-3,-3.5309442E-4,5.1157023E-3,6.590181E-3,1.1743533E-2,6.572579E-5,-2.8511588E-4,4.301319E-3,4.0399083E-3,4.4633267E-3,4.111033E-4,4.2357934E-3],"split_indices":[32,30,33,3,20,45,27,8,5,1,46,3,30,8,33,10,13,4,7,25,47,38,10,21,33,28,15,33,33,7,6,1,44,45,7,0,0,0,1,36,32,32,33,26,16,32,29,45,3,3,32,0,0,10,5,23,20,26,33,13,5,23,39,0,0,0,0,0,0,0,0,0,0,0,0,0,0,0,0,0,0,0,0,0,0,0,0,0,0,0,0,0,0,0,0,0,0,0,0,0,0,0,0,0,0,0,0,0,0,0,0,0,0,0,0,0,0],"split_type":[0,0,0,0,0,0,0,0,0,0,0,0,0,0,0,0,0,0,0,0,0,0,0,0,0,0,0,0,0,0,0,0,0,0,0,0,0,0,0,0,0,0,0,0,0,0,0,0,0,0,0,0,0,0,0,0,0,0,0,0,0,0,0,0,0,0,0,0,0,0,0,0,0,0,0,0,0,0,0,0,0,0,0,0,0,0,0,0,0,0,0,0,0,0,0,0,0,0,0,0,0,0,0,0,0,0,0,0,0,0,0,0,0,0,0,0,0],"sum_hessian":[1.9E4,2.235E3,1.6765E4,4.45E2,1.79E3,1.5288E4,1.477E3,3.05E2,1.4E2,1.501E3,2.89E2,2.403E3,1.2885E4,3.78E2,1.099E3,2.18E2,8.7E1,4E0,1.36E2,2.64E2,1.237E3,1.17E2,1.72E2,1.55E3,8.53E2,1.5E1,1.287E4,1.27E2,2.51E2,8.11E2,2.88E2,1.84E2,3.4E1,7.3E1,1.4E1,3E0,1E0,1E0,1.35E2,2.18E2,4.6E1,1.089E3,1.48E2,6.9E1,4.8E1,2.4E1,1.48E2,4.59E2,1.091E3,2.73E2,5.8E2,1E1,5E0,1.1267E4,1.603E3,6.9E1,5.8E1,1.5E1,2.36E2,1.14E2,6.97E2,1.26E2,1.62E2,1E1,1.74E2,2E1,1.4E1,1.3E1,6E1,3E0,1.1E1,5E1,8.5E1,2.05E2,1.3E1,3E1,1.6E1,1.66E2,9.23E2,1.5E1,1.33E2,6E1,9E0,3.9E1,9E0,9E0,1.5E1,5E0,1.43E2,3.42E2,1.17E2,6.1E1,1.03E3,1.1E1,2.62E2,5.03E2,7.7E1,1.1253E4,1.4E1,1.555E3,4.8E1,5.9E1,1E1,1.2E1,4.6E1,5E0,1E1,8.2E1,1.54E2,4.4E1,7E1,6.24E2,7.3E1,7.7E1,4.9E1,8.6E1,7.6E1],"tree_param":{"num_deleted":"0","num_feature":"48","num_nodes":"117","size_leaf_vector":"1"}},{"base_weights":[-4.2629573E-3,-7.352841E-2,2.0764792E-1,2.2630248E-2,-8.926629E-2,5.4442304E-1,1.6552135E-1,-7.479743E-2,1.7634268E-1,-9.1551974E-2,1.7980766E-1,4.5299143E-1,7.2999996E-1,1.23630695E-1,4.041868E-1,6.624202E-2,-9.526904E-2,1.4705072E-1,5.685185E-1,-9.771516E-2,-1.4066735E-3,9.883719E-2,5.368421E-1,6.065306E-1,9.7196236E-2,1.4117645E-1,7.902597E-1,9.463896E-2,4.1930377E-1,5.2665144E-1,1.081967E-1,7.714286E-2,3.311256E-2,-1.5000024E-2,-9.990188E-3,1.1019784E-1,4.7671232E-1,8.344827E-1,2.4999997E-1,4.3157893E-1,-9.858836E-2,-7.243153E-2,2.0703515E-1,2.1568625E-1,-6.944447E-2,6.5625E-1,-7.5000017E-3,4.642857E-1,7.5083333E-1,1.9354815E-2,5.733333E-1,-8.888892E-3,3.5555553E-1,5.8113205E-1,8.9117646E-2,1.7548424E-1,9.835002E-3,6.456376E-1,2.1607141E-1,6.6763633E-1,2.884848E-1,-4.786327E-2,3.7910447E-1,2.1476487E-3,6E-2,2.1538459E-2,-7.7083358E-3,6.3300948E-3,2.7832165E-2,5.134328E-2,5.714284E-3,8.678571E-2,-5.0000013E-3,6.583333E-2,-9.333336E-3,-8.750002E-3,7.416667E-2,-9.946239E-3,6.833331E-3,3.8532086E-3,-9.76891E-3,2.5941176E-2,-9.666669E-3,6.285714E-2,1.4666664E-2,2.6666665E-2,-9.705885E-3,7.538461E-2,1.7499998E-2,5.536842E-2,1.8437497E-2,6E-2,8.573529E-2,-4.7435923E-3,3.4374997E-2,-7.5000017E-3,7.416667E-2,-7.5000017E-3,5.8333334E-2,7.607143E-2,3.653846E-2,5.679012E-2,1.5515265E-2,-3.972715E-3,1.963746E-2,6.76923E-2,-8.57143E-3,1.3430655E-2,5.59375E-2,-9.090912E-3,6.966038E-2,1.6097559E-2,6.465116E-2,5.7777774E-2,-9.908259E-3,1.6888887E-2,7.7391304E-2],"categories":[],"categories_nodes":[],"categories_segments":[],"categories_sizes":[],"default_left":[0,0,0,0,0,0,0,0,0,0,0,0,0,0,0,0,0,0,0,0,0,0,0,0,0,0,0,0,0,0,0,0,0,0,0,0,0,0,0,0,0,0,0,0,0,0,0,0,0,0,0,0,0,0,0,0,0,0,0,0,0,0,0,0,0,0,0,0,0,0,0,0,0,0,0,0,0,0,0,0,0,0,0,0,0,0,0,0,0,0,0,0,0,0,0,0,0,0,0,0,0,0,0,0,0,0,0,0,0,0,0,0,0,0,0,0,0],"id":2,"left_children":[1,3,5,7,9,11,13,15,17,19,21,23,25,27,29,31,33,35,37,39,41,43,45,47,49,51,53,55,57,59,61,-1,63,65,-1,67,69,71,73,75,77,79,81,83,85,87,-1,89,91,93,95,-1,97,99,-1,101,103,105,107,109,111,113,115,-1,-1,-1,-1,-1,-1,-1,-1,-1,-1,-1,-1,-1,-1,-1,-1,-1,-1,-1,-1,-1,-1,-1,-1,-1,-1,-1,-1,-1,-1,-1,-1,-1,-1,-1,-1,-1,-1,-1,-1,-1,-1,-1,-1,-1,-1,-1,-1,-1,-1,-1,-1,-1,-1],"loss_changes":[2.7891388E2,2.1674477E1,6.632005E1,3.0189518E1,7.5854797E0,8.492462E0,4.1561096E1,3.569244E0,8.899702E0,6.780182E0,2.9535022E0,1.9115654E1,5.9204254E0,3.0322609E1,2.2453232E1,3.6423597E0,3.9938164E-1,8.804076E0,4.365963E0,5.3220444E0,1.15921545E1,1.706044E0,1.4373355E0,4.6803436E0,3.954664E0,8.7006533E-1,2.7322006E0,2.2122585E1,1.4395973E1,1.4548096E1,7.7549934E0,0E0,9.8316187E-1,8.7478524E-1,0E0,5.1624885E0,1.0953579E0,8.994465E-1,3.7064998E0,3.1231368E0,1.6707153E0,1.6405239E0,3.1905432E0,1.3611653E0,3.6001635E-1,6.195674E-1,0E0,3.0508862E0,1.4135971E0,2.031299E0,1.6926675E0,0E0,9.2638886E-1,1.7754993E0,0E0,1.3092308E1,1.4578401E1,3.4672432E0,4.640661E0,6.105934E0,7.428464E0,3.8065019E0,5.4299545E0,0E0,0E0,0E0,0E0,0E0,0E0,0E0,0E0,0E0,0E0,0E0,0E0,0E0,0E0,0E0,0E0,0E0,0E0,0E0,0E0,0E0,0E0,0E0,0E0,0E0,0E0,0E0,0E0,0E0,0E0,0E0,0E0,0E0,0E0,0E0,0E0,0E0,0E0,0E0,0E0,0E0,0E0,0E0,0E0,0E0,0E0,0E0,0E0,0E0,0E0,0E0,0E0,0E0,0E0],"parents":[2147483647,0,0,1,1,2,2,3,3,4,4,5,5,6,6,7,7,8,8,9,9,10,10,11,11,12,12,13,13,14,14,15,15,16,16,17,17,18,18,19,19,20,20,21,21,22,22,23,23,24,24,25,25,26,26,27,27,28,28,29,29,30,30,32,32,33,33,35,35,36,36,37,37,38,38,39,39,40,40,41,41,42,42,43,43,44,44,45,45,47,47,48,48,49,49,50,50,52,52,53,53,55,55,56,56,57,57,58,58,59,59,60,60,61,61,62,62],"right_children":[2,4,6,8,10,12,14,16,18,20,22,24,26,28,30,32,34,36,38,40,42,44,46,48,50,52,54,56,58,60,62,-1,64,66,-1,68,70,72,74,76,78,80,82,84,86,88,-1,90,92,94,96,-1,98,100,-1,102,104,106,108,110,112,114,116,-1,-1,-1,-1,-1,-1,-1,-1,-1,-1,-1,-1,-1,-1,-1,-1,-1,-1,-1,-1,-1,-1,-1,-1,-1,-1,-1,-1,-1,-1,-1,-1,-1,-1,-1,-1,-1,-1,-1,-1,-1,-1,-1,-1,-1,-1,-1,-1,-1,-1,-1,-1,-1,-1],"split_conditions":[1.2941769E-1,6.901272E-19,-8.837564E-2,1.3059216E1,5.064346E-1,1.3926314E1,1.7849276E1,1.762531E-18,5.5834685E-2,-4.844055E-19,-8.28009E-2,2.0302549E-1,3.2217293E-3,9.333619E-2,1.786314E-2,-1.1051766E-3,9.968953E0,-1.2548297E-18,3.1284828E-2,7.98598E0,1.463443E-1,7.656566E-2,1.1226025E-2,5.8409886E-4,2.3922218E-1,2.3043298E-3,8.665937E-3,-7.96357E-2,-4.309737E-1,2.8514778E-4,4.3141533E-2,1.0610747E-2,5.640402E-2,-2.228547E-3,-3.5384025E-2,8.0246846E-20,6.3055527E-18,1.3959367E1,1.390425E1,-2.522834E-1,8.7082796E-2,2.3635886E-5,1.3021405E-1,-9.721007E-2,-2.0438144E-1,3.3036042E-2,-1.1559725E-4,3.9090677E-3,-9.38146E-2,1.0224222E-3,1.5343786E-2,-1.8819571E-4,2.2438532E-3,3.4637966E-3,1.0960114E-2,1.7569507E-3,8.216302E-2,9.01054E-2,9.704377E-2,6.350577E-5,3.5760023E-3,1.9860093E-3,-2.7166258E-3,3.971959E-4,4.7530355E-3,2.8014488E-3,-2.2553508E-3,2.1470773E-3,3.765173E-3,4.018837E-3,3.340477E-3,5.5066696E-3,-4.5191593E-2,7.2921584E-3,-1.2861938E-3,-1.4281393E-3,7.93316E-3,-3.535062E-2,2.3053044E-3,2.4803292E-3,-3.2278527E-2,4.492682E-3,-6.725436E-4,3.5893738E-3,1.8840724E-3,9.982586E-5,-1.2482643E-3,3.5524112E-3,2.5229217E-3,6.4861113E-3,2.9120266E-3,5.861342E-3,8.0227405E-3,-6.70028E-4,8.1484794E-4,-1.5210033E-3,3.6685907E-3,-2.2825121E-3,1.8212915E-3,2.6240086E-3,2.7363633E-3,1.7919446E-3,3.1481818E-3,-7.532444E-4,5.1639117E-3,3.9775637E-3,-2.5291622E-3,1.1773006E-3,4.6142433E-3,-1.2644273E-3,4.646504E-3,2.2621262E-3,5.05065E-3,1.5973508E-3,-3.1042055E-4,3.5904944E-3,1.6522484E-3],"split_indices":[13,45,30,0,9,3,0,21,5,44,32,8,23,33,4,24,3,32,4,0,45,45,5,34,13,31,1,32,6,41,5,0,1,26,0,45,22,0,2,16,33,28,9,4,21,46,0,47,42,41,7,0,5,23,0,23,32,43,34,47,17,23,27,0,0,0,0,0,0,0,0,0,0,0,0,0,0,0,0,0,0,0,0,0,0,0,0,0,0,0,0,0,0,0,0,0,0,0,0,0,0,0,0,0,0,0,0,0,0,0,0,0,0,0,0,0,0],"split_type":[0,0,0,0,0,0,0,0,0,0,0,0,0,0,0,0,0,0,0,0,0,0,0,0,0,0,0,0,0,0,0,0,0,0,0,0,0,0,0,0,0,0,0,0,0,0,0,0,0,0,0,0,0,0,0,0,0,0,0,0,0,0,0,0,0,0,0,0,0,0,0,0,0,0,0,0,0,0,0,0,0,0,0,0,0,0,0,0,0,0,0,0,0,0,0,0,0,0,0,0,0,0,0,0,0,0,0,0,0,0,0,0,0,0,0,0,0],"sum_hessian":[1.9E4,1.432E4,4.68E3,2.014E3,1.2306E4,5.19E2,4.161E3,1.233E3,7.81E2,1.2203E4,1.03E2,3.5E2,1.69E2,3.541E3,6.2E2,1.56E2,1.077E3,7.28E2,5.3E1,1.1422E4,7.81E2,8.5E1,1.8E1,2.44E2,1.06E2,1.6E1,1.53E2,3.226E3,3.15E2,4.38E2,1.82E2,6E0,1.5E2,5.9E1,1.018E3,6.56E2,7.2E1,2.8E1,2.5E1,1.8E1,1.1404E4,5.83E2,1.98E2,5E1,3.5E1,1.5E1,3E0,1.25E2,1.19E2,9.2E1,1.4E1,8E0,8E0,5.2E1,1.01E2,1.651E3,1.575E3,1.48E2,1.67E2,2.74E2,1.64E2,1.16E2,6.6E1,1.48E2,2E0,1.2E1,4.7E1,5.14E2,1.42E2,6.6E1,6E0,2.7E1,1E0,1.1E1,1.4E1,7E0,1.1E1,1.1345E4,5.9E1,1.08E2,4.75E2,1.69E2,2.9E1,6E0,4.4E1,2E0,3.3E1,1.2E1,3E0,9.4E1,3.1E1,5.2E1,6.7E1,7.7E1,1.5E1,3E0,1.1E1,3E0,5E0,2.7E1,2.5E1,8E1,1.571E3,1.245E3,3.3E2,1.42E2,6E0,1.36E2,3.1E1,1E1,2.64E2,1.22E2,4.2E1,8E0,1.08E2,4.4E1,2.2E1],"tree_param":{"num_deleted":"0","num_feature":"48","num_nodes":"117","size_leaf_vector":"1"}},{"base_weights":[-9.999498E-3,-7.414363E-2,1.8371058E-1,1.54908495E-2,-8.897055E-2,4.809615E-1,1.4693439E-1,-7.51001E-2,1.6071884E-1,-9.237017E-2,1.407821E-1,3.8461536E-1,6.770588E-1,4.5675922E-2,2.3959944E-1,6.624202E-2,-9.533396E-2,1.3154268E-1,5.4999995E-1,7.875E-2,-9.294598E-2,-9.7561E-3,2.1007192E-1,5.132741E-2,5.4058576E-1,8.688172E-1,4.3974358E-1,-9.2806E-3,1.6821827E-1,2.1160407E-1,6.285714E-1,7.714286E-2,3.311256E-2,-1.5000024E-2,-9.990332E-3,9.8929636E-2,4.219178E-1,8.625E-2,2.9032257E-1,1.381443E-1,-9.4811186E-2,1.3982299E-1,4.962963E-1,1.3084088E-2,6.285714E-1,7.142857E-1,4.3087247E-1,-5.0000013E-3,8.7934785E-2,-1.5384638E-2,5.2272725E-1,-6.053194E-2,9.756095E-2,1.3203537E-1,5.1186436E-1,1.7839274E-1,5.7109827E-1,-3.529414E-2,7.099236E-1,2.1476487E-3,6E-2,2.1538459E-2,-7.7083358E-3,5.374278E-3,2.7388057E-2,3.0199999E-2,6.5416664E-2,6.5625004E-2,-9.375002E-3,2.5645157E-2,-6.9444473E-3,-9.954642E-3,-2.1349888E-3,2.3896102E-2,-7.0270295E-3,-8.333336E-3,6.318182E-2,2.7407406E-2,-7.4074096E-3,7.5E-2,-5.0000013E-3,7.792683E-2,1.0999998E-2,8.0249995E-2,2.9181818E-2,4.4999998E-2,-9.166669E-3,5.5238094E-2,-7.5000017E-3,-7.0252493E-3,2.3666665E-2,2.3934424E-2,7.434707E-5,5.3148147E-2,8.964841E-3,6.413043E-2,4.999998E-3,4.911628E-2,1.3789788E-2,8.321839E-2,3.0344827E-2,4.4999998E-2,-9.375002E-3,4.162162E-2,8.168421E-2],"categories":[],"categories_nodes":[],"categories_segments":[],"categories_sizes":[],"default_left":[0,0,0,0,0,0,0,0,0,0,0,0,0,0,0,0,0,0,0,0,0,0,0,0,0,0,0,0,0,0,0,0,0,0,0,0,0,0,0,0,0,0,0,0,0,0,0,0,0,0,0,0,0,0,0,0,0,0,0,0,0,0,0,0,0,0,0,0,0,0,0,0,0,0,0,0,0,0,0,0,0,0,0,0,0,0,0,0,0,0,0,0,0,0,0,0,0,0,0,0,0,0,0,0,0],"id":3,"left_children":[1,3,5,7,9,11,13,15,17,19,21,23,25,27,29,31,33,35,37,-1,39,-1,41,43,45,47,49,51,53,55,57,-1,59,61,-1,63,65,-1,67,69,71,73,75,77,79,81,83,-1,-1,85,87,89,91,93,95,97,99,101,103,-1,-1,-1,-1,-1,-1,-1,-1,-1,-1,-1,-1,-1,-1,-1,-1,-1,-1,-1,-1,-1,-1,-1,-1,-1,-1,-1,-1,-1,-1,-1,-1,-1,-1,-1,-1,-1,-1,-1,-1,-1,-1,-1,-1,-1,-1],"loss_changes":[2.3610797E2,1.89729E1,5.1603745E1,2.6679976E1,9.580338E0,9.564072E0,3.947322E1,3.5783272E0,8.775328E0,6.1888504E0,2.9766352E0,1.82183E1,7.354164E0,1.3551378E1,2.3791023E1,3.6423597E0,3.9971352E-1,6.8334894E0,4.131653E0,0E0,5.2130585E0,0E0,2.725473E0,2.4863331E0,4.2469025E0,9.438095E-1,2.9539614E0,7.6172295E0,7.6788673E0,2.438559E1,7.964077E0,0E0,9.8316187E-1,8.7478524E-1,0E0,5.1554675E0,1.8355494E0,0E0,4.418347E0,2.4000578E0,4.1610107E0,2.3703823E0,2.1735697E0,2.4542747E0,6.142857E-1,3.4876747E0,7.465599E0,0E0,0E0,5.027565E-1,1.2112675E0,2.732226E0,6.1907444E0,9.51854E0,3.4951725E0,2.37309E1,1.1836639E1,5.244485E-1,3.7737808E0,0E0,0E0,0E0,0E0,0E0,0E0,0E0,0E0,0E0,0E0,0E0,0E0,0E0,0E0,0E0,0E0,0E0,0E0,0E0,0E0,0E0,0E0,0E0,0E0,0E0,0E0,0E0,0E0,0E0,0E0,0E0,0E0,0E0,0E0,0E0,0E0,0E0,0E0,0E0,0E0,0E0,0E0,0E0,0E0,0E0,0E0],"parents":[2147483647,0,0,1,1,2,2,3,3,4,4,5,5,6,6,7,7,8,8,9,9,10,10,11,11,12,12,13,13,14,14,15,15,16,16,17,17,18,18,20,20,22,22,23,23,24,24,25,25,26,26,27,27,28,28,29,29,30,30,32,32,33,33,35,35,36,36,38,38,39,39,40,40,41,41,42,42,43,43,44,44,45,45,46,46,49,49,50,50,51,51,52,52,53,53,54,54,55,55,56,56,57,57,58,58],"right_children":[2,4,6,8,10,12,14,16,18,20,22,24,26,28,30,32,34,36,38,-1,40,-1,42,44,46,48,50,52,54,56,58,-1,60,62,-1,64,66,-1,68,70,72,74,76,78,80,82,84,-1,-1,86,88,90,92,94,96,98,100,102,104,-1,-1,-1,-1,-1,-1,-1,-1,-1,-1,-1,-1,-1,-1,-1,-1,-1,-1,-1,-1,-1,-1,-1,-1,-1,-1,-1,-1,-1,-1,-1,-1,-1,-1,-1,-1,-1,-1,-1,-1,-1,-1,-1,-1,-1,-1],"split_conditions":[3.0485904E-3,6.901272E-19,-8.837564E-2,1.3939539E1,8.000873E-2,1.3926314E1,1.3966718E1,1.762531E-18,5.5834685E-2,7.98598E0,-7.7922955E-2,2.3922218E-1,1.5803621E1,2.3392327E-1,4.568516E-3,-1.1051766E-3,9.968953E0,-1.2548297E-18,1.8473377E-4,7.193518E-3,-7.667376E-2,-1.5135473E-3,9.244292E-2,5.492644E-2,1.7965722E-3,-3.2792774E-3,4.749952E-3,2.4122044E-2,1.3821033E1,1.700591E-4,2.2438532E-3,9.549672E-3,5.640402E-2,-2.228547E-3,-3.1272158E-2,8.0246846E-20,9.529184E-6,4.814848E-3,1.390425E1,6.936402E-2,-4.844055E-19,1.1891676E-1,3.1398367E-2,-1.16280705E-1,4.011777E-2,1.3794351E1,-5.695878E-4,-2.0515919E-4,1.0058723E-2,1.8616743E-1,3.7710034E-4,8.070482E-4,6.502238E-3,-2.080459E0,-2.2388222E-3,1.3975606E-3,-2.8113514E-2,-1.4021164E-1,3.6259145E-5,3.5747536E-4,4.27773E-3,2.521301E-3,-2.0298127E-3,1.967155E-3,3.5610215E-3,2.9488027E-3,5.4936404E-3,6.580941E-3,-1.1871614E-3,2.249187E-3,-8.8379625E-4,-3.1908542E-2,-7.2698237E-4,2.8788669E-3,-4.701079E-4,-2.1789016E-3,4.590411E-3,4.3642656E-3,-3.7591098E-4,2.9996156E-3,-2.911985E-4,6.9583408E-3,5.010664E-4,7.5762384E-3,5.2202577E-3,2.3477674E-4,-8.8321E-5,2.3118637E-3,-3.232837E-4,-9.670117E-4,6.0242633E-3,3.2941194E-3,5.3290656E-5,4.905125E-3,1.402559E-3,3.3750243E-3,1.9709854E-3,1.3769389E-3,2.52316E-3,7.610921E-3,3.2116508E-3,4.554385E-3,-9.3027495E-4,2.5926621E-3,1.0162219E-2],"split_indices":[17,45,30,3,33,3,3,21,5,0,44,13,2,13,17,24,3,32,28,0,34,0,33,40,45,24,17,1,2,29,5,0,1,26,0,45,28,0,2,45,44,39,36,44,4,2,28,0,0,13,28,27,11,15,26,23,4,36,35,0,0,0,0,0,0,0,0,0,0,0,0,0,0,0,0,0,0,0,0,0,0,0,0,0,0,0,0,0,0,0,0,0,0,0,0,0,0,0,0,0,0,0,0,0,0],"split_type":[0,0,0,0,0,0,0,0,0,0,0,0,0,0,0,0,0,0,0,0,0,0,0,0,0,0,0,0,0,0,0,0,0,0,0,0,0,0,0,0,0,0,0,0,0,0,0,0,0,0,0,0,0,0,0,0,0,0,0,0,0,0,0,0,0,0,0,0,0,0,0,0,0,0,0,0,0,0,0,0,0,0,0,0,0,0,0,0,0,0,0,0,0,0,0,0,0,0,0,0,0,0,0,0,0],"sum_hessian":[1.9E4,1.4274E4,4.726E3,2.026E3,1.2248E4,5.19E2,4.207E3,1.248E3,7.78E2,1.207E4,1.78E2,3.5E2,1.69E2,2.011E3,2.196E3,1.56E2,1.092E3,7.25E2,5.3E1,7E0,1.2063E4,4E1,1.38E2,1.12E2,2.38E2,9.2E1,7.7E1,1.389E3,6.22E2,2.05E3,1.46E2,6E0,1.5E2,5.9E1,1.033E3,6.53E2,7.2E1,2.3E1,3E1,9.6E1,1.1967E4,1.12E2,2.6E1,1.06E2,6E0,9E1,1.48E2,1E0,9.1E1,1.2E1,6.5E1,9.39E2,4.5E2,5.64E2,5.8E1,1.878E3,1.72E2,1.6E1,1.3E2,1.48E2,2E0,1.2E1,4.7E1,5.2E2,1.33E2,4.9E1,2.3E1,1.5E1,1.5E1,6.1E1,3.5E1,1.1242E4,7.25E2,7.6E1,3.6E1,5E0,2.1E1,2.6E1,8E1,5E0,1E0,8.1E1,9E0,3.9E1,1.09E2,1E0,1.1E1,6.2E1,3E0,9.1E2,2.9E1,1.82E2,2.68E2,5.3E1,5.11E2,4.5E1,1.3E1,2.14E2,1.664E3,8.6E1,8.6E1,1E0,1.5E1,3.6E1,9.4E1],"tree_param":{"num_deleted":"0","num_feature":"48","num_nodes":"105","size_leaf_vector":"1"}},{"base_weights":[-1.4788719E-2,-7.5494565E-2,1.6497809E-1,9.401263E-3,-8.956917E-2,4.7016126E-1,1.3929053E-1,1.338554E-1,-7.726512E-2,-9.17184E-2,1.7373735E-1,3.0271736E-1,6.3068783E-1,4.4899836E-2,2.2811401E-1,2.9930067E-1,9.9273235E-2,4.2567544E-2,-9.41627E-2,1.5955053E-1,-9.357449E-2,-2.337437E-8,3.510204E-1,-2.357986E-8,5.9255314E-1,7.073333E-1,3.275E-1,-9.084723E-3,1.603801E-1,1.956211E-1,6.061111E-1,1.268817E-1,6.078431E-1,6.4818E-2,2.7589282E-1,3.0821893E-2,6E-2,-1.0294141E-2,-9.989778E-3,2.6666665E-1,-9.629632E-3,-9.865756E-2,-1.7420236E-2,5.2E-1,-5.531917E-2,5.703704E-1,7.826085E-2,-4.743592E-2,2.6428568E-1,4.5535713E-1,7.743589E-1,-6.6666687E-3,7.1824324E-1,5.9999996E-1,-3.8888913E-2,-5.9123367E-2,9.235535E-2,1.3918303E-1,7.3749995E-1,1.0111204E-1,3.1382635E-1,-4.761907E-2,6.8812495E-1,8.1818186E-2,3.3734918E-3,6.847826E-2,-8.333336E-3,-3.8207571E-3,1.2431691E-2,2.0215051E-2,6.0499996E-2,1.8437497E-2,-1.2173937E-3,1.5416664E-2,-9.77778E-3,1.7115382E-2,6.583333E-2,6.625E-2,-9.919049E-3,-8.460078E-3,1.3832598E-2,6.7499995E-2,-5.0000013E-3,4.4999998E-2,-7.608698E-3,-8.000002E-3,6.869566E-2,6E-2,-2.2706532E-9,2.4999999E-2,-7.12329E-3,9.090907E-3,6.7499995E-2,5.1428568E-2,3.749998E-3,1.7499998E-2,8.194444E-2,5.8333334E-2,8.168675E-2,8.4E-2,1.3333331E-2,-9.411767E-3,4.4999998E-2,-6.8382374E-3,2.3666665E-2,2.1932365E-2,-2.5180096E-4,1.0349998E-2,4.8225805E-2,8.0952376E-2,1.7499998E-2,6.7847134E-3,4.6804123E-2,1.6572503E-2,5.0818857E-2,4.4999998E-2,-9.5000025E-3,3.0399999E-2,7.536765E-2],"categories":[],"categories_nodes":[],"categories_segments":[],"categories_sizes":[],"default_left":[0,0,0,0,0,0,0,0,0,0,0,0,0,0,0,0,0,0,0,0,0,0,0,0,0,0,0,0,0,0,0,0,0,0,0,0,0,0,0,0,0,0,0,0,0,0,0,0,0,0,0,0,0,0,0,0,0,0,0,0,0,0,0,0,0,0,0,0,0,0,0,0,0,0,0,0,0,0,0,0,0,0,0,0,0,0,0,0,0,0,0,0,0,0,0,0,0,0,0,0,0,0,0,0,0,0,0,0,0,0,0,0,0,0,0,0,0,0,0],"id":4,"left_children":[1,3,5,7,9,11,13,15,17,19,21,23,25,27,29,31,33,35,37,39,41,43,45,47,49,51,53,55,57,59,61,63,65,67,69,71,-1,73,-1,75,-1,77,79,81,83,85,87,89,91,93,95,-1,97,99,101,103,105,107,109,111,113,115,117,-1,-1,-1,-1,-1,-1,-1,-1,-1,-1,-1,-1,-1,-1,-1,-1,-1,-1,-1,-1,-1,-1,-1,-1,-1,-1,-1,-1,-1,-1,-1,-1,-1,-1,-1,-1,-1,-1,-1,-1,-1,-1,-1,-1,-1,-1,-1,-1,-1,-1,-1,-1,-1,-1,-1,-1],"loss_changes":[2.073684E2,1.6974037E1,3.754016E1,2.1808828E1,6.9115143E0,9.808144E0,3.709783E1,4.719095E0,2.417667E0,5.652031E0,3.0492685E0,1.6143854E1,4.160324E0,1.3386179E1,2.7884888E1,7.5302715E0,4.1689196E0,9.50523E-1,5.016098E-1,2.4647527E0,4.643059E0,1.4958298E0,2.8870215E0,1.15337E0,1.9920349E0,1.3145294E0,4.016973E0,7.4366126E0,8.264891E0,2.3439522E1,9.683464E0,5.9608893E0,2.7691803E0,3.541708E0,2.5958414E0,9.661574E-1,0E0,9.9343306E-1,0E0,2.244102E0,0E0,4.628357E0,7.8799653E0,4.755E-1,5.274746E-1,2.102209E0,9.391304E-1,5.698981E-1,9.355519E-1,1.359642E0,9.1046906E-1,0E0,1.4926987E0,2.4639997E0,5.2836597E-1,2.7028708E0,5.830773E0,8.0420265E0,8.306551E-1,1.4236901E1,2.6772469E1,5.3788096E-1,3.799675E0,0E0,0E0,0E0,0E0,0E0,0E0,0E0,0E0,0E0,0E0,0E0,0E0,0E0,0E0,0E0,0E0,0E0,0E0,0E0,0E0,0E0,0E0,0E0,0E0,0E0,0E0,0E0,0E0,0E0,0E0,0E0,0E0,0E0,0E0,0E0,0E0,0E0,0E0,0E0,0E0,0E0,0E0,0E0,0E0,0E0,0E0,0E0,0E0,0E0,0E0,0E0,0E0,0E0,0E0,0E0,0E0],"parents":[2147483647,0,0,1,1,2,2,3,3,4,4,5,5,6,6,7,7,8,8,9,9,10,10,11,11,12,12,13,13,14,14,15,15,16,16,17,17,18,18,19,19,20,20,21,21,22,22,23,23,24,24,25,25,26,26,27,27,28,28,29,29,30,30,31,31,32,32,33,33,34,34,35,35,37,37,39,39,41,41,42,42,43,43,44,44,45,45,46,46,47,47,48,48,49,49,50,50,52,52,53,53,54,54,55,55,56,56,57,57,58,58,59,59,60,60,61,61,62,62],"right_children":[2,4,6,8,10,12,14,16,18,20,22,24,26,28,30,32,34,36,38,40,42,44,46,48,50,52,54,56,58,60,62,64,66,68,70,72,-1,74,-1,76,-1,78,80,82,84,86,88,90,92,94,96,-1,98,100,102,104,106,108,110,112,114,116,118,-1,-1,-1,-1,-1,-1,-1,-1,-1,-1,-1,-1,-1,-1,-1,-1,-1,-1,-1,-1,-1,-1,-1,-1,-1,-1,-1,-1,-1,-1,-1,-1,-1,-1,-1,-1,-1,-1,-1,-1,-1,-1,-1,-1,-1,-1,-1,-1,-1,-1,-1,-1,-1,-1,-1,-1],"split_conditions":[2.9768117E-3,6.901272E-19,-9.001857E-2,-1.1051766E-3,8.4911734E-2,8.770952E-5,1.3966718E1,-6.218855E-2,3.5821682E-19,-7.7517904E-2,-3.495878E-2,1.3897002E1,4.3202434E-3,2.3392327E-1,4.568516E-3,1.233294E-17,-1.4996359E-18,5.5459045E-2,9.968953E0,7.656566E-2,-4.844055E-19,8.539459E-2,4.688801E-2,2.8398947E-4,4.639919E-3,1.1953176E-2,-7.5258425E-4,2.4122044E-2,6.2906854E-2,4.7015384E-1,2.2438532E-3,4.2405327E-18,-1.570856E0,6.2716685E-18,6.302218E-20,-3.9926976E-1,3.8499595E-3,1.2128451E-18,-2.9268024E-2,-2.357902E-4,-1.6618964E-3,7.98598E0,1.0779651E-1,-7.6609984E-2,-1.2729749E-1,1.501019E-3,1.978164E-3,5.587602E-3,1.3845098E1,1.0916373E-2,-3.4707685E0,-1.8464327E-4,-1.3886298E-1,7.6661855E-2,2.6977152E-4,8.070482E-4,6.502238E-3,1.3821033E1,5.964359E-1,4.3141533E-2,-6.0705736E-2,-1.4021164E-1,5.0692707E-3,8.594704E-3,1.3601296E-3,8.904067E-3,-3.147776E-2,-6.6490175E-4,2.7164037E-3,2.6539064E-3,5.831778E-3,5.576074E-3,-9.215482E-5,2.2613395E-3,-2.200276E-3,1.9070242E-3,5.4026055E-3,6.474167E-3,-2.8710429E-2,-2.8977973E-2,3.312538E-3,2.5663257E-3,-7.7032982E-3,2.1680177E-3,-6.015661E-4,-6.4489845E-4,4.8792223E-3,2.883029E-3,1.2755642E-3,4.5096278E-4,-2.0131007E-4,2.96973E-4,3.874159E-3,2.2240456E-3,1.3540983E-4,9.300202E-3,7.95412E-3,5.481434E-3,8.218331E-3,7.048029E-3,2.0987988E-3,-4.323454E-4,7.324219E-4,-8.11658E-4,5.421839E-3,2.9012745E-3,-2.2909981E-4,1.7350853E-3,2.8501905E-3,7.7758515E-3,5.888981E-3,7.625607E-4,4.8165563E-3,2.8136584E-3,2.9593676E-3,4.0989458E-3,-1.0257484E-3,2.7772633E-3,9.141278E-3],"split_indices":[17,45,30,24,33,29,3,8,33,32,46,0,47,13,17,21,32,1,3,45,44,33,37,28,11,19,24,1,1,6,5,9,12,9,42,8,0,33,0,28,0,0,45,4,4,17,5,19,0,40,12,0,9,10,25,27,11,2,10,5,38,36,19,0,0,0,0,0,0,0,0,0,0,0,0,0,0,0,0,0,0,0,0,0,0,0,0,0,0,0,0,0,0,0,0,0,0,0,0,0,0,0,0,0,0,0,0,0,0,0,0,0,0,0,0,0,0,0,0],"split_type":[0,0,0,0,0,0,0,0,0,0,0,0,0,0,0,0,0,0,0,0,0,0,0,0,0,0,0,0,0,0,0,0,0,0,0,0,0,0,0,0,0,0,0,0,0,0,0,0,0,0,0,0,0,0,0,0,0,0,0,0,0,0,0,0,0,0,0,0,0,0,0,0,0,0,0,0,0,0,0,0,0,0,0,0,0,0,0,0,0,0,0,0,0,0,0,0,0,0,0,0,0,0,0,0,0,0,0,0,0,0,0,0,0,0,0,0,0,0,0],"sum_hessian":[1.9E4,1.4204E4,4.796E3,2.02E3,1.2184E4,3.71E2,4.425E3,8.29E2,1.191E3,1.2086E4,9.8E1,1.83E2,1.88E2,2.146E3,2.279E3,1.42E2,6.87E2,1.47E2,1.044E3,8.8E1,1.1998E4,5E1,4.8E1,9E1,9.3E1,1.49E2,3.9E1,1.463E3,6.83E2,2.1E3,1.79E2,9.2E1,5E1,5.76E2,1.11E2,1.45E2,2E0,6.7E1,9.77E2,6.2E1,2.6E1,1.1247E4,7.51E2,4E0,4.6E1,2.6E1,2.2E1,7.7E1,1.3E1,5.5E1,3.8E1,2E0,1.47E2,2.2E1,1.7E1,9.8E2,4.83E2,6.6E2,2.3E1,1.168E3,9.32E2,2E1,1.59E2,1E1,8.2E1,4.5E1,5E0,2.11E2,3.65E2,9.2E1,1.9E1,3.1E1,1.14E2,2.3E1,4.4E1,5.1E1,1.1E1,7E0,1.124E4,5.25E2,2.26E2,3E0,1E0,1E0,4.5E1,4E0,2.2E1,2E0,2E1,5E0,7.2E1,1E1,3E0,4.8E1,7E0,3E0,3.5E1,6.5E1,8.2E1,1.4E1,8E0,1.6E1,1E0,9.51E2,2.9E1,2.06E2,2.77E2,5.99E2,6.1E1,2E1,3E0,1.072E3,9.6E1,5.3E2,4.02E2,1E0,1.9E1,2.4E1,1.35E2],"tree_param":{"num_deleted":"0","num_feature":"48","num_nodes":"119","size_leaf_vector":"1"}},{"base_weights":[-1.9683199E-2,-7.5635366E-2,1.460079E-1,2.9688035E-3,-8.866642E-2,1.0816991E-1,3.2939023E-1,1.20602384E-1,-7.894298E-2,-9.22604E-2,1.8726112E-1,3.7730768E-1,8.932506E-2,5.476744E-1,2.287744E-1,1.0515721E-1,4.583333E-1,4.2567544E-2,-9.607658E-2,1.2584268E-1,-9.387826E-2,2.6666665E-1,-9.714289E-3,3.5051525E-2,5.77439E-1,7.43065E-2,4.437086E-1,3.4796745E-1,7.242647E-1,6.554545E-1,1.2488984E-1,6.9435716E-2,2.4873415E-1,1.9047616E-1,7.8125E-1,3.0821893E-2,6E-2,-3.9705906E-2,-9.989778E-3,5.230769E-1,5.7142835E-2,-9.926871E-2,-2.4826813E-2,3.336538E-1,-9.5000025E-3,-2.1978045E-2,7.714286E-2,4.4869563E-1,8.62E-1,5.9528053E-2,2.9684684E-1,5.940594E-1,1.3725488E-1,6.8852454E-1,1.269839E-2,7.6899225E-1,-8.750002E-3,-9.166669E-3,7.393939E-1,4.380165E-1,1.107782E-2,7.714286E-2,6.155061E-3,6.55E-2,1.8848918E-2,4.6666663E-2,-1.5384638E-3,-5.0000013E-3,8.4E-2,1.8437497E-2,-1.2173937E-3,8.636362E-3,-9.787236E-3,8.333332E-3,7.875E-2,5.7777774E-2,-1.1594227E-3,4.1249998E-2,-9.962962E-3,-9.577467E-3,7.054052E-3,-3.5294143E-3,4.0113635E-2,-6.0256436E-3,1.9285712E-2,5.7558138E-2,6.999998E-3,-5.0000013E-3,8.8163264E-2,4.4222698E-3,2.5578512E-2,4.822695E-2,-2.560978E-3,-9.090912E-3,6.703296E-2,4.3157894E-2,-3.6363662E-3,4.999998E-3,8.604167E-2,-9.821431E-3,7.875E-2,7.896825E-2,-7.5000017E-3,3.2631576E-2,8.271605E-2,2.6760561E-2,6.666666E-2,-3.3443735E-3,4.1818183E-2],"categories":[],"categories_nodes":[],"categories_segments":[],"categories_sizes":[],"default_left":[0,0,0,0,0,0,0,0,0,0,0,0,0,0,0,0,0,0,0,0,0,0,0,0,0,0,0,0,0,0,0,0,0,0,0,0,0,0,0,0,0,0,0,0,0,0,0,0,0,0,0,0,0,0,0,0,0,0,0,0,0,0,0,0,0,0,0,0,0,0,0,0,0,0,0,0,0,0,0,0,0,0,0,0,0,0,0,0,0,0,0,0,0,0,0,0,0,0,0,0,0,0,0,0,0,0,0,0,0],"id":5,"left_children":[1,3,5,7,9,11,13,15,17,19,21,23,25,27,29,31,33,35,37,39,41,43,-1,45,47,49,51,53,55,57,59,61,63,65,67,69,-1,71,-1,73,75,77,79,81,-1,83,-1,85,87,89,91,93,95,97,99,101,-1,-1,103,105,107,-1,-1,-1,-1,-1,-1,-1,-1,-1,-1,-1,-1,-1,-1,-1,-1,-1,-1,-1,-1,-1,-1,-1,-1,-1,-1,-1,-1,-1,-1,-1,-1,-1,-1,-1,-1,-1,-1,-1,-1,-1,-1,-1,-1,-1,-1,-1,-1],"loss_changes":[1.7616505E2,1.4550369E1,3.3249878E1,1.9483019E1,1.2100868E1,2.0142147E1,1.7884232E1,4.2813435E0,2.4857292E0,4.256386E0,3.5714746E0,1.7788765E1,1.9760773E1,8.846687E0,2.4873383E1,4.060112E0,2.9650297E0,9.50523E-1,2.2113132E-1,2.3989136E0,4.4421997E0,3.0116224E0,0E0,4.090495E0,5.6214256E0,1.172006E1,6.8758736E0,1.4035184E1,5.005211E0,6.966198E0,1.6174608E1,3.484031E0,3.7436638E0,1.201172E0,8.233757E-1,9.661574E-1,0E0,5.070978E-1,0E0,1.4459934E0,2.7622912E0,2.0868378E0,5.866205E0,2.6035004E0,0E0,7.599634E-1,0E0,5.4855804E0,9.3933105E-1,1.0045357E1,1.32859E1,5.337452E0,2.6217992E0,6.652174E0,5.49127E0,2.3118744E0,0E0,0E0,3.319271E0,4.536297E0,6.0677023E0,0E0,0E0,0E0,0E0,0E0,0E0,0E0,0E0,0E0,0E0,0E0,0E0,0E0,0E0,0E0,0E0,0E0,0E0,0E0,0E0,0E0,0E0,0E0,0E0,0E0,0E0,0E0,0E0,0E0,0E0,0E0,0E0,0E0,0E0,0E0,0E0,0E0,0E0,0E0,0E0,0E0,0E0,0E0,0E0,0E0,0E0,0E0,0E0],"parents":[2147483647,0,0,1,1,2,2,3,3,4,4,5,5,6,6,7,7,8,8,9,9,10,10,11,11,12,12,13,13,14,14,15,15,16,16,17,17,18,18,19,19,20,20,21,21,23,23,24,24,25,25,26,26,27,27,28,28,29,29,30,30,31,31,32,32,33,33,34,34,35,35,37,37,39,39,40,40,41,41,42,42,43,43,45,45,47,47,48,48,49,49,50,50,51,51,52,52,53,53,54,54,55,55,58,58,59,59,60,60],"right_children":[2,4,6,8,10,12,14,16,18,20,22,24,26,28,30,32,34,36,38,40,42,44,-1,46,48,50,52,54,56,58,60,62,64,66,68,70,-1,72,-1,74,76,78,80,82,-1,84,-1,86,88,90,92,94,96,98,100,102,-1,-1,104,106,108,-1,-1,-1,-1,-1,-1,-1,-1,-1,-1,-1,-1,-1,-1,-1,-1,-1,-1,-1,-1,-1,-1,-1,-1,-1,-1,-1,-1,-1,-1,-1,-1,-1,-1,-1,-1,-1,-1,-1,-1,-1,-1,-1,-1,-1,-1,-1,-1],"split_conditions":[2.9768117E-3,6.901272E-19,4.317325E-1,-1.1051766E-3,8.000873E-2,-9.001857E-2,-2.9208992E-2,2.5484205E-4,3.5821682E-19,-7.7517904E-2,1.3021405E-1,8.770952E-5,9.777121E-2,1.0629135E-4,1.4867509E-3,8.0246846E-20,-1.6520289E-3,5.5459045E-2,9.968953E0,3.0401586E-2,-1.3726022E-18,1.3179807E-1,-3.0945053E-3,1.3897002E1,-1.10327676E-1,4.707848E-2,6.812539E-4,-8.28009E-2,6.890217E-2,1.3233953E-3,-8.962539E-2,-1.2608558E-18,-6.218855E-2,3.269987E-18,6.7476866E-19,-3.9926976E-1,3.4649612E-3,-2.1751581E-3,-2.634122E-2,-3.8192177E-4,-9.721007E-2,7.98598E0,1.3059216E1,-1.8073197E-18,-4.0897736E-4,2.8398947E-4,3.6139488E-3,4.3202434E-3,1.6602699E-2,1.7831848E1,5.9643686E-3,1.3821033E1,-2.4972768E-3,1.5748373E1,-6.2840764E-4,-2.1029513E0,-6.2231603E-3,-5.0898264E-3,1.376044E-3,2.2998852E-4,2.3295835E-2,7.7352347E-3,1.7918813E-3,9.643029E-3,2.5851699E-3,5.8020414E-3,2.040316E-3,-3.4423472E-4,5.136654E-3,5.0184666E-3,-8.293994E-5,2.0508731E-3,-1.7556725E-3,1.4732302E-3,4.6019615E-3,2.8148114E-3,-9.0744776E-5,5.8267475E-3,-2.5949566E-2,-3.0379785E-2,2.2432148E-3,4.2671082E-4,3.5662171E-3,-1.3161913E-4,3.0197904E-3,5.718559E-3,6.5917935E-4,-3.5081448E-3,7.5776093E-3,9.679772E-4,1.7007351E-3,4.06225E-3,-3.274001E-4,-6.621099E-4,3.8482796E-3,3.6215284E-3,-1.2884898E-3,6.292944E-3,7.7298963E-3,-2.25409E-3,1.9524455E-3,6.855762E-3,-1.7788947E-3,1.0752821E-3,1.1549842E-3,2.0290236E-3,6.080877E-3,-6.6043163E-4,5.4450724E-3],"split_indices":[17,45,8,24,33,30,4,29,33,32,9,29,33,25,23,45,26,1,3,31,44,13,0,0,6,5,35,32,37,5,32,21,8,7,31,8,0,26,0,28,4,0,0,32,0,28,0,47,7,2,4,2,24,3,45,12,0,0,11,41,37,0,0,0,0,0,0,0,0,0,0,0,0,0,0,0,0,0,0,0,0,0,0,0,0,0,0,0,0,0,0,0,0,0,0,0,0,0,0,0,0,0,0,0,0,0,0,0,0],"split_type":[0,0,0,0,0,0,0,0,0,0,0,0,0,0,0,0,0,0,0,0,0,0,0,0,0,0,0,0,0,0,0,0,0,0,0,0,0,0,0,0,0,0,0,0,0,0,0,0,0,0,0,0,0,0,0,0,0,0,0,0,0,0,0,0,0,0,0,0,0,0,0,0,0,0,0,0,0,0,0,0,0,0,0,0,0,0,0,0,0,0,0,0,0,0,0,0,0,0,0,0,0,0,0,0,0,0,0,0,0],"sum_hessian":[1.9E4,1.4204E4,4.796E3,2.02E3,1.2184E4,3.977E3,8.19E2,8.29E2,1.191E3,1.2028E4,1.56E2,2.59E2,3.718E3,2.57E2,5.62E2,7.94E2,3.5E1,1.47E2,1.044E3,8.8E1,1.194E4,1.22E2,3.4E1,9.6E1,1.63E2,3.568E3,1.5E2,1.22E2,1.35E2,1.09E2,4.53E2,6.37E2,1.57E2,2E1,1.5E1,1.45E2,2E0,6.7E1,9.77E2,1.2E1,7.6E1,1.1075E4,8.65E2,1.03E2,1.9E1,9E1,6E0,1.14E2,4.9E1,3.347E3,2.21E2,1E2,5E1,6E1,6.2E1,1.28E2,7E0,1.1E1,9.8E1,1.2E2,3.33E2,6E0,6.31E2,1.9E1,1.38E2,8E0,1.2E1,1E0,1.4E1,3.1E1,1.14E2,2.1E1,4.6E1,5E0,7E0,8E0,6.8E1,7E0,1.1068E4,4.96E2,3.69E2,1.6E1,8.7E1,7.7E1,1.3E1,8.5E1,2.9E1,1E0,4.8E1,3.106E3,2.41E2,1.4E2,8.1E1,1E1,9E1,1.8E1,3.2E1,1.3E1,4.7E1,5.5E1,7E0,1.25E2,3E0,1.8E1,8E1,7E1,5E1,3.01E2,3.2E1],"tree_param":{"num_deleted":"0","num_feature":"48","num_nodes":"109","size_leaf_vector":"1"}},{"base_weights":[-2.4314534E-2,-7.718411E-2,1.322493E-1,-4.8734113E-3,-8.9672275E-2,9.710908E-2,3.0256096E-1,-7.513558E-2,1.0809462E-1,-9.3133755E-2,1.7452227E-1,3.2710278E-1,7.689992E-2,5.2829456E-1,1.9857901E-1,7.5974E-2,-9.551848E-2,3.545916E-2,1.7694172E-1,-9.7587705E-2,-2.3895051E-2,2.5040647E-1,-9.714289E-3,6.048E-1,1.4923856E-1,5.4755997E-2,2.4703085E-1,3.2357723E-1,7.095588E-1,5.9181815E-1,1.0286341E-1,7.714286E-2,4.2567544E-2,1.3333331E-1,-9.725666E-2,1.728721E-2,4.352941E-1,1.4203294E-1,4.3265304E-1,9.213481E-2,-9.909387E-2,1.0839998E-1,-9.347371E-2,3.1442305E-1,-9.5000025E-3,6.573913E-1,-2.1674417E-8,3.6344084E-1,-4.1904785E-2,2.2299092E-2,1.8699057E-1,3.6485353E-1,9.180325E-2,6.393442E-1,1.269839E-2,7.5348836E-1,-8.750002E-3,9.5238075E-2,7.011111E-1,3.5537186E-1,1.107782E-2,3.0821895E-3,6E-2,-8.333336E-3,4.25E-2,-5.230772E-3,-9.990621E-3,-9.907144E-4,1.796296E-2,5.75E-2,8.333332E-3,6.956519E-3,2.3607593E-2,7.05E-2,2.3666665E-2,3.333333E-2,1.7391281E-3,4.1249998E-2,-9.94524E-3,-9.818184E-3,1.658163E-2,-9.978497E-3,1.8181816E-2,-3.5294143E-3,3.7840907E-2,-8.750002E-3,7.064815E-2,-9.000002E-3,4.4999998E-2,5.3653844E-2,1.4047617E-2,2.3888886E-2,-9.886366E-3,8.357143E-2,1.789024E-3,4.1842103E-2,1.3638093E-2,2.5317917E-2,6.4776115E-2,6E-2,1.8633517E-3,-9.000002E-3,7.6730765E-2,-9.821431E-3,7.875E-2,7.738095E-2,-7.5000017E-3,4.8571426E-2,-9.333336E-3,5.2708335E-2,8.790698E-2,6.60606E-2,2.3820223E-2,-3.3443735E-3,4.1818183E-2],"categories":[],"categories_nodes":[],"categories_segments":[],"categories_sizes":[],"default_left":[0,0,0,0,0,0,0,0,0,0,0,0,0,0,0,0,0,0,0,0,0,0,0,0,0,0,0,0,0,0,0,0,0,0,0,0,0,0,0,0,0,0,0,0,0,0,0,0,0,0,0,0,0,0,0,0,0,0,0,0,0,0,0,0,0,0,0,0,0,0,0,0,0,0,0,0,0,0,0,0,0,0,0,0,0,0,0,0,0,0,0,0,0,0,0,0,0,0,0,0,0,0,0,0,0,0,0,0,0,0,0,0,0,0,0],"id":6,"left_children":[1,3,5,7,9,11,13,15,17,19,21,23,25,27,29,31,33,35,37,39,41,43,-1,45,47,49,51,53,55,57,59,-1,61,63,65,67,69,71,73,75,77,79,81,83,-1,85,87,89,91,93,95,97,99,101,103,105,-1,107,109,111,113,-1,-1,-1,-1,-1,-1,-1,-1,-1,-1,-1,-1,-1,-1,-1,-1,-1,-1,-1,-1,-1,-1,-1,-1,-1,-1,-1,-1,-1,-1,-1,-1,-1,-1,-1,-1,-1,-1,-1,-1,-1,-1,-1,-1,-1,-1,-1,-1,-1,-1,-1,-1,-1,-1],"loss_changes":[1.5729031E2,1.2827072E1,2.8679657E1,1.6621056E1,1.109362E1,1.8464504E1,1.9142303E1,3.983604E0,4.0093203E0,3.685028E0,3.2608948E0,1.5764698E1,1.37675E1,9.344254E0,2.112995E1,3.5449939E0,4.656477E-1,2.8406608E0,3.6162968E0,3.2192993E0,6.6744876E0,2.7496133E0,0E0,3.9759026E0,8.081068E0,1.3893085E1,7.666315E0,1.206621E1,4.827896E0,5.903221E0,1.0518257E1,0E0,9.50523E-1,6.041667E-1,1.2935162E-1,1.6617433E0,7.879901E-1,2.4642673E0,2.4485884E0,1.5986972E0,2.0854263E0,2.9815726E0,8.434262E-1,2.3405657E0,0E0,4.267006E0,4.86E-1,3.5139322E0,1.7029549E0,9.312827E0,7.4155846E0,7.386854E0,6.793606E0,5.76215E0,5.49127E0,2.2298508E0,0E0,1.5916191E0,2.3239365E0,4.170108E0,6.0677023E0,0E0,0E0,0E0,0E0,0E0,0E0,0E0,0E0,0E0,0E0,0E0,0E0,0E0,0E0,0E0,0E0,0E0,0E0,0E0,0E0,0E0,0E0,0E0,0E0,0E0,0E0,0E0,0E0,0E0,0E0,0E0,0E0,0E0,0E0,0E0,0E0,0E0,0E0,0E0,0E0,0E0,0E0,0E0,0E0,0E0,0E0,0E0,0E0,0E0,0E0,0E0,0E0,0E0,0E0],"parents":[2147483647,0,0,1,1,2,2,3,3,4,4,5,5,6,6,7,7,8,8,9,9,10,10,11,11,12,12,13,13,14,14,15,15,16,16,17,17,18,18,19,19,20,20,21,21,23,23,24,24,25,25,26,26,27,27,28,28,29,29,30,30,32,32,33,33,34,34,35,35,36,36,37,37,38,38,39,39,40,40,41,41,42,42,43,43,45,45,46,46,47,47,48,48,49,49,50,50,51,51,52,52,53,53,54,54,55,55,57,57,58,58,59,59,60,60],"right_children":[2,4,6,8,10,12,14,16,18,20,22,24,26,28,30,32,34,36,38,40,42,44,-1,46,48,50,52,54,56,58,60,-1,62,64,66,68,70,72,74,76,78,80,82,84,-1,86,88,90,92,94,96,98,100,102,104,106,-1,108,110,112,114,-1,-1,-1,-1,-1,-1,-1,-1,-1,-1,-1,-1,-1,-1,-1,-1,-1,-1,-1,-1,-1,-1,-1,-1,-1,-1,-1,-1,-1,-1,-1,-1,-1,-1,-1,-1,-1,-1,-1,-1,-1,-1,-1,-1,-1,-1,-1,-1,-1,-1,-1,-1,-1,-1],"split_conditions":[2.9768117E-3,1.2977822E-18,4.317325E-1,1.3059216E1,8.000873E-2,-9.718533E-2,-2.9208992E-2,3.5821682E-19,1.12983274E-4,-4.844055E-19,1.3021405E-1,-1.9721828E-1,9.244292E-2,1.0629135E-4,1.4867509E-3,-1.1051766E-3,-1.2608558E-18,4.230524E-18,-1.6220829E-3,-7.7517904E-2,-5.4231854E-20,1.3179807E-1,-2.785056E-3,4.3202434E-3,6.812539E-4,2.2093128E-2,-7.068214E-1,-8.28009E-2,6.890217E-2,-8.429032E-2,-8.962539E-2,6.9617094E-3,5.5459045E-2,-9.922549E-3,9.968953E0,-1.2548297E-18,-1.9567763E-2,8.0246846E-20,-7.1502334E-5,-8.255973E-2,7.98598E0,1.3939539E1,6.758682E-2,-1.8073197E-18,-3.680767E-4,2.8700896E-2,3.2138508E-2,3.6226197E-3,1.03595965E-1,4.0693447E-4,-8.1105375E-1,-1.7013035E-3,-4.309737E-1,1.3893776E1,-6.2840764E-4,-2.1029513E0,-5.600846E-3,-3.4073223E-3,-8.159699E-2,-1.2522371E-1,2.3295835E-2,1.2641391E-3,3.1184673E-3,-2.861792E-3,1.3689995E-4,-7.558089E-4,-2.31539E-2,-7.163323E-4,2.3447964E-3,4.586519E-3,3.5827518E-3,2.577634E-3,3.2765449E-3,2.8934001E-3,3.8504475E-3,2.491465E-3,1.9085941E-4,5.24407E-3,-2.3350539E-2,-2.6474351E-2,3.5329207E-3,-2.7968088E-2,3.7194886E-3,3.8403986E-4,3.2095965E-3,-3.863001E-3,7.3050507E-3,-1.9056218E-4,5.932629E-4,2.1329285E-3,2.4799784E-3,4.6825074E-3,-4.327735E-3,1.0929715E-3,3.5676756E-4,3.8449436E-3,2.4351834E-3,2.395122E-3,3.3192341E-3,7.500054E-3,1.8333904E-4,-1.7480493E-3,6.8311556E-3,-2.028683E-3,1.7571986E-3,6.1701834E-3,-1.6010046E-3,9.51606E-4,-1.15147246E-4,1.7123206E-3,1.0252529E-3,6.3541243E-3,1.0047829E-3,-5.943897E-4,4.9005663E-3],"split_indices":[17,45,8,0,33,32,4,33,25,44,9,38,33,25,23,24,21,33,26,32,44,13,0,47,35,23,8,32,37,32,32,0,1,6,3,32,46,45,28,4,0,3,43,32,0,37,5,5,45,23,8,27,6,0,45,12,0,26,32,39,37,0,0,0,0,0,0,0,0,0,0,0,0,0,0,0,0,0,0,0,0,0,0,0,0,0,0,0,0,0,0,0,0,0,0,0,0,0,0,0,0,0,0,0,0,0,0,0,0,0,0,0,0,0,0],"split_type":[0,0,0,0,0,0,0,0,0,0,0,0,0,0,0,0,0,0,0,0,0,0,0,0,0,0,0,0,0,0,0,0,0,0,0,0,0,0,0,0,0,0,0,0,0,0,0,0,0,0,0,0,0,0,0,0,0,0,0,0,0,0,0,0,0,0,0,0,0,0,0,0,0,0,0,0,0,0,0,0,0,0,0,0,0,0,0,0,0,0,0,0,0,0,0,0,0,0,0,0,0,0,0,0,0,0,0,0,0,0,0,0,0,0,0],"sum_hessian":[1.9E4,1.4204E4,4.796E3,2.092E3,1.2112E4,3.977E3,8.19E2,1.29E3,8.02E2,1.1956E4,1.56E2,3.2E2,3.657E3,2.57E2,5.62E2,1.53E2,1.137E3,3.91E2,4.11E2,1.1233E4,7.23E2,1.22E2,3.4E1,1.24E2,1.96E2,3.237E3,4.2E2,1.22E2,1.35E2,1.09E2,4.53E2,6E0,1.47E2,8E0,1.129E3,3.75E2,1.6E1,3.63E2,4.8E1,8.8E1,1.1145E4,2.49E2,4.74E2,1.03E2,1.9E1,1.14E2,1E1,9.2E1,1.04E2,2.6E3,6.37E2,2.38E2,1.82E2,6E1,6.2E1,1.28E2,7E0,2E1,8.9E1,1.2E2,3.33E2,1.45E2,2E0,5E0,3E0,6.4E1,1.065E3,3.22E2,5.3E1,1.1E1,5E0,2.06E2,1.57E2,1.9E1,2.9E1,2E1,6.8E1,7E0,1.1138E4,5.4E1,1.95E2,4.64E2,1E1,1.6E1,8.7E1,7E0,1.07E2,9E0,1E0,5.1E1,4.1E1,1.7E1,8.7E1,1.3E1,2.587E3,1.13E2,5.24E2,1.72E2,6.6E1,2.2E1,1.6E2,9E0,5.1E1,5.5E1,7E0,1.25E2,3E0,6E0,1.4E1,4.7E1,4.2E1,3.2E1,8.8E1,3.01E2,3.2E1],"tree_param":{"num_deleted":"0","num_feature":"48","num_nodes":"115","size_leaf_vector":"1"}},{"base_weights":[-2.8630096E-2,-7.8451276E-2,1.1890763E-1,-9.173459E-3,-9.041528E-2,3.451685E-1,9.5750034E-2,-7.436098E-2,9.564132E-2,-9.3706556E-2,1.270718E-1,1.7278104E-1,4.4909745E-1,1.4059516E-3,1.5655456E-1,6.948049E-2,-9.3761005E-2,3.0357119E-2,1.5752424E-1,9.213481E-2,-9.5095E-2,-9.800002E-3,2.1136361E-1,3.6020407E-1,-8.472224E-2,7.1999997E-1,3.8026902E-1,-2.9828202E-2,1.8102765E-1,2.0970714E-1,3.4452714E-2,7.714286E-2,3.5810787E-2,1.3333331E-1,-9.548675E-2,1.4574465E-1,-6.0200905E-3,-2.1538485E-2,1.9051722E-1,3.333333E-1,1.7391281E-2,-9.927213E-2,-3.0222865E-2,2.9670328E-1,2.1428548E-2,4.1839078E-1,-9.166669E-3,-9.859158E-3,4.4999998E-2,7.480769E-1,1.7499998E-1,-2.2500023E-2,4.6576086E-1,-3.6559913E-2,4.5499998E-1,1.1189425E-1,7.555555E-1,1.7273264E-1,6.0316455E-1,4.742857E-1,1.441556E-2,3.5555553E-2,1.4999977E-3,-8.333336E-3,4.25E-2,-3.69231E-3,-9.896813E-3,-6.5625026E-3,2.5079364E-2,-4.3145185E-3,1.7115382E-2,-5.000002E-3,4.25E-2,-6.857145E-3,2.1878978E-2,6.153844E-3,6.888889E-2,4.8571426E-2,-3.492066E-3,4.1249998E-2,-9.963135E-3,9.2244875E-3,-9.345994E-3,1.219512E-2,4.3137252E-2,-4.166669E-3,3.4285713E-2,2.6199996E-2,6.1315786E-2,-5.0000013E-3,7.647058E-2,-6.6666687E-3,4.4999998E-2,-9.729732E-3,6.7499995E-2,8.678571E-2,3.910828E-2,-4.1065193E-3,6.0999997E-2,8E-2,1.5833331E-2,5.582522E-3,6.318182E-2,8.24E-2,-6.6666687E-3,1.4048874E-2,4.5229882E-2,7.109489E-2,-9.545457E-3,7.375E-2,-9.166669E-3,-5.4662405E-3,6.1086933E-3],"categories":[],"categories_nodes":[],"categories_segments":[],"categories_sizes":[],"default_left":[0,0,0,0,0,0,0,0,0,0,0,0,0,0,0,0,0,0,0,0,0,0,0,0,0,0,0,0,0,0,0,0,0,0,0,0,0,0,0,0,0,0,0,0,0,0,0,0,0,0,0,0,0,0,0,0,0,0,0,0,0,0,0,0,0,0,0,0,0,0,0,0,0,0,0,0,0,0,0,0,0,0,0,0,0,0,0,0,0,0,0,0,0,0,0,0,0,0,0,0,0,0,0,0,0,0,0,0,0,0,0,0,0],"id":7,"left_children":[1,3,5,7,9,11,13,15,17,19,21,23,25,27,29,31,33,35,37,39,41,-1,43,45,47,49,51,53,55,57,59,-1,61,63,65,67,69,71,73,75,77,79,81,83,85,87,-1,-1,-1,89,91,93,95,97,99,101,103,105,107,109,111,-1,-1,-1,-1,-1,-1,-1,-1,-1,-1,-1,-1,-1,-1,-1,-1,-1,-1,-1,-1,-1,-1,-1,-1,-1,-1,-1,-1,-1,-1,-1,-1,-1,-1,-1,-1,-1,-1,-1,-1,-1,-1,-1,-1,-1,-1,-1,-1,-1,-1,-1,-1],"loss_changes":[1.3967624E2,1.1772842E1,2.5101585E1,1.4307777E1,8.68251E0,7.895046E0,2.4970974E1,3.609086E0,3.2393188E0,3.0878525E0,3.4545937E0,8.186802E0,4.8910904E0,9.582236E0,1.7171875E1,3.6120696E0,4.5872116E-1,1.6462882E0,2.4381227E0,1.5986972E0,3.206749E0,0E0,2.1332283E0,2.6150541E0,5.783353E-1,7.1069145E-1,7.6891403E0,4.7653513E0,9.96438E0,2.6722115E1,7.078815E0,0E0,9.794805E-1,6.041667E-1,2.267313E-1,2.1036499E0,1.9740863E0,8.473462E-1,2.5641375E0,1.9870086E0,1.7073845E0,2.086876E0,5.5691733E0,2.0889635E0,8.660714E-1,2.4893532E0,0E0,0E0,0E0,7.283344E-1,2.9583335E-1,2.1525202E0,5.185707E0,4.2080245E0,1.9203334E0,6.5821486E0,1.5744019E0,1.5143581E1,1.19653015E1,5.2814403E0,2.485791E0,0E0,0E0,0E0,0E0,0E0,0E0,0E0,0E0,0E0,0E0,0E0,0E0,0E0,0E0,0E0,0E0,0E0,0E0,0E0,0E0,0E0,0E0,0E0,0E0,0E0,0E0,0E0,0E0,0E0,0E0,0E0,0E0,0E0,0E0,0E0,0E0,0E0,0E0,0E0,0E0,0E0,0E0,0E0,0E0,0E0,0E0,0E0,0E0,0E0,0E0,0E0,0E0],"parents":[2147483647,0,0,1,1,2,2,3,3,4,4,5,5,6,6,7,7,8,8,9,9,10,10,11,11,12,12,13,13,14,14,15,15,16,16,17,17,18,18,19,19,20,20,22,22,23,23,24,24,25,25,26,26,27,27,28,28,29,29,30,30,32,32,33,33,34,34,35,35,36,36,37,37,38,38,39,39,40,40,41,41,42,42,43,43,44,44,45,45,49,49,50,50,51,51,52,52,53,53,54,54,55,55,56,56,57,57,58,58,59,59,60,60],"right_children":[2,4,6,8,10,12,14,16,18,20,22,24,26,28,30,32,34,36,38,40,42,-1,44,46,48,50,52,54,56,58,60,-1,62,64,66,68,70,72,74,76,78,80,82,84,86,88,-1,-1,-1,90,92,94,96,98,100,102,104,106,108,110,112,-1,-1,-1,-1,-1,-1,-1,-1,-1,-1,-1,-1,-1,-1,-1,-1,-1,-1,-1,-1,-1,-1,-1,-1,-1,-1,-1,-1,-1,-1,-1,-1,-1,-1,-1,-1,-1,-1,-1,-1,-1,-1,-1,-1,-1,-1,-1,-1,-1,-1,-1,-1],"split_conditions":[2.9768117E-3,1.2977822E-18,-8.741289E-2,1.3059216E1,7.7531435E-2,1.6076125E-2,1.392008E1,3.5821682E-19,1.12983274E-4,-7.7517904E-2,-7.7922955E-2,-2.1264022E-3,-2.4970195E-3,1.07286066E-1,4.530543E-3,-1.1051766E-3,-1.2608558E-18,-1.9092046E-3,2.5504656E-18,-8.255973E-2,-4.844055E-19,-2.2490383E-3,1.1891676E-1,1.0916373E-2,1.8254513E-2,1.0244812E0,2.2932856E-1,9.4534166E-2,2.258606E-2,2.237303E-2,1.0196303E-3,6.265539E-3,-7.5119274E-4,-9.922549E-3,9.968953E0,3.7056298E-3,-1.2548297E-18,-1.2474584E-3,3.5821682E-19,5.0335926E-18,1.1483858E-5,7.98598E0,-5.4231854E-20,-3.495878E-2,9.333619E-2,-3.1107635E0,-2.4980912E-4,-5.627281E-4,5.997926E-3,-1.1256345E-1,1.9575873E-2,1.3887547E1,-3.539283E0,9.8858334E-2,4.137202E-3,-3.1900337E-1,7.455017E-2,8.10662E-2,-1.0881422E-3,5.52003E-1,1.590883E1,2.9739619E-3,9.624511E-4,-2.5756122E-3,1.2320877E-4,-6.802302E-4,-2.0838508E-2,-2.018811E-3,5.1913145E-3,-8.501496E-4,1.9748535E-3,-4.075435E-4,3.2071888E-3,-1.8734264E-3,3.0767035E-3,8.5943023E-4,3.3356906E-3,4.917425E-3,-1.9039164E-4,4.719663E-3,-2.1019705E-2,2.6467156E-3,-2.4261536E-2,1.5962645E-3,4.1352143E-3,-1.542593E-4,2.8624355E-3,3.006833E-3,5.795995E-3,-2.2725165E-3,7.181644E-3,-2.1483123E-3,3.1813146E-3,-1.8431975E-4,5.642891E-3,7.1231867E-3,3.3400774E-3,-5.7303434E-4,1.41536E-3,2.5380612E-3,4.6660771E-4,1.1869908E-3,6.5428703E-3,6.4041256E-3,-7.265151E-4,1.4809916E-3,5.6471596E-3,3.9484045E-3,-2.122877E-3,7.4162125E-4,-2.0916795E-3,-5.9834967E-4,4.4712998E-4],"split_indices":[17,45,33,0,33,1,3,33,25,32,44,24,26,37,4,24,21,27,7,4,44,0,39,40,5,6,13,30,23,23,23,0,28,6,3,5,32,24,33,21,29,0,44,46,33,12,0,0,0,22,1,0,14,33,11,8,1,32,27,16,3,0,0,0,0,0,0,0,0,0,0,0,0,0,0,0,0,0,0,0,0,0,0,0,0,0,0,0,0,0,0,0,0,0,0,0,0,0,0,0,0,0,0,0,0,0,0,0,0,0,0,0,0],"split_type":[0,0,0,0,0,0,0,0,0,0,0,0,0,0,0,0,0,0,0,0,0,0,0,0,0,0,0,0,0,0,0,0,0,0,0,0,0,0,0,0,0,0,0,0,0,0,0,0,0,0,0,0,0,0,0,0,0,0,0,0,0,0,0,0,0,0,0,0,0,0,0,0,0,0,0,0,0,0,0,0,0,0,0,0,0,0,0,0,0,0,0,0,0,0,0,0,0,0,0,0,0,0,0,0,0,0,0,0,0,0,0,0,0],"sum_hessian":[1.9E4,1.4204E4,4.796E3,2.092E3,1.2112E4,4.44E2,4.352E3,1.29E3,8.02E2,1.1932E4,1.8E2,1.68E2,2.76E2,1.706E3,2.646E3,1.53E2,1.137E3,3.91E2,4.11E2,8.8E1,1.1844E4,4.9E1,1.31E2,9.7E1,7.1E1,5.4E1,2.22E2,1.454E3,2.52E2,1.843E3,8.03E2,6E0,1.47E2,8E0,1.129E3,9.3E1,2.98E2,6.4E1,3.47E2,2E1,6.8E1,1.1127E4,7.17E2,9E1,4.1E1,8.6E1,1.1E1,7E1,1E0,5.1E1,3E0,3.9E1,1.83E2,1.435E3,1.9E1,2.26E2,2.6E1,1.686E3,1.57E2,3.4E1,7.69E2,8E0,1.39E2,5E0,3E0,6.4E1,1.065E3,3.1E1,6.2E1,2.47E2,5.1E1,6.1E1,3E0,3.4E1,3.13E2,1.2E1,8E0,6E0,6.2E1,7E0,1.112E4,2.44E2,4.73E2,4E1,5E1,3.5E1,6E0,4.9E1,3.7E1,1E0,5E1,2E0,1E0,3.6E1,3E0,2.7E1,1.56E2,1.426E3,9E0,8E0,1.1E1,2.05E2,2.1E1,2.4E1,2E0,1.513E3,1.73E2,1.36E2,2.1E1,2.3E1,1.1E1,3.1E2,4.59E2],"tree_param":{"num_deleted":"0","num_feature":"48","num_nodes":"113","size_leaf_vector":"1"}},{"base_weights":[-3.2682516E-2,-7.908485E-2,1.047321E-1,-1.4429073E-2,-9.025017E-2,3.047191E-1,8.4263705E-2,-7.436098E-2,8.194269E-2,-9.345515E-2,1.2154694E-1,1.2601154E-1,4.168498E-1,2.5775977E-3,1.3690968E-1,5.6493483E-2,-9.200354E-2,6.5456964E-2,2.8499997E-1,-9.767299E-2,-2.743735E-2,-9.800002E-3,2.0378785E-1,2.8484845E-1,-8.5333355E-2,6.9374996E-1,3.5619467E-1,-1.3435607E-2,3.3717945E-1,2.4538542E-1,7.898087E-2,7.714286E-2,2.2297274E-2,1.3333331E-1,-9.371684E-2,5.483423E-2,4.285714E-1,6.896529E-3,5.28125E-1,9.213481E-2,-9.918227E-2,8.540923E-2,-9.977172E-3,2.8571427E-1,2.1428548E-2,1.195652E-1,4.2037034E-1,2.6666665E-1,-9.863016E-3,7.4666667E-1,-7.5000017E-3,3.0454543E-1,6.965517E-1,-5.123969E-2,6.2546104E-2,6.205128E-1,5.2499976E-2,3.9343888E-1,1.08541645E-1,3.0511627E-1,4.6794426E-2,1.8437497E-2,-2.2222246E-3,-8.333336E-3,4.25E-2,-3.69231E-3,-9.709196E-3,9.567899E-3,-2.8451907E-3,4.842105E-2,-6.6666687E-3,1.5833331E-2,-9.444447E-3,7.473684E-2,1.9285712E-2,3.333333E-2,1.7391281E-3,4.1249998E-2,-9.954143E-3,-9.87342E-3,1.5665023E-2,1.219512E-2,4.1176468E-2,-4.166669E-3,3.4285713E-2,-9.473687E-3,2.6071427E-2,1.42857125E-2,5.7941176E-2,4.4999998E-2,-5.0000013E-3,8.25641E-2,1.9999998E-2,6.394737E-2,2.2360247E-2,3.6363635E-2,8.5263155E-2,2.827586E-2,-6.032048E-3,4.708096E-3,7.416667E-2,8.590909E-2,2.9444441E-2,4.6666663E-2,-6.5625026E-3,2.7007041E-2,6.1132073E-2,6.6129006E-3,4.9787235E-2,4.655844E-2,-9.838712E-3,3.2665723E-3,3.560606E-2],"categories":[],"categories_nodes":[],"categories_segments":[],"categories_sizes":[],"default_left":[0,0,0,0,0,0,0,0,0,0,0,0,0,0,0,0,0,0,0,0,0,0,0,0,0,0,0,0,0,0,0,0,0,0,0,0,0,0,0,0,0,0,0,0,0,0,0,0,0,0,0,0,0,0,0,0,0,0,0,0,0,0,0,0,0,0,0,0,0,0,0,0,0,0,0,0,0,0,0,0,0,0,0,0,0,0,0,0,0,0,0,0,0,0,0,0,0,0,0,0,0,0,0,0,0,0,0,0,0,0,0,0,0],"id":8,"left_children":[1,3,5,7,9,11,13,15,17,19,21,23,25,27,29,31,33,35,37,39,41,-1,43,45,47,49,51,53,55,57,59,-1,61,63,65,67,69,71,73,75,77,79,-1,81,83,85,87,89,-1,91,-1,93,95,97,99,101,103,105,107,109,111,-1,-1,-1,-1,-1,-1,-1,-1,-1,-1,-1,-1,-1,-1,-1,-1,-1,-1,-1,-1,-1,-1,-1,-1,-1,-1,-1,-1,-1,-1,-1,-1,-1,-1,-1,-1,-1,-1,-1,-1,-1,-1,-1,-1,-1,-1,-1,-1,-1,-1,-1,-1],"loss_changes":[1.211655E2,1.0253311E1,1.9610428E1,1.2094726E1,8.233734E0,8.864651E0,1.8719488E1,2.98561E0,2.669424E0,3.3201065E0,3.2880607E0,5.831809E0,4.3380394E0,9.150718E0,1.6614025E1,3.7478015E0,4.518423E-1,2.8463075E0,4.053192E0,3.222206E0,5.8693295E0,0E0,1.9659634E0,2.1672878E0,3.7733698E-1,2.008625E0,3.760765E0,4.685248E0,6.2588396E0,1.8616943E1,1.2555681E1,0E0,1.0720091E0,6.041667E-1,2.1301937E-1,2.4656272E0,6.109271E-1,4.6000957E-1,2.2080326E0,1.5986972E0,2.0861588E0,3.7017822E0,0E0,1.8282428E0,8.660714E-1,1.4161317E0,2.3005762E0,1.9666666E-1,0E0,1.7776413E0,0E0,5.2248096E0,1.1968307E0,3.3199563E0,5.657545E0,2.780964E0,1.9875623E0,1.1715752E1,7.8930945E0,1.3966938E1,6.5994673E0,0E0,0E0,0E0,0E0,0E0,0E0,0E0,0E0,0E0,0E0,0E0,0E0,0E0,0E0,0E0,0E0,0E0,0E0,0E0,0E0,0E0,0E0,0E0,0E0,0E0,0E0,0E0,0E0,0E0,0E0,0E0,0E0,0E0,0E0,0E0,0E0,0E0,0E0,0E0,0E0,0E0,0E0,0E0,0E0,0E0,0E0,0E0,0E0,0E0,0E0,0E0,0E0],"parents":[2147483647,0,0,1,1,2,2,3,3,4,4,5,5,6,6,7,7,8,8,9,9,10,10,11,11,12,12,13,13,14,14,15,15,16,16,17,17,18,18,19,19,20,20,22,22,23,23,24,24,25,25,26,26,27,27,28,28,29,29,30,30,32,32,33,33,34,34,35,35,36,36,37,37,38,38,39,39,40,40,41,41,43,43,44,44,45,45,46,46,47,47,49,49,51,51,52,52,53,53,54,54,55,55,56,56,57,57,58,58,59,59,60,60],"right_children":[2,4,6,8,10,12,14,16,18,20,22,24,26,28,30,32,34,36,38,40,42,-1,44,46,48,50,52,54,56,58,60,-1,62,64,66,68,70,72,74,76,78,80,-1,82,84,86,88,90,-1,92,-1,94,96,98,100,102,104,106,108,110,112,-1,-1,-1,-1,-1,-1,-1,-1,-1,-1,-1,-1,-1,-1,-1,-1,-1,-1,-1,-1,-1,-1,-1,-1,-1,-1,-1,-1,-1,-1,-1,-1,-1,-1,-1,-1,-1,-1,-1,-1,-1,-1,-1,-1,-1,-1,-1,-1,-1,-1,-1,-1],"split_conditions":[2.9768117E-3,1.2977822E-18,-8.741289E-2,1.3059216E1,7.7531435E-2,1.7218396E-2,1.392008E1,3.5821682E-19,5.5834685E-2,-4.844055E-19,-7.7922955E-2,-2.1264022E-3,-5.214387E-4,9.9087186E-2,-2.7287697E-2,-1.1051766E-3,-1.2608558E-18,6.7570508E-3,-1.4711764E-3,-7.7517904E-2,-4.9500863E-20,-2.024132E-3,1.1891676E-1,-9.528945E-2,4.7664377E-3,4.6449592E-3,1.5476241E1,2.3392327E-1,-2.4960058E0,2.4822576E-1,1.3975606E-3,5.638987E-3,-3.9926976E-1,-9.922549E-3,9.968953E0,1.592292E1,1.7859E1,1.390425E1,2.1755747E-2,-8.255973E-2,7.98598E0,1.3939539E1,-2.3346158E-2,-3.495878E-2,9.333619E-2,-3.1831007E-2,2.7229555E-2,7.6715327E-3,-5.0472916E-4,3.826077E-1,-4.8275592E-4,-9.093511E-2,-2.3788444E-3,6.5549335E-5,6.551439E-2,4.364799E-1,7.809266E0,1.8021823E-1,9.777121E-2,4.1992489E-1,7.066325E-2,4.2939605E-3,-7.902281E-5,-2.3180486E-3,1.1088848E-4,-6.122094E-4,-1.875466E-2,2.3769045E-3,-8.090835E-4,5.83951E-3,-1.9861043E-3,4.2781574E-3,-5.129768E-4,3.7697856E-3,2.6679046E-3,1.9087462E-3,1.6940091E-4,4.247695E-3,-1.8917736E-2,-2.8293272E-2,3.2391031E-3,1.4366372E-3,3.7216952E-3,-1.3883361E-4,2.5761903E-3,-3.821499E-4,1.3868639E-3,2.6350708E-3,5.2847313E-3,3.1828881E-6,-2.2093118E-3,4.689896E-3,5.2219215E-3,6.8155327E-3,2.7144211E-3,7.1246335E-3,7.124338E-3,3.3835003E-3,-7.395262E-4,7.372985E-4,4.7855377E-3,5.8548674E-3,4.1510942E-3,2.558571E-3,-2.7676115E-3,2.4470927E-3,5.2873413E-3,1.2863111E-3,3.0304003E-3,6.674611E-4,-2.0470417E-3,3.8851917E-4,6.1932094E-3],"split_indices":[17,45,33,0,33,5,3,33,5,44,44,24,28,4,4,24,21,27,24,32,44,0,39,30,19,47,2,13,12,7,23,0,8,6,3,3,0,2,4,4,0,3,0,46,33,10,7,1,0,10,0,33,24,37,1,46,2,13,33,21,40,0,0,0,0,0,0,0,0,0,0,0,0,0,0,0,0,0,0,0,0,0,0,0,0,0,0,0,0,0,0,0,0,0,0,0,0,0,0,0,0,0,0,0,0,0,0,0,0,0,0,0,0],"split_type":[0,0,0,0,0,0,0,0,0,0,0,0,0,0,0,0,0,0,0,0,0,0,0,0,0,0,0,0,0,0,0,0,0,0,0,0,0,0,0,0,0,0,0,0,0,0,0,0,0,0,0,0,0,0,0,0,0,0,0,0,0,0,0,0,0,0,0,0,0,0,0,0,0,0,0,0,0,0,0,0,0,0,0,0,0,0,0,0,0,0,0,0,0,0,0,0,0,0,0,0,0,0,0,0,0,0,0,0,0,0,0,0,0],"sum_hessian":[1.9E4,1.4204E4,4.796E3,2.092E3,1.2112E4,4.44E2,4.352E3,1.29E3,8.02E2,1.1932E4,1.8E2,1.72E2,2.72E2,1.706E3,2.646E3,1.53E2,1.137E3,7.43E2,5.9E1,1.1215E4,7.17E2,4.9E1,1.31E2,9.8E1,7.4E1,4.7E1,2.25E2,1.629E3,7.7E1,9.2E2,1.726E3,6E0,1.47E2,8E0,1.129E3,7.23E2,2E1,2.8E1,3.1E1,8.8E1,1.1127E4,2.8E2,4.37E2,9E1,4.1E1,4.5E1,5.3E1,2E0,7.2E1,4.4E1,3E0,1.97E2,2.8E1,1.088E3,5.41E2,3.8E1,3.9E1,4.41E2,4.79E2,2.14E2,1.512E3,3.1E1,1.16E2,5E0,3E0,6.4E1,1.065E3,4.85E2,2.38E2,1.8E1,2E0,1.1E1,1.7E1,1.8E1,1.3E1,2E1,6.8E1,7E0,1.112E4,7.8E1,2.02E2,4E1,5E1,3.5E1,6E0,1.8E1,2.7E1,2E1,3.3E1,1E0,1E0,3.8E1,6E0,3.7E1,1.6E2,1E1,1.8E1,2.8E1,1.06E3,5.3E2,1.1E1,2.1E1,1.7E1,8E0,3.1E1,2.83E2,1.58E2,4.33E2,4.6E1,1.53E2,6.1E1,1.447E3,6.5E1],"tree_param":{"num_deleted":"0","num_feature":"48","num_nodes":"113","size_leaf_vector":"1"}},{"base_weights":[-3.5734985E-2,-7.943684E-2,9.3683526E-2,-1.8251337E-2,-9.00025E-2,5.8196463E-2,1.8643555E-1,-7.358639E-2,7.0734724E-2,-9.2799224E-2,1.2356686E-1,2.7374078E-2,1.819364E-1,1.0953945E-1,3.545673E-1,5.6493483E-2,-9.11248E-2,1.0944442E-1,-8.712145E-3,-9.687558E-2,-2.9419914E-2,1.8536583E-1,-9.714289E-3,1.2120037E-2,2.9664427E-1,4.0075755E-1,1.3012475E-1,1.5719673E-2,2.3792206E-1,4.86194E-1,1.1543622E-1,7.714286E-2,2.2297274E-2,1.3333331E-1,-9.283188E-2,2.5284067E-2,2.6560843E-1,1.220779E-1,-6.2234066E-2,9.213481E-2,-9.8376125E-2,-7.243153E-2,1.4893615E-1,2.2788459E-1,-4.5000024E-2,3.0514702E-1,-3.8446374E-3,4.3564355E-1,4.081609E-3,6.594594E-1,2.9687497E-1,5.090907E-2,3.016949E-1,7.2E-2,8.969442E-3,4.1490382E-1,2.9775256E-2,2.6043162E-1,7.2384614E-1,7.214283E-2,7.1E-1,1.8437497E-2,-2.2222246E-3,-8.333336E-3,4.25E-2,-9.535098E-3,-8.823552E-4,5.8333334E-2,1.5561936E-3,-4.6875235E-4,4.0079366E-2,1.4516106E-3,5.3125E-2,3.5555553E-2,-8.27778E-3,3.333333E-2,1.7391281E-3,4.1249998E-2,-9.87342E-3,1.6578946E-2,-8.884829E-3,2.162162E-2,-9.677421E-3,1.4459456E-2,4.1935485E-2,2.6666665E-2,-9.444447E-3,4.8804346E-2,-7.555558E-3,-2.6134825E-3,1.4952679E-2,-8.695675E-4,5.5949368E-2,3.25E-2,-9.736844E-3,7.264706E-2,-7.5000017E-3,3.9466664E-2,-5.000002E-3,1.5342443E-3,6.666666E-2,6.0206182E-2,-6.172842E-3,8.429117E-3,-6.553033E-3,1.8333311E-3,5.7181206E-2,-8.250003E-3,2.576271E-2,-5.434785E-3,4.117021E-2,-9.000002E-3,7.851239E-2,7.5E-2,4.1481457E-3,8E-2,-5.0000013E-3],"categories":[],"categories_nodes":[],"categories_segments":[],"categories_sizes":[],"default_left":[0,0,0,0,0,0,0,0,0,0,0,0,0,0,0,0,0,0,0,0,0,0,0,0,0,0,0,0,0,0,0,0,0,0,0,0,0,0,0,0,0,0,0,0,0,0,0,0,0,0,0,0,0,0,0,0,0,0,0,0,0,0,0,0,0,0,0,0,0,0,0,0,0,0,0,0,0,0,0,0,0,0,0,0,0,0,0,0,0,0,0,0,0,0,0,0,0,0,0,0,0,0,0,0,0,0,0,0,0,0,0,0,0,0,0,0,0],"id":9,"left_children":[1,3,5,7,9,11,13,15,17,19,21,23,25,27,29,31,33,35,37,39,41,43,-1,45,47,49,51,53,55,57,59,-1,61,63,65,67,69,71,73,75,77,79,81,83,85,87,89,91,93,95,97,99,101,-1,103,105,107,109,111,113,115,-1,-1,-1,-1,-1,-1,-1,-1,-1,-1,-1,-1,-1,-1,-1,-1,-1,-1,-1,-1,-1,-1,-1,-1,-1,-1,-1,-1,-1,-1,-1,-1,-1,-1,-1,-1,-1,-1,-1,-1,-1,-1,-1,-1,-1,-1,-1,-1,-1,-1,-1,-1,-1,-1,-1,-1],"loss_changes":[1.0747386E2,9.181389E0,1.5778465E1,1.0311238E1,7.246483E0,1.3233274E1,1.7117512E1,2.950428E0,2.4704714E0,3.0863342E0,2.1594298E0,1.1415138E1,7.7933903E0,1.0981142E1,1.3037907E1,3.7478015E0,4.4842243E-1,7.090407E0,1.8556329E0,3.1952286E0,5.5648685E0,1.215024E0,0E0,1.2313882E1,6.057455E0,3.3516731E0,7.6092186E0,2.5036829E0,1.4170349E1,1.4190475E1,3.7841394E0,0E0,1.0720091E0,6.041667E-1,2.3829556E-1,1.9006729E0,6.907941E0,3.381157E0,1.6430283E0,1.5986972E0,2.0797043E0,2.2986465E0,2.3518522E0,1.5979099E0,3.333889E-1,9.506437E0,8.540346E0,5.5630436E0,1.6269468E0,1.8755112E0,3.2761955E0,8.421433E0,1.935855E1,0E0,2.9459238E0,1.2932358E1,4.574873E0,6.641116E0,6.5538483E0,2.8786533E0,7.2400045E-1,0E0,0E0,0E0,0E0,0E0,0E0,0E0,0E0,0E0,0E0,0E0,0E0,0E0,0E0,0E0,0E0,0E0,0E0,0E0,0E0,0E0,0E0,0E0,0E0,0E0,0E0,0E0,0E0,0E0,0E0,0E0,0E0,0E0,0E0,0E0,0E0,0E0,0E0,0E0,0E0,0E0,0E0,0E0,0E0,0E0,0E0,0E0,0E0,0E0,0E0,0E0,0E0,0E0,0E0,0E0,0E0],"parents":[2147483647,0,0,1,1,2,2,3,3,4,4,5,5,6,6,7,7,8,8,9,9,10,10,11,11,12,12,13,13,14,14,15,15,16,16,17,17,18,18,19,19,20,20,21,21,23,23,24,24,25,25,26,26,27,27,28,28,29,29,30,30,32,32,33,33,34,34,35,35,36,36,37,37,38,38,39,39,40,40,41,41,42,42,43,43,44,44,45,45,46,46,47,47,48,48,49,49,50,50,51,51,52,52,54,54,55,55,56,56,57,57,58,58,59,59,60,60],"right_children":[2,4,6,8,10,12,14,16,18,20,22,24,26,28,30,32,34,36,38,40,42,44,-1,46,48,50,52,54,56,58,60,-1,62,64,66,68,70,72,74,76,78,80,82,84,86,88,90,92,94,96,98,100,102,-1,104,106,108,110,112,114,116,-1,-1,-1,-1,-1,-1,-1,-1,-1,-1,-1,-1,-1,-1,-1,-1,-1,-1,-1,-1,-1,-1,-1,-1,-1,-1,-1,-1,-1,-1,-1,-1,-1,-1,-1,-1,-1,-1,-1,-1,-1,-1,-1,-1,-1,-1,-1,-1,-1,-1,-1,-1,-1,-1,-1,-1],"split_conditions":[2.9768117E-3,1.2977822E-18,4.4477835E-1,1.3059216E1,8.000873E-2,2.2093128E-2,-6.0705736E-2,3.5821682E-19,1.592292E1,-4.844055E-19,1.3021405E-1,9.777121E-2,-8.741289E-2,5.1118806E-3,1.1241732E-2,-1.1051766E-3,-1.2608558E-18,1.3968012E1,-2.4221921E-3,-7.7517904E-2,1.15156114E-1,1.3179807E-1,-2.7638301E-3,-9.765524E-2,6.812539E-4,-6.2840764E-4,1.3815837E1,2.2969444E-3,-8.292873E-2,-8.28009E-2,-4.1507337E-2,5.075091E-3,-3.9926976E-1,-9.922549E-3,5.9067585E-2,1.3100353E1,4.475373E-18,1.5317419E-2,1.5882232E1,-8.255973E-2,7.98598E0,5.64023E-7,-8.5525396E-20,4.5393365E-3,-2.0390458E-19,-5.7909198E-2,8.216302E-2,1.3833134E1,-4.8921627E-1,3.4004936E-4,3.4691896E-3,1.3909811E-1,5.9643686E-3,7.95728E-4,-2.9769496E-3,1.3893776E1,1.6861582E-2,2.398983E-2,-6.2840764E-4,9.995066E-4,2.264589E-2,3.8645626E-3,-7.111923E-5,-2.0862462E-3,9.980202E-5,-1.5895482E-2,-2.6802428E-3,2.7201E-2,2.3361377E-4,2.4369264E-4,4.50005E-3,1.3383328E-3,4.0745884E-3,7.7355504E-3,-1.3485554E-3,1.7178742E-3,1.5246127E-4,3.8229227E-3,-1.7024972E-2,5.3277565E-3,-1.0106876E-2,2.9186732E-3,-1.9798202E-3,1.9855376E-3,2.2591688E-3,9.6046926E-5,-4.8205626E-4,6.025468E-3,-8.285464E-4,-3.3333243E-4,2.5141637E-3,2.8949653E-4,2.7884804E-3,3.3441817E-3,-1.1063796E-3,2.7346313E-3,-9.081996E-3,3.950008E-3,-1.596453E-5,2.9496217E-4,5.299767E-3,2.9958845E-3,-7.5656665E-4,1.1554545E-3,-8.1587984E-4,2.4520754E-4,5.095245E-3,-1.4697018E-3,2.3603064E-3,-7.622365E-5,2.4364095E-3,-1.6419649E-3,2.5901438E-3,6.122053E-4,4.2852163E-4,2.811736E-3,-1.3404668E-3],"split_indices":[17,45,6,0,33,23,38,33,3,44,9,33,33,23,4,24,21,3,24,32,46,13,0,32,35,45,2,1,30,32,38,0,8,6,5,3,9,13,0,4,0,17,38,23,38,36,32,2,6,28,34,37,4,0,26,0,31,45,45,23,1,0,0,0,0,0,0,0,0,0,0,0,0,0,0,0,0,0,0,0,0,0,0,0,0,0,0,0,0,0,0,0,0,0,0,0,0,0,0,0,0,0,0,0,0,0,0,0,0,0,0,0,0,0,0,0,0],"split_type":[0,0,0,0,0,0,0,0,0,0,0,0,0,0,0,0,0,0,0,0,0,0,0,0,0,0,0,0,0,0,0,0,0,0,0,0,0,0,0,0,0,0,0,0,0,0,0,0,0,0,0,0,0,0,0,0,0,0,0,0,0,0,0,0,0,0,0,0,0,0,0,0,0,0,0,0,0,0,0,0,0,0,0,0,0,0,0,0,0,0,0,0,0,0,0,0,0,0,0,0,0,0,0,0,0,0,0,0,0,0,0,0,0,0,0,0,0],"sum_hessian":[1.9E4,1.4204E4,4.796E3,2.092E3,1.2112E4,3.47E3,1.326E3,1.29E3,8.02E2,1.1956E4,1.56E2,2.779E3,6.91E2,9.11E2,4.15E2,1.53E2,1.137E3,5.39E2,2.63E2,1.1233E4,7.23E2,1.22E2,3.4E1,2.631E3,1.48E2,1.31E2,5.6E2,5.27E2,3.84E2,2.67E2,1.48E2,6E0,1.47E2,8E0,1.129E3,3.51E2,1.88E2,7.6E1,1.87E2,8.8E1,1.1145E4,5.83E2,1.4E2,1.03E2,1.9E1,1.35E2,2.496E3,1E2,4.8E1,3.6E1,9.5E1,3.84E2,1.76E2,4E0,5.23E2,2.07E2,1.77E2,1.38E2,1.29E2,1.39E2,9E0,3.1E1,1.16E2,5E0,3E0,1.096E3,3.3E1,5E0,3.46E2,6.3E1,1.25E2,6.1E1,1.5E1,8E0,1.79E2,2E1,6.8E1,7E0,1.1138E4,3.7E1,5.46E2,1.1E2,3E1,7.3E1,3E1,2E0,1.7E1,9.1E1,4.4E1,2.18E3,3.16E2,2.2E1,7.8E1,1.1E1,3.7E1,3.3E1,3E0,7.4E1,2.1E1,3.64E2,2E1,9.6E1,8E1,2.6E2,2.63E2,5.9E1,1.48E2,1.19E2,5.8E1,4.5E1,9.3E1,9E0,1.2E2,5E0,1.34E2,8E0,1E0],"tree_param":{"num_deleted":"0","num_feature":"48","num_nodes":"117","size_leaf_vector":"1"}},{"base_weights":[-3.9208487E-2,-7.859207E-2,7.7423364E-2,-1.7773554E-2,-8.9094386E-2,4.724861E-2,1.5629236E-1,-6.971342E-2,6.57534E-2,-9.240434E-2,6.7063466E-2,2.125842E-2,1.5811834E-1,9.418857E-2,2.920673E-1,3.9903823E-2,-9.068268E-2,1.0388886E-1,-1.25000235E-2,7.272725E-2,-9.378615E-2,1.4476742E-1,-9.8765455E-3,-5.325728E-3,1.326568E-1,2.9617018E-1,8.141174E-2,6.2499763E-3,2.1454543E-1,1.5627904E-1,4.3514848E-1,4.3999997E-1,8.7628625E-3,1.5833332E-1,-9.338306E-2,2.5284067E-2,2.4973543E-1,-5.7812523E-2,1.0684929E-1,6.285714E-1,3.0107504E-2,4.1249996E-1,-9.412267E-2,-2.3809758E-3,1.9083968E-1,2.5853655E-1,-2.0418629E-2,3.1486858E-2,3.0549997E-1,1.5611109E-1,7.410714E-1,5.313281E-2,4.962963E-1,7.2E-2,-5.725429E-4,3.8505152E-1,4.114581E-2,1.0265955E-1,5.107143E-1,5.9300697E-1,5.1666643E-2,1.3333331E-2,7.714286E-2,4.0999997E-2,-1.2972996E-3,-8.57143E-3,4.1666668E-2,-9.608782E-3,1.9230746E-3,5.8333334E-2,1.5561936E-3,-4.6875235E-4,3.769841E-2,6E-2,-6.7894766E-3,5.75E-2,1.4516106E-3,-5.0000013E-3,7.5E-2,5.8333334E-2,-7.954569E-4,7.2E-2,-7.5000017E-3,-9.893056E-3,-5.7868045E-3,-4.4736867E-3,3.2E-2,2.9464284E-2,1.1184208E-2,4.8472222E-2,-5.9615406E-3,-3.67895E-3,1.0358564E-2,3.333333E-2,-6.159698E-3,1.0375938E-2,6.955882E-2,4.705882E-2,3.1538438E-3,8.3958335E-2,1.3333331E-2,-3.3879806E-3,1.2626725E-2,6E-2,-8.000002E-3,2.5806447E-2,-1.6801645E-3,5.15E-2,4.7272705E-3,-7.5000026E-3,2.4927534E-2,2.786885E-2,1.7968726E-3,8.25E-2,2.5882352E-2,1.1785712E-2,7.025862E-2,-7.884618E-3,8E-2],"categories":[],"categories_nodes":[],"categories_segments":[],"categories_sizes":[],"default_left":[0,0,0,0,0,0,0,0,0,0,0,0,0,0,0,0,0,0,0,0,0,0,0,0,0,0,0,0,0,0,0,0,0,0,0,0,0,0,0,0,0,0,0,0,0,0,0,0,0,0,0,0,0,0,0,0,0,0,0,0,0,0,0,0,0,0,0,0,0,0,0,0,0,0,0,0,0,0,0,0,0,0,0,0,0,0,0,0,0,0,0,0,0,0,0,0,0,0,0,0,0,0,0,0,0,0,0,0,0,0,0,0,0,0,0,0,0,0,0],"id":10,"left_children":[1,3,5,7,9,11,13,15,17,19,21,23,25,27,29,31,33,35,37,39,41,43,-1,45,47,49,51,53,55,57,59,61,63,65,67,69,71,73,75,77,79,81,83,85,87,89,91,93,95,97,99,101,103,-1,105,107,109,111,113,115,117,-1,-1,-1,-1,-1,-1,-1,-1,-1,-1,-1,-1,-1,-1,-1,-1,-1,-1,-1,-1,-1,-1,-1,-1,-1,-1,-1,-1,-1,-1,-1,-1,-1,-1,-1,-1,-1,-1,-1,-1,-1,-1,-1,-1,-1,-1,-1,-1,-1,-1,-1,-1,-1,-1,-1,-1,-1,-1],"loss_changes":[8.72849E1,9.071655E0,1.140877E1,9.08481E0,6.267105E0,9.998411E0,1.1161938E1,2.9711018E0,2.3976362E0,2.713501E0,3.2614598E0,8.331212E0,6.954361E0,9.6512785E0,8.014355E0,2.587695E0,7.437086E-1,6.184375E0,1.4338934E0,2.326379E0,2.0431366E0,1.1665206E0,0E0,9.053399E0,9.468083E0,1.4527739E1,4.9599395E0,2.5715466E0,1.1366949E1,4.0335665E0,1.2197609E1,1.4217141E0,1.6972381E0,7.9226196E-1,3.2867527E-1,1.9006729E0,6.120639E0,1.3141234E0,3.1471398E0,6.142857E-1,1.9629338E0,1.25325E0,2.0436172E0,5.8781457E-1,1.0412731E0,8.88015E0,4.3684344E0,9.657812E0,1.56671505E1,7.036703E0,3.2407475E0,2.543362E0,1.6616297E0,0E0,2.203798E0,8.491058E0,4.6599836E0,2.7977028E0,2.0031095E0,7.362709E0,5.9231024E0,0E0,0E0,0E0,0E0,0E0,0E0,0E0,0E0,0E0,0E0,0E0,0E0,0E0,0E0,0E0,0E0,0E0,0E0,0E0,0E0,0E0,0E0,0E0,0E0,0E0,0E0,0E0,0E0,0E0,0E0,0E0,0E0,0E0,0E0,0E0,0E0,0E0,0E0,0E0,0E0,0E0,0E0,0E0,0E0,0E0,0E0,0E0,0E0,0E0,0E0,0E0,0E0,0E0,0E0,0E0,0E0,0E0,0E0],"parents":[2147483647,0,0,1,1,2,2,3,3,4,4,5,5,6,6,7,7,8,8,9,9,10,10,11,11,12,12,13,13,14,14,15,15,16,16,17,17,18,18,19,19,20,20,21,21,23,23,24,24,25,25,26,26,27,27,28,28,29,29,30,30,31,31,32,32,33,33,34,34,35,35,36,36,37,37,38,38,39,39,40,40,41,41,42,42,43,43,44,44,45,45,46,46,47,47,48,48,49,49,50,50,51,51,52,52,54,54,55,55,56,56,57,57,58,58,59,59,60,60],"right_children":[2,4,6,8,10,12,14,16,18,20,22,24,26,28,30,32,34,36,38,40,42,44,-1,46,48,50,52,54,56,58,60,62,64,66,68,70,72,74,76,78,80,82,84,86,88,90,92,94,96,98,100,102,104,-1,106,108,110,112,114,116,118,-1,-1,-1,-1,-1,-1,-1,-1,-1,-1,-1,-1,-1,-1,-1,-1,-1,-1,-1,-1,-1,-1,-1,-1,-1,-1,-1,-1,-1,-1,-1,-1,-1,-1,-1,-1,-1,-1,-1,-1,-1,-1,-1,-1,-1,-1,-1,-1,-1,-1,-1,-1,-1,-1,-1,-1,-1,-1],"split_conditions":[2.9768117E-3,1.2977822E-18,4.4477835E-1,1.3059216E1,4.7445163E-1,2.237303E-2,-6.0705736E-2,-7.000962E-20,1.592292E1,-7.507151E-2,-1.0470346E-3,4.7386836E-2,-2.9208992E-2,5.1118806E-3,-8.28009E-2,-7.384075E-4,3.5821682E-19,1.3968012E1,1.7899586E1,5.3369167E-4,1.3619602E-19,-1.8073197E-18,-8.246167E-3,-9.765524E-2,1.3905162E1,1.3893776E1,3.3922845E-1,2.2969444E-3,-8.10667E-2,2.6669849E-2,2.7073948E-2,5.4287156E-3,-1.2391385E-3,3.6733244E-2,5.9067585E-2,1.3100353E1,4.475373E-18,-6.257489E-2,-2.6033597E-2,-5.6308385E-2,-1.04393065E-1,-9.031009E-21,2.8738445E-1,4.9274075E-3,-6.5037735E-2,-6.445286E-2,9.333619E-2,-7.490283E-2,8.4446564E-2,-8.741289E-2,2.702091E-2,1.2753372E-2,7.228935E-2,7.161558E-4,3.4340196E-3,3.7520703E-2,1.1873847E-2,3.5540238E-1,-7.0455363E-3,1.6298994E-3,-4.1507337E-2,4.5675817E-3,4.28142E-3,3.6918104E-3,-5.240466E-5,-9.4214855E-3,2.5242388E-3,-1.4544696E-2,1.6661382E-3,2.44809E-2,2.1025472E-4,2.1932626E-4,4.050047E-3,6.9619953E-3,-1.2068868E-3,5.481516E-3,1.2045024E-3,-1.9815385E-3,4.1095316E-3,1.5879512E-3,-3.8060145E-5,1.2559625E-2,-5.3520887E-3,-1.5407137E-2,-4.051238E-3,-1.0517117E-3,3.9851665E-4,2.042582E-3,2.4470289E-3,5.6412597E-3,-4.4199714E-4,-4.1864518E-4,6.668774E-4,3.1732381E-3,-8.4585976E-4,1.6225089E-3,6.6210143E-3,2.3700595E-3,5.8128807E-4,3.0633386E-3,2.0011186E-3,-5.7152816E-4,2.334267E-3,4.7090244E-3,-2.2149086E-4,1.9767813E-3,-1.3562E-4,4.5817676E-3,1.3489634E-3,-1.3243044E-3,2.2225927E-3,1.426522E-3,5.459308E-5,2.9292263E-3,1.1044637E-3,6.20898E-4,2.3404872E-3,-6.888926E-4,2.530563E-3],"split_indices":[17,45,6,0,22,23,38,45,3,32,27,42,4,23,32,27,33,3,3,35,11,32,0,32,0,0,40,1,33,1,4,1,28,1,5,3,9,10,8,4,4,10,15,23,4,36,33,30,30,33,23,11,1,0,17,5,31,8,4,31,38,0,0,0,0,0,0,0,0,0,0,0,0,0,0,0,0,0,0,0,0,0,0,0,0,0,0,0,0,0,0,0,0,0,0,0,0,0,0,0,0,0,0,0,0,0,0,0,0,0,0,0,0,0,0,0,0,0,0],"split_type":[0,0,0,0,0,0,0,0,0,0,0,0,0,0,0,0,0,0,0,0,0,0,0,0,0,0,0,0,0,0,0,0,0,0,0,0,0,0,0,0,0,0,0,0,0,0,0,0,0,0,0,0,0,0,0,0,0,0,0,0,0,0,0,0,0,0,0,0,0,0,0,0,0,0,0,0,0,0,0,0,0,0,0,0,0,0,0,0,0,0,0,0,0,0,0,0,0,0,0,0,0,0,0,0,0,0,0,0,0,0,0,0,0,0,0,0,0,0,0],"sum_hessian":[1.9E4,1.4204E4,4.796E3,2.092E3,1.2112E4,3.47E3,1.326E3,1.29E3,8.02E2,1.1861E4,2.51E2,2.812E3,6.58E2,9.11E2,4.15E2,2.07E2,1.083E3,5.39E2,2.63E2,9.8E1,1.1763E4,1.71E2,8E1,2.271E3,5.41E2,2.34E2,4.24E2,5.27E2,3.84E2,2.14E2,2.01E2,1.4E1,1.93E2,1.1E1,1.072E3,3.51E2,1.88E2,1.91E2,7.2E1,6E0,9.2E1,7E0,1.1756E4,4.1E1,1.3E2,1.22E2,2.149E3,3.42E2,1.99E2,1.79E2,5.5E1,3.98E2,2.6E1,4E0,5.23E2,1.93E2,1.91E2,1.87E2,2.7E1,1.42E2,5.9E1,8E0,6E0,9E0,1.84E2,6E0,5E0,1.047E3,2.5E1,5E0,3.46E2,6.3E1,1.25E2,2E0,1.89E2,1.1E1,6.1E1,1E0,5E0,5E0,8.7E1,4E0,3E0,1.0378E4,1.378E3,3.7E1,4E0,5.5E1,7.5E1,7.1E1,5.1E1,1.899E3,2.5E2,8E1,2.62E2,1.32E2,6.7E1,5E1,1.29E2,4.7E1,8E0,1.82E2,2.16E2,2.2E1,4E0,3E1,4.93E2,1.39E2,5.4E1,1.23E2,6.8E1,6E1,1.27E2,1.1E1,1.6E1,2.7E1,1.15E2,5.1E1,8E0],"tree_param":{"num_deleted":"0","num_feature":"48","num_nodes":"119","size_leaf_vector":"1"}},{"base_weights":[-4.115575E-2,-7.662093E-2,6.387323E-2,-1.4429073E-2,-8.736071E-2,2.1707863E-1,4.819662E-2,-7.073389E-2,5.1713374E-2,-9.190401E-2,2.0366576E-2,5.1296294E-1,1.7576528E-1,-1.701222E-2,8.758288E-2,9.609373E-2,-9.19323E-2,1.4153844E-1,2.8868636E-2,7.628863E-2,-9.331138E-2,-8.760002E-2,1.3181816E-1,5.829787E-1,3.749998E-2,-5.9322272E-3,2.530909E-1,5.1388863E-2,-6.1631445E-2,6.433359E-2,2.5592703E-1,-2.2826111E-2,3.8918915E-1,-1.2857166E-2,-9.775403E-2,1.705424E-2,3.7910447E-1,1.5859373E-1,2.9594777E-3,6.285714E-1,3.296701E-2,-9.4810806E-2,3.0215804E-2,-9.959517E-3,6.7499995E-2,-4.4736866E-2,1.6390242E-1,2.4444443E-1,6.461538E-1,4.4999998E-2,-8.57143E-3,-7.717393E-2,2.3703702E-1,2.2605361E-1,7.0666665E-1,4.1222546E-2,6.363636E-1,-6.9096535E-2,3.0499998E-1,4.6025082E-2,2.3093218E-1,4.158163E-1,2.0149231E-2,-9.761907E-3,3.921566E-3,3.999998E-3,6E-2,-8.307694E-3,7.5E-2,4.999998E-3,-9.989156E-3,-4.132234E-3,8E-2,5.244444E-2,7.826085E-3,3.044776E-2,-1.6129267E-4,-1.25198E-4,6.7499995E-2,-5.0000013E-3,7.5E-2,5.8333334E-2,-5.8139773E-4,4.1249998E-2,-9.515905E-3,-5.526318E-3,4.0384617E-2,3.2E-2,-9.705885E-3,7.7876085E-3,2.6666665E-2,5.714284E-3,6E-2,2.4999999E-2,6.970588E-2,-8.750002E-3,1.1999998E-2,1.0499998E-2,5.3749997E-2,4.5535713E-2,1.6262135E-2,7.642857E-2,-5.0000013E-3,1.7615635E-3,2.12987E-2,8E-2,-6.6666687E-3,2.2580644E-2,-7.870765E-3,6.888889E-2,-8.333355E-4,-7.326916E-4,1.1879119E-2,1.2686544E-3,5.1262137E-2,2.5629628E-2,7.564516E-2,-3.3057877E-3,4.7857143E-2],"categories":[],"categories_nodes":[],"categories_segments":[],"categories_sizes":[],"default_left":[0,0,0,0,0,0,0,0,0,0,0,0,0,0,0,0,0,0,0,0,0,0,0,0,0,0,0,0,0,0,0,0,0,0,0,0,0,0,0,0,0,0,0,0,0,0,0,0,0,0,0,0,0,0,0,0,0,0,0,0,0,0,0,0,0,0,0,0,0,0,0,0,0,0,0,0,0,0,0,0,0,0,0,0,0,0,0,0,0,0,0,0,0,0,0,0,0,0,0,0,0,0,0,0,0,0,0,0,0,0,0,0,0,0,0,0,0,0,0],"id":11,"left_children":[1,3,5,7,9,11,13,15,17,19,21,23,25,27,29,31,33,35,37,39,41,43,45,47,49,51,53,55,57,59,61,63,65,67,69,71,73,75,77,79,81,83,85,-1,-1,87,89,91,93,-1,-1,95,97,99,101,103,105,107,109,111,113,115,117,-1,-1,-1,-1,-1,-1,-1,-1,-1,-1,-1,-1,-1,-1,-1,-1,-1,-1,-1,-1,-1,-1,-1,-1,-1,-1,-1,-1,-1,-1,-1,-1,-1,-1,-1,-1,-1,-1,-1,-1,-1,-1,-1,-1,-1,-1,-1,-1,-1,-1,-1,-1,-1,-1,-1,-1],"loss_changes":[7.078118E1,9.486649E0,1.1510689E1,7.798279E0,5.9304276E0,5.3495045E0,1.118144E1,4.008592E0,1.9720187E0,2.7584E0,5.919774E0,1.7757931E0,5.5090504E0,5.0084524E0,1.060581E1,4.470306E0,4.6094036E-1,5.7603116E0,2.5841918E0,2.3000793E0,2.137886E0,2.3541005E0,1.3781748E0,8.4723854E-1,4.4517857E-1,2.0608194E0,3.2127037E0,3.8274488E0,2.738852E0,7.2670803E0,1.2394375E1,4.3073466E-1,2.6996765E0,3.812044E0,3.0029392E-1,5.929092E0,2.888505E0,2.9920514E0,1.8178785E0,6.142857E-1,1.9456726E0,2.0513153E0,4.461636E0,0E0,0E0,7.562415E-1,1.7915211E0,5.6507933E-1,6.1221504E-1,0E0,0E0,1.9781518E-1,1.014713E0,3.7222576E0,6.921902E-1,2.5832286E0,1.318788E0,2.7784271E0,2.4114447E0,8.351519E0,1.4502171E1,1.0456402E1,3.284257E0,0E0,0E0,0E0,0E0,0E0,0E0,0E0,0E0,0E0,0E0,0E0,0E0,0E0,0E0,0E0,0E0,0E0,0E0,0E0,0E0,0E0,0E0,0E0,0E0,0E0,0E0,0E0,0E0,0E0,0E0,0E0,0E0,0E0,0E0,0E0,0E0,0E0,0E0,0E0,0E0,0E0,0E0,0E0,0E0,0E0,0E0,0E0,0E0,0E0,0E0,0E0,0E0,0E0,0E0,0E0,0E0],"parents":[2147483647,0,0,1,1,2,2,3,3,4,4,5,5,6,6,7,7,8,8,9,9,10,10,11,11,12,12,13,13,14,14,15,15,16,16,17,17,18,18,19,19,20,20,21,21,22,22,23,23,24,24,25,25,26,26,27,27,28,28,29,29,30,30,31,31,32,32,33,33,34,34,35,35,36,36,37,37,38,38,39,39,40,40,41,41,42,42,45,45,46,46,47,47,48,48,51,51,52,52,53,53,54,54,55,55,56,56,57,57,58,58,59,59,60,60,61,61,62,62],"right_children":[2,4,6,8,10,12,14,16,18,20,22,24,26,28,30,32,34,36,38,40,42,44,46,48,50,52,54,56,58,60,62,64,66,68,70,72,74,76,78,80,82,84,86,-1,-1,88,90,92,94,-1,-1,96,98,100,102,104,106,108,110,112,114,116,118,-1,-1,-1,-1,-1,-1,-1,-1,-1,-1,-1,-1,-1,-1,-1,-1,-1,-1,-1,-1,-1,-1,-1,-1,-1,-1,-1,-1,-1,-1,-1,-1,-1,-1,-1,-1,-1,-1,-1,-1,-1,-1,-1,-1,-1,-1,-1,-1,-1,-1,-1,-1,-1,-1,-1,-1],"split_conditions":[2.9768117E-3,1.2977822E-18,-8.741289E-2,1.0470365E1,3.511893E-2,4.749952E-3,1.3916043E1,9.96892E0,-5.6019682E-2,-7.507151E-2,1.3845801E1,4.3189217E-4,9.5629366E-5,-6.4798E-1,1.700591E-4,9.840918E0,9.968953E0,1.3966718E1,-1.9092046E-3,5.3369167E-4,4.3144342E-1,1.8099529E-1,-2.6611982E-18,3.264334E-4,9.305667E-3,1.5836342E1,-8.679518E-2,1.9022901E-1,9.4534166E-2,8.355111E-2,5.9643686E-3,1.1071486E0,-5.6239887E-4,1.2650922E-18,7.2867384E-19,9.220809E-1,-6.218855E-2,1.7891098E1,-8.6958695E-4,-5.6308385E-2,-1.04393065E-1,7.98598E0,4.5624867E-2,-8.369924E-3,2.6815028E-3,-1.10327676E-1,5.5890623E-2,6.666386E-3,6.4177235E-5,3.6479593E-3,-1.6054988E-3,5.597115E-3,4.218259E-3,-6.088703E-1,5.2502453E-2,-2.7907386E-1,7.455017E-2,6.5549335E-5,4.137202E-3,4.7015384E-1,1.9012868E-2,-2.4451007E-4,6.791868E-1,-4.3234257E-3,1.4000761E-3,2.4576188E-4,4.1437717E-3,-7.163585E-4,5.0319494E-3,1.7863031E-3,-1.50672095E-2,-5.8789673E-4,4.1108252E-3,5.590677E-3,1.7421773E-3,3.6286495E-3,8.1843045E-4,-5.4526365E-5,5.1137656E-3,-1.783383E-3,3.6985755E-3,1.4291585E-3,-1.5734624E-5,3.8457513E-3,-1.38999075E-2,-7.05814E-4,2.5268968E-3,3.5866498E-4,-4.236794E-3,1.1252755E-3,2.9753025E-3,4.8183384E-3,5.514038E-3,1.4749467E-3,5.3375615E-3,-4.009474E-4,7.806421E-5,1.050901E-3,7.497907E-4,3.64573E-3,2.5513514E-3,1.1533619E-3,-9.000319E-3,5.430861E-4,3.575723E-3,4.0254355E-3,-1.5767992E-3,2.7040977E-3,-1.0630621E-3,1.8924177E-3,2.3826466E-4,-3.8486756E-5,1.1358259E-3,2.7606471E-5,5.50599E-3,2.2496907E-3,3.046633E-3,-3.912611E-4,2.2707153E-3],"split_indices":[17,45,33,3,42,17,3,3,8,32,2,28,25,20,29,0,3,3,27,35,4,1,32,31,1,2,12,4,30,30,4,15,27,9,9,14,8,0,24,4,4,0,33,0,0,6,9,43,25,0,0,4,4,38,1,8,1,37,11,6,37,28,8,0,0,0,0,0,0,0,0,0,0,0,0,0,0,0,0,0,0,0,0,0,0,0,0,0,0,0,0,0,0,0,0,0,0,0,0,0,0,0,0,0,0,0,0,0,0,0,0,0,0,0,0,0,0,0,0],"split_type":[0,0,0,0,0,0,0,0,0,0,0,0,0,0,0,0,0,0,0,0,0,0,0,0,0,0,0,0,0,0,0,0,0,0,0,0,0,0,0,0,0,0,0,0,0,0,0,0,0,0,0,0,0,0,0,0,0,0,0,0,0,0,0,0,0,0,0,0,0,0,0,0,0,0,0,0,0,0,0,0,0,0,0,0,0,0,0,0,0,0,0,0,0,0,0,0,0,0,0,0,0,0,0,0,0,0,0,0,0,0,0,0,0,0,0,0,0,0,0],"sum_hessian":[1.9E4,1.4204E4,4.796E3,2.092E3,1.2112E4,4.44E2,4.352E3,1.13E3,9.62E2,1.1622E4,4.9E2,5.3E1,3.91E2,1.639E3,2.713E3,1.27E2,1.003E3,1.94E2,7.68E2,9.6E1,1.1526E4,2.49E2,2.41E2,4.6E1,7E0,1.17E2,2.74E2,6.47E2,9.92E2,2.385E3,3.28E2,9.1E1,3.6E1,6.9E1,9.34E2,1.28E2,6.6E1,1.27E2,6.41E2,6E0,9E1,1.1388E4,1.38E2,2.46E2,3E0,3.7E1,2.04E2,8E0,3.8E1,1E0,6E0,9.1E1,2.6E1,2.6E2,1.4E1,6.37E2,1E1,9.73E2,1.9E1,2.15E3,2.35E2,1.95E2,1.33E2,4.1E1,5E1,1.4E1,2.2E1,6.4E1,5E0,1.3E1,9.21E2,1.2E2,8E0,4.4E1,2.2E1,6.6E1,6.1E1,6.38E2,3E0,1E0,5E0,5E0,8.5E1,7E0,1.1381E4,1.13E2,2.5E1,4E0,3.3E1,1.12E2,9.2E1,6E0,2E0,5E0,3.3E1,8.7E1,4E0,1.9E1,7E0,5.5E1,2.05E2,1.3E1,1E0,5.61E2,7.6E1,8E0,2E0,3E1,9.43E2,8E0,1.1E1,1.241E3,9.09E2,1.33E2,1.02E2,1.34E2,6.1E1,1.2E2,1.3E1],"tree_param":{"num_deleted":"0","num_feature":"48","num_nodes":"119","size_leaf_vector":"1"}},{"base_weights":[-4.431348E-2,-7.721584E-2,5.130522E-2,-2.3366531E-2,-8.773149E-2,1.9011234E-1,3.732185E-2,-7.6147564E-2,3.5622686E-2,-9.6635446E-2,-3.437687E-2,4.759259E-1,1.5025508E-1,-2.3382813E-2,7.468028E-2,1.7826064E-2,-9.788095E-2,4.929433E-2,-9.900993E-3,7.407405E-2,-9.800102E-2,-9.581627E-2,1.233684E-1,5.404255E-1,3.749998E-2,2.7210647E-3,2.3780486E-1,7.987614E-2,-4.783568E-2,5.3441104E-2,2.3159507E-1,6.1673773E-3,6.7499995E-2,4.999998E-2,-9.989778E-3,3.111111E-1,4.192544E-2,5.833333E-1,3.2894712E-2,-9.849289E-2,3.7837815E-2,1.7333332E-1,-9.9087164E-2,-9.1269866E-2,2.0028569E-1,6.6206896E-1,3.2631576E-1,4.4999998E-2,-8.57143E-3,-4.741382E-2,1.8437497E-1,-9.615387E-3,2.7601808E-1,-1.659391E-2,3.1157893E-1,1.5593217E-1,-5.701152E-2,3.6683626E-2,1.9566926E-1,3.725888E-1,1.6153822E-2,-1.7778015E-4,6E-2,6E-2,-9.166669E-3,6.928571E-2,-9.285717E-3,1.5078123E-2,2.5268153E-3,7.2E-2,-5.0000013E-3,4.6666663E-2,-2.5000023E-3,-4.561406E-3,-9.8785525E-3,-6.666669E-3,7.2E-2,7.2E-2,-9.090912E-3,-9.99169E-3,2.6666665E-2,-9.920003E-3,4.4999998E-2,9.648239E-3,3.348684E-2,3.5555553E-2,7.619047E-2,5.3749997E-2,1.5833331E-2,-6.306309E-3,2.4999999E-2,-9.000002E-3,2.9565215E-2,3.348571E-2,5.1063807E-3,1.7291665E-2,-6.648354E-3,2.506024E-2,6.76923E-2,-9.230772E-3,2.2127656E-2,-5.9216614E-3,6.7499995E-2,2.6446281E-2,2.314858E-3,4.5810034E-3,5.4605264E-2,2.2446042E-2,7.152542E-2,-3.931626E-3,4.7857143E-2],"categories":[],"categories_nodes":[],"categories_segments":[],"categories_sizes":[],"default_left":[0,0,0,0,0,0,0,0,0,0,0,0,0,0,0,0,0,0,0,0,0,0,0,0,0,0,0,0,0,0,0,0,0,0,0,0,0,0,0,0,0,0,0,0,0,0,0,0,0,0,0,0,0,0,0,0,0,0,0,0,0,0,0,0,0,0,0,0,0,0,0,0,0,0,0,0,0,0,0,0,0,0,0,0,0,0,0,0,0,0,0,0,0,0,0,0,0,0,0,0,0,0,0,0,0,0,0,0,0,0,0],"id":12,"left_children":[1,3,5,7,9,11,13,15,17,19,21,23,25,27,29,31,33,35,-1,37,39,41,43,45,47,49,51,53,55,57,59,61,-1,63,-1,65,67,69,71,73,75,77,79,81,83,85,87,-1,-1,89,91,-1,93,95,97,99,101,103,105,107,109,-1,-1,-1,-1,-1,-1,-1,-1,-1,-1,-1,-1,-1,-1,-1,-1,-1,-1,-1,-1,-1,-1,-1,-1,-1,-1,-1,-1,-1,-1,-1,-1,-1,-1,-1,-1,-1,-1,-1,-1,-1,-1,-1,-1,-1,-1,-1,-1,-1,-1],"loss_changes":[5.9782642E1,8.003181E0,9.435827E0,7.198038E0,5.615288E0,4.997816E0,1.0027827E1,2.4934316E0,2.0148697E0,2.369896E0,1.6419996E1,1.5067625E0,5.062647E0,4.258408E0,9.109337E0,1.7580475E0,3.0056E-1,1.900821E0,0E0,1.6794591E0,6.7554474E-1,1.090333E0,7.8602414E0,1.0080729E0,4.4517857E-1,1.3475E0,3.165904E0,7.224989E0,2.5573466E0,5.741547E0,9.896511E0,1.0720767E0,0E0,1.1458334E0,0E0,4.228095E0,1.747782E0,5.553334E-1,1.920263E0,1.5054321E-1,2.6856937E0,2.2322426E0,3.9233685E-1,5.854769E-1,4.857236E0,6.1652946E-1,5.8892536E-1,0E0,0E0,5.556656E-1,1.0036225E0,0E0,2.9080772E0,2.1766021E0,1.9467163E0,9.7746956E-1,2.1464438E0,6.650079E0,1.3312064E1,9.838875E0,3.3533604E0,0E0,0E0,0E0,0E0,0E0,0E0,0E0,0E0,0E0,0E0,0E0,0E0,0E0,0E0,0E0,0E0,0E0,0E0,0E0,0E0,0E0,0E0,0E0,0E0,0E0,0E0,0E0,0E0,0E0,0E0,0E0,0E0,0E0,0E0,0E0,0E0,0E0,0E0,0E0,0E0,0E0,0E0,0E0,0E0,0E0,0E0,0E0,0E0,0E0,0E0],"parents":[2147483647,0,0,1,1,2,2,3,3,4,4,5,5,6,6,7,7,8,8,9,9,10,10,11,11,12,12,13,13,14,14,15,15,16,16,17,17,19,19,20,20,21,21,22,22,23,23,24,24,25,25,26,26,27,27,28,28,29,29,30,30,31,31,33,33,35,35,36,36,37,37,38,38,39,39,40,40,41,41,42,42,43,43,44,44,45,45,46,46,49,49,50,50,52,52,53,53,54,54,55,55,56,56,57,57,58,58,59,59,60,60],"right_children":[2,4,6,8,10,12,14,16,18,20,22,24,26,28,30,32,34,36,-1,38,40,42,44,46,48,50,52,54,56,58,60,62,-1,64,-1,66,68,70,72,74,76,78,80,82,84,86,88,-1,-1,90,92,-1,94,96,98,100,102,104,106,108,110,-1,-1,-1,-1,-1,-1,-1,-1,-1,-1,-1,-1,-1,-1,-1,-1,-1,-1,-1,-1,-1,-1,-1,-1,-1,-1,-1,-1,-1,-1,-1,-1,-1,-1,-1,-1,-1,-1,-1,-1,-1,-1,-1,-1,-1,-1,-1,-1,-1,-1],"split_conditions":[2.858935E-3,2.5649905E-18,-8.741289E-2,1.0470365E1,2.5030002E-1,4.749952E-3,1.3916043E1,9.968953E0,4.6412034E-19,-7.6597504E-2,1.3358182E1,4.3189217E-4,1.7218396E-2,-8.8123254E-2,4.3141533E-2,1.2574409E-3,7.2867384E-19,-1.3670051E-1,-1.071493E-2,-1.04393065E-1,2.0096694E-1,8.831266E0,-2.6611982E-18,-4.8235008E-1,9.305667E-3,1.5836342E1,9.5629366E-5,7.900535E-1,1.3745806E-4,7.066325E-2,5.9643686E-3,2.8197763E-2,4.528755E-3,9.960051E0,-1.3542867E-2,-1.5930866E-3,-1.9092046E-3,3.8742688E-2,2.1784431E-3,8.659983E-19,9.5993765E-2,-8.612173E-2,1.478522E-1,3.535947E-1,-5.48224E-2,-7.426048E-2,-5.8323167E-2,3.283161E-3,-1.4449478E-3,3.032326E-4,3.1686053E-5,-3.66863E-4,4.3202434E-3,9.876226E0,1.1705584E1,1.4991365E-2,9.8858334E-2,-8.204805E-2,8.4446564E-2,-2.357902E-4,6.791868E-1,4.8272072E-6,4.0124357E-3,2.1437705E-3,-7.000013E-3,3.699744E-3,-1.4126076E-3,3.1942606E-3,4.783757E-4,1.2862444E-3,-2.2969306E-3,4.3988763E-3,-1.1974945E-4,-4.1740662E-3,-1.2649627E-2,-1.6070675E-4,2.4133534E-3,3.4611763E-3,-1.438803E-4,-1.8781086E-2,1.9983978E-3,-2.4337368E-3,3.228009E-4,1.4066852E-3,4.073348E-3,3.0086755E-3,4.7917343E-3,4.962635E-3,3.7346953E-3,-2.8429227E-4,1.4693498E-3,-2.155066E-4,8.6451275E-4,3.2811582E-3,6.790042E-4,1.8830321E-3,-5.416001E-4,2.6429475E-3,4.543972E-3,-3.0902643E-3,2.3177925E-3,-6.918527E-4,9.608627E-4,3.2051892E-3,1.7755908E-4,7.6909974E-4,5.41324E-3,1.9978373E-3,3.3632738E-3,-3.7408422E-4,2.0436456E-3],"split_indices":[17,45,33,3,15,17,3,3,39,32,0,28,5,32,5,25,9,8,0,4,1,0,32,20,1,2,25,15,37,40,4,31,0,0,0,26,27,1,5,31,19,46,13,7,8,4,10,0,0,25,29,0,47,3,2,1,33,33,30,28,8,0,0,0,0,0,0,0,0,0,0,0,0,0,0,0,0,0,0,0,0,0,0,0,0,0,0,0,0,0,0,0,0,0,0,0,0,0,0,0,0,0,0,0,0,0,0,0,0,0,0],"split_type":[0,0,0,0,0,0,0,0,0,0,0,0,0,0,0,0,0,0,0,0,0,0,0,0,0,0,0,0,0,0,0,0,0,0,0,0,0,0,0,0,0,0,0,0,0,0,0,0,0,0,0,0,0,0,0,0,0,0,0,0,0,0,0,0,0,0,0,0,0,0,0,0,0,0,0,0,0,0,0,0,0,0,0,0,0,0,0,0,0,0,0,0,0,0,0,0,0,0,0,0,0,0,0,0,0,0,0,0,0,0,0],"sum_hessian":[1.9E4,1.4136E4,4.864E3,2.31E3,1.1826E4,4.44E2,4.42E3,1.219E3,1.091E3,1.0134E4,1.692E3,5.3E1,3.91E2,1.684E3,2.736E3,2.29E2,9.9E2,9.91E2,1E2,8E1,1.0054E4,1.218E3,4.74E2,4.6E1,7E0,1.46E2,2.45E2,3.22E2,1.362E3,2.411E3,3.25E2,2.26E2,3E0,1.3E1,9.77E2,2.6E1,9.65E2,5E0,7.5E1,1.0018E4,3.6E1,1.4E1,1.204E3,1.25E2,3.49E2,2.8E1,1.8E1,1E0,6E0,1.15E2,3.1E1,2.5E1,2.2E2,2.28E2,9.4E1,5.8E1,1.304E3,2.158E3,2.53E2,1.96E2,1.29E2,2.24E2,2E0,2E0,1.1E1,1.3E1,1.3E1,1.27E2,8.38E2,4E0,1E0,8E0,6.7E1,5.6E1,9.962E3,3.2E1,4E0,4E0,1E1,1.202E3,2E0,1.24E2,1E0,1.98E2,1.51E2,8E0,2E1,7E0,1.1E1,1.1E2,5E0,9E0,2.2E1,1.74E2,4.6E1,4.7E1,1.81E2,8.2E1,1.2E1,1.2E1,4.6E1,1.301E3,3E0,1.2E2,2.038E3,1.78E2,7.5E1,1.38E2,5.8E1,1.16E2,1.3E1],"tree_param":{"num_deleted":"0","num_feature":"48","num_nodes":"111","size_leaf_vector":"1"}},{"base_weights":[-4.610286E-2,-7.700363E-2,4.369987E-2,-2.5962811E-2,-8.6970516E-2,7.8311056E-2,-2.1002626E-3,-7.6147564E-2,3.0128181E-2,-9.193089E-2,-3.1722293E-3,3.0151952E-2,1.485359E-1,-5.05695E-2,7.9845935E-2,1.7826064E-2,-9.788095E-2,2.2264148E-1,2.0288438E-2,9.358972E-2,-9.322754E-2,1.5440412E-1,-6.787237E-2,3.1294116E-1,1.4734121E-2,2.1791409E-1,-3.2587882E-2,2.4827585E-1,-5.7253707E-2,4.2619047E-1,6.0027078E-2,6.1673773E-3,6.7499995E-2,4.999998E-2,-9.989778E-3,4.842105E-1,7.428569E-2,1.4274192E-1,3.7077188E-3,4.5454544E-1,3.3823505E-2,-9.565019E-2,7.251885E-3,8.466256E-2,5.16129E-1,-9.444447E-2,4.086019E-2,-8.888912E-3,6.5853655E-1,8.3303384E-2,-2.3283606E-2,1.18844196E-1,3.1172246E-1,-6.0777407E-2,2.2580643E-1,-8.000002E-3,3.04E-1,1.0117645E-1,-6.8381764E-2,2.352939E-2,6.730769E-1,2.2109373E-1,2.6186556E-2,-1.7778015E-4,6E-2,6E-2,-9.166669E-3,-8.57143E-3,7.538461E-2,1.6521737E-2,-9.230772E-3,1.6666432E-4,2.707692E-2,-4.1666906E-4,2.3666665E-2,6.625E-2,-7.5000017E-3,5.8333334E-2,-1.9047642E-3,-9.681638E-3,1.1016926E-3,-8.846156E-3,2.2222219E-2,1.3852457E-2,-7.380955E-3,6.074074E-2,-8.000002E-3,1.6249998E-2,-9.973048E-3,1.4693876E-2,-7.555558E-3,-7.0270295E-3,2.4444444E-2,-8.333336E-3,7.638889E-2,3.0985891E-3,5.0819673E-2,-4.5805764E-3,1.8099999E-2,1.8749976E-3,4.3789472E-2,4.545045E-2,1.4923856E-2,6E-2,-6.761568E-3,6.363636E-2,-2.2706532E-9,2.2272727E-2,6.7499995E-2,6.1176468E-2,-2.608698E-3,-7.237064E-3,5.3749997E-2,2.4999999E-2,-9.166669E-3,7.375E-2,-6.6666687E-3,1.5779814E-2,5.5499997E-2,1.8976874E-3,7.5E-2],"categories":[],"categories_nodes":[],"categories_segments":[],"categories_sizes":[],"default_left":[0,0,0,0,0,0,0,0,0,0,0,0,0,0,0,0,0,0,0,0,0,0,0,0,0,0,0,0,0,0,0,0,0,0,0,0,0,0,0,0,0,0,0,0,0,0,0,0,0,0,0,0,0,0,0,0,0,0,0,0,0,0,0,0,0,0,0,0,0,0,0,0,0,0,0,0,0,0,0,0,0,0,0,0,0,0,0,0,0,0,0,0,0,0,0,0,0,0,0,0,0,0,0,0,0,0,0,0,0,0,0,0,0,0,0,0,0,0,0,0,0],"id":13,"left_children":[1,3,5,7,9,11,13,15,17,19,21,23,25,27,29,31,33,35,37,39,41,43,45,47,49,51,53,55,57,59,61,63,-1,65,-1,67,69,71,73,75,77,79,81,83,85,87,89,91,93,95,97,99,101,103,105,-1,107,109,111,113,115,117,119,-1,-1,-1,-1,-1,-1,-1,-1,-1,-1,-1,-1,-1,-1,-1,-1,-1,-1,-1,-1,-1,-1,-1,-1,-1,-1,-1,-1,-1,-1,-1,-1,-1,-1,-1,-1,-1,-1,-1,-1,-1,-1,-1,-1,-1,-1,-1,-1,-1,-1,-1,-1,-1,-1,-1,-1,-1,-1],"loss_changes":[5.273064E1,7.1894836E0,7.7121468E0,6.507557E0,4.91584E0,9.366949E0,8.325105E0,2.4934316E0,2.0640385E0,2.6947937E0,6.7597094E0,7.1675825E0,1.4169027E1,2.6449807E0,5.3215923E0,1.7580475E0,3.0056E-1,2.0207098E0,2.111052E0,1.6673163E0,2.7000427E0,4.825165E0,1.3618078E0,9.459808E0,4.0712285E0,7.5372276E0,2.2936199E0,5.5481374E-1,2.2794514E0,4.1594477E0,4.016738E0,1.0720767E0,0E0,1.1458334E0,0E0,2.9843845E0,5.454525E-1,2.2391732E0,1.6831436E0,1.2610228E0,1.9867296E0,1.3479996E0,5.410452E0,1.4015313E0,1.7354164E0,5.2961016E-1,1.1595793E0,7.169249E-1,3.2681217E0,1.2366003E1,4.632202E0,1.2701964E1,9.629673E0,1.3193265E0,2.8739002E0,0E0,6.0346365E-1,5.5391917E0,2.9511275E0,4.664216E-1,1.2882376E0,2.6176753E0,3.1742492E0,0E0,0E0,0E0,0E0,0E0,0E0,0E0,0E0,0E0,0E0,0E0,0E0,0E0,0E0,0E0,0E0,0E0,0E0,0E0,0E0,0E0,0E0,0E0,0E0,0E0,0E0,0E0,0E0,0E0,0E0,0E0,0E0,0E0,0E0,0E0,0E0,0E0,0E0,0E0,0E0,0E0,0E0,0E0,0E0,0E0,0E0,0E0,0E0,0E0,0E0,0E0,0E0,0E0,0E0,0E0,0E0,0E0,0E0],"parents":[2147483647,0,0,1,1,2,2,3,3,4,4,5,5,6,6,7,7,8,8,9,9,10,10,11,11,12,12,13,13,14,14,15,15,16,16,17,17,18,18,19,19,20,20,21,21,22,22,23,23,24,24,25,25,26,26,27,27,28,28,29,29,30,30,31,31,33,33,35,35,36,36,37,37,38,38,39,39,40,40,41,41,42,42,43,43,44,44,45,45,46,46,47,47,48,48,49,49,50,50,51,51,52,52,53,53,54,54,56,56,57,57,58,58,59,59,60,60,61,61,62,62],"right_children":[2,4,6,8,10,12,14,16,18,20,22,24,26,28,30,32,34,36,38,40,42,44,46,48,50,52,54,56,58,60,62,64,-1,66,-1,68,70,72,74,76,78,80,82,84,86,88,90,92,94,96,98,100,102,104,106,-1,108,110,112,114,116,118,120,-1,-1,-1,-1,-1,-1,-1,-1,-1,-1,-1,-1,-1,-1,-1,-1,-1,-1,-1,-1,-1,-1,-1,-1,-1,-1,-1,-1,-1,-1,-1,-1,-1,-1,-1,-1,-1,-1,-1,-1,-1,-1,-1,-1,-1,-1,-1,-1,-1,-1,-1,-1,-1,-1,-1,-1,-1,-1],"split_conditions":[2.858935E-3,2.5649905E-18,-2.4406295E-3,1.0470365E1,4.5624867E-2,5.1118806E-3,5.451825E-3,9.968953E0,1.762531E-18,-7.296193E-2,-1.7648604E-3,-2.8424622E-3,7.874698E-3,6.5549335E-5,-3.8113854E0,1.2574409E-3,7.2867384E-19,-2.6033597E-2,-1.9092046E-3,2.1784431E-3,1.305848E-1,-6.4561285E-2,3.743265E-1,4.7470674E-2,-1.9371073E0,1.8307437E-1,1.983231E1,1.1789199E-5,-8.593367E-2,8.292164E-5,-3.931337E-4,2.8197763E-2,4.0758788E-3,9.960051E0,-1.218858E-2,-7.193798E-2,-1.7098419E-18,-2.2087013E-3,5.9201324E-4,2.4122044E-2,-1.04393065E-1,4.3144342E-1,-8.3259406E-20,2.0081021E-1,-8.462629E-3,8.831266E0,-1.5749701E-3,1.1241732E-2,4.8327463E-5,-7.1696445E-2,9.6809775E-2,4.3141533E-2,-1.8541222E-3,5.233113E-3,-2.7588556E0,-2.7508915E-3,1.836103E-2,5.488997E-3,-4.0979247E-4,-9.5145635E-2,3.4874827E-2,3.4886523E-4,1.5349577E-4,4.3444097E-6,3.611189E-3,1.9293905E-3,-6.30001E-3,-1.1876917E-2,3.3297718E-3,1.452322E-3,-4.5845224E-4,7.012049E-4,2.9791354E-3,-2.4001654E-5,4.8515536E-3,3.9589885E-3,-1.1931062E-3,1.1576175E-3,-6.492807E-5,-1.142194E-2,1.1108035E-4,-1.4208539E-2,3.5275288E-3,1.495262E-3,-4.719048E-3,2.4930025E-3,-1.1241436E-4,2.5624663E-3,-1.4834466E-2,1.5717557E-3,-5.018504E-4,-1.6618792E-4,2.7629136E-4,-1.5994311E-4,6.4160343E-4,1.21823505E-4,1.9813753E-3,-3.4109852E-4,1.3888715E-3,2.1093099E-4,3.1651787E-3,3.6847615E-3,1.4279705E-3,7.4488524E-4,-6.914002E-4,1.8443716E-3,2.0877263E-4,2.6917313E-3,1.5413463E-3,5.86403E-3,-3.7096962E-4,-8.362305E-4,4.9685123E-3,2.2578777E-3,-1.8730987E-3,4.8914906E-3,-3.68166E-4,1.1967596E-3,4.025865E-3,3.5984706E-4,3.962821E-3],"split_indices":[17,45,26,3,33,23,17,3,21,34,24,27,4,37,14,25,9,8,27,5,46,8,15,39,15,13,0,37,34,29,24,31,0,0,0,6,10,27,35,1,4,4,44,45,10,0,26,4,25,30,33,5,27,23,12,0,10,11,26,32,5,28,29,0,0,0,0,0,0,0,0,0,0,0,0,0,0,0,0,0,0,0,0,0,0,0,0,0,0,0,0,0,0,0,0,0,0,0,0,0,0,0,0,0,0,0,0,0,0,0,0,0,0,0,0,0,0,0,0,0,0],"split_type":[0,0,0,0,0,0,0,0,0,0,0,0,0,0,0,0,0,0,0,0,0,0,0,0,0,0,0,0,0,0,0,0,0,0,0,0,0,0,0,0,0,0,0,0,0,0,0,0,0,0,0,0,0,0,0,0,0,0,0,0,0,0,0,0,0,0,0,0,0,0,0,0,0,0,0,0,0,0,0,0,0,0,0,0,0,0,0,0,0,0,0,0,0,0,0,0,0,0,0,0,0,0,0,0,0,0,0,0,0,0,0,0,0,0,0,0,0,0,0,0,0],"sum_hessian":[1.9E4,1.4136E4,4.864E3,2.31E3,1.1826E4,2.77E3,2.094E3,1.219E3,1.091E3,1.1165E4,6.61E2,1.644E3,1.126E3,1.316E3,7.78E2,2.29E2,9.9E2,5.2E1,1.039E3,7.7E1,1.1088E4,1.92E2,4.69E2,8.4E1,1.56E3,8.14E2,3.12E2,2.8E1,1.288E3,4.1E1,7.37E2,2.26E2,3E0,1.3E1,9.77E2,1.8E1,3.4E1,1.23E2,9.16E2,1E1,6.7E1,1.0827E4,2.61E2,1.62E2,3E1,3.77E2,9.2E1,4.4E1,4E1,5.56E2,1.004E3,3.97E2,4.17E2,2.82E2,3E1,4E0,2.4E1,8.4E1,1.204E3,1.6E1,2.5E1,1.27E2,6.1E2,2.24E2,2E0,2E0,1.1E1,6E0,1.2E1,2.2E1,1.2E1,5.9E1,6.4E1,8.87E2,2.9E1,7E0,3E0,5E0,6.2E1,1.071E4,1.17E2,1.81E2,8E1,1.21E2,4.1E1,2.6E1,4E0,7E0,3.7E2,4.8E1,4.4E1,3.6E1,8E0,5E0,3.5E1,4.96E2,6E1,9.05E2,9.9E1,3.03E2,9.4E1,2.21E2,1.96E2,2E0,2.8E2,1E1,2E1,2.1E1,3E0,1.6E1,6.8E1,1.197E3,7E0,5E0,1.1E1,2.3E1,2E0,1.08E2,1.9E1,6.05E2,5E0],"tree_param":{"num_deleted":"0","num_feature":"48","num_nodes":"121","size_leaf_vector":"1"}},{"base_weights":[-4.6787035E-2,-7.587185E-2,3.7738927E-2,-8.5513525E-2,-2.6901614E-2,1.4313979E-2,9.992485E-2,4.9999975E-2,-8.848419E-2,8.9178056E-2,-7.991242E-2,-4.202573E-3,9.921008E-2,9.047979E-2,7.473684E-1,5.833333E-1,3.694777E-2,-4.534642E-2,-9.4560735E-2,2.7297273E-2,1.5235455E-1,2.152464E-2,-9.629363E-2,7.733514E-2,-3.1479802E-2,8.07692E-2,4.0277776E-1,-2.9737633E-2,1.328527E-1,-6.6666687E-3,8.470588E-2,-5.0000013E-3,7.2E-2,1.8478258E-1,3.4313488E-3,-9.2533685E-2,1.7618246E-2,-9.514633E-2,3.0666664E-1,2.2884613E-1,-5.642657E-3,2.7679998E-1,8.6075924E-2,5.963279E-3,5.833333E-1,-9.774219E-2,4.2499998E-1,1.727513E-1,-2.564105E-2,-4.5087304E-2,1.2732556E-1,2.0153059E-1,2.1836204E-2,5.0333333E-1,-8.57143E-3,5.3749996E-1,-4.3154787E-2,3.2834223E-1,8.611462E-2,5.733333E-2,-3.1250232E-4,5.8267694E-3,-8.589746E-3,-9.616814E-3,2.4444444E-2,1.7283948E-2,-6.003776E-4,-9.620672E-3,5.205477E-3,6.625E-2,-8.750002E-3,6.8333335E-2,-1.1428595E-3,7.1544694E-3,-5.3807134E-3,-5.2173934E-3,3.4757283E-2,1.2582416E-2,-4.4642882E-3,6E-2,-2.3148386E-4,7.2E-2,-5.0000013E-3,-4.000002E-3,-9.917852E-3,6E-2,-5.0000013E-3,5.090909E-2,1.4017339E-2,-6.313871E-3,1.06410235E-2,-7.2331177E-3,1.4626367E-3,5.275E-2,6.015014E-4,5.0222218E-2,1.1118419E-2,-1.328906E-3,1.2427182E-2,7.499998E-3,7.473684E-2,6.285714E-2,-5.0000013E-3,1.0793649E-2,-7.773725E-3,3.6569767E-2,-9.375002E-3,-2.280222E-3,1.798578E-2],"categories":[],"categories_nodes":[],"categories_segments":[],"categories_sizes":[],"default_left":[0,0,0,0,0,0,0,0,0,0,0,0,0,0,0,0,0,0,0,0,0,0,0,0,0,0,0,0,0,0,0,0,0,0,0,0,0,0,0,0,0,0,0,0,0,0,0,0,0,0,0,0,0,0,0,0,0,0,0,0,0,0,0,0,0,0,0,0,0,0,0,0,0,0,0,0,0,0,0,0,0,0,0,0,0,0,0,0,0,0,0,0,0,0,0,0,0,0,0,0,0,0,0,0,0,0,0,0,0],"id":14,"left_children":[1,3,5,7,9,11,13,15,17,19,21,23,25,27,29,31,33,35,37,39,41,43,45,47,49,51,53,55,57,-1,-1,-1,-1,59,61,63,65,67,69,71,73,75,77,79,81,83,85,87,89,91,93,95,97,99,-1,101,103,105,107,-1,-1,-1,-1,-1,-1,-1,-1,-1,-1,-1,-1,-1,-1,-1,-1,-1,-1,-1,-1,-1,-1,-1,-1,-1,-1,-1,-1,-1,-1,-1,-1,-1,-1,-1,-1,-1,-1,-1,-1,-1,-1,-1,-1,-1,-1,-1,-1,-1,-1],"loss_changes":[4.671534E1,6.6725616E0,7.085425E0,4.759117E0,1.4326267E1,5.557378E0,8.071626E0,1.7465864E0,3.0253906E0,2.849711E0,2.6574078E0,6.4590635E0,3.5110364E0,6.6923237E0,1.5983486E0,5.553334E-1,1.2331346E0,4.2473755E0,2.4092789E0,2.4577234E0,2.9537277E0,1.9461005E0,1.0805969E0,7.1574616E0,4.7079554E0,4.251464E0,1.8114848E0,2.6336703E0,8.843561E0,0E0,0E0,0E0,0E0,3.3603263E0,1.004292E0,1.0241117E0,2.248688E0,1.5840149E0,2.1618333E0,5.686303E0,1.189792E0,2.9284353E0,1.2370315E0,1.0734051E0,5.553334E-1,1.09903336E-1,3.6249995E-1,4.0704756E0,1.7447352E0,3.262856E0,8.346632E0,5.2687755E0,1.4516768E0,3.0797982E0,0E0,4.5946455E-1,1.7640272E0,2.9827938E0,8.019117E0,0E0,0E0,0E0,0E0,0E0,0E0,0E0,0E0,0E0,0E0,0E0,0E0,0E0,0E0,0E0,0E0,0E0,0E0,0E0,0E0,0E0,0E0,0E0,0E0,0E0,0E0,0E0,0E0,0E0,0E0,0E0,0E0,0E0,0E0,0E0,0E0,0E0,0E0,0E0,0E0,0E0,0E0,0E0,0E0,0E0,0E0,0E0,0E0,0E0,0E0],"parents":[2147483647,0,0,1,1,2,2,3,3,4,4,5,5,6,6,7,7,8,8,9,9,10,10,11,11,12,12,13,13,14,14,15,15,16,16,17,17,18,18,19,19,20,20,21,21,22,22,23,23,24,24,25,25,26,26,27,27,28,28,33,33,34,34,35,35,36,36,37,37,38,38,39,39,40,40,41,41,42,42,43,43,44,44,45,45,46,46,47,47,48,48,49,49,50,50,51,51,52,52,53,53,55,55,56,56,57,57,58,58],"right_children":[2,4,6,8,10,12,14,16,18,20,22,24,26,28,30,32,34,36,38,40,42,44,46,48,50,52,54,56,58,-1,-1,-1,-1,60,62,64,66,68,70,72,74,76,78,80,82,84,86,88,90,92,94,96,98,100,-1,102,104,106,108,-1,-1,-1,-1,-1,-1,-1,-1,-1,-1,-1,-1,-1,-1,-1,-1,-1,-1,-1,-1,-1,-1,-1,-1,-1,-1,-1,-1,-1,-1,-1,-1,-1,-1,-1,-1,-1,-1,-1,-1,-1,-1,-1,-1,-1,-1,-1,-1,-1,-1],"split_conditions":[2.858935E-3,2.749259E-1,4.4477835E-1,-5.810843E-2,-1.0820642E-3,9.0431176E-2,-4.1507337E-2,1.484124E-3,2.5649905E-18,6.3055527E-18,9.968953E0,-8.17056E-1,9.704377E-2,6.2624356E-5,1.980489E1,4.461812E-3,-6.045294E-1,1.195275E1,4.270279E-2,-5.598642E-3,7.5131613E-3,6.9531165E-2,5.431809E-3,-8.5964225E-2,1.7831848E1,-2.9957542E-1,1.5887551E1,2.2969444E-3,-7.966473E-2,-3.1955243E-4,3.6506334E-3,-1.6343465E-2,1.9722402E-3,-1.1584047E-3,7.425572E-4,6.853062E-2,9.057857E-20,1.8099529E-1,2.0966334E-4,3.0906966E-2,1.8777387E-17,-2.6611982E-18,8.551291E-2,-9.18533E-2,3.6123574E-2,9.969006E0,6.551439E-2,-3.8113854E0,4.6989575E-2,2.3575626E-2,1.7877096E1,-1.5040634E-2,9.777121E-2,1.3833134E1,-4.0911438E-4,2.9983982E-2,-9.1188155E-2,5.9643686E-3,-6.8353884E-2,5.128923E-3,1.1744548E-3,3.591309E-4,-2.904727E-3,-1.1125258E-2,1.582237E-2,1.7643616E-3,-9.814479E-5,-1.0252752E-2,6.282984E-4,3.4065903E-3,-1.3252705E-3,3.155435E-3,4.953882E-6,1.4734691E-3,-1.0679484E-3,-3.6676132E-4,5.1880754E-3,1.5851315E-3,-1.627207E-4,3.2500685E-3,-1.0425591E-5,4.25725E-3,-1.4309705E-3,-5.8036004E-3,-1.2435743E-2,1.4799178E-3,-7.3518544E-3,4.0563024E-3,1.4815986E-3,-9.773104E-4,1.1596143E-3,-8.690429E-4,2.3341655E-4,4.9232837E-4,5.390268E-5,4.677513E-3,8.30607E-4,-1.0371213E-4,1.0128291E-3,3.623277E-3,2.1284472E-3,5.010188E-4,-3.1082035E-4,4.4378717E-4,-4.5435084E-4,3.0685207E-3,-7.3699956E-4,-1.8464818E-4,1.1581754E-3],"split_indices":[17,15,6,34,24,33,38,11,45,22,3,16,34,35,2,1,20,2,30,46,13,5,27,32,2,9,0,1,33,0,0,0,0,27,41,5,35,1,34,39,21,32,43,32,1,3,1,14,4,1,3,4,33,2,0,7,30,4,38,0,0,0,0,0,0,0,0,0,0,0,0,0,0,0,0,0,0,0,0,0,0,0,0,0,0,0,0,0,0,0,0,0,0,0,0,0,0,0,0,0,0,0,0,0,0,0,0,0,0],"split_type":[0,0,0,0,0,0,0,0,0,0,0,0,0,0,0,0,0,0,0,0,0,0,0,0,0,0,0,0,0,0,0,0,0,0,0,0,0,0,0,0,0,0,0,0,0,0,0,0,0,0,0,0,0,0,0,0,0,0,0,0,0,0,0,0,0,0,0,0,0,0,0,0,0,0,0,0,0,0,0,0,0,0,0,0,0,0,0,0,0,0,0,0,0,0,0,0,0,0,0,0,0,0,0,0,0,0,0,0,0],"sum_hessian":[1.9E4,1.4136E4,4.864E3,1.181E4,2.326E3,3.534E3,1.33E3,2.53E2,1.1557E4,7.29E2,1.597E3,2.902E3,6.32E2,1.312E3,1.8E1,5E0,2.48E2,1.428E3,1.0129E4,3.69E2,3.6E2,2.22E2,1.375E3,7.27E2,2.175E3,5.97E2,3.5E1,3.42E2,9.7E2,2E0,1.6E1,1E0,4E0,4.5E1,2.03E2,8.16E2,6.12E2,1.0115E4,1.4E1,5.1E1,3.18E2,1.24E2,2.36E2,2.17E2,5E0,1.372E3,3E0,3.77E2,3.5E2,2.004E3,1.71E2,1.95E2,4.02E2,2.9E1,6E0,7E0,3.35E2,1.86E2,7.84E2,1.4E1,3.1E1,1.26E2,7.7E1,8.08E2,8E0,8E1,5.32E2,1.0043E4,7.2E1,7E0,7E0,1.7E1,3.4E1,1.22E2,1.96E2,2.2E1,1.02E2,1.81E2,5.5E1,2E0,2.15E2,4E0,1E0,3.4E1,1.338E3,2E0,1E0,3.2E1,3.45E2,2.73E2,7.7E1,1.376E3,6.28E2,3.9E1,1.32E2,4.4E1,1.51E2,3E2,1.02E2,1.1E1,1.8E1,6E0,1E0,6.2E1,2.73E2,1.71E2,1.5E1,3.63E2,4.21E2],"tree_param":{"num_deleted":"0","num_feature":"48","num_nodes":"109","size_leaf_vector":"1"}},{"base_weights":[-4.826064E-2,-7.5235225E-2,3.0133583E-2,-8.398756E-2,-2.934689E-2,-5.626834E-3,6.541443E-2,-3.707939E-2,-9.1153644E-2,-7.676965E-2,7.405327E-2,-4.275506E-2,5.9385642E-2,1.950199E-1,3.1981494E-2,-9.134149E-2,2.1825373E-2,-9.6487716E-2,-3.3600025E-2,1.645159E-2,-9.99197E-3,-3.0459793E-2,1.0759257E-1,2.6399997E-1,-4.7788803E-2,1.36193E-1,2.7613174E-3,-4.336737E-2,3.465798E-1,1.2914069E-2,2.3392855E-1,-9.73146E-2,3.0769208E-2,