{"learner":{"attributes":{"scikit_learn":"{\"_estimator_type\": \"regressor\"}"},"feature_names":[],"feature_types":[],"gradient_booster":{"model":{"gbtree_model_param":{"num_parallel_tree":"1","num_trees":"200"},"iteration_indptr":[0,1,2,3,4,5,6,7,8,9,10,11,12,13,14,15,16,17,18,19,20,21,22,23,24,25,26,27,28,29,30,31,32,33,34,35,36,37,38,39,40,41,42,43,44,45,46,47,48,49,50,51,52,53,54,55,56,57,58,59,60,61,62,63,64,65,66,67,68,69,70,71,72,73,74,75,76,77,78,79,80,81,82,83,84,85,86,87,88,89,90,91,92,93,94,95,96,97,98,99,100,101,102,103,104,105,106,107,108,109,110,111,112,113,114,115,116,117,118,119,120,121,122,123,124,125,126,127,128,129,130,131,132,133,134,135,136,137,138,139,140,141,142,143,144,145,146,147,148,149,150,151,152,153,154,155,156,157,158,159,160,161,162,163,164,165,166,167,168,169,170,171,172,173,174,175,176,177,178,179,180,181,182,183,184,185,186,187,188,189,190,191,192,193,194,195,196,197,198,199,200],"tree_info":[0,0,0,0,0,0,0,0,0,0,0,0,0,0,0,0,0,0,0,0,0,0,0,0,0,0,0,0,0,0,0,0,0,0,0,0,0,0,0,0,0,0,0,0,0,0,0,0,0,0,0,0,0,0,0,0,0,0,0,0,0,0,0,0,0,0,0,0,0,0,0,0,0,0,0,0,0,0,0,0,0,0,0,0,0,0,0,0,0,0,0,0,0,0,0,0,0,0,0,0,0,0,0,0,0,0,0,0,0,0,0,0,0,0,0,0,0,0,0,0,0,0,0,0,0,0,0,0,0,0,0,0,0,0,0,0,0,0,0,0,0,0,0,0,0,0,0,0,0,0,0,0,0,0,0,0,0,0,0,0,0,0,0,0,0,0,0,0,0,0,0,0,0,0,0,0,0,0,0,0,0,0,0,0,0,0,0,0,0,0,0,0,0,0,0,0,0,0,0,0],"trees":[{"base_weights":[-2.8303384E-5,6.651E-1,-2.4400903E-2,7.7797884E-1,4.4171596E-1,-4.327401E-2,4.6925372E-1,6.595679E-1,8.8852935E-2,4.6376787E-2,5.411111E-1,-7.3111966E-2,7.163681E-2,2.8194886E-1,7.765789E-1,1.5897433E-1,7.255244E-1,-5.714288E-2,2.8571427E-1,6.1409086E-1,2.1568625E-1,2.0183776E-2,-8.8394426E-2,3.603744E-1,3.289389E-2,1.1693E-1,6.777174E-1,8.7406015E-1,5.443478E-1,7.875E-2,-3.125023E-3,8.2049996E-1,4.9885055E-1,3.2E-1,-9.77778E-3,5.7777774E-1,6.153844E-2,7.062857E-1,2.4999997E-1,7.0666665E-1,1.0810788E-2,-2.6995007E-2,1.5884717E-1,3.5999998E-1,-8.926638E-2,6.2057877E-1,1.14803605E-1,2.535675E-1,-1.907472E-2,2.4351463E-1,-3.1219536E-2,-9.285717E-3,7.368421E-1,2.6666665E-1,8.776515E-2,8.45283E-1,2.8253967E-1,4.1666668E-2,-9.629632E-3,8.441026E-2,-8.333336E-3,1.6764704E-2,6.9814816E-2,-6.6666687E-3,6E-2,7.714286E-2,-6.6666687E-3,-8.888892E-3,3.2E-2,1.4117645E-2,7.622641E-2,9.189188E-3,8.1E-2,7.642857E-2,-5.0000013E-3,6.7499995E-2,-6.7647086E-3,1.2591461E-2,-5.3858547E-3,1.0285283E-2,6.1728396E-2,8.1818186E-2,1.4399998E-2,-9.245948E-3,1.9335914E-3,5.103139E-2,8.8988766E-2,-1.811618E-4,6.875E-2,4.4723757E-2,1.2563634E-2,-4.3460554E-3,1.7254002E-2,1.4521274E-2,5.9423078E-2,-6.871797E-3,6.363636E-2,3.6785714E-2,8.0347225E-2,4.4999998E-2,-5.0000013E-3,-5.0000013E-3,8.634615E-2,4.1860444E-3,7.619047E-2],"categories":[],"categories_nodes":[],"categories_segments":[],"categories_sizes":[],"default_left":[0,0,0,0,0,0,0,0,0,0,0,0,0,0,0,0,0,0,0,0,0,0,0,0,0,0,0,0,0,0,0,0,0,0,0,0,0,0,0,0,0,0,0,0,0,0,0,0,0,0,0,0,0,0,0,0,0,0,0,0,0,0,0,0,0,0,0,0,0,0,0,0,0,0,0,0,0,0,0,0,0,0,0,0,0,0,0,0,0,0,0,0,0,0,0,0,0,0,0,0,0,0,0,0,0],"id":0,"left_children":[1,3,5,7,9,11,13,15,-1,17,19,21,23,25,27,29,31,33,35,37,39,41,43,45,47,49,51,53,55,-1,57,59,61,63,-1,65,67,69,71,73,75,77,79,81,83,85,87,89,91,93,95,-1,97,99,-1,101,103,-1,-1,-1,-1,-1,-1,-1,-1,-1,-1,-1,-1,-1,-1,-1,-1,-1,-1,-1,-1,-1,-1,-1,-1,-1,-1,-1,-1,-1,-1,-1,-1,-1,-1,-1,-1,-1,-1,-1,-1,-1,-1,-1,-1,-1,-1,-1,-1],"loss_changes":[4.586065E2,2.4871704E1,2.5427565E2,8.092865E0,1.3256546E1,9.013214E1,5.763237E1,1.0582306E1,0E0,1.7258799E0,6.279892E0,2.9755135E1,6.0607986E1,4.080436E1,8.126694E0,3.9759214E0,5.7478485E0,7.822223E-1,1.3393894E0,7.2082367E0,5.1224422E0,1.9224596E1,7.042801E0,4.088775E1,5.4810883E1,8.315382E0,8.451462E0,3.4620667E-1,8.8217125E0,0E0,1.2917247E0,4.336899E0,5.625658E0,5.813333E-1,0E0,1.174603E0,5.3388035E-1,5.4283295E0,3.9984324E0,6.921902E-1,1.973764E0,9.014952E0,1.9086226E1,3.346036E0,6.2080536E0,8.78112E0,2.2107119E1,2.2515137E1,1.8086117E1,8.153487E0,5.175561E0,0E0,3.908554E0,1.9666666E-1,0E0,9.0574265E-1,7.236619E0,0E0,0E0,0E0,0E0,0E0,0E0,0E0,0E0,0E0,0E0,0E0,0E0,0E0,0E0,0E0,0E0,0E0,0E0,0E0,0E0,0E0,0E0,0E0,0E0,0E0,0E0,0E0,0E0,0E0,0E0,0E0,0E0,0E0,0E0,0E0,0E0,0E0,0E0,0E0,0E0,0E0,0E0,0E0,0E0,0E0,0E0,0E0,0E0],"parents":[2147483647,0,0,1,1,2,2,3,3,4,4,5,5,6,6,7,7,9,9,10,10,11,11,12,12,13,13,14,14,15,15,16,16,17,17,18,18,19,19,20,20,21,21,22,22,23,23,24,24,25,25,26,26,27,27,28,28,30,30,31,31,32,32,33,33,35,35,36,36,37,37,38,38,39,39,40,40,41,41,42,42,43,43,44,44,45,45,46,46,47,47,48,48,49,49,50,50,52,52,53,53,55,55,56,56],"right_children":[2,4,6,8,10,12,14,16,-1,18,20,22,24,26,28,30,32,34,36,38,40,42,44,46,48,50,52,54,56,-1,58,60,62,64,-1,66,68,70,72,74,76,78,80,82,84,86,88,90,92,94,96,-1,98,100,-1,102,104,-1,-1,-1,-1,-1,-1,-1,-1,-1,-1,-1,-1,-1,-1,-1,-1,-1,-1,-1,-1,-1,-1,-1,-1,-1,-1,-1,-1,-1,-1,-1,-1,-1,-1,-1,-1,-1,-1,-1,-1,-1,-1,-1,-1,-1,-1,-1,-1],"split_conditions":[-9.3054496E-2,-9.625784E-2,9.757654E-2,-4.8791158E-1,9.797758E-3,5.4125055E-3,9.503219E-2,-5.3139744E0,1.6483648E-2,1.6964952E-2,2.2571797E-2,9.479299E-20,-3.0058462E-3,3.1003911E-2,5.0175107E-1,7.394502E-4,1.3952586E-2,7.547892E-5,6.6099927E-4,5.207165E-2,-9.535683E-2,1.5873676E1,-6.7357576E-1,1.43654505E-2,-9.276246E-2,5.9645507E-2,2.3156399E-2,1.78242E-1,3.530183E-3,7.952315E-3,1.5831492E1,1.137367E-1,9.77488E0,7.846042E-1,-2.0999023E-4,-9.70056E-3,-1.4914023E-2,9.720837E0,1.5830332E1,2.2931784E-1,-4.030525E0,1.1801208E-18,1.7929668E-4,4.3249186E-3,5.1141286E-1,-3.2914768E-3,6.699066E-2,7.710634E-2,4.173348E-1,8.5058965E-2,1.5835567E1,-4.6165152E-3,9.8668225E-2,3.0651763E-2,1.6087193E-2,1.5859787E1,-9.714908E-4,5.412972E-3,-1.1290339E-3,1.3461232E-2,-3.4587385E-4,1.4373702E-2,1.4740616E-2,-2.5740266E-4,1.790166E-4,1.5483201E-2,-1.0586142E-3,-1.3403893E-4,5.7644845E-4,7.903516E-3,9.529776E-3,4.6699704E-3,2.8529584E-3,1.0756573E-2,-5.3179864E-4,1.0851956E-2,-3.852714E-4,7.141831E-3,-2.9742743E-3,3.5944246E-3,1.0569587E-2,4.218628E-3,3.4412977E-3,-9.681098E-3,4.0344117E-4,9.888371E-3,1.3195643E-2,1.5197173E-4,1.1120419E-2,8.978791E-3,2.816546E-3,-2.1540471E-3,3.86489E-3,2.6998313E-3,5.7877074E-3,-8.0339675E-4,7.245329E-3,4.4294605E-3,1.260855E-2,2.503133E-3,-2.8600574E-3,-8.577645E-4,7.6589473E-3,7.926196E-4,1.7577467E-2],"split_indices":[30,30,33,21,19,11,30,14,0,37,4,45,27,1,20,43,40,41,31,22,30,0,20,19,32,36,40,13,23,0,2,7,0,9,0,4,4,2,0,43,12,9,29,11,21,26,1,45,8,39,0,0,33,1,0,3,24,0,0,0,0,0,0,0,0,0,0,0,0,0,0,0,0,0,0,0,0,0,0,0,0,0,0,0,0,0,0,0,0,0,0,0,0,0,0,0,0,0,0,0,0,0,0,0,0],"split_type":[0,0,0,0,0,0,0,0,0,0,0,0,0,0,0,0,0,0,0,0,0,0,0,0,0,0,0,0,0,0,0,0,0,0,0,0,0,0,0,0,0,0,0,0,0,0,0,0,0,0,0,0,0,0,0,0,0,0,0,0,0,0,0,0,0,0,0,0,0,0,0,0,0,0,0,0,0,0,0,0,0,0,0,0,0,0,0,0,0,0,0,0,0,0,0,0,0,0,0,0,0,0,0,0,0],"sum_hessian":[2.8288E4,9.99E2,2.7289E4,6.62E2,3.37E2,2.6285E4,1.004E3,3.23E2,3.39E2,6.8E1,2.69E2,2.0867E4,5.418E3,6.25E2,3.79E2,3.8E1,2.85E2,4.8E1,2E1,2.19E2,5E1,2.937E3,1.793E4,6.4E2,4.778E3,4.42E2,1.83E2,2.65E2,1.14E2,7E0,3.1E1,1.99E2,8.6E1,4E0,4.4E1,8E0,1.2E1,1.74E2,4.5E1,1.4E1,3.6E1,2.192E3,7.45E2,3.4E1,1.7896E4,3.1E2,3.3E2,9.1E2,3.868E3,2.38E2,2.04E2,1.3E1,1.7E2,2E0,2.63E2,5.2E1,6.2E1,5E0,2.6E1,1.94E2,5E0,3.3E1,5.3E1,2E0,2E0,6E0,2E0,8E0,4E0,1.6E1,1.58E2,3.6E1,9E0,1.3E1,1E0,3E0,3.3E1,3.27E2,1.865E3,6.65E2,8E1,1E1,2.4E1,1.7385E4,5.11E2,2.22E2,8.8E1,2.75E2,5.5E1,3.61E2,5.49E2,3.432E3,4.36E2,1.87E2,5.1E1,1.94E2,1E1,2.7E1,1.43E2,1E0,1E0,1E0,5.1E1,4.2E1,2E1],"tree_param":{"num_deleted":"0","num_feature":"48","num_nodes":"105","size_leaf_vector":"1"}},{"base_weights":[-2.538113E-3,6.191E-1,-2.5316989E-2,7.3725486E-1,3.8550293E-1,-3.7126172E-2,6.9208145E-1,8.74183E-2,6.181564E-1,-3.787881E-2,4.8644686E-1,-7.015937E-2,8.542359E-2,3.3139533E-1,7.7703077E-1,1.0714263E-2,6.676737E-1,4.2499998E-1,-6.666669E-2,8.3555555E-1,4.157205E-1,1.6965168E-2,-8.432744E-2,4.7176078E-1,6.387704E-2,9.1379285E-2,7.9999995E-1,8.3240736E-1,2.2647056E-1,6.7499995E-2,-9.600002E-3,2.1379308E-1,7.089109E-1,6E-2,-5.0000013E-3,-9.830511E-3,3.2E-1,8.5681814E-1,-5.0000013E-3,8.472222E-1,3.3350512E-1,1.2964022E-3,4.3867922E-1,-9.474718E-2,-1.4797663E-2,2.2360246E-1,7.51773E-1,3.1930923E-1,2.9716661E-2,4.9411762E-1,-7.380955E-2,4.1666666E-1,8.625E-2,5.16129E-1,8.629252E-1,8.25E-2,-9.56522E-3,-4.210529E-3,6.363636E-2,7.840517E-2,4.569444E-2,-6.6666687E-3,6E-2,2.6666665E-2,8.785714E-2,-5.0000013E-3,8.742857E-2,1.8018017E-2,5.321428E-2,-3.5406947E-3,1.1073916E-2,8.678571E-2,2.8101264E-2,-9.804903E-3,3.511448E-3,-5.1875026E-3,2.4846414E-2,3.6388885E-2,-6.1111134E-3,8.040322E-2,3.4999996E-2,4.710112E-2,-3.2124377E-3,-4.6939153E-6,2.8190851E-2,-6.6666687E-3,5.733333E-2,-9.736844E-3,1.1999998E-2,6.7499995E-2,-6.6666687E-3,8.307692E-2,2.7368417E-2,8.786232E-2,5.8947366E-2],"categories":[],"categories_nodes":[],"categories_segments":[],"categories_sizes":[],"default_left":[0,0,0,0,0,0,0,0,0,0,0,0,0,0,0,0,0,0,0,0,0,0,0,0,0,0,0,0,0,0,0,0,0,0,0,0,0,0,0,0,0,0,0,0,0,0,0,0,0,0,0,0,0,0,0,0,0,0,0,0,0,0,0,0,0,0,0,0,0,0,0,0,0,0,0,0,0,0,0,0,0,0,0,0,0,0,0,0,0,0,0,0,0,0,0],"id":1,"left_children":[1,3,5,7,9,11,13,-1,15,17,19,21,23,25,27,29,31,33,35,37,39,41,43,45,47,49,51,53,55,-1,-1,57,59,-1,-1,-1,61,63,-1,65,67,69,71,73,75,77,79,81,83,85,87,89,-1,91,93,-1,-1,-1,-1,-1,-1,-1,-1,-1,-1,-1,-1,-1,-1,-1,-1,-1,-1,-1,-1,-1,-1,-1,-1,-1,-1,-1,-1,-1,-1,-1,-1,-1,-1,-1,-1,-1,-1,-1,-1],"loss_changes":[4.0059406E2,2.7316406E1,2.3122356E2,1.027179E1,1.4463802E1,1.0869639E2,1.32854E1,0E0,1.0761093E1,9.0780306E-1,6.393341E0,2.6107468E1,4.742632E1,9.599544E0,1.069574E1,2.0496857E0,6.043686E0,3.6249995E-1,8.0216956E-1,8.901577E-1,7.841465E0,1.955173E1,1.3177643E1,2.0747597E1,4.7117805E1,3.8950872E0,3.354168E-1,2.6819E0,6.6341114E0,0E0,0E0,3.1627123E0,5.378433E0,0E0,0E0,0E0,5.813333E-1,3.3057404E-1,0E0,9.1786385E-1,5.812607E0,1.1468199E1,6.9288254E0,6.786804E0,2.3166105E1,6.4528093E0,2.6790848E0,3.3975624E1,3.5766758E1,7.9341173E-1,2.0345365E-1,7.9416656E-1,0E0,2.1374006E0,7.4412537E-1,0E0,0E0,0E0,0E0,0E0,0E0,0E0,0E0,0E0,0E0,0E0,0E0,0E0,0E0,0E0,0E0,0E0,0E0,0E0,0E0,0E0,0E0,0E0,0E0,0E0,0E0,0E0,0E0,0E0,0E0,0E0,0E0,0E0,0E0,0E0,0E0,0E0,0E0,0E0,0E0],"parents":[2147483647,0,0,1,1,2,2,3,3,4,4,5,5,6,6,8,8,9,9,10,10,11,11,12,12,13,13,14,14,15,15,16,16,17,17,18,18,19,19,20,20,21,21,22,22,23,23,24,24,25,25,26,26,27,27,28,28,31,31,32,32,36,36,37,37,39,39,40,40,41,41,42,42,43,43,44,44,45,45,46,46,47,47,48,48,49,49,50,50,51,51,53,53,54,54],"right_children":[2,4,6,8,10,12,14,-1,16,18,20,22,24,26,28,30,32,34,36,38,40,42,44,46,48,50,52,54,56,-1,-1,58,60,-1,-1,-1,62,64,-1,66,68,70,72,74,76,78,80,82,84,86,88,90,-1,92,94,-1,-1,-1,-1,-1,-1,-1,-1,-1,-1,-1,-1,-1,-1,-1,-1,-1,-1,-1,-1,-1,-1,-1,-1,-1,-1,-1,-1,-1,-1,-1,-1,-1,-1,-1,-1,-1,-1,-1,-1],"split_conditions":[-9.3054496E-2,-9.625784E-2,9.503219E-2,5.176737E-3,9.38879E-3,5.5200364E-3,1.5859787E1,1.48001285E-2,2.5987536E-5,7.547892E-5,-3.0413818E0,9.479299E-20,-1.0348938E-1,3.142072E-1,2.2945566E-1,-4.360591E-3,-4.80527E0,1.5839927E1,7.060376E-4,2.0101409E-1,3.4058338E-3,6.363469E-2,3.1595926E-3,3.3019703E-2,-3.0058462E-3,9.365418E-5,1.4809541E-3,9.695993E-2,4.222262E0,5.283338E-3,-1.4050012E-4,8.9304584E-1,5.945284E-2,1.6111732E-4,-2.3166537E-4,-2.209754E-4,-1.4914023E-2,4.7609047E-3,-3.3025683E-3,1.3877201E1,-1.6301581E0,1.5873676E1,-1.4829321E-3,1.5647727E-1,4.3060645E-2,7.611683E-2,-1.0503368E-1,3.7157585E-4,9.3371846E-2,-1.0254548E-1,2.4967033E-2,3.787089E-2,1.6274974E-2,-8.679726E-3,3.0996995E-2,7.798416E-3,-5.89819E-4,-4.026487E-5,8.4398E-3,1.2170655E-2,1.293633E-2,-6.4538716E-4,5.188048E-4,7.971823E-4,1.39220655E-2,-1.6786337E-3,8.970123E-3,5.7208175E-3,7.1131648E-3,-2.098657E-3,3.8319E-3,6.2314584E-3,3.8637195E-3,-3.7299078E-2,2.8367375E-3,-1.5262254E-3,2.255243E-3,4.579009E-3,-3.6230658E-3,1.1784224E-2,1.0701629E-2,9.2499675E-3,-5.7173555E-4,-3.460312E-6,6.336433E-3,-1.350975E-3,1.480639E-3,-2.735914E-4,8.1697706E-4,3.4222424E-3,-2.2183538E-3,1.6797123E-2,1.0487813E-3,1.435618E-2,4.156534E-3],"split_indices":[30,30,30,17,19,11,3,0,35,41,15,45,32,36,13,46,15,2,31,43,23,5,11,1,27,41,31,33,14,0,0,6,40,0,0,0,4,37,0,0,15,0,27,45,5,46,32,47,33,10,46,1,0,4,23,0,0,0,0,0,0,0,0,0,0,0,0,0,0,0,0,0,0,0,0,0,0,0,0,0,0,0,0,0,0,0,0,0,0,0,0,0,0,0,0],"split_type":[0,0,0,0,0,0,0,0,0,0,0,0,0,0,0,0,0,0,0,0,0,0,0,0,0,0,0,0,0,0,0,0,0,0,0,0,0,0,0,0,0,0,0,0,0,0,0,0,0,0,0,0,0,0,0,0,0,0,0,0,0,0,0,0,0,0,0,0,0,0,0,0,0,0,0,0,0,0,0,0,0,0,0,0,0,0,0,0,0,0,0,0,0,0,0],"sum_hessian":[2.8288E4,9.99E2,2.7289E4,6.62E2,3.37E2,2.6848E4,4.41E2,3.05E2,3.57E2,6.5E1,2.72E2,2.1148E4,5.7E3,8.5E1,3.56E2,2.7E1,3.3E2,3E0,6.2E1,4.4E1,2.28E2,2.958E3,1.819E4,3E2,5.4E3,5.7E1,2.8E1,3.23E2,3.3E1,3E0,2.4E1,2.8E1,3.02E2,2E0,1E0,5.8E1,4E0,4.3E1,1E0,3.5E1,1.93E2,2.853E3,1.05E2,1.5819E4,2.371E3,1.6E2,1.4E2,6.36E2,4.764E3,1.6E1,4.1E1,5E0,2.3E1,3E1,2.93E2,1.1E1,2.2E1,1.8E1,1E1,2.31E2,7.1E1,2E0,2E0,2E0,4.1E1,1E0,3.4E1,1.1E2,8.3E1,2.137E3,7.16E2,2.7E1,7.8E1,1.5427E4,3.92E2,2.079E3,2.92E2,1.07E2,5.3E1,1.23E2,1.7E1,4.44E2,1.92E2,4.262E3,5.02E2,2E0,1.4E1,3.7E1,4E0,3E0,2E0,1.2E1,1.8E1,2.75E2,1.8E1],"tree_param":{"num_deleted":"0","num_feature":"48","num_nodes":"95","size_leaf_vector":"1"}},{"base_weights":[1.6331198E-3,4.639208E-1,-2.5456542E-2,6.684282E-1,2.8130275E-1,-3.6799476E-2,6.49095E-1,5.402857E-1,7.8200513E-1,1.4182153E-1,5.373287E-1,-7.512306E-2,6.12427E-2,4.6153843E-1,8.328829E-1,6.0032254E-1,7.317071E-2,8.3134794E-1,5.492957E-1,2.4192545E-1,-7.3732957E-3,7.896825E-1,3.4371254E-1,2.6269877E-2,-9.156829E-2,2.6076922E-1,2.3689264E-2,8.547619E-1,3.672222E-1,-7.5000017E-3,8.4566206E-1,6.300675E-1,-2.666669E-2,-9.696973E-3,6.8888885E-1,5.4677415E-1,8.965116E-2,7.0731705E-1,3.2258064E-1,6.461538E-1,1.8556336E-1,-4.585368E-2,5.9999996E-1,8.688172E-1,5.4999995E-1,7.405405E-1,2.2900762E-1,-3.5344392E-2,1.7689292E-1,-9.362165E-2,2.5154638E-1,3.5347068E-1,-8.353416E-2,2.571936E-1,4.4198465E-4,-5.0000013E-3,8.7804876E-2,5.9466666E-1,2.0283017E-1,8.8497406E-1,5.333333E-1,4.2980768E-2,7.34715E-2,4.4999998E-2,-9.285717E-3,-5.0000013E-3,7.875E-2,-9.000002E-3,6.566038E-2,-5.0000013E-3,7.2749995E-2,1.0666665E-2,4.9411763E-2,-8.333336E-3,7.5588234E-2,2.9538458E-2,-5.444447E-3,4.25E-2,-5.4950523E-3,-6.6666687E-3,7.272727E-2,4.8571426E-2,8.896552E-2,6.892857E-2,-8.57143E-3,8.366667E-2,2.8749997E-2,1.2934781E-2,4.525E-2,1.3439714E-2,-6.538947E-3,1.0050503E-2,4.3815028E-2,-9.880736E-3,-1.3953513E-3,-7.884618E-3,6.195652E-2,8.0219775E-2,3.0396631E-2,-9.14286E-3,3.2E-2,1.7787054E-2,7.0117645E-2,-1.3742605E-3,2.8905658E-2,8.7631576E-2,2.9736841E-2,5.124998E-3,6.4444445E-2,1.7499998E-2,8.952632E-2,7.733333E-2,2.1538459E-2],"categories":[],"categories_nodes":[],"categories_segments":[],"categories_sizes":[],"default_left":[0,0,0,0,0,0,0,0,0,0,0,0,0,0,0,0,0,0,0,0,0,0,0,0,0,0,0,0,0,0,0,0,0,0,0,0,0,0,0,0,0,0,0,0,0,0,0,0,0,0,0,0,0,0,0,0,0,0,0,0,0,0,0,0,0,0,0,0,0,0,0,0,0,0,0,0,0,0,0,0,0,0,0,0,0,0,0,0,0,0,0,0,0,0,0,0,0,0,0,0,0,0,0,0,0,0,0,0,0,0,0,0,0],"id":2,"left_children":[1,3,5,7,9,11,13,15,17,19,21,23,25,27,29,31,33,35,37,39,41,43,45,47,49,51,53,55,57,-1,59,61,63,-1,65,67,-1,69,71,73,75,77,79,81,83,85,87,89,91,93,95,97,99,101,103,-1,-1,105,107,109,111,-1,-1,-1,-1,-1,-1,-1,-1,-1,-1,-1,-1,-1,-1,-1,-1,-1,-1,-1,-1,-1,-1,-1,-1,-1,-1,-1,-1,-1,-1,-1,-1,-1,-1,-1,-1,-1,-1,-1,-1,-1,-1,-1,-1,-1,-1,-1,-1,-1,-1,-1,-1],"loss_changes":[3.542811E2,5.8296967E1,2.0449971E2,1.0318359E1,2.9528069E1,9.8758446E1,1.4851608E1,9.771515E0,4.010071E0,8.036805E0,1.3995628E1,3.1511826E1,5.5343918E1,7.882416E0,2.6390991E0,5.798233E0,4.361902E0,5.425293E0,2.315466E0,7.216276E0,5.0992274E0,1.9120178E0,7.431938E0,2.4488285E1,1.147934E1,3.7372925E1,3.3753307E1,9.288006E-1,6.6095924E0,0E0,2.2169342E0,5.88739E0,5.1504767E-1,0E0,6.9513893E-1,4.3951645E0,0E0,6.630535E-1,1.0954483E0,3.184763E0,7.5017414E0,9.0142614E-1,1.151515E0,3.1031036E-1,3.069644E0,1.3707714E0,2.8592596E0,9.560898E0,1.524295E1,6.676544E0,1.1843146E1,2.0237411E1,8.2248986E-1,1.9703056E1,2.3158958E1,0E0,0E0,6.0194454E0,7.062609E0,1.2531891E0,1.8937445E0,0E0,0E0,0E0,0E0,0E0,0E0,0E0,0E0,0E0,0E0,0E0,0E0,0E0,0E0,0E0,0E0,0E0,0E0,0E0,0E0,0E0,0E0,0E0,0E0,0E0,0E0,0E0,0E0,0E0,0E0,0E0,0E0,0E0,0E0,0E0,0E0,0E0,0E0,0E0,0E0,0E0,0E0,0E0,0E0,0E0,0E0,0E0,0E0,0E0,0E0,0E0,0E0],"parents":[2147483647,0,0,1,1,2,2,3,3,4,4,5,5,6,6,7,7,8,8,9,9,10,10,11,11,12,12,13,13,14,14,15,15,16,16,17,17,18,18,19,19,20,20,21,21,22,22,23,23,24,24,25,25,26,26,27,27,28,28,30,30,31,31,32,32,34,34,35,35,37,37,38,38,39,39,40,40,41,41,42,42,43,43,44,44,45,45,46,46,47,47,48,48,49,49,50,50,51,51,52,52,53,53,54,54,57,57,58,58,59,59,60,60],"right_children":[2,4,6,8,10,12,14,16,18,20,22,24,26,28,30,32,34,36,38,40,42,44,46,48,50,52,54,56,58,-1,60,62,64,-1,66,68,-1,70,72,74,76,78,80,82,84,86,88,90,92,94,96,98,100,102,104,-1,-1,106,108,110,112,-1,-1,-1,-1,-1,-1,-1,-1,-1,-1,-1,-1,-1,-1,-1,-1,-1,-1,-1,-1,-1,-1,-1,-1,-1,-1,-1,-1,-1,-1,-1,-1,-1,-1,-1,-1,-1,-1,-1,-1,-1,-1,-1,-1,-1,-1,-1,-1,-1,-1,-1,-1],"split_conditions":[-9.8105654E-2,-9.432525E-2,9.503219E-2,-4.9693725E-1,3.427939E-2,1.3471757E-1,1.585403E1,-7.475815E-2,5.1431146E-2,3.7877098E-2,-1.0503368E-1,9.479299E-20,-2.960631E-3,6.420095E-2,-1.8585693E-3,1.05175324E-1,-4.354597E0,1.5868971E1,3.257433E-2,2.8252799E-2,5.553885E-1,-7.539831E-4,8.9864637E-4,1.3973739E1,9.2535734E-2,2.1554315E-2,-8.741289E-2,1.2787512E-2,6.5215263E-3,-6.492996E-3,5.1431146E-2,-2.2093436E-2,-3.0356932E-1,-1.6419888E-4,6.397051E-3,1.29671255E-2,1.3500511E-2,2.5479274E-5,-1.9461358E-2,1.6014747E-3,-7.894825E-2,-4.0600304E-3,1.5835567E1,3.0907232E-4,3.1109389E-2,1.2741816E0,1.1162969E-2,1.1801208E-18,2.7775168E-2,-5.0288843E-19,8.1633575E-2,1.8654419E-3,2.5460014E-1,-4.5769134E-1,1.0186311E-1,-4.5235576E-3,6.9705113E-3,8.444228E-2,3.142072E-1,5.7696012E-5,1.6643457E-2,1.103763E-2,1.07828025E-2,1.4096439E-3,-1.0192135E-3,-2.8731822E-4,2.6652755E-3,-5.4034E-4,8.3745485E-3,-5.6511166E-5,7.33233E-3,4.6184193E-3,2.1806916E-3,-9.4914436E-4,8.209156E-3,2.3371181E-3,-5.4047786E-4,5.059266E-3,-7.067669E-4,-2.4098754E-3,6.472204E-3,9.558618E-3,1.2106508E-2,7.0247203E-3,-1.0731459E-3,9.312724E-3,2.8622032E-3,1.350702E-3,4.7862637E-3,7.497815E-3,-3.5649359E-3,2.8517938E-3,5.5644913E-3,-4.1274592E-2,-1.1969265E-3,-2.0686395E-3,1.1428474E-2,3.0216963E-3,6.65985E-3,-3.2069206E-3,4.4079064E-3,4.6261908E-3,8.575681E-3,-3.3261592E-4,6.6930163E-3,6.209751E-3,2.1665252E-3,5.379854E-4,1.4075465E-2,6.581903E-4,1.4214623E-2,4.883548E-3,2.9165165E-3],"split_indices":[32,30,30,21,1,13,2,38,5,46,32,45,27,38,45,7,12,3,4,45,6,26,41,3,33,4,33,7,5,0,5,22,10,0,1,1,0,35,46,5,30,26,0,25,6,9,11,9,5,44,40,5,39,21,33,0,0,38,36,25,46,0,0,0,0,0,0,0,0,0,0,0,0,0,0,0,0,0,0,0,0,0,0,0,0,0,0,0,0,0,0,0,0,0,0,0,0,0,0,0,0,0,0,0,0,0,0,0,0,0,0,0,0],"split_type":[0,0,0,0,0,0,0,0,0,0,0,0,0,0,0,0,0,0,0,0,0,0,0,0,0,0,0,0,0,0,0,0,0,0,0,0,0,0,0,0,0,0,0,0,0,0,0,0,0,0,0,0,0,0,0,0,0,0,0,0,0,0,0,0,0,0,0,0,0,0,0,0,0,0,0,0,0,0,0,0,0,0,0,0,0,0,0,0,0,0,0,0,0,0,0,0,0,0,0,0,0,0,0,0,0,0,0,0,0,0,0,0,0],"sum_hessian":[2.8288E4,1.565E3,2.6723E4,7.37E2,8.28E2,2.6282E4,4.41E2,3.49E2,3.88E2,5.37E2,2.91E2,1.8896E4,7.386E3,2.2E2,2.21E2,3.09E2,4E1,3.18E2,7E1,3.21E2,2.16E2,1.25E2,1.66E2,2.637E3,1.6259E4,1.169E3,6.217E3,4.1E1,1.79E2,3E0,2.18E2,2.95E2,1.4E1,3.2E1,8E0,6.1E1,2.57E2,4E1,3E1,3.8E1,2.83E2,2.04E2,1.2E1,9.2E1,3.3E1,3.6E1,1.3E2,1.872E3,7.65E2,1.6163E4,9.6E1,9.21E2,2.48E2,5.62E2,5.655E3,1E0,4E1,7.4E1,1.05E2,1.92E2,2.6E1,1.03E2,1.92E2,1E0,1.3E1,1E0,7E0,9E0,5.2E1,1E0,3.9E1,1.4E1,1.6E1,5E0,3.3E1,1.94E2,8.9E1,3E0,2.01E2,2E0,1E1,6E0,8.6E1,2.7E1,6E0,2.9E1,7E0,9.1E1,3.9E1,2.81E2,1.591E3,5.93E2,1.72E2,1.5175E4,9.88E2,5.1E1,4.5E1,9E1,8.31E2,2.44E2,4E0,4.78E2,8.4E1,5.391E3,2.64E2,3.7E1,3.7E1,7.9E1,2.6E1,3E0,1.89E2,1.4E1,1.2E1],"tree_param":{"num_deleted":"0","num_feature":"48","num_nodes":"113","size_leaf_vector":"1"}},{"base_weights":[-4.3055844E-3,6.098064E-1,-2.1602785E-2,4.9644348E-1,7.895973E-1,-3.17759E-2,6.0158366E-1,2.3983048E-1,5.7894737E-1,8.789699E-1,4.621212E-1,-7.3265865E-2,6.037352E-2,1.9186044E-1,6.985994E-1,8.0249995E-1,-4.810129E-2,5.257329E-1,8.654545E-1,8.917391E-2,-7.5000017E-3,5.490196E-1,1.5624997E-1,2.8243374E-2,-8.978018E-2,1.8426572E-1,2.1639321E-2,6.323527E-2,6.421052E-1,4.166664E-2,7.6987576E-1,-6.6666687E-3,8.4999996E-1,7.2E-2,-9.866669E-3,5.7173145E-1,-1.6000023E-2,4.2499998E-1,8.8269226E-2,3.3214283E-1,7.7916664E-1,5.2E-1,-8.333355E-3,-4.8201915E-2,1.4596693E-1,-9.179243E-2,2.8941175E-1,5.125956E-2,2.9550457E-1,-2.1638293E-3,1.8513511E-1,6E-2,3.7878763E-2,8.307692E-2,1.9999997E-1,5.2E-1,-3.4375023E-2,-9.000002E-3,7.9488814E-1,2.6666665E-2,8.75E-2,4.0089283E-2,6.796511E-2,6E-2,-9.56522E-3,6E-2,-5.0000013E-3,-8.888892E-3,5.05E-2,8.173913E-2,-5.0000013E-3,-5.0000013E-3,6.7499995E-2,4.4999998E-2,-9.090912E-3,1.4624998E-2,-8.283807E-3,1.0329169E-2,3.9731544E-2,-9.69269E-3,-1.2538565E-3,-1.3888913E-3,5.0199997E-2,1.1882329E-3,5.7343747E-2,1.9019864E-2,5.3125E-2,2.2818426E-2,-1.8434174E-3,6.0283687E-2,9.7477725E-3,2.0499999E-2,-3.4042578E-3,-8.000002E-3,6E-2,-5.0000013E-3,6.7499995E-2,-9.600002E-3,1.6249998E-2,8.2369335E-2,4.5925926E-2],"categories":[],"categories_nodes":[],"categories_segments":[],"categories_sizes":[],"default_left":[0,0,0,0,0,0,0,0,0,0,0,0,0,0,0,0,0,0,0,0,0,0,0,0,0,0,0,0,0,0,0,0,0,0,0,0,0,0,0,0,0,0,0,0,0,0,0,0,0,0,0,0,0,0,0,0,0,0,0,0,0,0,0,0,0,0,0,0,0,0,0,0,0,0,0,0,0,0,0,0,0,0,0,0,0,0,0,0,0,0,0,0,0,0,0,0,0,0,0,0,0],"id":3,"left_children":[1,3,5,7,9,11,13,15,17,19,21,23,25,27,29,31,33,35,37,-1,-1,39,41,43,45,47,49,51,53,55,57,-1,59,-1,-1,61,63,65,-1,67,69,71,73,75,77,79,81,83,85,87,89,-1,91,-1,93,95,97,-1,99,-1,-1,-1,-1,-1,-1,-1,-1,-1,-1,-1,-1,-1,-1,-1,-1,-1,-1,-1,-1,-1,-1,-1,-1,-1,-1,-1,-1,-1,-1,-1,-1,-1,-1,-1,-1,-1,-1,-1,-1,-1,-1],"loss_changes":[3.005108E2,1.5403748E1,1.744572E2,9.981155E0,8.315506E0,1.0351581E2,1.7435287E1,1.915583E1,5.0489197E0,2.9051514E0,1.668478E0,3.1298424E1,4.0335266E1,4.9398985E0,1.6684006E1,1.7080841E0,3.1393485E0,7.6592636E0,4.2438507E-2,0E0,0E0,2.2867956E0,9.622084E-1,2.35225E1,1.2278473E1,2.9605347E1,2.4926834E1,9.0278524E-1,1.418623E0,1.3273126E0,6.9969788E0,0E0,3.208332E-1,0E0,0E0,4.9451675E0,1.2840348E0,3.6249995E-1,0E0,2.0826826E0,8.015404E-1,4.755E-1,4.9507576E-1,1.0687191E1,1.0996386E1,6.4986115E0,5.487615E0,1.8766218E1,2.6958633E1,2.0962145E1,2.9745558E1,0E0,8.0027103E-1,0E0,8.32E-1,4.755E-1,4.0383747E-1,0E0,2.6477356E0,0E0,0E0,0E0,0E0,0E0,0E0,0E0,0E0,0E0,0E0,0E0,0E0,0E0,0E0,0E0,0E0,0E0,0E0,0E0,0E0,0E0,0E0,0E0,0E0,0E0,0E0,0E0,0E0,0E0,0E0,0E0,0E0,0E0,0E0,0E0,0E0,0E0,0E0,0E0,0E0,0E0,0E0],"parents":[2147483647,0,0,1,1,2,2,3,3,4,4,5,5,6,6,7,7,8,8,9,9,10,10,11,11,12,12,13,13,14,14,15,15,16,16,17,17,18,18,21,21,22,22,23,23,24,24,25,25,26,26,27,27,28,28,29,29,30,30,32,32,35,35,36,36,37,37,39,39,40,40,41,41,42,42,43,43,44,44,45,45,46,46,47,47,48,48,49,49,50,50,52,52,54,54,55,55,56,56,58,58],"right_children":[2,4,6,8,10,12,14,16,18,20,22,24,26,28,30,32,34,36,38,-1,-1,40,42,44,46,48,50,52,54,56,58,-1,60,-1,-1,62,64,66,-1,68,70,72,74,76,78,80,82,84,86,88,90,-1,92,-1,94,96,98,-1,100,-1,-1,-1,-1,-1,-1,-1,-1,-1,-1,-1,-1,-1,-1,-1,-1,-1,-1,-1,-1,-1,-1,-1,-1,-1,-1,-1,-1,-1,-1,-1,-1,-1,-1,-1,-1,-1,-1,-1,-1,-1,-1],"split_conditions":[-9.535683E-2,1.5886844E1,9.503219E-2,3.9337858E-5,5.1431146E-2,1.2668897E-1,1.5859787E1,6.4041833E-3,-6.766638E-2,2.4123401E-3,4.6203665E-2,9.479299E-20,-5.1299352E-2,3.8616393E-2,3.9929637E-5,1.5836342E1,3.0063137E-3,1.1074751E-1,-4.2732835E0,1.2349457E-2,-4.7477246E-3,6.7266435E-3,1.7747324E1,1.38927355E1,9.093555E-2,1.3851864E1,1.7837458E1,-5.304034E-3,3.167761E-4,2.2828591E-1,3.5680103E-5,-1.7879605E-3,6.109022E-5,4.947871E-3,-2.3077735E-4,-2.0307196E-2,-1.0823236E-3,9.720837E0,5.469221E-3,-6.689595E-2,1.1388536E-2,1.7734997E1,2.5479274E-5,3.2961532E-19,3.585617E-2,-5.0288843E-19,8.1633575E-2,2.7810376E-2,4.2573577E-3,-1.001689E-1,7.766203E-6,1.5000462E-3,-8.40858E-3,1.4002609E-2,6.699066E-2,6.2526986E-3,-2.8130577E-3,-3.9547085E-4,5.1431146E-2,3.098792E-3,4.4487175E-3,9.849823E-3,1.0971213E-2,3.9644064E-3,-4.0570085E-4,3.2835961E-3,-6.3797417E-3,-5.0860643E-5,2.1482408E-3,7.194103E-3,-1.4517367E-3,-2.4264456E-4,9.3932153E-4,1.738E-3,-1.3291479E-4,6.8196477E-3,-1.0428125E-2,3.0766134E-3,5.3341696E-3,-3.734915E-2,-1.1127949E-3,-2.6516613E-4,8.6591095E-3,1.9633175E-4,8.065987E-3,5.861394E-3,6.581101E-3,4.196617E-3,-4.2358597E-4,2.6344478E-3,1.3978145E-3,9.938956E-4,-1.936722E-4,-3.9665104E-4,1.20959105E-2,-8.0357195E-4,1.1679018E-2,-1.0710665E-4,2.5040508E-4,1.154658E-2,2.9482E-3],"split_indices":[30,3,30,35,5,13,3,5,39,44,4,45,4,22,41,2,19,7,12,0,0,43,2,2,33,2,2,34,25,13,25,0,31,0,0,22,28,2,0,4,11,2,35,33,5,44,40,23,17,32,29,0,10,0,1,1,26,0,5,0,0,0,0,0,0,0,0,0,0,0,0,0,0,0,0,0,0,0,0,0,0,0,0,0,0,0,0,0,0,0,0,0,0,0,0,0,0,0,0,0,0],"split_type":[0,0,0,0,0,0,0,0,0,0,0,0,0,0,0,0,0,0,0,0,0,0,0,0,0,0,0,0,0,0,0,0,0,0,0,0,0,0,0,0,0,0,0,0,0,0,0,0,0,0,0,0,0,0,0,0,0,0,0,0,0,0,0,0,0,0,0,0,0,0,0,0,0,0,0,0,0,0,0,0,0,0,0,0,0,0,0,0,0,0,0,0,0,0,0,0,0,0,0,0,0],"sum_hessian":[2.8288E4,7.74E2,2.7514E4,4.77E2,2.97E2,2.7073E4,4.41E2,1.17E2,3.6E2,2.32E2,6.5E1,1.8668E4,8.405E3,8.5E1,3.56E2,3.9E1,7.8E1,3.06E2,5.4E1,2.29E2,3E0,5E1,1.5E1,2.612E3,1.6056E4,2.001E3,6.404E3,6.7E1,1.8E1,3.5E1,3.21E2,2E0,3.7E1,4E0,7.4E1,2.82E2,2.4E1,3E0,5.1E1,2.7E1,2.3E1,4E0,1.1E1,1.584E3,1.028E3,1.5972E4,8.4E1,9.12E2,1.089E3,5.591E3,8.13E2,2E0,6.5E1,1.2E1,6E0,4E0,3.1E1,9E0,3.12E2,2E0,3.5E1,1.11E2,1.71E2,2E0,2.2E1,2E0,1E0,8E0,1.9E1,2.2E1,1E0,1E0,3E0,1E0,1E1,2.39E2,1.345E3,8.8E2,1.48E2,1.5E4,9.72E2,3.5E1,4.9E1,8.49E2,6.3E1,7.54E2,3.35E2,3.68E2,5.223E3,1.4E2,6.73E2,1.9E1,4.6E1,4E0,2E0,1E0,3E0,2.4E1,7E0,2.86E2,2.6E1],"tree_param":{"num_deleted":"0","num_feature":"48","num_nodes":"101","size_leaf_vector":"1"}},{"base_weights":[-6.673996E-3,5.852903E-1,-2.3347288E-2,4.671548E-1,7.7281874E-1,-3.1715866E-2,6.577844E-1,1.4459457E-1,5.249382E-1,8.660944E-1,4.3181816E-1,-7.1449295E-2,5.493796E-2,1.0810788E-2,7.35906E-1,5.565217E-1,-4.038464E-2,4.3343845E-1,8.449438E-1,8.333331E-2,8.828947E-2,5.098039E-1,1.5624997E-1,3.9457828E-1,-7.5633414E-2,1.3081323E-2,1.5836716E-1,-6.666669E-2,5.2E-1,3.236842E-1,7.931034E-1,2.7272725E-1,7.538461E-1,4.1666666E-1,-9.787236E-3,5.876777E-1,1.2523362E-1,-6.6666687E-3,8.666666E-1,4.4999998E-2,-8.000002E-3,1.5833332E-1,6.0249996E-1,5.2E-1,-8.333355E-3,4.7013888E-1,-9.56522E-3,1.1233373E-2,-9.008084E-2,4.3591547E-1,2.977769E-3,5.8095235E-1,1.3147666E-1,2.6666665E-1,-9.677421E-3,-5.0000013E-3,6.7499995E-2,7.083331E-2,7.0666665E-1,8.247899E-1,4.4583333E-1,4.8571426E-2,-8.000002E-3,8.25E-2,-5.0000013E-3,5.1999997E-2,-5.0000013E-3,7.877358E-2,3.8207546E-2,4.9545452E-2,2.9069744E-3,-5.0000013E-3,8.77907E-2,-8.888892E-3,6.7499995E-2,6.5945946E-2,-7.5000017E-3,-5.0000013E-3,6.7499995E-2,4.4999998E-2,-9.090912E-3,5.707547E-2,1.8461537E-2,-6.006647E-3,1.06100775E-2,-9.311205E-3,2.3862068E-2,7.964912E-2,1.9186044E-2,1.8969802E-2,-1.6555209E-3,-3.2258087E-3,7.3846154E-2,1.0461185E-2,5.937008E-2,-5.0000013E-3,4.4999998E-2,-3.8888913E-3,3.4285713E-2,8.1818186E-2,3.2E-2,8.543779E-2,4.9545452E-2,6.76923E-2,1.5833331E-2],"categories":[],"categories_nodes":[],"categories_segments":[],"categories_sizes":[],"default_left":[0,0,0,0,0,0,0,0,0,0,0,0,0,0,0,0,0,0,0,0,0,0,0,0,0,0,0,0,0,0,0,0,0,0,0,0,0,0,0,0,0,0,0,0,0,0,0,0,0,0,0,0,0,0,0,0,0,0,0,0,0,0,0,0,0,0,0,0,0,0,0,0,0,0,0,0,0,0,0,0,0,0,0,0,0,0,0,0,0,0,0,0,0,0,0,0,0,0,0,0,0,0,0,0,0],"id":4,"left_children":[1,3,5,7,9,11,13,15,17,19,21,23,25,27,29,31,33,35,37,39,-1,41,43,45,47,49,51,53,55,57,59,61,63,65,-1,67,69,-1,71,-1,-1,73,75,77,79,81,-1,83,85,87,89,91,93,95,-1,-1,-1,97,99,101,103,-1,-1,-1,-1,-1,-1,-1,-1,-1,-1,-1,-1,-1,-1,-1,-1,-1,-1,-1,-1,-1,-1,-1,-1,-1,-1,-1,-1,-1,-1,-1,-1,-1,-1,-1,-1,-1,-1,-1,-1,-1,-1,-1,-1],"loss_changes":[2.7922595E2,1.6808136E1,1.5685919E2,8.833366E0,9.104523E0,9.3593E1,1.6873276E1,5.6611238E0,1.149234E1,2.9905243E0,1.3387089E0,3.6370438E1,3.699526E1,1.4943423E0,6.769516E0,1.082396E0,1.4070718E0,1.4995724E1,1.8202286E0,3.9533332E-1,0E0,1.5661812E0,9.622084E-1,6.1939564E0,2.3183403E1,2.59946E1,2.7900616E1,3.5698926E-1,4.755E-1,3.629768E0,2.5042725E0,8.652468E-1,7.848077E-1,3.1533325E-1,0E0,8.37796E0,3.7949982E0,0E0,9.403076E-1,0E0,0E0,1.5927777E0,1.5930614E0,4.755E-1,4.9507576E-1,4.0314903E0,0E0,1.7829594E1,1.5802551E1,1.2343231E1,2.1682112E1,1.4222004E1,2.8696968E1,1.9666666E-1,0E0,0E0,0E0,7.296627E-1,3.8496923E-1,1.8958435E0,1.4873395E0,0E0,0E0,0E0,0E0,0E0,0E0,0E0,0E0,0E0,0E0,0E0,0E0,0E0,0E0,0E0,0E0,0E0,0E0,0E0,0E0,0E0,0E0,0E0,0E0,0E0,0E0,0E0,0E0,0E0,0E0,0E0,0E0,0E0,0E0,0E0,0E0,0E0,0E0,0E0,0E0,0E0,0E0,0E0,0E0],"parents":[2147483647,0,0,1,1,2,2,3,3,4,4,5,5,6,6,7,7,8,8,9,9,10,10,11,11,12,12,13,13,14,14,15,15,16,16,17,17,18,18,19,19,21,21,22,22,23,23,24,24,25,25,26,26,27,27,28,28,29,29,30,30,31,31,32,32,33,33,35,35,36,36,38,38,41,41,42,42,43,43,44,44,45,45,47,47,48,48,49,49,50,50,51,51,52,52,53,53,57,57,58,58,59,59,60,60],"right_children":[2,4,6,8,10,12,14,16,18,20,22,24,26,28,30,32,34,36,38,40,-1,42,44,46,48,50,52,54,56,58,60,62,64,66,-1,68,70,-1,72,-1,-1,74,76,78,80,82,-1,84,86,88,90,92,94,96,-1,-1,-1,98,100,102,104,-1,-1,-1,-1,-1,-1,-1,-1,-1,-1,-1,-1,-1,-1,-1,-1,-1,-1,-1,-1,-1,-1,-1,-1,-1,-1,-1,-1,-1,-1,-1,-1,-1,-1,-1,-1,-1,-1,-1,-1,-1,-1,-1,-1],"split_conditions":[-9.535683E-2,1.5886844E1,9.649372E-2,2.7172335E-3,5.1431146E-2,2.9344312E-3,4.202959E-5,-2.9612437E-3,-8.287225E-2,-4.9693725E-1,4.6203665E-2,-8.745084E-2,1.5921235E1,5.187405E-5,1.5859787E1,1.7466106E-2,3.3637274E-3,-5.0733256E-1,9.977432E0,-2.4808478E-2,1.1126849E-2,-6.689595E-2,1.7747324E1,-4.4504878E-1,1.319821E-18,-1.0784063E-1,7.766203E-6,3.1583516E-3,9.382857E-3,1.0565597E-1,5.2350137E-2,-1.2383112E-4,2.1287456E-2,1.5870029E1,-8.179609E-5,-1.27444975E-2,-1.0158834E-1,-3.57486E-3,-5.4771466E0,1.1637986E-3,-6.872237E-4,6.628102E-3,7.953025E-3,1.7734997E1,2.5479274E-5,4.7286842E-2,-1.4370492E-3,1.3048995E1,8.569979E-2,-2.315293E-1,-8.741289E-2,3.3420355E-3,4.3377937E-3,5.7067815E-3,-1.689935E-4,-2.4685562E-3,1.0511118E-2,6.496133E-2,9.741402E0,5.212716E-3,1.6643457E-2,5.80377E-3,-1.1473E-3,4.1692457E-3,-4.4701697E-4,3.9366246E-3,-3.3342242E-4,1.1830501E-2,8.887539E-3,2.9414129E-3,1.4945911E-3,-4.8248232E-3,4.9223006E-3,-4.5776367E-5,7.7610253E-3,5.430921E-3,-3.167391E-5,-2.183795E-4,8.4539055E-4,1.5641988E-3,-1.19622964E-4,9.313167E-3,4.4061244E-3,-8.865745E-3,2.6624498E-3,-3.3344153E-2,4.770271E-3,7.1174265E-3,2.84006E-3,4.2059305E-3,-2.988387E-4,-5.835378E-5,2.4469853E-3,3.0725894E-3,9.412999E-3,-3.6432742E-4,2.2536516E-4,-5.9643015E-5,1.5730798E-3,1.2602347E-2,1.3500393E-3,1.0684913E-2,4.626509E-3,4.6717054E-3,2.4231682E-3],"split_indices":[30,3,30,37,5,17,41,24,39,21,4,32,3,28,3,1,23,6,3,4,0,4,2,22,45,32,29,23,7,37,5,34,23,0,0,4,30,0,12,0,0,43,11,2,35,37,0,2,33,38,33,45,17,1,0,0,0,7,2,17,46,0,0,0,0,0,0,0,0,0,0,0,0,0,0,0,0,0,0,0,0,0,0,0,0,0,0,0,0,0,0,0,0,0,0,0,0,0,0,0,0,0,0,0,0],"split_type":[0,0,0,0,0,0,0,0,0,0,0,0,0,0,0,0,0,0,0,0,0,0,0,0,0,0,0,0,0,0,0,0,0,0,0,0,0,0,0,0,0,0,0,0,0,0,0,0,0,0,0,0,0,0,0,0,0,0,0,0,0,0,0,0,0,0,0,0,0,0,0,0,0,0,0,0,0,0,0,0,0,0,0,0,0,0,0,0,0,0,0,0,0,0,0,0,0,0,0,0,0,0,0,0,0],"sum_hessian":[2.8288E4,7.74E2,2.7514E4,4.77E2,2.97E2,2.7181E4,3.33E2,7.3E1,4.04E2,2.32E2,6.5E1,1.8636E4,8.545E3,3.6E1,2.97E2,2.2E1,5.1E1,3.16E2,8.8E1,5E0,2.27E2,5E1,1.5E1,1.65E2,1.8471E4,6.084E3,2.461E3,3.2E1,4E0,3.7E1,2.6E2,1E1,1.2E1,5E0,4.6E1,2.1E2,1.06E2,2E0,8.6E1,1E0,4E0,1.1E1,3.9E1,4E0,1.1E1,1.43E2,2.2E1,2.634E3,1.5837E4,1.41E2,5.943E3,1.46E2,2.315E3,2E0,3E1,1E0,3E0,2.3E1,1.4E1,2.37E2,2.3E1,6E0,4E0,1.1E1,1E0,4E0,1E0,1.05E2,1.05E2,2.1E1,8.5E1,1E0,8.5E1,8E0,3E0,3.6E1,3E0,1E0,3E0,1E0,1E1,1.05E2,3.8E1,1.504E3,1.13E3,1.5693E4,1.44E2,5.6E1,8.5E1,5.62E2,5.381E3,3E1,1.16E2,2.189E3,1.26E2,1E0,1E0,1.7E1,6E0,1E1,4E0,2.16E2,2.1E1,1.2E1,1.1E1],"tree_param":{"num_deleted":"0","num_feature":"48","num_nodes":"105","size_leaf_vector":"1"}},{"base_weights":[-7.5223823E-3,5.465806E-1,-2.3129227E-2,4.3287125E-1,7.5645757E-1,-3.1053662E-2,6.218563E-1,6.9903845E-1,3.629353E-1,8.709359E-2,4.0869564E-1,1.0306225E-1,-5.342321E-2,7.929906E-1,3.1404957E-1,-9.090912E-3,7.8404254E-1,-4.456524E-2,4.823151E-1,2.5588232E-1,5.416666E-1,3.7883434E-1,7.7787116E-2,-7.436414E-2,9.660124E-2,8.420212E-1,4.222222E-1,-5.555579E-3,5.632353E-1,8.122222E-1,1.1999998E-1,7.2E-2,-8.750002E-2,2.5982904E-1,6.133333E-1,-8.888892E-3,3.6538458E-1,8E-2,2.3888886E-1,8.168421E-1,1.978448E-1,6.0596198E-2,4.1206893E-1,-8.701617E-2,5.392833E-3,5.269759E-2,3.2262927E-1,4.1666666E-1,8.513661E-1,7.1E-1,2.3888886E-1,-9.743593E-3,2.1874997E-1,8.7272726E-2,2.6388887E-1,-6.6666687E-3,8.329546E-2,-7.5000017E-3,4.4999998E-2,-9.883723E-3,2.6666665E-2,1.9223299E-2,7.066666E-2,7.302325E-2,3.7910447E-2,4.842105E-2,3.749998E-3,5.3749997E-2,-2.1674418E-9,8.3655916E-2,-6.6666687E-3,8.802081E-3,7.073171E-2,3.7173912E-2,4.737002E-3,6.1637927E-2,3.3898072E-4,-1.1425655E-3,-9.636378E-3,-9.992951E-3,1.133767E-2,7.1842104E-2,4.192861E-3,6.381321E-3,6.408654E-2,-6.6666687E-3,6.7499995E-2,8.563536E-2,2.6666665E-2,-5.0000013E-3,8E-2,4.6666663E-2,9.999978E-4,6.7499995E-2,6.153844E-3,1.3666664E-2,7.714286E-2],"categories":[],"categories_nodes":[],"categories_segments":[],"categories_sizes":[],"default_left":[0,0,0,0,0,0,0,0,0,0,0,0,0,0,0,0,0,0,0,0,0,0,0,0,0,0,0,0,0,0,0,0,0,0,0,0,0,0,0,0,0,0,0,0,0,0,0,0,0,0,0,0,0,0,0,0,0,0,0,0,0,0,0,0,0,0,0,0,0,0,0,0,0,0,0,0,0,0,0,0,0,0,0,0,0,0,0,0,0,0,0,0,0,0,0,0,0],"id":5,"left_children":[1,3,5,7,9,11,13,15,17,-1,19,21,23,25,27,-1,29,31,33,35,37,39,41,43,45,47,49,51,53,55,57,-1,59,61,63,-1,65,-1,67,69,71,73,75,77,79,81,83,85,87,89,91,-1,93,-1,95,-1,-1,-1,-1,-1,-1,-1,-1,-1,-1,-1,-1,-1,-1,-1,-1,-1,-1,-1,-1,-1,-1,-1,-1,-1,-1,-1,-1,-1,-1,-1,-1,-1,-1,-1,-1,-1,-1,-1,-1,-1,-1],"loss_changes":[2.446502E2,1.8167908E1,1.406525E2,9.146698E0,1.0432907E1,8.155456E1,1.7344864E1,7.0547485E0,1.957772E1,0E0,1.2634592E0,2.705664E1,7.319823E1,3.53479E0,9.639695E0,0E0,1.6615105E0,3.0830326E0,8.906204E0,1.3160887E0,2.6247225E0,2.568198E1,2.0438717E1,2.063028E1,2.8304537E1,3.925476E-1,1.2548885E0,1.1342148E0,6.069578E0,1.6954536E0,3.5549998E-1,0E0,3.7969977E-1,3.3980765E0,5.0624924E0,0E0,9.9483275E-1,0E0,1.2840277E0,1.7106895E0,1.2918669E1,1.3924799E1,1.4526453E1,1.246666E1,3.1856045E1,1.7111351E1,3.8176292E1,7.9416656E-1,3.0529785E-1,7.2400045E-1,9.337777E-1,0E0,1.1061058E0,0E0,2.219103E0,0E0,0E0,0E0,0E0,0E0,0E0,0E0,0E0,0E0,0E0,0E0,0E0,0E0,0E0,0E0,0E0,0E0,0E0,0E0,0E0,0E0,0E0,0E0,0E0,0E0,0E0,0E0,0E0,0E0,0E0,0E0,0E0,0E0,0E0,0E0,0E0,0E0,0E0,0E0,0E0,0E0,0E0],"parents":[2147483647,0,0,1,1,2,2,3,3,4,4,5,5,6,6,7,7,8,8,10,10,11,11,12,12,13,13,14,14,16,16,17,17,18,18,19,19,20,20,21,21,22,22,23,23,24,24,25,25,26,26,27,27,28,28,29,29,30,30,32,32,33,33,34,34,36,36,38,38,39,39,40,40,41,41,42,42,43,43,44,44,45,45,46,46,47,47,48,48,49,49,50,50,52,52,54,54],"right_children":[2,4,6,8,10,12,14,16,18,-1,20,22,24,26,28,-1,30,32,34,36,38,40,42,44,46,48,50,52,54,56,58,-1,60,62,64,-1,66,-1,68,70,72,74,76,78,80,82,84,86,88,90,92,-1,94,-1,96,-1,-1,-1,-1,-1,-1,-1,-1,-1,-1,-1,-1,-1,-1,-1,-1,-1,-1,-1,-1,-1,-1,-1,-1,-1,-1,-1,-1,-1,-1,-1,-1,-1,-1,-1,-1,-1,-1,-1,-1,-1,-1],"split_conditions":[-9.535683E-2,1.5893629E1,9.649372E-2,6.4041833E-3,5.031279E-2,-8.305167E-2,2.2392401E-1,-9.0675786E-2,1.2037351E-2,1.009944E-2,7.1865614E-3,-1.0503368E-1,8.230031E-2,5.031279E-2,1.0843811E-4,-5.098647E-4,-2.7488684E-3,3.0063137E-3,-1.9305758E-2,-6.689595E-2,-2.4808478E-2,7.710634E-2,-3.9473417E-1,-5.0288843E-19,2.7783763E-1,2.8959961E-5,1.398574E-4,3.8562444E-5,8.444228E-2,5.818273E-4,-7.445574E-3,3.96086E-3,1.07662104E-1,9.914074E-4,-5.0733256E-1,-4.119873E-5,1.4184331E-4,7.0756944E-3,4.5778267E-3,-2.9558295E-2,6.909326E-3,2.4892178E-3,2.0987492E-2,1.319821E-18,1.3886588E1,4.7762675E-4,1.5489492E1,-9.70056E-3,5.207165E-2,1.7817915E1,-5.260025E-2,-2.378834E-4,4.2141285E-3,6.338626E-3,6.699066E-2,-1.03700164E-4,3.2931888E-3,-1.5318394E-5,1.0061621E-3,-1.6235118E-4,6.548941E-4,5.859341E-3,1.1669517E-2,1.147906E-2,3.61012E-3,1.4236837E-3,1.3448596E-4,6.8943384E-3,1.0989627E-3,8.885169E-3,-1.9733695E-2,1.7993294E-3,9.570588E-3,6.219156E-3,1.1097676E-3,9.11304E-3,1.9686625E-4,-5.046159E-4,-2.8623957E-2,-1.4038245E-2,3.3591425E-3,2.2687137E-3,8.672184E-4,2.8583285E-4,8.824722E-3,-1.7204286E-4,2.185899E-3,1.030756E-2,1.1573833E-2,-2.0489811E-3,2.2048713E-3,5.061537E-3,1.1818048E-3,1.4157713E-3,2.6951244E-4,1.2150347E-3,1.1342115E-2],"split_indices":[30,3,30,5,5,32,13,39,1,0,43,32,33,5,41,0,26,19,22,4,4,45,20,44,36,29,41,35,38,43,4,0,10,24,6,0,47,0,17,36,17,17,1,45,0,23,0,4,22,3,4,0,43,0,1,0,0,0,0,0,0,0,0,0,0,0,0,0,0,0,0,0,0,0,0,0,0,0,0,0,0,0,0,0,0,0,0,0,0,0,0,0,0,0,0,0,0],"split_type":[0,0,0,0,0,0,0,0,0,0,0,0,0,0,0,0,0,0,0,0,0,0,0,0,0,0,0,0,0,0,0,0,0,0,0,0,0,0,0,0,0,0,0,0,0,0,0,0,0,0,0,0,0,0,0,0,0,0,0,0,0,0,0,0,0,0,0,0,0,0,0,0,0,0,0,0,0,0,0,0,0,0,0,0,0,0,0,0,0,0,0,0,0,0,0,0,0],"sum_hessian":[2.8288E4,7.74E2,2.7514E4,5.04E2,2.7E2,2.7181E4,3.33E2,1.03E2,4.01E2,2.02E2,6.8E1,3.885E3,2.3296E4,2.13E2,1.2E2,1E1,9.3E1,9.1E1,3.1E2,3.3E1,3.5E1,3.25E2,3.56E3,2.0443E4,2.853E3,1.87E2,2.6E1,5.3E1,6.7E1,8.9E1,4E0,4E0,8.7E1,1.16E2,1.94E2,8E0,2.5E1,1.8E1,1.7E1,9.4E1,2.31E2,3.387E3,1.73E2,1.7644E4,2.799E3,2.39E3,4.63E2,5E0,1.82E2,9E0,1.7E1,3.8E1,1.5E1,3.2E1,3.5E1,2E0,8.7E1,3E0,1E0,8.5E1,2E0,1.02E2,1.4E1,1.28E2,6.6E1,1.8E1,7E0,7E0,1E1,9.2E1,2E0,1.91E2,4E1,1.37E2,3.25E3,1.15E2,5.8E1,1.942E3,1.5702E4,1.417E3,1.382E3,3.7E1,2.353E3,2.56E2,2.07E2,2E0,3E0,1.8E2,2E0,1E0,8E0,8E0,9E0,3E0,1.2E1,2.9E1,6E0],"tree_param":{"num_deleted":"0","num_feature":"48","num_nodes":"97","size_leaf_vector":"1"}},{"base_weights":[-7.3102857E-3,-6.892743E-2,1.11654386E-1,2.5230262E-1,-7.425005E-2,4.9496773E-1,7.8184456E-2,1.1831681E-1,5.1262134E-1,-9.038929E-2,2.2885548E-2,3.653277E-1,6.957095E-1,5.86824E-2,5.769461E-1,7.1875E-1,6.631014E-2,7.1692306E-1,1.5897433E-1,-1.5966907E-2,-9.93515E-2,1.7817026E-1,-9.066228E-2,6.7936504E-1,3.1630167E-1,7.883817E-1,3.301587E-1,4.4584978E-1,4.686518E-2,7.6521736E-1,2.679687E-1,-5.0000013E-3,7.733333E-1,4.392857E-1,6.249763E-4,7.7894735E-1,2.4444443E-1,2.8124977E-2,6.6249996E-1,-7.461227E-2,1.3790147E-1,3.3962242E-2,-9.984981E-2,1.7353555E-2,2.930124E-1,9.583331E-2,-9.993053E-3,1.3846152E-1,8.039215E-1,-2.9885082E-2,4.0799996E-1,-8.333336E-3,8.0720335E-1,4.2291665E-1,3.1249978E-2,6.15544E-1,-9.836068E-3,1.401167E-1,4.995609E-3,8.176795E-1,3.8518515E-1,4.3058822E-1,-5.2272752E-2,8.307692E-2,2.6666665E-2,6.190476E-2,-8.750002E-3,4.8571426E-2,-2.1428594E-3,-6.6666687E-3,8.109091E-2,6.7499995E-2,-8.333336E-3,3.5555553E-2,-9.583335E-3,-5.0000013E-3,7.714286E-2,-9.989307E-3,6.872829E-4,6.885712E-3,3.415254E-2,-9.729732E-3,3.1764705E-2,-6.55738E-3,-9.9992845E-3,-2.927952E-4,5.1666666E-2,3.3099823E-2,-4.0540774E-4,9.230746E-4,7.875E-2,4.1666668E-2,-8.750002E-3,8.804347E-2,8.333332E-3,7.2E-2,-7.4698823E-3,5.410112E-2,2.4527026E-2,8.333332E-3,8.225108E-2,2.9166667E-2,7.538461E-2,2.4999999E-2,-9.090912E-3,-6.666669E-3,7.515528E-2,2.5746902E-3,2.3084437E-2,-2.8347902E-3,5.1102764E-3,8.333332E-3,8.380682E-2,7.1E-2,1.833333E-2,1.8857142E-2,5.8823526E-2,2.6666665E-2,-7.380955E-3],"categories":[],"categories_nodes":[],"categories_segments":[],"categories_sizes":[],"default_left":[0,0,0,0,0,0,0,0,0,0,0,0,0,0,0,0,0,0,0,0,0,0,0,0,0,0,0,0,0,0,0,0,0,0,0,0,0,0,0,0,0,0,0,0,0,0,0,0,0,0,0,0,0,0,0,0,0,0,0,0,0,0,0,0,0,0,0,0,0,0,0,0,0,0,0,0,0,0,0,0,0,0,0,0,0,0,0,0,0,0,0,0,0,0,0,0,0,0,0,0,0,0,0,0,0,0,0,0,0,0,0,0,0,0,0,0,0,0,0],"id":6,"left_children":[1,3,5,7,9,11,13,15,17,19,21,23,25,27,29,31,33,35,37,39,41,43,45,47,49,51,53,55,57,59,61,-1,63,65,67,69,71,73,75,77,79,81,83,85,87,89,-1,91,93,95,97,-1,99,101,103,105,-1,107,109,111,113,115,117,-1,-1,-1,-1,-1,-1,-1,-1,-1,-1,-1,-1,-1,-1,-1,-1,-1,-1,-1,-1,-1,-1,-1,-1,-1,-1,-1,-1,-1,-1,-1,-1,-1,-1,-1,-1,-1,-1,-1,-1,-1,-1,-1,-1,-1,-1,-1,-1,-1,-1,-1,-1,-1,-1,-1,-1],"loss_changes":[2.073735E2,3.188404E1,1.2380418E2,1.0542568E1,2.8744186E1,1.9914566E1,8.633107E1,6.2600985E0,7.3278465E0,1.04848175E1,4.6089203E1,7.067421E0,1.0004242E1,3.9079124E1,1.922425E1,7.1004295E-1,4.581031E0,1.714428E0,2.5509214E0,1.5269309E1,9.355469E-1,2.0384178E1,2.6195946E0,4.1331882E0,1.3059277E1,4.021393E0,1.733532E0,2.3424934E1,3.238241E1,3.8120651E0,6.688429E0,0E0,2.1497345E-1,2.7056541E0,1.7220805E0,1.5946121E0,1.3263888E0,1.332882E0,6.594641E-1,2.5241966E0,6.542076E0,2.0044324E0,6.19812E-2,4.6699777E0,7.268444E0,4.3055387E0,0E0,8.5368603E-1,2.738491E0,2.9774313E0,6.9018974E0,0E0,2.5464783E0,1.8649836E0,4.5028412E-1,1.7957924E1,0E0,2.666167E1,8.8029175E0,2.6401443E0,1.6400738E0,3.132103E0,3.2191557E-1,0E0,0E0,0E0,0E0,0E0,0E0,0E0,0E0,0E0,0E0,0E0,0E0,0E0,0E0,0E0,0E0,0E0,0E0,0E0,0E0,0E0,0E0,0E0,0E0,0E0,0E0,0E0,0E0,0E0,0E0,0E0,0E0,0E0,0E0,0E0,0E0,0E0,0E0,0E0,0E0,0E0,0E0,0E0,0E0,0E0,0E0,0E0,0E0,0E0,0E0,0E0,0E0,0E0,0E0,0E0,0E0],"parents":[2147483647,0,0,1,1,2,2,3,3,4,4,5,5,6,6,7,7,8,8,9,9,10,10,11,11,12,12,13,13,14,14,15,15,16,16,17,17,18,18,19,19,20,20,21,21,22,22,23,23,24,24,25,25,26,26,27,27,28,28,29,29,30,30,32,32,33,33,34,34,35,35,36,36,37,37,38,38,39,39,40,40,41,41,42,42,43,43,44,44,45,45,47,47,48,48,49,49,50,50,52,52,53,53,54,54,55,55,57,57,58,58,59,59,60,60,61,61,62,62],"right_children":[2,4,6,8,10,12,14,16,18,20,22,24,26,28,30,32,34,36,38,40,42,44,46,48,50,52,54,56,58,60,62,-1,64,66,68,70,72,74,76,78,80,82,84,86,88,90,-1,92,94,96,98,-1,100,102,104,106,-1,108,110,112,114,116,118,-1,-1,-1,-1,-1,-1,-1,-1,-1,-1,-1,-1,-1,-1,-1,-1,-1,-1,-1,-1,-1,-1,-1,-1,-1,-1,-1,-1,-1,-1,-1,-1,-1,-1,-1,-1,-1,-1,-1,-1,-1,-1,-1,-1,-1,-1,-1,-1,-1,-1,-1,-1,-1,-1,-1,-1],"split_conditions":[2.9344312E-3,-7.75055E-2,-9.535683E-2,-3.2404303E-3,1.1064259E0,-4.748809E-1,9.649372E-2,-9.827967E-2,-4.6662927E-2,1.319821E-18,-7.9587294E-4,6.4041833E-3,5.2350137E-2,7.8316365E-4,-2.9565399E-3,1.0392136E-2,1.3126432E-3,2.7019024E-1,-8.456454E-2,1.3973739E1,8.898366E-19,1.1001497E-4,-1.8986246E-2,-2.6460057E-2,7.822745E-3,5.144616E-3,4.6203665E-2,4.1474733E-3,-3.6269784E-2,5.031279E-2,3.967487E0,-2.6084334E-2,1.790242E1,-5.6104684E-1,6.01424E-3,3.2641254E-3,-1.0806182E-1,-8.500817E-2,3.360166E-3,1.2147234E1,1.5349577E-4,1.265599E1,4.450431E-18,7.069448E-2,7.600385E-4,9.969047E0,-2.7079692E-2,2.2101872E-1,2.8854266E-3,3.0063137E-3,1.7709763E-3,-4.5651794E-4,-2.2670755E-1,-1.3985361E-2,-4.273968E-2,-4.1073093E0,-1.9409361E-3,1.3851864E1,9.831331E-5,7.394502E-4,1.398574E-4,2.1237799E-3,5.176737E-3,7.9693E-3,7.888496E-3,1.0140884E-2,-3.6491157E-4,6.1351955E-3,-4.8397612E-4,-1.4245698E-2,6.8685594E-3,1.173749E-2,-1.380986E-3,5.4469886E-3,-1.5104182E-4,-2.8464496E-3,8.997941E-3,-3.7156306E-2,6.4276083E-4,1.8350236E-3,5.4366128E-3,-1.2972414E-2,2.524308E-2,-2.0470453E-2,-2.8415984E-2,-2.3218836E-5,3.9172103E-3,8.371504E-3,2.001595E-4,1.3626871E-3,1.3358498E-2,2.1383704E-3,-1.5140176E-4,2.7073133E-3,2.1654486E-3,3.564775E-3,-1.1145836E-4,7.12462E-3,6.5148356E-3,3.3172368E-4,9.1604125E-3,1.6414169E-3,5.0222976E-3,1.2654125E-3,-2.600992E-4,-8.2051655E-4,1.9788598E-3,4.6282946E-4,4.3625487E-3,-4.954452E-4,9.922836E-4,1.2285352E-3,9.53637E-3,1.9843818E-3,2.3998334E-3,1.1926979E-3,6.6821873E-3,3.3640265E-4,-2.7884514E-4],"split_indices":[17,32,30,46,15,21,30,34,42,45,26,5,5,23,26,1,17,6,32,3,23,47,34,22,1,5,4,17,4,5,14,0,3,20,1,11,4,4,5,3,29,3,19,5,41,3,0,13,11,19,31,0,4,40,22,12,0,2,28,43,41,11,17,0,0,0,0,0,0,0,0,0,0,0,0,0,0,0,0,0,0,0,0,0,0,0,0,0,0,0,0,0,0,0,0,0,0,0,0,0,0,0,0,0,0,0,0,0,0,0,0,0,0,0,0,0,0,0,0],"split_type":[0,0,0,0,0,0,0,0,0,0,0,0,0,0,0,0,0,0,0,0,0,0,0,0,0,0,0,0,0,0,0,0,0,0,0,0,0,0,0,0,0,0,0,0,0,0,0,0,0,0,0,0,0,0,0,0,0,0,0,0,0,0,0,0,0,0,0,0,0,0,0,0,0,0,0,0,0,0,0,0,0,0,0,0,0,0,0,0,0,0,0,0,0,0,0,0,0,0,0,0,0,0,0,0,0,0,0,0,0,0,0,0,0,0,0,0,0,0,0],"sum_hessian":[2.8288E4,1.8636E4,9.652E3,3.03E2,1.8333E4,7.74E2,8.878E3,2.01E2,1.02E2,1.5721E4,2.612E3,4.72E2,3.02E2,8.545E3,3.33E2,1.5E1,1.86E2,6.4E1,3.8E1,1.69E3,1.4031E4,1.103E3,1.509E3,6.2E1,4.1E2,2.4E2,6.2E1,2.52E2,8.293E3,2.06E2,1.27E2,1E0,1.4E1,2.7E1,1.59E2,5.6E1,8E0,3.1E1,7E0,1.224E3,4.66E2,5.2E1,1.3979E4,4.6E2,6.43E2,7.1E1,1.438E3,1.2E1,5E1,8.6E1,3.24E2,5E0,2.35E2,4.7E1,1.5E1,1.92E2,6E1,2.569E3,5.724E3,1.8E2,2.6E1,8.4E1,4.3E1,1.2E1,2E0,2E1,7E0,6E0,1.53E2,2E0,5.4E1,3E0,5E0,8E0,2.3E1,1E0,6E0,9.34E2,2.9E2,3.49E2,1.17E2,3.6E1,1.6E1,6E1,1.3919E4,4.43E2,1.7E1,5.7E2,7.3E1,6.4E1,7E0,5E0,7E0,4.5E1,5E0,4E0,8.2E1,1.77E2,1.47E2,5E0,2.3E2,3.5E1,1.2E1,5E0,1E1,3.2E1,1.6E2,1.137E3,1.432E3,3.322E3,2.402E3,5E0,1.75E2,9E0,1.7E1,3.4E1,5E1,2E0,4.1E1],"tree_param":{"num_deleted":"0","num_feature":"48","num_nodes":"119","size_leaf_vector":"1"}},{"base_weights":[-1.2259206E-2,-7.102004E-2,1.0119131E-1,2.5851062E-1,-7.607869E-2,4.536774E-1,7.0413314E-2,1.2582415E-1,4.9504948E-1,-9.033736E-2,9.747682E-3,3.4155068E-1,6.58608E-1,5.3911798E-2,4.990881E-1,7.1875E-1,6.826345E-2,6.9523805E-1,1.5897433E-1,-1.792621E-2,-9.9137895E-2,1.4692584E-1,-9.0668455E-2,6.367816E-1,2.7913666E-1,7.7251184E-1,2.6666665E-1,3.574572E-1,3.8658947E-2,1.3037035E-1,7.517949E-1,-5.0000013E-3,7.733333E-1,6.2777776E-1,6.6664297E-4,2.0999998E-1,7.722222E-1,2.8124977E-2,6.6249996E-1,-7.398706E-2,1.2805904E-1,4.2499998E-1,-9.928024E-2,1.5184358E-2,2.4071205E-1,7.23684E-2,-9.923401E-2,-9.090912E-3,7.3246753E-1,9.30481E-2,4.285714E-1,7.850961E-1,-7.5000017E-3,3.510204E-1,-2.666669E-2,5.257525E-1,-9.909912E-3,5.730258E-3,1.3520037E-1,6.050418E-2,6.1176467E-1,-8.333336E-3,7.742105E-1,8.307692E-2,2.6666665E-2,7.733333E-2,-7.5000017E-3,2.521739E-2,-4.4531277E-3,5.1999997E-2,-8.333336E-3,-6.6666687E-3,8.057692E-2,3.5555553E-2,-9.583335E-3,-5.0000013E-3,7.714286E-2,-9.989331E-3,7.718097E-4,6.6011213E-3,3.12605E-2,-5.0000013E-3,6E-2,1.5094316E-3,-9.970675E-3,-2.927952E-4,4.611111E-2,2.9980693E-2,1.550364E-4,-3.3870991E-3,5.0666668E-2,-4.7619073E-3,-9.99294E-3,3.0666664E-2,8.2222216E-2,4.03125E-2,2.8846131E-3,2.3058822E-2,5.4013606E-2,7.9368934E-2,-6.6666687E-3,2.3589741E-2,7.272727E-2,4.4999998E-2,-9.285717E-3,-7.17949E-3,6.130268E-2,7.546294E-3,-2.7094455E-3,4.6843853E-2,7.848671E-3,-9.804157E-5,4.0555555E-2,7.066666E-2,-6.6666687E-3,-8.000002E-3,7.9301074E-2],"categories":[],"categories_nodes":[],"categories_segments":[],"categories_sizes":[],"default_left":[0,0,0,0,0,0,0,0,0,0,0,0,0,0,0,0,0,0,0,0,0,0,0,0,0,0,0,0,0,0,0,0,0,0,0,0,0,0,0,0,0,0,0,0,0,0,0,0,0,0,0,0,0,0,0,0,0,0,0,0,0,0,0,0,0,0,0,0,0,0,0,0,0,0,0,0,0,0,0,0,0,0,0,0,0,0,0,0,0,0,0,0,0,0,0,0,0,0,0,0,0,0,0,0,0,0,0,0,0,0,0,0,0,0,0,0,0],"id":7,"left_children":[1,3,5,7,9,11,13,15,17,19,21,23,25,27,29,31,33,35,37,39,41,43,45,47,49,51,53,55,57,59,61,-1,63,65,67,69,71,73,75,77,79,81,83,85,87,89,91,-1,93,95,97,99,-1,101,103,105,-1,107,109,111,113,-1,115,-1,-1,-1,-1,-1,-1,-1,-1,-1,-1,-1,-1,-1,-1,-1,-1,-1,-1,-1,-1,-1,-1,-1,-1,-1,-1,-1,-1,-1,-1,-1,-1,-1,-1,-1,-1,-1,-1,-1,-1,-1,-1,-1,-1,-1,-1,-1,-1,-1,-1,-1,-1,-1,-1],"loss_changes":[1.8859431E2,3.1087196E1,1.04691696E2,8.788422E0,2.2464401E1,1.7583145E1,6.27812E1,6.1624546E0,6.684595E0,1.0029266E1,3.6048462E1,9.090801E0,1.1981697E1,3.957674E1,3.0557373E1,7.1004295E-1,6.315752E0,2.1912365E0,2.5509214E0,1.397966E1,1.0893402E0,1.3661566E1,2.1172943E0,6.1243744E0,1.1556099E1,2.3092804E0,1.5682178E0,3.1478134E1,2.588568E1,4.5034647E0,3.7149048E0,0E0,2.1497345E-1,1.8992786E0,1.7163702E0,9.5266664E-1,1.5733948E0,1.332882E0,6.594641E-1,2.6127458E0,5.4069867E0,3.6249995E-1,6.8600464E-1,3.724738E0,9.129601E0,3.5237694E0,4.6783447E-2,0E0,2.690609E0,3.711083E0,4.9777603E0,1.5753326E0,0E0,1.9508872E0,5.1504767E-1,1.5637024E1,0E0,1.3902869E1,3.910338E1,2.5250232E0,1.1416473E0,0E0,3.1147156E0,0E0,0E0,0E0,0E0,0E0,0E0,0E0,0E0,0E0,0E0,0E0,0E0,0E0,0E0,0E0,0E0,0E0,0E0,0E0,0E0,0E0,0E0,0E0,0E0,0E0,0E0,0E0,0E0,0E0,0E0,0E0,0E0,0E0,0E0,0E0,0E0,0E0,0E0,0E0,0E0,0E0,0E0,0E0,0E0,0E0,0E0,0E0,0E0,0E0,0E0,0E0,0E0,0E0,0E0],"parents":[2147483647,0,0,1,1,2,2,3,3,4,4,5,5,6,6,7,7,8,8,9,9,10,10,11,11,12,12,13,13,14,14,15,15,16,16,17,17,18,18,19,19,20,20,21,21,22,22,23,23,24,24,25,25,26,26,27,27,28,28,29,29,30,30,32,32,33,33,34,34,35,35,36,36,37,37,38,38,39,39,40,40,41,41,42,42,43,43,44,44,45,45,46,46,48,48,49,49,50,50,51,51,53,53,54,54,55,55,57,57,58,58,59,59,60,60,62,62],"right_children":[2,4,6,8,10,12,14,16,18,20,22,24,26,28,30,32,34,36,38,40,42,44,46,48,50,52,54,56,58,60,62,-1,64,66,68,70,72,74,76,78,80,82,84,86,88,90,92,-1,94,96,98,100,-1,102,104,106,-1,108,110,112,114,-1,116,-1,-1,-1,-1,-1,-1,-1,-1,-1,-1,-1,-1,-1,-1,-1,-1,-1,-1,-1,-1,-1,-1,-1,-1,-1,-1,-1,-1,-1,-1,-1,-1,-1,-1,-1,-1,-1,-1,-1,-1,-1,-1,-1,-1,-1,-1,-1,-1,-1,-1,-1,-1,-1,-1],"split_conditions":[2.9344312E-3,-8.015163E-2,-9.535683E-2,-3.2404303E-3,1.1064259E0,1.585742E1,1.0525801E-1,-9.827967E-2,-4.6662927E-2,1.319821E-18,-7.9587294E-4,6.4041833E-3,3.0602643E-2,1.1415568E-3,-8.3107345E-2,1.0392136E-2,1.3126432E-3,-1.1116109E-3,-8.456454E-2,1.3973739E1,-7.768901E-2,1.1001497E-4,-1.8333858E-2,-9.0675786E-2,1.829951E-4,5.129161E-3,4.6203665E-2,4.1474733E-3,1.5955179E1,8.0191925E-2,-7.961567E-3,-2.3475904E-2,1.790242E1,-5.6104684E-1,-9.320171E-2,-1.0806182E-1,5.6652784E-2,-8.500817E-2,3.360166E-3,1.2147234E1,1.5349577E-4,9.969499E0,8.898366E-19,7.069448E-2,1.9935541E-1,9.967982E0,4.603673E-4,-4.1322768E-4,-5.304034E-3,-3.3607266E-3,-1.9305758E-2,-2.7710847E-3,-2.9016734E-4,-1.3985361E-2,2.5479274E-5,-4.1073093E0,-1.5704423E-3,-8.875399E-2,1.7747324E1,1.0685822E-2,-1.3357121E-1,-1.3327599E-5,2.605155E-15,7.172368E-3,7.0996466E-3,9.772614E-3,-1.7035425E-3,5.7915947E-3,-1.3120226E-3,1.0563743E-2,-1.242888E-3,-6.4858436E-3,6.185954E-3,4.9022916E-3,-1.35938E-4,-2.5618076E-3,8.09815E-3,-3.3298716E-2,5.913469E-4,1.6022808E-3,4.860342E-3,-5.7330936E-2,5.9537827E-3,6.93127E-3,-2.5555912E-2,-2.0894255E-5,3.5254885E-3,7.7806707E-3,4.6677995E-4,-3.6519652E-4,1.0815813E-2,-7.320441E-4,-2.4435693E-2,1.877451E-3,2.5969825E-3,2.7500617E-3,4.3057097E-4,6.3788737E-3,9.071224E-3,8.16283E-3,-1.3626218E-4,2.0681422E-3,4.5760865E-3,1.1388719E-3,-1.255799E-4,-8.341159E-4,1.5651165E-3,1.4653703E-3,-5.069621E-4,7.0142425E-3,1.7573677E-3,2.6217405E-5,9.5396815E-3,3.2219973E-3,-3.332019E-4,-1.9275547E-4,9.417022E-3],"split_indices":[17,32,30,46,15,2,33,34,42,45,26,5,23,23,44,1,17,28,32,3,32,47,32,39,35,17,4,17,3,46,45,0,3,20,34,4,10,4,5,3,29,0,23,5,45,0,5,0,34,26,22,26,0,40,35,12,0,32,2,11,6,0,43,0,0,0,0,0,0,0,0,0,0,0,0,0,0,0,0,0,0,0,0,0,0,0,0,0,0,0,0,0,0,0,0,0,0,0,0,0,0,0,0,0,0,0,0,0,0,0,0,0,0,0,0,0,0],"split_type":[0,0,0,0,0,0,0,0,0,0,0,0,0,0,0,0,0,0,0,0,0,0,0,0,0,0,0,0,0,0,0,0,0,0,0,0,0,0,0,0,0,0,0,0,0,0,0,0,0,0,0,0,0,0,0,0,0,0,0,0,0,0,0,0,0,0,0,0,0,0,0,0,0,0,0,0,0,0,0,0,0,0,0,0,0,0,0,0,0,0,0,0,0,0,0,0,0,0,0,0,0,0,0,0,0,0,0,0,0,0,0,0,0,0,0,0,0],"sum_hessian":[2.8288E4,1.8636E4,9.652E3,2.81E2,1.8355E4,7.74E2,8.878E3,1.81E2,1E2,1.574E4,2.615E3,5.02E2,2.72E2,8.55E3,3.28E2,1.5E1,1.66E2,6.2E1,3.8E1,1.706E3,1.4034E4,1.105E3,1.51E3,8.6E1,4.16E2,2.1E2,6.2E1,4.08E2,8.142E3,1.34E2,1.94E2,1E0,1.4E1,1.7E1,1.49E2,9E0,5.3E1,3.1E1,7E0,1.233E3,4.73E2,3E0,1.4031E4,4.6E2,6.45E2,7.5E1,1.435E3,1E1,7.6E1,1.86E2,2.3E2,2.07E2,3E0,4.8E1,1.4E1,2.98E2,1.1E2,6.072E3,2.07E3,1.18E2,1.6E1,5E0,1.89E2,1.2E1,2E0,1.4E1,3E0,2.2E1,1.27E2,4E0,5E0,2E0,5.1E1,8E0,2.3E1,1E0,6E0,9.36E2,2.97E2,3.55E2,1.18E2,1E0,2E0,5.2E1,1.3979E4,4.43E2,1.7E1,5.17E2,1.28E2,6.1E1,1.4E1,2E1,1.415E3,1.4E1,6.2E1,3.1E1,1.55E2,8.4E1,1.46E2,2.05E2,2E0,3.8E1,1E1,1E0,1.3E1,3.8E1,2.6E2,1.943E3,4.129E3,3E2,1.77E3,1.01E2,1.7E1,1.4E1,2E0,4E0,1.85E2],"tree_param":{"num_deleted":"0","num_feature":"48","num_nodes":"117","size_leaf_vector":"1"}},{"base_weights":[-1.7703017E-2,-7.321996E-2,8.948511E-2,2.1950352E-1,-7.7713035E-2,3.852903E-1,6.365579E-2,9.285712E-2,4.4554454E-1,-9.0655E-2,1.9110767E-4,3.2830188E-1,8.321839E-1,5.166318E-2,5.310811E-1,6.7692304E-1,4.7647037E-2,6.603448E-1,1.522727E-1,-2.0855326E-2,-9.9137895E-2,1.2522602E-1,-9.133027E-2,5.585585E-1,2.8359237E-1,8.333331E-2,8.7682925E-2,2.069017E-1,2.340975E-2,1.7888887E-1,7.654135E-1,-6.6666687E-3,8.1818186E-2,4.611111E-1,-1.3072132E-3,-8.000002E-3,7.1666664E-1,3.7837815E-2,6.6249996E-1,-9.989331E-3,7.5226955E-2,4.2499998E-1,-9.928024E-2,1.5184358E-2,2.0356035E-1,6.57534E-2,-9.92356E-2,-9.090912E-3,6.2376237E-1,-4.1379333E-2,3.4036508E-1,-8.000002E-3,4.4999998E-2,2.7816632E-1,-6.702901E-2,8.7272726E-2,1.9564E-2,7.945203E-2,5.722222E-1,-7.5000017E-3,7.853846E-1,5.733333E-2,-7.5000017E-3,5.1999997E-2,-1.879197E-3,8.309524E-2,2.9230768E-2,4.1666668E-2,-3.4375023E-3,-5.0000013E-3,7.714286E-2,4.2129606E-3,2.4758061E-2,-5.0000013E-3,6E-2,-2.9000023E-3,-9.977753E-3,-2.927952E-4,4.611111E-2,2.534749E-2,1.550364E-4,-3.278691E-3,5.230769E-2,-5.000002E-3,-9.992951E-3,8.292683E-2,4.754098E-2,7.2E-2,-8.674702E-3,5.2066114E-2,2.8096512E-2,5.8894467E-2,2.0593021E-2,-8.843286E-3,5.7777774E-2,2.7797202E-2,9.0169546E-4,3.1884033E-3,7.2E-2,7.066666E-2,-7.5000017E-3,-6.6666687E-3,7.992187E-2],"categories":[],"categories_nodes":[],"categories_segments":[],"categories_sizes":[],"default_left":[0,0,0,0,0,0,0,0,0,0,0,0,0,0,0,0,0,0,0,0,0,0,0,0,0,0,0,0,0,0,0,0,0,0,0,0,0,0,0,0,0,0,0,0,0,0,0,0,0,0,0,0,0,0,0,0,0,0,0,0,0,0,0,0,0,0,0,0,0,0,0,0,0,0,0,0,0,0,0,0,0,0,0,0,0,0,0,0,0,0,0,0,0,0,0,0,0,0,0,0,0,0,0],"id":8,"left_children":[1,3,5,7,9,11,13,15,17,19,21,23,25,27,29,31,33,35,37,39,41,43,45,47,49,51,-1,53,55,57,59,-1,-1,61,63,-1,65,67,69,-1,71,73,75,77,79,81,83,-1,85,87,89,-1,-1,91,93,-1,95,97,99,-1,101,-1,-1,-1,-1,-1,-1,-1,-1,-1,-1,-1,-1,-1,-1,-1,-1,-1,-1,-1,-1,-1,-1,-1,-1,-1,-1,-1,-1,-1,-1,-1,-1,-1,-1,-1,-1,-1,-1,-1,-1,-1,-1],"loss_changes":[1.6834753E2,2.4528946E1,7.372869E1,8.031522E0,1.8507149E1,1.9464325E1,4.9745148E1,4.773578E0,6.2619286E0,9.318207E0,2.9947285E1,6.9346085E0,2.835579E0,3.7969322E1,1.8184746E1,1.4200463E0,3.4415426E0,2.4757938E0,2.5439956E0,1.2970726E1,1.0893402E0,9.530674E0,1.882884E0,4.757309E0,1.0696358E1,3.9533332E-1,0E0,2.6040894E1,2.3911556E1,3.4745998E0,2.2911682E0,0E0,0E0,1.1259441E0,1.404356E0,0E0,2.3760052E0,1.0265063E0,6.594641E-1,0E0,4.3877E0,3.6249995E-1,4.8753357E-1,3.724738E0,6.513376E0,3.3068807E0,4.4166565E-2,0E0,2.6849747E0,3.067613E0,5.1335373E0,0E0,0E0,2.363021E1,3.8602667E0,0E0,1.9876862E1,2.201323E0,1.619278E0,0E0,1.5856476E0,0E0,0E0,0E0,0E0,0E0,0E0,0E0,0E0,0E0,0E0,0E0,0E0,0E0,0E0,0E0,0E0,0E0,0E0,0E0,0E0,0E0,0E0,0E0,0E0,0E0,0E0,0E0,0E0,0E0,0E0,0E0,0E0,0E0,0E0,0E0,0E0,0E0,0E0,0E0,0E0,0E0,0E0],"parents":[2147483647,0,0,1,1,2,2,3,3,4,4,5,5,6,6,7,7,8,8,9,9,10,10,11,11,12,12,13,13,14,14,15,15,16,16,17,17,18,18,19,19,20,20,21,21,22,22,23,23,24,24,25,25,27,27,28,28,29,29,30,30,33,33,34,34,36,36,37,37,38,38,40,40,41,41,42,42,43,43,44,44,45,45,46,46,48,48,49,49,50,50,53,53,54,54,56,56,57,57,58,58,60,60],"right_children":[2,4,6,8,10,12,14,16,18,20,22,24,26,28,30,32,34,36,38,40,42,44,46,48,50,52,-1,54,56,58,60,-1,-1,62,64,-1,66,68,70,-1,72,74,76,78,80,82,84,-1,86,88,90,-1,-1,92,94,-1,96,98,100,-1,102,-1,-1,-1,-1,-1,-1,-1,-1,-1,-1,-1,-1,-1,-1,-1,-1,-1,-1,-1,-1,-1,-1,-1,-1,-1,-1,-1,-1,-1,-1,-1,-1,-1,-1,-1,-1,-1,-1,-1,-1,-1,-1],"split_conditions":[2.9344312E-3,-8.015163E-2,-9.535683E-2,-3.2404303E-3,1.1064259E0,1.7783344E1,1.0837635E-1,-1.0113542E-1,-7.2445676E-2,1.319821E-18,-7.9587294E-4,6.4041833E-3,-1.831876E-1,-2.960631E-3,-8.3107345E-2,5.1890317E-2,1.3126432E-3,-5.3445604E-2,-8.456454E-2,1.2147234E1,-7.768901E-2,1.1001497E-4,-1.8986246E-2,-9.0675786E-2,7.822745E-3,3.4052826E-2,8.042349E-3,2.6987053E-2,4.7762675E-4,6.560179E-2,-4.664935E0,-5.7520617E-2,6.5624015E-3,-5.6104684E-1,6.01424E-3,-5.9427024E-4,1.1259407E0,-1.04242064E-1,3.360166E-3,-2.9968843E-2,1.7900715E1,9.969499E0,4.450431E-18,7.069448E-2,1.9935541E-1,9.967982E0,4.603673E-4,-3.719038E-4,5.922347E-3,3.0063137E-3,-1.01325296E-1,-5.1773194E-4,6.8478766E-3,3.0542065E-3,1.00980714E-1,9.0475084E-4,-1.0503368E-1,6.4691424E-2,-1.3357121E-1,-5.067706E-4,2.605155E-15,8.795354E-3,-1.5331864E-3,5.6528747E-3,-6.502098E-5,5.54477E-3,1.0975127E-2,2.513218E-3,-1.8303446E-5,-2.3056269E-3,7.2883368E-3,8.8827795E-4,6.7390683E-3,-5.159784E-2,5.358404E-3,-7.903009E-3,-2.3006342E-2,-1.8802131E-5,3.172939E-3,7.0026033E-3,4.2010355E-4,-3.2517858E-4,1.0216968E-2,-9.160282E-4,-2.1980427E-2,2.3612725E-3,1.6401218E-3,3.1652392E-3,-1.433707E-4,8.610782E-3,4.4319103E-3,1.7741024E-3,4.6652616E-3,-7.4849726E-4,4.6174526E-3,4.2634965E-3,1.4849273E-4,1.0714324E-3,8.585716E-3,2.8997986E-3,-2.998829E-4,-1.7347932E-4,8.929515E-3],"split_indices":[17,32,30,46,15,2,33,32,40,45,26,5,36,27,44,13,17,36,32,3,32,47,34,39,1,5,0,4,23,46,12,0,0,20,1,0,9,4,5,0,3,0,19,5,45,0,5,0,1,19,33,0,0,11,33,0,32,1,6,0,43,0,0,0,0,0,0,0,0,0,0,0,0,0,0,0,0,0,0,0,0,0,0,0,0,0,0,0,0,0,0,0,0,0,0,0,0,0,0,0,0,0,0],"split_type":[0,0,0,0,0,0,0,0,0,0,0,0,0,0,0,0,0,0,0,0,0,0,0,0,0,0,0,0,0,0,0,0,0,0,0,0,0,0,0,0,0,0,0,0,0,0,0,0,0,0,0,0,0,0,0,0,0,0,0,0,0,0,0,0,0,0,0,0,0,0,0,0,0,0,0,0,0,0,0,0,0,0,0,0,0,0,0,0,0,0,0,0,0,0,0,0,0,0,0,0,0,0,0],"sum_hessian":[2.8288E4,1.8636E4,9.652E3,2.81E2,1.8355E4,7.74E2,8.878E3,1.81E2,1E2,1.574E4,2.615E3,6.88E2,8.6E1,8.657E3,2.21E2,1.2E1,1.69E2,5.7E1,4.3E1,1.706E3,1.4034E4,1.105E3,1.51E3,1.1E2,5.78E2,5E0,8.1E1,1.332E3,7.325E3,8.9E1,1.32E2,2E0,1E1,1.7E1,1.52E2,4E0,5.3E1,3.6E1,7E0,9.36E2,7.7E2,3E0,1.4031E4,4.6E2,6.45E2,7.2E1,1.438E3,1E1,1E2,8.6E1,4.92E2,4E0,1E0,1.057E3,2.75E2,3.2E1,7.293E3,7.2E1,1.7E1,3E0,1.29E2,1.4E1,3E0,4E0,1.48E2,4.1E1,1.2E1,5E0,3.1E1,1E0,6E0,6.47E2,1.23E2,1E0,2E0,9.9E1,1.3932E4,4.43E2,1.7E1,5.17E2,1.28E2,6E1,1.2E1,2.1E1,1.417E3,4E1,6E1,4E0,8.2E1,1.2E2,3.72E2,1.98E2,8.59E2,2.67E2,8E0,2.85E2,7.008E3,6.8E1,4E0,1.4E1,3E0,2E0,1.27E2],"tree_param":{"num_deleted":"0","num_feature":"48","num_nodes":"103","size_leaf_vector":"1"}},{"base_weights":[-2.19096E-2,-7.520526E-2,8.0990344E-2,1.8503647E-1,-7.90841E-2,2.5993824E-1,4.4896666E-2,7.298848E-2,3.762376E-1,-9.084849E-2,-8.323812E-3,4.5778814E-1,1.2992847E-1,3.425352E-1,3.113279E-2,3.3846152E-1,-3.6764944E-3,6.3124996E-1,1.4259256E-1,-2.3378165E-2,-9.906671E-2,1.0533451E-1,-9.134745E-2,4.9848738E-1,-5.6250025E-2,2.1978688E-1,-5.3250797E-2,2.5243443E-1,6.0898876E-1,8.7272726E-2,2.749736E-2,7.22222E-2,5.4090905E-1,4.0714285E-1,-5.0406527E-2,3.749998E-2,7.317073E-1,4.3999997E-1,2.7499977E-2,-9.989331E-3,6.9161266E-2,3.2E-1,-9.920897E-2,-2.84746E-2,1.5381771E-1,5.3164534E-2,-9.923401E-2,3.3345068E-1,6.4711535E-1,6E-2,-9.782611E-3,5.0673074E-1,1.6552344E-1,2.0606059E-1,-8.2474254E-2,3.59116E-1,2.7586183E-2,8.742857E-2,4.290909E-1,1.722404E-1,7.825934E-3,5.1999997E-2,-9.285717E-3,6.8333335E-2,-8.000002E-3,5.714284E-3,6.625E-2,4.25E-2,-6.5833363E-3,-8.57143E-3,4.4999998E-2,1.1999998E-2,7.945946E-2,5.75E-2,-7.5000017E-3,2.7272725E-2,-6.333336E-3,3.861536E-3,2.2619044E-2,-6.6666687E-3,6E-2,1.5094316E-3,-9.963522E-3,-8.165683E-3,4.2519663E-3,1.3019606E-2,5.2708335E-2,-1.4084531E-3,5.7777774E-2,-4.7619073E-3,-9.99294E-3,-9.885061E-3,5.2171715E-2,4.927374E-2,8.485075E-2,1.860463E-3,8.370968E-2,3.776923E-2,1.0023527E-2,5.8333334E-2,1.1785712E-2,-8.581317E-3,2.6666665E-2,4.516949E-2,1.828125E-2,3.826087E-2,-9.846156E-3,8.214284E-3,7.607143E-2,5.8333334E-2,1.4011763E-2,-1.0231747E-3,1.9011531E-2],"categories":[],"categories_nodes":[],"categories_segments":[],"categories_sizes":[],"default_left":[0,0,0,0,0,0,0,0,0,0,0,0,0,0,0,0,0,0,0,0,0,0,0,0,0,0,0,0,0,0,0,0,0,0,0,0,0,0,0,0,0,0,0,0,0,0,0,0,0,0,0,0,0,0,0,0,0,0,0,0,0,0,0,0,0,0,0,0,0,0,0,0,0,0,0,0,0,0,0,0,0,0,0,0,0,0,0,0,0,0,0,0,0,0,0,0,0,0,0,0,0,0,0,0,0,0,0,0,0,0,0,0,0],"id":9,"left_children":[1,3,5,7,9,11,13,15,17,19,21,23,25,27,29,31,33,35,37,39,41,43,45,47,49,51,53,55,57,-1,59,61,63,65,67,69,71,73,75,-1,77,79,81,83,85,87,89,91,93,-1,-1,95,97,99,101,103,105,-1,107,109,111,-1,-1,-1,-1,-1,-1,-1,-1,-1,-1,-1,-1,-1,-1,-1,-1,-1,-1,-1,-1,-1,-1,-1,-1,-1,-1,-1,-1,-1,-1,-1,-1,-1,-1,-1,-1,-1,-1,-1,-1,-1,-1,-1,-1,-1,-1,-1,-1,-1,-1,-1,-1],"loss_changes":[1.5514636E2,1.88275E1,6.2335976E1,5.842634E0,1.5286385E1,4.1610847E1,3.29019E1,3.5425768E0,5.927808E0,8.728622E0,2.4723364E1,1.345929E1,1.6126238E1,8.368996E0,2.347339E1,2.0630145E0,2.6313968E0,2.8355942E0,1.8362868E0,1.212193E1,8.685608E-1,7.1795473E0,1.7307854E0,1.4379013E1,1.3683424E0,1.0145987E1,2.4646802E0,6.394665E0,3.8724937E0,0E0,2.1774822E1,1.3788253E0,2.0001817E0,1.2133927E0,9.300631E-1,4.4517857E-1,1.4818611E0,1.0860002E0,9.0826523E-1,0E0,3.7086296E0,5.813333E-1,6.8515015E-1,1.1172837E0,7.090904E0,2.7952378E0,4.6783447E-2,2.3165714E1,9.28215E0,0E0,0E0,1.6755495E1,7.636215E0,1.0293831E0,3.6211824E-1,2.871704E0,3.9309034E0,0E0,6.2655964E0,1.2001253E1,2.216841E1,0E0,0E0,0E0,0E0,0E0,0E0,0E0,0E0,0E0,0E0,0E0,0E0,0E0,0E0,0E0,0E0,0E0,0E0,0E0,0E0,0E0,0E0,0E0,0E0,0E0,0E0,0E0,0E0,0E0,0E0,0E0,0E0,0E0,0E0,0E0,0E0,0E0,0E0,0E0,0E0,0E0,0E0,0E0,0E0,0E0,0E0,0E0,0E0,0E0,0E0,0E0,0E0],"parents":[2147483647,0,0,1,1,2,2,3,3,4,4,5,5,6,6,7,7,8,8,9,9,10,10,11,11,12,12,13,13,14,14,15,15,16,16,17,17,18,18,19,19,20,20,21,21,22,22,23,23,24,24,25,25,26,26,27,27,28,28,30,30,31,31,32,32,33,33,34,34,35,35,36,36,37,37,38,38,40,40,41,41,42,42,43,43,44,44,45,45,46,46,47,47,48,48,51,51,52,52,53,53,54,54,55,55,56,56,58,58,59,59,60,60],"right_children":[2,4,6,8,10,12,14,16,18,20,22,24,26,28,30,32,34,36,38,40,42,44,46,48,50,52,54,56,58,-1,60,62,64,66,68,70,72,74,76,-1,78,80,82,84,86,88,90,92,94,-1,-1,96,98,100,102,104,106,-1,108,110,112,-1,-1,-1,-1,-1,-1,-1,-1,-1,-1,-1,-1,-1,-1,-1,-1,-1,-1,-1,-1,-1,-1,-1,-1,-1,-1,-1,-1,-1,-1,-1,-1,-1,-1,-1,-1,-1,-1,-1,-1,-1,-1,-1,-1,-1,-1,-1,-1,-1,-1,-1,-1],"split_conditions":[2.9344312E-3,-8.058604E-2,-2.960631E-3,-3.2404303E-3,1.1064259E0,2.910594E-2,-1.0784063E-1,-9.320171E-2,4.0220637E-2,1.319821E-18,-7.9587294E-4,4.704092E-2,2.1554315E-2,5.8135303E-4,4.7762675E-4,2.9791028E-3,1.2791585E-3,-5.05463E-2,5.7384203E-4,1.2147234E1,-7.768901E-2,4.7524967E-18,-1.8333858E-2,1.7833933E1,1.7960002E-1,2.9987895E-3,1.7791046E1,7.537E-4,5.4141525E-3,8.142769E-4,-8.741289E-2,7.335552E-2,6.487308E-2,1.8858154E-1,6.01424E-3,-1.6663538E0,-1.2128021E-3,6.8678625E-2,-8.214383E-2,-2.6971957E-2,1.7900715E1,1.1953059E1,8.898366E-19,2.8855976E-19,2.589697E-4,9.969047E0,4.603673E-4,4.4412318E-5,1.7520395E-1,4.6404423E-3,-1.2866772E-3,3.6959834E-3,-8.473017E-2,-2.2709245E-2,2.5460014E-1,2.6417661E-2,2.5837857E-3,7.659793E-3,7.076519E-3,2.0172448E-1,9.911457E-2,5.5737975E-3,-2.7091044E-4,7.3519456E-3,-3.0863284E-5,7.479048E-3,5.38854E-3,3.7610175E-3,-1.3577106E-3,-1.8743872E-4,3.1611861E-3,3.4253837E-3,7.5872913E-3,4.1919183E-3,-1.9724965E-4,1.3425279E-3,-1.948596E-4,7.929019E-4,5.992518E-3,-4.6438057E-2,4.8225643E-3,7.0284433E-3,-2.0705564E-2,-1.2281121E-3,2.1791668E-3,4.5174137E-3,1.4108166E-2,-1.251647E-4,9.919375E-3,-5.6723726E-4,-1.979408E-2,-2.767251E-3,6.3545727E-3,2.229422E-3,7.835592E-3,9.3896984E-4,2.197075E-3,6.9244737E-3,2.1806478E-3,6.603271E-3,1.0883034E-3,-6.6028966E-4,7.368803E-4,6.364935E-3,4.705367E-3,4.393399E-3,-2.8451686E-3,2.0546129E-3,9.530662E-3,6.519211E-3,1.893699E-3,-2.1202676E-4,2.84126E-3],"split_indices":[17,32,27,46,15,5,32,34,45,45,26,19,4,25,23,5,17,36,35,3,32,7,32,3,7,37,0,35,17,0,33,13,5,19,1,12,28,45,38,0,3,0,23,11,29,3,5,29,13,0,0,43,33,46,39,23,47,0,17,13,33,0,0,0,0,0,0,0,0,0,0,0,0,0,0,0,0,0,0,0,0,0,0,0,0,0,0,0,0,0,0,0,0,0,0,0,0,0,0,0,0,0,0,0,0,0,0,0,0,0,0,0,0],"split_type":[0,0,0,0,0,0,0,0,0,0,0,0,0,0,0,0,0,0,0,0,0,0,0,0,0,0,0,0,0,0,0,0,0,0,0,0,0,0,0,0,0,0,0,0,0,0,0,0,0,0,0,0,0,0,0,0,0,0,0,0,0,0,0,0,0,0,0,0,0,0,0,0,0,0,0,0,0,0,0,0,0,0,0,0,0,0,0,0,0,0,0,0,0,0,0,0,0,0,0,0,0,0,0,0,0,0,0,0,0,0,0,0,0],"sum_hessian":[2.8288E4,1.8636E4,9.652E3,2.73E2,1.8363E4,1.619E3,8.033E3,1.73E2,1E2,1.5745E4,2.618E3,6.41E2,9.78E2,3.54E2,7.679E3,3.8E1,1.35E2,4.7E1,5.3E1,1.71E3,1.4035E4,1.105E3,1.513E3,5.94E2,4.7E1,6.56E2,3.22E2,2.66E2,8.8E1,3.2E1,7.647E3,1.7E1,2.1E1,1.3E1,1.22E2,7E0,4E1,1.4E1,3.9E1,9.36E2,7.74E2,4E0,1.4031E4,2.94E2,8.11E2,7.8E1,1.435E3,2.83E2,3.11E2,2E0,4.5E1,1.03E2,5.53E2,3.2E1,2.9E2,1.8E2,8.6E1,3.4E1,5.4E1,9.14E2,6.733E3,4E0,1.3E1,1.7E1,4E0,6E0,7E0,3E0,1.19E2,6E0,1E0,4E0,3.6E1,1.1E1,3E0,1E1,2.9E1,6.49E2,1.25E2,2E0,2E0,5.2E1,1.3979E4,1.68E2,1.26E2,7.64E2,4.7E1,7E1,8E0,2E1,1.415E3,8.6E1,1.97E2,1.78E2,1.33E2,4.2E1,6.1E1,1.29E2,4.24E2,5E0,2.7E1,2.88E2,2E0,1.17E2,6.3E1,2.2E1,6.4E1,2.7E1,2.7E1,6.5E1,8.49E2,6.127E3,6.06E2],"tree_param":{"num_deleted":"0","num_feature":"48","num_nodes":"113","size_leaf_vector":"1"}},{"base_weights":[-2.572734E-2,-7.6600336E-2,7.249557E-2,1.777372E-1,-8.0391005E-2,2.3277776E-1,4.0166765E-2,6.5340884E-2,3.7575755E-1,-9.135656E-2,-1.4433013E-2,3.8430077E-1,9.94206E-2,3.1436616E-1,2.7486956E-2,6.0999995E-1,3.2335307E-2,6.195652E-1,1.6111109E-1,-3.214288E-2,-9.963086E-2,9.086797E-2,-9.134745E-2,5.407534E-1,2.8565308E-1,1.9038814E-1,-5.3250797E-2,2.2996253E-1,5.640449E-1,8.7272726E-2,2.3836274E-2,-6.6666687E-3,7.875E-2,1.7916664E-1,-7.812502E-2,3.749998E-2,7.230769E-1,6.285714E-1,8.958331E-2,-9.635881E-2,5.749688E-2,3.2E-1,-9.977557E-2,-2.1856312E-2,1.3945664E-1,5.3164534E-2,-9.923401E-2,1.473684E-1,6.334745E-1,-8.877553E-2,3.8405403E-1,5.0673074E-1,1.1484016E-1,2.0606059E-1,-8.2474254E-2,4.6710524E-1,1.3489582E-1,6.547945E-1,1.4117645E-1,1.6131145E-1,5.1529314E-3,3.7187498E-2,2.439022E-3,4.9999775E-4,-9.870132E-3,-8.57143E-3,4.4999998E-2,7.675675E-2,-6.6666687E-3,7.5E-2,-5.0000013E-3,4.8571426E-2,2.1428547E-3,-9.896522E-3,-5.1562525E-3,-3.648651E-3,9.300339E-3,-6.6666687E-3,6E-2,-7.441863E-3,-9.984751E-3,6.3829767E-3,-8.402064E-3,1.2415652E-2,4.7878787E-2,-1.4084531E-3,5.7777774E-2,-4.7619073E-3,-9.99294E-3,7.875E-2,4.199998E-3,2.1842103E-2,7.095477E-2,-9.89691E-3,4.4999998E-2,5.95977E-2,1.9492384E-2,1.860463E-3,8.370968E-2,3.4326922E-2,4.358207E-3,5.8333334E-2,1.1785712E-2,-8.581317E-3,2.6666665E-2,7.6E-2,2.1190474E-2,1.0273222E-2,7.1E-2,3.6785714E-2,8.152174E-2,3.5555553E-2,-8.888892E-3,5.6818184E-2,1.2952939E-2,-6.8547355E-4,2.0102827E-2],"categories":[],"categories_nodes":[],"categories_segments":[],"categories_sizes":[],"default_left":[0,0,0,0,0,0,0,0,0,0,0,0,0,0,0,0,0,0,0,0,0,0,0,0,0,0,0,0,0,0,0,0,0,0,0,0,0,0,0,0,0,0,0,0,0,0,0,0,0,0,0,0,0,0,0,0,0,0,0,0,0,0,0,0,0,0,0,0,0,0,0,0,0,0,0,0,0,0,0,0,0,0,0,0,0,0,0,0,0,0,0,0,0,0,0,0,0,0,0,0,0,0,0,0,0,0,0,0,0,0,0,0,0,0,0,0,0],"id":10,"left_children":[1,3,5,7,9,11,13,15,17,19,21,23,25,27,29,31,33,35,37,39,41,43,45,47,49,51,53,55,57,-1,59,-1,-1,61,63,65,67,69,71,73,75,77,79,81,83,85,87,89,91,93,95,97,99,101,103,105,107,109,111,113,115,-1,-1,-1,-1,-1,-1,-1,-1,-1,-1,-1,-1,-1,-1,-1,-1,-1,-1,-1,-1,-1,-1,-1,-1,-1,-1,-1,-1,-1,-1,-1,-1,-1,-1,-1,-1,-1,-1,-1,-1,-1,-1,-1,-1,-1,-1,-1,-1,-1,-1,-1,-1,-1,-1,-1,-1],"loss_changes":[1.4136267E2,1.7982414E1,5.00099E1,6.073799E0,1.3280724E1,3.2696617E1,2.7923946E1,3.1441905E0,5.0810947E0,7.7115784E0,2.1220015E1,1.1544266E1,1.1995605E1,7.35149E0,2.3677402E1,1.2535832E0,2.7225766E0,2.7444096E0,1.749256E0,1.1126714E1,8.7080383E-1,6.0607452E0,1.7307854E0,1.0557373E1,1.7240307E1,1.2871195E1,2.4646802E0,5.956339E0,3.3229446E0,0E0,1.9643024E1,0E0,0E0,2.1384528E0,1.646924E-1,4.4517857E-1,1.421484E0,6.142857E-1,1.285506E0,1.2636566E-1,2.6963704E0,5.813333E-1,1.777649E-2,1.7844533E0,3.953823E0,2.7952378E0,4.6783447E-2,3.8115556E0,7.2966003E0,5.8275616E-1,1.471381E1,1.6755495E1,7.1145496E0,1.0293831E0,3.6211824E-1,5.5197144E0,3.4785635E0,3.060402E0,8.7006533E-1,1.1758434E1,1.5839785E1,0E0,0E0,0E0,0E0,0E0,0E0,0E0,0E0,0E0,0E0,0E0,0E0,0E0,0E0,0E0,0E0,0E0,0E0,0E0,0E0,0E0,0E0,0E0,0E0,0E0,0E0,0E0,0E0,0E0,0E0,0E0,0E0,0E0,0E0,0E0,0E0,0E0,0E0,0E0,0E0,0E0,0E0,0E0,0E0,0E0,0E0,0E0,0E0,0E0,0E0,0E0,0E0,0E0,0E0,0E0,0E0],"parents":[2147483647,0,0,1,1,2,2,3,3,4,4,5,5,6,6,7,7,8,8,9,9,10,10,11,11,12,12,13,13,14,14,15,15,16,16,17,17,18,18,19,19,20,20,21,21,22,22,23,23,24,24,25,25,26,26,27,27,28,28,30,30,33,33,34,34,35,35,36,36,37,37,38,38,39,39,40,40,41,41,42,42,43,43,44,44,45,45,46,46,47,47,48,48,49,49,50,50,51,51,52,52,53,53,54,54,55,55,56,56,57,57,58,58,59,59,60,60],"right_children":[2,4,6,8,10,12,14,16,18,20,22,24,26,28,30,32,34,36,38,40,42,44,46,48,50,52,54,56,58,-1,60,-1,-1,62,64,66,68,70,72,74,76,78,80,82,84,86,88,90,92,94,96,98,100,102,104,106,108,110,112,114,116,-1,-1,-1,-1,-1,-1,-1,-1,-1,-1,-1,-1,-1,-1,-1,-1,-1,-1,-1,-1,-1,-1,-1,-1,-1,-1,-1,-1,-1,-1,-1,-1,-1,-1,-1,-1,-1,-1,-1,-1,-1,-1,-1,-1,-1,-1,-1,-1,-1,-1,-1,-1,-1,-1,-1,-1],"split_conditions":[2.9344312E-3,-8.058604E-2,-2.960631E-3,-1.7222225E-3,1.1064259E0,3.4651704E-2,-1.0784063E-1,-6.3641137E-1,4.0220637E-2,2.6112384E-18,-7.9587294E-4,3.864762E-3,2.1554315E-2,5.8135303E-4,4.7762675E-4,7.9791937E0,1.9118537E-3,-5.05463E-2,3.254455E-2,1.3048995E1,-7.768901E-2,6.748269E-22,-1.8333858E-2,1.7800085E1,8.599759E-3,2.9987895E-3,1.7791046E1,-5.8632845E-1,-1.10620014E-1,7.3285104E-4,-8.741289E-2,-5.8094324E-3,3.6443414E-3,-8.808127E-2,-9.320171E-2,-1.6663538E0,7.794511E-4,1.7906118E1,-1.00554645E-1,1.2147234E1,9.987683E-18,1.1953059E1,1.2980893E-20,-1.4653697E-3,2.7374853E-4,9.969047E0,4.603673E-4,1.2926529E-4,-4.18917E0,1.2037351E-2,7.2231735E-3,3.6959834E-3,-3.7864218E-3,-2.2709245E-2,2.5460014E-1,2.6860831E-2,9.28879E-1,4.583061E-2,9.997815E-3,2.0172448E-1,9.268489E-2,5.1554097E-3,9.2611136E-4,1.2813858E-3,-2.253663E-3,-1.6869306E-4,2.8450668E-3,6.82856E-3,-7.3746446E-4,3.8389743E-3,-5.744815E-4,2.2813797E-3,2.4256682E-5,-2.3488928E-2,-5.5977874E-3,-1.3440907E-3,2.0337794E-3,-4.179425E-2,4.340309E-3,-2.083472E-2,-1.8647736E-2,6.842344E-4,-5.7096346E-3,4.2426074E-3,1.3205277E-2,-1.1264773E-4,8.927441E-3,-5.105115E-4,-1.7814672E-2,4.786146E-3,1.65987E-4,3.9428207E-3,6.032403E-3,-2.044805E-3,7.9326035E-4,6.4678597E-3,5.551883E-3,8.4507465E-4,1.9773662E-3,7.1961368E-3,7.295608E-4,5.9429407E-3,9.794713E-4,-5.9425965E-4,6.631911E-4,8.539426E-3,4.8317835E-3,6.731586E-4,6.6198944E-3,2.334267E-3,8.3085E-3,3.0711652E-3,-1.1723042E-3,5.8672917E-3,1.704329E-3,-1.3071304E-4,2.32892E-3],"split_indices":[17,32,27,46,15,5,32,8,45,45,26,11,4,25,23,0,17,36,31,2,32,41,32,0,5,37,0,6,32,0,33,0,0,32,34,12,28,3,4,3,21,0,41,27,29,3,5,47,12,1,11,43,27,46,39,23,9,1,5,13,30,0,0,0,0,0,0,0,0,0,0,0,0,0,0,0,0,0,0,0,0,0,0,0,0,0,0,0,0,0,0,0,0,0,0,0,0,0,0,0,0,0,0,0,0,0,0,0,0,0,0,0,0,0,0,0,0],"split_type":[0,0,0,0,0,0,0,0,0,0,0,0,0,0,0,0,0,0,0,0,0,0,0,0,0,0,0,0,0,0,0,0,0,0,0,0,0,0,0,0,0,0,0,0,0,0,0,0,0,0,0,0,0,0,0,0,0,0,0,0,0,0,0,0,0,0,0,0,0,0,0,0,0,0,0,0,0,0,0,0,0,0,0,0,0,0,0,0,0,0,0,0,0,0,0,0,0,0,0,0,0,0,0,0,0,0,0,0,0,0,0,0,0,0,0,0,0],"sum_hessian":[2.8288E4,1.8636E4,9.652E3,2.73E2,1.8363E4,1.619E3,8.033E3,1.75E2,9.8E1,1.5745E4,2.618E3,7.57E2,8.62E2,3.54E2,7.679E3,9E0,1.66E2,4.5E1,5.3E1,1.931E3,1.3814E4,1.105E3,1.513E3,2.91E2,4.66E2,5.4E2,3.22E2,2.66E2,8.8E1,3.2E1,7.647E3,2E0,7E0,7.1E1,9.5E1,7E0,3.8E1,6E0,4.7E1,1.125E3,8.06E2,4E0,1.381E4,3.33E2,7.72E2,7.8E1,1.435E3,5.6E1,2.35E2,9.7E1,3.69E2,1.03E2,4.37E2,3.2E1,2.9E2,7.5E1,1.91E2,7.2E1,1.6E1,9.14E2,6.733E3,3.1E1,4E1,1.9E1,7.6E1,6E0,1E0,3.6E1,2E0,5E0,1E0,6E0,4.1E1,1.062E3,6.3E1,2.21E2,5.85E2,2E0,2E0,4.2E1,1.3768E4,1.4E2,1.93E2,7.4E2,3.2E1,7E1,8E0,2E1,1.415E3,7E0,4.9E1,3.7E1,1.98E2,9.6E1,1E0,1.73E2,1.96E2,4.2E1,6.1E1,1.03E2,3.34E2,5E0,2.7E1,2.88E2,2E0,3.4E1,4.1E1,1.82E2,9E0,2.7E1,4.5E1,8E0,8E0,6.5E1,8.49E2,6.345E3,3.88E2],"tree_param":{"num_deleted":"0","num_feature":"48","num_nodes":"117","size_leaf_vector":"1"}},{"base_weights":[-2.9262282E-2,-7.6975934E-2,6.2861264E-2,-9.588562E-3,-8.849588E-2,2.672297E-1,4.215147E-2,-5.6771167E-2,6.7732535E-2,2.6929823E-1,-9.107134E-2,2.2637497E-1,6.3146067E-1,8.060193E-3,1.330962E-1,8.0902755E-2,-8.497153E-2,-7.3711365E-2,1.0035755E-1,5.0892854E-1,3.728811E-2,-9.7328715E-2,-1.2510735E-2,4.5546216E-1,1.8607035E-1,6.6588235E-1,-8.000002E-3,8.7272726E-2,3.561836E-3,3.9152044E-1,8.989748E-2,-1.9680874E-2,2.673267E-1,-9.7456954E-2,-2.6881958E-3,-7.8756504E-2,4.4999998E-2,7.935063E-2,3.2999998E-1,5.9591836E-1,-8.750002E-3,3.6923075E-1,-5.531917E-2,6.8888885E-1,-9.780575E-2,-9.983139E-3,7.756519E-2,7.106383E-1,2.8493148E-1,-5.069447E-2,2.4897957E-1,5.9384614E-1,8.571428E-2,-2.26254E-3,3.219298E-1,9.0090066E-2,5.340517E-1,-4.6353348E-2,1.4849962E-1,-4.8000026E-3,3.3571426E-2,6.520834E-2,-7.962965E-3,-5.3030327E-3,-9.991337E-3,-7.2566397E-3,1.0405404E-2,-8.376966E-3,2.6666665E-2,5.733333E-2,6.9444417E-3,-9.230772E-3,4.1896548E-2,7.1842104E-2,1.5833331E-2,5.7777774E-2,-8.000002E-3,4.4999998E-2,-7.608698E-3,7.875E-2,-5.0000013E-3,1.3506492E-2,-9.903115E-3,-9.9359E-3,1.4309521E-2,5.714284E-3,8.04878E-2,3.6065575E-2,-9.230772E-3,7.2E-2,-7.7857166E-3,6.324324E-2,2.2027832E-2,6.62E-2,3.4374997E-2,-3.9301044E-3,3.2843729E-3,1.3928569E-2,8.064517E-2,3.2323208E-3,5.230769E-2,5.7692286E-3,5.913043E-2,2.102941E-2,-7.8000026E-3,1.2463661E-2,7.120689E-2],"categories":[],"categories_nodes":[],"categories_segments":[],"categories_sizes":[],"default_left":[0,0,0,0,0,0,0,0,0,0,0,0,0,0,0,0,0,0,0,0,0,0,0,0,0,0,0,0,0,0,0,0,0,0,0,0,0,0,0,0,0,0,0,0,0,0,0,0,0,0,0,0,0,0,0,0,0,0,0,0,0,0,0,0,0,0,0,0,0,0,0,0,0,0,0,0,0,0,0,0,0,0,0,0,0,0,0,0,0,0,0,0,0,0,0,0,0,0,0,0,0,0,0,0,0,0,0],"id":11,"left_children":[1,3,5,7,9,11,13,15,17,19,21,23,25,27,29,31,33,35,37,39,41,43,45,47,49,51,-1,-1,53,55,57,59,61,63,65,67,-1,69,71,73,-1,75,77,79,81,-1,83,85,87,89,91,93,-1,95,97,99,101,103,105,-1,-1,-1,-1,-1,-1,-1,-1,-1,-1,-1,-1,-1,-1,-1,-1,-1,-1,-1,-1,-1,-1,-1,-1,-1,-1,-1,-1,-1,-1,-1,-1,-1,-1,-1,-1,-1,-1,-1,-1,-1,-1,-1,-1,-1,-1,-1,-1],"loss_changes":[1.2435056E2,1.4467033E1,4.0844364E1,9.934274E0,1.469088E1,1.3070984E1,2.7177227E1,6.5721064E0,4.769675E0,6.319043E0,7.767273E0,7.3018646E0,2.232853E0,2.4800749E1,2.6645802E1,5.4056063E0,1.4421263E0,5.480263E-1,4.0212173E0,2.9576035E0,1.8341037E0,5.5571136E0,9.186769E0,4.9758453E0,1.0170801E1,6.620903E-1,0E0,0E0,1.1766228E1,1.4645325E1,1.636731E1,1.9082379E0,1.3534794E1,1.2773132E-1,1.3949164E0,3.5654902E-1,0E0,3.7281742E0,2.668631E0,2.5129108E0,0E0,1.2641367E0,5.274746E-1,6.9513893E-1,4.187912E0,0E0,6.6806793E0,2.8485126E0,2.1186204E0,3.0705733E0,5.792694E0,8.8036346E-1,0E0,8.104658E0,9.9761095E0,2.7594566E0,6.2931824E0,5.027701E0,1.9182907E1,0E0,0E0,0E0,0E0,0E0,0E0,0E0,0E0,0E0,0E0,0E0,0E0,0E0,0E0,0E0,0E0,0E0,0E0,0E0,0E0,0E0,0E0,0E0,0E0,0E0,0E0,0E0,0E0,0E0,0E0,0E0,0E0,0E0,0E0,0E0,0E0,0E0,0E0,0E0,0E0,0E0,0E0,0E0,0E0,0E0,0E0,0E0,0E0],"parents":[2147483647,0,0,1,1,2,2,3,3,4,4,5,5,6,6,7,7,8,8,9,9,10,10,11,11,12,12,13,13,14,14,15,15,16,16,17,17,18,18,19,19,20,20,21,21,22,22,23,23,24,24,25,25,28,28,29,29,30,30,31,31,32,32,33,33,34,34,35,35,37,37,38,38,39,39,41,41,42,42,43,43,44,44,46,46,47,47,48,48,49,49,50,50,51,51,53,53,54,54,55,55,56,56,57,57,58,58],"right_children":[2,4,6,8,10,12,14,16,18,20,22,24,26,28,30,32,34,36,38,40,42,44,46,48,50,52,-1,-1,54,56,58,60,62,64,66,68,-1,70,72,74,-1,76,78,80,82,-1,84,86,88,90,92,94,-1,96,98,100,102,104,106,-1,-1,-1,-1,-1,-1,-1,-1,-1,-1,-1,-1,-1,-1,-1,-1,-1,-1,-1,-1,-1,-1,-1,-1,-1,-1,-1,-1,-1,-1,-1,-1,-1,-1,-1,-1,-1,-1,-1,-1,-1,-1,-1,-1,-1,-1,-1,-1],"split_conditions":[2.9344312E-3,1.319821E-18,-9.432525E-2,1.389702E1,-7.768901E-2,1.7783344E1,1.593267E1,1.1801208E-18,2.718901E-19,-7.2445676E-2,-1.4877694E-18,6.4041833E-3,7.927595E-2,4.7762675E-4,1.7747324E1,9.969047E0,1.2147234E1,-6.3073545E-19,1.01943936E-19,-4.7684498E-2,5.7384203E-4,7.946117E0,1.2764093E1,1.4809541E-3,4.529947E-3,5.8701527E-3,-6.913543E-5,6.5956713E-4,8.571816E-1,1.6614588E-1,1.7853481E1,9.968257E0,9.966147E0,9.968953E0,1.3895584E-17,1.2068302E-17,6.9472673E-3,-1.4544332E-1,2.4351157E-18,1.2668897E-1,-9.2792514E-5,6.565964E-2,-1.3043794E-1,5.8975887E-2,-6.249661E-1,-2.4355048E-2,-5.9641324E-17,-4.949127E0,7.467357E-1,3.0063137E-3,-8.8717574E-1,8.759834E-5,7.6604113E-3,1.3896196E1,6.699066E-2,3.2674335E-2,-3.6061567E-3,3.0137985E-3,9.1228195E-2,-1.5337078E-3,6.987676E-3,9.310714E-3,-3.206561E-3,-2.0740614E-3,-2.3831379E-2,-9.914393E-4,1.4650165E-3,-1.7318104E-3,6.6171883E-4,5.4853437E-3,1.2994024E-3,-1.1387011E-3,5.296174E-3,5.274307E-3,6.0546147E-3,5.117917E-3,-1.3387204E-5,2.0532429E-3,-4.5712726E-4,1.5035766E-2,-3.3328246E-2,3.6243133E-3,-1.6461475E-2,-7.936796E-3,4.9780607E-3,1.16539E-3,1.8080444E-3,1.4828935E-3,-3.4417873E-4,2.4889112E-3,-4.8000226E-4,7.477647E-3,4.1111233E-3,5.419981E-3,6.0045025E-3,-8.557279E-4,5.623449E-4,2.270306E-3,7.2964192E-3,1.0537001E-3,7.755068E-3,2.7335335E-3,6.4491257E-3,7.776627E-4,-2.0104416E-3,1.7062565E-3,6.767496E-3],"split_indices":[17,45,30,2,32,2,3,9,11,40,44,5,1,23,2,3,3,32,40,4,35,2,2,31,23,45,0,0,21,13,0,0,2,3,21,9,0,8,9,13,0,45,4,1,8,0,20,12,6,19,18,28,0,0,1,37,24,11,30,0,0,0,0,0,0,0,0,0,0,0,0,0,0,0,0,0,0,0,0,0,0,0,0,0,0,0,0,0,0,0,0,0,0,0,0,0,0,0,0,0,0,0,0,0,0,0,0],"split_type":[0,0,0,0,0,0,0,0,0,0,0,0,0,0,0,0,0,0,0,0,0,0,0,0,0,0,0,0,0,0,0,0,0,0,0,0,0,0,0,0,0,0,0,0,0,0,0,0,0,0,0,0,0,0,0,0,0,0,0,0,0,0,0,0,0,0,0,0,0,0,0,0,0,0,0,0,0,0,0,0,0,0,0,0,0,0,0,0,0,0,0,0,0,0,0,0,0,0,0,0,0,0,0,0,0,0,0],"sum_hessian":[2.8288E4,1.8636E4,9.652E3,2.721E3,1.5915E4,8.87E2,8.765E3,1.69E3,1.031E3,1.13E2,1.5802E4,7.99E2,8.8E1,6.376E3,2.389E3,2.87E2,1.403E3,1.93E2,8.38E2,5.5E1,5.8E1,1.4636E4,1.166E3,1.18E2,6.81E2,8.4E1,4E0,3.2E1,6.344E3,3.41E2,2.048E3,1.87E2,1E2,1.218E3,1.85E2,1.92E2,1E0,7.69E2,6.9E1,4.8E1,7E0,1.2E1,4.6E1,8E0,1.4628E4,5.92E2,5.74E2,4.6E1,7.2E1,1.43E2,5.38E2,6.4E1,2E1,6.231E3,1.13E2,1.1E2,2.31E2,6.16E2,1.432E3,1.74E2,1.3E1,4.7E1,5.3E1,6.5E1,1.153E3,1.12E2,7.3E1,1.9E2,2E0,1.4E1,7.55E2,1.2E1,5.7E1,3.7E1,1.1E1,8E0,4E0,1E0,4.5E1,7E0,1E0,7.6E1,1.4552E4,1.55E2,4.19E2,6E0,4E1,6E1,1.2E1,4E0,1.39E2,3.6E1,5.02E2,4.9E1,1.5E1,3.032E3,3.199E3,8.3E1,3E1,9.8E1,1.2E1,2.5E1,2.06E2,6.7E1,5.49E2,1.375E3,5.7E1],"tree_param":{"num_deleted":"0","num_feature":"48","num_nodes":"107","size_leaf_vector":"1"}},{"base_weights":[-3.230233E-2,-7.761981E-2,5.5195253E-2,-1.5099215E-2,-8.830739E-2,2.3569818E-1,3.690392E-2,-6.653309E-2,4.7716126E-2,2.1666664E-1,-9.050183E-2,1.9887498E-1,5.640449E-1,2.6345082E-2,3.0759877E-1,6.881718E-2,-9.7456954E-2,-4.720282E-2,7.6514326E-2,5.1086956E-1,1.7391281E-2,-9.846425E-2,-3.7481863E-2,4.218487E-1,1.596774E-1,3.7631577E-1,6.9038457E-1,8.459907E-2,-1.1160912E-2,1.14427835E-1,6.062015E-1,-5.6338264E-3,3.044776E-1,-5.3030327E-2,-9.991337E-3,1.5624997E-1,-5.9040613E-2,-4.9056627E-2,1.0191569E-1,-8.333355E-3,6.742857E-1,4.1666666E-1,-2.0312523E-2,1.5094317E-2,-9.889679E-2,-9.4448276E-2,9.9505745E-2,6.893617E-1,2.438356E-1,-3.563832E-2,2.3353533E-1,4.999998E-2,5.4399997E-1,7.2444445E-1,4.1249996E-1,1.8728715E-1,4.7257707E-2,-2.6796984E-2,1.2471696E-1,6.3586935E-2,6.2777776E-1,1.1578945E-1,6.8468463E-1,-4.023671E-3,1.2444442E-2,6.1315786E-2,-9.666669E-3,-9.833336E-3,3.4285713E-2,3.0999998E-2,-8.57143E-3,5.4347804E-3,-8.185844E-3,-7.973859E-3,6.285714E-2,7.8125E-2,8.763018E-3,4.4999998E-2,-9.090912E-3,7.7419356E-2,-8.000002E-3,6.7499995E-2,-6.6666687E-3,3.4285713E-2,-6.3793133E-3,-9.729732E-3,2.5882352E-2,-5.5914004E-3,-9.918354E-3,7.875E-2,-9.924245E-3,1.6950548E-2,-5.327893E-4,5.714284E-3,7.804878E-2,1.4259256E-2,5.05E-2,5.7777774E-2,-6.6111134E-3,1.8786514E-2,6.2745094E-2,-9.090912E-3,4.25E-2,5.714284E-3,6.9473684E-2,5.5294115E-2,8E-2,7.2E-2,-7.5000017E-3,6.367347E-2,1.6062422E-2,2.8379444E-2,1.969625E-3,2.2595497E-3,-5.1068678E-3,4.8571426E-2,6.321584E-3,4.0625E-2,3.0769208E-3,7.733333E-2,-7.5000017E-3,-9.333336E-3,7.2E-2,-8.000002E-3,7.1401864E-2],"categories":[],"categories_nodes":[],"categories_segments":[],"categories_sizes":[],"default_left":[0,0,0,0,0,0,0,0,0,0,0,0,0,0,0,0,0,0,0,0,0,0,0,0,0,0,0,0,0,0,0,0,0,0,0,0,0,0,0,0,0,0,0,0,0,0,0,0,0,0,0,0,0,0,0,0,0,0,0,0,0,0,0,0,0,0,0,0,0,0,0,0,0,0,0,0,0,0,0,0,0,0,0,0,0,0,0,0,0,0,0,0,0,0,0,0,0,0,0,0,0,0,0,0,0,0,0,0,0,0,0,0,0,0,0,0,0,0,0,0,0,0,0,0,0],"id":12,"left_children":[1,3,5,7,9,11,13,15,17,19,21,23,25,27,29,31,33,35,37,39,41,43,45,47,49,51,53,55,57,59,61,63,65,67,-1,69,71,73,75,77,79,81,83,85,87,89,91,93,95,97,99,101,103,105,107,109,111,113,115,117,119,121,123,-1,-1,-1,-1,-1,-1,-1,-1,-1,-1,-1,-1,-1,-1,-1,-1,-1,-1,-1,-1,-1,-1,-1,-1,-1,-1,-1,-1,-1,-1,-1,-1,-1,-1,-1,-1,-1,-1,-1,-1,-1,-1,-1,-1,-1,-1,-1,-1,-1,-1,-1,-1,-1,-1,-1,-1,-1,-1,-1,-1,-1,-1],"loss_changes":[1.1217498E2,1.245179E1,3.1862017E1,8.797511E0,1.0671341E1,1.0624439E1,2.5047085E1,6.2724805E0,3.3548758E0,6.674637E0,6.667816E0,6.9246635E0,1.8510685E0,1.8436909E1,1.8907808E1,4.8968134E0,1.2773132E-1,6.980368E-1,3.0064821E0,3.9085426E0,1.0472034E0,6.7633057E-1,1.6124022E1,5.498785E0,9.846594E0,2.0520844E0,1.9332886E-1,1.2664211E1,1.0911019E1,5.2060156E0,4.885807E0,9.6373785E-1,8.35557E0,1.2174177E0,0E0,6.218035E-1,7.056008E-1,3.3558834E0,7.530264E0,4.9507576E-1,2.6995E0,7.9416656E-1,1.0324854E0,1.4770184E0,1.6314697E-1,6.247115E0,4.455267E0,2.6631489E0,1.8581896E0,3.55239E0,8.787273E0,7.784091E-1,1.7949824E0,1.4076042E-1,1.25325E0,1.0455269E1,1.5803708E1,5.521807E0,1.17362175E1,2.0566578E0,1.8992786E0,2.4679298E0,2.5469933E0,0E0,0E0,0E0,0E0,0E0,0E0,0E0,0E0,0E0,0E0,0E0,0E0,0E0,0E0,0E0,0E0,0E0,0E0,0E0,0E0,0E0,0E0,0E0,0E0,0E0,0E0,0E0,0E0,0E0,0E0,0E0,0E0,0E0,0E0,0E0,0E0,0E0,0E0,0E0,0E0,0E0,0E0,0E0,0E0,0E0,0E0,0E0,0E0,0E0,0E0,0E0,0E0,0E0,0E0,0E0,0E0,0E0,0E0,0E0,0E0,0E0,0E0],"parents":[2147483647,0,0,1,1,2,2,3,3,4,4,5,5,6,6,7,7,8,8,9,9,10,10,11,11,12,12,13,13,14,14,15,15,16,16,17,17,18,18,19,19,20,20,21,21,22,22,23,23,24,24,25,25,26,26,27,27,28,28,29,29,30,30,31,31,32,32,33,33,35,35,36,36,37,37,38,38,39,39,40,40,41,41,42,42,43,43,44,44,45,45,46,46,47,47,48,48,49,49,50,50,51,51,52,52,53,53,54,54,55,55,56,56,57,57,58,58,59,59,60,60,61,61,62,62],"right_children":[2,4,6,8,10,12,14,16,18,20,22,24,26,28,30,32,34,36,38,40,42,44,46,48,50,52,54,56,58,60,62,64,66,68,-1,70,72,74,76,78,80,82,84,86,88,90,92,94,96,98,100,102,104,106,108,110,112,114,116,118,120,122,124,-1,-1,-1,-1,-1,-1,-1,-1,-1,-1,-1,-1,-1,-1,-1,-1,-1,-1,-1,-1,-1,-1,-1,-1,-1,-1,-1,-1,-1,-1,-1,-1,-1,-1,-1,-1,-1,-1,-1,-1,-1,-1,-1,-1,-1,-1,-1,-1,-1,-1,-1,-1,-1,-1,-1,-1,-1,-1,-1,-1,-1,-1],"split_conditions":[2.9344312E-3,1.319821E-18,-9.432525E-2,1.2147234E1,-7.768901E-2,1.7783344E1,1.0525801E-1,1.1801208E-18,2.8855976E-19,4.0220637E-2,3.14048E-1,6.4041833E-3,-1.1263336E-2,-2.2340547E-3,1.1252984E-2,9.969994E0,9.968953E0,-2.9906225E-18,5.1943845E-18,-4.7702156E-2,-1.04242064E-1,8.898366E-19,1.1396235E1,1.4809541E-3,4.685487E-5,-4.030525E0,1.6342742E-2,-3.6269784E-2,4.8061278E-2,6.078857E-4,-3.9090612E0,8.367516E-3,9.9685755E0,9.968919E0,-2.1448242E-2,1.2983566E-19,6.770233E-19,2.134335E-4,-4.88488E-3,2.5557082E-2,-4.7684498E-2,1.2668897E-1,3.254455E-2,1.265599E1,1.9527153E-18,8.192259E0,1.619869E-2,-4.949127E0,-5.535945E-2,5.0861854E-5,-4.9636996E-1,1.61536E-2,3.663646E-5,1.7950509E-2,-3.4377303E-3,3.0542065E-3,7.8316365E-4,-8.808127E-2,-1.7968911E-3,-2.3303693E-2,1.7814554E1,1.4980332E-3,9.987864E0,-7.7241205E-4,6.3169585E-3,7.353549E-3,-2.6966035E-3,-3.0893667E-3,2.2995712E-3,7.504463E-4,-6.675065E-4,5.680334E-4,-2.7408886E-3,-1.9923912E-3,4.8876046E-3,9.780675E-3,1.4652871E-3,2.0331324E-3,-1.3826371E-4,6.253101E-3,-8.3512066E-5,1.8479169E-3,-5.2475096E-3,2.927649E-3,-2.4828207E-4,-7.4752965E-3,2.1513252E-2,-1.2291265E-2,-1.53321875E-2,1.35321915E-2,-1.423039E-2,3.943504E-3,-7.881343E-5,1.0488511E-3,1.6272396E-3,7.155642E-4,4.3081697E-3,3.8964213E-3,-4.3200265E-4,3.3450003E-3,5.4798513E-3,-7.190945E-5,5.283791E-3,4.8477054E-4,6.115008E-3,4.564227E-3,5.4850965E-3,4.98479E-3,-9.60958E-4,8.8102213E-4,2.9568987E-3,7.803534E-4,4.4344013E-4,3.3008878E-4,-1.3375157E-3,3.2899796E-3,1.5430187E-3,2.2138401E-3,4.953133E-4,6.1348225E-3,-6.0064853E-3,-4.4513942E-4,9.153068E-4,-3.4320534E-3,6.566775E-3],"split_indices":[17,45,30,3,32,2,33,9,11,45,15,5,22,27,5,3,3,32,21,36,4,23,3,31,35,12,37,4,1,25,15,4,0,3,0,22,31,29,26,1,4,13,31,3,45,0,30,12,39,47,20,23,29,7,22,11,23,32,27,34,2,28,3,0,0,0,0,0,0,0,0,0,0,0,0,0,0,0,0,0,0,0,0,0,0,0,0,0,0,0,0,0,0,0,0,0,0,0,0,0,0,0,0,0,0,0,0,0,0,0,0,0,0,0,0,0,0,0,0,0,0,0,0,0,0],"split_type":[0,0,0,0,0,0,0,0,0,0,0,0,0,0,0,0,0,0,0,0,0,0,0,0,0,0,0,0,0,0,0,0,0,0,0,0,0,0,0,0,0,0,0,0,0,0,0,0,0,0,0,0,0,0,0,0,0,0,0,0,0,0,0,0,0,0,0,0,0,0,0,0,0,0,0,0,0,0,0,0,0,0,0,0,0,0,0,0,0,0,0,0,0,0,0,0,0,0,0,0,0,0,0,0,0,0,0,0,0,0,0,0,0,0,0,0,0,0,0,0,0,0,0,0,0],"sum_hessian":[2.8288E4,1.8636E4,9.652E3,2.721E3,1.5915E4,8.87E2,8.765E3,1.496E3,1.225E3,1.13E2,1.5802E4,7.99E2,8.8E1,8.437E3,3.28E2,2.78E2,1.218E3,2.85E2,9.4E2,4.5E1,6.8E1,1.3738E4,2.064E3,1.18E2,6.81E2,3.7E1,5.1E1,3.304E3,5.133E3,2E2,1.28E2,2.12E2,6.6E1,6.5E1,1.153E3,1.5E1,2.7E2,1.58E2,7.82E2,1.1E1,3.4E1,5E0,6.3E1,5.2E1,1.3686E4,1.458E3,6.06E2,4.6E1,7.2E1,1.87E2,4.94E2,1.3E1,2.4E1,4.4E1,7E0,8.8E2,2.424E3,4.604E3,5.29E2,1.83E2,1.7E1,1.8E1,1.1E2,1.68E2,4.4E1,3.7E1,2.9E1,5.9E1,6E0,9E0,6E0,4.5E1,2.25E2,1.52E2,6E0,1.5E1,7.67E2,1E0,1E1,3E1,4E0,3E0,2E0,6E0,5.7E1,3.6E1,1.6E1,9.2E1,1.3594E4,7E0,1.451E3,3.63E2,2.43E2,6E0,4E1,5.3E1,1.9E1,8E0,1.79E2,4.44E2,5E1,1E1,3E0,6E0,1.8E1,1.6E1,2.8E1,4E0,3E0,4.8E1,8.32E2,2.52E2,2.172E3,1.517E3,3.087E3,7.6E1,4.53E2,1.5E1,1.68E2,1.4E1,3E0,1.4E1,4E0,4E0,1.06E2],"tree_param":{"num_deleted":"0","num_feature":"48","num_nodes":"125","size_leaf_vector":"1"}},{"base_weights":[-3.43526E-2,-7.7566154E-2,4.9083162E-2,-2.3513446E-2,-8.7696746E-2,1.22771025E-1,1.2214429E-2,-6.850536E-2,3.6804426E-2,1.8879998E-1,-8.991075E-2,-4.2398673E-2,1.5993148E-1,1.9229206E-1,-2.72592E-3,5.419578E-2,-9.350466E-2,-6.0606085E-2,5.8657564E-2,4.5531914E-1,2.7848078E-2,-9.8641776E-2,-3.80677E-2,-6.384894E-2,2.8108105E-1,3.5986274E-1,1.0288365E-1,4.5648146E-1,1.1787562E-1,-1.7551426E-2,1.3080806E-1,-2.3148386E-3,2.253521E-1,-4.3956067E-2,-9.687264E-2,-7.312778E-2,5.2E-1,6.2777776E-1,4.846684E-2,-8.333355E-3,5.972222E-1,3.4374997E-1,-5.1562525E-2,-9.879168E-2,6E-2,-8.847317E-2,1.035593E-1,-8.108111E-2,4.605261E-2,4.5E-1,3.1249978E-2,4.2984188E-1,-9.871798E-3,4.0549996E-1,7.005953E-2,2.9027775E-1,7.675675E-1,5.7E-1,7.955179E-2,6.561322E-2,-4.5027375E-2,-9.166669E-2,2.9387754E-1,-2.8415325E-3,1.3823527E-2,5.4166663E-2,-9.722224E-3,-7.5294147E-3,3.4285713E-2,-9.991919E-3,-4.5333356E-3,-8.161438E-3,3.2E-2,-5.0000013E-3,6.7499995E-2,8.307692E-2,8.333332E-3,1.4708518E-2,2.0532296E-3,4.4999998E-2,-9.090912E-3,7.681818E-2,3.0666664E-2,7.2E-2,1.5833331E-2,4.4999998E-2,-6.666669E-3,-2.2706532E-9,-9.89402E-3,7.875E-2,-9.26667E-3,4.4571426E-2,8.183451E-3,-9.974814E-3,7.0588005E-4,-7.575781E-4,3.6363635E-2,2.1538459E-2,7.1E-2,4.25E-2,-9.230772E-3,9.552237E-3,4.7977272E-2,5.4306567E-2,1.04687475E-2,1.5547111E-2,2.2773086E-3,4.6666663E-2,7.941174E-3,-6.6666687E-3,8.171429E-2,8.05E-2,9.090907E-3,2.0879118E-2,3.5205968E-3,1.5512442E-3,2.8502023E-2,-6.0430896E-3,1.1376402E-2,-9.955949E-3,-1.9230793E-3,1.9638987E-2,6.9253735E-2],"categories":[],"categories_nodes":[],"categories_segments":[],"categories_sizes":[],"default_left":[0,0,0,0,0,0,0,0,0,0,0,0,0,0,0,0,0,0,0,0,0,0,0,0,0,0,0,0,0,0,0,0,0,0,0,0,0,0,0,0,0,0,0,0,0,0,0,0,0,0,0,0,0,0,0,0,0,0,0,0,0,0,0,0,0,0,0,0,0,0,0,0,0,0,0,0,0,0,0,0,0,0,0,0,0,0,0,0,0,0,0,0,0,0,0,0,0,0,0,0,0,0,0,0,0,0,0,0,0,0,0,0,0,0,0,0,0,0,0,0,0,0,0],"id":13,"left_children":[1,3,5,7,9,11,13,15,17,19,21,23,25,27,29,31,33,35,37,39,41,43,45,47,49,51,53,55,57,59,61,63,65,67,69,71,73,75,77,79,81,83,85,87,-1,89,91,93,95,97,99,101,-1,103,105,107,109,111,113,115,117,119,121,-1,-1,-1,-1,-1,-1,-1,-1,-1,-1,-1,-1,-1,-1,-1,-1,-1,-1,-1,-1,-1,-1,-1,-1,-1,-1,-1,-1,-1,-1,-1,-1,-1,-1,-1,-1,-1,-1,-1,-1,-1,-1,-1,-1,-1,-1,-1,-1,-1,-1,-1,-1,-1,-1,-1,-1,-1,-1,-1,-1],"loss_changes":[1.0200137E2,1.0203293E1,2.6223562E1,7.9892836E0,9.624931E0,1.9764301E1,1.7313395E1,5.1767755E0,2.6814914E0,5.349416E0,7.044342E0,4.1256742E0,2.9937012E1,9.638588E0,1.1767705E1,2.7667565E0,2.2953892E-1,1.7174358E0,5.9317126E0,3.0972815E0,1.9995155E0,1.4548798E0,1.604285E1,1.0567095E0,1.5473816E0,1.8751541E1,2.0294744E1,5.361189E0,6.6429296E0,1.2227852E1,2.1576569E1,7.9630804E-1,7.2971435E0,1.1289153E0,2.013197E-1,7.834605E-1,4.755E-1,1.9200859E0,2.782142E0,4.9507576E-1,1.5526619E0,1.0022082E0,5.1484376E-1,1.9548035E-1,0E0,6.1598196E0,4.349139E0,7.920985E-1,1.2971491E0,1.1890769E0,8.1764424E-1,8.400749E0,0E0,8.21944E0,7.4561415E0,2.6409388E0,1.5847015E0,3.30441E0,2.0386975E0,1.460456E1,9.84447E0,1.4215922E-1,1.3194489E1,0E0,0E0,0E0,0E0,0E0,0E0,0E0,0E0,0E0,0E0,0E0,0E0,0E0,0E0,0E0,0E0,0E0,0E0,0E0,0E0,0E0,0E0,0E0,0E0,0E0,0E0,0E0,0E0,0E0,0E0,0E0,0E0,0E0,0E0,0E0,0E0,0E0,0E0,0E0,0E0,0E0,0E0,0E0,0E0,0E0,0E0,0E0,0E0,0E0,0E0,0E0,0E0,0E0,0E0,0E0,0E0,0E0,0E0,0E0,0E0],"parents":[2147483647,0,0,1,1,2,2,3,3,4,4,5,5,6,6,7,7,8,8,9,9,10,10,11,11,12,12,13,13,14,14,15,15,16,16,17,17,18,18,19,19,20,20,21,21,22,22,23,23,24,24,25,25,26,26,27,27,28,28,29,29,30,30,31,31,32,32,33,33,34,34,35,35,36,36,37,37,38,38,39,39,40,40,41,41,42,42,43,43,45,45,46,46,47,47,48,48,49,49,50,50,51,51,53,53,54,54,55,55,56,56,57,57,58,58,59,59,60,60,61,61,62,62],"right_children":[2,4,6,8,10,12,14,16,18,20,22,24,26,28,30,32,34,36,38,40,42,44,46,48,50,52,54,56,58,60,62,64,66,68,70,72,74,76,78,80,82,84,86,88,-1,90,92,94,96,98,100,102,-1,104,106,108,110,112,114,116,118,120,122,-1,-1,-1,-1,-1,-1,-1,-1,-1,-1,-1,-1,-1,-1,-1,-1,-1,-1,-1,-1,-1,-1,-1,-1,-1,-1,-1,-1,-1,-1,-1,-1,-1,-1,-1,-1,-1,-1,-1,-1,-1,-1,-1,-1,-1,-1,-1,-1,-1,-1,-1,-1,-1,-1,-1,-1,-1,-1,-1,-1],"split_conditions":[2.9344312E-3,2.6112384E-18,-2.4477192E-3,1.3048995E1,-7.514263E-2,1.5868971E1,-1.0503368E-1,1.1801208E-18,5.1943845E-18,4.0220637E-2,2.756182E-1,5.195639E-3,1.7766499E1,-6.551697E-1,3.6966997E-1,9.970621E0,9.968953E0,2.318611E-4,-4.88488E-3,-4.7702156E-2,5.7384203E-4,7.659339E-4,1.3858409E1,4.907912E-5,3.0063137E-3,5.212716E-3,-4.230159E-3,4.8061278E-2,-1.3873307E-3,-8.023581E-2,8.365256E-2,2.1554315E-2,9.9685755E0,9.968919E0,1.2117013E1,9.479299E-20,4.9354765E-18,1.1296755E-19,-1.9092046E-3,2.5557082E-2,-5.7724588E-2,2.1758704E-2,-1.3043794E-1,-3.2429165E-1,7.0288184E-4,8.192259E0,-4.1107554E-2,4.460941E-1,1.7980488E-4,1.9216837E-4,-7.758507E-1,3.6508488E-3,-5.2083156E-4,1.4044819E-2,-2.1033907E-2,1.5476716E-3,9.769685E0,5.7286616E-2,3.8346137E-5,-4.5769134E-1,1.00980714E-1,1.4644762E-2,1.5686134E1,-1.9379855E-4,6.0923384E-3,6.8681235E-3,-2.4269463E-3,-2.538331E-3,2.0696165E-3,-1.8757483E-2,-3.0814933E-3,-1.7482663E-3,1.8029511E-3,-3.6581754E-4,4.3988465E-3,9.056145E-3,2.976489E-3,3.0900536E-3,4.8043087E-4,1.8298209E-3,-1.2443544E-4,5.9983684E-3,2.7825108E-3,2.634883E-3,8.429407E-4,1.6631245E-3,-3.8128163E-4,2.7109918E-5,-1.4013695E-2,1.217897E-2,-1.2511106E-2,1.7981873E-3,2.6657318E-3,-1.720697E-3,2.7543287E-5,-2.1427113E-4,4.829086E-3,1.1212563E-3,2.191466E-3,9.6099376E-4,-6.257839E-4,3.1482677E-3,4.1571315E-3,5.3292518E-3,3.123978E-3,1.579175E-3,3.3934077E-4,6.591809E-3,1.7469407E-3,-1.1042214E-2,6.957871E-3,2.9919564E-3,3.6730052E-3,1.8417913E-3,6.069737E-4,3.9219225E-4,3.0271492E-3,-1.3195224E-3,1.3454069E-3,-6.0687736E-3,-2.502623E-4,2.1951408E-3,5.4306756E-3],"split_indices":[17,45,27,2,32,3,32,9,21,45,15,17,0,8,39,3,3,29,26,36,35,24,2,29,19,17,27,1,28,33,33,4,0,3,0,45,9,39,27,1,4,1,4,44,0,0,32,20,47,31,16,17,0,19,4,31,0,45,29,21,33,11,3,0,0,0,0,0,0,0,0,0,0,0,0,0,0,0,0,0,0,0,0,0,0,0,0,0,0,0,0,0,0,0,0,0,0,0,0,0,0,0,0,0,0,0,0,0,0,0,0,0,0,0,0,0,0,0,0,0,0,0,0],"split_type":[0,0,0,0,0,0,0,0,0,0,0,0,0,0,0,0,0,0,0,0,0,0,0,0,0,0,0,0,0,0,0,0,0,0,0,0,0,0,0,0,0,0,0,0,0,0,0,0,0,0,0,0,0,0,0,0,0,0,0,0,0,0,0,0,0,0,0,0,0,0,0,0,0,0,0,0,0,0,0,0,0,0,0,0,0,0,0,0,0,0,0,0,0,0,0,0,0,0,0,0,0,0,0,0,0,0,0,0,0,0,0,0,0,0,0,0,0,0,0,0,0,0,0],"sum_hessian":[2.8288E4,1.8636E4,9.652E3,2.942E3,1.5694E4,3.218E3,6.434E3,1.685E3,1.257E3,1.24E2,1.557E4,5.91E2,2.627E3,4.92E2,5.942E3,2.85E2,1.4E3,2.3E2,1.027E3,4.6E1,7.8E1,1.3325E4,2.245E3,5.55E2,3.6E1,5.82E2,2.045E3,1.07E2,3.85E2,5.349E3,5.93E2,2.15E2,7E1,9E1,1.31E3,2.26E2,4E0,1.7E1,1.01E3,1.1E1,3.5E1,1.5E1,6.3E1,1.3323E4,2E0,1.656E3,5.89E2,4.8E2,7.5E1,2.1E1,1.5E1,5.05E2,7.7E1,1.99E2,1.846E3,7.1E1,3.6E1,2.9E1,3.56E2,1.328E3,4.021E3,2.51E2,3.42E2,1.82E2,3.3E1,3.5E1,3.5E1,8.4E1,6E0,1.236E3,7.4E1,2.22E2,4E0,1E0,3E0,1.2E1,5E0,2.22E2,7.88E2,1E0,1E1,2.1E1,1.4E1,4E0,1.1E1,1E0,6.2E1,2E1,1.3303E4,7E0,1.649E3,3.4E1,5.55E2,3.96E2,8.4E1,6.5E1,1E1,1.2E1,9E0,3E0,1.2E1,6.6E1,4.39E2,1.36E2,6.3E1,6.57E2,1.189E3,3.8E1,3.3E1,2E0,3.4E1,1.9E1,1E1,9E1,2.66E2,1.082E3,2.46E2,3.666E3,3.55E2,2.26E2,2.5E1,2.76E2,6.6E1],"tree_param":{"num_deleted":"0","num_feature":"48","num_nodes":"123","size_leaf_vector":"1"}},{"base_weights":[-3.6579613E-2,-7.6814964E-2,4.110637E-2,-2.5212392E-2,-8.648617E-2,1.0808863E-2,1.2192247E-1,-6.4946644E-2,2.806039E-2,2.3440857E-1,-8.839328E-2,-6.036045E-3,1.315116E-1,7.210499E-2,3.3419997E-1,5.7692286E-2,-8.993579E-2,3.2083333E-1,2.2348154E-2,-5.0000023E-2,4.5961535E-1,1.8157892E-1,-9.037446E-2,-5.9679538E-2,2.6095955E-2,1.01597026E-1,6.468085E-1,3.348684E-1,5.1917233E-2,5.5649346E-1,2.3458211E-1,2.314791E-3,2.253521E-1,4.4999998E-2,-9.0642884E-2,-8.333336E-3,4.3157893E-1,1.6515253E-2,3.04E-1,2.4999999E-1,-9.729732E-3,-8.333355E-3,5.8536583E-1,3.693548E-1,-4.1509457E-2,-9.3856335E-2,1.4199976E-2,3.3142856E-1,-6.5670356E-2,8.064688E-2,-2.448778E-2,2.05977E-1,-1.8157918E-2,9.090907E-2,7.945946E-1,8.236842E-1,1.7043476E-1,-4.5440026E-2,9.668628E-2,7.2321427E-1,4.5656562E-1,1.5125446E-1,5.681159E-1,-7.558142E-3,5.3435094E-3,5.4166663E-2,-9.722224E-3,-9.27076E-3,9.374998E-3,-8.000002E-3,5.733333E-2,-2.4851132E-4,1.0922328E-2,4.9411763E-2,-8.888892E-3,6E-2,-7.5000017E-3,-9.090912E-3,4.4999998E-2,6.394737E-2,-7.5000017E-3,4.490566E-2,-9.000002E-3,3.2E-2,-7.7551045E-3,6.888889E-2,-9.432025E-3,9.46043E-3,-8.609868E-3,4.7619026E-3,7.066666E-2,-8.579516E-3,4.322177E-4,-1.2535235E-3,1.3830713E-2,-8.043246E-3,2.3584007E-3,1.2956808E-2,3.748148E-2,-5.194032E-3,2.2826085E-2,4.25E-2,-8.750002E-3,8.4242426E-2,3.2E-2,8.75E-2,-6.6666687E-3,6.5625004E-2,9.099998E-3,1.5593218E-2,-6.6313962E-3,2.1176469E-2,3.7888866E-3,3.6923077E-2,8.113637E-2,4.9450547E-2,2.2222202E-3,5.285712E-3,4.442857E-2,6.683333E-2,-9.000002E-3],"categories":[],"categories_nodes":[],"categories_segments":[],"categories_sizes":[],"default_left":[0,0,0,0,0,0,0,0,0,0,0,0,0,0,0,0,0,0,0,0,0,0,0,0,0,0,0,0,0,0,0,0,0,0,0,0,0,0,0,0,0,0,0,0,0,0,0,0,0,0,0,0,0,0,0,0,0,0,0,0,0,0,0,0,0,0,0,0,0,0,0,0,0,0,0,0,0,0,0,0,0,0,0,0,0,0,0,0,0,0,0,0,0,0,0,0,0,0,0,0,0,0,0,0,0,0,0,0,0,0,0,0,0,0,0,0,0,0,0,0,0],"id":14,"left_children":[1,3,5,7,9,11,13,15,17,19,21,23,25,27,29,31,33,35,37,39,41,43,45,47,49,51,53,55,57,59,61,63,65,-1,67,-1,69,71,73,75,-1,77,79,81,83,85,87,89,91,93,95,97,99,101,103,105,107,109,111,113,115,117,119,-1,-1,-1,-1,-1,-1,-1,-1,-1,-1,-1,-1,-1,-1,-1,-1,-1,-1,-1,-1,-1,-1,-1,-1,-1,-1,-1,-1,-1,-1,-1,-1,-1,-1,-1,-1,-1,-1,-1,-1,-1,-1,-1,-1,-1,-1,-1,-1,-1,-1,-1,-1,-1,-1,-1,-1,-1,-1],"loss_changes":[8.842673E1,9.298775E0,2.3634308E1,6.2314296E0,9.625793E0,1.42781105E1,2.7809643E1,5.1721745E0,2.0966938E0,5.979701E0,8.361885E0,1.0624553E1,1.3191089E1,1.1297338E1,1.0941654E1,2.6548681E0,5.7567215E-1,1.1101973E0,2.0238957E0,6.202703E-1,3.064805E0,4.790862E0,5.641472E0,5.431882E0,1.06394205E1,1.0178754E1,3.789011E0,1.2077036E1,8.643122E0,2.2354507E0,9.558098E0,8.6416745E-1,7.2971435E0,0E0,5.4170036E-1,0E0,1.4237192E0,2.1334317E0,1.9112992E0,7.2749996E-1,0E0,4.9507576E-1,1.5129299E0,2.3103218E0,7.1537316E-1,5.5086365E0,4.0403676E0,3.6937144E0,3.2049036E0,9.9684725E0,5.3833075E0,5.563246E0,3.1752107E0,6.9284093E-1,5.703144E-1,1.7945175E0,4.3782034E0,2.637484E0,9.180629E0,1.4478111E0,1.6204224E0,8.021061E0,4.611021E0,0E0,0E0,0E0,0E0,0E0,0E0,0E0,0E0,0E0,0E0,0E0,0E0,0E0,0E0,0E0,0E0,0E0,0E0,0E0,0E0,0E0,0E0,0E0,0E0,0E0,0E0,0E0,0E0,0E0,0E0,0E0,0E0,0E0,0E0,0E0,0E0,0E0,0E0,0E0,0E0,0E0,0E0,0E0,0E0,0E0,0E0,0E0,0E0,0E0,0E0,0E0,0E0,0E0,0E0,0E0,0E0,0E0,0E0],"parents":[2147483647,0,0,1,1,2,2,3,3,4,4,5,5,6,6,7,7,8,8,9,9,10,10,11,11,12,12,13,13,14,14,15,15,16,16,17,17,18,18,19,19,20,20,21,21,22,22,23,23,24,24,25,25,26,26,27,27,28,28,29,29,30,30,31,31,32,32,34,34,36,36,37,37,38,38,39,39,41,41,42,42,43,43,44,44,45,45,46,46,47,47,48,48,49,49,50,50,51,51,52,52,53,53,54,54,55,55,56,56,57,57,58,58,59,59,60,60,61,61,62,62],"right_children":[2,4,6,8,10,12,14,16,18,20,22,24,26,28,30,32,34,36,38,40,42,44,46,48,50,52,54,56,58,60,62,64,66,-1,68,-1,70,72,74,76,-1,78,80,82,84,86,88,90,92,94,96,98,100,102,104,106,108,110,112,114,116,118,120,-1,-1,-1,-1,-1,-1,-1,-1,-1,-1,-1,-1,-1,-1,-1,-1,-1,-1,-1,-1,-1,-1,-1,-1,-1,-1,-1,-1,-1,-1,-1,-1,-1,-1,-1,-1,-1,-1,-1,-1,-1,-1,-1,-1,-1,-1,-1,-1,-1,-1,-1,-1,-1,-1,-1,-1,-1,-1],"split_conditions":[2.9344312E-3,2.6112384E-18,1.5955179E1,1.3048995E1,-5.525781E-1,1.33850165E-2,4.3098456E-3,1.1801208E-18,-1.4179742E-1,1.138387E-2,-7.768901E-2,1.3912559E1,1.7570483E-4,1.7734997E1,4.305078E-3,9.970621E0,-4.8014918E-1,2.551744E-4,-1.3376325E-3,-1.1116109E-3,1.3437571E-3,5.8474023E-2,4.2297205E-1,-1.1248062E-1,4.492554E-3,-8.7986976E-2,2.8592084E-2,6.736444E-5,1.7853481E1,1.7817915E1,1.9170696E1,9.968919E0,9.9685755E0,1.2915135E-4,4.5956142E-20,-5.1615835E-4,-4.693991E-2,1.7900715E1,4.450431E-18,1.1988617E-1,-1.8399016E-3,1.4953165E1,3.7569266E-2,-4.7684498E-2,-1.04242064E-1,7.946117E0,-1.4078678E-3,1.3417219E-3,2.8156561E-3,6.173706E-5,2.6748048E-3,1.0986877E-2,5.441134E-1,-1.0581958E-1,3.3342394E-1,1.0768136E-1,-6.8319344E-4,1.7747324E1,-2.8502723E-2,-2.7450135E-1,2.4158714E-2,-3.4042944E-3,9.387528E-2,-5.2016196E-3,1.7112375E-3,6.1813104E-3,-2.184254E-3,-1.4973755E-2,1.406378E-3,-2.3144484E-4,4.8772185E-3,-3.7563146E-5,3.7795254E-3,1.9313887E-2,-1.1462271E-3,4.028663E-3,-7.0905684E-5,-1.0512449E-4,1.712516E-3,2.1661245E-3,-8.930576E-3,3.609397E-3,-1.1627083E-4,1.4968098E-3,-2.3454551E-4,1.0961073E-2,-1.1913662E-2,2.4138093E-3,-4.652977E-3,7.749402E-4,2.129972E-3,-3.2861927E-3,2.5367623E-4,-8.501424E-5,9.2535437E-4,-2.255884E-3,2.5568172E-4,2.6250342E-3,4.680448E-3,-1.7265214E-3,3.049128E-3,3.1343997E-3,-2.579862E-3,5.6905868E-3,5.429685E-4,1.1146651E-2,-1.6627014E-3,2.6759468E-3,3.056144E-3,2.3139205E-3,-1.287733E-3,2.0859062E-3,4.7807093E-4,6.284003E-3,3.9408626E-3,4.515602E-3,3.0540823E-4,9.959156E-4,4.574531E-3,5.112653E-3,-1.1907758E-3],"split_indices":[17,45,3,2,4,11,17,9,8,31,32,3,29,2,43,3,8,28,26,28,17,45,22,32,31,30,22,29,0,3,2,3,0,0,44,0,6,3,19,13,0,0,7,4,4,2,24,28,41,25,5,10,21,22,7,40,28,2,4,36,1,24,1,0,0,0,0,0,0,0,0,0,0,0,0,0,0,0,0,0,0,0,0,0,0,0,0,0,0,0,0,0,0,0,0,0,0,0,0,0,0,0,0,0,0,0,0,0,0,0,0,0,0,0,0,0,0,0,0,0,0],"split_type":[0,0,0,0,0,0,0,0,0,0,0,0,0,0,0,0,0,0,0,0,0,0,0,0,0,0,0,0,0,0,0,0,0,0,0,0,0,0,0,0,0,0,0,0,0,0,0,0,0,0,0,0,0,0,0,0,0,0,0,0,0,0,0,0,0,0,0,0,0,0,0,0,0,0,0,0,0,0,0,0,0,0,0,0,0,0,0,0,0,0,0,0,0,0,0,0,0,0,0,0,0,0,0,0,0,0,0,0,0,0,0,0,0,0,0,0,0,0,0,0,0],"sum_hessian":[2.8288E4,1.8636E4,9.652E3,2.942E3,1.5694E4,7.021E3,2.631E3,1.685E3,1.257E3,9.2E1,1.5602E4,6.162E3,8.59E2,2.132E3,4.99E2,2.85E2,1.4E3,2.3E1,1.234E3,4.1E1,5.1E1,1.13E2,1.5489E4,2.308E3,3.854E3,8.13E2,4.6E1,1.51E2,1.981E3,1.53E2,3.46E2,2.15E2,7E1,1E0,1.399E3,5E0,1.8E1,1.21E3,2.4E1,5E0,3.6E1,1.1E1,4E1,6.1E1,5.2E1,1.499E4,4.99E2,3.4E1,2.274E3,1.854E3,2E3,4.34E2,3.79E2,1E1,3.6E1,3.7E1,1.14E2,6.24E2,1.357E3,5.5E1,9.8E1,2.78E2,6.8E1,8.5E1,1.3E2,3.5E1,3.5E1,1.384E3,1.5E1,4E0,1.4E1,1.005E3,2.05E2,1.6E1,8E0,2E0,3E0,1E1,1E0,3.7E1,3E0,5.2E1,9E0,4E0,4.8E1,8E0,1.4982E4,2.77E2,2.22E2,2E1,1.4E1,1.766E3,5.08E2,7.09E2,1.145E3,9.24E2,1.076E3,3E2,1.34E2,3.34E2,4.5E1,3E0,7E0,3.2E1,4E0,3.5E1,2E0,1.5E1,9.9E1,5.8E1,5.66E2,4.58E2,8.99E2,1.2E1,4.3E1,9E1,8E0,2.09E2,6.9E1,5.9E1,9E0],"tree_param":{"num_deleted":"0","num_feature":"48","num_nodes":"121","size_leaf_vector":"1"}},{"base_weights":[-3.7428E-2,-7.499064E-2,3.5097875E-2,-8.555335E-2,-2.3912387E-2,7.106214E-3,1.0976441E-1,8.9160815E-2,-8.8844195E-2,-6.9516584E-2,8.201661E-2,9.797295E-2,-8.6186975E-3,3.2603404E-1,6.9711946E-2,1.8993708E-1,-3.6718775E-2,-4.1315094E-2,-9.5342755E-2,4.6888866E-2,-9.8823555E-2,4.8611107E-1,6.623514E-2,4.4727272E-1,7.830955E-2,1.9432987E-1,-1.541252E-2,4.7312772E-1,1.4378376E-1,3.4948978E-1,4.2624544E-2,3.3623186E-1,7.692305E-2,6.0526293E-2,-7.69231E-2,2.2800472E-2,-9.205105E-2,6.597936E-2,-9.651762E-2,3.144794E-2,8E-2,-9.9383086E-2,2.6666665E-1,2.7916664E-1,8.307692E-2,2.084637E-2,1.6586204E-1,5.690476E-1,4.999998E-2,1.6107658E-1,-1.8000238E-3,3.6803275E-1,-9.863016E-3,-2.2357384E-2,1.7499998E-1,-1.2500023E-2,5.2794117E-1,5.565217E-1,8.466256E-2,4.4066665E-1,5.1063806E-2,3.4090906E-1,3.2568783E-2,4.8199996E-2,-4.5000026E-3,-7.17949E-3,1.8490564E-2,-6.206899E-3,4.0999997E-2,-8.77778E-3,4.4999998E-2,-4.8309416E-4,1.1443849E-2,-9.4950525E-3,2.0999998E-2,-5.6338054E-3,3.8518514E-2,-9.716926E-3,-3.157897E-3,-9.930072E-3,9.366664E-3,-4.210529E-3,-9.994337E-3,4.4999998E-2,-5.0000013E-3,4.9166664E-2,6.153844E-3,3.442317E-4,1.9482756E-2,7.6023373E-3,2.925E-2,3.749998E-3,6.7428574E-2,2.4999999E-2,-8.888892E-3,5.3142857E-2,1.3184853E-2,5.05E-2,-2.2869047E-3,4.84375E-2,-5.9259282E-3,-3.9562695E-3,4.3685096E-3,4.569444E-2,2.105261E-3,1.3333331E-2,-9.375002E-3,-1.5384638E-3,5.619791E-2,6.9473684E-2,-8.000002E-3,6.583333E-2,3.8815767E-3,-3.5294143E-3,4.977612E-2,3.0666664E-2,-6.666669E-3,1.7142835E-3,6.84375E-2,1.5798317E-2,4.669964E-4],"categories":[],"categories_nodes":[],"categories_segments":[],"categories_sizes":[],"default_left":[0,0,0,0,0,0,0,0,0,0,0,0,0,0,0,0,0,0,0,0,0,0,0,0,0,0,0,0,0,0,0,0,0,0,0,0,0,0,0,0,0,0,0,0,0,0,0,0,0,0,0,0,0,0,0,0,0,0,0,0,0,0,0,0,0,0,0,0,0,0,0,0,0,0,0,0,0,0,0,0,0,0,0,0,0,0,0,0,0,0,0,0,0,0,0,0,0,0,0,0,0,0,0,0,0,0,0,0,0,0,0,0,0,0,0,0,0,0,0,0,0],"id":15,"left_children":[1,3,5,7,9,11,13,15,17,19,21,23,25,27,29,31,33,35,37,39,41,43,45,47,49,51,53,55,57,59,61,63,65,67,69,71,73,75,77,79,-1,81,83,85,-1,87,89,91,93,95,97,99,-1,101,103,105,107,109,111,113,115,117,119,-1,-1,-1,-1,-1,-1,-1,-1,-1,-1,-1,-1,-1,-1,-1,-1,-1,-1,-1,-1,-1,-1,-1,-1,-1,-1,-1,-1,-1,-1,-1,-1,-1,-1,-1,-1,-1,-1,-1,