{"learner":{"attributes":{"scikit_learn":"{\"_estimator_type\": \"regressor\"}"},"feature_names":[],"feature_types":[],"gradient_booster":{"model":{"gbtree_model_param":{"num_parallel_tree":"1","num_trees":"200"},"iteration_indptr":[0,1,2,3,4,5,6,7,8,9,10,11,12,13,14,15,16,17,18,19,20,21,22,23,24,25,26,27,28,29,30,31,32,33,34,35,36,37,38,39,40,41,42,43,44,45,46,47,48,49,50,51,52,53,54,55,56,57,58,59,60,61,62,63,64,65,66,67,68,69,70,71,72,73,74,75,76,77,78,79,80,81,82,83,84,85,86,87,88,89,90,91,92,93,94,95,96,97,98,99,100,101,102,103,104,105,106,107,108,109,110,111,112,113,114,115,116,117,118,119,120,121,122,123,124,125,126,127,128,129,130,131,132,133,134,135,136,137,138,139,140,141,142,143,144,145,146,147,148,149,150,151,152,153,154,155,156,157,158,159,160,161,162,163,164,165,166,167,168,169,170,171,172,173,174,175,176,177,178,179,180,181,182,183,184,185,186,187,188,189,190,191,192,193,194,195,196,197,198,199,200],"tree_info":[0,0,0,0,0,0,0,0,0,0,0,0,0,0,0,0,0,0,0,0,0,0,0,0,0,0,0,0,0,0,0,0,0,0,0,0,0,0,0,0,0,0,0,0,0,0,0,0,0,0,0,0,0,0,0,0,0,0,0,0,0,0,0,0,0,0,0,0,0,0,0,0,0,0,0,0,0,0,0,0,0,0,0,0,0,0,0,0,0,0,0,0,0,0,0,0,0,0,0,0,0,0,0,0,0,0,0,0,0,0,0,0,0,0,0,0,0,0,0,0,0,0,0,0,0,0,0,0,0,0,0,0,0,0,0,0,0,0,0,0,0,0,0,0,0,0,0,0,0,0,0,0,0,0,0,0,0,0,0,0,0,0,0,0,0,0,0,0,0,0,0,0,0,0,0,0,0,0,0,0,0,0,0,0,0,0,0,0,0,0,0,0,0,0,0,0,0,0,0,0],"trees":[{"base_weights":[-2.3841043E-8,-4.9555417E-2,3.6369333E-1,2.10297E-1,-6.579482E-2,2.7329385E-1,7.700627E-1,8.3378375E-1,1.7815532E-1,-8.174972E-2,2.2139496E-1,6.1565655E-1,1.839403E-1,-9.729732E-3,8.22093E-1,-7.5000017E-3,8.732394E-1,5.8138293E-1,1.1760954E-1,1.1189954E-1,-8.979095E-2,6.0280895E-1,1.5941763E-1,6.976793E-1,2.892562E-1,1.0059297E-1,5.472941E-1,8.235292E-2,8.4215015E-1,-5.0000013E-3,8.871429E-2,7.473333E-1,-7.17949E-2,3.2631576E-1,2.030336E-2,-9.98124E-3,4.0546873E-1,2.7157336E-2,-9.1914505E-2,-6.666669E-2,7.5E-1,8.149508E-2,3.8274646E-1,-9.56522E-3,7.365044E-1,4.5411763E-1,-9.729732E-3,6.769497E-2,5.094203E-1,-5.416669E-2,5.8184075E-1,6.7499995E-2,-9.285717E-3,8.517301E-1,1.3333331E-1,8.226562E-2,2.9565215E-2,-9.729732E-3,2.6666665E-2,6.747826E-2,1.8456139E-2,5.107143E-2,3.734916E-4,2.2740383E-2,6.1242938E-2,2.772277E-2,-5.8843563E-3,-9.330529E-3,1.3829763E-3,2.6666665E-2,-9.677421E-3,8.214285E-2,2.8571427E-2,3.2934905E-3,6.5156244E-2,6.2384613E-2,1.780645E-2,5.105691E-2,8.184849E-2,6.112903E-2,2.9166646E-3,3.9590906E-2,1.9479629E-3,7.447916E-2,-2.7907002E-3,-9.56522E-3,4.4999998E-2,6.0706805E-2,9.523808E-3,7.102041E-2,8.979166E-2,6E-2,-8.57143E-3],"categories":[],"categories_nodes":[],"categories_segments":[],"categories_sizes":[],"default_left":[0,0,0,0,0,0,0,0,0,0,0,0,0,0,0,0,0,0,0,0,0,0,0,0,0,0,0,0,0,0,0,0,0,0,0,0,0,0,0,0,0,0,0,0,0,0,0,0,0,0,0,0,0,0,0,0,0,0,0,0,0,0,0,0,0,0,0,0,0,0,0,0,0,0,0,0,0,0,0,0,0,0,0,0,0,0,0,0,0,0,0,0,0],"id":0,"left_children":[1,3,5,7,9,11,13,15,17,19,21,23,25,-1,27,-1,29,31,33,35,37,39,41,43,45,47,49,51,53,-1,-1,55,57,59,61,-1,63,65,67,69,71,73,75,-1,77,79,-1,81,83,85,87,-1,-1,89,91,-1,-1,-1,-1,-1,-1,-1,-1,-1,-1,-1,-1,-1,-1,-1,-1,-1,-1,-1,-1,-1,-1,-1,-1,-1,-1,-1,-1,-1,-1,-1,-1,-1,-1,-1,-1,-1,-1],"loss_changes":[5.2738806E2,1.08687584E2,1.2869467E2,3.0211937E1,1.1108323E2,8.774504E1,2.8872314E1,2.7188835E0,3.5136223E1,3.5769073E1,3.0067287E1,1.5700897E1,6.896348E1,0E0,8.862549E0,0E0,9.5573044E-1,2.0431934E1,2.5480423E1,5.6971798E1,5.478302E0,1.7590263E1,1.9093996E1,1.4670212E1,7.755246E0,2.4914518E1,8.862381E0,1.8279201E0,3.865631E0,0E0,0E0,4.860077E0,3.6257797E-1,1.9584747E1,6.9615135E0,0E0,1.40120735E1,8.489785E0,3.1861877E0,3.5698926E-1,4.607147E0,2.256752E1,1.3903961E1,0E0,7.954178E0,5.659378E0,0E0,2.717956E1,1.7473846E1,5.4501814E-1,4.8769836E0,0E0,0E0,3.1404724E0,9.714285E-1,0E0,0E0,0E0,0E0,0E0,0E0,0E0,0E0,0E0,0E0,0E0,0E0,0E0,0E0,0E0,0E0,0E0,0E0,0E0,0E0,0E0,0E0,0E0,0E0,0E0,0E0,0E0,0E0,0E0,0E0,0E0,0E0,0E0,0E0,0E0,0E0,0E0,0E0],"parents":[2147483647,0,0,1,1,2,2,3,3,4,4,5,5,6,6,7,7,8,8,9,9,10,10,11,11,12,12,14,14,16,16,17,17,18,18,19,19,20,20,21,21,22,22,23,23,24,24,25,25,26,26,27,27,28,28,31,31,32,32,33,33,34,34,36,36,37,37,38,38,39,39,40,40,41,41,42,42,44,44,45,45,47,47,48,48,49,49,50,50,53,53,54,54],"right_children":[2,4,6,8,10,12,14,16,18,20,22,24,26,-1,28,-1,30,32,34,36,38,40,42,44,46,48,50,52,54,-1,-1,56,58,60,62,-1,64,66,68,70,72,74,76,-1,78,80,-1,82,84,86,88,-1,-1,90,92,-1,-1,-1,-1,-1,-1,-1,-1,-1,-1,-1,-1,-1,-1,-1,-1,-1,-1,-1,-1,-1,-1,-1,-1,-1,-1,-1,-1,-1,-1,-1,-1,-1,-1,-1,-1,-1,-1],"split_conditions":[4.601886E-3,-8.282528E-2,1.3896423E1,-3.3991036E-1,8.33554E-2,-8.4819086E-2,1.9195133E-3,1.6366988E-2,-2.9602565E-3,7.7619914E-21,-2.9602565E-3,3.4910813E-2,9.0200625E-2,-5.3084996E-3,-5.3631652E-2,-9.250403E-4,1.3767266E1,1.0862381E-2,-9.1831796E-2,1.38976145E1,-1.6410147E-1,2.9567757E0,9.2170455E-2,5.111274E-3,5.2856305E-3,5.6213945E-1,2.6646806E-3,1.5766891E1,4.797705E-2,-4.203522E-3,9.354002E-3,7.774655E-5,-4.2441774E-2,3.8303226E-2,1.9244904E-3,-3.3158597E-2,-2.380808E-21,2.0539947E-3,1.5454853E-1,4.07223E-2,9.1010734E-5,3.1942964E-1,1.6346426E-1,-6.664575E-4,-1.6764185E-1,-3.702436E0,-1.446581E-3,-9.239466E-2,1.7037272E-3,1.137179E-2,7.6955026E-1,8.416265E-3,-4.4926789E-4,4.733557E-3,-5.402765E-2,4.8028324E-3,2.1367648E-3,-3.7945455E-4,1.07151274E-4,7.0051583E-3,3.8543285E-3,7.796219E-3,5.2058534E-5,8.321053E-3,9.3010105E-3,4.94721E-3,-3.8517087E-3,-1.50121795E-2,5.786964E-4,1.07151274E-4,-5.6300056E-4,4.8164856E-3,2.2278184E-3,3.2506578E-4,1.1025306E-2,6.406665E-3,2.929309E-3,6.8028173E-3,8.09716E-3,4.6860217E-3,7.1988767E-4,7.180738E-3,3.7951552E-4,5.1333784E-4,-3.2549573E-3,-1.7311044E-4,1.4024378E-4,5.9654773E-3,3.919435E-3,5.6534093E-3,1.0816721E-2,3.8607537E-3,-6.2321423E-4],"split_indices":[17,32,0,39,33,33,11,1,27,43,27,5,33,0,45,0,0,43,32,2,46,12,33,5,45,36,23,0,5,0,0,28,38,45,17,0,30,11,46,39,28,38,13,0,6,12,0,32,22,19,10,0,0,17,4,0,0,0,0,0,0,0,0,0,0,0,0,0,0,0,0,0,0,0,0,0,0,0,0,0,0,0,0,0,0,0,0,0,0,0,0,0,0],"split_type":[0,0,0,0,0,0,0,0,0,0,0,0,0,0,0,0,0,0,0,0,0,0,0,0,0,0,0,0,0,0,0,0,0,0,0,0,0,0,0,0,0,0,0,0,0,0,0,0,0,0,0,0,0,0,0,0,0,0,0,0,0,0,0,0,0,0,0,0,0,0,0,0,0,0,0,0,0,0,0,0,0,0,0,0,0,0,0,0,0,0,0,0,0],"sum_hessian":[2.926E4,2.5752E4,3.508E3,1.514E3,2.4238E4,2.871E3,6.37E2,7.3E1,1.441E3,2.2963E4,1.275E3,5.93E2,2.278E3,3.6E1,6.01E2,3E0,7E1,1.87E2,1.254E3,9.15E2,2.2048E4,1.77E2,1.098E3,4.73E2,1.2E2,1.854E3,4.24E2,1.6E1,5.85E2,1E0,6.9E1,1.49E2,3.8E1,3.98E2,8.56E2,5.32E2,3.83E2,3.93E2,2.1655E4,3.2E1,1.45E2,8.15E2,2.83E2,2.2E1,4.51E2,8.4E1,3.6E1,1.717E3,1.37E2,2.3E1,4.01E2,3E0,1.3E1,5.77E2,8E0,1.27E2,2.2E1,3.6E1,2E0,1.14E2,2.84E2,2.7E1,8.29E2,2.07E2,1.76E2,1E2,2.93E2,2.1374E4,2.81E2,2E0,3E1,1.25E2,2E1,7.52E2,6.3E1,1.29E2,1.54E2,1.22E2,3.29E2,6.1E1,2.3E1,2.19E2,1.498E3,9.5E1,4.2E1,2.2E1,1E0,3.81E2,2E1,1.46E2,4.31E2,2E0,6E0],"tree_param":{"num_deleted":"0","num_feature":"48","num_nodes":"93","size_leaf_vector":"1"}},{"base_weights":[-6.3566077E-3,-7.676446E-2,1.8798506E-1,2.0707611E-2,-9.068421E-2,5.7442623E-1,1.3647348E-1,-6.2045716E-2,2.303947E-1,-9.3255624E-2,3.9099997E-1,7.95509E-1,4.4656354E-1,6.5251574E-2,4.1360396E-1,1.0580355E-1,-8.408693E-2,3.2124755E-1,4.1532233E-2,3.932203E-1,-9.479052E-2,5.7746476E-1,-6.3333355E-2,4.999998E-2,8.2554513E-1,3.5036495E-1,6.738372E-1,3.622727E-1,2.4448583E-2,2.042857E-1,5.252459E-1,6.2142855E-1,7.109002E-2,5.230769E-1,-8.870493E-2,4.578397E-1,1.4713654E-1,2.9218748E-1,-4.540543E-2,5.6136364E-1,-9.375002E-3,7.875E-2,-9.5164254E-2,6.596774E-1,9.999978E-3,4.4999998E-2,-9.655175E-3,6E-2,-9.166669E-3,8.548701E-1,1.2142855E-1,5.6725144E-1,1.9502072E-1,5.259615E-1,8.869565E-2,6.1140776E-1,-5.1405646E-2,2.0934486E-1,-2.6479196E-2,-3.6097586E-2,3.758741E-1,4.2588422E-1,7.3367345E-1,7.416667E-2,-6.6666687E-3,1.2422359E-2,-9.803924E-3,-8.000002E-3,8E-2,2.1978E-3,-9.494069E-3,-9.600002E-3,5.0874528E-2,4.4999975E-3,5.2708335E-2,3.4210503E-3,6.4444445E-2,3.5555553E-2,-6.5536746E-3,-8.000002E-3,6.2750004E-2,-9.913688E-3,-3.4064993E-3,-7.5000017E-3,6.983051E-2,-8.888892E-3,4.4999998E-2,8.579805E-2,-5.0000013E-3,6.7499995E-2,-9.090912E-3,-9.000002E-3,6.0432095E-2,7.87671E-3,3.6979165E-2,6.3875E-2,1.4399998E-2,6.9216214E-2,-9.767445E-3,-7.4688825E-3,5.7777774E-2,3.0513305E-2,1.10721225E-2,-5.4529062E-3,1.821029E-2,1.9999998E-2,-8.757399E-3,-9.729732E-3,4.4439998E-2,2.6431093E-2,5.591176E-2,7.851301E-2,1.730769E-2],"categories":[],"categories_nodes":[],"categories_segments":[],"categories_sizes":[],"default_left":[0,0,0,0,0,0,0,0,0,0,0,0,0,0,0,0,0,0,0,0,0,0,0,0,0,0,0,0,0,0,0,0,0,0,0,0,0,0,0,0,0,0,0,0,0,0,0,0,0,0,0,0,0,0,0,0,0,0,0,0,0,0,0,0,0,0,0,0,0,0,0,0,0,0,0,0,0,0,0,0,0,0,0,0,0,0,0,0,0,0,0,0,0,0,0,0,0,0,0,0,0,0,0,0,0,0,0,0,0,0,0,0,0],"id":1,"left_children":[1,3,5,7,9,11,13,15,17,19,21,23,25,27,29,31,33,35,37,39,41,43,45,47,49,51,53,55,57,59,61,63,65,67,69,71,73,75,77,79,-1,-1,81,83,85,-1,-1,-1,-1,87,89,91,93,95,-1,97,99,101,103,105,107,109,111,-1,-1,-1,-1,-1,-1,-1,-1,-1,-1,-1,-1,-1,-1,-1,-1,-1,-1,-1,-1,-1,-1,-1,-1,-1,-1,-1,-1,-1,-1,-1,-1,-1,-1,-1,-1,-1,-1,-1,-1,-1,-1,-1,-1,-1,-1,-1,-1,-1,-1],"loss_changes":[4.0039792E2,2.9145653E1,1.5483167E2,4.6605236E1,2.3317383E1,2.5510193E1,1.3553192E2,7.1343303E0,1.302726E1,1.3998077E1,8.508288E0,7.437729E0,1.2488419E1,6.622339E1,3.2702377E1,3.9652348E0,4.821415E0,1.2132904E1,5.4175296E0,4.8835955E0,6.221115E0,3.3057518E0,5.550115E-1,1.1458334E0,6.5242615E0,1.3736813E1,4.9541016E0,6.805221E1,4.526056E1,2.0224592E1,1.8636902E1,1.2077384E0,1.9083173E0,2.235077E0,1.1692009E0,8.140369E0,8.785348E0,5.7939005E0,1.5165985E0,1.9165678E0,0E0,0E0,4.519043E0,1.811861E0,4.7511113E-1,0E0,0E0,0E0,0E0,9.097595E-1,1.7069805E0,4.2206345E0,4.8674517E0,4.388426E0,0E0,2.3659332E1,3.690851E0,9.772179E0,2.2061218E1,2.5089726E0,9.316643E0,1.3241997E1,8.344955E0,0E0,0E0,0E0,0E0,0E0,0E0,0E0,0E0,0E0,0E0,0E0,0E0,0E0,0E0,0E0,0E0,0E0,0E0,0E0,0E0,0E0,0E0,0E0,0E0,0E0,0E0,0E0,0E0,0E0,0E0,0E0,0E0,0E0,0E0,0E0,0E0,0E0,0E0,0E0,0E0,0E0,0E0,0E0,0E0,0E0,0E0,0E0,0E0,0E0,0E0],"parents":[2147483647,0,0,1,1,2,2,3,3,4,4,5,5,6,6,7,7,8,8,9,9,10,10,11,11,12,12,13,13,14,14,15,15,16,16,17,17,18,18,19,19,20,20,21,21,22,22,23,23,24,24,25,25,26,26,27,27,28,28,29,29,30,30,31,31,32,32,33,33,34,34,35,35,36,36,37,37,38,38,39,39,42,42,43,43,44,44,49,49,50,50,51,51,52,52,53,53,55,55,56,56,57,57,58,58,59,59,60,60,61,61,62,62],"right_children":[2,4,6,8,10,12,14,16,18,20,22,24,26,28,30,32,34,36,38,40,42,44,46,48,50,52,54,56,58,60,62,64,66,68,70,72,74,76,78,80,-1,-1,82,84,86,-1,-1,-1,-1,88,90,92,94,96,-1,98,100,102,104,106,108,110,112,-1,-1,-1,-1,-1,-1,-1,-1,-1,-1,-1,-1,-1,-1,-1,-1,-1,-1,-1,-1,-1,-1,-1,-1,-1,-1,-1,-1,-1,-1,-1,-1,-1,-1,-1,-1,-1,-1,-1,-1,-1,-1,-1,-1,-1,-1,-1,-1,-1,-1],"split_conditions":[3.201565E-3,1.8577143E-18,-8.800059E-2,1.3819967E1,8.729288E-2,-9.053305E-2,8.807739E-2,9.968947E0,1.59237E1,-8.731577E-2,3.9142708E-4,-4.3633232E-1,1.3937089E1,-2.9602565E-3,5.8543853E-2,-2.2316712E-3,-3.882506E-1,-1.4653372E-3,-2.4270033E-3,4.0222902E-4,7.9840913E0,-4.897151E-2,-1.260667E-1,-5.4328796E-2,-7.623984E-2,-1.15113246E-4,1.3834294E-2,9.329493E-3,-8.7592885E-2,-7.1003186E-3,9.557141E-2,1.1721824E-2,-7.513712E-3,9.965972E0,-2.8561724E-3,1.3935807E1,5.6474745E-2,-2.3930482E-18,-4.9070608E-2,2.3252154E-2,-2.016748E-4,5.7683173E-3,-1.8730213E-18,5.9560772E-2,2.5629917E-1,5.334252E-3,-2.9366557E-4,8.729393E-3,-1.013875E-4,5.553418E-2,-4.4442054E-2,-5.8020306E0,1.6636949E-2,5.832164E-4,1.133902E-2,2.0598648E-4,1.9808784E1,-5.7885528E-2,8.081804E-2,8.962539E-2,2.4245654E-3,1.3911928E1,3.7052568E-2,1.0625388E-2,-1.2593151E-3,2.1616556E-3,-1.2707978E-2,-4.8295856E-3,2.569288E-3,2.299791E-3,-3.328428E-2,-5.0262674E-3,7.826842E-3,2.0771378E-3,9.691354E-3,1.1827957E-3,1.4318305E-2,5.703515E-3,-9.82523E-4,-5.9389474E-4,6.9186212E-3,-4.0473E-2,-2.3108283E-3,-1.8619299E-4,7.1409033E-3,-4.888177E-5,9.034038E-4,1.0399258E-2,-1.1664808E-3,3.284067E-3,-9.5766917E-4,-1.2309493E-3,5.818076E-3,6.2828773E-4,5.7099294E-3,4.97996E-3,4.377643E-3,3.7926973E-3,-2.3806335E-4,-4.0612472E-4,9.7146037E-4,4.484396E-3,1.8297987E-3,-8.156199E-4,1.646188E-3,2.780863E-3,-1.8750273E-3,-6.925984E-4,5.1935012E-3,2.6946191E-3,4.477614E-3,8.277833E-3,6.2819906E-3],"split_indices":[17,45,30,2,33,33,33,3,3,34,25,46,3,27,36,26,44,27,24,25,0,4,4,10,36,28,23,4,32,46,33,43,46,0,26,2,5,32,10,6,0,0,44,40,7,0,0,0,0,19,4,12,19,41,0,41,2,36,32,33,11,3,46,0,0,0,0,0,0,0,0,0,0,0,0,0,0,0,0,0,0,0,0,0,0,0,0,0,0,0,0,0,0,0,0,0,0,0,0,0,0,0,0,0,0,0,0,0,0,0,0,0,0],"split_type":[0,0,0,0,0,0,0,0,0,0,0,0,0,0,0,0,0,0,0,0,0,0,0,0,0,0,0,0,0,0,0,0,0,0,0,0,0,0,0,0,0,0,0,0,0,0,0,0,0,0,0,0,0,0,0,0,0,0,0,0,0,0,0,0,0,0,0,0,0,0,0,0,0,0,0,0,0,0,0,0,0,0,0,0,0,0,0,0,0,0,0,0,0,0,0,0,0,0,0,0,0,0,0,0,0,0,0,0,0,0,0,0,0],"sum_hessian":[2.926E4,2.1479E4,7.781E3,2.684E3,1.8795E4,9.14E2,6.867E3,1.925E3,7.59E2,1.8696E4,9.9E1,3.33E2,5.81E2,5.464E3,1.403E3,2.23E2,1.702E3,5.12E2,2.47E2,5.8E1,1.8638E4,7E1,2.9E1,1.3E1,3.2E2,4.1E2,1.71E2,6.59E2,4.805E3,4.89E2,9.14E2,1.3E1,2.1E2,1.2E1,1.69E3,2.86E2,2.26E2,6.3E1,1.84E2,4.3E1,1.5E1,7E0,1.8631E4,6.1E1,9E0,1E0,2.8E1,2E0,1.1E1,3.07E2,1.3E1,1.7E2,2.4E2,1.03E2,6.8E1,4.11E2,2.48E2,1.037E3,3.768E3,2.04E2,2.85E2,6.21E2,2.93E2,1.1E1,2E0,1.6E2,5E1,4E0,8E0,9E1,1.6E3,2.4E1,2.62E2,1.79E2,4.7E1,3.7E1,2.6E1,8E0,1.76E2,4E0,3.9E1,1.7493E4,1.138E3,3E0,5.8E1,8E0,1E0,3.06E2,1E0,3E0,1E1,9E0,1.61E2,1.45E2,9.5E1,7.9E1,2.4E1,3.69E2,4.2E1,2.4E2,8E0,5.25E2,5.12E2,3.322E3,4.46E2,3.6E1,1.68E2,3.6E1,2.49E2,2.82E2,3.39E2,2.68E2,2.5E1],"tree_param":{"num_deleted":"0","num_feature":"48","num_nodes":"113","size_leaf_vector":"1"}},{"base_weights":[-1.0286754E-2,-7.778573E-2,1.6206433E-1,1.2590163E-2,-9.150419E-2,5.175956E-1,1.1760686E-1,-5.939666E-2,2.0639145E-1,-9.425911E-2,3.1209674E-1,8.1991524E-1,4.1191173E-1,7.265623E-2,4.8702767E-1,4.5130618E-2,-8.6828984E-2,5.679012E-1,1.6244408E-1,-9.578909E-2,3.532258E-1,-6.451615E-2,4.329787E-1,6.439394E-1,8.8304095E-2,6.517073E-1,3.0777308E-1,3.9703122E-1,3.7391722E-2,2.7758005E-1,6.005836E-1,-5.4671302E-2,2.616541E-1,-9.776659E-2,-1.5813977E-2,-8.695675E-3,7.8305084E-1,3.5259256E-1,1.143389E-1,-9.752943E-2,4.3946166E-2,7.3888886E-1,1.9111109E-1,-9.666669E-3,4.4999998E-2,2.5490195E-1,6.2954545E-1,7.2549015E-1,3.4374997E-1,7.5785714E-1,4.1666666E-1,8.24E-1,2.785398E-1,6.450521E-1,2.49027E-2,2.75641E-1,1.3042641E-2,1.19662896E-1,5.451923E-1,8.401515E-1,5.1644903E-1,-6.784455E-3,4.8571426E-2,1.1460672E-2,5.4666664E-2,1.0666665E-2,-9.992725E-3,1.9583331E-2,-4.2187525E-3,3.2E-2,-9.473687E-3,1.9999998E-2,8.45283E-2,5.4237265E-3,5.7662338E-2,5.4838706E-2,8.757394E-3,1.833333E-2,-9.780746E-3,-9.928574E-3,2.8214285E-2,-5.0000013E-3,7.882353E-2,-9.333336E-3,3.2258064E-2,6.999998E-3,4.9545452E-2,8.136364E-2,4.2608693E-2,7.9111114E-2,1.9999998E-2,5.714284E-3,5.1E-2,7.830882E-2,-8.000002E-3,7.733333E-2,3.057692E-2,2.6666665E-2,8.608695E-2,4.4821426E-2,1.7754383E-2,7.530674E-2,3.7288112E-3,2.849315E-2,-7.7837864E-3,5.6100626E-2,1.5798967E-2,-1.7686365E-3,2.159317E-2,-2.127662E-3,6.394737E-2,1.5277776E-2,7.4202895E-2,8.546154E-2,-6.6666687E-3,3.7837815E-3,5.659942E-2],"categories":[],"categories_nodes":[],"categories_segments":[],"categories_sizes":[],"default_left":[0,0,0,0,0,0,0,0,0,0,0,0,0,0,0,0,0,0,0,0,0,0,0,0,0,0,0,0,0,0,0,0,0,0,0,0,0,0,0,0,0,0,0,0,0,0,0,0,0,0,0,0,0,0,0,0,0,0,0,0,0,0,0,0,0,0,0,0,0,0,0,0,0,0,0,0,0,0,0,0,0,0,0,0,0,0,0,0,0,0,0,0,0,0,0,0,0,0,0,0,0,0,0,0,0,0,0,0,0,0,0,0,0,0,0,0,0],"id":2,"left_children":[1,3,5,7,9,11,13,15,17,19,21,23,25,27,29,31,33,35,37,39,41,43,45,47,-1,49,51,53,55,57,59,61,63,65,67,69,71,73,75,77,79,81,83,-1,-1,85,87,89,91,93,95,97,99,101,103,105,107,109,111,113,115,-1,-1,-1,-1,-1,-1,-1,-1,-1,-1,-1,-1,-1,-1,-1,-1,-1,-1,-1,-1,-1,-1,-1,-1,-1,-1,-1,-1,-1,-1,-1,-1,-1,-1,-1,-1,-1,-1,-1,-1,-1,-1,-1,-1,-1,-1,-1,-1,-1,-1,-1,-1,-1,-1,-1,-1],"loss_changes":[3.4042108E2,2.60708E1,1.3010173E2,3.868482E1,2.0328064E1,2.889679E1,1.2153495E2,5.8018546E0,1.1839186E1,1.2448471E1,5.6731205E0,2.053009E0,1.6780373E1,7.465844E1,1.8717804E1,9.111888E0,1.2427816E0,1.0055235E1,6.09741E0,4.39917E0,3.7351317E0,5.563011E-1,3.1299E0,1.3663368E0,0E0,4.7988815E0,6.953804E0,5.905314E1,3.4159386E1,1.18099785E1,9.926254E0,2.0902374E0,5.511425E0,6.237507E-1,1.208368E0,6.807872E-1,1.9717293E0,8.992229E0,6.1904545E0,1.4117737E0,7.636184E0,7.401314E-1,1.7129176E0,0E0,0E0,2.233729E0,1.3013344E0,1.6004219E0,7.3323226E-1,3.0222473E0,2.3740654E0,2.8414917E-1,7.666088E0,2.5180695E1,6.8880625E0,1.8242554E1,3.332141E1,1.3054219E1,7.9197598E0,1.7882996E0,9.060616E0,0E0,0E0,0E0,0E0,0E0,0E0,0E0,0E0,0E0,0E0,0E0,0E0,0E0,0E0,0E0,0E0,0E0,0E0,0E0,0E0,0E0,0E0,0E0,0E0,0E0,0E0,0E0,0E0,0E0,0E0,0E0,0E0,0E0,0E0,0E0,0E0,0E0,0E0,0E0,0E0,0E0,0E0,0E0,0E0,0E0,0E0,0E0,0E0,0E0,0E0,0E0,0E0,0E0,0E0,0E0,0E0],"parents":[2147483647,0,0,1,1,2,2,3,3,4,4,5,5,6,6,7,7,8,8,9,9,10,10,11,11,12,12,13,13,14,14,15,15,16,16,17,17,18,18,19,19,20,20,21,21,22,22,23,23,25,25,26,26,27,27,28,28,29,29,30,30,31,31,32,32,33,33,34,34,35,35,36,36,37,37,38,38,39,39,40,40,41,41,42,42,45,45,46,46,47,47,48,48,49,49,50,50,51,51,52,52,53,53,54,54,55,55,56,56,57,57,58,58,59,59,60,60],"right_children":[2,4,6,8,10,12,14,16,18,20,22,24,26,28,30,32,34,36,38,40,42,44,46,48,-1,50,52,54,56,58,60,62,64,66,68,70,72,74,76,78,80,82,84,-1,-1,86,88,90,92,94,96,98,100,102,104,106,108,110,112,114,116,-1,-1,-1,-1,-1,-1,-1,-1,-1,-1,-1,-1,-1,-1,-1,-1,-1,-1,-1,-1,-1,-1,-1,-1,-1,-1,-1,-1,-1,-1,-1,-1,-1,-1,-1,-1,-1,-1,-1,-1,-1,-1,-1,-1,-1,-1,-1,-1,-1,-1,-1,-1,-1,-1,-1,-1],"split_conditions":[1.19592346E-1,2.4841714E-18,-8.800059E-2,1.3808596E1,8.083556E-2,-9.146931E-2,9.2170455E-2,-1.6772136E-2,5.4525904E-6,5.0153375E-1,5.9560772E-2,-3.8634025E-2,-2.3371106E-4,-3.0591695E-3,8.587366E-2,1.1071488E0,1.2879317E-18,4.0809473E-6,-1.9092046E-3,1.5454853E-1,6.2663285E-3,4.7414908E-1,1.5845468E1,-1.1398835E-2,9.759247E-3,4.393858E-2,5.1948302E-3,3.8359256E-3,-9.1831796E-2,1.2237145E-2,3.3150155E-2,8.0246846E-20,5.5452203E-3,7.9840913E0,-2.5666722E-18,1.3937387E1,1.5023064E-23,-1.6980395E-19,-1.2148104E-1,7.9840913E0,1.392572E1,-8.6006925E-2,1.5894358E1,-9.6932065E-4,6.304151E-3,8.865451E-2,5.734348E-3,-4.628032E-1,-8.456168E-3,-4.308177E-4,-9.361724E-2,-3.7669282E-2,-3.656235E-2,7.2665415E-3,6.4954824E-5,3.8303226E-2,2.3355272E-2,-2.0263079E-3,-8.947377E-3,1.5946877E-1,-1.3250096E-1,-3.7410704E-3,5.7069184E-3,1.7899435E-3,6.3667144E-3,1.4610201E-3,-3.207012E-2,1.1455619E-2,-7.247294E-3,7.054222E-3,-4.132348E-3,2.9944242E-3,7.4878633E-3,5.1955148E-3,9.527743E-3,7.3281266E-3,3.0321146E-3,5.1030386E-3,-3.6764152E-2,-2.739491E-2,5.3695193E-3,-1.4497221E-3,7.4012154E-3,-7.759453E-4,3.7380706E-3,1.1214194E-3,6.2218322E-3,8.868958E-3,3.5862331E-3,1.0892158E-2,9.791673E-4,4.721284E-5,2.2691844E-3,6.6265534E-3,-2.1213056E-3,6.272781E-3,5.1106587E-3,1.4342308E-3,1.9599681E-3,7.858588E-3,2.121618E-3,3.928808E-3,2.0727755E-3,1.4322996E-3,-3.1708484E-4,5.6814235E-3,3.2407697E-3,-2.1468643E-4,3.932653E-3,-3.2807366E-4,2.6646482E-3,2.982251E-3,3.8808547E-3,8.657782E-3,-1.677841E-3,1.6915062E-3,5.4730303E-3],"split_indices":[13,45,30,2,33,33,33,46,25,9,40,44,28,27,39,15,45,25,27,46,11,16,2,4,0,22,19,4,32,46,45,45,1,0,32,2,47,38,8,0,0,40,0,0,0,33,11,21,4,44,30,4,4,37,41,45,23,24,40,4,22,0,0,0,0,0,0,0,0,0,0,0,0,0,0,0,0,0,0,0,0,0,0,0,0,0,0,0,0,0,0,0,0,0,0,0,0,0,0,0,0,0,0,0,0,0,0,0,0,0,0,0,0,0,0,0,0],"split_type":[0,0,0,0,0,0,0,0,0,0,0,0,0,0,0,0,0,0,0,0,0,0,0,0,0,0,0,0,0,0,0,0,0,0,0,0,0,0,0,0,0,0,0,0,0,0,0,0,0,0,0,0,0,0,0,0,0,0,0,0,0,0,0,0,0,0,0,0,0,0,0,0,0,0,0,0,0,0,0,0,0,0,0,0,0,0,0,0,0,0,0,0,0,0,0,0,0,0,0,0,0,0,0,0,0,0,0,0,0,0,0,0,0,0,0,0,0],"sum_hessian":[2.926E4,2.1026E4,8.234E3,2.771E3,1.8255E4,9.14E2,7.32E3,2.021E3,7.5E2,1.8132E4,1.23E2,2.35E2,6.79E2,6.527E3,7.93E2,4.2E2,1.601E3,8E1,6.7E2,1.8071E4,6.1E1,3E1,9.3E1,6.5E1,1.7E2,2.04E2,4.75E2,6.39E2,5.888E3,2.8E2,5.13E2,2.88E2,1.32E2,1.387E3,2.14E2,2.2E1,5.8E1,1.34E2,5.36E2,1.7849E4,2.22E2,1.7E1,4.4E1,2.9E1,1E0,5E1,4.3E1,5E1,1.5E1,1.39E2,6.5E1,2.4E1,4.51E2,3.83E2,2.56E2,5.45E2,5.343E3,1.77E2,1.03E2,1.31E2,3.82E2,2.82E2,6E0,8.8E1,4.4E1,1.4E1,1.373E3,2.3E1,1.91E2,4E0,1.8E1,6E0,5.2E1,5.8E1,7.6E1,3E1,5.06E2,1.7E1,1.7832E4,1.39E2,8.3E1,1E0,1.6E1,1.4E1,3E1,2.9E1,2.1E1,2.1E1,2.2E1,4.4E1,6E0,6E0,9E0,1.35E2,4E0,1.4E1,5.1E1,2E0,2.2E1,1.67E2,2.84E2,3.25E2,5.8E1,7.2E1,1.84E2,1.58E2,3.87E2,4.641E3,7.02E2,1.4E2,3.7E1,3.5E1,6.8E1,1.29E2,2E0,3.6E1,3.46E2],"tree_param":{"num_deleted":"0","num_feature":"48","num_nodes":"117","size_leaf_vector":"1"}},{"base_weights":[-1.6506637E-2,-7.688213E-2,1.3765632E-1,7.289112E-3,-9.0240836E-2,6.179431E-1,1.0942278E-1,-6.0904786E-2,1.9040918E-1,-9.4307564E-2,2.5424525E-1,6.531178E-1,-1.6000023E-2,7.6509476E-2,4.5570368E-1,7.896823E-2,-7.9935126E-2,5.555555E-1,1.4800568E-1,-9.5799804E-2,3.7543857E-1,-9.870132E-3,4.5220587E-1,8.191387E-1,4.9599996E-1,4.2499998E-1,-9.545457E-3,3.6885494E-1,4.6814423E-2,7.487342E-1,3.65444E-1,6.2142855E-1,4.6861902E-2,-8.491933E-2,9.056602E-2,-8.695675E-3,7.6610166E-1,2.1190473E-1,2.4896242E-2,-9.916983E-2,-3.188408E-2,7.3888886E-1,2.0249997E-1,1.5416664E-1,5.115044E-1,7.233333E-1,8.8416666E-2,4.9999775E-3,5.412621E-1,-5.0000013E-3,6E-2,6.055415E-1,4.633181E-3,2.1969327E-1,5.7164542E-3,1.3181816E-1,8.4233576E-1,1.5352939E-1,4.6762174E-1,7.416667E-2,-6.6666687E-3,1.4887216E-2,-8.0373855E-3,-9.295688E-3,-2.7477501E-3,-4.000002E-3,3.2631576E-2,3.2E-2,-9.473687E-3,1.9999998E-2,8.2641505E-2,4.7682118E-2,8.3012795E-3,-6.832301E-3,2.0987652E-2,1.9047616E-2,-9.952254E-3,1.4439997E-2,-9.984571E-3,-5.0000013E-3,7.882353E-2,-9.000002E-3,2.9032258E-2,4.083333E-2,-9.230772E-3,2.969697E-2,5.9259262E-2,7.5E-2,1.1999998E-2,6E-2,-9.444447E-3,2.352939E-3,5.8473684E-2,7.085546E-2,3.3898072E-4,-2.3904406E-3,8E-2,3.2924693E-2,1.2585947E-2,-2.680058E-3,1.6541949E-2,-9.333336E-3,5.3749997E-2,8.7716535E-2,3.6363635E-2,-2.0175462E-3,4.9824562E-2,4.2108625E-2,8.486486E-2],"categories":[],"categories_nodes":[],"categories_segments":[],"categories_sizes":[],"default_left":[0,0,0,0,0,0,0,0,0,0,0,0,0,0,0,0,0,0,0,0,0,0,0,0,0,0,0,0,0,0,0,0,0,0,0,0,0,0,0,0,0,0,0,0,0,0,0,0,0,0,0,0,0,0,0,0,0,0,0,0,0,0,0,0,0,0,0,0,0,0,0,0,0,0,0,0,0,0,0,0,0,0,0,0,0,0,0,0,0,0,0,0,0,0,0,0,0,0,0,0,0,0,0,0,0,0,0,0,0],"id":3,"left_children":[1,3,5,7,9,11,13,15,17,19,21,23,25,27,29,31,33,35,37,39,41,-1,43,45,47,49,-1,51,53,55,57,59,61,63,65,67,69,71,73,75,77,79,81,83,85,87,-1,89,91,-1,-1,93,95,97,99,101,103,105,107,-1,-1,-1,-1,-1,-1,-1,-1,-1,-1,-1,-1,-1,-1,-1,-1,-1,-1,-1,-1,-1,-1,-1,-1,-1,-1,-1,-1,-1,-1,-1,-1,-1,-1,-1,-1,-1,-1,-1,-1,-1,-1,-1,-1,-1,-1,-1,-1,-1,-1],"loss_changes":[2.7236215E2,2.3643814E1,1.11600586E2,3.598858E1,2.544667E1,1.0200989E1,8.862434E1,5.596157E0,1.202586E1,1.2608597E1,1.4856969E1,1.0888428E1,9.1655463E-1,6.166275E1,1.7579346E1,4.359814E0,1.5789967E0,9.629538E0,5.517063E0,3.8481598E0,3.4330854E0,0E0,2.3247128E0,6.625366E-1,4.997631E0,3.6249995E-1,0E0,5.6462402E1,4.58329E1,9.012573E0,1.114444E1,1.2077384E0,3.1140306E0,8.2710457E-1,1.6444409E0,6.807872E-1,1.8491821E0,1.5735683E1,4.1700764E0,1.7540588E0,1.0760971E1,7.401314E-1,1.0536531E0,1.5411861E0,1.7897911E0,1.3579979E0,0E0,1.2400556E0,4.6229477E0,0E0,0E0,2.4623276E1,5.8978662E0,1.2695282E1,2.70759E1,2.0596437E0,1.96521E0,1.0189462E1,5.830864E0,0E0,0E0,0E0,0E0,0E0,0E0,0E0,0E0,0E0,0E0,0E0,0E0,0E0,0E0,0E0,0E0,0E0,0E0,0E0,0E0,0E0,0E0,0E0,0E0,0E0,0E0,0E0,0E0,0E0,0E0,0E0,0E0,0E0,0E0,0E0,0E0,0E0,0E0,0E0,0E0,0E0,0E0,0E0,0E0,0E0,0E0,0E0,0E0,0E0,0E0],"parents":[2147483647,0,0,1,1,2,2,3,3,4,4,5,5,6,6,7,7,8,8,9,9,10,10,11,11,12,12,13,13,14,14,15,15,16,16,17,17,18,18,19,19,20,20,22,22,23,23,24,24,25,25,27,27,28,28,29,29,30,30,31,31,32,32,33,33,34,34,35,35,36,36,37,37,38,38,39,39,40,40,41,41,42,42,43,43,44,44,45,45,47,47,48,48,51,51,52,52,53,53,54,54,55,55,56,56,57,57,58,58],"right_children":[2,4,6,8,10,12,14,16,18,20,22,24,26,28,30,32,34,36,38,40,42,-1,44,46,48,50,-1,52,54,56,58,60,62,64,66,68,70,72,74,76,78,80,82,84,86,88,-1,90,92,-1,-1,94,96,98,100,102,104,106,108,-1,-1,-1,-1,-1,-1,-1,-1,-1,-1,-1,-1,-1,-1,-1,-1,-1,-1,-1,-1,-1,-1,-1,-1,-1,-1,-1,-1,-1,-1,-1,-1,-1,-1,-1,-1,-1,-1,-1,-1,-1,-1,-1,-1,-1,-1,-1,-1,-1,-1],"split_conditions":[1.19592346E-1,3.770523E-18,-9.144537E-2,1.3808596E1,6.821368E-2,-7.623984E-2,9.261076E-2,9.968947E0,5.4525904E-6,5.0153375E-1,7.489203E-2,1.4399621E-2,-4.4442054E-2,-3.09042E-3,9.87404E-3,-2.2316712E-3,5.3893505E-3,4.0809473E-6,1.59237E1,-1.0483691E-18,6.2663285E-3,-2.6421249E-2,-1.9715145E-18,1.2611927E-2,-3.426809E-1,4.409293E-3,-1.6742755E-3,3.8359256E-3,-8.9170955E-2,2.0539947E-3,1.1286219E-1,1.1721824E-2,-1.4732269E-19,1.2879317E-18,5.3629008E-20,1.3937387E1,1.5023064E-23,-1.6552112E-3,1.7899586E1,8.049214E0,-5.2963848E-20,-8.6006925E-2,1.5894358E1,7.037925E-2,-8.2904136E-1,1.5137972E-4,9.92012E-3,4.4440333E-4,-4.3633232E-1,-3.510237E-4,2.2930086E-3,7.2665415E-3,-3.3088624E-3,-3.014461E0,8.258107E-2,3.084276E-5,1.7853586E1,1.6047229E-1,5.7639855E-1,8.926178E-3,-1.7700553E-3,1.8301532E-3,-4.8448634E-3,-2.7639305E-2,-3.5861325E-3,-1.6802365E-2,6.290593E-3,6.348801E-3,-3.719115E-3,2.6949823E-3,6.73908E-3,7.3852516E-3,3.4313432E-3,-1.0814826E-3,1.0649192E-2,4.435854E-3,-3.339822E-2,4.890656E-3,-3.393478E-2,-1.3047516E-3,6.6610924E-3,-5.049766E-4,3.3642661E-3,1.1084822E-2,-2.6649953E-4,2.7097955E-3,6.9087455E-3,4.607314E-3,1.2454748E-3,2.8942229E-4,-8.406212E-4,7.070595E-3,6.3675693E-3,3.6098473E-3,1.8655002E-3,-6.650882E-5,2.2299588E-3,4.1515166E-3,2.7804717E-3,-2.0106793E-4,2.5659415E-3,-1.2303294E-4,9.348929E-4,6.973664E-3,2.583631E-3,-3.466207E-4,3.7966182E-3,4.401348E-3,9.157776E-3],"split_indices":[13,45,30,2,34,36,33,3,25,9,12,37,4,27,37,26,27,25,3,44,11,0,32,19,9,7,0,4,32,11,39,43,39,45,17,2,47,27,3,3,44,40,0,13,8,28,0,27,46,0,0,37,24,14,30,35,2,10,39,0,0,0,0,0,0,0,0,0,0,0,0,0,0,0,0,0,0,0,0,0,0,0,0,0,0,0,0,0,0,0,0,0,0,0,0,0,0,0,0,0,0,0,0,0,0,0,0,0,0],"split_type":[0,0,0,0,0,0,0,0,0,0,0,0,0,0,0,0,0,0,0,0,0,0,0,0,0,0,0,0,0,0,0,0,0,0,0,0,0,0,0,0,0,0,0,0,0,0,0,0,0,0,0,0,0,0,0,0,0,0,0,0,0,0,0,0,0,0,0,0,0,0,0,0,0,0,0,0,0,0,0,0,0,0,0,0,0,0,0,0,0,0,0,0,0,0,0,0,0,0,0,0,0,0,0,0,0,0,0,0,0],"sum_hessian":[2.926E4,2.1026E4,8.234E3,2.88E3,1.8146E4,4.56E2,7.778E3,2.099E3,7.81E2,1.7935E4,2.11E2,4.32E2,2.4E1,7.104E3,6.74E2,2.51E2,1.848E3,8E1,7.01E2,1.7879E4,5.6E1,7.6E1,1.35E2,2.08E2,2.24E2,3E0,2.1E1,6.54E2,6.45E3,1.57E2,5.17E2,1.3E1,2.38E2,1.796E3,5.2E1,2.2E1,5.8E1,4.61E2,2.4E2,1.6983E4,8.96E2,1.7E1,3.9E1,2.3E1,1.12E2,8.9E1,1.19E2,1.9E1,2.05E2,1E0,2E0,3.96E2,2.58E2,1.238E3,5.212E3,2.1E1,1.36E2,1.69E2,3.48E2,1.1E1,2E0,1.32E2,1.06E2,1.575E3,2.21E2,3.4E1,1.8E1,4E0,1.8E1,6E0,5.2E1,1.5E2,3.11E2,1.6E2,8E1,2E1,1.6963E4,2.49E2,6.47E2,1E0,1.6E1,9E0,3E1,1.1E1,1.2E1,3.2E1,8E1,8.5E1,4E0,2E0,1.7E1,1.6E1,1.89E2,3.38E2,5.8E1,2.5E2,8E0,5.7E2,6.68E2,4.331E3,8.81E2,1.4E1,7E0,1.26E2,1E1,1.13E2,5.6E1,3.12E2,3.6E1],"tree_param":{"num_deleted":"0","num_feature":"48","num_nodes":"109","size_leaf_vector":"1"}},{"base_weights":[-2.1462038E-2,-7.640303E-2,1.2180986E-1,2.897297E-1,-7.962992E-2,5.632385E-1,9.5440865E-2,4.3867922E-1,8.8749975E-2,-8.317674E-2,2.599078E-1,4.3490908E-1,7.5300545E-1,6.556014E-2,4.0839577E-1,6.864865E-1,3.0142856E-1,4.605261E-2,7.2E-2,-4.037291E-3,-9.6017726E-2,3.9415583E-1,-6.7187525E-2,2.3656714E-1,6.190141E-1,7.8563213E-1,1.0999998E-1,3.2410912E-2,2.749738E-1,6.9932884E-1,3.2408476E-1,7.3142856E-1,-6.6666687E-3,4.530612E-1,-5.0000023E-2,1.970588E-1,-7.441863E-2,-5.8230195E-2,1.6058494E-1,-9.94629E-2,-3.19825E-2,5.191011E-1,2.1969694E-1,1.7499998E-1,-8.1967235E-2,3.736111E-1,7.619045E-2,8.4096384E-1,3.0166665E-1,7.959302E-1,-6.6666687E-3,-8.57143E-3,4.2499998E-1,1.8256807E-1,-8.2088215E-3,2.0933487E-1,8.4040403E-1,7.8782606E-1,3.885714E-1,2.2560552E-1,4.4588742E-1,4.4615384E-2,8.608695E-2,3.6585364E-2,8E-2,-9.5000025E-3,2.6666665E-2,4.7857143E-2,-2.2706532E-9,1.7499998E-2,-9.750003E-3,4.2424216E-3,-8.282946E-3,3.0984124E-2,4.381186E-3,5.3749997E-2,-9.975793E-3,1.4352939E-2,-9.984828E-3,6.813559E-2,1.9354837E-2,4.9545452E-2,7.999998E-3,-6.6666687E-3,4.4999998E-2,-9.824564E-3,1.1999998E-2,4.328125E-2,-8.888892E-3,2.2647057E-2,-9.666669E-3,8.8815786E-2,2.8749997E-2,2.8124978E-3,5.9310343E-2,8.71E-2,6.821918E-2,-5.0000013E-3,6E-2,2.7976587E-2,9.781974E-3,-5.155007E-3,9.934063E-3,4.654708E-2,1.1905509E-2,8.8E-2,-8.000002E-3,-6.6666687E-3,8.035398E-2,4.34375E-2,-7.5000017E-3,5.0410956E-2,1.3087556E-2,7.78125E-2,3.9049998E-2],"categories":[],"categories_nodes":[],"categories_segments":[],"categories_sizes":[],"default_left":[0,0,0,0,0,0,0,0,0,0,0,0,0,0,0,0,0,0,0,0,0,0,0,0,0,0,0,0,0,0,0,0,0,0,0,0,0,0,0,0,0,0,0,0,0,0,0,0,0,0,0,0,0,0,0,0,0,0,0,0,0,0,0,0,0,0,0,0,0,0,0,0,0,0,0,0,0,0,0,0,0,0,0,0,0,0,0,0,0,0,0,0,0,0,0,0,0,0,0,0,0,0,0,0,0,0,0,0,0,0,0,0,0,0,0],"id":4,"left_children":[1,3,5,7,9,11,13,15,17,19,21,23,25,27,29,31,33,35,-1,37,39,41,43,45,47,49,51,53,55,57,59,61,-1,63,65,67,69,71,73,75,77,79,81,83,85,87,89,91,93,95,-1,-1,97,99,101,103,105,107,109,111,113,-1,-1,-1,-1,-1,-1,-1,-1,-1,-1,-1,-1,-1,-1,-1,-1,-1,-1,-1,-1,-1,-1,-1,-1,-1,-1,-1,-1,-1,-1,-1,-1,-1,-1,-1,-1,-1,-1,-1,-1,-1,-1,-1,-1,-1,-1,-1,-1,-1,-1,-1,-1,-1,-1],"loss_changes":[2.3033728E2,2.5012321E1,9.435854E1,5.499197E0,2.5271744E1,1.08016815E1,7.155758E1,3.3983154E0,2.1230593E0,2.1087372E1,9.555364E0,9.895386E0,3.7527695E0,4.8508034E1,1.6134117E1,1.3011494E0,3.7528162E0,1.3972495E0,0E0,2.5863441E1,3.9356232E0,3.242817E0,2.4342984E-1,2.9166741E0,9.748108E0,1.5802689E0,6.5292865E-1,3.681104E1,3.5268173E1,3.791542E0,6.1248283E0,9.0833664E-1,0E0,1.189846E0,3.3883333E-1,1.8861345E0,2.6461047E-1,5.4037237E0,1.2500532E1,3.2373657E0,1.0889303E1,4.5693283E0,2.5028484E0,2.9583335E-1,2.1233937E-1,2.0098782E0,1.6584425E0,1.9126358E0,4.7665243E0,8.744049E-1,0E0,0E0,3.6249995E-1,1.0557629E1,2.2151089E1,1.976176E1,3.6783752E0,1.5977097E0,7.757411E-1,7.5586195E0,3.9469566E0,0E0,0E0,0E0,0E0,0E0,0E0,0E0,0E0,0E0,0E0,0E0,0E0,0E0,0E0,0E0,0E0,0E0,0E0,0E0,0E0,0E0,0E0,0E0,0E0,0E0,0E0,0E0,0E0,0E0,0E0,0E0,0E0,0E0,0E0,0E0,0E0,0E0,0E0,0E0,0E0,0E0,0E0,0E0,0E0,0E0,0E0,0E0,0E0,0E0,0E0,0E0,0E0,0E0,0E0],"parents":[2147483647,0,0,1,1,2,2,3,3,4,4,5,5,6,6,7,7,8,8,9,9,10,10,11,11,12,12,13,13,14,14,15,15,16,16,17,17,19,19,20,20,21,21,22,22,23,23,24,24,25,25,26,26,27,27,28,28,29,29,30,30,31,31,33,33,34,34,35,35,36,36,37,37,38,38,39,39,40,40,41,41,42,42,43,43,44,44,45,45,46,46,47,47,48,48,49,49,52,52,53,53,54,54,55,55,56,56,57,57,58,58,59,59,60,60],"right_children":[2,4,6,8,10,12,14,16,18,20,22,24,26,28,30,32,34,36,-1,38,40,42,44,46,48,50,52,54,56,58,60,62,-1,64,66,68,70,72,74,76,78,80,82,84,86,88,90,92,94,96,-1,-1,98,100,102,104,106,108,110,112,114,-1,-1,-1,-1,-1,-1,-1,-1,-1,-1,-1,-1,-1,-1,-1,-1,-1,-1,-1,-1,-1,-1,-1,-1,-1,-1,-1,-1,-1,-1,-1,-1,-1,-1,-1,-1,-1,-1,-1,-1,-1,-1,-1,-1,-1,-1,-1,-1,-1,-1,-1,-1,-1,-1],"split_conditions":[2.907229E-3,-7.761662E-2,-9.144537E-2,2.051631E-5,6.984906E-2,7.0096725E-1,9.261076E-2,-9.148756E-2,5.4155745E-2,5.0376348E-17,2.9333597E-3,1.6998408E-2,3.582725E-2,1.7820858E1,-4.1874555E-1,3.3213813E-2,5.2806884E-2,6.436572E-4,7.4335695E-3,1.3935341E1,-1.0483691E-18,2.051631E-5,9.984569E0,-2.4785197E-3,-1.5233465E0,-2.925133E-3,2.692547E-2,-8.865451E-2,3.936401E-3,3.0945528E-2,3.2445442E-2,1.2014455E-5,-4.9446226E-4,4.3243608E-3,-2.024073E-2,-8.180444E-2,-1.260667E-1,-1.6772136E-2,1.2559735E-22,7.9840913E0,-5.2963848E-20,8.4524445E-2,2.139139E-3,5.9804143E-3,9.147819E-2,-3.9922282E-1,1.0875833E-3,3.3896604E-1,1.1858669E1,-9.567516E-2,-1.2090802E-3,-3.1592252E-4,1.5604471E1,-3.014461E0,8.33554E-2,-3.419337E-2,1.7860813E1,-1.21868104E-1,1.0290348E-2,9.87404E-3,-8.438466E-1,5.8109206E-3,7.1074776E-3,6.3522807E-3,3.6282658E-3,-1.4766098E-3,2.9960752E-3,4.01317E-3,5.81667E-4,1.4377177E-3,-1.7560186E-3,1.2707931E-3,-2.1103883E-2,5.620011E-3,2.3876696E-3,4.2375983E-3,-3.0172665E-2,4.403365E-3,-3.055945E-2,7.2546103E-3,4.064682E-3,4.0872516E-3,1.1648205E-3,-6.193936E-4,5.7653786E-4,-5.8670123E-3,5.906701E-4,1.8002366E-3,-3.8690984E-3,9.970688E-4,-8.644703E-4,9.301829E-3,2.8626085E-3,2.479918E-3,5.5595185E-3,8.668083E-3,4.4596703E-3,-3.4165383E-5,2.0637095E-3,3.7907034E-3,1.9552375E-3,-5.6964107E-4,1.4722224E-3,3.2802473E-3,7.9281034E-4,5.538204E-3,-3.0133307E-3,-1.0746718E-5,8.112176E-3,1.8046199E-3,-1.9953966E-3,2.348596E-3,1.9240236E-3,6.458855E-3,4.724353E-3],"split_indices":[17,32,30,29,33,6,33,32,5,45,47,23,5,2,9,1,37,41,0,0,44,29,3,26,12,26,10,32,17,44,37,29,0,23,4,4,4,46,47,0,44,9,47,1,34,21,46,13,3,32,0,0,0,14,33,4,0,22,1,37,10,0,0,0,0,0,0,0,0,0,0,0,0,0,0,0,0,0,0,0,0,0,0,0,0,0,0,0,0,0,0,0,0,0,0,0,0,0,0,0,0,0,0,0,0,0,0,0,0,0,0,0,0,0,0],"split_type":[0,0,0,0,0,0,0,0,0,0,0,0,0,0,0,0,0,0,0,0,0,0,0,0,0,0,0,0,0,0,0,0,0,0,0,0,0,0,0,0,0,0,0,0,0,0,0,0,0,0,0,0,0,0,0,0,0,0,0,0,0,0,0,0,0,0,0,0,0,0,0,0,0,0,0,0,0,0,0,0,0,0,0,0,0,0,0,0,0,0,0,0,0,0,0,0,0,0,0,0,0,0,0,0,0,0,0,0,0,0,0,0,0,0,0],"sum_hessian":[2.926E4,2.115E4,8.11E3,1.84E2,2.0966E4,4.56E2,7.654E3,1.05E2,7.9E1,2.075E4,2.16E2,2.74E2,1.82E2,6.988E3,6.66E2,3.6E1,6.9E1,7.5E1,4E0,2.897E3,1.7853E4,1.53E2,6.3E1,1.33E2,1.41E2,1.73E2,9E0,6.034E3,9.54E2,1.48E2,5.18E2,3.4E1,2E0,4.8E1,2.1E1,3.3E1,4.2E1,2.18E3,7.17E2,1.6941E4,9.12E2,8.8E1,6.5E1,3E0,6E1,7.1E1,6.2E1,8.2E1,5.9E1,1.71E2,2E0,6E0,3E0,1.284E3,4.75E3,8.56E2,9.8E1,1.14E2,3.4E1,2.88E2,2.3E2,1.2E1,2.2E1,4E1,8E0,1.9E1,2E0,1.3E1,2E1,3E0,3.9E1,4.28E2,1.752E3,3.14E2,4.03E2,7E0,1.6934E4,2.54E2,6.58E2,5.8E1,3E1,2.1E1,4.4E1,2E0,1E0,5.6E1,4E0,6.3E1,8E0,3.3E1,2.9E1,7.5E1,7E0,3.1E1,2.8E1,9.9E1,7.2E1,1E0,2E0,5.97E2,6.87E2,3.386E3,1.364E3,2.22E2,6.34E2,9.4E1,4E0,2E0,1.12E2,3.1E1,3E0,7.2E1,2.16E2,3.1E1,1.99E2],"tree_param":{"num_deleted":"0","num_feature":"48","num_nodes":"115","size_leaf_vector":"1"}},{"base_weights":[-2.9151455E-2,2.5085056E-1,-5.163365E-2,5.769461E-1,1.9158521E-1,-6.951403E-2,2.4667099E-1,7.690789E-1,4.1420764E-1,3.1309706E-1,1.2537687E-1,1.4536677E-1,-7.395665E-2,2.0983024E-1,6.823529E-1,8.519608E-2,5.8823526E-1,7.2884613E-1,2.8712118E-1,2.1365382E-1,7.084615E-1,1.6806E-1,-2.7099261E-2,5.5741604E-2,5.1485145E-1,-8.696053E-2,-1.1673626E-2,3.7697673E-1,1.3664973E-1,8.64151E-2,5.2835816E-1,-6.6666687E-3,6.163265E-1,-8.000002E-3,7.9791665E-1,6.869565E-1,2.0090906E-1,4.3318775E-1,4.07534E-2,-3.1250022E-2,8.052174E-1,1.4676337E-1,6.657894E-1,6.363636E-1,-5.5952404E-2,1.6708838E-2,6.958333E-1,7.522388E-1,4.5714263E-2,4.7578923E-2,-9.011366E-2,-6.995001E-2,7.598377E-2,7.89899E-1,2.5271082E-1,5.7170518E-2,2.23617E-1,7.2749996E-1,2.2499998E-1,-5.0000013E-3,6.3125E-2,-5.0000013E-3,8.170213E-2,2.4999999E-2,7.9444446E-2,3.2765955E-2,1.04687475E-2,5.3641975E-2,1.8088235E-2,3.0249998E-2,-7.905376E-5,4.4999998E-2,-9.333336E-3,1.1999998E-2,8.288288E-2,3.1639997E-2,8.098916E-3,3.749998E-3,8.064517E-2,7.875E-2,1.7499998E-2,6E-2,-6.360003E-3,-6.538464E-3,1.3518517E-2,8.5E-2,1.9999998E-2,8.338983E-2,1.3333331E-2,2.3999998E-2,-9.523812E-3,-4.575838E-3,4.6436783E-2,-9.392133E-3,-1.494373E-3,1.8237883E-2,-9.405818E-3,2.6218636E-2,-1.2809589E-3,4.0499996E-2,8.7625E-2,9.222796E-3,4.7214285E-2,4.875E-2,3.6105455E-3,1.8755654E-2,7.655173E-2,8.71875E-2,1.3333331E-2,5.3749997E-2,9.523808E-3],"categories":[],"categories_nodes":[],"categories_segments":[],"categories_sizes":[],"default_left":[0,0,0,0,0,0,0,0,0,0,0,0,0,0,0,0,0,0,0,0,0,0,0,0,0,0,0,0,0,0,0,0,0,0,0,0,0,0,0,0,0,0,0,0,0,0,0,0,0,0,0,0,0,0,0,0,0,0,0,0,0,0,0,0,0,0,0,0,0,0,0,0,0,0,0,0,0,0,0,0,0,0,0,0,0,0,0,0,0,0,0,0,0,0,0,0,0,0,0,0,0,0,0,0,0,0,0,0,0,0,0],"id":5,"left_children":[1,3,5,7,9,11,13,15,17,19,21,23,25,27,29,-1,31,33,35,37,39,41,43,45,47,49,51,53,55,-1,57,-1,59,-1,61,63,65,67,69,71,73,75,77,79,81,83,85,87,89,91,93,95,97,99,101,103,105,107,109,-1,-1,-1,-1,-1,-1,-1,-1,-1,-1,-1,-1,-1,-1,-1,-1,-1,-1,-1,-1,-1,-1,-1,-1,-1,-1,-1,-1,-1,-1,-1,-1,-1,-1,-1,-1,-1,-1,-1,-1,-1,-1,-1,-1,-1,-1,-1,-1,-1,-1,-1,-1],"loss_changes":[1.8421268E2,4.192386E1,1.4449384E2,1.01247635E1,1.4779816E1,2.4407372E1,2.4446724E1,1.7771149E0,7.108227E0,2.5364922E1,7.7752953E0,1.7124935E1,2.027861E1,1.7244343E1,2.8749352E0,0E0,9.793358E-1,2.968937E0,4.4121103E0,1.9720251E1,9.3294525E0,9.792049E0,5.0510693E0,1.0431915E1,1.1213703E1,8.79158E0,2.2104061E1,2.1864613E1,6.795624E0,0E0,3.8838692E0,0E0,5.188122E-1,0E0,8.1840897E-1,8.8164234E-1,1.3072734E0,5.867504E0,3.1754422E0,5.200417E-1,1.7611237E0,9.971689E0,3.3280659E0,6.2920475E-1,1.3023117E0,3.8506618E0,1.6645832E0,3.2749596E0,9.8133326E-1,1.8499674E1,5.791733E0,1.5827358E1,2.8573338E1,2.9355202E0,1.16478615E1,4.6598964E0,9.0407715E0,3.3150635E0,1.0842263E0,0E0,0E0,0E0,0E0,0E0,0E0,0E0,0E0,0E0,0E0,0E0,0E0,0E0,0E0,0E0,0E0,0E0,0E0,0E0,0E0,0E0,0E0,0E0,0E0,0E0,0E0,0E0,0E0,0E0,0E0,0E0,0E0,0E0,0E0,0E0,0E0,0E0,0E0,0E0,0E0,0E0,0E0,0E0,0E0,0E0,0E0,0E0,0E0,0E0,0E0,0E0,0E0],"parents":[2147483647,0,0,1,1,2,2,3,3,4,4,5,5,6,6,7,7,8,8,9,9,10,10,11,11,12,12,13,13,14,14,16,16,17,17,18,18,19,19,20,20,21,21,22,22,23,23,24,24,25,25,26,26,27,27,28,28,30,30,32,32,34,34,35,35,36,36,37,37,38,38,39,39,40,40,41,41,42,42,43,43,44,44,45,45,46,46,47,47,48,48,49,49,50,50,51,51,52,52,53,53,54,54,55,55,56,56,57,57,58,58],"right_children":[2,4,6,8,10,12,14,16,18,20,22,24,26,28,30,-1,32,34,36,38,40,42,44,46,48,50,52,54,56,-1,58,-1,60,-1,62,64,66,68,70,72,74,76,78,80,82,84,86,88,90,92,94,96,98,100,102,104,106,108,110,-1,-1,-1,-1,-1,-1,-1,-1,-1,-1,-1,-1,-1,-1,-1,-1,-1,-1,-1,-1,-1,-1,-1,-1,-1,-1,-1,-1,-1,-1,-1,-1,-1,-1,-1,-1,-1,-1,-1,-1,-1,-1,-1,-1,-1,-1,-1,-1,-1,-1,-1,-1],"split_conditions":[-8.7592885E-2,-9.053305E-2,8.729288E-2,-5.8884084E-1,-4.5598317E-2,-8.281044E-2,9.463268E-2,-9.4168626E-2,3.6223447E-3,4.026386E-1,-2.3692021E0,-4.0691343E-1,1.0957075E0,-4.4442054E-2,7.743639E-3,8.500216E-3,1.1865745E1,1.3896423E1,-5.3631652E-2,-9.4168626E-2,1.6750427E-2,1.4647515E-2,1.1650039E-3,1.1858117E-1,-6.7724865E-3,1.2559735E-22,1.3877831E1,-4.1874555E-1,9.2170455E-2,7.4934885E-3,-9.9495575E-3,-1.291591E-3,1.4214067E-2,-2.9018105E-3,7.949235E-3,5.474395E-3,-6.955605E-2,6.2834256E-4,1.991086E-2,1.0823123E-2,-5.5504656E0,1.7521223E-1,-1.6097879E-3,-2.534628E-1,1.1118698E-5,1.4214067E-2,-8.375376E-2,-2.7075107E0,-9.127062E-3,3.8327856E-18,6.9433177E-1,-3.2778987E-6,3.201565E-3,-2.7803453E-2,9.334233E-2,1.2182867E-3,5.7639855E-1,3.2463536E-1,2.205381E-4,-4.3133498E-4,4.8801014E-3,-9.585977E-4,2.2135684E-3,1.8774271E-4,9.131405E-3,1.0693293E-3,9.5135666E-4,4.5534517E-3,3.9680796E-3,5.0881803E-3,1.3858885E-4,3.1365931E-3,-4.968467E-4,4.0868283E-3,7.668206E-3,2.523279E-3,1.2688179E-3,3.5399438E-3,4.5818198E-3,3.98739E-3,2.456665E-3,2.6964664E-3,-8.0626615E-4,-1.1869193E-4,3.238224E-3,5.254805E-3,2.4931133E-3,7.4975463E-3,6.8520308E-3,3.5475714E-3,-1.7673256E-4,-2.3113068E-3,5.6298035E-3,-2.12684E-2,-1.2710813E-4,2.5952768E-3,-5.260831E-3,4.241415E-3,-1.0650483E-4,5.2060843E-3,8.144146E-3,1.436809E-3,4.1362466E-3,1.1764633E-3,2.448647E-4,1.4434861E-3,7.2690607E-3,6.54642E-3,2.793038E-3,8.606255E-4,1.3540433E-3],"split_indices":[32,33,33,38,4,30,30,32,23,8,14,21,15,4,40,0,0,0,45,32,5,11,47,45,4,47,0,9,33,0,4,0,1,0,7,43,10,27,1,1,12,13,45,6,29,1,30,12,44,7,9,30,17,22,33,5,39,46,31,0,0,0,0,0,0,0,0,0,0,0,0,0,0,0,0,0,0,0,0,0,0,0,0,0,0,0,0,0,0,0,0,0,0,0,0,0,0,0,0,0,0,0,0,0,0,0,0,0,0,0,0],"split_type":[0,0,0,0,0,0,0,0,0,0,0,0,0,0,0,0,0,0,0,0,0,0,0,0,0,0,0,0,0,0,0,0,0,0,0,0,0,0,0,0,0,0,0,0,0,0,0,0,0,0,0,0,0,0,0,0,0,0,0,0,0,0,0,0,0,0,0,0,0,0,0,0,0,0,0,0,0,0,0,0,0,0,0,0,0,0,0,0,0,0,0,0,0,0,0,0,0,0,0,0,0,0,0,0,0,0,0,0,0,0,0],"sum_hessian":[2.926E4,2.174E3,2.7086E4,3.33E2,1.841E3,2.5555E4,1.531E3,1.51E2,1.82E2,6.48E2,1.193E3,5.17E2,2.5038E4,1.413E3,1.18E2,1.01E2,5E1,5.1E1,1.31E2,5.19E2,1.29E2,9.32E2,2.61E2,4.17E2,1E2,2.0713E4,4.325E3,4.29E2,9.84E2,5.2E1,6.6E1,2E0,4.8E1,4E0,4.7E1,2.2E1,1.09E2,2.28E2,2.91E2,1.5E1,1.14E2,8.95E2,3.7E1,1E1,2.51E2,3.94E2,2.3E1,6.6E1,3.4E1,4.74E2,2.0239E4,2.598E3,1.727E3,9.8E1,3.31E2,5.15E2,4.69E2,3.9E1,2.7E1,1E0,4.7E1,1E0,4.6E1,5E0,1.7E1,4.6E1,6.3E1,1.61E2,6.7E1,3.9E1,2.52E2,1E0,1.4E1,4E0,1.1E2,2.49E2,6.46E2,7E0,3E1,7E0,3E0,2E0,2.49E2,2.33E2,1.61E2,1.7E1,6E0,5.8E1,8E0,1.4E1,2E1,3.88E2,8.6E1,1.9263E4,9.76E2,2.26E2,2.372E3,5.57E2,1.17E3,1.9E1,7.9E1,1.92E2,1.39E2,2.3E1,4.92E2,4.41E2,2.8E1,3.1E1,8E0,7E0,2E1],"tree_param":{"num_deleted":"0","num_feature":"48","num_nodes":"111","size_leaf_vector":"1"}},{"base_weights":[-2.8467951E-2,-5.7360332E-2,1.8358505E-1,1.0116491E-1,-6.8076134E-2,1.2044215E-1,5.089474E-1,8.648148E-1,7.496829E-2,-7.975501E-2,9.6927874E-2,3.4262732E-1,8.812303E-2,2.9878047E-1,6.664615E-1,-5.0000013E-3,8.830189E-2,2.162835E-1,5.1087746E-3,-6.054365E-3,-9.2786275E-2,8.19987E-2,7.6E-1,1.5687497E-1,4.7990653E-1,6.1045006E-2,3.8418603E-1,6.290909E-1,2.0260414E-1,-9.473687E-3,7.114006E-1,2.655251E-1,-4.0000025E-2,-1.598404E-2,3.7543857E-1,-5.977927E-2,1.0240639E-1,-9.497731E-2,1.0426538E-1,-1.4901502E-2,1.8679997E-1,-7.5000017E-3,8.40625E-1,3.784615E-1,5.2083097E-3,6.939655E-1,2.242424E-1,-1.3408328E-2,1.3277729E-1,7.013333E-1,2.1276593E-1,6.8627447E-1,-8.000002E-3,-9.787236E-3,2.9794517E-1,7.3311037E-1,-8.888892E-3,5.12931E-2,1.7585138E-2,-5.11905E-3,4.4999998E-2,4.033333E-2,-2.890949E-3,4.9999775E-4,5.6052633E-2,-8.075624E-3,1.5587021E-3,2.855191E-2,1.3738418E-3,-9.60717E-3,1.9305553E-2,-7.63359E-3,3.950617E-2,-2.3910361E-3,7.1E-2,6.0744965E-3,2.9577112E-2,-5.0000013E-3,8.709677E-2,2.9166646E-3,5.690476E-2,1.7297296E-2,-9.833336E-3,2.681818E-2,7.852631E-2,4.34375E-2,1.220588E-2,-5.19388E-3,1.9999998E-2,3.3701655E-2,9.636897E-3,4.24E-2,8.2352936E-2,8.571426E-3,8.608695E-2,1.3333331E-2,7.860465E-2,3.4960628E-2,-4.5000026E-3,4.8679244E-2,7.82996E-2],"categories":[],"categories_nodes":[],"categories_segments":[],"categories_sizes":[],"default_left":[0,0,0,0,0,0,0,0,0,0,0,0,0,0,0,0,0,0,0,0,0,0,0,0,0,0,0,0,0,0,0,0,0,0,0,0,0,0,0,0,0,0,0,0,0,0,0,0,0,0,0,0,0,0,0,0,0,0,0,0,0,0,0,0,0,0,0,0,0,0,0,0,0,0,0,0,0,0,0,0,0,0,0,0,0,0,0,0,0,0,0,0,0,0,0,0,0,0,0,0,0],"id":6,"left_children":[1,3,5,7,9,11,13,15,17,19,21,23,25,27,29,-1,-1,31,33,35,37,39,41,43,45,47,49,51,53,-1,55,57,59,61,63,65,67,69,71,73,75,-1,77,79,81,83,85,87,89,91,93,95,-1,-1,97,99,-1,-1,-1,-1,-1,-1,-1,-1,-1,-1,-1,-1,-1,-1,-1,-1,-1,-1,-1,-1,-1,-1,-1,-1,-1,-1,-1,-1,-1,-1,-1,-1,-1,-1,-1,-1,-1,-1,-1,-1,-1,-1,-1,-1,-1],"loss_changes":[1.7928438E2,4.3754158E1,7.20287E1,3.2563385E1,4.6494225E1,2.1081448E1,1.8670303E1,9.4343567E-1,1.5577248E1,2.1636566E1,1.572678E1,9.436188E0,2.0563692E1,7.687483E0,1.11848755E1,0E0,0E0,6.59816E0,8.262543E0,1.9736492E1,8.275284E0,1.5855155E1,2.4193134E0,5.375195E0,1.1556004E1,1.2573806E1,1.1539341E1,2.285061E0,5.5295277E0,0E0,5.398987E0,9.627186E0,4.8911905E-1,5.4369454E0,3.905325E0,3.5821247E0,1.821313E1,5.986908E0,1.1111495E1,5.3197703E0,1.02843E1,0E0,9.0831375E-1,4.310501E0,1.6845895E0,4.2986794E0,2.0727186E0,9.515855E0,8.883297E0,2.192505E0,1.1536523E1,2.708765E0,0E0,0E0,2.6024017E0,3.2928772E0,0E0,0E0,0E0,0E0,0E0,0E0,0E0,0E0,0E0,0E0,0E0,0E0,0E0,0E0,0E0,0E0,0E0,0E0,0E0,0E0,0E0,0E0,0E0,0E0,0E0,0E0,0E0,0E0,0E0,0E0,0E0,0E0,0E0,0E0,0E0,0E0,0E0,0E0,0E0,0E0,0E0,0E0,0E0,0E0,0E0],"parents":[2147483647,0,0,1,1,2,2,3,3,4,4,5,5,6,6,7,7,8,8,9,9,10,10,11,11,12,12,13,13,14,14,17,17,18,18,19,19,20,20,21,21,22,22,23,23,24,24,25,25,26,26,27,27,28,28,30,30,31,31,32,32,33,33,34,34,35,35,36,36,37,37,38,38,39,39,40,40,42,42,43,43,44,44,45,45,46,46,47,47,48,48,49,49,50,50,51,51,54,54,55,55],"right_children":[2,4,6,8,10,12,14,16,18,20,22,24,26,28,30,-1,-1,32,34,36,38,40,42,44,46,48,50,52,54,-1,56,58,60,62,64,66,68,70,72,74,76,-1,78,80,82,84,86,88,90,92,94,96,-1,-1,98,100,-1,-1,-1,-1,-1,-1,-1,-1,-1,-1,-1,-1,-1,-1,-1,-1,-1,-1,-1,-1,-1,-1,-1,-1,-1,-1,-1,-1,-1,-1,-1,-1,-1,-1,-1,-1,-1,-1,-1,-1,-1,-1,-1,-1,-1],"split_conditions":[4.601886E-3,-8.196922E-2,1.3901378E1,-3.838181E-1,8.083556E-2,-9.4168626E-2,7.5020434E-5,1.3767266E1,1.59391E-1,5.0376348E-17,3.9868075E-1,-2.7141848E-1,5.7639855E-1,3.084276E-5,2.5686158E-3,-1.8860877E-3,7.4923295E-3,8.1564905E-3,5.0196793E-2,1.3826351E1,4.5424148E-1,1.5890106E1,1.8255956E-2,-2.1781108E0,1.3787984E1,1.00425874E-4,9.725902E-3,1.1045191E-4,7.215307E-3,-1.2082988E-3,5.2806884E-2,-9.239466E-2,1.981968E1,-4.0545216E-1,-3.558296E-3,1.0957075E0,2.0205334E-5,1.0136979E0,5.1643975E-2,8.784047E-2,-1.0000868E0,-2.6374757E-3,1.3767266E1,-3.544013E0,-1.05459586E-1,-3.0027014E-1,-6.3149177E-4,9.160693E-2,4.5752344E-3,4.839363E0,9.037266E-2,8.411187E-3,-4.6676397E-4,-3.179711E-4,2.4040263E-2,-3.228332E-3,-1.3216735E-4,3.8794857E-3,1.9662748E-3,-1.760526E-3,2.2109987E-3,6.166828E-3,-1.2853506E-4,6.4404577E-4,4.8674406E-3,-5.591883E-3,6.497906E-4,4.9605477E-3,4.3818928E-4,-2.3215413E-2,2.475323E-3,-1.41280815E-2,5.067894E-3,-3.3051588E-4,9.176618E-3,1.2353299E-3,2.0876569E-3,-8.791655E-3,9.014202E-3,2.6801028E-3,6.514523E-3,4.655611E-3,-9.33868E-4,4.6820324E-3,7.0542567E-3,2.8662789E-3,6.0886476E-4,-1.5419723E-4,1.0331791E-3,3.1917163E-3,1.779979E-3,4.565388E-4,4.5899392E-4,4.3573554E-4,6.8640276E-3,5.997896E-4,1.5330386E-3,1.5194112E-3,-2.3515824E-4,3.465948E-3,6.9441698E-3],"split_indices":[17,32,0,39,33,32,25,0,13,45,38,8,39,35,5,0,0,42,5,0,22,0,1,12,0,29,7,28,5,0,37,32,0,36,26,15,29,9,12,32,8,0,0,15,4,46,28,33,11,12,32,7,0,0,37,24,0,0,0,0,0,0,0,0,0,0,0,0,0,0,0,0,0,0,0,0,0,0,0,0,0,0,0,0,0,0,0,0,0,0,0,0,0,0,0,0,0,0,0,0,0],"split_type":[0,0,0,0,0,0,0,0,0,0,0,0,0,0,0,0,0,0,0,0,0,0,0,0,0,0,0,0,0,0,0,0,0,0,0,0,0,0,0,0,0,0,0,0,0,0,0,0,0,0,0,0,0,0,0,0,0,0,0,0,0,0,0,0,0,0,0,0,0,0,0,0,0,0,0,0,0,0,0,0,0,0,0,0,0,0,0,0,0,0,0,0,0,0,0,0,0,0,0,0,0],"sum_hessian":[2.926E4,2.5752E4,3.508E3,1.63E3,2.4122E4,2.939E3,5.69E2,5.3E1,1.577E3,2.2528E4,1.594E3,3.72E2,2.567E3,2.45E2,3.24E2,1E0,5.2E1,5.21E2,1.056E3,3.385E3,1.9143E4,1.56E3,3.4E1,1.59E2,2.13E2,2.353E3,2.14E2,5.4E1,1.91E2,1.8E1,3.06E2,4.37E2,8.4E1,1E3,5.6E1,2.264E3,1.121E3,1.8933E4,2.1E2,8.11E2,7.49E2,3E0,3.1E1,6.4E1,9.5E1,1.15E2,9.8E1,1.155E3,1.198E3,7.4E1,1.4E2,5E1,4E0,4.6E1,1.45E2,2.98E2,8E0,1.15E2,3.22E2,8.3E1,1E0,2.9E1,9.71E2,1.9E1,3.7E1,1.771E3,4.93E2,3.65E2,7.56E2,1.8862E4,7.1E1,1.3E2,8E1,8.02E2,9E0,3.48E2,4.01E2,1E0,3E1,2.3E1,4.1E1,3.6E1,5.9E1,2.1E1,9.4E1,3.1E1,6.7E1,9.79E2,1.76E2,1.8E2,1.018E3,2.4E1,5E1,1.18E2,2.2E1,8E0,4.2E1,1.26E2,1.9E1,5.2E1,2.46E2],"tree_param":{"num_deleted":"0","num_feature":"48","num_nodes":"101","size_leaf_vector":"1"}},{"base_weights":[-2.6178213E-2,-7.5882964E-2,1.0343975E-1,5.7363603E-3,-8.991082E-2,4.9311376E-1,8.669321E-2,-5.4153595E-2,1.5781069E-1,-9.360177E-2,2.1382487E-1,7.048951E-1,3.328125E-1,1.951208E-1,4.5210566E-2,4.516906E-2,-7.6791644E-2,4.9382713E-1,1.2346296E-1,2.965116E-1,-9.548684E-2,-6.1111134E-2,3.0304876E-1,4.837209E-1,7.920792E-1,7.22E-1,1.9440557E-1,5.8184355E-1,1.1788298E-1,2.4582824E-2,2.6940927E-1,-6.702901E-2,2.6762587E-1,-1.4983737E-2,-8.932363E-2,7.911111E-1,1.18918896E-1,5.632909E-2,2.2129627E-1,6.9473684E-1,1.8088233E-1,-9.79246E-2,2.4225328E-2,4.4999998E-2,-7.924531E-2,9.821426E-2,4.0550455E-1,5.605263E-1,-8.333336E-3,-5.0000013E-3,8.01E-1,-8.000002E-3,7.9347825E-1,1.2661289E-1,6.0499996E-1,8.196719E-2,6.8221474E-1,3.8545454E-1,9.074185E-2,9.434351E-3,1.4496526E-1,4.6937498E-1,1.669841E-1,1.9999998E-2,-8.42308E-3,1.7815124E-2,7.619047E-2,-2.773975E-3,2.1874998E-2,2.1874998E-2,-9.256533E-3,8.325581E-2,-6.6666687E-3,-9.473687E-3,3.2631576E-2,4.875E-2,3.3259399E-3,3.408805E-2,1.0542166E-2,-6.6666687E-3,7.882353E-2,4.7857143E-2,1.0181816E-2,1.442857E-2,-9.889757E-3,-8.750002E-3,2.8055554E-2,-9.803924E-3,2.6666665E-2,6.7499995E-2,5.2830167E-3,5.2656244E-2,2.2826085E-2,6.451613E-2,1.6249998E-2,6.9375E-2,8.830189E-2,-5.0000013E-3,8.133333E-2,2.3518516E-2,4.22535E-3,1.6249998E-2,8.307692E-2,5.75E-2,-3.8000026E-3,2.2749998E-2,7.49807E-2,4.8992246E-2,1.0810788E-3,5.7891137E-3,3.882716E-2,1.9717311E-2,-2.9323023E-4,1.1411387E-3,3.2663934E-2,2.1754384E-2,6.028846E-2,5.2142855E-2,1.1204377E-2],"categories":[],"categories_nodes":[],"categories_segments":[],"categories_sizes":[],"default_left":[0,0,0,0,0,0,0,0,0,0,0,0,0,0,0,0,0,0,0,0,0,0,0,0,0,0,0,0,0,0,0,0,0,0,0,0,0,0,0,0,0,0,0,0,0,0,0,0,0,0,0,0,0,0,0,0,0,0,0,0,0,0,0,0,0,0,0,0,0,0,0,0,0,0,0,0,0,0,0,0,0,0,0,0,0,0,0,0,0,0,0,0,0,0,0,0,0,0,0,0,0,0,0,0,0,0,0,0,0,0,0,0,0,0,0,0,0,0,0],"id":7,"left_children":[1,3,5,7,9,11,13,15,17,19,21,23,25,27,29,31,33,35,37,39,41,43,45,47,49,51,53,55,57,59,61,63,65,67,69,71,73,75,77,79,81,83,85,-1,87,89,91,93,-1,-1,95,-1,97,99,101,103,105,107,109,111,113,115,117,-1,-1,-1,-1,-1,-1,-1,-1,-1,-1,-1,-1,-1,-1,-1,-1,-1,-1,-1,-1,-1,-1,-1,-1,-1,-1,-1,-1,-1,-1,-1,-1,-1,-1,-1,-1,-1,-1,-1,-1,-1,-1,-1,-1,-1,-1,-1,-1,-1,-1,-1,-1,-1,-1,-1,-1],"loss_changes":[1.8852559E2,2.4217247E1,5.2887115E1,2.8269817E1,2.0254272E1,1.1104301E1,3.497556E1,5.010814E0,1.0060839E1,1.3142517E1,5.341716E0,2.3743057E0,1.0201958E1,6.421083E1,2.6016636E1,1.0351058E1,1.4037418E0,8.933714E0,5.2221727E0,3.834333E0,5.1817627E0,5.3616357E-1,3.4019566E0,1.9194822E0,7.9875946E-1,2.9297543E0,3.9038472E0,1.7906075E1,1.300066E1,9.397518E0,9.62986E0,1.2846175E0,6.0115995E0,9.2139167E-1,1.5262604E0,1.6553574E0,1.670441E0,4.698653E0,4.45366E0,1.40516E0,1.5517576E0,4.113434E0,1.0191245E1,0E0,3.706992E-1,1.430246E0,2.2185936E0,1.1752653E0,0E0,0E0,2.6705933E-1,0E0,8.110428E-1,1.1257898E0,1.8630581E0,3.6298642E0,8.98851E0,6.4525146E0,1.59190235E1,1.0631642E1,1.3971919E1,5.248352E0,6.0756655E0,0E0,0E0,0E0,0E0,0E0,0E0,0E0,0E0,0E0,0E0,0E0,0E0,0E0,0E0,0E0,0E0,0E0,0E0,0E0,0E0,0E0,0E0,0E0,0E0,0E0,0E0,0E0,0E0,0E0,0E0,0E0,0E0,0E0,0E0,0E0,0E0,0E0,0E0,0E0,0E0,0E0,0E0,0E0,0E0,0E0,0E0,0E0,0E0,0E0,0E0,0E0,0E0,0E0,0E0,0E0,0E0],"parents":[2147483647,0,0,1,1,2,2,3,3,4,4,5,5,6,6,7,7,8,8,9,9,10,10,11,11,12,12,13,13,14,14,15,15,16,16,17,17,18,18,19,19,20,20,21,21,22,22,23,23,24,24,25,25,26,26,27,27,28,28,29,29,30,30,31,31,32,32,33,33,34,34,35,35,36,36,37,37,38,38,39,39,40,40,41,41,42,42,44,44,45,45,46,46,47,47,50,50,52,52,53,53,54,54,55,55,56,56,57,57,58,58,59,59,60,60,61,61,62,62],"right_children":[2,4,6,8,10,12,14,16,18,20,22,24,26,28,30,32,34,36,38,40,42,44,46,48,50,52,54,56,58,60,62,64,66,68,70,72,74,76,78,80,82,84,86,-1,88,90,92,94,-1,-1,96,-1,98,100,102,104,106,108,110,112,114,116,118,-1,-1,-1,-1,-1,-1,-1,-1,-1,-1,-1,-1,-1,-1,-1,-1,-1,-1,-1,-1,-1,-1,-1,-1,-1,-1,-1,-1,-1,-1,-1,-1,-1,-1,-1,-1,-1,-1,-1,-1,-1,-1,-1,-1,-1,-1,-1,-1,-1,-1,-1,-1,-1,-1,-1,-1],"split_conditions":[2.907229E-3,3.9533484E-6,-9.053305E-2,1.359969E1,6.984906E-2,-3.0418625E-1,-3.656235E-2,-1.6772136E-2,5.4525904E-6,-7.777576E-2,3.691506E-2,-3.228332E-3,6.793779E-3,5.671816E-3,9.261076E-2,1.1071488E0,9.701153E-19,1.3937387E1,2.163454E-18,2.3605185E-2,1.2965026E-1,9.984569E0,-1.755535E-18,2.750973E-4,9.490721E-3,1.3896423E1,4.071999E-2,1.2095979E-2,-9.739604E-2,1.3004302E-2,3.737535E-2,-4.7336486E-1,1.9414206E-18,2.1955164E-18,7.9840913E0,-1.4751243E-3,1.0517623E-3,-1.2148104E-1,-8.131059E-20,9.970987E0,1.6868327E-5,9.851256E-6,-8.650657E-20,2.1389367E-3,1.9873873E1,2.6029188E-2,2.0205334E-5,1.17114335E-2,-2.1371842E-4,-9.121716E-4,1.1220564E-2,-2.5962114E-3,7.949235E-3,-6.955605E-2,2.6568238E-4,-1.069322E0,1.3874985E1,9.009005E-2,9.261076E-2,5.7587417E-6,-2.145201E-16,1.1618903E-2,1.4854254E-1,2.2485019E-3,-4.3390957E-3,2.26578E-3,5.8647934E-3,-2.3987526E-3,1.6661912E-2,3.952938E-3,-2.2948382E-2,5.277897E-3,-3.1629147E-3,-4.685477E-3,3.3265247E-3,8.139339E-3,1.3166862E-3,5.6704967E-3,3.3574763E-3,-3.0366195E-2,1.1115401E-2,3.4871195E-3,1.3241286E-3,7.3447586E-3,-2.3233883E-2,-1.5861634E-2,5.444776E-3,-2.876009E-3,1.1333227E-4,1.491307E-2,1.0353086E-3,4.789245E-3,2.3521062E-3,3.2584001E-3,3.6570968E-3,7.1445196E-3,7.183519E-3,-9.227157E-4,1.5688837E-3,8.3677407E-4,5.986939E-4,4.8700157E-3,8.405114E-3,5.0066947E-3,-1.3943913E-4,3.2776587E-3,3.9781486E-3,4.3508294E-3,3.6092402E-4,1.1435195E-3,3.8503415E-3,1.3467324E-3,-2.3400846E-5,1.8918146E-4,2.2622617E-3,1.0383556E-3,5.2768528E-3,3.8188824E-3,9.18884E-4],"split_indices":[17,45,33,2,33,39,4,46,25,34,42,24,5,37,33,15,13,2,33,46,46,3,32,34,11,0,1,19,32,11,45,8,9,34,0,26,1,8,36,0,29,13,44,0,3,37,29,10,0,0,7,0,7,10,25,8,0,45,33,29,40,19,13,0,0,0,0,0,0,0,0,0,0,0,0,0,0,0,0,0,0,0,0,0,0,0,0,0,0,0,0,0,0,0,0,0,0,0,0,0,0,0,0,0,0,0,0,0,0,0,0,0,0,0,0,0,0,0,0],"split_type":[0,0,0,0,0,0,0,0,0,0,0,0,0,0,0,0,0,0,0,0,0,0,0,0,0,0,0,0,0,0,0,0,0,0,0,0,0,0,0,0,0,0,0,0,0,0,0,0,0,0,0,0,0,0,0,0,0,0,0,0,0,0,0,0,0,0,0,0,0,0,0,0,0,0,0,0,0,0,0,0,0,0,0,0,0,0,0,0,0,0,0,0,0,0,0,0,0,0,0,0,0,0,0,0,0,0,0,0,0,0,0,0,0,0,0,0,0,0,0],"sum_hessian":[2.926E4,2.115E4,8.11E3,3.102E3,1.8048E4,3.33E2,7.777E3,2.226E3,8.76E2,1.7832E4,2.16E2,1.42E2,1.91E2,2.151E3,5.626E3,4.13E2,1.813E3,8E1,7.96E2,8.5E1,1.7747E4,5.3E1,1.63E2,4.2E1,1E2,4.9E1,1.42E2,3.57E2,1.794E3,5.153E3,4.73E2,2.75E2,1.38E2,3.06E2,1.507E3,4.4E1,3.6E1,4.73E2,3.23E2,1.8E1,6.7E1,1.7393E4,3.54E2,1E0,5.2E1,5.5E1,1.08E2,3.7E1,5E0,1E0,9.9E1,4E0,4.5E1,1.23E2,1.9E1,6E1,2.97E2,1.64E2,1.63E3,4.578E3,5.75E2,1.59E2,3.14E2,1.6E1,2.59E2,1.18E2,2E1,2.91E2,1.5E1,1.5E1,1.492E3,4.2E1,2E0,1.8E1,1.8E1,2.3E1,4.5E2,1.58E2,1.65E2,2E0,1.6E1,1.3E1,5.4E1,6.9E1,1.7324E4,2.47E2,1.07E2,5E1,2E0,3E0,5.2E1,6.3E1,4.5E1,3E1,7E0,4.7E1,5.2E1,1E0,4.4E1,5.3E1,7E1,7E0,1.2E1,1.1E1,4.9E1,3.9E1,2.58E2,1.28E2,3.6E1,1.469E3,1.61E2,2.82E2,4.296E3,3.32E2,2.43E2,5.6E1,1.03E2,4.1E1,2.73E2],"tree_param":{"num_deleted":"0","num_feature":"48","num_nodes":"119","size_leaf_vector":"1"}},{"base_weights":[-3.0894388E-2,-7.758501E-2,9.086423E-2,-9.996906E-4,-9.024299E-2,3.152351E-2,1.7879434E-1,-5.4305907E-2,1.2816417E-1,-9.341513E-2,1.7235021E-1,2.1699113E-1,7.0326864E-3,3.0136886E-1,8.8250905E-2,1.4166664E-1,-6.476712E-2,4.691358E-1,9.335004E-2,2.6162788E-1,-9.5120475E-2,3.609195E-1,4.58015E-2,7.2499996E-1,1.9014868E-1,-1.3328261E-2,2.308123E-1,1.3652056E-1,4.9606916E-1,4.8346454E-1,5.9601117E-2,7.642857E-1,4.842103E-2,-2.5029264E-2,-9.390037E-2,7.4666667E-1,1.18918896E-1,1.4437982E-1,-3.546337E-4,5.863636E-1,1.4769228E-1,-9.922184E-2,-2.7138667E-2,5.121951E-1,2.2127657E-1,2.3518516E-1,-8.589746E-2,7.84E-1,1.7499998E-1,4.0689653E-1,1.4800882E-1,1.3131747E-1,-3.2669E-2,5.1692307E-1,1.6655287E-1,5.036144E-1,9.0909064E-2,2.3598613E-1,7.1063215E-1,5.872549E-1,5.7692286E-2,4.36795E-2,4.366197E-1,8.307692E-2,-5.0000013E-3,2.065215E-3,6.7499995E-2,1.5588233E-2,-4.946952E-3,7.0833312E-3,-9.728312E-3,7.860465E-2,-6.6666687E-3,-9.473687E-3,3.2631576E-2,3.4509804E-2,5.9615364E-3,-5.1442333E-3,1.4133331E-2,7.388889E-2,-8.000002E-3,7.714286E-2,7.118642E-3,5.3749997E-2,-9.951866E-3,1.0640666E-2,-9.984828E-3,6.965517E-2,6.153844E-3,4.842105E-2,4.137929E-3,5.5294115E-2,8.684209E-3,-9.870132E-3,4.4999998E-2,4.1666668E-2,8.5499994E-2,-6.6666687E-3,4.4999998E-2,4.137929E-3,5.7966102E-2,2.0438354E-2,-8.750002E-3,-7.968151E-4,2.9483566E-2,-4.7282996E-3,6.6516832E-3,6.7755096E-2,2.352939E-3,-7.84314E-3,2.1728393E-2,1.6999997E-2,6.796297E-2,4.6045673E-3,3.3786405E-2,5.677081E-3,5.8469385E-2,3.1724136E-2,7.440625E-2,7.387755E-2,4.388889E-2,3.5555553E-2,-9.444447E-3,6.9749577E-4,1.7547682E-2,8.269231E-2,2.0652173E-2],"categories":[],"categories_nodes":[],"categories_segments":[],"categories_sizes":[],"default_left":[0,0,0,0,0,0,0,0,0,0,0,0,0,0,0,0,0,0,0,0,0,0,0,0,0,0,0,0,0,0,0,0,0,0,0,0,0,0,0,0,0,0,0,0,0,0,0,0,0,0,0,0,0,0,0,0,0,0,0,0,0,0,0,0,0,0,0,0,0,0,0,0,0,0,0,0,0,0,0,0,0,0,0,0,0,0,0,0,0,0,0,0,0,0,0,0,0,0,0,0,0,0,0,0,0,0,0,0,0,0,0,0,0,0,0,0,0,0,0,0,0,0,0,0,0,0,0],"id":8,"left_children":[1,3,5,7,9,11,13,15,17,19,21,23,25,27,29,31,33,35,37,39,41,43,45,47,49,51,53,55,57,59,61,63,65,67,69,71,73,75,77,79,81,83,85,87,89,91,93,95,97,99,101,103,105,107,109,111,113,115,117,119,121,123,125,-1,-1,-1,-1,-1,-1,-1,-1,-1,-1,-1,-1,-1,-1,-1,-1,-1,-1,-1,-1,-1,-1,-1,-1,-1,-1,-1,-1,-1,-1,-1,-1,-1,-1,-1,-1,-1,-1,-1,-1,-1,-1,-1,-1,-1,-1,-1,-1,-1,-1,-1,-1,-1,-1,-1,-1,-1,-1,-1,-1,-1,-1,-1,-1],"loss_changes":[1.6635542E2,2.050402E1,4.2316246E1,2.0669556E1,1.513559E1,2.2001156E1,3.624269E1,4.36566E0,1.036675E1,1.0883957E1,5.161784E0,7.566595E0,1.9504318E1,4.4481552E1,2.1269352E1,6.2330933E0,2.3338737E0,7.7840824E0,3.8110886E0,3.0953088E0,4.9742126E0,1.7245007E0,3.2875555E0,7.7140045E-1,4.8537197E0,1.0981898E1,6.477459E0,1.2562224E1,3.532376E1,5.5783844E0,1.0515745E1,7.994509E-1,1.6390023E0,3.788116E0,6.555319E-1,1.4937057E0,1.670441E0,8.7585335E0,2.0485306E0,2.2951303E0,3.0468512E0,3.2349548E0,9.885724E0,3.3634777E0,2.203115E0,2.497374E0,5.7961696E-1,2.9576683E-1,2.9583335E-1,5.469925E0,6.0189714E0,1.0547514E1,5.0213165E0,5.1354904E0,3.658536E0,4.7583237E0,7.418612E0,1.8027504E1,4.340576E0,1.9687691E0,1.2117949E0,8.150064E0,6.205591E0,0E0,0E0,0E0,0E0,0E0,0E0,0E0,0E0,0E0,0E0,0E0,0E0,0E0,0E0,0E0,0E0,0E0,0E0,0E0,0E0,0E0,0E0,0E0,0E0,0E0,0E0,0E0,0E0,0E0,0E0,0E0,0E0,0E0,0E0,0E0,0E0,0E0,0E0,0E0,0E0,0E0,0E0,0E0,0E0,0E0,0E0,0E0,0E0,0E0,0E0,0E0,0E0,0E0,0E0,0E0,0E0,0E0,0E0,0E0,0E0,0E0,0E0,0E0,0E0],"parents":[2147483647,0,0,1,1,2,2,3,3,4,4,5,5,6,6,7,7,8,8,9,9,10,10,11,11,12,12,13,13,14,14,15,15,16,16,17,17,18,18,19,19,20,20,21,21,22,22,23,23,24,24,25,25,26,26,27,27,28,28,29,29,30,30,31,31,32,32,33,33,34,34,35,35,36,36,37,37,38,38,39,39,40,40,41,41,42,42,43,43,44,44,45,45,46,46,47,47,48,48,49,49,50,50,51,51,52,52,53,53,54,54,55,55,56,56,57,57,58,58,59,59,60,60,61,61,62,62],"right_children":[2,4,6,8,10,12,14,16,18,20,22,24,26,28,30,32,34,36,38,40,42,44,46,48,50,52,54,56,58,60,62,64,66,68,70,72,74,76,78,80,82,84,86,88,90,92,94,96,98,100,102,104,106,108,110,112,114,116,118,120,122,124,126,-1,-1,-1,-1,-1,-1,-1,-1,-1,-1,-1,-1,-1,-1,-1,-1,-1,-1,-1,-1,-1,-1,-1,-1,-1,-1,-1,-1,-1,-1,-1,-1,-1,-1,-1,-1,-1,-1,-1,-1,-1,-1,-1,-1,-1,-1,-1,-1,-1,-1,-1,-1,-1,-1,-1,-1,-1,-1,-1,-1,-1,-1,-1,-1],"split_conditions":[2.907229E-3,5.0376348E-17,9.563367E-5,1.359969E1,6.984906E-2,-9.239466E-2,-2.874317E-2,-1.0201259E-1,5.4525904E-6,-7.777576E-2,2.4094149E-3,-9.5478475E-2,9.334233E-2,1.3843414E1,-9.053305E-2,-1.0882521E-3,-1.0844436E-3,1.3937387E1,1.59237E1,1.7091137E-5,-2.2448129E-18,2.0205334E-5,3.0663183E-3,5.4836964E-5,1.6090564E-1,8.7520946E-4,-2.8833237E-3,-9.144537E-2,-3.521165E-3,1.592134E-4,9.557141E-2,1.1952894E1,1.3378767E-2,-7.513712E-3,7.9796014E0,-1.4751243E-3,1.0517623E-3,-1.6552112E-3,-1.8621346E-19,2.0883582E-19,1.6773811E-3,7.9840913E0,-5.2963848E-20,-1.4612786E-3,-6.742359E-2,-1.4565587E-3,1.7917147E1,2.3918962E-3,1.6088123E-2,1.58812475E1,-5.4920524E-2,5.474395E-3,8.865451E-2,1.0874904E-2,-7.331681E-3,1.1858669E1,5.529584E-1,4.184572E-2,-3.3262642E-3,-7.0150136E-3,2.1535994E-2,1.4378759E-2,3.0609022E-4,4.952824E-3,-7.7920198E-3,1.3833643E-4,1.8188477E-3,3.017374E-3,-8.35227E-3,1.5269689E-3,-1.9733744E-2,4.7501097E-3,-2.8466226E-3,-4.216931E-3,2.9938712E-3,6.058031E-3,2.4911072E-3,-1.1216061E-3,9.313012E-3,9.83635E-3,-8.7199215E-4,8.127493E-3,9.6462184E-4,5.2893697E-3,-2.0925878E-2,4.2404807E-3,-2.15507E-2,8.341062E-3,7.1764844E-3,2.1164431E-3,1.377443E-3,3.3415686E-3,2.5267827E-3,-1.0380017E-3,3.9794445E-3,1.5499712E-3,1.5482426E-3,-1.9389988E-4,7.173717E-4,2.8075656E-4,3.9347443E-3,1.6725034E-3,-2.5265922E-3,-7.13472E-6,1.2759387E-3,-5.722369E-4,6.2554143E-4,3.0362473E-3,7.316238E-4,-1.2753439E-3,1.5963899E-3,3.7509433E-3,6.258072E-3,3.4925938E-4,3.8261414E-3,1.3416017E-3,2.7861046E-3,2.2515992E-3,5.755192E-3,6.3801813E-3,5.8695325E-3,4.459685E-3,-2.094388E-4,6.18362E-5,1.9703158E-3,6.646917E-3,5.1012775E-3],"split_indices":[17,45,29,2,33,32,4,46,25,34,47,30,33,2,33,26,26,2,3,29,44,29,5,29,13,23,24,30,26,28,33,0,1,46,2,26,1,27,30,39,17,0,44,6,4,24,3,11,1,0,36,43,33,22,42,3,18,5,24,22,1,11,25,0,0,0,0,0,0,0,0,0,0,0,0,0,0,0,0,0,0,0,0,0,0,0,0,0,0,0,0,0,0,0,0,0,0,0,0,0,0,0,0,0,0,0,0,0,0,0,0,0,0,0,0,0,0,0,0,0,0,0,0,0,0,0,0],"split_type":[0,0,0,0,0,0,0,0,0,0,0,0,0,0,0,0,0,0,0,0,0,0,0,0,0,0,0,0,0,0,0,0,0,0,0,0,0,0,0,0,0,0,0,0,0,0,0,0,0,0,0,0,0,0,0,0,0,0,0,0,0,0,0,0,0,0,0,0,0,0,0,0,0,0,0,0,0,0,0,0,0,0,0,0,0,0,0,0,0,0,0,0,0,0,0,0,0,0,0,0,0,0,0,0,0,0,0,0,0,0,0,0,0,0,0,0,0,0,0,0,0,0,0,0,0,0,0],"sum_hessian":[2.926E4,2.115E4,8.11E3,3E3,1.815E4,4.843E3,3.267E3,2.124E3,8.76E2,1.7934E4,2.16E2,5.64E2,4.279E3,1.387E3,1.88E3,1.07E2,2.017E3,8E1,7.96E2,8.5E1,1.7849E4,8.6E1,1.3E2,2.7E1,5.37E2,3.923E3,3.56E2,7.52E2,6.35E2,1.26E2,1.754E3,1.3E1,9.4E1,8.54E2,1.163E3,4.4E1,3.6E1,5.15E2,2.81E2,2.1E1,6.4E1,1.6833E4,1.016E3,4E1,4.6E1,5.3E1,7.7E1,2.4E1,3E0,8.6E1,4.51E2,4.62E2,3.461E3,6.4E1,2.92E2,8.2E1,6.7E2,2.88E2,3.47E2,1.01E2,2.5E1,1.684E3,7E1,1.2E1,1E0,9.1E1,3E0,1.01E2,7.53E2,2.3E1,1.14E3,4.2E1,2E0,1.8E1,1.8E1,1.52E2,3.63E2,2.07E2,7.4E1,1.7E1,4E0,6E0,5.8E1,7E0,1.6826E4,3.58E2,6.58E2,2.8E1,1.2E1,1.8E1,2.8E1,1.6E1,3.7E1,7.6E1,1E0,5E0,1.9E1,2E0,1E0,2.8E1,5.8E1,3.64E2,8.7E1,2.5E2,2.12E2,3.017E3,4.44E2,4.8E1,1.6E1,5E1,2.42E2,2.9E1,5.3E1,5.68E2,1.02E2,1.91E2,9.7E1,2.8E1,3.19E2,4.8E1,5.3E1,8E0,1.7E1,1.318E3,3.66E2,2.5E1,4.5E1],"tree_param":{"num_deleted":"0","num_feature":"48","num_nodes":"127","size_leaf_vector":"1"}},{"base_weights":[-3.5747264E-2,-7.8956105E-2,7.6932535E-2,-4.6651354E-3,-9.123467E-2,2.5348673E-2,1.5753552E-1,-5.6048803E-2,1.0598737E-1,-9.5504425E-2,4.380608E-2,1.938811E-1,3.3135044E-3,2.7935812E-1,6.440109E-2,1.230769E-1,-6.685628E-2,3.824074E-1,7.053252E-2,-9.679852E-2,2.1643834E-1,-2.6980752E-2,4.0659338E-1,4.281818E-1,1.3779695E-1,-1.365674E-2,1.9439773E-1,1.3420023E-1,4.6401325E-1,4.330645E-1,3.7021507E-2,8.1818186E-2,5.0467268E-2,1.4693853E-2,-7.8639075E-2,1.1489359E-1,5.7903224E-1,-5.073173E-2,1.09204344E-1,5.3749996E-1,-9.708269E-2,5.8947366E-1,8.363634E-2,-9.046156E-2,1.1748249E-1,2.6229507E-1,6.774193E-1,2.3999978E-2,5.4069763E-1,-3.1730793E-2,1.8638887E-1,1.1835851E-1,-3.0831952E-2,5.6969696E-1,1.5569228E-1,4.5542166E-1,9.5196486E-2,2.2560552E-1,6.812698E-1,5.5698925E-1,5.9374977E-2,2.2598498E-2,5.142857E-1,2.5961515E-3,6.7499995E-2,-8.653848E-3,1.9E-2,-1.6304586E-4,-8.798941E-3,5.230769E-2,-4.000002E-3,2.1538459E-2,6.62E-2,-6.395941E-3,2.4444444E-2,2.2477476E-2,4.7857123E-3,-5.0000013E-3,6.285714E-2,-9.792388E-3,1.7054239E-3,3.0999998E-2,8.1E-2,2.6399998E-2,-6.451615E-3,-9.655175E-3,1.9999998E-2,5.2100816E-3,4.24E-2,3.510204E-2,-9.230772E-3,-6.6666687E-3,7.310345E-2,-9.5000025E-3,4.1666668E-2,1.892857E-2,6.983051E-2,-8.4058E-3,6.9444417E-3,2.503846E-2,1.9801955E-3,7.434707E-5,2.7999997E-2,-4.532307E-3,6.9866045E-3,-2.1674418E-9,8.173913E-2,3.9298244E-2,1.0483269E-2,5.4027777E-2,-9.166669E-3,5.8919783E-3,3.8181815E-2,5.677081E-3,5.540816E-2,7.029605E-2,7.499998E-3,6.8500005E-2,3.1470586E-2,4.8571426E-2,-5.769233E-3,9.919091E-3,-2.4429022E-3,7.78125E-2,1.6666644E-3],"categories":[],"categories_nodes":[],"categories_segments":[],"categories_sizes":[],"default_left":[0,0,0,0,0,0,0,0,0,0,0,0,0,0,0,0,0,0,0,0,0,0,0,0,0,0,0,0,0,0,0,0,0,0,0,0,0,0,0,0,0,0,0,0,0,0,0,0,0,0,0,0,0,0,0,0,0,0,0,0,0,0,0,0,0,0,0,0,0,0,0,0,0,0,0,0,0,0,0,0,0,0,0,0,0,0,0,0,0,0,0,0,0,0,0,0,0,0,0,0,0,0,0,0,0,0,0,0,0,0,0,0,0,0,0,0,0,0,0,0,0,0,0,0,0],"id":9,"left_children":[1,3,5,7,9,11,13,15,17,19,21,23,25,27,29,31,33,35,37,39,41,43,45,47,49,51,53,55,57,59,61,-1,63,65,67,69,71,73,75,77,79,81,83,85,87,89,91,93,95,97,99,101,103,105,107,109,111,113,115,117,119,121,123,-1,-1,-1,-1,-1,-1,-1,-1,-1,-1,-1,-1,-1,-1,-1,-1,-1,-1,-1,-1,-1,-1,-1,-1,-1,-1,-1,-1,-1,-1,-1,-1,-1,-1,-1,-1,-1,-1,-1,-1,-1,-1,-1,-1,-1,-1,-1,-1,-1,-1,-1,-1,-1,-1,-1,-1,-1,-1,-1,-1,-1,-1],"loss_changes":[1.4247096E2,1.9293228E1,3.3720036E1,1.7068823E1,1.0469879E1,1.8370735E1,3.58917E1,3.9768167E0,9.303039E0,7.1237335E0,1.4315045E1,7.4573956E0,1.4192912E1,3.668622E1,1.8102428E1,5.8638515E0,1.8595133E0,5.614258E0,3.9681764E0,3.2107239E0,3.5671065E0,4.2933183E0,3.3785706E0,4.989479E0,3.8199587E0,9.118557E0,5.097128E0,9.591322E0,3.1079071E1,5.7092896E0,1.1497732E1,0E0,1.6200728E0,4.3643713E0,1.216752E0,2.9924977E0,1.7280178E0,8.160563E-1,4.5338836E0,4.5946455E-1,1.6833954E0,9.198947E-1,1.4867051E0,5.9422374E-1,2.8437188E0,1.9515991E0,1.2854586E0,1.2077668E0,4.6309433E0,5.5643576E-1,3.8329487E0,8.802101E0,5.195095E0,4.6566534E0,3.8810587E0,3.9027004E0,7.120715E0,1.5995954E1,4.0896606E0,2.6688118E0,1.6251546E0,5.8519926E0,6.420312E0,0E0,0E0,0E0,0E0,0E0,0E0,0E0,0E0,0E0,0E0,0E0,0E0,0E0,0E0,0E0,0E0,0E0,0E0,0E0,0E0,0E0,0E0,0E0,0E0,0E0,0E0,0E0,0E0,0E0,0E0,0E0,0E0,0E0,0E0,0E0,0E0,0E0,0E0,0E0,0E0,0E0,0E0,0E0,0E0,0E0,0E0,0E0,0E0,0E0,0E0,0E0,0E0,0E0,0E0,0E0,0E0,0E0,0E0,0E0,0E0,0E0,0E0],"parents":[2147483647,0,0,1,1,2,2,3,3,4,4,5,5,6,6,7,7,8,8,9,9,10,10,11,11,12,12,13,13,14,14,15,15,16,16,17,17,18,18,19,19,20,20,21,21,22,22,23,23,24,24,25,25,26,26,27,27,28,28,29,29,30,30,32,32,33,33,34,34,35,35,36,36,37,37,38,38,39,39,40,40,41,41,42,42,43,43,44,44,45,45,46,46,47,47,48,48,49,49,50,50,51,51,52,52,53,53,54,54,55,55,56,56,57,57,58,58,59,59,60,60,61,61,62,62],"right_children":[2,4,6,8,10,12,14,16,18,20,22,24,26,28,30,32,34,36,38,40,42,44,46,48,50,52,54,56,58,60,62,-1,64,66,68,70,72,74,76,78,80,82,84,86,88,90,92,94,96,98,100,102,104,106,108,110,112,114,116,118,120,122,124,-1,-1,-1,-1,-1,-1,-1,-1,-1,-1,-1,-1,-1,-1,-1,-1,-1,-1,-1,-1,-1,-1,-1,-1,-1,-1,-1,-1,-1,-1,-1,-1,-1,-1,-1,-1,-1,-1,-1,-1,-1,-1,-1,-1,-1,-1,-1,-1,-1,-1,-1,-1,-1,-1,-1,-1,-1,-1,-1,-1,-1,-1],"split_conditions":[2.907229E-3,5.0376348E-17,9.620631E-5,1.30989895E1,3.5059165E-2,-9.239466E-2,-2.874317E-2,-9.458379E-2,5.4525904E-6,3.7347144E-1,1.5863811E1,-2.8632344E-3,9.334233E-2,1.3846679E1,-9.053305E-2,-1.1233928E-3,-4.7353026E-4,4.0809473E-6,3.3515965E-18,7.9840913E0,2.1879993E-2,1.3853041E1,-1.7332284E-3,-1.4859122E-3,6.249134E-5,8.7520946E-4,-1.0409602E0,-9.144537E-2,-3.521165E-3,-4.7859272E-1,9.8178044E-2,4.4575394E-3,2.421678E-2,3.7570466E-20,9.969047E0,1.3136693E1,5.468063E-22,5.7389253E-19,4.1770292E-3,1.5787745E-4,5.3893505E-3,-1.574649E-1,-8.180444E-2,6.642001E-1,1.18866675E-1,1.5737212E-1,-5.0385706E-2,2.9101635E-3,-8.947377E-3,4.3331158E-5,1.4840892E-3,6.062909E-3,1.5890106E1,1.5803621E1,1.5281487E-1,2.680437E-2,9.334233E-2,4.184572E-2,3.9682137E-3,-9.4168626E-2,-1.8118623E-4,-4.2359892E-1,1.3777292E-1,3.4219294E-4,1.6369642E-3,-2.6116421E-2,6.8631484E-3,1.7562843E-5,-1.803464E-2,1.6152844E-2,-2.889604E-3,1.1449844E-3,3.580177E-3,-1.243536E-3,6.6722156E-3,4.1426443E-3,2.6086743E-3,-8.5844996E-4,4.7604325E-3,-1.8809717E-2,1.1403434E-3,8.51769E-3,1.0192811E-2,1.6994862E-3,-4.1761177E-4,-1.0164554E-2,2.2505969E-3,1.5756855E-3,6.8876557E-3,3.7007765E-3,-2.1991841E-3,-7.484734E-4,9.457666E-3,-2.413125E-3,2.0801367E-3,4.223263E-4,2.7310913E-3,-3.917034E-4,5.106281E-4,1.9193767E-3,1.5050225E-3,7.395082E-6,1.1525035E-3,-3.5681966E-4,4.563007E-4,-1.4684403E-5,3.1910294E-3,2.6266396E-3,5.42143E-4,5.060861E-3,-1.3741624E-4,5.375205E-4,3.981507E-3,1.2074437E-3,2.5074945E-3,5.1924936E-3,4.4056174E-4,5.706364E-3,2.1638547E-3,6.9776536E-3,-1.8849374E-4,1.734226E-3,-1.6233955E-4,5.8523477E-3,3.474474E-4],"split_indices":[17,45,29,2,42,32,4,46,25,10,2,24,33,2,33,26,28,25,7,0,1,2,27,34,35,23,8,30,26,36,33,0,1,17,3,0,41,30,5,25,27,44,4,21,9,45,4,5,40,29,40,43,0,2,13,23,33,5,31,32,28,38,45,0,0,0,0,0,0,0,0,0,0,0,0,0,0,0,0,0,0,0,0,0,0,0,0,0,0,0,0,0,0,0,0,0,0,0,0,0,0,0,0,0,0,0,0,0,0,0,0,0,0,0,0,0,0,0,0,0,0,0,0,0,0],"split_type":[0,0,0,0,0,0,0,0,0,0,0,0,0,0,0,0,0,0,0,0,0,0,0,0,0,0,0,0,0,0,0,0,0,0,0,0,0,0,0,0,0,0,0,0,0,0,0,0,0,0,0,0,0,0,0,0,0,0,0,0,0,0,0,0,0,0,0,0,0,0,0,0,0,0,0,0,0,0,0,0,0,0,0,0,0,0,0,0,0,0,0,0,0,0,0,0,0,0,0,0,0,0,0,0,0,0,0,0,0,0,0,0,0,0,0,0,0,0,0,0,0,0,0,0,0],"sum_hessian":[2.926E4,2.115E4,8.11E3,3E3,1.815E4,4.946E3,3.164E3,2.049E3,9.51E2,1.7594E4,5.56E2,5.71E2,4.375E3,1.37E3,1.794E3,1.16E2,1.933E3,1.07E2,8.44E2,1.7522E4,7.2E1,4.66E2,9E1,1.09E2,4.62E2,4.019E3,3.56E2,7.68E2,6.02E2,1.23E2,1.671E3,1E1,1.06E2,2.44E2,1.689E3,4.6E1,6.1E1,2.04E2,6.4E2,7E0,1.7515E4,1.8E1,5.4E1,3.24E2,1.42E2,6E1,3E1,2.4E1,8.5E1,1.03E2,3.59E2,4.62E2,3.557E3,3.2E1,3.24E2,8.2E1,6.86E2,2.88E2,3.14E2,9.2E1,3.1E1,1.623E3,4.8E1,1.03E2,3E0,1.55E2,8.9E1,1.83E2,1.506E3,1.2E1,3.4E1,1.2E1,4.9E1,1.96E2,8E0,2.21E2,4.19E2,1E0,6E0,1.7387E4,1.28E2,9E0,9E0,2.4E1,3E1,3.18E2,6E0,1.18E2,2.4E1,4.8E1,1.2E1,2E0,2.8E1,1.9E1,5E0,2.7E1,5.8E1,6.8E1,3.5E1,2.59E2,1E2,2.68E2,1.94E2,3.11E3,4.47E2,1E1,2.2E1,5.6E1,2.68E2,7.1E1,1.1E1,6.1E2,7.6E1,1.91E2,9.7E1,3.03E2,1.1E1,5.9E1,3.3E1,6E0,2.5E1,6.17E2,1.006E3,3.1E1,1.7E1],"tree_param":{"num_deleted":"0","num_feature":"48","num_nodes":"125","size_leaf_vector":"1"}},{"base_weights":[-3.7797775E-2,-7.857787E-2,6.854886E-2,-1.0699347E-2,-9.024325E-2,2.058214E-2,1.3962665E-1,-5.5808574E-2,9.128149E-2,-9.377968E-2,8.885712E-2,2.2664668E-1,5.320304E-3,2.4589334E-1,6.113767E-2,-7.87273E-2,1.9483078E-2,3.5099998E-1,6.072682E-2,1.3333331E-1,-9.505172E-2,-6.577183E-2,2.0247522E-1,5.231707E-1,1.2964424E-1,-1.4955959E-2,1.2492353E-1,1.0464805E-1,4.1273582E-1,4.643678E-1,4.1559864E-2,-8.231731E-3,-9.6145146E-2,1.7635466E-1,-8.637876E-2,1.1489359E-1,5.4999995E-1,-5.0246328E-2,9.5238075E-2,5.4999995E-1,6.395347E-2,-9.766265E-2,5.3691035E-3,-9.208635E-2,2.7272725E-1,6.4E-1,1.6648933E-1,7.499998E-2,5.915493E-1,1.5540517E-2,2.8773582E-1,1.08083114E-1,-3.0502068E-2,-9.8780515E-3,1.56719E-1,3.663366E-1,6.401223E-2,2.1868509E-1,5.727011E-1,5.0124997E-1,3.749998E-2,1.984027E-2,2.517857E-1,7.9207895E-3,-4.6929847E-3,4.137929E-3,-9.91506E-3,1.25133665E-2,7.294118E-2,-9.965281E-3,1.9285712E-2,5.230769E-2,-4.000002E-3,3.0399999E-2,7.366666E-2,4.5454543E-2,-7.87565E-3,2.0585774E-2,3.0992713E-3,7.272727E-2,-7.5000017E-3,3.7647057E-2,-1.2857167E-3,1.1571426E-2,-9.853107E-3,-8.151518E-3,2.4830507E-2,4.4999998E-2,-9.927539E-3,4.8571426E-2,-8.000002E-3,-6.6666687E-3,7.538461E-2,1.0241933E-2,2.8615383E-2,-8.57143E-3,2.4999999E-2,6.220588E-2,-7.5000017E-3,2.8108105E-2,-7.2321454E-3,3.949367E-2,-2.5000023E-3,3.0418014E-4,2.6900584E-2,4.9589467E-3,-4.7799884E-3,4.617647E-2,1.372222E-2,4.621951E-2,-4.5000026E-3,4.4833045E-3,5.4399997E-2,3.4636848E-3,5.135135E-2,-4.5454773E-4,6.097859E-2,6.84375E-2,3.7142854E-2,4.4999998E-2,-8.57143E-3,-2.1923769E-3,1.21263135E-2,1.12408735E-2,8.40625E-2],"categories":[],"categories_nodes":[],"categories_segments":[],"categories_sizes":[],"default_left":[0,0,0,0,0,0,0,0,0,0,0,0,0,0,0,0,0,0,0,0,0,0,0,0,0,0,0,0,0,0,0,0,0,0,0,0,0,0,0,0,0,0,0,0,0,0,0,0,0,0,0,0,0,0,0,0,0,0,0,0,0,0,0,0,0,0,0,0,0,0,0,0,0,0,0,0,0,0,0,0,0,0,0,0,0,0,0,0,0,0,0,0,0,0,0,0,0,0,0,0,0,0,0,0,0,0,0,0,0,0,0,0,0,0,0,0,0,0,0,0,0,0,0,0,0],"id":10,"left_children":[1,3,5,7,9,11,13,15,17,19,21,23,25,27,29,31,33,35,37,39,41,43,45,47,49,51,53,55,57,59,61,63,65,67,69,71,73,75,77,79,81,83,85,87,89,91,93,95,97,99,101,103,105,-1,107,109,111,113,115,117,119,121,123,-1,-1,-1,-1,-1,-1,-1,-1,-1,-1,-1,-1,-1,-1,-1,-1,-1,-1,-1,-1,-1,-1,-1,-1,-1,-1,-1,-1,-1,-1,-1,-1,-1,-1,-1,-1,-1,-1,-1,-1,-1,-1,-1,-1,-1,-1,-1,-1,-1,-1,-1,-1,-1,-1,-1,-1,-1,-1,-1,-1,-1,-1],"loss_changes":[1.2690526E2,1.6746994E1,2.765052E1,1.4279753E1,1.144017E1,1.5232802E1,2.724258E1,3.7150002E0,7.5333877E0,5.126129E0,6.162345E0,9.5392E0,1.0941524E1,3.2666023E1,1.4829994E1,2.0252123E0,8.36841E0,4.6353264E0,3.2716236E0,2.826744E0,4.6156006E0,1.3523233E0,3.0738792E0,2.468546E0,4.5593543E0,7.382797E0,4.6672363E0,7.983899E0,1.9617088E1,1.3509159E0,8.1910095E0,1.1135869E0,5.5093E-1,5.659337E0,1.1349018E0,2.9924977E0,2.2557335E0,2.9573135E0,4.6201463E0,1.6056819E0,2.069239E0,3.1904297E0,9.45521E0,5.8636737E-1,8.652468E-1,1.2570257E0,1.4120708E0,3.589286E-1,1.4905186E0,3.4733036E0,3.5635815E0,7.318412E0,4.7487803E0,0E0,3.3445053E0,4.0032415E0,5.9869814E0,1.566412E1,7.452423E0,1.647686E0,4.4517857E-1,6.898587E0,1.3693373E1,0E0,0E0,0E0,0E0,0E0,0E0,0E0,0E0,0E0,0E0,0E0,0E0,0E0,0E0,0E0,0E0,0E0,0E0,0E0,0E0,0E0,0E0,0E0,0E0,0E0,0E0,0E0,0E0,0E0,0E0,0E0,0E0,0E0,0E0,0E0,0E0,0E0,0E0,0E0,0E0,0E0,0E0,0E0,0E0,0E0,0E0,0E0,0E0,0E0,0E0,0E0,0E0,0E0,0E0,0E0,0E0,0E0,0E0,0E0,0E0,0E0,0E0],"parents":[2147483647,0,0,1,1,2,2,3,3,4,4,5,5,6,6,7,7,8,8,9,9,10,10,11,11,12,12,13,13,14,14,15,15,16,16,17,17,18,18,19,19,20,20,21,21,22,22,23,23,24,24,25,25,26,26,27,27,28,28,29,29,30,30,31,31,32,32,33,33,34,34,35,35,36,36,37,37,38,38,39,39,40,40,41,41,42,42,43,43,44,44,45,45,46,46,47,47,48,48,49,49,50,50,51,51,52,52,54,54,55,55,56,56,57,57,58,58,59,59,60,60,61,61,62,62],"right_children":[2,4,6,8,10,12,14,16,18,20,22,24,26,28,30,32,34,36,38,40,42,44,46,48,50,52,54,56,58,60,62,64,66,68,70,72,74,76,78,80,82,84,86,88,90,92,94,96,98,100,102,104,106,-1,108,110,112,114,116,118,120,122,124,-1,-1,-1,-1,-1,-1,-1,-1,-1,-1,-1,-1,-1,-1,-1,-1,-1,-1,-1,-1,-1,-1,-1,-1,-1,-1,-1,-1,-1,-1,-1,-1,-1,-1,-1,-1,-1,-1,-1,-1,-1,-1,-1,-1,-1,-1,-1,-1,-1,-1,-1,-1,-1,-1,-1,-1,-1,-1,-1,-1,-1,-1],"split_conditions":[2.907229E-3,3.9533484E-6,9.563367E-5,1.30989895E1,4.665531E-1,-9.567516E-2,-2.874317E-2,1.0957075E0,4.7774697E-6,-7.270862E-2,1.2473947E-3,1.4399621E-2,9.103586E-2,1.3843414E1,-9.146931E-2,1.8957855E-18,-7.0334754E-5,4.0809473E-6,2.8141222E-19,1.7096071E-3,1.0844415E-1,1.1286219E-1,2.34771E-2,6.805584E-3,2.9112056E-2,8.433866E-4,-1.069322E0,-8.931825E-2,-3.521165E-3,-1.9821494E-3,6.103896E-1,-2.1736124E-3,-1.0691484E-3,5.8955573E-3,1.1954544E1,1.3136693E1,1.3339186E-21,-5.5570573E-2,4.2884382E-3,4.401426E-2,-9.4168626E-2,9.851256E-6,2.6035058E-1,3.0717095E-2,9.965972E0,-5.1463075E-17,1.5863811E1,4.3574874E-3,1.4592696E-2,1.5083419E-1,-9.739604E-2,6.062909E-3,-8.865451E-2,-7.3957926E-4,-1.0409602E0,2.680437E-2,9.037266E-2,1.978879E1,-4.967936E-1,-7.0150136E-3,-2.5046235E-2,6.243104E-3,1.6290792E-4,8.862924E-3,-6.184058E-3,7.737083E-3,-2.1126835E-2,1.7608257E-3,4.9560624E-3,-1.2529482E-2,1.2752958E-2,1.4537558E-2,-2.6006408E-3,2.540442E-3,4.223442E-3,3.2204532E-3,-9.289205E-4,3.9647957E-3,2.4072514E-3,1.0496069E-2,-6.250474E-3,2.272901E-3,-1.256049E-4,6.971359E-3,-1.7002301E-2,-1.3744821E-2,5.4188506E-3,6.113401E-3,-1.1292342E-2,3.55334E-3,-2.1906495E-3,-1.4367759E-3,1.1491392E-2,1.6855216E-3,2.9392352E-3,-6.363511E-4,4.1236283E-4,1.8612074E-3,-1.026392E-5,3.39305E-3,-1.1171403E-3,3.4029465E-3,-1.4477046E-5,1.2867982E-5,1.0710144E-3,3.5833893E-4,-5.493988E-4,2.7574252E-3,8.074759E-4,5.0154785E-3,-4.13837E-5,3.718312E-4,4.5972997E-3,6.7625084E-4,2.7506838E-3,1.0911686E-4,4.645677E-3,5.659058E-3,4.398214E-3,6.827116E-4,-4.0271878E-4,-1.5535246E-4,2.0927088E-3,1.2071596E-3,8.085966E-6],"split_indices":[17,45,29,2,21,32,4,15,25,34,14,37,33,2,33,13,6,25,11,17,46,39,37,45,1,23,8,33,26,24,39,26,27,5,0,0,43,4,5,1,32,13,12,7,0,20,2,4,34,13,32,43,32,0,8,23,32,2,21,22,4,17,35,0,0,0,0,0,0,0,0,0,0,0,0,0,0,0,0,0,0,0,0,0,0,0,0,0,0,0,0,0,0,0,0,0,0,0,0,0,0,0,0,0,0,0,0,0,0,0,0,0,0,0,0,0,0,0,0,0,0,0,0,0,0],"split_type":[0,0,0,0,0,0,0,0,0,0,0,0,0,0,0,0,0,0,0,0,0,0,0,0,0,0,0,0,0,0,0,0,0,0,0,0,0,0,0,0,0,0,0,0,0,0,0,0,0,0,0,0,0,0,0,0,0,0,0,0,0,0,0,0,0,0,0,0,0,0,0,0,0,0,0,0,0,0,0,0,0,0,0,0,0,0,0,0,0,0,0,0,0,0,0,0,0,0,0,0,0,0,0,0,0,0,0,0,0,0,0,0,0,0,0,0,0,0,0,0,0,0,0,0,0],"sum_hessian":[2.926E4,2.115E4,8.11E3,3.102E3,1.8048E4,4.843E3,3.267E3,2.151E3,9.51E2,1.7699E4,3.49E2,3.33E2,4.51E3,1.387E3,1.88E3,1.649E3,5.02E2,9.9E1,8.52E2,9.8E1,1.7601E4,1.48E2,2.01E2,8.1E1,2.52E2,3.857E3,6.53E2,7.52E2,6.35E2,8.6E1,1.794E3,3.27E2,1.322E3,2.02E2,3E2,4.6E1,5.3E1,2.02E2,6.5E2,1.3E1,8.5E1,1.7155E4,4.46E2,1.38E2,1E1,1.4E1,1.87E2,1.1E1,7E1,1.47E2,1.05E2,4.32E2,3.425E3,8.1E1,5.72E2,1E2,6.52E2,2.88E2,3.47E2,7.9E1,7E0,1.627E3,1.67E2,1E2,2.27E2,2.8E1,1.294E3,1.86E2,1.6E1,2.87E2,1.3E1,1.2E1,3.4E1,2.4E1,2.9E1,1E1,1.92E2,2.38E2,4.12E2,1E1,3E0,1.6E1,6.9E1,6.9E1,1.7086E4,3.29E2,1.17E2,1E0,1.37E2,6E0,4E0,2E0,1.2E1,1.23E2,6.4E1,6E0,5E0,6.7E1,3E0,3.6E1,1.11E2,7.8E1,2.7E1,2.62E2,1.7E2,6.08E2,2.817E3,3.3E1,5.39E2,8.1E1,1.9E1,6.28E2,2.4E1,1.78E2,1.1E2,2.1E1,3.26E2,3.1E1,4.8E1,1E0,6E0,1.153E3,4.74E2,1.36E2,3.1E1],"tree_param":{"num_deleted":"0","num_feature":"48","num_nodes":"125","size_leaf_vector":"1"}},{"base_weights":[-4.0224213E-2,-7.890882E-2,6.0658343E-2,-1.5855648E-2,-8.9744605E-2,1.6359374E-2,1.22251675E-1,-6.0920097E-2,8.602939E-2,-9.382041E-2,3.8420085E-2,1.8515149E-1,3.667402E-3,6.0875554E-2,2.3096403E-1,7.73109E-2,-6.897741E-2,3.2099998E-1,5.8382157E-2,1.2840907E-1,-9.4938554E-2,1.6945451E-1,-8.904596E-2,4.743902E-1,8.9156605E-2,-1.6028278E-2,1.05774626E-1,3.9466918E-2,2.5045452E-1,3.615681E-1,3.1319673E-3,8E-2,1.8017994E-2,1.2444442E-1,-7.3316604E-2,2.1829265E-1,7.473684E-1,6.0999995E-1,5.177723E-2,5.7777774E-1,7.624998E-2,1.1571426E-1,-9.5783606E-2,3.296703E-1,8.9729704E-2,-9.608544E-2,6E-2,8.636361E-2,6.0655737E-1,-1.0191106E-2,2.5591394E-1,1.0577365E-1,-3.2256104E-2,-6.666669E-2,1.3155338E-1,-1.6796561E-2,1.2095355E-1,8.653846E-2,1.6717947E-1,4.4665578E-1,4.51807E-2,4.634146E-1,-4.3243267E-2,-4.717005E-4,4.1666668E-2,-9.5000025E-3,2.884615E-2,-1.1280512E-3,-8.550814E-3,3.4893613E-2,4.166664E-3,8.307692E-2,4.8571426E-2,-5.0000013E-3,6.888889E-2,1.6937498E-2,2.4233554E-3,-6.6666687E-3,7.714286E-2,3.7647057E-2,-4.6875235E-4,-5.000002E-3,3.5172414E-2,-9.662936E-3,4.950493E-3,5.435897E-2,1.6603772E-2,1.6134452E-2,-3.8805995E-3,-4.210529E-3,-9.96198E-3,3.4285713E-2,-3.1250024E-3,6.82E-2,2.4166664E-2,-7.4796774E-3,2.1714283E-2,5.4166663E-2,7.413791E-3,3.0418014E-4,2.6315788E-2,-4.5318506E-3,6.7373984E-3,4.25E-2,-8.77778E-3,3.3623185E-2,1.0563634E-2,3.6999997E-2,-2.7087058E-3,2.2464065E-2,-4.1800668E-3,3.671233E-2,4.715445E-3,2.1800946E-2,5.6526054E-2,-5.8196746E-3,3.2444444E-2,-1.5384638E-3,6.6206895E-2,-6.4109615E-3,1.348837E-2],"categories":[],"categories_nodes":[],"categories_segments":[],"categories_sizes":[],"default_left":[0,0,0,0,0,0,0,0,0,0,0,0,0,0,0,0,0,0,0,0,0,0,0,0,0,0,0,0,0,0,0,0,0,0,0,0,0,0,0,0,0,0,0,0,0,0,0,0,0,0,0,0,0,0,0,0,0,0,0,0,0,0,0,0,0,0,0,0,0,0,0,0,0,0,0,0,0,0,0,0,0,0,0,0,0,0,0,0,0,0,0,0,0,0,0,0,0,0,0,0,0,0,0,0,0,0,0,0,0,0,0,0,0,0,0,0,0,0,0,0,0],"id":11,"left_children":[1,3,5,7,9,11,13,15,17,19,21,23,25,27,29,31,33,35,37,39,41,43,45,47,49,51,53,55,57,59,61,-1,63,65,67,69,71,73,75,77,79,81,83,85,87,89,-1,91,93,95,97,99,101,103,105,107,109,-1,111,113,115,117,119,-1,-1,-1,-1,-1,-1,-1,-1,-1,-1,-1,-1,-1,-1,-1,-1,-1,-1,-1,-1,-1,-1,-1,-1,-1,-1,-1,-1,-1,-1,-1,-1,-1,-1,-1,-1,-1,-1,-1,-1,-1,-1,-1,-1,-1,-1,-1,-1,-1,-1,-1,-1,-1,-1,-1,-1,-1,-1],"loss_changes":[1.1419883E2,1.44496E1,2.2129034E1,1.4252334E1,9.431915E0,1.0108858E1,2.2625198E1,2.4021664E0,6.165724E0,4.358917E0,9.318349E0,9.120301E0,8.830297E0,8.797336E0,3.641996E1,5.084776E0,1.7162514E0,4.215971E0,3.0762331E0,2.0185466E0,3.109604E0,3.4830413E0,1.4303486E0,4.152933E0,4.127781E0,7.279205E0,3.1649485E0,8.946822E0,1.11211605E1,2.0924095E1,9.561574E0,0E0,1.0079893E0,1.6470726E0,1.5041027E0,1.877614E0,1.1104584E-2,5.5511117E-1,2.7296739E0,1.174603E0,1.9456929E0,2.7553005E0,2.135147E0,3.0951262E0,1.7091973E0,4.9416065E-2,0E0,6.743912E-1,1.51441E0,2.32211E0,4.790541E0,7.0001044E0,4.2313294E0,1.0026112E0,3.2427616E0,4.6073017E0,1.3459171E1,0E0,4.6623497E0,1.6500427E1,4.81123E0,3.9099226E0,1.521409E0,0E0,0E0,0E0,0E0,0E0,0E0,0E0,0E0,0E0,0E0,0E0,0E0,0E0,0E0,0E0,0E0,0E0,0E0,0E0,0E0,0E0,0E0,0E0,0E0,0E0,0E0,0E0,0E0,0E0,0E0,0E0,0E0,0E0,0E0,0E0,0E0,0E0,0E0,0E0,0E0,0E0,0E0,0E0,0E0,0E0,0E0,0E0,0E0,0E0,0E0,0E0,0E0,0E0,0E0,0E0,0E0,0E0,0E0],"parents":[2147483647,0,0,1,1,2,2,3,3,4,4,5,5,6,6,7,7,8,8,9,9,10,10,11,11,12,12,13,13,14,14,15,15,16,16,17,17,18,18,19,19,20,20,21,21,22,22,23,23,24,24,25,25,26,26,27,27,28,28,29,29,30,30,32,32,33,33,34,34,35,35,36,36,37,37,38,38,39,39,40,40,41,41,42,42,43,43,44,44,45,45,47,47,48,48,49,49,50,50,51,51,52,52,53,53,54,54,55,55,56,56,58,58,59,59,60,60,61,61,62,62],"right_children":[2,4,6,8,10,12,14,16,18,20,22,24,26,28,30,32,34,36,38,40,42,44,46,48,50,52,54,56,58,60,62,-1,64,66,68,70,72,74,76,78,80,82,84,86,88,90,-1,92,94,96,98,100,102,104,106,108,110,-1,112,114,116,118,120,-1,-1,-1,-1,-1,-1,-1,-1,-1,-1,-1,-1,-1,-1,-1,-1,-1,-1,-1,-1,-1,-1,-1,-1,-1,-1,-1,-1,-1,-1,-1,-1,-1,-1,-1,-1,-1,-1,-1,-1,-1,-1,-1,-1,-1,-1,-1,-1,-1,-1,-1,-1,-1,-1,-1,-1,-1,-1],"split_conditions":[2.907229E-3,3.9533484E-6,9.273965E-5,1.30989895E1,3.5059165E-2,-9.567516E-2,1.3886588E1,-9.458379E-2,4.7774697E-6,-7.777576E-2,-1.3422152E-3,1.4399621E-2,9.0200625E-2,4.947251E-1,1.7485876E-2,-1.2656526E-3,7.9796014E0,3.2051834E-3,-1.19195424E-1,1.6773811E-3,9.851256E-6,5.05674E-4,6.25213E-1,1.3862561E1,3.0536639E-2,8.433866E-4,-1.069322E0,2.29121E-1,3.6508474E-4,3.8706213E-2,1.9107828E-2,3.835702E-3,2.421678E-2,7.9802E0,1.8957855E-18,1.3937387E1,1.3940551E1,1.388315E1,-1.9092046E-3,4.4819037E-3,-9.4168626E-2,1.1956048E1,5.460905E-1,-2.1778045E-3,2.230318E-4,-8.09609E-4,1.6702056E-3,-9.484037E-5,1.7844095E1,-4.0437497E-2,-9.838067E-2,6.062909E-3,1.5890106E1,1.19592346E-1,1.5523976E-1,-6.986568E-1,-1.5233465E0,7.461309E-6,-1.4416566E-2,1.2095979E-2,-7.7589975E-5,-4.0600304E-3,1.9829521E1,5.9325972E-5,9.776592E-4,-1.058054E-3,2.9843324E-3,-8.4263383E-4,-1.3868861E-2,1.0929279E-2,7.3428144E-4,3.759446E-3,1.7435134E-3,-7.455313E-3,7.899291E-3,4.171388E-3,1.3276802E-3,-1.659751E-4,8.146107E-3,2.0456105E-3,1.6799856E-4,-1.7059848E-2,8.845605E-3,-1.5321349E-2,4.1114385E-4,6.7357454E-3,5.295714E-3,2.1741993E-3,-1.7684231E-4,-8.746596E-3,-1.4111297E-2,2.0511688E-3,4.5826342E-5,1.6723572E-3,2.0631382E-3,-4.77202E-4,3.4562212E-3,3.4488484E-3,1.2195441E-3,1.1580522E-5,9.639109E-4,-5.4799375E-4,4.5851825E-4,2.017373E-3,-6.8116206E-4,2.21859E-3,7.267294E-4,4.23786E-3,-2.527905E-4,2.8957606E-3,-5.790309E-4,3.123623E-3,3.027277E-4,2.281867E-3,4.040652E-3,-5.882956E-4,2.1703304E-3,1.1950302E-3,5.209497E-3,-4.5788015E-4,1.0127228E-3],"split_indices":[17,45,29,2,42,32,0,46,25,34,24,37,33,20,4,26,2,4,10,17,13,41,21,2,1,23,8,13,37,19,1,0,1,3,13,2,3,2,27,45,32,0,4,24,25,27,0,28,2,36,32,43,0,13,13,10,12,0,22,19,28,26,0,0,0,0,0,0,0,0,0,0,0,0,0,0,0,0,0,0,0,0,0,0,0,0,0,0,0,0,0,0,0,0,0,0,0,0,0,0,0,0,0,0,0,0,0,0,0,0,0,0,0,0,0,0,0,0,0,0,0],"split_type":[0,0,0,0,0,0,0,0,0,0,0,0,0,0,0,0,0,0,0,0,0,0,0,0,0,0,0,0,0,0,0,0,0,0,0,0,0,0,0,0,0,0,0,0,0,0,0,0,0,0,0,0,0,0,0,0,0,0,0,0,0,0,0,0,0,0,0,0,0,0,0,0,0,0,0,0,0,0,0,0,0,0,0,0,0,0,0,0,0,0,0,0,0,0,0,0,0,0,0,0,0,0,0,0,0,0,0,0,0,0,0,0,0,0,0,0,0,0,0,0,0],"sum_hessian":[2.926E4,2.115E4,8.11E3,3.102E3,1.8048E4,4.718E3,3.392E3,2.151E3,9.51E2,1.7492E4,5.56E2,3.29E2,4.389E3,2.169E3,1.223E3,1.18E2,2.033E3,9.9E1,8.52E2,8.7E1,1.7405E4,2.74E2,2.82E2,8.1E1,2.48E2,3.68E3,7.09E2,1.95E3,2.19E2,7.77E2,4.46E2,8E0,1.1E2,4.4E1,1.989E3,8.1E1,1.8E1,9E0,8.43E2,8E0,7.9E1,6.9E1,1.7336E4,9E1,1.84E2,2.8E2,2E0,2.1E1,6E1,1.56E2,9.2E1,4.32E2,3.248E3,9.2E1,6.17E2,1.154E3,7.96E2,2.5E1,1.94E2,6.12E2,1.65E2,4E1,4.06E2,1.05E2,5E0,1.9E1,2.5E1,3.27E2,1.662E3,4.6E1,3.5E1,1.2E1,6E0,1E0,8E0,1.59E2,6.84E2,2E0,6E0,1.6E1,6.3E1,4.1E1,2.8E1,1.7236E4,1E2,3.8E1,5.2E1,1.18E2,6.6E1,1.8E1,2.62E2,6E0,1.5E1,4.9E1,1.1E1,1.22E2,3.4E1,3.5E1,5.7E1,2.62E2,1.7E2,2.872E3,3.76E2,3E0,8.9E1,6.8E1,5.49E2,2.9E1,1.125E3,4.86E2,3.1E2,7.2E1,1.22E2,2.1E2,4.02E2,1.21E2,4.4E1,1.2E1,2.8E1,3.64E2,4.2E1],"tree_param":{"num_deleted":"0","num_feature":"48","num_nodes":"121","size_leaf_vector":"1"}},{"base_weights":[-4.288988E-2,-7.881426E-2,5.0795194E-2,-1.8756066E-2,-8.9135155E-2,2.525164E-1,3.8745895E-2,4.206664E-2,-7.562347E-2,-9.492851E-2,-1.2519709E-2,1.52901E-1,4.2787877E-1,1.011217E-1,1.013524E-2,1.1051849E-1,-1.3922542E-2,1.1851829E-2,-8.360547E-2,1.5522386E-1,-9.592559E-2,-7.497406E-2,1.8279219E-1,3.560606E-1,9.342103E-2,4.828767E-1,4.9999775E-3,3.4666663E-1,6.000967E-2,4.03192E-3,2.8017238E-1,1.5019082E-1,-2.6973708E-2,2.767857E-1,-3.501948E-2,3.2631576E-1,-3.9316263E-2,-2.4013182E-2,-9.9057436E-2,4.352941E-1,5.8823507E-2,-9.756928E-2,2.8899059E-2,-8.0846585E-2,2.210526E-1,2.8294116E-1,5.899278E-2,6.6206896E-1,1.1315787E-1,7.16216E-2,7.714286E-2,4.0560746E-1,6.7749995E-1,4.4999998E-2,-4.2105287E-2,2.3514642E-1,5.9252334E-1,3.036647E-2,2.075362E-1,-4.21293E-3,1.5315983E-1,7.558823E-1,8.192769E-2,3.754386E-2,1.22435875E-2,3.5555553E-2,-5.069447E-3,6.4E-2,1.4047617E-2,-6.4412258E-3,8.609269E-3,-9.090912E-3,8E-2,-6.1682267E-3,1.8181816E-2,-4.775089E-3,4.0625E-2,5.714284E-3,-9.991389E-3,6.625E-2,2.0999998E-2,6.285714E-2,-3.1111136E-3,8.714284E-3,-9.83504E-3,-6.7924554E-3,2.8499996E-2,4.25E-2,-8.290873E-3,-9.090912E-3,5.7777774E-2,1.1999997E-2,3.5775863E-2,-4.6052653E-3,1.828125E-2,-6.6666687E-3,7.185185E-2,3.7333332E-2,-5.416669E-3,4.3999996E-2,4.4711516E-3,5.7551023E-2,2.576271E-2,-6.6666687E-3,7.1842104E-2,4.4999998E-2,-9.444447E-3,1.0252099E-2,3.6363635E-2,3.7704915E-2,8.5957445E-2,1.5633421E-2,-4.299505E-4,3.7835818E-2,9.858488E-3,1.4063601E-2,-1.3154474E-3,4.62E-2,8.22727E-3,3.4285713E-2,8.321428E-2,-4.878051E-3,2.0465113E-2],"categories":[],"categories_nodes":[],"categories_segments":[],"categories_sizes":[],"default_left":[0,0,0,0,0,0,0,0,0,0,0,0,0,0,0,0,0,0,0,0,0,0,0,0,0,0,0,0,0,0,0,0,0,0,0,0,0,0,0,0,0,0,0,0,0,0,0,0,0,0,0,0,0,0,0,0,0,0,0,0,0,0,0,0,0,0,0,0,0,0,0,0,0,0,0,0,0,0,0,0,0,0,0,0,0,0,0,0,0,0,0,0,0,0,0,0,0,0,0,0,0,0,0,0,0,0,0,0,0,0,0,0,0,0,0,0,0,0,0,0,0,0,0],"id":12,"left_children":[1,3,5,7,9,11,13,15,17,19,21,23,25,27,29,31,33,35,37,39,41,43,45,47,49,51,53,55,57,59,61,63,65,67,69,71,73,75,77,79,81,83,85,87,89,91,93,95,97,99,-1,101,103,-1,105,107,109,111,113,115,117,119,121,-1,-1,-1,-1,-1,-1,-1,-1,-1,-1,-1,-1,-1,-1,-1,-1,-1,-1,-1,-1,-1,-1,-1,-1,-1,-1,-1,-1,-1,-1,-1,-1,-1,-1,-1,-1,-1,-1,-1,-1,-1,-1,-1,-1,-1,-1,-1,-1,-1,-1,-1,-1,-1,-1,-1,-1,-1,-1,-1,-1],"loss_changes":[9.848421E1,1.3108856E1,1.9704805E1,1.0735929E1,8.010056E0,7.917816E0,1.3660185E1,5.7503843E0,1.1209488E0,4.2002106E0,1.5505264E1,3.5073261E0,3.8350658E0,2.4277506E1,8.649869E0,3.6859283E0,5.075595E0,2.1850495E0,1.351224E0,1.7833189E0,3.4320831E0,1.6919732E0,3.8020105E0,4.830879E0,3.3146296E0,1.9208069E0,4.3818423E-1,9.319881E0,9.015525E0,6.3130894E0,1.087768E1,3.2299442E0,1.3972552E0,2.682631E0,2.7501698E0,3.8277512E0,5.8988446E-1,3.124291E0,1.61829E-1,7.310736E-1,2.6327994E0,2.388794E0,5.42502E0,1.0209923E0,2.1669326E0,2.0295124E0,1.8163495E0,1.2408686E0,1.6745045E0,2.1810334E0,0E0,2.541954E0,1.2659798E0,0E0,5.318713E-1,4.0355253E0,5.832958E0,7.507192E0,6.3835926E0,6.304163E0,5.85115E0,7.856102E-1,1.3413827E0,0E0,0E0,0E0,0E0,0E0,0E0,0E0,0E0,0E0,0E0,0E0,0E0,0E0,0E0,0E0,0E0,0E0,0E0,0E0,0E0,0E0,0E0,0E0,0E0,0E0,0E0,0E0,0E0,0E0,0E0,0E0,0E0,0E0,0E0,0E0,0E0,0E0,0E0,0E0,0E0,0E0,0E0,0E0,0E0,0E0,0E0,0E0,0E0,0E0,0E0,0E0,0E0,0E0,0E0,0E0,0E0,0E0,0E0,0E0,0E0],"parents":[2147483647,0,0,1,1,2,2,3,3,4,4,5,5,6,6,7,7,8,8,9,9,10,10,11,11,12,12,13,13,14,14,15,15,16,16,17,17,18,18,19,19,20,20,21,21,22,22,23,23,24,24,25,25,26,26,27,27,28,28,29,29,30,30,31,31,32,32,33,33,34,34,35,35,36,36,37,37,38,38,39,39,40,40,41,41,42,42,43,43,44,44,45,45,46,46,47,47,48,48,49,49,51,51,52,52,54,54,55,55,56,56,57,57,58,58,59,59,60,60,61,61,62,62],"right_children":[2,4,6,8,10,12,14,16,18,20,22,24,26,28,30,32,34,36,38,40,42,44,46,48,50,52,54,56,58,60,62,64,66,68,70,72,74,76,78,80,82,84,86,88,90,92,94,96,98,100,-1,102,104,-1,106,108,110,112,114,116,118,120,122,-1,-1,-1,-1,-1,-1,-1,-1,-1,-1,-1,-1,-1,-1,-1,-1,-1,-1,-1,-1,-1,-1,-1,-1,-1,-1,-1,-1,-1,-1,-1,-1,-1,-1,-1,-1,-1,-1,-1,-1,-1,-1,-1,-1,-1,-1,-1,-1,-1,-1,-1,-1,-1,-1,-1,-1,-1,-1,-1,-1],"split_conditions":[2.907229E-3,3.9533484E-6,-9.144537E-2,-1.2976427E-3,1.301819E-1,7.873102E-1,-2.874317E-2,-8.131059E-20,-1.0630224E-3,-4.977962E-1,3.0581996E-1,-3.0418625E-1,-4.2090464E-1,4.618052E-3,6.1084896E-1,1.59237E1,4.7774697E-6,4.2874432E-23,9.969047E0,1.4665356E-4,4.2649424E-1,1.0018876E-1,2.8700896E-2,2.3355272E-2,3.7789186E-3,1.8945569E-4,6.185416E-1,1.7886683E1,8.258107E-2,9.557141E-2,6.1554914E-5,1.7434759E-18,-4.9070608E-2,-4.425483E-18,1.5874154E1,1.5023064E-23,4.824137E-18,9.965996E0,6.635242E-19,-9.1831796E-2,-9.7770095E-2,9.851256E-6,3.234558E-2,3.945357E-4,6.0201205E-2,-2.03196E-18,5.844877E-1,9.726797E-3,-4.314477E-4,1.1625711E-2,6.12852E-3,1.9841345E-3,-1.8002374E-1,2.7791322E-3,1.7752867E-3,1.0316365E-4,2.2820285E-2,-8.281044E-2,-4.1874555E-1,5.7587417E-6,1.4070536E-2,8.412314E-5,-1.0153977E-2,3.452134E-3,2.7907048E-3,5.693108E-3,-1.4301444E-3,1.0280242E-2,3.458326E-3,-4.9023437E-3,3.6839568E-3,-2.916009E-3,1.4055339E-2,-5.3077894E-3,9.00023E-3,-1.1583038E-3,5.865518E-3,2.6786297E-3,-1.4378351E-2,7.3093115E-3,7.661675E-3,2.2202076E-3,-1.3961199E-4,5.38966E-3,-1.3991753E-2,-1.4325773E-3,1.6818818E-3,1.4550862E-2,-1.205917E-2,-5.527165E-3,4.7301413E-3,4.2227893E-3,6.1573638E-3,-1.8991732E-4,2.284231E-3,-1.030469E-3,5.8870497E-3,3.2422028E-3,-3.1058193E-4,5.514413E-4,5.251801E-4,4.089487E-3,2.798408E-3,-1.8705309E-3,3.6745549E-3,6.368816E-4,-8.820466E-4,2.850771E-4,1.264358E-3,2.5624873E-3,2.0959573E-3,2.7087869E-3,-6.621842E-5,3.843144E-3,1.481384E-3,8.216751E-4,-9.136202E-5,3.8140775E-3,8.0296956E-4,3.7941337E-4,3.906142E-4,-5.487455E-4,4.2279377E-3],"split_indices":[17,45,30,26,45,9,4,36,27,20,12,39,21,37,39,3,25,47,3,25,4,39,37,23,41,47,6,3,30,33,25,21,10,10,2,47,22,2,13,32,4,13,34,1,34,32,21,11,28,7,0,22,4,0,43,25,23,30,9,29,45,31,10,0,0,0,0,0,0,0,0,0,0,0,0,0,0,0,0,0,0,0,0,0,0,0,0,0,0,0,0,0,0,0,0,0,0,0,0,0,0,0,0,0,0,0,0,0,0,0,0,0,0,0,0,0,0,0,0,0,0,0,0],"split_type":[0,0,0,0,0,0,0,0,0,0,0,0,0,0,0,0,0,0,0,0,0,0,0,0,0,0,0,0,0,0,0,0,0,0,0,0,0,0,0,0,0,0,0,0,0,0,0,0,0,0,0,0,0,0,0,0,0,0,0,0,0,0,0,0,0,0,0,0,0,0,0,0,0,0,0,0,0,0,0,0,0,0,0,0,0,0,0,0,0,0,0,0,0,0,0,0,0,0,0,0,0,0,0,0,0,0,0,0,0,0,0,0,0,0,0,0,0,0,0,0,0,0,0],"sum_hessian":[2.926E4,2.115E4,8.11E3,3.102E3,1.8048E4,4.56E2,7.654E3,1.499E3,1.603E3,1.6779E4,1.269E3,2.92E2,1.64E2,2.406E3,5.248E3,6.74E2,8.25E2,1.34E2,1.469E3,6.6E1,1.6713E4,9.62E2,3.07E2,6.5E1,2.27E2,1.45E2,1.9E1,3.44E2,2.062E3,5.133E3,1.15E2,5.23E2,1.51E2,5.5E1,7.7E2,1.8E1,1.16E2,3.03E2,1.166E3,1.6E1,5E1,1.6496E4,2.17E2,9.44E2,1.8E1,1.69E2,1.38E2,2.8E1,3.7E1,2.21E2,6E0,1.06E2,3.9E1,1E0,1.8E1,2.38E2,1.06E2,1.718E3,3.44E2,4.865E3,2.68E2,3.3E1,8.2E1,5.6E1,4.67E2,8E0,1.43E2,1.4E1,4.1E1,6.2E2,1.5E2,1E1,8E0,1.06E2,1E1,2.88E2,1.5E1,6E0,1.16E3,7E0,9E0,6E0,4.4E1,6.9E1,1.6427E4,1.58E2,5.9E1,3E0,9.41E2,1E1,8E0,5.4E1,1.15E2,7.5E1,6.3E1,2E0,2.6E1,1.4E1,2.3E1,1.4E1,2.07E2,4.8E1,5.8E1,2E0,3.7E1,1E0,1.7E1,1.18E2,1.2E2,6E1,4.6E1,3.7E2,1.348E3,1.33E2,2.11E2,2.82E2,4.583E3,4.9E1,2.19E2,6E0,2.7E1,4E1,4.2E1],"tree_param":{"num_deleted":"0","num_feature":"48","num_nodes":"123","size_leaf_vector":"1"}},{"base_weights":[-4.661497E-2,-7.853059E-2,3.6616918E-2,-1.8111529E-2,-8.891354E-2,2.4633428E-1,2.7409576E-2,3.6548533E-2,-7.0822805E-2,-9.433256E-2,-1.724412E-2,4.4615382E-1,1.01507515E-1,2.254733E-2,3.4529912E-1,1.4252575E-1,3.5177916E-4,3.7647057E-1,-7.563941E-2,7.0744656E-2,-9.619722E-2,-7.393564E-2,1.600649E-1,3.663793E-1,7.607143E-1,1.6025618E-2,4.022727E-1,1.5739223E-2,2.5694442E-1,7.4399996E-1,2.3440857E-1,8.722739E-2,4.0147057E-1,1.157556E-1,-4.3047182E-2,2.22222E-2,6.8888885E-1,2.1052608E-2,-8.456706E-2,4.2608693E-1,2.1084314E-2,8.714283E-2,-9.696807E-2,-7.978839E-2,2.210526E-1,3.0693066E-1,8.798075E-2,4.455696E-1,1.9210523E-1,1.7499998E-1,8.24E-1,2.8717947E-1,-7.372884E-2,-9.411767E-3,6.892857E-1,1.2367645E-1,4.8809107E-3,-1.2068989E-2,3.534591E-1,2.4999999E-1,8.5499994E-2,6.869565E-1,8.450702E-2,3.0303008E-3,2.307692E-2,8.307692E-2,2.9464284E-2,7.416667E-2,9.033332E-3,-7.89374E-3,1.9933532E-3,4.4999998E-2,-8.750002E-3,-5.0000013E-3,7.875E-2,2.7407406E-2,-4.299068E-3,-2.7491434E-3,-9.90368E-3,-8.57143E-3,6.1176468E-2,1.2840907E-2,-9.87342E-3,-5.000002E-3,2.827586E-2,-9.83915E-3,-1.9398017E-3,1.772727E-2,-8.582254E-3,-9.090912E-3,5.7777774E-2,2.4555555E-2,7.416667E-2,6.7499995E-2,7.6097543E-3,5.4098357E-2,1.1578945E-2,4.3157894E-2,-4.5000026E-3,4.4999998E-2,-6.6666687E-3,8.625E-2,-5.0000013E-3,6.1176468E-2,3.4782586E-3,-9.051727E-3,6E-2,-8.000002E-3,8.208334E-2,3.2142855E-2,7.855854E-3,6.307015E-5,2.7961163E-2,-9.795921E-3,4.0999997E-2,4.8971962E-2,7.169809E-3,-7.5000017E-3,6E-2,8.5263155E-2,-8.000002E-3,2.27027E-2,-6.857145E-3],"categories":[],"categories_nodes":[],"categories_segments":[],"categories_sizes":[],"default_left":[0,0,0,0,0,0,0,0,0,0,0,0,0,0,0,0,0,0,0,0,0,0,0,0,0,0,0,0,0,0,0,0,0,0,0,0,0,0,0,0,0,0,0,0,0,0,0,0,0,0,0,0,0,0,0,0,0,0,0,0,0,0,0,0,0,0,0,0,0,0,0,0,0,0,0,0,0,0,0,0,0,0,0,0,0,0,0,0,0,0,0,0,0,0,0,0,0,0,0,0,0,0,0,0,0,0,0,0,0,0,0,0,0,0,0,0,0,0,0,0,0,0,0],"id":13,"left_children":[1,3,5,7,9,11,13,15,17,19,21,23,25,27,29,31,33,35,37,39,41,43,45,47,49,51,53,55,57,59,61,63,65,67,69,71,73,75,77,79,81,83,85,87,89,91,93,95,97,99,101,103,105,-1,107,109,111,113,115,117,-1,119,121,-1,-1,-1,-1,-1,-1,-1,-1,-1,-1,-1,-1,-1,-1,-1,-1,-1,-1,-1,-1,-1,-1,-1,-1,-1,-1,-1,-1,-1,-1,-1,-1,-1,-1,-1,-1,-1,-1,-1,-1,-1,-1,-1,-1,-1,-1,-1,-1,-1,-1,-1,-1,-1,-1,-1,-1,-1,-1,-1,-1],"loss_changes":[7.7731705E1,1.3267014E1,1.5655095E1,8.942958E0,7.008209E0,9.822985E0,1.2003514E1,5.846061E0,3.4324818E0,5.171875E0,1.2777772E1,3.309719E0,5.1098394E0,1.2211808E1,4.9984217E0,5.52084E0,5.699541E0,1.8661442E0,1.3518772E0,3.3085432E0,2.3535156E0,1.6802478E0,3.2336988E0,1.5152998E0,8.936863E-1,3.8177867E0,6.3335752E0,8.719195E0,5.6124344E0,1.1570988E0,6.250848E0,2.6159074E0,2.8737679E0,4.8816643E0,1.8709174E0,4.6180555E-1,6.9513893E-1,2.1669576E0,1.1799221E0,2.2381291E0,2.1473541E0,1.8920493E0,1.822586E0,1.4810462E0,2.1669326E0,2.5127602E0,1.3995739E0,2.4231434E0,2.1770787E0,2.9583335E-1,8.843498E-1,3.1737685E0,1.3889904E0,0E0,2.8992014E0,6.0418196E0,7.8943944E0,2.1427557E0,6.069359E0,7.2749996E-1,0E0,2.990717E0,1.5645561E0,0E0,0E0,0E0,0E0,0E0,0E0,0E0,0E0,0E0,0E0,0E0,0E0,0E0,0E0,0E0,0E0,0E0,0E0,0E0,0E0,0E0,0E0,0E0,0E0,0E0,0E0,0E0,0E0,0E0,0E0,0E0,0E0,0E0,0E0,0E0,0E0,0E0,0E0,0E0,0E0,0E0,0E0,0E0,0E0,0E0,0E0,0E0,0E0,0E0,0E0,0E0,0E0,0E0,0E0,0E0,0E0,0E0,0E0,0E0,0E0],"parents":[2147483647,0,0,1,1,2,2,3,3,4,4,5,5,6,6,7,7,8,8,9,9,10,10,11,11,12,12,13,13,14,14,15,15,16,16,17,17,18,18,19,19,20,20,21,21,22,22,23,23,24,24,25,25,26,26,27,27,28,28,29,29,30,30,31,31,32,32,33,33,34,34,35,35,36,36,37,37,38,38,39,39,40,40,41,41,42,42,43,43,44,44,45,45,46,46,47,47,48,48,49,49,50,50,51,51,52,52,54,54,55,55,56,56,57,57,58,58,59,59,61,61,62,62],"right_children":[2,4,6,8,10,12,14,16,18,20,22,24,26,28,30,32,34,36,38,40,42,44,46,48,50,52,54,56,58,60,62,64,66,68,70,72,74,76,78,80,82,84,86,88,90,92,94,96,98,100,102,104,106,-1,108,110,112,114,116,118,-1,120,122,-1,-1,-1,-1,-1,-1,-1,-1,-1,-1,-1,-1,-1,-1,-1,-1,-1,-1,-1,-1,-1,-1,-1,-1,-1,-1,-1,-1,-1,-1,-1,-1,-1,-1,-1,-1,-1,-1,-1,-1,-1,-1,-1,-1,-1,-1,-1,-1,-1,-1,-1,-1,-1,-1,-1,-1,-1,-1,-1,-1],"split_conditions":[2.907229E-3,3.9533484E-6,-9.838067E-2,-1.2656526E-3,1.301819E-1,3.737535E-2,1.9799711E1,-9.432127E-3,-8.015755E-2,-4.5899164E-2,3.0581996E-1,3.507198E-4,1.1495681E-1,9.8178044E-2,3.201565E-3,8.72889E-1,5.190254E-21,-1.1645034E-3,-1.0630224E-3,1.7744919E-3,9.851256E-6,1.0018876E-1,4.5021696E-4,2.6113955E-2,1.3855089E1,2.425552E-3,-4.967936E-1,-8.7096035E-2,7.188029E-3,-3.3704944E-2,-4.682881E-2,1.6403516E-17,-2.2436718E-3,-5.5570573E-2,1.2879317E-18,8.683004E-3,5.639382E-3,1.1955372E1,9.969047E0,8.231965E-2,-1.0691484E-3,1.1956048E1,3.5805678E-1,4.2651696E-3,6.0201205E-2,4.002325E-2,-1.260667E-1,-3.7599313E-1,-4.314477E-4,-1.05459586E-1,5.355436E-2,1.4854254E-1,5.7160264E-1,-1.0674882E-3,-4.78669E0,-6.047155E-1,2.0296952E-4,3.0536639E-2,4.1757926E-2,1.9107828E-2,3.2672286E-3,6.0904134E-2,2.2391308E-5,1.1924785E-3,5.553197E-3,6.457577E-3,3.144941E-3,1.1214804E-2,1.5299736E-3,-6.75924E-3,1.801477E-3,1.8911004E-3,-1.0740877E-3,-2.935356E-3,1.1106193E-3,1.1770588E-2,-5.5436213E-3,-6.8984303E-4,-1.3013974E-2,-2.8541684E-4,5.208408E-3,9.854134E-4,-3.598405E-3,-1.5892832E-2,7.4220793E-3,-1.27455415E-2,-2.3717682E-4,1.1843844E-2,-1.1492894E-2,-4.9744505E-3,4.2571276E-3,6.094448E-3,9.404622E-3,2.9541731E-3,1.3056695E-3,3.9733835E-3,2.4802913E-4,3.4241788E-3,-2.9576433E-4,1.4107824E-4,-2.3378374E-3,4.000089E-3,-4.2579356E-3,4.909234E-3,3.5751026E-4,-1.7605916E-3,2.5871396E-4,-3.8749576E-3,6.7484477E-3,2.511835E-3,6.4677274E-4,9.232703E-6,1.6792465E-3,-3.0236843E-4,3.3933816E-3,3.6261678E-3,3.1193376E-3,-3.960371E-4,1.2482882E-3,2.2078978E-3,-1.6227305E-3,5.9081556E-4,-1.5418533E-4],"split_indices":[17,45,32,26,45,45,2,46,32,32,12,25,4,33,17,12,43,9,27,11,13,39,41,5,0,5,21,33,11,22,4,21,26,4,45,1,1,0,3,4,27,0,4,33,34,7,4,38,28,4,1,13,16,0,14,38,29,1,1,1,0,7,28,0,0,0,0,0,0,0,0,0,0,0,0,0,0,0,0,0,0,0,0,0,0,0,0,0,0,0,0,0,0,0,0,0,0,0,0,0,0,0,0,0,0,0,0,0,0,0,0,0,0,0,0,0,0,0,0,0,0,0,0],"split_type":[0,0,0,0,0,0,0,0,0,0,0,0,0,0,0,0,0,0,0,0,0,0,0,0,0,0,0,0,0,0,0,0,0,0,0,0,0,0,0,0,0,0,0,0,0,0,0,0,0,0,0,0,0,0,0,0,0,0,0,0,0,0,0,0,0,0,0,0,0,0,0,0,0,0,0,0,0,0,0,0,0,0,0,0,0,0,0,0,0,0,0,0,0,0,0,0,0,0,0,0,0,0,0,0,0,0,0,0,0,0,0,0,0,0,0,0,0,0,0,0,0,0,0],"sum_hessian":[2.926E4,2.115E4,8.11E3,3.102E3,1.8048E4,3.4E2,7.77E3,1.523E3,1.579E3,1.6779E4,1.269E3,1.42E2,1.98E2,7.654E3,1.16E2,3.87E2,1.136E3,1.6E1,1.563E3,1.87E2,1.6592E4,9.62E2,3.07E2,1.15E2,2.7E1,1.55E2,4.3E1,7.439E3,2.15E2,2.4E1,9.2E1,3.2E2,6.7E1,3.1E2,8.26E2,8E0,8E0,1.32E2,1.431E3,2.2E1,1.65E2,6.9E1,1.6523E4,9.44E2,1.8E1,1E2,2.07E2,7.8E1,3.7E1,3E0,2.4E1,3.8E1,1.17E2,1.6E1,2.7E1,6.79E2,6.76E3,5.7E1,1.58E2,5E0,1.9E1,2.2E1,7E1,2.3E2,9E1,1.2E1,5.5E1,1.1E1,2.99E2,5.26E2,3E2,1E0,7E0,1E0,7E0,2.6E1,1.06E2,2.9E2,1.141E3,6E0,1.6E1,8.7E1,7.8E1,4.1E1,2.8E1,1.6225E4,2.98E2,2.1E1,9.23E2,1E1,8E0,8.9E1,1.1E1,3E0,2.04E2,6E1,1.8E1,1.8E1,1.9E1,1E0,2E0,2.3E1,1E0,1.6E1,2.2E1,1.15E2,2E0,4E0,2.3E1,1.25E2,5.54E2,6.658E3,1.02E2,4.8E1,9E0,1.06E2,5.2E1,3E0,2E0,1.8E1,4E0,3.6E1,3.4E1],"tree_param":{"num_deleted":"0","num_feature":"48","num_nodes":"123","size_leaf_vector":"1"}},{"base_weights":[-4.7879454E-2,-7.848331E-2,3.193192E-2,-2.004514E-2,-8.8525705E-2,2.1407622E-1,2.393512E-2,-5.534389E-2,5.9768885E-2,-9.367702E-2,-2.0393725E-2,3.7806448E-1,7.700533E-2,1.9804025E-2,2.9401708E-1,4.0499997E-1,-5.9634343E-2,1.24009304E-1,7.0610447E-3,-8.244298E-3,-9.714129E-2,-7.289722E-2,1.4383115E-1,6.864865E-1,2.7899158E-1,1.9619045E-1,-7.469882E-2,1.3991912E-2,2.1990739E-1,7.04E-1,1.8064514E-1,7.499998E-2,8E-2,-7.87273E-2,5.5784886E-3,3.8032763E-2,3.3279997E-1,4.5499998E-1,-1.0693093E-2,1.7584267E-1,-7.677826E-2,8.714283E-2,-9.793862E-2,-7.873018E-2,2.210526E-1,7.1E-1,1.2441469E-1,1.9999997E-1,7.741935E-1,1.4259256E-1,3.8636363E-1,1.293478E-1,6.2142855E-1,1.3333331E-1,-9.866669E-3,1.11911744E-1,4.1413754E-3,-4.655175E-2,3.1572324E-1,2.4999999E-1,8.0499995E-1,5.565217E-1,5.6338005E-2,-9.000002E-3,6E-2,-8.2317315E-4,-9.614515E-3,1.5597823E-2,-8.637876E-3,2.0648146E-2,-5.404043E-3,6.9047594E-3,4.6071425E-2,-7.5000017E-3,5.5294115E-2,5.6640604E-3,-7.960002E-3,5.326087E-2,5.11278E-3,-8.088238E-3,6E-2,-5.000002E-3,2.827586E-2,-9.812276E-3,2.9166646E-3,1.6521737E-2,-8.472375E-3,-9.090912E-3,5.7777774E-2,2.6666665E-2,7.875E-2,1.9875774E-2,3.7410047E-3,-8.000002E-3,6E-2,3.2E-2,8.296296E-2,9.80392E-3,6.7499995E-2,3.3499997E-2,7.714286E-2,-3.278691E-3,4.34375E-2,-7.5000017E-3,8.1818186E-2,6E-2,-8.57143E-3,2.1628661E-2,2.5935804E-3,-3.4375023E-3,2.808151E-3,-8.035717E-3,6E-2,4.3364484E-2,7.169809E-3,-7.5000017E-3,6E-2,2.6666665E-2,8.5E-2,8.307692E-2,1.8181816E-2,-5.3333356E-3,2.3703702E-2],"categories":[],"categories_nodes":[],"categories_segments":[],"categories_sizes":[],"default_left":[0,0,0,0,0,0,0,0,0,0,0,0,0,0,0,0,0,0,0,0,0,0,0,0,0,0,0,0,0,0,0,0,0,0,0,0,0,0,0,0,0,0,0,0,0,0,0,0,0,0,0,0,0,0,0,0,0,0,0,0,0,0,0,0,0,0,0,0,0,0,0,0,0,0,0,0,0,0,0,0,0,0,0,0,0,0,0,0,0,0,0,0,0,0,0,0,0,0,0,0,0,0,0,0,0,0,0,0,0,0,0,0,0,0,0,0,0,0,0,0,0,0,0],"id":14,"left_children":[1,3,5,7,9,11,13,15,17,19,21,23,25,27,29,31,33,35,37,39,41,43,45,47,49,51,53,55,57,59,61,63,-1,65,67,69,71,73,75,77,79,81,83,85,87,89,91,93,95,97,99,101,103,105,-1,107,109,111,113,115,117,119,121,-1,-1,-1,-1,-1,-1,-1,-1,-1,-1,-1,-1,-1,-1,-1,-1,-1,-1,-1,-1,-1,-1,-1,-1,-1,-1,-1,-1,-1,-1,-1,-1,-1,-1,-1,-1,-1,-1,-1,-1,-1,-1,-1,-1,-1,-1,-1,-1,-1,-1,-1,-1,-1,-1,-1,-1,-1,-1,-1,-1],"loss_changes":[7.147354E1,1.2410889E1,1.180913E1,8.7455E0,6.332733E0,7.635891E0,8.664547E0,4.2745304E0,3.2225716E0,4.965439E0,1.0960907E1,4.5446987E0,3.3957796E0,8.899868E0,5.3110495E0,2.5470002E0,2.65625E0,7.688365E0,4.1721163E0,8.277119E0,2.3780212E0,1.6685615E0,3.2975068E0,1.4238873E0,1.6877146E0,2.9041443E0,4.270008E-1,7.1758842E0,5.529395E0,9.451008E-1,4.3139915E0,1.0935E0,0E0,2.0252123E0,6.7073617E0,4.741589E0,4.1854E0,1.0796471E0,2.3475864E0,7.8927054E0,1.3762093E0,1.8920493E0,3.7867737E-1,1.3956981E0,2.1669326E0,1.3358355E-1,1.9265532E0,8.32E-1,5.150585E-1,1.2147331E0,1.0469408E0,4.564147E0,1.9797072E0,9.714285E-1,0E0,6.096526E0,6.2352014E0,1.3159175E0,4.5442667E0,7.2749996E-1,2.5783253E-1,2.2124658E0,1.4196849E0,0E0,0E0,0E0,0E0,0E0,0E0,0E0,0E0,0E0,0E0,0E0,0E0,0E0,0E0,0E0,0E0,0E0,0E0,0E0,0E0,0E0,0E0,0E0,0E0,0E0,0E0,0E0,0E0,0E0,0E0,0E0,0E0,0E0,0E0,0E0,0E0,0E0,0E0,0E0,0E0,0E0,0E0,0E0,0E0,0E0,0E0,0E0,0E0,0E0,0E0,0E0,0E0,0E0,0E0,0E0,0E0,0E0,0E0,0E0,0E0],"parents":[2147483647,0,0,1,1,2,2,3,3,4,4,5,5,6,6,7,7,8,8,9,9,10,10,11,11,12,12,13,13,14,14,15,15,16,16,17,17,18,18,19,19,20,20,21,21,22,22,23,23,24,24,25,25,26,26,27,27,28,28,29,29,30,30,31,31,33,33,34,34,35,35,36,36,37,37,38,38,39,39,40,40,41,41,42,42,43,43,44,44,45,45,46,46,47,47,48,48,49,49,50,50,51,51,52,52,53,53,55,55,56,56,57,57,58,58,59,59,60,60,61,61,62,62],"right_children":[2,4,6,8,10,12,14,16,18,20,22,24,26,28,30,32,34,36,38,40,42,44,46,48,50,52,54,56,58,60,62,64,-1,66,68,70,72,74,76,78,80,82,84,86,88,90,92,94,96,98,100,102,104,106,-1,108,110,112,114,116,118,120,122,-1,-1,-1,-1,-1,-1,-1,-1,-1,-1,-1,-1,-1,-1,-1,-1,-1,-1,-1,-1,-1,-1,-1,-1,-1,-1,-1,-1,-1,-1,-1,-1,-1,-1,-1,-1,-1,-1,-1,-1,-1,-1,-1,-1,-1,-1,-1,-1,-1,-1,-1,-1,-1,-1,-1,-1,-1,-1,-1,-1],"split_conditions":[2.907229E-3,3.9533484E-6,-9.838067E-2,1.30989895E1,1.301819E-1,8.681747E-2,1.9799711E1,-7.777576E-2,4.1770292E-3,-4.0030017E-2,3.0581996E-1,-3.0343112E-2,-1.6471456E0,9.8178044E-2,3.201565E-3,9.930959E0,1.0957075E0,3.000678E-3,2.4457126E-20,-1.0386613E-3,9.851256E-6,1.0018876E-1,6.7235564E-4,