{"learner":{"attributes":{"scikit_learn":"{\"_estimator_type\": \"regressor\"}"},"feature_names":[],"feature_types":[],"gradient_booster":{"model":{"gbtree_model_param":{"num_parallel_tree":"1","num_trees":"200"},"iteration_indptr":[0,1,2,3,4,5,6,7,8,9,10,11,12,13,14,15,16,17,18,19,20,21,22,23,24,25,26,27,28,29,30,31,32,33,34,35,36,37,38,39,40,41,42,43,44,45,46,47,48,49,50,51,52,53,54,55,56,57,58,59,60,61,62,63,64,65,66,67,68,69,70,71,72,73,74,75,76,77,78,79,80,81,82,83,84,85,86,87,88,89,90,91,92,93,94,95,96,97,98,99,100,101,102,103,104,105,106,107,108,109,110,111,112,113,114,115,116,117,118,119,120,121,122,123,124,125,126,127,128,129,130,131,132,133,134,135,136,137,138,139,140,141,142,143,144,145,146,147,148,149,150,151,152,153,154,155,156,157,158,159,160,161,162,163,164,165,166,167,168,169,170,171,172,173,174,175,176,177,178,179,180,181,182,183,184,185,186,187,188,189,190,191,192,193,194,195,196,197,198,199,200],"tree_info":[0,0,0,0,0,0,0,0,0,0,0,0,0,0,0,0,0,0,0,0,0,0,0,0,0,0,0,0,0,0,0,0,0,0,0,0,0,0,0,0,0,0,0,0,0,0,0,0,0,0,0,0,0,0,0,0,0,0,0,0,0,0,0,0,0,0,0,0,0,0,0,0,0,0,0,0,0,0,0,0,0,0,0,0,0,0,0,0,0,0,0,0,0,0,0,0,0,0,0,0,0,0,0,0,0,0,0,0,0,0,0,0,0,0,0,0,0,0,0,0,0,0,0,0,0,0,0,0,0,0,0,0,0,0,0,0,0,0,0,0,0,0,0,0,0,0,0,0,0,0,0,0,0,0,0,0,0,0,0,0,0,0,0,0,0,0,0,0,0,0,0,0,0,0,0,0,0,0,0,0,0,0,0,0,0,0,0,0,0,0,0,0,0,0,0,0,0,0,0,0],"trees":[{"base_weights":[-2.4481193E-5,4.7051743E-1,-2.5210975E-2,8.4352326E-1,3.5712048E-1,-3.19239E-2,7.7E-1,8.84153E-2,9.090907E-2,2.0084268E-1,5.5176055E-1,1.6627584E-1,-5.252745E-2,8.919643E-2,1.0526293E-2,6E-2,-8.888892E-3,1.2145212E-1,6.4259255E-1,7.313559E-1,4.2155686E-1,7.675399E-2,5.608209E-1,-6.904617E-2,1.6373736E-1,6E-2,-9.411767E-3,4.9808405E-2,5.534884E-1,8.3095235E-1,-1.5384638E-2,7.4568963E-1,-6.6666687E-3,-1.6216239E-2,5.4198474E-1,3.855319E-1,2.1072433E-4,6.165254E-1,1.4545453E-1,8.792202E-3,-8.461755E-2,1.8484019E-2,6.2008363E-1,2.285712E-3,4.352941E-2,-8.750002E-3,6.8055555E-2,4.1666668E-2,8.756757E-2,4.4999998E-2,-9.166669E-3,-5.0000013E-3,7.530435E-2,-9.687503E-3,4.1666668E-2,2.431818E-2,6.852273E-2,6.1013516E-2,3.4090676E-4,-2.4860047E-3,3.9298244E-2,8.5957445E-2,5.531579E-2,-1.9230793E-3,6.625E-2,-2.4602793E-3,3.175355E-2,7.9444446E-2,-8.607739E-3,-7.5306147E-3,1.9315587E-2,1.9047616E-2,6.5844744E-2],"categories":[],"categories_nodes":[],"categories_segments":[],"categories_sizes":[],"default_left":[0,0,0,0,0,0,0,0,0,0,0,0,0,0,0,0,0,0,0,0,0,0,0,0,0,0,0,0,0,0,0,0,0,0,0,0,0,0,0,0,0,0,0,0,0,0,0,0,0,0,0,0,0,0,0,0,0,0,0,0,0,0,0,0,0,0,0,0,0,0,0,0,0],"id":0,"left_children":[1,3,5,7,9,11,13,-1,15,17,19,21,23,-1,25,-1,-1,27,29,31,33,35,37,39,41,-1,-1,43,45,47,49,51,-1,53,55,57,59,61,63,65,67,69,71,-1,-1,-1,-1,-1,-1,-1,-1,-1,-1,-1,-1,-1,-1,-1,-1,-1,-1,-1,-1,-1,-1,-1,-1,-1,-1,-1,-1,-1,-1],"loss_changes":[1.9383987E2,3.4848175E1,8.2900024E1,5.821274E0,1.932624E1,6.2880116E1,1.2032341E1,0E0,1.0602021E0,1.2407148E1,6.332741E0,5.117154E1,4.9835823E1,0E0,1.228483E0,0E0,0E0,9.351093E0,6.705349E0,1.3994751E0,8.81304E0,2.7959969E1,6.111244E0,1.5706501E1,6.5611496E1,0E0,0E0,2.701667E0,3.5618372E0,4.1332054E-1,5.027565E-1,7.164078E-1,0E0,1.3322495E0,5.4403343E0,2.0167034E1,9.354657E0,3.159256E0,2.8226836E0,2.2288763E1,1.3925316E1,1.2334187E1,3.8136292E0,0E0,0E0,0E0,0E0,0E0,0E0,0E0,0E0,0E0,0E0,0E0,0E0,0E0,0E0,0E0,0E0,0E0,0E0,0E0,0E0,0E0,0E0,0E0,0E0,0E0,0E0,0E0,0E0,0E0,0E0],"parents":[2147483647,0,0,1,1,2,2,3,3,4,4,5,5,6,6,8,8,9,9,10,10,11,11,12,12,14,14,17,17,18,18,19,19,20,20,21,21,22,22,23,23,24,24,27,27,28,28,29,29,30,30,31,31,33,33,34,34,35,35,36,36,37,37,38,38,39,39,40,40,41,41,42,42],"right_children":[2,4,6,8,10,12,14,-1,16,18,20,22,24,-1,26,-1,-1,28,30,32,34,36,38,40,42,-1,-1,44,46,48,50,52,-1,54,56,58,60,62,64,66,68,70,72,-1,-1,-1,-1,-1,-1,-1,-1,-1,-1,-1,-1,-1,-1,-1,-1,-1,-1,-1,-1,-1,-1,-1,-1,-1,-1,-1,-1,-1,-1],"split_conditions":[-8.346515E-2,-9.818755E-2,9.727248E-2,-2.1094503E-1,-4.727535E-1,-4.4590108E-2,-7.0752835E-1,1.5177972E-2,1.5066528E-3,1.8190975E-4,-5.58099E-2,1.593267E1,9.89762E-2,1.6192129E-2,3.22693E-3,5.3541483E-3,-7.606894E-3,4.132756E-1,1.4879066E-3,1.977686E1,-2.8667072E-2,-9.746891E-2,-7.705039E-2,8.650657E-20,1.593267E1,6.595254E-5,-1.3670446E-3,2.1023992E-3,-7.120848E-2,-4.907966E-4,7.939764E0,1.3856103E1,-3.4376767E-2,1.5885876E1,1.586427E1,7.871249E-20,1.1071486E0,-5.8696526E-1,2.5490921E-2,2.6921645E-2,-9.530552E-2,1.5749226E1,-1.9099706E-19,2.9324234E-4,5.294512E-3,-2.1811128E-4,6.1484636E-3,5.029708E-3,7.386345E-3,1.4393032E-3,-1.1973287E-3,-8.115369E-3,1.031253E-2,-6.726957E-4,8.116788E-3,3.9150096E-3,1.2645657E-2,1.0453236E-2,5.6093666E-3,-8.677483E-4,9.162712E-3,1.27143655E-2,8.8082785E-3,-1.2294248E-4,1.0379749E-2,-1.3478881E-3,8.924901E-3,1.4674693E-2,-6.709224E-3,-3.3205212E-3,6.316125E-3,6.8141143E-3,1.1024321E-2],"split_indices":[33,33,30,12,21,42,8,0,27,35,44,3,39,0,19,0,0,45,41,0,22,32,38,45,3,0,0,27,22,34,0,0,0,0,3,45,15,20,1,5,30,0,38,0,0,0,0,0,0,0,0,0,0,0,0,0,0,0,0,0,0,0,0,0,0,0,0,0,0,0,0,0,0],"split_type":[0,0,0,0,0,0,0,0,0,0,0,0,0,0,0,0,0,0,0,0,0,0,0,0,0,0,0,0,0,0,0,0,0,0,0,0,0,0,0,0,0,0,0,0,0,0,0,0,0,0,0,0,0,0,0,0,0,0,0,0,0,0,0,0,0,0,0,0,0,0,0,0,0],"sum_hessian":[1.6354E4,8.3E2,1.5524E4,1.92E2,6.38E2,1.5395E4,1.29E2,1.82E2,1E1,3.55E2,2.83E2,1.449E3,1.3946E4,1.11E2,1.8E1,2E0,8E0,3.02E2,5.3E1,1.17E2,1.66E2,1.182E3,2.67E2,1.2957E4,9.89E2,2E0,1.6E1,2.6E2,4.2E1,4.1E1,1.2E1,1.15E2,2E0,3.6E1,1.3E2,2.34E2,9.48E2,2.35E2,3.2E1,2.16E3,1.0797E4,7.51E2,2.38E2,2.44E2,1.6E1,7E0,3.5E1,5E0,3.6E1,1E0,1.1E1,1E0,1.14E2,3.1E1,5E0,4.3E1,8.7E1,1.47E2,8.7E1,8.92E2,5.6E1,4.6E1,1.89E2,2.5E1,7E0,1.95E3,2.1E2,1.7E1,1.078E4,4.89E2,2.62E2,2E1,2.18E2],"tree_param":{"num_deleted":"0","num_feature":"48","num_nodes":"73","size_leaf_vector":"1"}},{"base_weights":[-1.8587826E-3,4.3642455E-1,-2.7229829E-2,7.724806E-1,2.9984322E-1,-3.3661645E-2,7.315384E-1,8.446352E-1,9.6153826E-2,6.664062E-1,2.0743638E-1,1.4902095E-1,-5.2449137E-2,8.6422014E-1,4.0909067E-2,8.333331E-2,8.609649E-1,4.1249996E-1,-4.2105287E-2,3.9111108E-1,8.0595237E-1,5.6198347E-1,9.718668E-2,6.689832E-2,4.860714E-1,-6.6967614E-2,1.4692794E-1,-5.0000013E-3,8.7314814E-1,4.1666666E-1,-9.411767E-3,4.4999998E-2,-8.000002E-3,1.7499998E-1,8.693333E-1,-6.6666687E-3,5.833333E-1,-9.444447E-3,4.4999998E-2,8.173913E-1,-5.2173935E-2,2.6666665E-1,8.1585366E-1,7.728571E-1,2.6730767E-1,5.783784E-1,4.676054E-2,4.9696967E-1,2.6400736E-2,3.1619716E-1,6.5611506E-1,9.9833585E-2,-7.507284E-2,1.9417452E-2,5.566964E-1,-5.0000013E-3,8.82243E-1,6.7499995E-2,-6.6666687E-3,4.4999998E-2,-6.6666687E-3,-5.0000013E-3,8.736607E-2,7.2E-2,-5.0000013E-3,2.6666665E-2,8.571428E-2,4.4999998E-2,-9.545457E-3,-5.0000013E-3,4.4999998E-2,5.454545E-2,8.4583335E-2,-6.6666687E-3,7.985294E-2,8.4375E-2,1.0810788E-3,-8.333336E-3,6.84375E-2,6.4722546E-5,3.4893613E-2,7.954545E-2,-9.705885E-3,-6.012682E-4,3.1603772E-2,7.5362297E-3,5.3648647E-2,5.156626E-2,8.491228E-2,3.1376146E-2,5.233263E-3,1.1968754E-3,-8.402037E-3,-7.188844E-3,1.8554686E-2,3.8515624E-2,7.773196E-2,2.6666665E-2,8.914285E-2],"categories":[],"categories_nodes":[],"categories_segments":[],"categories_sizes":[],"default_left":[0,0,0,0,0,0,0,0,0,0,0,0,0,0,0,0,0,0,0,0,0,0,0,0,0,0,0,0,0,0,0,0,0,0,0,0,0,0,0,0,0,0,0,0,0,0,0,0,0,0,0,0,0,0,0,0,0,0,0,0,0,0,0,0,0,0,0,0,0,0,0,0,0,0,0,0,0,0,0,0,0,0,0,0,0,0,0,0,0,0,0,0,0,0,0,0,0,0,0],"id":1,"left_children":[1,3,5,7,9,11,13,15,17,19,21,23,25,27,29,31,33,35,37,39,41,43,45,47,49,51,53,-1,55,57,-1,-1,-1,59,61,-1,63,-1,-1,65,67,69,71,73,75,77,79,81,83,85,87,89,91,93,95,-1,97,-1,-1,-1,-1,-1,-1,-1,-1,-1,-1,-1,-1,-1,-1,-1,-1,-1,-1,-1,-1,-1,-1,-1,-1,-1,-1,-1,-1,-1,-1,-1,-1,-1,-1,-1,-1,-1,-1,-1,-1,-1,-1],"loss_changes":[1.8187468E2,4.084796E1,7.5478325E1,1.2509201E1,2.1472698E1,5.26295E1,1.1877052E1,2.8248749E0,1.1545496E0,4.6020775E0,1.991971E1,3.954913E1,4.0254196E1,9.333191E-1,1.1554368E0,3.9533332E-1,1.1566925E0,6.9375E-1,5.318713E-1,8.54601E0,2.3097229E-1,7.312275E0,9.460428E0,2.0033676E1,7.880623E0,1.7528908E1,4.9312977E1,0E0,9.508667E-1,7.9416656E-1,0E0,0E0,0E0,2.9583335E-1,9.38797E-1,0E0,5.553334E-1,0E0,0E0,2.7494717E-1,5.4284585E-1,1.9666666E-1,2.0336533E-1,1.5619049E0,7.679372E0,2.6521816E0,4.946457E0,1.7630749E1,9.887595E0,7.493144E0,3.3302078E0,6.0908084E0,9.62706E0,1.0949894E1,8.178062E0,0E0,3.673172E-1,0E0,0E0,0E0,0E0,0E0,0E0,0E0,0E0,0E0,0E0,0E0,0E0,0E0,0E0,0E0,0E0,0E0,0E0,0E0,0E0,0E0,0E0,0E0,0E0,0E0,0E0,0E0,0E0,0E0,0E0,0E0,0E0,0E0,0E0,0E0,0E0,0E0,0E0,0E0,0E0,0E0,0E0],"parents":[2147483647,0,0,1,1,2,2,3,3,4,4,5,5,6,6,7,7,8,8,9,9,10,10,11,11,12,12,13,13,14,14,15,15,16,16,17,17,18,18,19,19,20,20,21,21,22,22,23,23,24,24,25,25,26,26,28,28,29,29,33,33,34,34,36,36,39,39,40,40,41,41,42,42,43,43,44,44,45,45,46,46,47,47,48,48,49,49,50,50,51,51,52,52,53,53,54,54,56,56],"right_children":[2,4,6,8,10,12,14,16,18,20,22,24,26,28,30,32,34,36,38,40,42,44,46,48,50,52,54,-1,56,58,-1,-1,-1,60,62,-1,64,-1,-1,66,68,70,72,74,76,78,80,82,84,86,88,90,92,94,96,-1,98,-1,-1,-1,-1,-1,-1,-1,-1,-1,-1,-1,-1,-1,-1,-1,-1,-1,-1,-1,-1,-1,-1,-1,-1,-1,-1,-1,-1,-1,-1,-1,-1,-1,-1,-1,-1,-1,-1,-1,-1,-1,-1],"split_conditions":[-8.64873E-2,-9.89251E-2,9.727248E-2,-2.1094503E-1,4.685317E-3,-4.4590108E-2,-6.085079E-1,3.3280775E-3,2.1790927E-2,6.289177E-3,-5.9494716E-1,1.593267E1,1.0423641E-1,4.9939267E-3,1.5862587E1,5.63996E-3,-1.47529E-1,-6.2412554E-1,1.5519847E-1,1.8373762E-1,-1.3715E-3,-9.3371846E-2,-4.326298E-2,-1.0196608E-1,2.5490921E-2,-5.375395E-20,1.593267E1,-9.333134E-4,3.0045647E-3,3.525683E-2,-8.534207E-4,3.912449E-5,-1.0971427E-3,9.837873E0,-5.179949E-1,-6.7387642E-3,9.7256975E0,-5.6719556E-3,4.8187315E-3,1.5799178E1,6.2395628E-3,1.7836967E1,5.3716297E-3,-6.6291733E-4,2.137221E-2,7.963571E-3,-5.168521E-1,5.7286616E-2,1.1056557E0,-9.491159E-2,1.7889168E1,-5.1802E-3,-4.0226723E-3,1.5749226E1,8.7845735E-2,-1.3576389E-3,-5.3009257E-2,6.483549E-3,-5.9109927E-5,4.7197165E-3,-1.7054499E-3,-3.8530232E-4,1.3343948E-2,1.6416222E-2,-4.083574E-4,2.2539676E-3,1.553337E-2,7.0518254E-5,-1.1803139E-3,-3.5119473E-3,1.5080499E-2,4.4999286E-3,8.592596E-3,-2.026167E-2,6.647712E-3,4.7843074E-3,2.1215796E-3,-3.3850432E-3,1.1709034E-2,1.1107124E-4,5.6091086E-3,9.309722E-3,-3.9694305E-3,-1.9626338E-4,7.4498034E-3,1.4792044E-3,7.5818966E-3,7.9534175E-3,1.23591265E-2,1.33596035E-2,2.0441038E-3,5.426858E-4,-6.4718067E-3,-2.9815747E-3,5.841048E-3,7.8072296E-3,1.05034225E-2,9.016812E-4,1.4707032E-2],"split_indices":[30,30,30,12,17,42,6,23,23,5,38,3,39,1,0,5,22,6,43,13,28,32,34,32,1,45,3,0,23,1,0,0,0,0,10,0,2,0,0,2,1,0,19,28,1,11,20,45,15,44,0,34,26,0,33,0,40,0,0,0,0,0,0,0,0,0,0,0,0,0,0,0,0,0,0,0,0,0,0,0,0,0,0,0,0,0,0,0,0,0,0,0,0,0,0,0,0,0,0],"split_type":[0,0,0,0,0,0,0,0,0,0,0,0,0,0,0,0,0,0,0,0,0,0,0,0,0,0,0,0,0,0,0,0,0,0,0,0,0,0,0,0,0,0,0,0,0,0,0,0,0,0,0,0,0,0,0,0,0,0,0,0,0,0,0,0,0,0,0,0,0,0,0,0,0,0,0,0,0,0,0,0,0,0,0,0,0,0,0,0,0,0,0,0,0,0,0,0,0,0,0],"sum_hessian":[1.6354E4,8.94E2,1.546E4,2.57E2,6.37E2,1.5331E4,1.29E2,2.32E2,2.5E1,1.27E2,5.1E2,1.429E3,1.3902E4,1.08E2,2.1E1,5E0,2.27E2,7E0,1.8E1,4.4E1,8.3E1,1.2E2,3.9E2,1.15E3,2.79E2,1.2959E4,9.43E2,1E0,1.07E2,5E0,1.6E1,1E0,4E0,3E0,2.24E2,2E0,5E0,1.7E1,1E0,2.2E1,2.2E1,2E0,8.1E1,6.9E1,5.1E1,3.6E1,3.54E2,9.8E1,1.052E3,1.41E2,1.38E2,6E2,1.2359E4,7.2E2,2.23E2,1E0,1.06E2,3E0,2E0,1E0,2E0,1E0,2.23E2,4E0,1E0,2E0,2E1,1E0,2.1E1,1E0,1E0,1E1,7.1E1,2E0,6.7E1,1.5E1,3.6E1,5E0,3.1E1,3.08E2,4.6E1,6.5E1,3.3E1,9.47E2,1.05E2,6.8E1,7.3E1,8.2E1,5.6E1,1.08E2,4.92E2,1.152E3,1.1207E4,4.65E2,2.55E2,1.27E2,9.6E1,2E0,1.04E2],"tree_param":{"num_deleted":"0","num_feature":"48","num_nodes":"99","size_leaf_vector":"1"}},{"base_weights":[-5.0382386E-3,3.727539E-1,-3.0270047E-2,7.9689115E-1,2.7391824E-1,-3.6387578E-2,6.853846E-1,8.349727E-1,9.090907E-2,1.994326E-1,6.820312E-1,2.4733725E-1,-4.6172712E-2,8.524272E-1,4.642855E-2,8.6508876E-1,4.3999997E-1,6E-2,-8.888892E-3,3.2103822E-1,6.794115E-2,4.679245E-1,8.223684E-1,4.1648743E-1,4.017465E-2,-7.392931E-2,3.56337E-2,-7.5000017E-3,8.81E-2,3.0999997E-1,-9.473687E-3,8.7083334E-1,-5.0000013E-3,7.1E-1,-8.333336E-3,2.2389704E-1,5.9578943E-1,7.05E-1,2.803736E-2,2.3749998E-1,6.3666666E-1,-5.0000013E-3,8.3466667E-1,5.9144735E-1,2.0546873E-1,-9.921263E-3,2.1165046E-1,1.9429652E-2,-9.5609725E-2,-8.994913E-3,2.0139238E-1,5.833333E-1,-8.000002E-3,2.6666665E-2,8.76506E-2,-5.0000013E-3,8E-2,5.1634617E-2,4.260353E-3,7.367089E-2,-9.411767E-3,2.4999999E-2,8.4E-2,-7.393165E-3,2.9886363E-2,5.7777774E-2,3.1249977E-3,8.4375E-2,3.7333332E-2,8.857142E-2,5.230769E-2,2.5249997E-2,7.0619464E-2,6.1666664E-2,4.5976773E-4,5.59375E-2,5.4166648E-3,-7.7752317E-3,1.8622046E-2,-2.5502031E-3,-9.975029E-3,1.6490249E-2,-3.3216942E-3,6.2803715E-3,4.9023435E-2,-5.0000013E-3,7.2E-2],"categories":[],"categories_nodes":[],"categories_segments":[],"categories_sizes":[],"default_left":[0,0,0,0,0,0,0,0,0,0,0,0,0,0,0,0,0,0,0,0,0,0,0,0,0,0,0,0,0,0,0,0,0,0,0,0,0,0,0,0,0,0,0,0,0,0,0,0,0,0,0,0,0,0,0,0,0,0,0,0,0,0,0,0,0,0,0,0,0,0,0,0,0,0,0,0,0,0,0,0,0,0,0,0,0,0,0],"id":2,"left_children":[1,3,5,7,9,11,13,15,17,19,21,23,25,27,29,31,33,-1,-1,35,37,39,41,43,45,47,49,-1,-1,51,-1,53,-1,55,-1,57,59,61,63,65,67,-1,69,71,73,-1,75,77,79,81,83,85,-1,-1,-1,-1,-1,-1,-1,-1,-1,-1,-1,-1,-1,-1,-1,-1,-1,-1,-1,-1,-1,-1,-1,-1,-1,-1,-1,-1,-1,-1,-1,-1,-1,-1,-1],"loss_changes":[1.5591335E2,4.2707672E1,6.714905E1,5.1128693E0,2.5155579E1,4.2219284E1,1.3835693E1,1.7961578E0,1.0602021E0,1.1251207E1,3.4612236E0,1.7749353E1,3.337464E1,2.795494E0,1.0711691E0,9.319382E-1,2.1786664E0,0E0,0E0,9.635021E0,8.623395E0,1.9095554E0,8.5710907E-1,1.0179104E1,5.4944525E0,2.221391E1,2.7550404E1,0E0,0E0,1.1126667E0,0E0,3.420334E-1,0E0,7.2400045E-1,0E0,1.4399202E1,9.305359E0,1.0185003E0,8.886793E0,1.6663194E0,1.3209581E0,0E0,7.296486E-1,5.733471E0,1.0569677E1,0E0,5.610081E0,3.355102E1,2.5827332E0,1.2368132E1,3.1593082E1,5.553334E-1,0E0,0E0,0E0,0E0,0E0,0E0,0E0,0E0,0E0,0E0,0E0,0E0,0E0,0E0,0E0,0E0,0E0,0E0,0E0,0E0,0E0,0E0,0E0,0E0,0E0,0E0,0E0,0E0,0E0,0E0,0E0,0E0,0E0,0E0,0E0],"parents":[2147483647,0,0,1,1,2,2,3,3,4,4,5,5,6,6,7,7,8,8,9,9,10,10,11,11,12,12,13,13,14,14,15,15,16,16,19,19,20,20,21,21,22,22,23,23,24,24,25,25,26,26,29,29,31,31,33,33,35,35,36,36,37,37,38,38,39,39,40,40,42,42,43,43,44,44,46,46,47,47,48,48,49,49,50,50,51,51],"right_children":[2,4,6,8,10,12,14,16,18,20,22,24,26,28,30,32,34,-1,-1,36,38,40,42,44,46,48,50,-1,-1,52,-1,54,-1,56,-1,58,60,62,64,66,68,-1,70,72,74,-1,76,78,80,82,84,86,-1,-1,-1,-1,-1,-1,-1,-1,-1,-1,-1,-1,-1,-1,-1,-1,-1,-1,-1,-1,-1,-1,-1,-1,-1,-1,-1,-1,-1,-1,-1,-1,-1,-1,-1],"split_conditions":[-8.5261494E-2,-9.818755E-2,9.727248E-2,-2.1094503E-1,1.5922404E1,-8.585623E-2,-3.357491E-3,5.570505E-2,1.5066528E-3,-8.741289E-2,-2.875584E-2,9.0937096E-20,9.3821096E-1,-1.8232422E-2,1.5836537E1,5.5651788E-2,7.957746E-2,4.3368577E-3,-6.279004E-3,-4.727535E-1,-3.4515625E-1,6.5167663E-3,2.0411406E-3,-5.8688084E-4,1.3966718E1,1.24019E-18,1.593267E1,-3.5411716E-4,1.3366354E-2,4.200315E-2,-1.1836882E-3,-8.9610904E-2,-2.2073985E-4,-5.589693E-2,-9.575486E-5,-5.9494716E-1,5.966773E-1,9.966838E0,5.6477135E-1,-7.696904E-2,2.049565E-2,-1.01011996E-4,2.0628147E-4,9.96892E0,-1.0503368E-1,-3.8205143E-3,-1.03061795E-1,1.3966718E1,-7.5706385E-2,-1.2126326E-2,8.238923E-2,-6.40878E-1,-5.3197145E-5,4.247743E-3,1.2580692E-2,-3.8897754E-3,2.926147E-3,5.1341723E-3,7.36146E-4,7.1927942E-3,-1.0218403E-3,5.2440944E-3,1.4774597E-2,-1.2711823E-3,4.057064E-3,5.0650956E-3,1.0929633E-2,1.216614E-2,9.244995E-3,1.4756381E-2,2.6568675E-3,2.2998743E-3,8.175311E-3,1.0441606E-2,1.7196317E-4,9.721838E-3,7.343081E-4,-3.898212E-3,6.5879324E-3,-8.48582E-4,-4.47113E-2,6.0703577E-3,-1.666317E-3,1.0237483E-3,9.337768E-3,-4.4937732E-4,5.8351937E-3],"split_indices":[30,33,30,12,3,34,26,5,27,33,45,39,15,34,2,19,7,0,0,21,22,11,5,46,3,45,3,0,0,4,0,22,0,4,0,38,8,3,6,44,1,0,29,3,32,0,32,3,30,20,39,6,0,0,0,0,0,0,0,0,0,0,0,0,0,0,0,0,0,0,0,0,0,0,0,0,0,0,0,0,0,0,0,0,0,0,0],"split_type":[0,0,0,0,0,0,0,0,0,0,0,0,0,0,0,0,0,0,0,0,0,0,0,0,0,0,0,0,0,0,0,0,0,0,0,0,0,0,0,0,0,0,0,0,0,0,0,0,0,0,0,0,0,0,0,0,0,0,0,0,0,0,0,0,0,0,0,0,0,0,0,0,0,0,0,0,0,0,0,0,0,0,0,0,0,0,0],"sum_hessian":[1.6354E4,1.023E3,1.5331E4,1.92E2,8.31E2,1.5202E4,1.29E2,1.82E2,1E1,7.04E2,1.27E2,5.06E2,1.4696E4,1.02E2,2.7E1,1.68E2,1.4E1,2E0,8E0,3.65E2,3.39E2,5.2E1,7.5E1,2.78E2,2.28E2,1.0973E4,3.723E3,3E0,9.9E1,9E0,1.8E1,1.67E2,1E0,9E0,5E0,2.71E2,9.4E1,1.9E1,3.2E2,2.3E1,2.9E1,1E0,7.4E1,1.51E2,1.27E2,1.26E2,1.02E2,2.068E3,8.905E3,2.934E3,7.89E2,5E0,4E0,2E0,1.65E2,1E0,8E0,1.03E2,1.68E2,7.8E1,1.6E1,5E0,1.4E1,2.33E2,8.7E1,8E0,1.5E1,1.5E1,1.4E1,6.2E1,1.2E1,3.9E1,1.12E2,4.1E1,8.6E1,3.1E1,7.1E1,1.307E3,7.61E2,4.97E2,8.408E3,3.58E2,2.576E3,5.34E2,2.55E2,1E0,4E0],"tree_param":{"num_deleted":"0","num_feature":"48","num_nodes":"87","size_leaf_vector":"1"}},{"base_weights":[-6.0165324E-3,2.2909005E-1,-4.2094525E-2,7.5025904E-1,1.7827618E-1,-5.4773197E-2,3.4665176E-1,1.7333332E-1,7.944134E-1,4.165116E-1,1.1228293E-1,-5.8054134E-2,4.1684207E-1,7.738806E-1,1.638095E-1,6E-2,6.153844E-2,8.4E-1,2.3999998E-1,6.292857E-1,3.1271476E-1,2.651391E-1,1.3333309E-2,1.1496646E-2,-7.644389E-2,7.04918E-1,-9.714289E-3,8.3305085E-1,3.1764704E-1,3.171875E-1,-7.5000025E-2,3.2E-1,-8.888892E-3,8.457317E-1,-5.0000013E-3,6.7499995E-2,7.499998E-2,-9.000002E-3,6.793893E-1,4.1082472E-1,1.153061E-1,1.7037912E-1,4.742105E-1,2.9078013E-1,-3.5279527E-2,-4.0180836E-2,1.3070682E-1,3.671289E-2,-8.719929E-2,2.944444E-1,8.5681814E-1,8.718447E-2,5.3125E-1,-8.750002E-3,6.0999995E-1,1.5948273E-1,5.5064934E-1,2.0999998E-1,-9.913046E-3,6E-2,-6.6666687E-3,6.7428574E-2,8.853846E-2,6E-2,-9.000002E-3,7.5666666E-2,4.9761903E-2,7.185185E-2,3.5892855E-2,-2.7142882E-3,4.551724E-2,4.1235294E-2,7.114601E-4,5.9374976E-3,5.5471696E-2,1.6874997E-2,7.366666E-2,3.653846E-2,-4.8589767E-3,5.272329E-3,-6.797132E-3,3.984125E-3,3.747863E-2,1.1473543E-3,4.9387753E-2,-9.124964E-3,7.468877E-3,7.499998E-3,6.285714E-2,4.25E-2,8.7804876E-2,5.714284E-3,8.1E-2,7.875E-2,-6.6666687E-3,2.7792206E-2,-7.250002E-3,7.826085E-3,7.381818E-2,3.749998E-3,6E-2],"categories":[],"categories_nodes":[],"categories_segments":[],"categories_sizes":[],"default_left":[0,0,0,0,0,0,0,0,0,0,0,0,0,0,0,0,0,0,0,0,0,0,0,0,0,0,0,0,0,0,0,0,0,0,0,0,0,0,0,0,0,0,0,0,0,0,0,0,0,0,0,0,0,0,0,0,0,0,0,0,0,0,0,0,0,0,0,0,0,0,0,0,0,0,0,0,0,0,0,0,0,0,0,0,0,0,0,0,0,0,0,0,0,0,0,0,0,0,0,0,0],"id":3,"left_children":[1,3,5,7,9,11,13,15,17,19,21,23,25,27,29,-1,31,33,35,37,39,41,43,45,47,49,-1,51,53,55,57,59,-1,61,-1,-1,63,-1,65,67,69,71,73,75,77,79,81,83,85,87,89,-1,91,-1,93,95,97,99,-1,-1,-1,-1,-1,-1,-1,-1,-1,-1,-1,-1,-1,-1,-1,-1,-1,-1,-1,-1,-1,-1,-1,-1,-1,-1,-1,-1,-1,-1,-1,-1,-1,-1,-1,-1,-1,-1,-1,-1,-1,-1,-1],"loss_changes":[1.3873558E2,5.749241E1,6.9909195E1,4.77874E0,3.1145535E1,2.1273811E1,3.4868965E1,6.785641E-1,4.322418E0,9.299889E0,2.3515934E1,1.7445461E1,1.4134815E1,3.3527756E0,1.1561646E1,0E0,5.3388035E-1,8.839874E-1,1.026E0,5.106579E0,5.588648E0,1.202409E1,1.2755924E1,1.7581106E1,1.3131485E1,3.5511246E0,0E0,9.1838074E-1,2.066956E0,6.981245E0,8.7358695E-1,5.813333E-1,0E0,5.1792145E-1,0E0,0E0,1.0935E0,0E0,1.4635925E0,2.83992E0,4.756888E0,1.6668488E1,6.312481E0,7.547724E0,4.310767E0,5.1440477E0,1.9125046E1,1.08059435E1,6.466133E0,1.2726587E0,3.0208588E-2,0E0,2.068232E0,0E0,1.2535832E0,3.2073514E0,6.7635174E0,6.502501E-1,0E0,0E0,0E0,0E0,0E0,0E0,0E0,0E0,0E0,0E0,0E0,0E0,0E0,0E0,0E0,0E0,0E0,0E0,0E0,0E0,0E0,0E0,0E0,0E0,0E0,0E0,0E0,0E0,0E0,0E0,0E0,0E0,0E0,0E0,0E0,0E0,0E0,0E0,0E0,0E0,0E0,0E0,0E0],"parents":[2147483647,0,0,1,1,2,2,3,3,4,4,5,5,6,6,7,7,8,8,9,9,10,10,11,11,12,12,13,13,14,14,16,16,17,17,18,18,19,19,20,20,21,21,22,22,23,23,24,24,25,25,27,27,28,28,29,29,30,30,31,31,33,33,36,36,38,38,39,39,40,40,41,41,42,42,43,43,44,44,45,45,46,46,47,47,48,48,49,49,50,50,52,52,54,54,55,55,56,56,57,57],"right_children":[2,4,6,8,10,12,14,16,18,20,22,24,26,28,30,-1,32,34,36,38,40,42,44,46,48,50,-1,52,54,56,58,60,-1,62,-1,-1,64,-1,66,68,70,72,74,76,78,80,82,84,86,88,90,-1,92,-1,94,96,98,100,-1,-1,-1,-1,-1,-1,-1,-1,-1,-1,-1,-1,-1,-1,-1,-1,-1,-1,-1,-1,-1,-1,-1,-1,-1,-1,-1,-1,-1,-1,-1,-1,-1,-1,-1,-1,-1,-1,-1,-1,-1,-1,-1],"split_conditions":[-8.596555E-2,-9.818755E-2,8.229016E-2,-1.7699894E-1,-3.4353647E-3,9.888722E-2,-3.2832443E-3,9.784325E0,5.570505E-2,-8.4674045E-2,8.3123406E-20,9.479299E-20,8.480405E-2,1.8905056E-1,4.7548887E-1,3.7751675E-3,1.5066528E-3,5.5651788E-2,8.894166E-5,1.586427E1,-1.1871232E-3,1.3966718E1,-8.986474E-2,1.3968012E1,-7.4332976E-1,3.0172464E-2,-1.8223437E-3,-3.0420125E-3,-2.5341025E-4,8.707242E-2,-7.849076E-1,-1.5725186E-1,-5.6511047E-3,1.4833494E-2,-1.9866825E-4,2.63353E-3,-6.447679E-2,-1.6242504E-3,-8.64873E-2,-1.0562865E-1,-7.5706385E-2,-5.027325E-1,3.639445E-3,2.931475E-3,-1.0500299E-1,1.1994388E-18,1.7540654E-2,8.5919335E-2,9.466473E-1,-1.2763384E-1,-1.8545488E-1,1.2974739E-2,1.85956E-1,-1.95449E-3,3.8957853E-2,8.521985E-2,-5.883257E-1,-7.6851984E-3,-2.6743235E-3,3.9031745E-3,-1.1134088E-3,1.0112941E-2,1.1568248E-2,1.5639305E-3,-8.61764E-5,1.022651E-2,9.965935E-3,1.0833373E-2,4.7586136E-3,-5.178037E-4,4.113172E-3,7.4947895E-3,7.664703E-5,7.925219E-4,6.116757E-3,3.3485473E-3,5.0300118E-3,7.217259E-3,-1.0400835E-3,3.1485383E-3,-2.8687404E-3,1.4601287E-3,7.992337E-3,3.915394E-4,7.545353E-3,-2.8443111E-2,6.6190265E-4,3.3840456E-3,7.741356E-3,1.7115165E-2,1.2332902E-2,7.852435E-4,1.3549606E-2,1.0390419E-2,-3.33019E-2,3.3702992E-3,-1.1223495E-3,3.1895697E-4,7.529229E-3,3.6258102E-4,5.100489E-4],"split_indices":[32,33,32,40,26,34,24,0,5,30,45,45,9,36,20,0,27,19,41,3,4,3,33,3,8,1,0,27,46,32,8,4,0,7,0,0,22,0,30,32,30,8,23,34,4,9,5,30,9,6,4,0,13,0,7,32,9,22,0,0,0,0,0,0,0,0,0,0,0,0,0,0,0,0,0,0,0,0,0,0,0,0,0,0,0,0,0,0,0,0,0,0,0,0,0,0,0,0,0,0,0],"split_type":[0,0,0,0,0,0,0,0,0,0,0,0,0,0,0,0,0,0,0,0,0,0,0,0,0,0,0,0,0,0,0,0,0,0,0,0,0,0,0,0,0,0,0,0,0,0,0,0,0,0,0,0,0,0,0,0,0,0,0,0,0,0,0,0,0,0,0,0,0,0,0,0,0,0,0,0,0,0,0,0,0,0,0,0,0,0,0,0,0,0,0,0,0,0,0,0,0,0,0,0,0],"sum_hessian":[1.6354E4,2.175E3,1.4179E4,1.92E2,1.983E3,1.3732E4,4.47E2,1.4E1,1.78E2,4.29E2,1.554E3,1.3638E4,9.4E1,1.33E2,3.14E2,2E0,1.2E1,1.64E2,1.4E1,1.39E2,2.9E2,6.1E2,9.44E2,2.852E3,1.0786E4,6E1,3.4E1,1.17E2,1.6E1,1.91E2,1.23E2,4E0,8E0,1.63E2,1E0,3E0,1.1E1,9E0,1.3E2,1.93E2,9.7E1,4.21E2,1.89E2,1.4E2,8.04E2,1.99E3,8.62E2,9.36E2,9.85E3,1.7E1,4.3E1,1.02E2,1.5E1,7E0,9E0,1.15E2,7.6E1,9E0,1.14E2,2E0,2E0,3.4E1,1.29E2,2E0,9E0,8.9E1,4.1E1,2.6E1,1.67E2,6.9E1,2.8E1,1.69E2,2.52E2,3.1E1,1.58E2,1.11E2,2.9E1,2.5E1,7.79E2,4.58E2,1.532E3,6.29E2,2.33E2,8.88E2,4.8E1,9.61E3,2.4E2,1.1E1,6E0,3E0,4E1,6E0,9E0,7E0,2E0,7.6E1,3.9E1,2.2E1,5.4E1,7E0,2E0],"tree_param":{"num_deleted":"0","num_feature":"48","num_nodes":"101","size_leaf_vector":"1"}},{"base_weights":[-3.8153708E-3,3.574007E-1,-2.3149783E-2,6.882681E-1,2.6615617E-1,-4.094836E-2,1.9647764E-1,7.559748E-1,1.4285712E-1,5.7430553E-1,1.7862743E-1,-5.7013225E-2,1.668283E-1,8.254717E-1,1.3333331E-1,4.9230766E-1,8.347107E-1,-3.1250022E-2,5.833333E-1,2.4473682E-1,6.859813E-1,7.296415E-2,3.367647E-1,-8.147201E-2,3.4891166E-2,6.0229886E-1,1.2656082E-1,8.524272E-1,-7.5000017E-3,5.7676878E-2,3.1511253E-1,7.619047E-1,1.6842103E-1,8.573913E-2,3.4285712E-1,-9.333336E-3,4.4999998E-2,7.2E-2,-5.0000013E-3,1.4545453E-1,7.5E-2,4.705882E-1,8.666666E-1,1.6216192E-2,3.7142855E-1,5.431579E-1,1.5545452E-1,-2.5296255E-3,-9.837429E-2,6.721311E-1,2.0707231E-2,1.0399998E-1,7.9047614E-1,-1.7941976E-2,2.2292766E-1,8.6176467E-1,-5.0000013E-3,2.4305554E-1,-1.7415754E-2,2.9838687E-2,5.0159574E-1,1.7499998E-2,8.5E-2,7.2E-2,-2.666669E-3,6.7499995E-2,-7.5000017E-3,6.285714E-2,1.4814793E-3,6.324324E-2,3.999998E-3,8.836364E-2,2.6666665E-2,-5.0543505E-3,1.7763156E-2,8.1818186E-2,2.3589741E-2,6.734177E-2,-9.411767E-3,3.902439E-2,1.5714262E-3,-6.55199E-3,1.4700542E-2,-9.929302E-3,7.608693E-3,-8.000002E-3,7.2631575E-2,-3.9442471E-4,2.8504271E-2,4.1249998E-2,-3.8888913E-3,-6.6666687E-3,8.196721E-2,9.66216E-3,-9.09483E-3,3.0599996E-2,8.853208E-3,8.802083E-2,4.8571426E-2,6.8613114E-3,5.3875E-2,8E-2,-3.1368844E-3,-4.3103687E-4,4.6666663E-2,3.0117646E-2,6.605769E-2],"categories":[],"categories_nodes":[],"categories_segments":[],"categories_sizes":[],"default_left":[0,0,0,0,0,0,0,0,0,0,0,0,0,0,0,0,0,0,0,0,0,0,0,0,0,0,0,0,0,0,0,0,0,0,0,0,0,0,0,0,0,0,0,0,0,0,0,0,0,0,0,0,0,0,0,0,0,0,0,0,0,0,0,0,0,0,0,0,0,0,0,0,0,0,0,0,0,0,0,0,0,0,0,0,0,0,0,0,0,0,0,0,0,0,0,0,0,0,0,0,0,0,0,0,0,0,0],"id":4,"left_children":[1,3,5,7,9,11,13,15,17,19,21,23,25,27,29,31,33,35,37,39,41,43,45,47,49,51,53,55,-1,57,59,61,63,-1,65,-1,-1,-1,-1,67,-1,69,71,73,75,77,79,81,83,85,87,89,91,93,95,97,-1,99,101,103,105,-1,-1,-1,-1,-1,-1,-1,-1,-1,-1,-1,-1,-1,-1,-1,-1,-1,-1,-1,-1,-1,-1,-1,-1,-1,-1,-1,-1,-1,-1,-1,-1,-1,-1,-1,-1,-1,-1,-1,-1,-1,-1,-1,-1,-1,-1],"loss_changes":[1.1422995E2,2.4904587E1,6.0696133E1,6.5021133E0,1.7510082E1,4.7948494E1,4.6121E1,2.8899155E0,1.6287203E0,5.1320076E0,8.497171E0,2.9971436E1,1.8002665E1,2.6368332E0,1.4546005E1,3.2771158E0,1.0558548E0,5.200417E-1,5.553334E-1,1.7971289E0,3.756424E0,5.1937113E0,7.5494843E0,1.4049995E1,2.532119E1,8.075655E0,1.3163389E1,9.1101074E-1,0E0,1.043074E1,1.6529852E1,9.370241E-1,2.0637193E0,0E0,1.0221429E0,0E0,0E0,0E0,0E0,2.0734584E0,0E0,3.528801E0,3.4472656E-1,2.7999728E0,2.7738924E0,7.949465E0,3.6029155E0,1.7510607E1,1.3976974E0,2.544096E0,1.7875225E1,1.1180723E0,1.6312256E0,3.1786926E0,6.3032074E0,2.7991486E-1,0E0,1.11046715E1,6.115619E0,1.8517518E0,5.791271E0,0E0,0E0,0E0,0E0,0E0,0E0,0E0,0E0,0E0,0E0,0E0,0E0,0E0,0E0,0E0,0E0,0E0,0E0,0E0,0E0,0E0,0E0,0E0,0E0,0E0,0E0,0E0,0E0,0E0,0E0,0E0,0E0,0E0,0E0,0E0,0E0,0E0,0E0,0E0,0E0,0E0,0E0,0E0,0E0,0E0,0E0],"parents":[2147483647,0,0,1,1,2,2,3,3,4,4,5,5,6,6,7,7,8,8,9,9,10,10,11,11,12,12,13,13,14,14,15,15,16,16,17,17,18,18,19,19,20,20,21,21,22,22,23,23,24,24,25,25,26,26,27,27,29,29,30,30,31,31,32,32,34,34,39,39,41,41,42,42,43,43,44,44,45,45,46,46,47,47,48,48,49,49,50,50,51,51,52,52,53,53,54,54,55,55,57,57,58,58,59,59,60,60],"right_children":[2,4,6,8,10,12,14,16,18,20,22,24,26,28,30,32,34,36,38,40,42,44,46,48,50,52,54,56,-1,58,60,62,64,-1,66,-1,-1,-1,-1,68,-1,70,72,74,76,78,80,82,84,86,88,90,92,94,96,98,-1,100,102,104,106,-1,-1,-1,-1,-1,-1,-1,-1,-1,-1,-1,-1,-1,-1,-1,-1,-1,-1,-1,-1,-1,-1,-1,-1,-1,-1,-1,-1,-1,-1,-1,-1,-1,-1,-1,-1,-1,-1,-1,-1,-1,-1,-1,-1,-1,-1],"split_conditions":[-8.346515E-2,-3.2832443E-3,8.7845735E-2,2.879113E-2,-4.6929523E-1,8.2378715E-1,-3.0420125E-3,1.5570688E-1,2.8741097E-3,-9.354428E-1,-4.727535E-1,9.3821096E-1,-6.083995E-1,6.582673E-2,4.6873346E-2,2.4085809E-4,5.5172242E-2,1.9873814E-1,5.570505E-2,2.629384E-4,2.0031218E-4,4.132756E-1,-8.741289E-2,9.479299E-20,-1.00094125E-1,1.5710672E1,1.5866664E1,1.9773031E1,-1.1901737E-3,-3.4171487E-3,1.3924297E1,6.926956E-3,3.7731078E-2,1.0192963E-2,8.894166E-5,-1.114011E-4,1.4075398E-3,1.1208993E-2,-2.3783862E-3,-1.612059E0,4.4517578E-3,2.8747914E-2,3.0141604E-1,3.2274253E-3,-3.546216E-2,5.966773E-1,2.700241E-4,1.3968012E1,7.682712E-1,1.53922E-3,1.1698769E-1,1.3820883E1,-8.2622796E-1,-8.8123254E-2,-4.7503198E-3,2.1400426E-1,-3.74524E-3,1.0168927E-1,1.9070186E-3,1.0636686E-1,-2.1247694E-3,8.710808E-3,1.30546065E-2,1.0599769E-2,3.3385057E-3,2.3701787E-3,-8.707047E-5,3.8194896E-3,1.4849955E-3,4.7200443E-3,7.182658E-4,1.0833872E-2,1.5341044E-4,-1.0958969E-3,2.506126E-3,5.1140487E-3,3.3101977E-3,5.86184E-3,-1.254507E-3,7.26901E-3,2.0158266E-4,-2.5881673E-3,6.200697E-3,-3.6233284E-2,1.9272944E-3,-1.0294497E-3,1.0022515E-2,-1.9556392E-4,5.279384E-3,1.9582093E-3,1.5431117E-4,-5.890727E-5,7.0925006E-3,8.767932E-4,-1.8807637E-3,4.114449E-3,1.3996434E-3,1.17743295E-2,6.950176E-3,2.1156361E-3,4.950821E-3,6.9408836E-3,-6.1950233E-4,1.6226242E-5,5.0251246E-3,4.4847927E-3,7.1339817E-3],"split_indices":[33,24,33,1,9,9,27,13,31,20,21,15,20,4,42,46,5,13,5,25,35,45,33,45,32,0,2,2,0,26,0,11,5,0,41,0,0,0,0,12,0,23,45,34,10,8,47,3,9,5,46,2,16,32,4,13,0,33,11,37,44,0,0,0,0,0,0,0,0,0,0,0,0,0,0,0,0,0,0,0,0,0,0,0,0,0,0,0,0,0,0,0,0,0,0,0,0,0,0,0,0,0,0,0,0,0,0],"split_type":[0,0,0,0,0,0,0,0,0,0,0,0,0,0,0,0,0,0,0,0,0,0,0,0,0,0,0,0,0,0,0,0,0,0,0,0,0,0,0,0,0,0,0,0,0,0,0,0,0,0,0,0,0,0,0,0,0,0,0,0,0,0,0,0,0,0,0,0,0,0,0,0,0,0,0,0,0,0,0,0,0,0,0,0,0,0,0,0,0,0,0,0,0,0,0,0,0,0,0,0,0,0,0,0,0,0,0],"sum_hessian":[1.6354E4,8.3E2,1.5524E4,1.78E2,6.52E2,1.4361E4,1.163E3,1.58E2,2E1,1.43E2,5.09E2,1.3331E4,1.03E3,1.05E2,1.058E3,3.8E1,1.2E2,1.5E1,5E0,3.7E1,1.06E2,3.06E2,2.03E2,1.0529E4,2.802E3,8.6E1,9.44E2,1.02E2,3E0,7.48E2,3.1E2,2E1,1.8E1,1.14E2,6E0,1.4E1,1E0,4E0,1E0,3.2E1,5E0,5E1,5.6E1,2.58E2,4.8E1,9.4E1,1.09E2,1.857E3,8.672E3,6E1,2.742E3,2.4E1,6.2E1,3.78E2,5.66E2,1.01E2,1E0,2.15E2,5.33E2,1.23E2,1.87E2,3E0,1.7E1,4E0,1.4E1,3E0,3E0,6E0,2.6E1,3.6E1,1.4E1,5.4E1,2E0,1.83E2,7.5E1,1E1,3.8E1,7.8E1,1.6E1,4E1,6.9E1,1.307E3,5.5E2,8.627E3,4.5E1,4E0,5.6E1,2.509E3,2.33E2,7E0,1.7E1,2E0,6E1,1.47E2,2.31E2,3.49E2,2.17E2,9.5E1,6E0,1.36E2,7.9E1,8E0,5.25E2,1.15E2,8E0,8.4E1,1.03E2],"tree_param":{"num_deleted":"0","num_feature":"48","num_nodes":"107","size_leaf_vector":"1"}},{"base_weights":[-6.627966E-3,1.9921872E-1,-3.821582E-2,6.310881E-1,1.5710683E-1,-5.8852777E-2,1.6664097E-1,7.669014E-1,2.480769E-1,4.2401573E-1,1.1785093E-1,-7.5735815E-2,1.29636945E-2,5.340517E-1,8.659791E-2,8.60606E-1,5.386363E-1,9.72222E-2,5.5294114E-1,5.948979E-1,3.1464967E-1,1.9888887E-1,4.652926E-2,-1.2300787E-2,-9.998677E-3,-6.3416976E-3,3.4191173E-1,2.1428548E-2,6.43979E-1,1.8708803E-2,2.530744E-1,-5.0000013E-3,8.704081E-1,8.208333E-1,1.9047616E-1,7.2E-2,-3.125023E-3,6.9285715E-1,-7.5000017E-3,8.586956E-1,3.5471696E-1,6.0975605E-1,2.0854698E-1,4.47482E-1,1.471726E-1,2.9670328E-1,1.9110553E-2,-8.568036E-2,9.0282366E-2,2.0744184E-1,-2.8184434E-2,-6.857145E-2,4.7941175E-1,-6.857145E-2,4.1249996E-1,2.9268292E-1,7.350993E-1,6.9285715E-1,6.032148E-3,2.0149231E-2,4.2897725E-1,3.2E-2,8.904255E-2,8.608695E-2,-5.0000013E-3,-8.333355E-4,4.0999997E-2,4.25E-2,-6.206899E-3,-5.0000013E-3,7.538461E-2,2.6666665E-2,8.795454E-2,7.5500004E-2,1.0882351E-2,-8.000002E-3,6.864865E-2,3.3230767E-2,5.2830167E-3,5.981651E-2,-9.677421E-3,1.0550915E-2,4.824324E-2,-9.729732E-3,5.5636365E-2,3.6159364E-4,4.1935485E-2,-9.32809E-3,3.0937498E-2,6.689954E-3,5.3499997E-2,3.1547595E-3,8.1875E-2,-5.116764E-3,2.207865E-2,-9.705885E-3,4.4999998E-2,3.114754E-2,7.119048E-2,-9.705885E-3,4.4999998E-2,7.2E-2,-7.5000017E-3,-4.210529E-3,5.565217E-2,5.714284E-3,7.627586E-2,8.25E-2,-6.6666687E-3,8E-2,-3.6585605E-4,3.0499998E-2,-2.9565243E-3,6.0357142E-2,2.6666665E-2],"categories":[],"categories_nodes":[],"categories_segments":[],"categories_sizes":[],"default_left":[0,0,0,0,0,0,0,0,0,0,0,0,0,0,0,0,0,0,0,0,0,0,0,0,0,0,0,0,0,0,0,0,0,0,0,0,0,0,0,0,0,0,0,0,0,0,0,0,0,0,0,0,0,0,0,0,0,0,0,0,0,0,0,0,0,0,0,0,0,0,0,0,0,0,0,0,0,0,0,0,0,0,0,0,0,0,0,0,0,0,0,0,0,0,0,0,0,0,0,0,0,0,0,0,0,0,0,0,0,0,0,0,0,0,0],"id":5,"left_children":[1,3,5,7,9,11,13,15,17,19,21,23,25,27,29,31,33,35,37,39,41,43,45,47,-1,49,51,53,55,57,59,-1,61,63,65,-1,67,69,-1,71,73,75,77,79,81,83,85,87,89,91,93,95,97,99,101,103,105,107,109,111,113,-1,-1,-1,-1,-1,-1,-1,-1,-1,-1,-1,-1,-1,-1,-1,-1,-1,-1,-1,-1,-1,-1,-1,-1,-1,-1,-1,-1,-1,-1,-1,-1,-1,-1,-1,-1,-1,-1,-1,-1,-1,-1,-1,-1,-1,-1,-1,-1,-1,-1,-1,-1,-1,-1],"loss_changes":[1.06352E2,3.947541E1,5.995746E1,9.849228E0,2.0737885E1,1.5621357E1,3.812622E1,2.5737534E0,2.3377326E0,4.5597496E0,9.995512E0,1.6045403E1,1.5579874E1,1.30597E1,1.2054437E1,9.271774E-1,4.1666393E0,2.2520347E0,1.5455675E0,5.904606E0,4.7887554E0,1.0347752E1,6.318741E0,2.1732124E1,0E0,1.0830019E1,7.708908E0,1.5065356E0,5.898796E0,6.482194E0,1.2651768E1,0E0,7.947998E-1,8.797989E-1,9.1992855E-1,0E0,8.3391166E-1,6.71978E-1,0E0,3.332634E-1,5.134468E0,2.2248545E0,2.2372236E0,1.1457306E1,9.335647E0,9.364009E0,5.1582413E0,5.0822916E0,1.2484309E1,2.309217E1,1.2050701E1,5.607227E-1,3.7607517E0,5.607227E-1,1.25325E0,3.644967E0,2.7879333E0,1.4601188E0,5.7427335E0,1.9066188E0,4.826618E0,0E0,0E0,0E0,0E0,0E0,0E0,0E0,0E0,0E0,0E0,0E0,0E0,0E0,0E0,0E0,0E0,0E0,0E0,0E0,0E0,0E0,0E0,0E0,0E0,0E0,0E0,0E0,0E0,0E0,0E0,0E0,0E0,0E0,0E0,0E0,0E0,0E0,0E0,0E0,0E0,0E0,0E0,0E0,0E0,0E0,0E0,0E0,0E0,0E0,0E0,0E0,0E0,0E0,0E0],"parents":[2147483647,0,0,1,1,2,2,3,3,4,4,5,5,6,6,7,7,8,8,9,9,10,10,11,11,12,12,13,13,14,14,15,15,16,16,17,17,18,18,19,19,20,20,21,21,22,22,23,23,25,25,26,26,27,27,28,28,29,29,30,30,32,32,33,33,34,34,36,36,37,37,39,39,40,40,41,41,42,42,43,43,44,44,45,45,46,46,47,47,48,48,49,49,50,50,51,51,52,52,53,53,54,54,55,55,56,56,57,57,58,58,59,59,60,60],"right_children":[2,4,6,8,10,12,14,16,18,20,22,24,26,28,30,32,34,36,38,40,42,44,46,48,-1,50,52,54,56,58,60,-1,62,64,66,-1,68,70,-1,72,74,76,78,80,82,84,86,88,90,92,94,96,98,100,102,104,106,108,110,112,114,-1,-1,-1,-1,-1,-1,-1,-1,-1,-1,-1,-1,-1,-1,-1,-1,-1,-1,-1,-1,-1,-1,-1,-1,-1,-1,-1,-1,-1,-1,-1,-1,-1,-1,-1,-1,-1,-1,-1,-1,-1,-1,-1,-1,-1,-1,-1,-1,-1,-1,-1,-1,-1,-1],"split_conditions":[-8.596555E-2,-9.818755E-2,8.608245E-2,2.4265226E-2,-3.1141625E-3,1.1056557E0,-3.2074903E-3,1.6212389E-4,1.2369867E-2,-9.18533E-2,-3.8123626E-2,-5.742073E-1,1.700081E-4,-5.715713E-2,4.9410764E-2,-3.6781657E-1,-1.1978518E-3,9.784325E0,6.3005327E-3,9.479299E-20,2.0024963E-2,-1.03510976E-1,-9.38468E-2,1.3916691E1,-3.671812E-2,-2.397462E-2,2.7560392E-18,4.3940563E-2,8.7845735E-2,3.019672E-3,1.3966718E1,-1.0836065E-3,-2.8174338E-1,5.373847E-2,2.1711854E-7,4.006583E-3,1.2085421E-3,9.792614E0,-9.9730496E-5,4.9115565E-1,-1.1457121E-3,2.2511368E-3,1.6985986E-2,8.380535E-2,4.0109435E-1,-2.5957325E0,-4.7579977E-1,1.1058543E-1,2.7345563E-4,9.9689665E0,1.1698769E-1,7.1283236E-2,2.5445156E-4,1.5543581E-2,-6.830554E-3,-1.735897E-2,2.073621E-3,2.8996114E-2,1.9070186E-3,4.7991923E-3,1.5810632E1,4.9757063E-3,9.757191E-3,9.197799E-3,-1.8225074E-3,1.6908556E-3,2.4188638E-3,1.9707978E-3,-6.2670144E-5,-3.1784773E-3,6.618999E-3,1.3619292E-2,1.2607196E-2,1.0662717E-2,2.9560633E-3,-6.1818364E-4,8.952021E-3,4.895735E-3,7.495845E-4,7.3107495E-3,-5.2532874E-4,1.7094383E-3,5.3054783E-3,-9.373608E-4,3.8814128E-3,1.2543466E-4,2.9388384E-3,-9.760025E-3,3.07364E-3,1.1743426E-3,7.5925584E-3,1.6687202E-3,1.4215044E-2,-2.1009303E-3,3.9239456E-3,-2.9363396E-4,5.7854056E-3,3.8857446E-3,1.2200108E-2,-4.0752298E-4,2.5965573E-4,3.6649883E-3,-1.6583682E-3,-5.9759546E-5,8.050731E-3,5.779928E-3,1.0602958E-2,2.6163852E-3,-4.4817566E-3,6.2467935E-3,-6.5785694E-5,5.802989E-4,-2.690944E-4,5.4123104E-3,5.2433964E-3],"split_indices":[32,33,33,19,24,15,24,29,42,32,42,12,29,44,42,44,45,0,47,45,1,32,33,0,0,20,33,5,33,45,3,0,46,4,28,0,31,0,0,6,28,23,22,45,8,15,20,45,29,3,46,5,29,11,4,22,5,1,11,23,2,0,0,0,0,0,0,0,0,0,0,0,0,0,0,0,0,0,0,0,0,0,0,0,0,0,0,0,0,0,0,0,0,0,0,0,0,0,0,0,0,0,0,0,0,0,0,0,0,0,0,0,0,0,0],"split_type":[0,0,0,0,0,0,0,0,0,0,0,0,0,0,0,0,0,0,0,0,0,0,0,0,0,0,0,0,0,0,0,0,0,0,0,0,0,0,0,0,0,0,0,0,0,0,0,0,0,0,0,0,0,0,0,0,0,0,0,0,0,0,0,0,0,0,0,0,0,0,0,0,0,0,0,0,0,0,0,0,0,0,0,0,0,0,0,0,0,0,0,0,0,0,0,0,0,0,0,0,0,0,0,0,0,0,0,0,0,0,0,0,0,0,0],"sum_hessian":[1.6354E4,2.175E3,1.4179E4,1.92E2,1.983E3,1.2882E4,1.297E3,1.41E2,5.1E1,2.53E2,1.73E3,1.043E4,2.452E3,2.31E2,1.066E3,9.8E1,4.3E1,3.5E1,1.6E1,9.7E1,1.56E2,8.09E2,9.21E2,2.885E3,7.545E3,2.317E3,1.35E2,4.1E1,1.9E2,7.58E2,3.08E2,1E0,9.7E1,2.3E1,2E1,4E0,3.1E1,1.3E1,3E0,4.5E1,5.2E1,4E1,1.16E2,1.38E2,6.71E2,9E1,8.31E2,1.682E3,1.203E3,2.14E2,2.103E3,3.4E1,1.01E2,3.4E1,7E0,4E1,1.5E2,1.3E1,7.45E2,1.33E2,1.75E2,4E0,9.3E1,2.2E1,1E0,1.1E1,9E0,3E0,2.8E1,1E0,1.2E1,2E0,4.3E1,1.9E1,3.3E1,4E0,3.6E1,6.4E1,5.2E1,1.08E2,3E1,5.98E2,7.3E1,3.6E1,5.4E1,8.01E2,3E1,1.651E3,3.1E1,1.144E3,5.9E1,1.67E2,4.7E1,1.926E3,1.77E2,3.3E1,1E0,6E1,4.1E1,3.3E1,1E0,4E0,3E0,1.8E1,2.2E1,6E0,1.44E2,1.1E1,2E0,8E0,7.37E2,1.9E1,1.14E2,8.3E1,9.2E1],"tree_param":{"num_deleted":"0","num_feature":"48","num_nodes":"115","size_leaf_vector":"1"}},{"base_weights":[-1.084686E-2,-5.9861407E-2,1.11844055E-1,-7.951398E-2,3.4340907E-2,4.3044353E-1,7.395781E-2,4.268652E-3,-9.602627E-2,1.3755228E-1,-5.8513664E-2,2.3033331E-1,7.329949E-1,4.9711112E-2,3.2534057E-1,-9.986723E-3,9.750295E-2,-9.935964E-2,1.3565215E-1,7.55E-1,1.2422623E-1,-8.383536E-2,3.1323528E-1,-9.863016E-3,3.346491E-1,8.253424E-1,4.5961535E-1,-3.0437244E-2,1.2029627E-1,7.241935E-1,2.4346402E-1,6.108177E-2,4.2499998E-1,1.0869542E-2,-9.99874E-3,6.6249996E-1,9.5370345E-2,1.7499998E-1,8.470588E-2,9.988582E-2,4.66129E-1,1.391302E-2,-9.648529E-2,5.576923E-1,1.5813951E-1,7.5E-1,2.7980292E-1,8.439716E-1,2.4999999E-1,5.6136364E-1,-8.888892E-3,-5.231832E-2,1.5449733E-1,-1.0853683E-2,2.093698E-1,-8.57143E-3,8.125E-1,1.9625466E-1,5.5249995E-1,4.9866284E-3,8.1818186E-2,2.5645157E-2,8.608695E-2,4.6666663E-2,-9.736844E-3,7.714286E-2,-5.0000013E-3,3.625E-2,1.8823507E-3,4.4999998E-2,-6.6666687E-3,-9.859158E-3,1.1724564E-2,7.675675E-2,1.9230746E-3,1.14754075E-2,-9.818184E-3,-9.874145E-3,1.3333331E-2,-8.333336E-3,7.142857E-2,3.4399997E-2,-9.473687E-3,8.590909E-2,1.1999998E-2,3.2513965E-2,-5.6000026E-3,8.834782E-2,6.4444445E-2,6E-2,-7.5000017E-3,8.208334E-2,2.380952E-2,-7.564994E-3,8.5778546E-4,4.5714285E-2,3.1495825E-4,-5.9090937E-3,1.5737703E-2,1.7766725E-2,5.544554E-2,-5.0000013E-3,8.290909E-2,1.0497236E-2,3.8390804E-2,8.136364E-2,2.210526E-2],"categories":[],"categories_nodes":[],"categories_segments":[],"categories_sizes":[],"default_left":[0,0,0,0,0,0,0,0,0,0,0,0,0,0,0,0,0,0,0,0,0,0,0,0,0,0,0,0,0,0,0,0,0,0,0,0,0,0,0,0,0,0,0,0,0,0,0,0,0,0,0,0,0,0,0,0,0,0,0,0,0,0,0,0,0,0,0,0,0,0,0,0,0,0,0,0,0,0,0,0,0,0,0,0,0,0,0,0,0,0,0,0,0,0,0,0,0,0,0,0,0,0,0,0,0,0,0],"id":6,"left_children":[1,3,5,7,9,11,13,15,17,19,21,23,25,27,29,-1,31,33,35,37,39,41,43,-1,45,47,49,51,53,55,57,59,61,63,-1,65,67,69,-1,71,73,75,77,79,81,83,85,87,89,91,-1,93,95,97,99,-1,101,103,105,-1,-1,-1,-1,-1,-1,-1,-1,-1,-1,-1,-1,-1,-1,-1,-1,-1,-1,-1,-1,-1,-1,-1,-1,-1,-1,-1,-1,-1,-1,-1,-1,-1,-1,-1,-1,-1,-1,-1,-1,-1,-1,-1,-1,-1,-1,-1,-1],"loss_changes":[9.835977E1,2.1639084E1,5.63255E1,1.3378304E1,1.9347849E1,2.986081E1,2.5425205E1,1.547623E1,6.2518845E0,7.7723083E0,1.0032615E1,1.032783E1,4.594101E0,2.1546602E1,1.1808693E1,0E0,1.0005344E1,5.521698E-1,2.377391E0,9.196472E-1,7.7512054E0,1.2329059E0,2.4899764E0,0E0,4.9840794E0,1.353859E0,2.9519844E0,7.2271595E0,2.36583E1,4.503891E0,4.3559227E0,6.395562E0,5.9502964E0,2.3148282E0,0E0,6.594641E-1,2.2015526E0,2.9583335E-1,0E0,3.0298433E0,8.337405E0,1.3111997E0,4.704876E-1,2.6694136E0,2.053578E0,1.6838198E0,3.1087208E0,5.421066E-1,7.2749996E-1,3.4952106E0,0E0,2.2682557E0,8.655652E0,6.663589E0,1.3095245E1,0E0,8.427925E-1,4.5332584E0,3.2822618E0,0E0,0E0,0E0,0E0,0E0,0E0,0E0,0E0,0E0,0E0,0E0,0E0,0E0,0E0,0E0,0E0,0E0,0E0,0E0,0E0,0E0,0E0,0E0,0E0,0E0,0E0,0E0,0E0,0E0,0E0,0E0,0E0,0E0,0E0,0E0,0E0,0E0,0E0,0E0,0E0,0E0,0E0,0E0,0E0,0E0,0E0,0E0,0E0],"parents":[2147483647,0,0,1,1,2,2,3,3,4,4,5,5,6,6,7,7,8,8,9,9,10,10,11,11,12,12,13,13,14,14,16,16,17,17,18,18,19,19,20,20,21,21,22,22,24,24,25,25,26,26,27,27,28,28,29,29,30,30,31,31,32,32,33,33,35,35,36,36,37,37,39,39,40,40,41,41,42,42,43,43,44,44,45,45,46,46,47,47,48,48,49,49,51,51,52,52,53,53,54,54,56,56,57,57,58,58],"right_children":[2,4,6,8,10,12,14,16,18,20,22,24,26,28,30,-1,32,34,36,38,40,42,44,-1,46,48,50,52,54,56,58,60,62,64,-1,66,68,70,-1,72,74,76,78,80,82,84,86,88,90,92,-1,94,96,98,100,-1,102,104,106,-1,-1,-1,-1,-1,-1,-1,-1,-1,-1,-1,-1,-1,-1,-1,-1,-1,-1,-1,-1,-1,-1,-1,-1,-1,-1,-1,-1,-1,-1,-1,-1,-1,-1,-1,-1,-1,-1,-1,-1,-1,-1,-1,-1,-1,-1,-1,-1],"split_conditions":[1.2978314E-1,9.7855484E-1,-3.0921933E-3,1.24019E-18,-7.145019E-18,1.6898434E-1,1.4148237E-2,1.3650568E1,5.8021724E-1,-8.730844E-2,1.374319E-1,4.3217824E-3,2.0488298E-2,1.3968012E1,-2.271438E0,-4.3145116E-2,2.43234E-4,-8.585623E-2,-1.089848E-1,1.1902424E-3,2.5959325E-4,-1.4653372E-3,-3.3749747E-18,-4.4675823E-3,-8.908199E-2,5.5172242E-2,2.0536055E-1,1.1952167E-3,2.7108495E-3,1.4854997E-4,1.8633645E-2,2.1739262E1,2.3731284E-18,3.1003036E-2,-3.4111243E-2,4.0270334E-1,2.0805318E-2,8.543602E-3,5.4780366E-3,8.171802E0,-1.4443495E-17,1.3940834E1,5.9523224E-3,4.7804855E-2,-1.1878868E-17,-6.69023E-2,6.0463813E-4,6.3662133E-3,1.7847704E1,9.000517E-1,-2.2679567E-5,2.3950061E-1,-1.03061795E-1,2.2995195E-1,4.6334375E-2,-2.6898503E-3,4.4590727E-4,9.975773E0,-1.8982217E-2,1.7099864E-3,8.945267E-3,5.7861744E-3,7.102702E-3,2.3798407E-3,-4.3683876E-3,9.638542E-3,-9.763837E-5,1.2568283E-3,2.7572192E-4,1.2261331E-3,-1.9465744E-3,-4.60343E-3,3.5237633E-3,1.1126922E-2,2.0669911E-4,1.9739738E-3,-2.7391107E-3,-3.564113E-2,6.8109455E-3,-1.9651652E-5,1.0385376E-2,3.8592897E-3,-3.6828336E-3,1.2531606E-2,1.435101E-4,7.898784E-3,-7.908288E-4,8.739826E-3,8.276696E-3,1.9640743E-3,-2.4744868E-4,5.290434E-3,5.665199E-3,-2.6127042E-3,2.2099291E-4,6.6658515E-3,3.6364372E-4,-8.863058E-4,1.2028288E-3,2.5868579E-3,7.6794424E-3,-2.3971796E-4,7.0425393E-3,1.5471078E-3,5.18606E-3,1.0637744E-2,5.937642E-3],"split_indices":[13,12,27,45,8,13,11,0,9,32,45,37,19,3,14,0,29,34,32,5,29,27,8,0,32,5,13,27,5,35,11,0,33,45,0,6,1,1,0,0,8,3,27,9,20,40,41,11,3,6,0,13,32,8,1,0,37,3,10,0,0,0,0,0,0,0,0,0,0,0,0,0,0,0,0,0,0,0,0,0,0,0,0,0,0,0,0,0,0,0,0,0,0,0,0,0,0,0,0,0,0,0,0,0,0,0,0],"split_type":[0,0,0,0,0,0,0,0,0,0,0,0,0,0,0,0,0,0,0,0,0,0,0,0,0,0,0,0,0,0,0,0,0,0,0,0,0,0,0,0,0,0,0,0,0,0,0,0,0,0,0,0,0,0,0,0,0,0,0,0,0,0,0,0,0,0,0,0,0,0,0,0,0,0,0,0,0,0,0,0,0,0,0,0,0,0,0,0,0,0,0,0,0,0,0,0,0,0,0,0,0,0,0,0,0,0,0],"sum_hessian":[1.6354E4,1.1686E4,4.668E3,9.669E3,2.017E3,4.95E2,4.173E3,1.592E3,8.077E3,9.55E2,1.062E3,2.99E2,1.96E2,3.807E3,3.66E2,7.52E2,8.4E2,7.963E3,1.14E2,1.9E1,9.36E2,9.95E2,6.7E1,7.2E1,2.27E2,1.45E2,5.1E1,1.783E3,2.024E3,6.1E1,3.05E2,7.57E2,8.3E1,4.5E1,7.918E3,7E0,1.07E2,3E0,1.6E1,8.75E2,6.1E1,1.14E2,8.81E2,2.5E1,4.2E1,2.5E1,2.02E2,1.4E2,5E0,4.3E1,8E0,1.595E3,1.88E2,8.19E2,1.205E3,6E0,5.5E1,2.66E2,3.9E1,7.47E2,1E1,6.1E1,2.2E1,8E0,3.7E1,6E0,1E0,2.3E1,8.4E1,1E0,2E0,7E1,8.05E2,3.6E1,2.5E1,6E1,5.4E1,8.73E2,8E0,5E0,2E1,2.4E1,1.8E1,2.1E1,4E0,1.78E2,2.4E1,1.14E2,2.6E1,2E0,3E0,2.3E1,2E1,1.153E3,4.42E2,6.2E1,1.26E2,6.37E2,1.82E2,1.105E3,1E2,1E0,5.4E1,1.8E2,8.6E1,2.1E1,1.8E1],"tree_param":{"num_deleted":"0","num_feature":"48","num_nodes":"107","size_leaf_vector":"1"}},{"base_weights":[-1.73892E-2,1.6475181E-1,-4.533853E-2,5.391089E-1,1.2637973E-1,-5.550137E-2,2.6629463E-1,8.3709675E-1,4.042553E-1,1.04905635E-1,4.5454544E-1,-7.718258E-2,1.3094854E-2,6.2335765E-1,1.0865382E-1,2.4999999E-1,8.8421054E-2,5.5466664E-1,2.2985072E-1,3.4853067E-2,1.843498E-1,8.742857E-2,2.8045973E-1,-1.9123666E-2,-9.998668E-3,-1.8136758E-2,1.9790354E-1,8.4999996E-1,4.5125E-1,2.3386241E-1,-8.306454E-2,6E-2,-7.5000017E-3,7.5E-1,2.3666665E-1,6.7692304E-1,1.19999975E-1,1.6272964E-1,-4.5469545E-2,4.9279997E-1,1.3234897E-1,-9.677421E-3,4.8070174E-1,-8.110656E-2,6.540929E-2,-7.130368E-2,2.4584906E-2,1.5770112E-1,5.9999996E-1,8.830189E-2,4.1666666E-1,-8.333336E-3,4.8799998E-1,6.262624E-2,4.175824E-1,2.4999999E-1,-9.915969E-3,8.04878E-2,2.4999999E-2,5.7777774E-2,8.636362E-3,1.7499998E-2,8.1E-2,3.0399999E-2,-3.2258087E-3,5.65972E-3,4.861702E-2,5.454545E-2,-5.6281434E-3,6.802326E-2,7.749998E-3,4.2187497E-2,8.93846E-3,7.515152E-2,1.0399998E-2,-9.323998E-3,2.6379308E-2,4.748741E-3,4.679245E-2,9.419353E-3,-9.447466E-3,7.681818E-2,1.3980559E-3,1.05599975E-2,4.754098E-2,2.2222202E-3,7.314286E-2,6.7499995E-2,-6.6666687E-3,1.0999998E-2,5.3787876E-2,2.2471676E-4,5.454545E-2,1.787234E-2,6.577777E-2,4.25E-2,-6.6666687E-3],"categories":[],"categories_nodes":[],"categories_segments":[],"categories_sizes":[],"default_left":[0,0,0,0,0,0,0,0,0,0,0,0,0,0,0,0,0,0,0,0,0,0,0,0,0,0,0,0,0,0,0,0,0,0,0,0,0,0,0,0,0,0,0,0,0,0,0,0,0,0,0,0,0,0,0,0,0,0,0,0,0,0,0,0,0,0,0,0,0,0,0,0,0,0,0,0,0,0,0,0,0,0,0,0,0,0,0,0,0,0,0,0,0,0,0,0,0],"id":7,"left_children":[1,3,5,7,9,11,13,15,17,19,21,23,25,27,29,31,-1,33,35,37,39,-1,41,43,-1,45,47,49,51,53,55,-1,-1,57,59,61,63,65,67,69,71,-1,73,75,77,79,81,83,85,-1,87,-1,89,91,93,95,-1,-1,-1,-1,-1,-1,-1,-1,-1,-1,-1,-1,-1,-1,-1,-1,-1,-1,-1,-1,-1,-1,-1,-1,-1,-1,-1,-1,-1,-1,-1,-1,-1,-1,-1,-1,-1,-1,-1,-1,-1],"loss_changes":[8.3266174E1,3.1189812E1,4.492395E1,7.7789154E0,1.3870258E1,2.0425407E1,2.514916E1,1.4938889E0,3.5712833E0,1.0317146E1,8.596361E0,1.381382E1,1.9044998E1,4.9603767E0,7.508919E0,7.2749996E-1,0E0,4.4811993E0,3.2092216E0,1.014525E1,1.3873247E1,0E0,6.6183324E0,1.5430677E1,0E0,6.413857E0,7.6162033E0,4.6195602E-1,1.6123409E0,5.919695E0,6.8951964E-1,0E0,0E0,1.0609741E0,1.4882021E0,7.265768E-1,1.5506579E0,1.3051275E1,3.908824E0,9.677376E0,9.229573E0,0E0,5.736747E0,7.13459E0,8.9662075E0,4.832992E0,1.2337734E1,7.1503477E0,3.2490168E0,0E0,7.9416656E-1,0E0,1.3548985E0,2.884894E0,5.103366E0,3.6083332E-1,0E0,0E0,0E0,0E0,0E0,0E0,0E0,0E0,0E0,0E0,0E0,0E0,0E0,0E0,0E0,0E0,0E0,0E0,0E0,0E0,0E0,0E0,0E0,0E0,0E0,0E0,0E0,0E0,0E0,0E0,0E0,0E0,0E0,0E0,0E0,0E0,0E0,0E0,0E0,0E0,0E0],"parents":[2147483647,0,0,1,1,2,2,3,3,4,4,5,5,6,6,7,7,8,8,9,9,10,10,11,11,12,12,13,13,14,14,15,15,17,17,18,18,19,19,20,20,22,22,23,23,25,25,26,26,27,27,28,28,29,29,30,30,33,33,34,34,35,35,36,36,37,37,38,38,39,39,40,40,42,42,43,43,44,44,45,45,46,46,47,47,48,48,50,50,52,52,53,53,54,54,55,55],"right_children":[2,4,6,8,10,12,14,16,18,20,22,24,26,28,30,32,-1,34,36,38,40,-1,42,44,-1,46,48,50,52,54,56,-1,-1,58,60,62,64,66,68,70,72,-1,74,76,78,80,82,84,86,-1,88,-1,90,92,94,96,-1,-1,-1,-1,-1,-1,-1,-1,-1,-1,-1,-1,-1,-1,-1,-1,-1,-1,-1,-1,-1,-1,-1,-1,-1,-1,-1,-1,-1,-1,-1,-1,-1,-1,-1,-1,-1,-1,-1,-1,-1],"split_conditions":[-8.596555E-2,-3.0420125E-3,8.229016E-2,4.756276E-3,1.7083824E-2,9.7855484E-1,-3.0420125E-3,-3.1509496E-2,-9.103586E-2,1.397474E1,-2.271438E0,-4.3578407E-1,3.4006905E-2,4.6820525E-5,4.7548887E-1,-7.5581735E-3,8.18001E-3,-3.6610247E-4,2.8707102E-2,6.8770155E-2,-6.083995E-1,7.704008E-3,9.0650265E-4,1.3901556E1,-3.05531E-2,1.9544798E-3,1.051116E-1,6.5167663E-3,4.5330827E-3,8.707242E-2,-9.644579E-3,5.796188E-3,-6.610751E-5,-3.4357524E-3,-3.729849E-3,1.7188258E-2,1.1267488E0,9.975773E0,-9.607984E-2,7.260117E-2,-1.4027067E-2,-2.9537082E-4,1.6765903E-3,8.676809E-2,2.834072E-4,-9.239434E-3,-5.7539716E-3,2.6482236E-4,-7.603367E-2,8.964342E-3,2.7320178E-2,-2.5386215E-4,8.15033E-3,2.3588937E-4,-6.929584E-1,1.5836537E1,-2.2840358E-3,1.0771519E-2,5.296928E-3,5.1884176E-3,8.776662E-4,1.003325E-4,7.854707E-3,2.7663468E-3,-8.744701E-4,9.169102E-4,4.930234E-3,7.856287E-3,-1.2460666E-3,5.290277E-3,1.9493751E-3,3.953141E-3,1.3343865E-3,8.6775E-3,4.2798957E-3,-8.825004E-3,2.7022648E-3,9.5387484E-4,6.3698143E-3,3.8787776E-3,-3.6061078E-3,1.4095657E-2,2.9907364E-4,2.3783534E-3,9.277332E-3,8.418918E-4,9.464893E-3,8.441932E-3,-8.681893E-4,4.5904755E-3,8.021913E-3,9.119208E-5,1.2832027E-3,1.4187322E-3,5.8036353E-3,2.6889445E-4,-3.74645E-4],"split_indices":[32,27,32,11,11,12,27,22,32,3,14,14,1,35,20,4,0,45,7,9,20,0,31,0,0,5,33,11,37,32,40,0,0,24,24,7,6,3,30,45,45,0,41,45,29,32,18,29,44,0,1,0,1,35,6,2,0,0,0,0,0,0,0,0,0,0,0,0,0,0,0,0,0,0,0,0,0,0,0,0,0,0,0,0,0,0,0,0,0,0,0,0,0,0,0,0,0],"split_type":[0,0,0,0,0,0,0,0,0,0,0,0,0,0,0,0,0,0,0,0,0,0,0,0,0,0,0,0,0,0,0,0,0,0,0,0,0,0,0,0,0,0,0,0,0,0,0,0,0,0,0,0,0,0,0,0,0,0,0,0,0,0,0,0,0,0,0,0,0,0,0,0,0,0,0,0,0,0,0,0,0,0,0,0,0,0,0,0,0,0,0,0,0,0,0,0,0],"sum_hessian":[1.6354E4,2.175E3,1.4179E4,2.01E2,1.974E3,1.3732E4,4.47E2,6.1E1,1.4E2,1.854E3,1.2E2,1.0434E4,3.298E3,1.36E2,3.11E2,5E0,5.6E1,7.4E1,6.6E1,9.86E2,8.68E2,3.4E1,8.6E1,2.943E3,7.491E3,2.822E3,4.76E2,5.7E1,7.9E1,1.88E2,1.23E2,2E0,3E0,4.5E1,2.9E1,1.2E1,5.4E1,3.8E2,6.06E2,1.24E2,7.44E2,3E1,5.6E1,1.698E3,1.245E3,1.257E3,1.565E3,4.34E2,4.2E1,5.2E1,5E0,5E0,7.4E1,9.8E1,9E1,5E0,1.18E2,4E1,5E0,8E0,2.1E1,3E0,9E0,2.4E1,3E1,2.87E2,9.3E1,1E1,5.96E2,8.5E1,3.9E1,9.5E1,6.49E2,3.2E1,2.4E1,1.641E3,5.7E1,1.193E3,5.2E1,1.54E2,1.103E3,2.1E1,1.544E3,3.74E2,6E1,8E0,3.4E1,3E0,2E0,9E0,6.5E1,8.8E1,1E1,4.6E1,4.4E1,3E0,2E0],"tree_param":{"num_deleted":"0","num_feature":"48","num_nodes":"97","size_leaf_vector":"1"}},{"base_weights":[-2.1180091E-2,-6.354071E-2,8.4857546E-2,-8.106517E-2,2.0465784E-2,3.6189514E-1,5.1916603E-2,-3.264305E-3,-9.6397646E-2,-6.3060713E-4,3.663793E-1,1.7366664E-1,6.467005E-1,3.0015733E-2,2.7901906E-1,-9.986723E-3,8.323422E-2,-9.93598E-2,1.1327431E-1,-8.789896E-2,5.6336783E-2,1.817073E-1,7.885714E-1,-4.1904785E-2,2.882653E-1,8.7682927E-1,4.7844824E-1,-2.910491E-2,8.4154904E-2,6.2741935E-1,2.0751631E-1,5.184694E-2,3.6547616E-1,-9.97345E-2,-4.655175E-2,4.6874997E-1,5.4081608E-2,-2.7777802E-2,-9.984054E-3,4.476744E-1,2.4742244E-2,3.414634E-1,2.1428548E-2,3.4285712E-1,8.689655E-2,2.210526E-1,-9.885061E-3,7.05E-1,2.39548E-1,4.2499998E-1,8.886076E-2,2.4897957E-1,6.367647E-1,5.0836798E-2,-5.7514906E-2,6.389181E-2,4.5436892E-1,-8.57143E-3,7.0535713E-1,2.5753966E-1,-2.545457E-2,4.1844896E-3,7.272727E-2,1.9193547E-2,8.173913E-2,-8.421055E-3,-9.998716E-3,4.1666668E-2,-9.811323E-3,6.583333E-2,-8.000002E-3,-4.459462E-3,3.4399997E-2,-5.405408E-3,1.5624997E-2,5.7285715E-2,-9.411767E-3,-9.780244E-4,2.2341771E-2,1.612903E-2,8.1818186E-2,4.8571426E-2,-6.9444473E-3,6.7499995E-2,-7.5000017E-3,-9.090912E-3,5.7777774E-2,1.7499998E-2,7.882353E-2,6.928571E-2,1.9939022E-2,6E-2,-5.0000013E-3,8.1818186E-2,8.205126E-3,6.590909E-2,-6.6666687E-3,8.25E-2,3.0835094E-3,1.2461036E-3,-7.939456E-3,-2.0611575E-3,1.3814739E-2,6.1012655E-2,-5.6000026E-3,7.3518515E-2,-6.6666687E-3,5.159091E-2,2.0191384E-2,-6.037738E-3,6E-2],"categories":[],"categories_nodes":[],"categories_segments":[],"categories_sizes":[],"default_left":[0,0,0,0,0,0,0,0,0,0,0,0,0,0,0,0,0,0,0,0,0,0,0,0,0,0,0,0,0,0,0,0,0,0,0,0,0,0,0,0,0,0,0,0,0,0,0,0,0,0,0,0,0,0,0,0,0,0,0,0,0,0,0,0,0,0,0,0,0,0,0,0,0,0,0,0,0,0,0,0,0,0,0,0,0,0,0,0,0,0,0,0,0,0,0,0,0,0,0,0,0,0,0,0,0,0,0,0,0,0,0],"id":8,"left_children":[1,3,5,7,9,11,13,15,17,19,21,23,25,27,29,-1,31,33,35,37,39,41,43,45,47,49,51,53,55,57,59,61,63,65,67,69,71,73,-1,75,77,79,81,83,-1,85,-1,87,89,91,-1,93,95,97,99,101,103,-1,105,107,109,-1,-1,-1,-1,-1,-1,-1,-1,-1,-1,-1,-1,-1,-1,-1,-1,-1,-1,-1,-1,-1,-1,-1,-1,-1,-1,-1,-1,-1,-1,-1,-1,-1,-1,-1,-1,-1,-1,-1,-1,-1,-1,-1,-1,-1,-1,-1,-1,-1,-1],"loss_changes":[7.346911E1,1.7206894E1,4.2589943E1,1.1534832E1,1.472664E1,2.6477493E1,2.0752018E1,1.3319436E1,5.028351E0,9.465621E0,8.900889E0,7.423338E0,7.2082596E0,1.2190877E1,9.012346E0,0E0,7.4313083E0,1.5297699E-1,2.3523462E0,5.3711843E-1,1.4232403E1,2.0923343E0,9.562168E-1,1.5941551E0,3.8103466E0,5.8727264E-2,4.055584E0,4.1386757E0,1.4884314E1,3.506422E0,3.5726757E0,5.090342E0,6.43087E0,2.2605896E-2,1.4261658E0,1.7172081E0,2.81893E0,6.177271E-1,0E0,5.886694E0,7.3204937E0,3.3895998E0,1.805754E0,1.0221429E0,0E0,2.1669326E0,0E0,7.443533E-1,3.0839396E0,3.6249995E-1,0E0,4.5886497E0,1.1118755E0,7.376191E0,2.0587196E0,1.1837211E1,8.222034E0,0E0,1.3385792E0,3.5175762E0,1.2375712E0,0E0,0E0,0E0,0E0,0E0,0E0,0E0,0E0,0E0,0E0,0E0,0E0,0E0,0E0,0E0,0E0,0E0,0E0,0E0,0E0,0E0,0E0,0E0,0E0,0E0,0E0,0E0,0E0,0E0,0E0,0E0,0E0,0E0,0E0,0E0,0E0,0E0,0E0,0E0,0E0,0E0,0E0,0E0,0E0,0E0,0E0,0E0,0E0,0E0,0E0],"parents":[2147483647,0,0,1,1,2,2,3,3,4,4,5,5,6,6,7,7,8,8,9,9,10,10,11,11,12,12,13,13,14,14,16,16,17,17,18,18,19,19,20,20,21,21,22,22,23,23,24,24,25,25,26,26,27,27,28,28,29,29,30,30,31,31,32,32,33,33,34,34,35,35,36,36,37,37,39,39,40,40,41,41,42,42,43,43,45,45,47,47,48,48,49,49,51,51,52,52,53,53,54,54,55,55,56,56,58,58,59,59,60,60],"right_children":[2,4,6,8,10,12,14,16,18,20,22,24,26,28,30,-1,32,34,36,38,40,42,44,46,48,50,52,54,56,58,60,62,64,66,68,70,72,74,-1,76,78,80,82,84,-1,86,-1,88,90,92,-1,94,96,98,100,102,104,-1,106,108,110,-1,-1,-1,-1,-1,-1,-1,-1,-1,-1,-1,-1,-1,-1,-1,-1,-1,-1,-1,-1,-1,-1,-1,-1,-1,-1,-1,-1,-1,-1,-1,-1,-1,-1,-1,-1,-1,-1,-1,-1,-1,-1,-1,-1,-1,-1,-1,-1,-1,-1],"split_conditions":[1.2978314E-1,9.7855484E-1,-3.0921933E-3,1.24019E-18,4.3940563E-2,1.6898434E-1,1.4148237E-2,1.3650568E1,6.2245786E-1,8.502706E-4,1.3960954E1,1.3942929E-2,1.395172E-2,1.5527877E1,-2.271438E0,-3.7938062E-2,2.43234E-4,3.8551664E-1,-8.6244695E-2,-5.730632E-3,-5.7539716E-3,-1.28138205E-2,-2.5980631E-17,-2.5309008E-4,-9.18533E-2,-3.1509496E-2,-3.5534739E-3,-5.345006E-1,-1.646448E-3,1.4854997E-4,1.4179091E-4,2.1739262E1,2.3731284E-18,7.62402E-19,1.1917944E-17,1.2056112E-1,2.8978112E-1,7.8331055E-3,-3.7500385E-2,-4.999397E-4,1.9064584E-1,-7.145019E-18,8.171802E0,-2.5805081E-3,1.1790812E-2,4.3283723E-2,-3.0008925E-3,2.2733118E-1,1.6054198E-2,-7.5581735E-3,7.458977E-3,-4.2404686E-3,1.094544E0,-1.1472809E-1,-6.676269E-2,2.2717117E-5,-3.7467E-2,-1.5383661E-3,5.27145E-2,-1.03510976E-1,7.298652E-2,1.4155359E-3,7.955353E-3,4.570573E-3,5.755446E-3,-2.565867E-2,-2.907531E-2,2.2718788E-3,-1.2523012E-2,7.962832E-3,-9.1878773E-4,-2.4018534E-4,9.0281357E-4,-1.2181521E-3,2.0580634E-3,8.797449E-3,-1.2469292E-4,-2.5122773E-4,5.9073498E-3,3.001956E-3,7.487996E-3,2.8677525E-3,-4.469944E-4,2.7027787E-3,-1.9280434E-3,-3.3093576E-4,3.2775404E-4,2.2196712E-3,1.0316662E-2,9.028039E-3,6.184378E-3,5.2165687E-3,-5.9497357E-5,6.804645E-3,1.6921144E-3,5.117974E-3,-7.984281E-4,7.673627E-3,5.1435037E-4,2.5092406E-4,-2.2445999E-3,-3.0478986E-4,2.2034943E-3,4.083212E-3,-2.5737585E-4,5.5678845E-3,-4.609227E-5,6.6651255E-3,2.9705337E-3,-3.9931698E-4,9.8026935E-3],"split_indices":[13,12,27,45,5,13,11,0,9,5,0,37,19,2,14,0,29,10,40,32,18,4,20,28,32,22,24,18,27,35,28,0,33,31,21,13,8,4,0,24,45,8,0,24,0,5,0,7,37,4,0,26,9,32,4,29,4,0,37,32,1,0,0,0,0,0,0,0,0,0,0,0,0,0,0,0,0,0,0,0,0,0,0,0,0,0,0,0,0,0,0,0,0,0,0,0,0,0,0,0,0,0,0,0,0,0,0,0,0,0,0],"split_type":[0,0,0,0,0,0,0,0,0,0,0,0,0,0,0,0,0,0,0,0,0,0,0,0,0,0,0,0,0,0,0,0,0,0,0,0,0,0,0,0,0,0,0,0,0,0,0,0,0,0,0,0,0,0,0,0,0,0,0,0,0,0,0,0,0,0,0,0,0,0,0,0,0,0,0,0,0,0,0,0,0,0,0,0,0,0,0,0,0,0,0,0,0,0,0,0,0,0,0,0,0,0,0,0,0,0,0,0,0,0,0],"sum_hessian":[1.6354E4,1.1686E4,4.668E3,9.669E3,2.017E3,4.95E2,4.173E3,1.592E3,8.077E3,1.902E3,1.15E2,2.99E2,1.96E2,3.807E3,3.66E2,7.52E2,8.4E2,7.965E3,1.12E2,7.51E2,1.151E3,8.1E1,3.4E1,1.04E2,1.95E2,8.1E1,1.15E2,1.82E3,1.987E3,6.1E1,3.05E2,7.57E2,8.3E1,7.908E3,5.7E1,1.5E1,9.7E1,1.25E2,6.26E2,8.5E1,1.066E3,4E1,4.1E1,6E0,2.8E1,1.8E1,8.6E1,1.9E1,1.76E2,3E0,7.8E1,4.8E1,6.7E1,4.77E2,1.343E3,1.885E3,1.02E2,6E0,5.5E1,2.51E2,5.4E1,7.47E2,1E1,6.1E1,2.2E1,1.32E2,7.776E3,5E0,5.2E1,1.1E1,4E0,7.3E1,2.4E1,1.1E2,1.5E1,6.9E1,1.6E1,9.09E2,1.57E2,3E1,1E1,6E0,3.5E1,3E0,3E0,1E1,8E0,3E0,1.6E1,1.3E1,1.63E2,2E0,1E0,1E1,3.8E1,6.5E1,2E0,1.1E1,4.66E2,3.2E2,1.023E3,8.82E2,1.003E3,7.8E1,2.4E1,5.3E1,2E0,4.3E1,2.08E2,5.2E1,2E0],"tree_param":{"num_deleted":"0","num_feature":"48","num_nodes":"111","size_leaf_vector":"1"}},{"base_weights":[-2.5093267E-2,-6.4909756E-2,7.4576974E-2,6.9382577E-3,-8.42437E-2,3.2157254E-1,4.520841E-2,-2.0360689E-4,7.3749995E-1,-9.500595E-2,3.2179464E-2,1.2668917E-1,6.069651E-1,2.5288843E-2,2.517711E-1,-8.715015E-2,4.069417E-2,-7.5000017E-3,8.571428E-2,8.1884034E-2,-9.7938046E-2,1.23672545E-1,-9.3617044E-2,-4.1904785E-2,2.1822914E-1,8.556818E-1,4.096491E-1,1.910979E-1,9.1877645E-3,6.112903E-1,1.7810455E-1,-2.5185209E-2,-9.984665E-3,2.7983868E-1,2.1511605E-2,6.2142855E-1,2.0799976E-2,-9.841904E-2,4.1249996E-1,1.7936043E-1,-5.3211033E-2,4.4999998E-2,-9.664637E-2,2.210526E-1,-9.885061E-3,8E-2,1.8858694E-1,8.77907E-1,-6.6666687E-3,2.828947E-1,6.461538E-1,4.8278686E-1,2.5462938E-2,6.886719E-2,-2.7990678E-2,-8.57143E-3,6.875E-1,2.2182538E-1,-2.545457E-2,-6.9000022E-3,9.722221E-3,1.2333332E-2,6.7428574E-2,-8.063832E-3,6.5987E-3,-6.6666687E-3,7.416667E-2,3.2692306E-2,-5.9000026E-3,2.4444444E-2,-9.877993E-3,-7.5000017E-3,7.2E-2,2.175862E-2,-2.545457E-3,-9.900003E-3,4.0999997E-2,-9.969328E-3,2.6666665E-2,-9.090912E-3,5.7777774E-2,-5.1162816E-3,2.5985915E-2,4.25E-2,8.891566E-2,1.1764704E-2,5.961538E-2,8.333332E-3,7.264706E-2,5.841584E-2,-4.5454773E-4,-6.8292924E-4,5.75E-2,4.520431E-3,2.785185E-2,-8.112502E-3,3.7285368E-4,7.1666665E-2,-6.6666687E-3,5.4642856E-2,1.8044442E-2,-6.037738E-3,6E-2],"categories":[],"categories_nodes":[],"categories_segments":[],"categories_sizes":[],"default_left":[0,0,0,0,0,0,0,0,0,0,0,0,0,0,0,0,0,0,0,0,0,0,0,0,0,0,0,0,0,0,0,0,0,0,0,0,0,0,0,0,0,0,0,0,0,0,0,0,0,0,0,0,0,0,0,0,0,0,0,0,0,0,0,0,0,0,0,0,0,0,0,0,0,0,0,0,0,0,0,0,0,0,0,0,0,0,0,0,0,0,0,0,0,0,0,0,0,0,0,0,0,0,0],"id":9,"left_children":[1,3,5,7,9,11,13,15,17,19,21,23,25,27,29,31,33,-1,-1,35,37,39,41,43,45,47,49,51,53,55,57,59,-1,61,63,65,67,69,71,73,75,-1,77,79,-1,-1,81,83,-1,85,87,89,91,93,95,-1,97,99,101,-1,-1,-1,-1,-1,-1,-1,-1,-1,-1,-1,-1,-1,-1,-1,-1,-1,-1,-1,-1,-1,-1,-1,-1,-1,-1,-1,-1,-1,-1,-1,-1,-1,-1,-1,-1,-1,-1,-1,-1,-1,-1,-1,-1],"loss_changes":[6.4909966E1,1.623507E1,3.3853947E1,1.2934513E1,1.1541702E1,2.7509766E1,1.7168137E1,8.736887E0,2.3973207E0,4.38031E0,8.988996E0,4.577338E0,9.513702E0,1.0164478E1,9.610952E0,6.158619E-1,7.6595345E0,0E0,0E0,4.535219E0,2.0766983E0,4.4618683E0,5.8528495E-1,1.5941551E0,3.1601658E0,1.8624725E0,3.2347012E0,1.626949E1,7.70556E0,3.352274E0,2.7289772E0,7.307482E-1,0E0,7.571741E0,7.0381308E0,1.2077384E0,3.0728662E0,1.0493927E0,1.25325E0,2.6987858E0,2.3524761E0,0E0,3.896749E-1,2.1669326E0,0E0,0E0,3.157394E0,6.0287476E-2,0E0,3.8640304E0,1.7024117E0,6.0296516E0,3.8370147E0,6.600361E0,3.6070156E0,0E0,1.2795849E0,3.2863626E0,1.2375712E0,0E0,0E0,0E0,0E0,0E0,0E0,0E0,0E0,0E0,0E0,0E0,0E0,0E0,0E0,0E0,0E0,0E0,0E0,0E0,0E0,0E0,0E0,0E0,0E0,0E0,0E0,0E0,0E0,0E0,0E0,0E0,0E0,0E0,0E0,0E0,0E0,0E0,0E0,0E0,0E0,0E0,0E0,0E0,0E0],"parents":[2147483647,0,0,1,1,2,2,3,3,4,4,5,5,6,6,7,7,8,8,9,9,10,10,11,11,12,12,13,13,14,14,15,15,16,16,19,19,20,20,21,21,22,22,23,23,24,24,25,25,26,26,27,27,28,28,29,29,30,30,31,31,33,33,34,34,35,35,36,36,37,37,38,38,39,39,40,40,42,42,43,43,46,46,47,47,49,49,50,50,51,51,52,52,53,53,54,54,56,56,57,57,58,58],"right_children":[2,4,6,8,10,12,14,16,18,20,22,24,26,28,30,32,34,-1,-1,36,38,40,42,44,46,48,50,52,54,56,58,60,-1,62,64,66,68,70,72,74,76,-1,78,80,-1,-1,82,84,-1,86,88,90,92,94,96,-1,98,100,102,-1,-1,-1,-1,-1,-1,-1,-1,-1,-1,-1,-1,-1,-1,-1,-1,-1,-1,-1,-1,-1,-1,-1,-1,-1,-1,-1,-1,-1,-1,-1,-1,-1,-1,-1,-1,-1,-1,-1,-1,-1,-1,-1,-1],"split_conditions":[1.2978314E-1,1.24019E-18,-3.0921933E-3,7.1283236E-2,-7.2623506E-19,3.8797301E-3,1.4148237E-2,8.502706E-4,1.4992232E1,-8.589091E-2,-5.3887967E-20,1.3942929E-2,1.395172E-2,-1.03510976E-1,-2.271438E0,-7.1104336E-20,-7.1104336E-20,-4.3704137E-2,5.2178875E-3,1.9850368E-3,1.08991235E-1,-1.4079744E-3,-3.440122E-4,-2.5309008E-4,1.774829E1,4.2510484E-3,-2.8835724E-3,6.403267E-2,-2.0393417E-3,1.4854997E-4,1.4179091E-4,1.1733623E-3,-3.429627E-2,-1.2669601E-17,1.3494003E1,1.7975202E-3,3.645821E-2,7.9742317E0,1.8828694E-2,-3.3864973E-18,1.7723356E-3,2.0676553E-3,6.6896224E-1,4.3283723E-2,-2.700801E-3,6.525278E-3,1.2206677E-2,-3.1509496E-2,-4.3580625E-2,1.6184444E-4,8.371004E-3,5.187486E-2,1.7869833E1,8.996845E-2,1.9255051E-2,-1.3845324E-3,5.27145E-2,-1.089848E-1,7.298652E-2,-1.3549334E-3,1.8522538E-3,2.841144E-3,9.600353E-3,-1.9407285E-2,2.2088822E-3,-6.401408E-3,1.2492572E-3,4.8407377E-3,-8.921038E-4,2.5809766E-3,-2.5651706E-2,-3.2268763E-3,1.0469503E-2,6.219643E-3,-4.2553907E-4,-1.9587758E-3,5.917137E-3,-1.589557E-2,1.1129439E-3,-2.9784325E-4,2.9497742E-4,-4.9360044E-4,6.0378048E-3,4.694909E-3,7.23375E-3,3.459595E-3,5.4755807E-3,2.9695153E-3,5.1745027E-3,5.979024E-3,9.793489E-4,-3.9148403E-5,2.5452732E-3,6.84486E-4,3.5274685E-3,-2.3791313E-3,1.08016124E-4,5.011094E-3,-4.1484833E-5,7.3673576E-3,2.3826445E-3,-3.593878E-4,8.822423E-3],"split_indices":[13,45,27,5,44,17,11,5,0,32,44,37,19,32,14,45,45,0,0,5,34,24,28,28,2,11,44,45,27,35,28,4,0,45,0,5,45,2,1,20,25,0,22,5,0,0,19,22,0,41,1,5,0,30,1,0,37,32,1,0,0,0,0,0,0,0,0,0,0,0,0,0,0,0,0,0,0,0,0,0,0,0,0,0,0,0,0,0,0,0,0,0,0,0,0,0,0,0,0,0,0,0,0],"split_type":[0,0,0,0,0,0,0,0,0,0,0,0,0,0,0,0,0,0,0,0,0,0,0,0,0,0,0,0,0,0,0,0,0,0,0,0,0,0,0,0,0,0,0,0,0,0,0,0,0,0,0,0,0,0,0,0,0,0,0,0,0,0,0,0,0,0,0,0,0,0,0,0,0,0,0,0,0,0,0,0,0,0,0,0,0,0,0,0,0,0,0,0,0,0,0,0,0,0,0,0,0,0,0],"sum_hessian":[1.6354E4,1.1686E4,4.668E3,2.478E3,9.208E3,4.95E2,4.173E3,2.455E3,2.3E1,8.429E3,7.79E2,2.95E2,2E2,3.807E3,3.66E2,7.85E2,1.67E3,3E0,2E1,1.37E2,8.292E3,4.51E2,3.28E2,1.04E2,1.91E2,8.7E1,1.13E2,3.36E2,3.471E3,6.1E1,3.05E2,1.34E2,6.51E2,1.23E2,1.547E3,1.3E1,1.24E2,8.285E3,7E0,3.43E2,1.08E2,1E0,3.27E2,1.8E1,8.6E1,8E0,1.83E2,8.5E1,2E0,7.5E1,3.8E1,1.21E2,2.15E2,1.332E3,2.139E3,6E0,5.5E1,2.51E2,5.4E1,9.9E1,3.5E1,8.9E1,3.4E1,4.69E2,1.078E3,2E0,1.1E1,2.5E1,9.9E1,8E0,8.277E3,3E0,4E0,2.89E2,5.4E1,9.9E1,9E0,3.25E2,2E0,1E1,8E0,4.2E1,1.41E2,3E0,8.2E1,5E1,2.5E1,5E0,3.3E1,1E2,2.1E1,2.04E2,1.1E1,1.198E3,1.34E2,7.99E2,1.34E3,5.3E1,2E0,2.7E1,2.24E2,5.2E1,2E0],"tree_param":{"num_deleted":"0","num_feature":"48","num_nodes":"103","size_leaf_vector":"1"}},{"base_weights":[-2.7049856E-2,1.0223878E-1,-5.3913772E-2,5.131783E-1,8.2464606E-2,-8.633726E-2,3.146457E-2,6.6099995E-1,3.3333104E-3,4.4006124E-2,1.8448977E-1,-3.3475634E-2,-9.6930064E-2,2.0005442E-2,6.3E-1,7.287356E-1,1.9285712E-1,4.4999998E-2,-2.758623E-2,1.4358404E-1,1.3990649E-2,8.357143E-2,1.7160663E-1,-4.7604058E-2,3.7454543E-1,3.113636E-1,-9.912704E-2,-7.174816E-2,6.5144695E-2,7.8867924E-1,1.2777776E-1,8.1060606E-1,4.5E-1,7.2E-2,-9.000002E-3,-9.56522E-3,1.9999997E-1,7.9444444E-1,1.1632182E-1,6.0999995E-1,9.986571E-3,5.8064514E-1,1.5303466E-1,-9.874144E-2,1.5147241E-2,1.2499998E-1,8.0499995E-1,-9.285717E-3,4.8387095E-1,-9.949572E-2,6.7499995E-2,6.256981E-2,-9.5043756E-2,4.9387753E-1,5.638251E-2,8.3829784E-1,3.4285712E-1,3.1249978E-2,6E-2,1.7499998E-2,8.380952E-2,1.5833331E-2,7.272727E-2,6E-2,-8.000002E-3,8.470588E-2,-5.0000013E-3,9.347824E-3,5.4090906E-2,1.7499998E-2,7.714286E-2,5.7777774E-2,6.536364E-4,2.3999998E-2,8.470588E-2,4.0983606E-2,1.2800631E-2,-5.000002E-3,-9.988279E-3,-4.282463E-3,1.0763634E-2,-9.375002E-3,2.8571427E-2,-5.0000013E-3,8.5263155E-2,2.210526E-2,8.307692E-2,-7.987016E-3,-9.986213E-3,-4.6017724E-3,2.447761E-2,-9.795324E-3,6.7499995E-2,-9.000002E-3,6.2750004E-2,-5.000002E-3,1.0953863E-2,4.8571426E-2,8.7804876E-2,6.7499995E-2,-7.5000017E-3,-9.230772E-3,4.25E-2],"categories":[],"categories_nodes":[],"categories_segments":[],"categories_sizes":[],"default_left":[0,0,0,0,0,0,0,0,0,0,0,0,0,0,0,0,0,0,0,0,0,0,0,0,0,0,0,0,0,0,0,0,0,0,0,0,0,0,0,0,0,0,0,0,0,0,0,0,0,0,0,0,0,0,0,0,0,0,0,0,0,0,0,0,0,0,0,0,0,0,0,0,0,0,0,0,0,0,0,0,0,0,0,0,0,0,0,0,0,0,0,0,0,0,0,0,0,0,0,0,0,0,0],"id":10,"left_children":[1,3,5,7,9,11,13,15,17,19,21,23,25,27,29,31,33,-1,35,37,39,-1,41,43,45,47,49,51,53,55,57,59,61,-1,-1,-1,63,65,67,69,71,73,75,77,79,81,83,-1,85,87,-1,89,91,93,95,97,99,101,-1,-1,-1,-1,-1,-1,-1,-1,-1,-1,-1,-1,-1,-1,-1,-1,-1,-1,-1,-1,-1,-1,-1,-1,-1,-1,-1,-1,-1,-1,-1,-1,-1,-1,-1,-1,-1,-1,-1,-1,-1,-1,-1,-1,-1],"loss_changes":[5.6809692E1,2.2824213E1,3.749054E1,9.720024E0,1.0531029E1,5.492691E0,2.5556602E1,3.0304565E0,4.2673564E-1,5.8322825E0,6.0231056E0,9.4719305E0,7.3648224E0,1.5159116E1,5.47768E0,1.6205826E0,2.1522856E0,0E0,4.6836582E-1,7.9278336E0,3.5759964E0,0E0,5.39592E0,5.09087E0,5.807364E0,3.1130967E0,2.3883667E0,3.7826705E0,9.187182E0,8.8500214E-1,8.017361E-1,1.0065079E0,1.6640153E0,0E0,0E0,0E0,8.32E-1,8.4209156E-1,4.168542E0,5.672138E-1,2.9190469E0,2.610034E0,4.395241E0,4.362774E-2,3.8275485E0,1.2924109E0,8.5713005E-1,0E0,2.6426644E0,5.0498962E-2,0E0,3.5528386E0,2.371522E0,3.8794136E0,1.3605469E1,2.322464E-1,1.0221429E0,8.1764424E-1,0E0,0E0,0E0,0E0,0E0,0E0,0E0,0E0,0E0,0E0,0E0,0E0,0E0,0E0,0E0,0E0,0E0,0E0,0E0,0E0,0E0,0E0,0E0,0E0,0E0,0E0,0E0,0E0,0E0,0E0,0E0,0E0,0E0,0E0,0E0,0E0,0E0,0E0,0E0,0E0,0E0,0E0,0E0,0E0,0E0],"parents":[2147483647,0,0,1,1,2,2,3,3,4,4,5,5,6,6,7,7,8,8,9,9,10,10,11,11,12,12,13,13,14,14,15,15,16,16,18,18,19,19,20,20,22,22,23,23,24,24,25,25,26,26,27,27,28,28,29,29,30,30,31,31,32,32,36,36,37,37,38,38,39,39,40,40,41,41,42,42,43,43,44,44,45,45,46,46,48,48,49,49,51,51,52,52,53,53,54,54,55,55,56,56,57,57],"right_children":[2,4,6,8,10,12,14,16,18,20,22,24,26,28,30,32,34,-1,36,38,40,-1,42,44,46,48,50,52,54,56,58,60,62,-1,-1,-1,64,66,68,70,72,74,76,78,80,82,84,-1,86,88,-1,90,92,94,96,98,100,102,-1,-1,-1,-1,-1,-1,-1,-1,-1,-1,-1,-1,-1,-1,-1,-1,-1,-1,-1,-1,-1,-1,-1,-1,-1,-1,-1,-1,-1,-1,-1,-1,-1,-1,-1,-1,-1,-1,-1,-1,-1,-1,-1,-1,-1],"split_conditions":[-8.043979E-2,-9.95524E-2,1.1056557E0,1.6765903E-3,1.5894961E1,9.479299E-20,9.871269E-2,3.4346845E-2,-1.8545488E-1,-9.004431E-2,6.443294E-3,2.834072E-4,-5.482182E-1,1.8703738E-3,-7.6675355E-1,2.324423E-2,6.155081E-4,1.3846755E-3,3.247476E-2,-6.0586566E-1,8.9501925E-3,7.050416E-3,-5.9295845E-1,1.3835685E1,1.3939226E1,-7.5706385E-2,5.7480395E-1,-6.306679E-20,-2.2115994E-3,3.1188548E-2,7.1302163E-3,-3.1509496E-2,2.7711391E-3,5.0099553E-3,-4.2458187E-4,-8.641354E-4,9.784325E0,6.119651E-1,-4.395667E-2,-4.795277E-5,-1.9597773E-1,1.4667673E-4,-1.07832976E-1,-3.2360427E0,1.4474681E-17,2.4480733E-19,-7.4442506E-2,-2.77977E-3,-6.570669E-2,7.62402E-19,6.579125E-3,-1.2669601E-17,2.7496183E-1,7.979771E0,1.3924297E1,-1.606427E-1,4.8891652E-2,-3.5534739E-3,1.2869E-3,4.225415E-3,6.1293473E-3,6.406504E-3,4.463649E-3,3.5126389E-3,-9.057522E-5,5.8757067E-3,-7.626176E-4,1.3966056E-3,7.6138154E-3,1.5593052E-3,2.9931187E-3,5.7643177E-3,9.680862E-5,5.9990394E-3,4.3743453E-3,6.030171E-3,2.2333402E-3,-3.9797467E-3,-8.0096E-3,-8.493892E-4,4.9645836E-3,-1.8232355E-4,5.05098E-3,-9.955645E-4,5.5005676E-3,3.0254794E-3,1.4360677E-3,-1.9260332E-2,-2.3083987E-2,-1.1801362E-3,4.4824122E-3,-4.2901672E-3,1.0950685E-3,-3.204656E-4,1.1397808E-2,-1.1975359E-3,2.2462904E-3,7.2832704E-3,6.327204E-3,4.8888805E-3,-2.271533E-4,-5.4029824E-4,7.132054E-4],"split_indices":[32,33,15,41,0,45,32,5,4,30,1,29,16,5,9,19,31,0,10,38,7,0,22,0,0,30,10,45,32,23,37,22,34,0,0,0,0,6,33,28,4,25,32,12,21,30,4,0,44,31,0,45,19,0,0,10,10,24,0,0,0,0,0,0,0,0,0,0,0,0,0,0,0,0,0,0,0,0,0,0,0,0,0,0,0,0,0,0,0,0,0,0,0,0,0,0,0,0,0,0,0,0,0],"split_type":[0,0,0,0,0,0,0,0,0,0,0,0,0,0,0,0,0,0,0,0,0,0,0,0,0,0,0,0,0,0,0,0,0,0,0,0,0,0,0,0,0,0,0,0,0,0,0,0,0,0,0,0,0,0,0,0,0,0,0,0,0,0,0,0,0,0,0,0,0,0,0,0,0,0,0,0,0,0,0,0,0,0,0,0,0,0,0,0,0,0,0,0,0,0,0,0,0,0,0,0,0,0,0],"sum_hessian":[1.6354E4,2.813E3,1.3541E4,1.28E2,2.685E3,9.814E3,3.727E3,9.9E1,2.9E1,1.951E3,7.34E2,1.639E3,8.175E3,3.658E3,6.9E1,8.6E1,1.3E1,1E0,2.8E1,4.51E2,1.5E3,1.3E1,7.21E2,1.585E3,5.4E1,4.3E1,8.132E3,1.206E3,2.452E3,5.2E1,1.7E1,6.5E1,2.1E1,4E0,9E0,2.2E1,6E0,1.7E1,4.34E2,9E0,1.491E3,3E1,6.91E2,8.73E2,7.12E2,3.5E1,1.9E1,1.3E1,3E1,8.129E3,3E0,1.78E2,1.028E3,4.8E1,2.404E3,4.6E1,6E0,1.5E1,2E0,3E0,6.2E1,1.1E1,1E1,2E0,4E0,1.6E1,1E0,4.13E2,2.1E1,3E0,6E0,8E0,1.483E3,1.4E1,1.6E1,6E1,6.31E2,2.1E1,8.52E2,4.38E2,2.74E2,1.5E1,2E1,1E0,1.8E1,1.8E1,1.2E1,1.53E2,7.976E3,1.12E2,6.6E1,1.025E3,3E0,9E0,3.9E1,8.01E2,1.603E3,6E0,4E1,3E0,3E0,1.2E1,3E0],"tree_param":{"num_deleted":"0","num_feature":"48","num_nodes":"103","size_leaf_vector":"1"}},{"base_weights":[-2.9495591E-2,-6.5264195E-2,5.3554E-2,-8.196291E-2,1.6127352E-2,1.9290973E-1,1.41182365E-2,1.46798E-1,-8.695608E-2,9.1483496E-2,-8.0023386E-2,7.1710527E-1,1.5331353E-1,1.5021737E-1,-4.408308E-3,6.421052E-1,9.5135115E-2,-2.6704976E-2,-9.757985E-2,6.386896E-2,3.2327583E-1,2.2647056E-1,-9.258812E-2,2.22222E-2,7.985294E-1,6.324324E-1,1.3497433E-1,1.785712E-2,2.4754715E-1,4.7426816E-2,-2.5899606E-2,-6.6666687E-3,7.294117E-1,6.1494227E-2,5.75E-1,-4.3166567E-2,3.7454543E-1,-9.821182E-2,5.3749996E-1,-2.3021607E-2,1.2834223E-1,1.1692306E-1,5.75E-1,-9.5000025E-3,6.4E-1,-4.6875235E-3,-9.986845E-3,4.4999998E-2,-8.750002E-3,8.1194025E-1,-5.0000013E-3,8.6399995E-2,1.3846152E-1,1.0035333E-1,3.653543E-1,-1.1538485E-2,3.733333E-1,3.838926E-1,7.1794845E-2,2.6562497E-1,2.3995511E-2,4.3794304E-2,-4.740013E-2,8.357143E-2,1.7499998E-2,1.464912E-2,-9.836068E-3,-7.5000017E-3,8E-2,-9.713508E-3,2.207576E-3,1.2499998E-2,8.05E-2,-9.846468E-3,3.2E-2,-6.6666687E-3,7.5E-2,1.8888864E-3,-9.932435E-3,3.129412E-2,9.517818E-3,5.96491E-3,4.6666663E-2,7.073171E-2,7.499998E-3,1.1999998E-2,8.1818186E-2,-6.500002E-3,7.2E-2,8.257576E-2,-5.0000013E-3,6E-2,-2.1674418E-9,2.2370687E-2,5.388347E-3,6.970588E-2,2.4148934E-2,-5.5147083E-3,1.148936E-2,1.8181816E-2,7.2E-2,6.1833333E-2,2.2333331E-2,-2.604169E-3,4.9545452E-2,1.3749997E-2,6.2399995E-2,-2.0860734E-4,1.7769229E-2,6.888889E-2,3.327336E-3,5.714284E-3,-5.6514004E-3],"categories":[],"categories_nodes":[],"categories_segments":[],"categories_sizes":[],"default_left":[0,0,0,0,0,0,0,0,0,0,0,0,0,0,0,0,0,0,0,0,0,0,0,0,0,0,0,0,0,0,0,0,0,0,0,0,0,0,0,0,0,0,0,0,0,0,0,0,0,0,0,0,0,0,0,0,0,0,0,0,0,0,0,0,0,0,0,0,0,0,0,0,0,0,0,0,0,0,0,0,0,0,0,0,0,0,0,0,0,0,0,0,0,0,0,0,0,0,0,0,0,0,0,0,0,0,0,0,0,0,0,0,0],"id":11,"left_children":[1,3,5,7,9,11,13,15,17,19,21,23,25,27,29,31,33,35,37,39,41,43,45,47,49,51,53,55,57,59,61,-1,63,65,67,69,71,73,75,77,79,81,83,-1,85,87,-1,-1,-1,89,-1,-1,91,93,95,97,99,101,103,105,107,109,111,-1,-1,-1,-1,-1,-1,-1,-1,-1,-1,-1,-1,-1,-1,-1,-1,-1,-1,-1,-1,-1,-1,-1,-1,-1,-1,-1,-1,-1,-1,-1,-1,-1,-1,-1,-1,-1,-1,-1,-1,-1,-1,-1,-1,-1,-1,-1,-1,-1,-1],"loss_changes":[4.858713E1,1.5538956E1,2.705761E1,1.0848053E1,1.4114404E1,2.243124E1,9.680495E0,5.1334815E0,5.9400253E0,6.9690666E0,3.3174357E0,4.2823524E0,8.797947E0,5.9215736E0,3.7665622E0,1.2243547E0,2.9511104E0,9.217238E0,3.22023E0,5.476223E0,5.958271E0,4.5806766E0,5.26207E-1,4.6180555E-1,8.1441116E-1,4.112714E0,7.7399197E0,2.0523977E0,6.3226395E0,5.06028E0,3.583385E0,0E0,8.5565186E-1,2.378579E0,1.815E0,4.7168055E0,5.807364E0,8.653717E-1,1.0770833E0,1.3353937E0,3.404684E0,1.2741915E0,3.3871937E0,0E0,1.291636E0,2.8440938E0,0E0,0E0,0E0,8.392334E-1,0E0,0E0,8.3076924E-1,4.854602E0,5.0496616E0,1.0097977E0,8.649695E-1,5.4705086E0,4.862482E0,4.3222136E0,3.592126E0,3.804949E0,1.7439785E0,0E0,0E0,0E0,0E0,0E0,0E0,0E0,0E0,0E0,0E0,0E0,0E0,0E0,0E0,0E0,0E0,0E0,0E0,0E0,0E0,0E0,0E0,0E0,0E0,0E0,0E0,0E0,0E0,0E0,0E0,0E0,0E0,0E0,0E0,0E0,0E0,0E0,0E0,0E0,0E0,0E0,0E0,0E0,0E0,0E0,0E0,0E0,0E0,0E0,0E0],"parents":[2147483647,0,0,1,1,2,2,3,3,4,4,5,5,6,6,7,7,8,8,9,9,10,10,11,11,12,12,13,13,14,14,15,15,16,16,17,17,18,18,19,19,20,20,21,21,22,22,23,23,24,24,25,25,26,26,27,27,28,28,29,29,30,30,32,32,33,33,34,34,35,35,36,36,37,37,38,38,39,39,40,40,41,41,42,42,44,44,45,45,49,49,52,52,53,53,54,54,55,55,56,56,57,57,58,58,59,59,60,60,61,61,62,62],"right_children":[2,4,6,8,10,12,14,16,18,20,22,24,26,28,30,32,34,36,38,40,42,44,46,48,50,52,54,56,58,60,62,-1,64,66,68,70,72,74,76,78,80,82,84,-1,86,88,-1,-1,-1,90,-1,-1,92,94,96,98,100,102,104,106,108,110,112,-1,-1,-1,-1,-1,-1,-1,-1,-1,-1,-1,-1,-1,-1,-1,-1,-1,-1,-1,-1,-1,-1,-1,-1,-1,-1,-1,-1,-1,-1,-1,-1,-1,-1,-1,-1,-1,-1,-1,-1,-1,-1,-1,-1,-1,-1,-1,-1,-1,-1],"split_conditions":[1.2056112E-1,9.7855484E-1,-3.063853E-3,-8.024113E-2,-7.954902E-4,2.7255455E-3,-8.741289E-2,-1.03510976E-1,9.479299E-20,3.953695E-2,-4.9011067E-1,-7.292871E-1,-1.10015884E-1,5.9299567E-4,-5.7120584E-2,-3.3349648E-2,2.2126162E-4,2.834072E-4,1.22054E0,1.0392878E-4,1.3907631E1,9.964224E0,-2.6278345E-2,8.371004E-3,3.1213945E-2,-4.2404686E-3,9.2170455E-2,-4.3042174E-1,4.3685682E-2,-1.03510976E-1,-2.2229953E-3,-3.5282613E-3,-5.736256E-1,-1.1587711E-3,-2.2720337E-2,1.3926071E1,1.3939226E1,6.8901324E-1,7.020363E-2,2.1281182E-18,4.7374774E-19,-7.145019E-18,2.4873098E-2,-4.0601494E-4,-3.8197964E-2,-1.6387725E-1,-3.1879198E-2,1.8948913E-4,-2.8824807E-5,4.4347156E-2,-4.7177673E-4,7.2411182E-3,-2.8778628E-1,-1.1978518E-3,-1.4666526E0,-1.5757284E0,1.4148237E-2,-9.6486434E-2,4.5980103E-4,1.5066528E-3,6.06308E-1,1.9070186E-3,-5.976702E-1,9.6302675E-3,6.6578807E-3,2.3904345E-3,-1.8603432E-3,-8.2573295E-4,1.0523356E-2,-2.999101E-2,6.771385E-4,3.4909954E-3,4.632097E-3,-2.1150956E-2,5.921215E-3,-1.6598821E-3,2.2790076E-3,7.287787E-4,-4.8427014E-3,6.8626613E-3,1.7224442E-3,1.6148085E-3,2.1749318E-3,7.155254E-3,7.7893436E-3,1.8545687E-3,3.605786E-3,-1.1014283E-3,4.702234E-3,5.290331E-3,-5.7941677E-5,1.8023312E-3,2.858048E-3,4.197802E-3,1.0661941E-3,9.650141E-3,2.962485E-3,-5.16211E-4,2.5119463E-3,3.1766214E-3,3.6901177E-3,5.288136E-3,2.8111453E-3,-1.5328526E-4,3.9023391E-3,2.3367305E-3,6.3628876E-3,-3.2538934E-5,1.968108E-3,3.9853393E-3,3.3260573E-4,6.1257527E-4,-1.1788199E-3],"split_indices":[13,12,24,34,26,11,33,32,45,5,10,16,32,34,4,6,29,29,9,47,2,0,32,1,4,26,33,21,7,32,27,0,22,27,6,0,0,10,19,23,33,8,36,0,36,44,0,0,0,22,0,0,10,45,8,14,11,32,28,27,21,11,21,0,0,0,0,0,0,0,0,0,0,0,0,0,0,0,0,0,0,0,0,0,0,0,0,0,0,0,0,0,0,0,0,0,0,0,0,0,0,0,0,0,0,0,0,0,0,0,0,0,0],"split_type":[0,0,0,0,0,0,0,0,0,0,0,0,0,0,0,0,0,0,0,0,0,0,0,0,0,0,0,0,0,0,0,0,0,0,0,0,0,0,0,0,0,0,0,0,0,0,0,0,0,0,0,0,0,0,0,0,0,0,0,0,0,0,0,0,0,0,0,0,0,0,0,0,0,0,0,0,0,0,0,0,0,0,0,0,0,0,0,0,0,0,0,0,0,0,0,0,0,0,0,0,0,0,0,0,0,0,0,0,0,0,0,0,0],"sum_hessian":[1.6354E4,1.1431E4,4.923E3,9.485E3,1.946E3,1.085E3,3.838E3,2.02E2,9.283E3,1.091E3,8.55E2,7.5E1,1.01E3,4.59E2,3.379E3,1.8E1,1.84E2,1.392E3,7.891E3,9.76E2,1.15E2,3.3E1,8.22E2,8E0,6.7E1,3.6E1,9.74E2,1.95E2,2.64E2,9.9E2,2.389E3,2E0,1.6E1,1.73E2,1.1E1,1.338E3,5.4E1,7.884E3,7E0,4.16E2,5.6E2,6.4E1,5.1E1,1.9E1,1.4E1,6.3E1,7.59E2,1E0,7E0,6.6E1,1E0,2.4E1,1.2E1,8.48E2,1.26E2,1.81E2,1.4E1,1.48E2,1.16E2,9.5E1,8.95E2,5.63E2,1.826E3,1.3E1,3E0,1.13E2,6E1,3E0,8E0,7.32E2,6.06E2,3.5E1,1.9E1,7.88E3,4E0,2E0,5E0,2.69E2,1.47E2,8.4E1,4.76E2,5.6E1,8E0,4E1,1.1E1,4E0,1E1,5.9E1,4E0,6.5E1,1E0,2E0,1E1,2.31E2,6.17E2,3.3E1,9.3E1,1.35E2,4.6E1,1E1,4E0,5.9E1,8.9E1,9.5E1,2.1E1,7.1E1,2.4E1,7.66E2,1.29E2,8E0,5.55E2,1.46E2,1.68E3],"tree_param":{"num_deleted":"0","num_feature":"48","num_nodes":"113","size_leaf_vector":"1"}},{"base_weights":[-3.200247E-2,-6.54205E-2,4.4165976E-2,-8.067907E-2,8.590511E-3,4.3739834E-1,3.4216993E-2,-2.963417E-2,-9.869368E-2,7.974333E-2,-8.231852E-2,8.813557E-2,7.476923E-1,9.4861634E-2,-4.8451996E-4,-9.722976E-2,7.2375104E-2,-7.090166E-2,-9.9687666E-2,7.138886E-2,8.25E-2,2.0799976E-2,-9.986304E-3,4.1249996E-1,3.6538437E-2,-5.0000013E-3,7.6093745E-1,5.081967E-1,8.007011E-2,-7.710073E-3,3.532258E-1,-9.993228E-3,7.2E-2,4.8094146E-2,3.122222E-1,2.0999998E-1,-8.2553215E-2,-8.571431E-2,-9.998482E-3,-1.5625238E-3,1.2290677E-1,-7.69231E-2,2.742857E-1,7.2E-2,-7.5000017E-3,2.1874997E-1,-4.3243267E-2,7.946428E-1,4.6666664E-1,3.4418604E-1,8.5263155E-2,3.9540205E-2,2.0982799E-1,-8.203824E-2,1.8214103E-2,5.6923074E-1,-1.2500023E-2,-2.3796096E-9,1.1532256E-2,1.1363634E-2,8.24E-2,6.7499995E-2,-8.57143E-3,3.2E-2,-9.090912E-3,1.9999998E-2,-9.9290805E-3,-2.0623526E-3,2.4687497E-2,1.4030873E-2,-7.84314E-3,-9.882356E-3,1.9999998E-2,-1.5384638E-3,4.2608693E-2,4.6666663E-2,-8.750002E-3,4.4999998E-2,-6.9444473E-3,6.190476E-2,8.75E-2,-6.6666687E-3,6.285714E-2,3.999998E-3,4.8965514E-2,8E-2,3.4232822E-3,4.549998E-3,3.668269E-2,-8.576925E-3,4.1666668E-2,6.640269E-3,-1.2938621E-3,7.84E-2,1.7333332E-2,6E-2,-9.545457E-3],"categories":[],"categories_nodes":[],"categories_segments":[],"categories_sizes":[],"default_left":[0,0,0,0,0,0,0,0,0,0,0,0,0,0,0,0,0,0,0,0,0,0,0,0,0,0,0,0,0,0,0,0,0,0,0,0,0,0,0,0,0,0,0,0,0,0,0,0,0,0,0,0,0,0,0,0,0,0,0,0,0,0,0,0,0,0,0,0,0,0,0,0,0,0,0,0,0,0,0,0,0,0,0,0,0,0,0,0,0,0,0,0,0,0,0,0,0],"id":12,"left_children":[1,3,5,7,9,11,13,15,17,19,21,23,25,27,29,31,33,35,37,39,-1,41,-1,43,45,-1,47,49,51,53,55,-1,-1,57,59,61,63,65,-1,67,69,71,73,-1,-1,75,77,79,81,83,-1,85,87,89,91,93,95,-1,-1,-1,-1,-1,-1,-1,-1,-1,-1,-1,-1,-1,-1,-1,-1,-1,-1,-1,-1,-1,-1,-1,-1,-1,-1,-1,-1,-1,-1,-1,-1,-1,-1,-1,-1,-1,-1,-1,-1],"loss_changes":[4.1632896E1,1.2838596E1,1.9499395E1,8.663872E0,1.2581201E1,1.326412E1,1.0240353E1,1.6969662E1,1.8536377E-1,6.7339115E0,1.5471034E0,9.723679E-1,7.2481155E-1,1.0786946E1,7.9153333E0,3.3406467E0,5.698051E0,8.159338E-1,1.9348145E-2,4.0591593E0,0E0,3.1175244E0,0E0,1.25325E0,7.653911E-1,0E0,2.6395035E-1,3.152485E0,8.98998E0,5.849625E0,4.905028E0,0E0,0E0,2.8840988E0,9.053228E0,1.4329286E0,8.195591E-1,5.9007096E-1,0E0,2.1265807E0,2.2288322E0,5.7165617E-1,1.5455868E0,0E0,0E0,1.255625E0,5.0942194E-1,2.4850845E-1,8.190478E-1,1.8831506E0,0E0,5.239662E0,1.0483633E1,1.496367E0,3.3800733E0,3.1801434E0,1.2767047E0,0E0,0E0,0E0,0E0,0E0,0E0,0E0,0E0,0E0,0E0,0E0,0E0,0E0,0E0,0E0,0E0,0E0,0E0,0E0,0E0,0E0,0E0,0E0,0E0,0E0,0E0,0E0,0E0,0E0,0E0,0E0,0E0,0E0,0E0,0E0,0E0,0E0,0E0,0E0,0E0],"parents":[2147483647,0,0,1,1,2,2,3,3,4,4,5,5,6,6,7,7,8,8,9,9,10,10,11,11,12,12,13,13,14,14,15,15,16,16,17,17,18,18,19,19,21,21,23,23,24,24,26,26,27,27,28,28,29,29,30,30,33,33,34,34,35,35,36,36,37,37,39,39,40,40,41,41,42,42,45,45,46,46,47,47,48,48,49,49,51,51,52,52,53,53,54,54,55,55,56,56],"right_children":[2,4,6,8,10,12,14,16,18,20,22,24,26,28,30,32,34,36,38,40,-1,42,-1,44,46,-1,48,50,52,54,56,-1,-1,58,60,62,64,66,-1,68,70,72,74,-1,-1,76,78,80,82,84,-1,86,88,90,92,94,96,-1,-1,-1,-1,-1,-1,-1,-1,-1,-1,-1,-1,-1,-1,-1,-1,-1,-1,-1,-1,-1,-1,-1,-1,-1,-1,-1,-1,-1,-1,-1,-1,-1,-1,-1,-1,-1,-1,-1,-1],"split_conditions":[1.18133344E-1,3.7450442E-1,-4.18236E-3,-2.6484248E-1,-7.954902E-4,3.3172686E-3,-2.1434634E-3,1.2773405E1,8.959094E-19,7.1283236E-2,-4.22675E-18,1.2742367E-1,-8.558188E-1,-1.0500299E-1,1.8633645E-2,4.0701835E-4,5.7978366E-2,-1.6583767E-17,-1.2214177E-1,1.0392878E-4,6.698027E-3,9.968947E0,-2.8825704E-2,2.1682915E1,-8.473017E-2,-7.9196696E-5,2.1700107E-4,3.0519871E-2,1.9359358E-1,1.5933339E-2,-6.524522E-1,-1.9310992E-2,2.6956946E-3,1.4474681E-17,1.5710672E1,-2.1837915E-3,5.681836E-19,2.1396738E-3,-2.1051362E-2,3.9139215E-2,2.3052153E-1,6.826167E-4,9.965972E0,3.1833113E-3,-2.3859383E-3,4.8214253E-5,-1.4325534E-1,3.7815308E-3,-1.4666526E0,-1.6813754E-3,8.232851E-3,-3.8387668E-3,3.7543073E-3,1.593267E1,-9.103586E-2,9.776763E0,2.6591368E-2,3.2254866E-5,3.660718E-3,2.194391E-3,3.7183256E-3,1.1126426E-2,-2.1776587E-3,4.857105E-3,-1.6618762E-2,2.3402781E-3,-1.0615664E-2,-4.0291852E-4,1.7760097E-3,3.4473778E-3,-1.7358441E-3,-9.912848E-4,5.9986115E-4,1.0587561E-3,4.806763E-3,5.2371505E-3,-6.4532756E-4,2.1737458E-3,-1.119113E-3,5.862368E-3,7.0646643E-3,-2.5792123E-4,6.374204E-3,1.5978304E-3,3.399267E-3,6.4354837E-3,4.573233E-4,6.4581627E-4,3.2289647E-3,-3.1320339E-3,2.2616447E-3,8.6570653E-4,-2.1130334E-4,5.9500034E-3,3.2130003E-3,7.58636E-4,-1.3557587E-4],"split_indices":[13,15,24,14,26,17,27,0,31,5,33,13,10,4,11,24,5,8,6,47,0,3,0,2,33,0,28,5,13,1,8,0,0,21,0,26,33,47,0,5,45,4,0,0,0,35,4,43,8,28,0,27,23,3,32,0,1,0,0,0,0,0,0,0,0,0,0,0,0,0,0,0,0,0,0,0,0,0,0,0,0,0,0,0,0,0,0,0,0,0,0,0,0,0,0,0,0],"split_type":[0,0,0,0,0,0,0,0,0,0,0,0,0,0,0,0,0,0,0,0,0,0,0,0,0,0,0,0,0,0,0,0,0,0,0,0,0,0,0,0,0,0,0,0,0,0,0,0,0,0,0,0,0,0,0,0,0,0,0,0,0,0,0,0,0,0,0,0,0,0,0,0,0,0,0,0,0,0,0,0,0,0,0,0,0,0,0,0,0,0,0,0,0,0,0,0,0],"sum_hessian":[1.6354E4,1.1367E4,4.987E3,9.424E3,1.943E3,1.22E2,4.865E3,2.459E3,6.965E3,1.09E3,8.53E2,5.8E1,6.4E1,1.77E3,3.095E3,1.479E3,9.8E2,2.43E2,6.722E3,1.079E3,1.1E1,1.24E2,7.29E2,7E0,5.1E1,1E0,6.3E1,6E1,1.71E3,3.034E3,6.1E1,1.475E3,4E0,8.91E2,8.9E1,9E0,2.34E2,1.46E2,6.576E3,4.47E2,6.32E2,9E1,3.4E1,4E0,3E0,1.5E1,3.6E1,5.5E1,8E0,4.2E1,1.8E1,1.304E3,4.06E2,7.84E2,2.25E3,3.8E1,2.3E1,5.2E2,3.71E2,6.5E1,2.4E1,3E0,6E0,4E0,2.3E2,6E0,1.4E2,4.16E2,3.1E1,5.82E2,5E1,8.4E1,6E0,1.2E1,2.2E1,8E0,7E0,1E0,3.5E1,2E1,3.5E1,2E0,6E0,1.4E1,2.8E1,8E0,1.296E3,1.99E2,2.07E2,7.79E2,5E0,8.83E2,1.367E3,2.4E1,1.4E1,2E0,2.1E1],"tree_param":{"num_deleted":"0","num_feature":"48","num_nodes":"97","size_leaf_vector":"1"}},{"base_weights":[-3.4387063E-2,-6.62122E-2,3.815154E-2,-3.6719944E-3,-8.3393164E-2,1.4775337E-1,1.2127953E-2,-1.5040159E-2,3.1294116E-1,-8.658719E-2,1.6403507E-1,6.873975E-2,2.864553E-1,6.799271E-3,3.532258E-1,-8.6187236E-2,2.6742604E-2,9.056602E-2,6.60606E-1,-8.8891454E-2,2.2461537E-1,4.285714E-1,1.03191465E-1,2.8733436E-2,3.2289153E-1,2.0669012E-1,6.3593745E-1,-2.313746E-2,4.2517923E-2,6.3666666E-1,8.484846E-2,3.4285712E-1,-8.954025E-2,2.3382725E-2,5.7777774E-1,-9.545457E-3,2.1562497E-1,1.9999997E-1,7.555555E-1,-9.5039606E-2,-1.3221908E-2,6.511626E-2,5.1304346E-1,-8.888892E-3,7.538461E-1,2.742857E-1,1.6666432E-3,8.1E-2,1.3653822E-2,7.733333E-1,2.2028983E-1,1.6374044E-1,6.869565E-1,7.1836734E-1,3.4374997E-1,5.8494184E-2,-4.8844308E-2,8.890445E-3,1.5886697E-1,7.84E-1,-8.333336E-3,-9.411767E-3,2.588235E-1,-7.5000017E-3,6.7499995E-2,2.9090885E-3,-9.74265E-3,-1.4464717E-3,7.808894E-3,6.625E-2,-5.0000013E-3,3.0399999E-2,-8.750002E-3,6E-2,-8.000002E-3,1.1999998E-2,8.608695E-2,3.0894286E-3,-9.697314E-3,6.647228E-3,-9.968357E-3,7.714286E-2,-7.0270295E-3,8.25E-2,1.5833331E-2,8.1818186E-2,2.6666665E-2,-8.333336E-3,3.3666667E-2,-5.9615406E-3,3.5555553E-2,-2.0623526E-3,1.5096152E-2,-5.0000013E-3,8.357143E-2,2.9787212E-3,6E-2,4.3137252E-2,9.858488E-3,7.619047E-2,-6.6666687E-3,7.688889E-2,1.1999998E-2,-8.57143E-3,6.0999997E-2,2.6218487E-2,-2.250024E-4,-5.3670597E-3,2.7916664E-2,5.254052E-3,-7.489629E-3,4.6747946E-3,3.2919254E-2,8.571428E-2,3.2E-2,7.2E-2,6.153844E-3],"categories":[],"categories_nodes":[],"categories_segments":[],"categories_sizes":[],"default_left":[0,0,0,0,0,0,0,0,0,0,0,0,0,0,0,0,0,0,0,0,0,0,0,0,0,0,0,0,0,0,0,0,0,0,0,0,0,0,0,0,0,0,0,0,0,0,0,0,0,0,0,0,0,0,0,0,0,0,0,0,0,0,0,0,0,0,0,0,0,0,0,0,0,0,0,0,0,0,0,0,0,0,0,0,0,0,0,0,0,0,0,0,0,0,0,0,0,0,0,0,0,0,0,0,0,0,0,0,0,0,0,0,0,0,0,0,0],"id":13,"left_children":[1,3,5,7,9,11,13,15,17,19,21,23,25,27,29,31,33,35,37,39,41,43,45,47,49,51,53,55,57,59,61,63,65,67,69,-1,71,73,75,77,79,81,83,-1,85,87,89,-1,91,93,95,97,99,101,103,105,107,109,111,113,-1,-1,115,-1,-1,-1,-1,-1,-1,-1,-1,-1,-1,-1,-1,-1,-1,-1,-1,-1,-1,-1,-1,-1,-1,-1,-1,-1,-1,-1,-1,-1,-1,-1,-1,-1,-1,-1,-1,-1,-1,-1,-1,-1,-1,-1,-1,-1,-1,-1,-1,-1,-1,-1,-1,-1,-1],"loss_changes":[3.775888E1,1.2214619E1,1.4225145E1,8.826616E0,7.062031E0,1.0468401E1,7.3261676E0,7.038737E0,6.511694E0,6.333969E0,1.7906442E0,6.2031713E0,9.541706E0,4.247173E0,4.6622643E0,1.290906E0,2.7487948E0,1.25355E0,1.2921209E0,4.0653E0,2.956854E0,3.6016607E0,1.6323519E0,6.2211933E0,3.6655798E0,5.7456675E0,1.2945004E0,4.5376987E0,7.0841703E0,3.247733E0,1.051836E0,1.0221429E0,8.1676626E-1,3.073737E0,5.118058E-1,0E0,8.8383734E-1,8.32E-1,1.7038841E0,1.9714355E0,4.54057E0,4.1660914E0,2.4144206E0,0E0,1.892767E-1,8.0885744E-1,1.3224189E0,0E0,2.450516E0,8.1219006E-1,4.973297E0,4.5261555E0,1.3498964E0,1.3890247E0,1.8818038E0,6.4098177E0,2.6175604E0,5.1460943E0,7.7378864E0,5.7417107E-1,0E0,0E0,1.5024072E0,0E0,0E0,0E0,0E0,0E0,0E0,0E0,0E0,0E0,0E0,0E0,0E0,0E0,0E0,0E0,0E0,0E0,0E0,0E0,0E0,0E0,0E0,0E0,0E0,0E0,0E0,0E0,0E0,0E0,0E0,0E0,0E0,0E0,0E0,0E0,0E0,0E0,0E0,0E0,0E0,0E0,0E0,0E0,0E0,0E0,0E0,0E0,0E0,0E0,0E0,0E0,0E0,0E0,0E0],"parents":[2147483647,0,0,1,1,2,2,3,3,4,4,5,5,6,6,7,7,8,8,9,9,10,10,11,11,12,12,13,13,14,14,15,15,16,16,17,17,18,18,19,19,20,20,21,21,22,22,23,23,24,24,25,25,26,26,27,27,28,28,29,29,30,30,31,31,32,32,33,33,34,34,36,36,37,37,38,38,39,39,40,40,41,41,42,42,44,44,45,45,46,46,48,48,49,49,50,50,51,51,52,52,53,53,54,54,55,55,56,56,57,57,58,58,59,59,62,62],"right_children":[2,4,6,8,10,12,14,16,18,20,22,24,26,28,30,32,34,36,38,40,42,44,46,48,50,52,54,56,58,60,62,64,66,68,70,-1,72,74,76,78,80,82,84,-1,86,88,90,-1,92,94,96,98,100,102,104,106,108,110,112,114,-1,-1,116,-1,-1,-1,-1,-1,-1,-1,-1,-1,-1,-1,-1,-1,-1,-1,-1,-1,-1,-1,-1,-1,-1,-1,-1,-1,-1,-1,-1,-1,-1,-1,-1,-1,-1,-1,-1,-1,-1,-1,-1,-1,-1,-1,-1,-1,-1,-1,-1,-1,-1,-1,-1,-1,-1],"split_conditions":[1.18133344E-1,1.24019E-18,-3.1735871E-3,2.834072E-4,8.519595E-2,3.8572857E-3,1.8633645E-2,5.6778214E-22,1.4992232E1,5.8021724E-1,2.4873098E-2,2.3635186E-2,1.782407E1,1.3951557E1,-2.7265757E-2,-5.49294E-2,2.1739262E1,-1.5846978E-18,-4.897678E-20,-8.681798E-20,-8.514521E-2,-9.1005015E-20,1.4987015E-4,-1.4325534E-1,8.580242E-5,2.2928845E-2,-1.6554652E-3,-9.3293333E-1,4.557881E-3,9.776763E0,1.4833494E-2,-1.3741587E0,-1.4662816E-3,1.4474681E-17,7.5017456E-3,-9.961163E-4,8.325817E-21,-6.998506E-2,1.9849113E-18,-4.2299736E-1,-5.3887967E-20,-1.0562865E-1,2.45094E-2,-2.7711987E-3,5.012155E-2,-7.4332976E-1,1.051116E-1,9.878718E-3,2.536811E-2,-3.3372945E-1,4.0616997E-2,-7.6675355E-1,1.7787363E1,2.1087758E-4,3.0797503E-3,-4.8326814E-4,2.0242361E-3,9.261186E-3,4.9219717E-4,-5.5304116E-1,-4.8118233E-4,-6.2829256E-4,2.0428645E-4,-6.9402455E-4,1.3260901E-3,2.4797904E-4,-1.8940052E-2,-4.077673E-4,2.8882313E-3,6.5133036E-3,-2.068633E-3,3.5386526E-3,-2.8304637E-3,1.2239397E-3,-1.4439225E-4,7.349819E-3,3.3632845E-3,4.759368E-4,-1.7901689E-2,1.7565936E-3,-1.0184941E-2,5.988866E-3,-7.574767E-4,2.7934145E-3,1.4026642E-3,9.938017E-3,4.5240405E-3,-2.1582008E-3,4.22083E-3,-8.391013E-4,8.074254E-3,-1.5985795E-4,2.7146477E-3,-1.9747615E-4,5.435971E-3,7.21941E-4,7.160948E-3,5.4634884E-3,1.7619071E-3,6.524039E-3,-6.3598636E-3,5.7521313E-3,4.0583434E-3,-1.8888712E-4,5.7367864E-3,3.2846748E-3,-3.3962726E-5,-1.0581487E-3,2.427411E-3,5.440741E-4,-9.91384E-4,5.5997603E-4,3.1621573E-3,5.7032784E-3,4.553795E-6,2.8917014E-3,4.1643265E-3],"split_indices":[13,45,24,29,33,17,11,41,0,9,36,23,2,3,10,4,0,10,39,44,32,38,25,4,47,37,44,16,17,0,7,12,27,21,5,0,46,4,33,4,44,32,1,0,5,8,33,0,37,36,19,9,2,28,34,26,28,38,41,9,0,0,35,0,0,0,0,0,0,0,0,0,0,0,0,0,0,0,0,0,0,0,0,0,0,0,0,0,0,0,0,0,0,0,0,0,0,0,0,0,0,0,0,0,0,0,0,0,0,0,0,0,0,0,0,0,0],"split_type":[0,0,0,0,0,0,0,0,0,0,0,0,0,0,0,0,0,0,0,0,0,0,0,0,0,0,0,0,0,0,0,0,0,0,0,0,0,0,0,0,0,0,0,0,0,0,0,0,0,0,0,0,0,0,0,0,0,0,0,0,0,0,0,0,0,0,0,0,0,0,0,0,0,0,0,0,0,0,0,0,0,0,0,0,0,0,0,0,0,0,0,0,0,0,0,0,0,0,0,0,0,0,0,0,0,0,0,0,0,0,0,0,0,0,0,0,0],"sum_hessian":[1.6354E4,1.1367E4,4.987E3,2.45E3,8.917E3,9.56E2,4.031E3,2.366E3,8.4E1,8.804E3,1.13E2,6.1E2,3.46E2,3.97E3,6.1E1,8.75E2,1.491E3,5.2E1,3.2E1,8.74E3,6.4E1,2E1,9.3E1,5.28E2,8.2E1,2.83E2,6.3E1,2.16E3,1.81E3,2.9E1,3.2E1,6E0,8.69E2,1.483E3,8E0,2.1E1,3.1E1,6E0,2.6E1,8.083E3,6.57E2,4.2E1,2.2E1,8E0,1.2E1,3.4E1,5.9E1,9E0,5.19E2,1.4E1,6.8E1,2.61E2,2.2E1,4.8E1,1.5E1,5.17E2,1.643E3,1.405E3,4.05E2,2.4E1,5E0,1.6E1,1.6E1,3E0,3E0,5.4E1,8.15E2,8.77E2,6.06E2,7E0,1E0,2.4E1,7E0,2E0,4E0,4E0,2.2E1,1.22E2,7.961E3,3.42E2,3.15E2,6E0,3.6E1,1.1E1,1.1E1,1E1,2E0,5E0,2.9E1,5.1E1,8E0,4.16E2,1.03E2,1E0,1.3E1,4.6E1,2.2E1,5E1,2.11E2,2E1,2E0,4.4E1,4E0,6E0,9E0,1.18E2,3.99E2,1.62E3,2.3E1,9.24E2,4.81E2,2.45E2,1.6E2,2E1,4E0,4E0,1.2E1],"tree_param":{"num_deleted":"0","num_feature":"48","num_nodes":"117","size_leaf_vector":"1"}},{"base_weights":[-3.4753922E-2,5.9727732E-2,-5.6077663E-2,1.942424E-1,4.3160617E-2,-8.152109E-2,1.0088997E-2,8.5263155E-2,1.5352562E-1,-2.154125E-3,8.0162466E-2,-2.6030108E-2,-9.1972895E-2,-4.9561907E-2,6.795959E-2,9.820142E-2,5.885714E-1,1.6749997E-1,-2.0863995E-2,6.3815765E-2,2.8272724E-1,-3.274047E-2,8.25E-2,1.7297295E-1,-9.317565E-2,6.6249996E-1,-5.2666325E-2,7.4399996E-1,5.882667E-2,6.5625E-1,6.3878305E-2,2.1538459E-1,7.73913E-1,5.333333E-1,6.0638275E-2,1.232323E-1,-3.525255E-2,2.111801E-1,4.412249E-2,-9.56522E-3,3.7840906E-1,-9.6224144E-2,4.1977055E-2,7.2E-2,8.484846E-2,-9.533042E-2,3.9230745E-2,7.714286E-2,-5.0000013E-3,4.5016054E-2,-7.276344E-2,8.571428E-2,1.1999998E-1,-3.0691424E-2,1.0071088E-1,-7.5000017E-3,8.307692E-2,4.4357954E-3,7.714286E-2,6.7499995E-2,9.999978E-4,8.136364E-2,-5.0000013E-3,5.714284E-3,6.666666E-2,-5.0793677E-3,2.78125E-2,4.3999996E-2,6.588233E-3,2.681818E-2,-4.210529E-3,1.4503814E-2,4.8387095E-2,7.4555534E-3,-4.466022E-3,7.473684E-2,2.7285714E-2,6.153844E-3,-9.864032E-3,-2.7990455E-3,1.4590745E-2,-4.7619073E-3,2.9230768E-2,-9.558048E-3,4.25E-2,-6.630437E-3,2.8717948E-2,1.2790675E-3,1.9814814E-2,-8.253308E-3,1.2054793E-2,-7.5000017E-3,4.4999998E-2,-3.9482783E-3,3.3571426E-2,5.241379E-2,9.07108E-3],"categories":[],"categories_nodes":[],"categories_segments":[],"categories_sizes":[],"default_left":[0,0,0,0,0,0,0,0,0,0,0,0,0,0,0,0,0,0,0,0,0,0,0,0,0,0,0,0,0,0,0,0,0,0,0,0,0,0,0,0,0,0,0,0,0,0,0,0,0,0,0,0,0,0,0,0,0,0,0,0,0,0,0,0,0,0,0,0,0,0,0,0,0,0,0,0,0,0,0,0,0,0,0,0,0,0,0,0,0,0,0,0,0,0,0,0,0],"id":14,"left_children":[1,3,5,7,9,11,13,-1,15,17,19,21,23,25,27,29,31,33,35,37,39,41,-1,43,45,47,49,51,53,55,57,59,61,63,65,67,69,71,73,-1,75,77,79,-1,81,83,85,-1,-1,87,89,-1,91,93,95,-1,-1,-1,-1,-1,-1,-1,-1,-1,-1,-1,-1,-1,-1,-1,-1,-1,-1,-1,-1,-1,-1,-1,-1,-1,-1,-1,-1,-1,-1,-1,-1,-1,-1,-1,-1,-1,-1,-1,-1,-1,-1],"loss_changes":[3.2953804E1,6.7039175E0,2.2465534E1,8.7155695E0,4.498838E0,5.587471E0,1.28000555E1,0E0,7.451592E0,3.8347616E0,4.872698E0,8.758703E0,2.6004715E0,4.0713315E0,1.1576123E1,5.2828817E0,2.254159E0,4.658889E0,2.2601352E0,3.9607368E0,4.0186396E0,7.204433E0,0E0,1.7225486E0,2.3072968E0,6.594641E-1,3.5742164E0,1.6621695E0,6.969465E0,2.1041827E0,3.5982394E0,1.2204231E0,7.9343796E-1,1.6761904E0,2.2922137E0,1.7695066E0,2.0698543E0,2.8336654E0,3.2672584E0,0E0,3.2231798E0,3.1902122E-1,5.079766E0,0E0,9.208125E-1,1.0743942E0,3.42079E0,0E0,0E0,1.5321693E0,2.8598185E0,0E0,3.5549998E-1,1.9234289E0,5.3130817E0,0E0,0E0,0E0,0E0,0E0,0E0,0E0,0E0,0E0,0E0,0E0,0E0,0E0,0E0,0E0,0E0,0E0,0E0,0E0,0E0,0E0,0E0,0E0,0E0,0E0,0E0,0E0,0E0,0E0,0E0,0E0,0E0,0E0,0E0,0E0,0E0,0E0,0E0,0E0,0E0,0E0,0E0],"parents":[2147483647,0,0,1,1,2,2,3,3,4,4,5,5,6,6,8,8,9,9,10,10,11,11,12,12,13,13,14,14,15,15,16,16,17,17,18,18,19,19,20,20,21,21,23,23,24,24,25,25,26,26,27,27,28,28,29,29,30,30,31,31,32,32,33,33,34,34,35,35,36,36,37,37,38,38,40,40,41,41,42,42,44,44,45,45,46,46,49,49,50,50,52,52,53,53,54,54],"right_children":[2,4,6,8,10,12,14,-1,16,18,20,22,24,26,28,30,32,34,36,38,40,42,-1,44,46,48,50,52,54,56,58,60,62,64,66,68,70,72,74,-1,76,78,80,-1,82,84,86,-1,-1,88,90,-1,92,94,96,-1,-1,-1,-1,-1,-1,-1,-1,-1,-1,-1,-1,-1,-1,-1,-1,-1,-1,-1,-1,-1,-1,-1,-1,-1,-1,-1,-1,-1,-1,-1,-1,-1,-1,-1,-1,-1,-1,-1,-1,-1,-1],"split_conditions":[-7.926349E-2,-1.07832976E-1,9.016734E-1,9.776763E0,1.3916691E1,9.479299E-20,3.105703E-3,5.2200197E-3,1.7901085E1,-5.10668E-1,6.656301E-4,7.1283236E-2,-6.871218E-2,-1.4666526E0,-2.397462E-2,-8.0864854E-2,4.3217824E-3,5.139361E-4,-3.9352834E-1,3.3355825E-2,1.1205954E-2,1.3819714E1,3.3790064E-3,1.0046432E-2,1.7128745E-1,1.7816088E1,-4.215517E-20,-4.999397E-4,1.3966708E1,9.97295E0,2.1956055E-3,1.1599078E-2,2.9768148E-2,-4.099625E-2,-8.909454E-1,8.93204E-3,-2.8472887E-3,1.3810367E-2,-1.0315065E-4,-1.4385313E-3,1.4247778E-3,-1.8140313E-3,1.5660116E-17,3.1171143E-3,1.5649234E-3,5.7480395E-1,2.8022233E-4,8.618551E-3,-5.531371E-4,1.9551539E-17,6.06308E-1,1.46358805E-2,3.578846E-2,1.4148237E-2,-3.8387668E-3,-2.0891787E-3,6.127465E-3,6.1387423E-4,2.2540987E-3,3.4375072E-3,3.0576342E-3,5.3525153E-3,-1.6999841E-4,4.85456E-4,3.6760482E-3,-4.1066203E-4,1.586737E-3,2.6532558E-3,1.2419542E-3,1.1783348E-3,-5.9901935E-4,2.302555E-3,3.2783342E-3,1.2009203E-3,-4.5374507E-4,1.5658768E-3,2.140981E-3,5.372904E-4,-1.0525459E-2,-6.6119555E-4,4.0689125E-3,-1.8143989E-4,1.5917212E-3,-1.5845496E-2,4.674536E-3,-2.3975188E-3,1.6540803E-3,3.739137E-4,2.94198E-3,-2.3171639E-3,1.1687999E-3,-3.3267736E-4,1.0718405E-3,-9.648215E-4,3.0262303E-3,4.904232E-3,1.763848E-3],"split_indices":[32,32,14,0,0,45,5,0,3,9,28,5,30,8,20,45,37,41,46,7,37,0,0,7,1,0,45,24,3,3,28,1,40,4,20,1,26,19,42,0,5,24,21,0,31,10,35,0,0,21,21,0,1,11,27,0,0,0,0,0,0,0,0,0,0,0,0,0,0,0,0,0,0,0,0,0,0,0,0,0,0,0,0,0,0,0,0,0,0,0,0,0,0,0,0,0,0],"split_type":[0,0,0,0,0,0,0,0,0,0,0,0,0,0,0,0,0,0,0,0,0,0,0,0,0,0,0,0,0,0,0,0,0,0,0,0,0,0,0,0,0,0,0,0,0,0,0,0,0,0,0,0,0,0,0,0,0,0,0,0,0,0,0,0,0,0,0,0,0,0,0,0,0,0,0,0,0,0,0,0,0,0,0,0,0,0,0,0,0,0,0,0,0,0,0,0,0],"sum_hessian":[1.6354E4,3.011E3,1.3343E4,3.29E2,2.682E3,9.637E3,3.706E3,1.8E1,3.11E2,1.206E3,1.476E3,1.528E3,8.109E3,1.825E3,1.881E3,2.77E2,3.4E1,1.19E2,1.087E3,1.367E3,1.09E2,1.517E3,1.1E1,3.6E1,8.073E3,7E0,1.818E3,2.4E1,1.857E3,1.5E1,2.62E2,1.2E1,2.2E1,2.6E1,9.3E1,9.8E1,9.89E2,1.6E2,1.207E3,2.2E1,8.7E1,8.2E2,6.97E2,4E0,3.2E1,7.944E3,1.29E2,6E0,1E0,3.1E2,1.508E3,2E1,4E0,5.92E2,1.265E3,3E0,1.2E1,2.56E2,6E0,3E0,9E0,2.1E1,1E0,6E0,2E1,6.2E1,3.1E1,1.4E1,8.4E1,2.1E1,9.68E2,1.3E2,3E1,8.99E2,3.08E2,1.8E1,6.9E1,1.2E1,8.08E2,4.17E2,2.8E2,2E1,1.2E1,7.941E3,3E0,9.1E1,3.8E1,2.57E2,5.3E1,1.436E3,7.2E1,3E0,1E0,5.79E2,1.3E1,2.8E1,1.237E3],"tree_param":{"num_deleted":"0","num_feature":"48","num_nodes":"97","size_leaf_vector":"1"}},{"base_weights":[-3.7138514E-2,4.9999975E-2,-5.730314E-2,1.7909089E-1,3.4462634E-2,-8.119652E-2,4.480408E-3,1.3006754E-1,5.885714E-1,6.355432E-3,8.605369E-2,-2.9851776E-2,-9.059916E-2,-7.1817406E-2,3.833266E-2,6.421052E-1,9.460429E-2,2.1538459E-1,7.73913E-1,9.405682E-2,-1.8031633E-2,6.5625E-1,7.6390326E-2,-9.859157E-2,4.644884E-2,-9.192911E-2,2.6999998E-1,8.2644604E-2,-9.0088345E-2,4.8965514E-1,3.316264E-2,8.4E-2,-8.000002E-3,6.5625E-1,6.007602E-2,6.7499995E-2,9.999978E-3,8.1363636E-1,-5.0000013E-3,3.9795894E-2,2.6276594E-1,4.0999997E-1,-2.1113545E-2,7.538461E-1,1.7499998E-1,6.370529E-2,4.516129E-1,4.4999998E-2,-9.987182E-3,3.434341E-2,7.416667E-1,9.326401E-3,-9.439931E-2,-9.333336E-3,5.9375E-1,-2.1978045E-2,3.8709676E-1,-9.5883556E-2,1.5416664E-1,6.5625E-1,2.6428568E-1,1.696701E-2,1.7207545E-1,-7.5000017E-3,8.307692E-2,4.04669E-3,7.714286E-2,-8.888892E-3,4.4999998E-2,2.6666665E-2,8.5499994E-2,1.635593E-2,-4.2937878E-3,1.4029848E-2,5.4642856E-2,6.285714E-2,-7.5000017E-3,2.0035754E-3,-4.896972E-3,2.6666665E-2,8.1818186E-2,-6.6666687E-3,4.4999998E-2,4.7738072E-3,2.2261903E-2,5.8636364E-2,1.0999998E-2,-6.447371E-3,8.261801E-3,-5.0000013E-3,8.1818186E-2,-6.114652E-3,3.0810809E-2,1.9285712E-2,-9.489889E-3,-8.000002E-3,8.25E-2,-3.2222245E-3,4.4999998E-2,2.2222202E-3,5.1304348E-2,-9.7885225E-3,4.25E-2,-8.333336E-3,2.210526E-2,8.25E-2,1.1999998E-2,3.6363635E-2,-7.5000017E-3,4.0277775E-2,1.0758905E-3,3.4024388E-2,9.619563E-3],"categories":[],"categories_nodes":[],"categories_segments":[],"categories_sizes":[],"default_left":[0,0,0,0,0,0,0,0,0,0,0,0,0,0,0,0,0,0,0,0,0,0,0,0,0,0,0,0,0,0,0,0,0,0,0,0,0,0,0,0,0,0,0,0,0,0,0,0,0,0,0,0,0,0,0,0,0,0,0,0,0,0,0,0,0,0,0,0,0,0,0,0,0,0,0,0,0,0,0,0,0,0,0,0,0,0,0,0,0,0,0,0,0,0,0,0,0,0,0,0,0,0,0,0,0,0,0,0,0,0,0,0,0],"id":15,"left_children":[1,3,5,7,9,11,13,15,17,19,21,23,25,27,29,31,33,35,37,39,41,43,45,47,49,51,53,55,57,59,61,-1,-1,63,65,-1,67,69,-1,71,73,75,77,79,81,83,85,-1,-1,87,89,91,93,-1,95,97,99,101,103,105,107,109,111,-1,-1,-1,-1,-1,-1,-1,-1,-1,-1,-1,-1,-1,-1,-1,-1,-1,-1,-1,-1,-1,-1,-1,-1,-1,-1,-1,-1,-1,-1,-1,-1,-1,-1,-1,-1,-1,-1,-1,-1,-1,-1,-1,-1,-1,-1,-1,-1,-1,-1],"loss_changes":[2.8740484E1,6.15944E0,1.9607483E1,6.5479E0,3.979924E0,4.6213226E0,9.572224E0,5.3141766E0,2.254159E0,3.804446E0,5.2835674E0,7.787995E0,3.9070206E0,3.2218914E0,5.973464E0,2.7823153E0,5.351733E0,1.2204231E0,7.9343796E-1,3.532262E0,1.8449214E0,6.195674E-1,4.507236E0,5.934634E-1,5.89933E0,2.0183563E0,3.5842917E0,3.8626711E0,1.4571867E0,9.153786E-1,5.709273E0,0E0,0E0,2.1041827E0,3.6373687E0,0E0,4.7511113E-1,2.69742E-1,0E0,3.0174105E0,3.1888437E0,1.1072145E0,1.5862617E0,1.892767E-1,2.9583335E-1,2.3314016E0,1.3625097E0,0E0,0E0,3.3111832E0,7.6780224E-1,4.082651E0,1.1482697E0,0E0,2.5588746E0,4.5448843E-1,1.4131966E0,1.0800638E0,3.9967102E-1,1.3488746E0,4.991883E-1,5.4446397E0,3.348827E0,0E0,0E0,0E0,0E0,0E0,0E0,0E0,0E0,0E0,0E0,0E0,0E0,0E0,0E0,0E0,0E0,0E0,0E0,0E0,0E0,0E0,0E0,0E0,0E0,0E0,0E0,0E0,0E0,0E0,0E0,0E0,0E0,0E0,0E0,0E0,0E0,0E0,0E0,0E0,0E0,0E0,0E0,0E0,0E0,0E0,0E0,0E0,0E0,0E0,0E0],"parents":[2147483647,0,0,1,1,2,2,3,3,4,4,5,5,6,6,7,7,8,8,9,9,10,10,11,11,12,12,13,13,14,14,15,15,16,16,17,17,18,18,19,19,20,20,21,21,22,22,23,23,24,24,25,25,26,26,27,27,28,28,29,29,30,30,33,33,34,34,36,36,37,37,39,39,40,40,41,41,42,42,43,43,44,44,45,45,46,46,49,49,50,50,51,51,52,52,54,54,55,55,56,56,57,57,58,58,59,59,60,60,61,61,62,62],"right_children":[2,4,6,8,10,12,14,16,18,20,22,24,26,28,30,32,34,36,38,40,42,44,46,48,50,52,54,56,58,60,62,-1,-1,64,66,-1,68,70,-1,72,74,76,78,80,82,84,86,-1,-1,88,90,92,94,-1,96,98,100,102,104,106,108,110,112,-1,-1,-1,-1,-1,-1,-1,-1,-1,-1,-1,-1,-1,-1,-1,-1,-1,-1,-1,-1,-1,-1,-1,-1,-1,-1,-1,-1,-1,-1,-1,-1,-1,-1,-1,-1,-1,-1,-1,-1,-1,-1,-1,-1,-1,-1,-1,-1,-1,-1],"split_conditions":[-7.799224E-2,-1.07832976E-1,9.016734E-1,1.7901085E1,1.5878649E1,9.479299E-20,1.8352936E-3,9.776763E0,4.3217824E-3,-8.741289E-2,5.7712304E-3,1.1955719E1,1.08974904E-1,3.2961532E-19,-3.8387668E-3,3.358789E-2,-8.0864854E-2,1.1599078E-2,2.9768148E-2,-4.727535E-1,7.789488E0,7.835738E-3,-1.646448E-3,-7.704821E-2,7.1283236E-2,-3.568411E-1,-5.4124057E-2,-1.2669601E-17,1.784215E1,-2.5327416E-4,1.8934943E-4,4.6980204E-3,-1.5560389E-4,9.97295E0,2.1956055E-3,3.0937553E-3,1.6628379E-2,-2.1365966E-1,-1.5299917E-4,-5.9494716E-1,3.3918344E-3,1.9755576E-2,-5.1981986E-2,-4.711099E-2,1.7855398E1,6.656301E-4,4.5561273E-2,1.2710154E-3,-1.0968338E-2,1.01086426E-17,1.5915765E1,4.0402234E-2,-4.3405497E-1,-8.348149E-3,3.5744082E-2,1.2814E-3,1.5924117E-2,2.5539282E-1,-2.4263358E-2,2.2394647E-4,1.0949956E-2,-2.397462E-2,-8.852698E-19,-1.8802583E-3,5.514717E-3,5.524874E-4,2.0286918E-3,-3.227055E-4,2.751869E-3,3.5125196E-3,4.8547327E-3,1.8559337E-3,-5.243957E-4,1.8750603E-3,2.8346644E-3,2.289474E-3,-2.3963452E-4,1.5209771E-4,-8.401127E-4,1.1115432E-3,5.8156485E-3,-3.6610366E-4,2.148211E-4,9.7801E-4,1.4121756E-3,3.1773862E-3,1.0183512E-3,-1.7906812E-3,2.2527056E-3,-2.8238297E-4,3.081966E-3,-1.2214896E-3,2.8471001E-3,2.625594E-3,-1.4548262E-2,-1.6314388E-4,3.0405628E-3,-8.8877085E-4,4.575795E-3,6.695092E-4,4.7657057E-3,-3.991595E-3,7.9882145E-4,-8.8638066E-5,1.4126605E-3,4.882348E-3,3.162086E-3,4.3158703E-3,-8.441568E-4,7.474625E-3,2.3297661E-4,5.069208E-3,1.3023991E-3],"split_indices":[32,32,14,3,0,45,5,0,37,33,1,0,39,33,27,5,45,1,40,21,2,46,27,34,5,4,8,45,2,34,29,0,0,3,28,0,5,4,0,38,34,1,4,22,0,28,37,0,0,21,0,34,39,0,37,17,43,19,10,28,19,20,32,0,0,0,0,0,0,0,0,0,0,0,0,0,0,0,0,0,0,0,0,0,0,0,0,0,0,0,0,0,0,0,0,0,0,0,0,0,0,0,0,0,0,0,0,0,0,0,0,0,0],"split_type":[0,0,0,0,0,0,0,0,0,0,0,0,0,0,0,0,0,0,0,0,0,0,0,0,0,0,0,0,0,0,0,0,0,0,0,0,0,0,0,0,0,0,0,0,0,0,0,0,0,0,0,0,0,0,0,0,0,0,0,0,0,0,0,0,0,0,0,0,0,0,0,0,0,0,0,0,0,0,0,0,0,0,0,0,0,0,0,0,0,0,0,0,0,0,0,0,0,0,0,0,0,0,0,0,0,0,0,0,0,0,0,0,0],"sum_hessian":[1.6354E4,3.073E3,1.3281E4,3.29E2,2.744E3,9.577E3,3.704E3,2.95E2,3.4E1,1.777E3,9.67E2,1.483E3,8.094E3,1.138E3,2.566E3,1.8E1,2.77E2,1.2E1,2.2E1,3.86E2,1.391E3,1.5E1,9.52E2,7.8E2,7.03E2,8.065E3,2.9E1,1.2E2,1.018E3,2.8E1,2.538E3,1.4E1,4E0,1.5E1,2.62E2,3E0,9E0,2.1E1,1E0,2.93E2,9.3E1,9E0,1.382E3,1.2E1,3E0,9.22E2,3E1,1E0,7.79E2,6.92E2,1.1E1,1.92E2,7.873E3,1.4E1,1.5E1,9E1,3E1,9.95E2,2.3E1,1.5E1,1.3E1,2.274E3,2.64E2,3E0,1.2E1,2.56E2,6E0,8E0,1E0,2E0,1.9E1,1.17E2,1.76E2,6.6E1,2.7E1,6E0,3E0,5.58E2,8.24E2,2E0,1E1,2E0,1E0,8.39E2,8.3E1,2.1E1,9E0,2.27E2,4.65E2,1E0,1E1,1.56E2,3.6E1,1.3E1,7.86E3,4E0,1.1E1,8.9E1,1E0,8E0,2.2E1,9.92E2,3E0,5E0,1.8E1,1.1E1,4E0,1E1,3E0,3.5E1,2.239E3,8.1E1,1.83E2],"tree_param":{"num_deleted":"0","num_feature":"48","num_nodes":"113","size_leaf_vector":"1"}},{"base_weights":[-3.8055666E-2,-6.44929E-2,2.003516E-2,2.8363633E-1,-6.619884E-2,-6.9180923E-3,8.9447916E-2,4.8965514E-1,5.1851828E-2,-1.9183518E-2,-7.8213066E-2,-1.9225106E-2,1.2908494E-1,5.16129E-1,7.9942875E-2,5.9999996E-1,5.7142835E-2,5.2E-1,-5.2173935E-2,-9.984402E-3,1.2393138E-2,-8.074692E-2,9.763777E-2,-2.510175E-3,-8.647848E-2,9.897258E-2,7.0666665E-1,9.999978E-3,7.2272724E-1,7.075125E-2,4.8387095E-1,3.6363634E-1,7.538461E-1,-8.333336E-3,4.4999998E-2,6.7499995E-2,-5.0000013E-3,2.6666665E-1,-9.523812E-3,6.983907E-3,4.285714E-1,-8.485639E-2,2.6461516E-2,3.879308E-2,6.583333E-1,2.070588E-1,-9.295261E-3,-9.3825325E-2,4.0999997E-1,2.1233764E-1,-2.7338153E-2,-6.6666687E-3,8.307692E-2,-8.750002E-3,2.6666665E-1,7.9999995E-1,1.7499998E-1,2.580357E-1,5.4047596E-2,-8.57143E-3,6.2399995E-1,6.285714E-2,-8.000002E-3,8.1818186E-2,2.6666665E-2,-5.0000013E-3,4.4999998E-2,6.455397E-3,-1.3579236E-3,-2.1674418E-9,8.1818186E-2,-1.3374509E-3,-8.920244E-3,-4.5248894E-3,1.7714282E-2,-7.339473E-4,6.625E-2,8.1E-2,-6.6666687E-3,3.8636343E-3,3.785714E-2,-5.4901983E-3,1.3189288E-3,1.6249998E-2,-9.680368E-3,-8.000002E-3,7.5E-2,1.5785713E-2,7.066666E-2,2.1538459E-2,-5.1968526E-3,-5.0000013E-3,4.4999998E-2,2.6666665E-2,8.470588E-2,4.4999998E-2,-6.6666687E-3,-9.375002E-3,3.1340204E-2,9.605596E-3,-1.5578972E-3,6.869566E-2,-6.6666687E-3],"categories":[],"categories_nodes":[],"categories_segments":[],"categories_sizes":[],"default_left":[0,0,0,0,0,0,0,0,0,0,0,0,0,0,0,0,0,0,0,0,0,0,0,0,0,0,0,0,0,0,0,0,0,0,0,0,0,0,0,0,0,0,0,0,0,0,0,0,0,0,0,0,0,0,0,0,0,0,0,0,0,0,0,0,0,0,0,0,0,0,0,0,0,0,0,0,0,0,0,0,0,0,0,0,0,0,0,0,0,0,0,0,0,0,0,0,0,0,0,0,0,0,0],"id":16,"left_children":[1,3,5,7,9,11,13,15,17,19,21,23,25,27,29,31,33,35,37,-1,39,41,43,45,47,49,51,53,55,57,59,61,63,-1,-1,-1,-1,65,-1,67,69,71,73,75,77,79,81,83,85,87,89,-1,-1,-1,91,93,95,97,99,-1,101,-1,-1,-1,-1,-1,-1,-1,-1,-1,-1,-1,-1,-1,-1,-1,-1,-1,-1,-1,-1,-1,-1,-1,-1,-1,-1,-1,-1,-1,-1,-1,-1,-1,-1,-1,-1,-1,-1,-1,-1,-1,-1],"loss_changes":[2.5118664E1,6.6940613E0,9.572141E0,2.6009693E0,6.316944E0,6.1720753E0,5.762332E0,1.3497534E0,1.3420161E0,5.803278E0,3.9775581E0,3.8004851E0,5.252119E0,3.2342987E0,5.1673346E0,5.6223774E-1,4.2380953E-1,4.755E-1,3.4120086E-1,0E0,3.6844802E0,3.8717728E0,4.1646934E0,3.85397E0,2.49327E0,4.187019E0,1.4949741E0,2.7358335E-1,7.911377E-1,4.275001E0,2.5277648E0,1.343169E0,1.892767E-1,0E0,0E0,0E0,0E0,1.9666666E-1,0E0,1.9162997E0,3.506493E0,2.6267052E0,3.5197763E0,3.3425527E0,1.3734999E0,2.4407322E0,2.6925216E0,5.2264595E-1,1.7260001E0,4.0358677E0,8.421842E-1,0E0,0E0,0E0,1.9666666E-1,2.5097942E-1,2.9583335E-1,2.2108154E0,3.6868672E0,0E0,1.1328459E0,0E0,0E0,0E0,0E0,0E0,0E0,0E0,0E0,0E0,0E0,0E0,0E0,0E0,0E0,0E0,0E0,0E0,0E0,0E0,0E0,0E0,0E0,0E0,0E0,0E0,0E0,0E0,0E0,0E0,0E0,0E0,0E0,0E0,0E0,0E0,0E0,0E0,0E0,0E0,0E0,0E0,0E0],"parents":[2147483647,0,0,1,1,2,2,3,3,4,4,5,5,6,6,7,7,8,8,9,9,10,10,11,11,12,12,13,13,14,14,15,15,16,16,17,17,18,18,20,20,21,21,22,22,23,23,24,24,25,25,26,26,27,27,28,28,29,29,30,30,31,31,32,32,37,37,39,39,40,40,41,41,42,42,43,43,44,44,45,45,46,46,47,47,48,48,49,49,50,50,54,54,55,55,56,56,57,57,58,58,60,60],"right_children":[2,4,6,8,10,12,14,16,18,20,22,24,26,28,30,32,34,36,38,-1,40,42,44,46,48,50,52,54,56,58,60,62,64,-1,-1,-1,-1,66,-1,68,70,72,74,76,78,80,82,84,86,88,90,-1,-1,-1,92,94,96,98,100,-1,102,-1,-1,-1,-1,-1,-1,-1,-1,-1,-1,-1,-1,-1,-1,-1,-1,-1,-1,-1,-1,