{"learner":{"attributes":{"scikit_learn":"{\"_estimator_type\": \"regressor\"}"},"feature_names":[],"feature_types":[],"gradient_booster":{"model":{"gbtree_model_param":{"num_parallel_tree":"1","num_trees":"200"},"iteration_indptr":[0,1,2,3,4,5,6,7,8,9,10,11,12,13,14,15,16,17,18,19,20,21,22,23,24,25,26,27,28,29,30,31,32,33,34,35,36,37,38,39,40,41,42,43,44,45,46,47,48,49,50,51,52,53,54,55,56,57,58,59,60,61,62,63,64,65,66,67,68,69,70,71,72,73,74,75,76,77,78,79,80,81,82,83,84,85,86,87,88,89,90,91,92,93,94,95,96,97,98,99,100,101,102,103,104,105,106,107,108,109,110,111,112,113,114,115,116,117,118,119,120,121,122,123,124,125,126,127,128,129,130,131,132,133,134,135,136,137,138,139,140,141,142,143,144,145,146,147,148,149,150,151,152,153,154,155,156,157,158,159,160,161,162,163,164,165,166,167,168,169,170,171,172,173,174,175,176,177,178,179,180,181,182,183,184,185,186,187,188,189,190,191,192,193,194,195,196,197,198,199,200],"tree_info":[0,0,0,0,0,0,0,0,0,0,0,0,0,0,0,0,0,0,0,0,0,0,0,0,0,0,0,0,0,0,0,0,0,0,0,0,0,0,0,0,0,0,0,0,0,0,0,0,0,0,0,0,0,0,0,0,0,0,0,0,0,0,0,0,0,0,0,0,0,0,0,0,0,0,0,0,0,0,0,0,0,0,0,0,0,0,0,0,0,0,0,0,0,0,0,0,0,0,0,0,0,0,0,0,0,0,0,0,0,0,0,0,0,0,0,0,0,0,0,0,0,0,0,0,0,0,0,0,0,0,0,0,0,0,0,0,0,0,0,0,0,0,0,0,0,0,0,0,0,0,0,0,0,0,0,0,0,0,0,0,0,0,0,0,0,0,0,0,0,0,0,0,0,0,0,0,0,0,0,0,0,0,0,0,0,0,0,0,0,0,0,0,0,0,0,0,0,0,0,0],"trees":[{"base_weights":[-2.384111E-8,-5.461483E-2,3.9576334E-1,3.6410657E-1,-6.435765E-2,3.0616394E-1,8.18787E-1,6.456274E-1,1.6622338E-1,-7.5046055E-2,2.90399E-1,6.751592E-1,2.4229638E-1,3.7499997E-1,8.735441E-1,3.8133332E-1,7.470899E-1,-1.236366E-2,6.460784E-1,9.765623E-2,-8.1059985E-2,7.359223E-1,2.2442855E-1,6.902597E-1,-9.000002E-3,1.4389221E-1,6.1097556E-1,-3.636366E-2,6.7499995E-1,8.875E-1,7.0199996E-1,6.1315787E-1,1.3947366E-1,-8.888892E-3,7.8453034E-1,4.6874997E-1,-4.1923102E-2,-8.888892E-3,7.0957446E-1,3.745714E-1,-7.970752E-2,-8.466301E-2,1.810888E-1,8.436781E-1,1.4117645E-1,3.9552712E-1,8.582472E-2,4.8584902E-1,7.4901956E-1,3.6165863E-1,6.7322003E-3,-4.615387E-2,6.576492E-1,6E-2,-9.677421E-3,8.7272726E-2,7.499998E-2,1.7499998E-1,8.910747E-2,7.804878E-2,3.0999997E-1,6.970588E-2,-8.000002E-3,-1.2500023E-3,3.7333332E-2,5.714284E-3,8.091428E-2,7.272727E-2,-8.333336E-3,2.681818E-2,-7.0292912E-3,7.5505614E-2,-8.333336E-3,2.0585774E-2,7.3125E-2,-9.0211155E-3,1.259259E-2,1.3896394E-2,-8.864286E-3,3.1272701E-3,7.28E-2,1.7499998E-2,8.654762E-2,-9.230772E-3,7.2E-2,1.5267174E-2,5.672131E-2,-5.020579E-3,3.1164382E-2,5.678161E-2,1.0499998E-2,2.2222202E-3,7.65616E-2,4.223816E-2,4.779409E-3,-5.1782555E-3,3.333333E-2,6E-2,-9.729732E-3,5.8094054E-2,8.857142E-2,6E-2,-9.000002E-3,-6.6666687E-3,4.4999998E-2,-7.5000017E-3,4.8571426E-2],"categories":[],"categories_nodes":[],"categories_segments":[],"categories_sizes":[],"default_left":[0,0,0,0,0,0,0,0,0,0,0,0,0,0,0,0,0,0,0,0,0,0,0,0,0,0,0,0,0,0,0,0,0,0,0,0,0,0,0,0,0,0,0,0,0,0,0,0,0,0,0,0,0,0,0,0,0,0,0,0,0,0,0,0,0,0,0,0,0,0,0,0,0,0,0,0,0,0,0,0,0,0,0,0,0,0,0,0,0,0,0,0,0,0,0,0,0,0,0,0,0,0,0,0,0,0,0],"id":0,"left_children":[1,3,5,7,9,11,13,15,17,19,21,23,25,27,29,31,33,35,37,39,41,43,45,47,-1,49,51,53,55,57,59,61,63,-1,65,67,69,-1,71,73,75,77,79,81,83,85,87,89,91,93,95,97,99,-1,-1,-1,101,103,-1,-1,105,-1,-1,-1,-1,-1,-1,-1,-1,-1,-1,-1,-1,-1,-1,-1,-1,-1,-1,-1,-1,-1,-1,-1,-1,-1,-1,-1,-1,-1,-1,-1,-1,-1,-1,-1,-1,-1,-1,-1,-1,-1,-1,-1,-1,-1,-1],"loss_changes":[6.899794E2,1.1445823E2,1.4647052E2,3.5434532E1,1.0396969E2,7.5155975E1,1.609961E1,6.7677155E0,3.2229645E1,2.7648697E1,2.3406715E1,5.504181E0,9.881018E1,9.403637E0,8.157654E-1,4.1196566E0,5.985321E0,3.9305503E0,4.8231583E0,4.4036636E1,2.4306747E1,6.481888E0,1.6566502E1,5.185257E0,0E0,6.430519E1,1.7635315E1,1.3266863E0,5.154545E0,1.2499695E0,1.2964115E0,2.2657137E0,1.3552063E0,0E0,3.1941757E0,2.3442233E0,2.3062315E0,0E0,3.4528275E0,2.0911266E1,1.1928241E0,2.259166E1,2.8572931E1,1.116642E0,2.3639455E0,1.296389E1,1.19343405E1,3.2493877E0,4.2892E0,1.5836731E1,2.5281982E1,1.3471934E0,8.862518E0,0E0,0E0,0E0,1.0935E0,2.9583335E-1,0E0,0E0,7.1292865E-1,0E0,0E0,0E0,0E0,0E0,0E0,0E0,0E0,0E0,0E0,0E0,0E0,0E0,0E0,0E0,0E0,0E0,0E0,0E0,0E0,0E0,0E0,0E0,0E0,0E0,0E0,0E0,0E0,0E0,0E0,0E0,0E0,0E0,0E0,0E0,0E0,0E0,0E0,0E0,0E0,0E0,0E0,0E0,0E0,0E0,0E0],"parents":[2147483647,0,0,1,1,2,2,3,3,4,4,5,5,6,6,7,7,8,8,9,9,10,10,11,11,12,12,13,13,14,14,15,15,16,16,17,17,18,18,19,19,20,20,21,21,22,22,23,23,25,25,26,26,27,27,28,28,29,29,30,30,31,31,32,32,34,34,35,35,36,36,38,38,39,39,40,40,41,41,42,42,43,43,44,44,45,45,46,46,47,47,48,48,49,49,50,50,51,51,52,52,56,56,57,57,60,60],"right_children":[2,4,6,8,10,12,14,16,18,20,22,24,26,28,30,32,34,36,38,40,42,44,46,48,-1,50,52,54,56,58,60,62,64,-1,66,68,70,-1,72,74,76,78,80,82,84,86,88,90,92,94,96,98,100,-1,-1,-1,102,104,-1,-1,106,-1,-1,-1,-1,-1,-1,-1,-1,-1,-1,-1,-1,-1,-1,-1,-1,-1,-1,-1,-1,-1,-1,-1,-1,-1,-1,-1,-1,-1,-1,-1,-1,-1,-1,-1,-1,-1,-1,-1,-1,-1,-1,-1,-1,-1,-1],"split_conditions":[1.9974606E-1,-8.240972E-2,1.3971294E1,-2.9076245E-3,8.745084E-2,-9.261148E-2,1.9630124E-3,-2.5015429E-2,-2.2340547E-3,-1.06228806E-1,4.049255E-5,1.4493241E-3,8.617234E-2,-3.408366E-3,-2.6660922E-3,-3.7612662E-1,1.4883117E-5,-4.7760487E-1,2.9049098E-4,3.6656797E-6,8.200049E-2,1.4641818E-4,-5.344859E-5,9.954903E0,-2.6388803E-2,-8.077799E-2,-2.988747E-5,2.1374412E-2,8.5931E-4,-2.6616377E-1,-1.1378737E-2,2.5584497E-2,-3.4517798E-1,-9.20415E-5,-4.967483E-2,1.5885683E1,6.4932473E-4,-2.0687939E-3,1.5891502E1,9.270428E-18,6.689309E-1,-8.808127E-2,1.7843546E1,-3.257859E-3,2.4637219E-2,7.324473E-2,8.536452E-2,2.8381461E-2,2.479396E-3,-2.6536603E0,8.6115815E-2,1.1866805E1,5.349806E-1,4.0657521E-4,-1.2058736E-3,5.2705347E-3,2.7608495E-2,1.5834132E1,9.079682E-3,1.0084196E-2,-8.364391E-3,3.735814E-3,-1.8900275E-3,-3.5470945E-5,4.163608E-3,3.0984282E-3,4.8855543E-3,5.1250244E-3,-6.161273E-4,2.448928E-4,-3.4751298E-4,9.242438E-3,-1.9136668E-4,4.140619E-3,9.827896E-3,-7.3743486E-3,5.417855E-3,3.3703502E-3,-8.756483E-3,2.1158741E-4,3.406366E-3,3.3342838E-4,6.458284E-3,-1.2905423E-4,1.7481268E-3,4.4268197E-3,5.2409205E-3,-1.0510085E-3,5.952464E-3,7.6421946E-3,2.5391579E-3,2.1686913E-3,8.73964E-3,3.795293E-3,1.0121776E-3,-1.8311065E-3,5.399301E-3,5.4545403E-3,-1.2881629E-3,5.0806245E-3,3.952375E-3,4.8680307E-4,-3.4785273E-5,-1.7669797E-4,1.1652947E-3,-1.2181402E-4,4.2014304E-3],"split_indices":[13,30,3,26,33,32,5,10,27,46,35,35,30,26,26,21,35,20,31,45,30,28,28,3,0,33,45,1,41,44,4,4,21,0,40,0,23,0,0,21,21,32,0,34,22,30,39,23,23,14,33,0,36,0,0,0,1,0,0,0,4,0,0,0,0,0,0,0,0,0,0,0,0,0,0,0,0,0,0,0,0,0,0,0,0,0,0,0,0,0,0,0,0,0,0,0,0,0,0,0,0,0,0,0,0,0,0],"split_type":[0,0,0,0,0,0,0,0,0,0,0,0,0,0,0,0,0,0,0,0,0,0,0,0,0,0,0,0,0,0,0,0,0,0,0,0,0,0,0,0,0,0,0,0,0,0,0,0,0,0,0,0,0,0,0,0,0,0,0,0,0,0,0,0,0,0,0,0,0,0,0,0,0,0,0,0,0,0,0,0,0,0,0,0,0,0,0,0,0,0,0,0,0,0,0,0,0,0,0,0,0,0,0,0,0,0,0],"sum_hessian":[3.192E4,2.805E4,3.87E3,6.37E2,2.7413E4,3.195E3,6.75E2,2.62E2,3.75E2,2.6612E4,8.01E2,4.7E2,2.725E3,7.5E1,6E2,7.4E1,1.88E2,2.74E2,1.01E2,8.95E2,2.5717E4,1.02E2,6.99E2,4.61E2,9E0,2.152E3,5.73E2,3.2E1,4.3E1,5.51E2,4.9E1,3.7E1,3.7E1,8E0,1.8E2,1.5E1,2.59E2,8E0,9.3E1,3.49E2,5.46E2,2.5369E4,3.48E2,8.6E1,1.6E1,3.12E2,3.87E2,1.05E2,3.56E2,8.31E2,1.321E3,3.8E1,5.35E2,2E0,3E1,3.2E1,1.1E1,3E0,5.48E2,4E1,9E0,3.3E1,4E0,2.3E1,1.4E1,6E0,1.74E2,1E1,5E0,2.1E1,2.38E2,8.8E1,5E0,2.38E2,1.11E2,5.2E2,2.6E1,4.43E2,2.4926E4,2.74E2,7.4E1,3E0,8.3E1,1.2E1,4E0,1.3E2,1.82E2,2.42E2,1.45E2,8.6E1,1.9E1,8E0,3.48E2,6.96E2,1.35E2,1.121E3,2E2,2E0,3.6E1,4.03E2,1.32E2,2E0,9E0,2E0,1E0,3E0,6E0],"tree_param":{"num_deleted":"0","num_feature":"48","num_nodes":"107","size_leaf_vector":"1"}},{"base_weights":[-3.1954125E-3,-5.3224508E-2,3.5933864E-1,-7.928359E-2,8.350031E-2,2.7018145E-1,7.803254E-1,1.1557494E-1,-8.513226E-2,1.3619217E-2,3.1508163E-1,5.189356E-1,1.8593551E-1,3.7624997E-1,8.331658E-1,3.758741E-1,-6.990052E-2,-8.983921E-2,1.6252925E-1,2.4327482E-1,-2.6471613E-2,1.2897472E-1,6.536585E-1,5.459635E-1,-2.3260348E-8,2.6319072E-2,5.041353E-1,-3.636366E-2,6.5208334E-1,6.72807E-1,8.6921483E-1,2.3999998E-1,7.763889E-1,-8.9433014E-2,4.3999997E-1,-9.091968E-2,2.0240961E-1,-6.456143E-2,6.13986E-1,7.120689E-1,1.83114E-1,-6.2114734E-2,2.159151E-1,4.873239E-1,-3.687638E-2,-9.411767E-3,6.8781865E-1,6.1968637E-1,3.261538E-1,7.2E-2,-9.729732E-3,3.7810943E-1,-2.449715E-2,4.2956257E-1,8.639706E-1,6E-2,-9.677421E-3,8.742857E-2,4.999998E-2,2.4444443E-1,7.0283014E-1,2.8749996E-1,8.771488E-1,1.9698491E-2,7.294118E-2,8.41791E-2,-8.333336E-3,6E-2,-9.455961E-3,8E-2,-8.57143E-3,-4.0084952E-3,-9.6897045E-3,-5.227275E-3,4.7749996E-2,-8.498171E-3,3.6923077E-2,7.826085E-3,7.107438E-2,-8.000002E-3,7.722222E-2,2.9358972E-2,6.6367686E-3,-7.7939257E-3,6.0750833E-3,5.485712E-3,3.5369456E-2,7.229629E-2,7.848099E-3,5.9310343E-2,-7.898386E-3,4.71028E-2,7.789474E-2,6.768085E-2,3.5809524E-2,2.517857E-2,7.607143E-2,5.7931032E-2,2.2260867E-2,-7.431282E-3,1.3106507E-2,2.533088E-2,5.507653E-2,1.7499998E-2,8.781955E-2,6E-2,-9.166669E-3,-8.000002E-3,5.1999997E-2,7.5833336E-2,4.695652E-2,6.7499995E-2,-8.000002E-3,6.4347826E-2,8.87033E-2],"categories":[],"categories_nodes":[],"categories_segments":[],"categories_sizes":[],"default_left":[0,0,0,0,0,0,0,0,0,0,0,0,0,0,0,0,0,0,0,0,0,0,0,0,0,0,0,0,0,0,0,0,0,0,0,0,0,0,0,0,0,0,0,0,0,0,0,0,0,0,0,0,0,0,0,0,0,0,0,0,0,0,0,0,0,0,0,0,0,0,0,0,0,0,0,0,0,0,0,0,0,0,0,0,0,0,0,0,0,0,0,0,0,0,0,0,0,0,0,0,0,0,0,0,0,0,0,0,0,0,0,0,0,0,0],"id":1,"left_children":[1,3,5,7,9,11,13,15,17,19,21,23,25,27,29,31,33,35,37,39,41,43,45,47,49,51,53,55,57,59,61,63,65,67,69,71,73,75,77,79,81,83,85,87,89,-1,91,93,95,-1,-1,97,99,101,103,-1,-1,-1,105,107,109,111,113,-1,-1,-1,-1,-1,-1,-1,-1,-1,-1,-1,-1,-1,-1,-1,-1,-1,-1,-1,-1,-1,-1,-1,-1,-1,-1,-1,-1,-1,-1,-1,-1,-1,-1,-1,-1,-1,-1,-1,-1,-1,-1,-1,-1,-1,-1,-1,-1,-1,-1,-1,-1],"loss_changes":[5.7897833E2,9.995016E1,1.4508325E2,2.6861496E1,7.2674255E1,6.6880585E1,1.4120178E1,3.3194023E1,2.668068E1,3.1780087E1,6.551067E1,1.1332794E1,1.2132385E2,9.12872E0,2.8663025E0,1.537767E1,4.043121E0,7.107025E0,4.381637E1,1.4337767E1,2.5404663E1,4.0016113E1,9.490524E0,1.2243332E1,2.9422703E0,2.8468903E1,2.1042328E1,1.3266863E0,6.3779335E0,1.2943268E0,1.9816284E0,4.382516E0,4.1185417E0,1.4280999E0,2.907429E0,6.7924957E0,5.8399954E0,2.555953E0,7.356865E0,2.8252182E0,5.8618355E0,4.9879475E0,8.346409E0,2.0463543E1,1.2275728E1,0E0,6.606903E0,8.334702E0,6.110365E0,0E0,0E0,6.159706E0,1.0796955E1,1.4023773E1,1.179184E0,0E0,0E0,0E0,1.1458334E0,8.462223E-1,1.0162888E0,1.1932501E0,5.309143E-1,0E0,0E0,0E0,0E0,0E0,0E0,0E0,0E0,0E0,0E0,0E0,0E0,0E0,0E0,0E0,0E0,0E0,0E0,0E0,0E0,0E0,0E0,0E0,0E0,0E0,0E0,0E0,0E0,0E0,0E0,0E0,0E0,0E0,0E0,0E0,0E0,0E0,0E0,0E0,0E0,0E0,0E0,0E0,0E0,0E0,0E0,0E0,0E0,0E0,0E0,0E0,0E0],"parents":[2147483647,0,0,1,1,2,2,3,3,4,4,5,5,6,6,7,7,8,8,9,9,10,10,11,11,12,12,13,13,14,14,15,15,16,16,17,17,18,18,19,19,20,20,21,21,22,22,23,23,24,24,25,25,26,26,27,27,28,28,29,29,30,30,31,31,32,32,33,33,34,34,35,35,36,36,37,37,38,38,39,39,40,40,41,41,42,42,43,43,44,44,46,46,47,47,48,48,51,51,52,52,53,53,54,54,58,58,59,59,60,60,61,61,62,62],"right_children":[2,4,6,8,10,12,14,16,18,20,22,24,26,28,30,32,34,36,38,40,42,44,46,48,50,52,54,56,58,60,62,64,66,68,70,72,74,76,78,80,82,84,86,88,90,-1,92,94,96,-1,-1,98,100,102,104,-1,-1,-1,106,108,110,112,114,-1,-1,-1,-1,-1,-1,-1,-1,-1,-1,-1,-1,-1,-1,-1,-1,-1,-1,-1,-1,-1,-1,-1,-1,-1,-1,-1,-1,-1,-1,-1,-1,-1,-1,-1,-1,-1,-1,-1,-1,-1,-1,-1,-1,-1,-1,-1,-1,-1,-1,-1,-1],"split_conditions":[1.9974606E-1,1.4195415E-1,1.3971294E1,-1.1644277E-1,1.7815315E1,-8.6031884E-2,2.0754659E-3,3.6656797E-6,1.2745568E-1,-8.860057E-2,1.6444069E-1,-3.983411E-16,8.6115815E-2,-3.408366E-3,2.0217513E-1,2.1664539E-18,6.41701E-1,6.280924E-2,-6.9667157E-19,-8.800303E-2,8.862473E-2,-4.265023E-2,1.4883117E-5,-6.465701E-4,9.882533E0,-8.985688E-2,4.5761952E-1,2.1374412E-2,8.5931E-4,-2.5997183E-3,-8.742564E-2,2.2204922E-4,7.2379485E-3,-9.6442866E-1,6.8600434E-3,8.3179964E-20,-1.7211313E-18,8.236101E-3,-2.696027E-18,9.248628E-3,-1.4906861E-5,2.4346737E-2,7.9740316E-2,2.6825628E-5,2.9383467E-3,-3.0481056E-4,1.6962627E-1,4.1483555E-2,3.0192158E-3,6.231576E-3,-1.8719009E-3,-1.6909328E0,1.2447865E-4,9.15761E-2,-1.9458666E-1,3.6591888E-4,-1.0852873E-3,4.7434806E-3,2.7608495E-2,-2.9007914E-2,-2.6307069E-3,5.969576E-1,1.14840186E-4,4.4933385E-3,1.1871883E-2,8.519775E-3,-1.5772938E-3,2.4200678E-3,-2.6309436E-2,1.2089396E-2,-1.0253042E-2,-5.7689883E-3,-4.041134E-2,-5.984654E-4,7.108932E-3,-1.56057095E-2,1.2448563E-2,6.585109E-4,9.834186E-3,-8.6778404E-5,1.0392458E-2,3.5177276E-3,1.3326645E-3,-1.1626037E-3,2.0022986E-3,1.0790763E-3,2.908448E-3,4.1300985E-3,2.4225654E-3,1.1864954E-3,-4.714847E-4,1.9173091E-3,6.2688687E-3,6.6267955E-3,4.1935267E-3,5.6174705E-3,7.077761E-3,4.988897E-3,2.4593286E-3,-2.1660333E-3,4.2667458E-4,3.7025858E-3,6.0748695E-3,8.897662E-4,3.5569412E-3,4.3812394E-4,-3.130436E-5,-3.305316E-4,2.6223361E-3,4.225204E-3,8.405749E-3,4.3725967E-3,-1.5903116E-4,6.849823E-3,8.988669E-3],"split_indices":[13,13,3,46,2,30,5,45,46,32,13,44,33,26,13,33,21,42,44,30,33,4,35,26,0,32,38,1,41,24,45,29,6,20,5,45,32,36,32,19,28,1,30,35,1,0,13,5,41,0,0,15,29,33,6,0,0,0,1,4,26,6,31,0,0,0,0,0,0,0,0,0,0,0,0,0,0,0,0,0,0,0,0,0,0,0,0,0,0,0,0,0,0,0,0,0,0,0,0,0,0,0,0,0,0,0,0,0,0,0,0,0,0,0,0],"split_type":[0,0,0,0,0,0,0,0,0,0,0,0,0,0,0,0,0,0,0,0,0,0,0,0,0,0,0,0,0,0,0,0,0,0,0,0,0,0,0,0,0,0,0,0,0,0,0,0,0,0,0,0,0,0,0,0,0,0,0,0,0,0,0,0,0,0,0,0,0,0,0,0,0,0,0,0,0,0,0,0,0,0,0,0,0,0,0,0,0,0,0,0,0,0,0,0,0,0,0,0,0,0,0,0,0,0,0,0,0,0,0,0,0,0,0],"sum_hessian":[3.192E4,2.805E4,3.87E3,2.356E4,4.49E3,3.195E3,6.75E2,6.86E2,2.2874E4,3.45E3,1.04E3,8.07E2,2.388E3,7.9E1,5.96E2,2.85E2,4.01E2,2.2448E4,4.26E2,5.12E2,2.938E3,6.72E2,3.68E2,7.67E2,4E1,1.591E3,7.97E2,3.2E1,4.7E1,1.13E2,4.83E2,2.14E2,7.1E1,3.87E2,1.4E1,2.2366E4,8.2E1,2.84E2,1.42E2,5.7E1,4.55E2,2.562E3,3.76E2,2.12E2,4.6E2,1.6E1,3.52E2,5.73E2,1.94E2,4E0,3.6E1,2E2,1.391E3,6.62E2,1.35E2,2E0,3E1,3.4E1,1.3E1,8E0,1.05E2,7E0,4.76E2,1.98E2,1.6E1,6.6E1,5E0,2E0,3.85E2,8E0,6E0,2.354E3,2.0012E4,4.3E1,3.9E1,2.72E2,1.2E1,2.2E1,1.2E2,4E0,5.3E1,2.33E2,2.22E2,2.27E3,2.92E2,1.74E2,2.02E2,1.34E2,7.8E1,2.8E1,4.32E2,1.06E2,2.46E2,4.69E2,1.04E2,1.67E2,2.7E1,8.6E1,1.14E2,1.054E3,3.37E2,2.71E2,3.91E2,3E0,1.32E2,2E0,1.1E1,4E0,4E0,8.3E1,2.2E1,3E0,4E0,2.2E1,4.54E2],"tree_param":{"num_deleted":"0","num_feature":"48","num_nodes":"115","size_leaf_vector":"1"}},{"base_weights":[-1.0745301E-2,-7.1965024E-2,1.9814786E-1,1.1569079E-2,-8.302374E-2,5.9084773E-1,1.3234912E-1,2.956818E-1,-3.950166E-2,-9.28638E-2,6.8623E-2,7.799465E-1,4.83609E-1,5.893541E-2,5.161809E-1,1.5992364E-1,4.927374E-1,-8.3622985E-2,1.1290906E-1,3.0925924E-1,-9.392265E-2,4.10084E-1,-5.6731783E-2,8.129577E-1,1.5499997E-1,5.2295345E-1,-9.767445E-3,4.6381214E-1,2.8659897E-2,4.033762E-1,7.024064E-1,6.2777776E-1,1.24897934E-1,5.9931505E-1,2.0588212E-2,9.219856E-2,-9.7669154E-2,7.46875E-1,7.360306E-2,-4.5000024E-2,5.0285715E-1,3.0181816E-1,-9.498677E-2,-3.544306E-2,5.34767E-1,4.4126981E-1,-9.1108695E-2,1.9999997E-1,8.412979E-1,-2.1428594E-2,4.8571426E-1,7.4563104E-1,4.7792703E-1,2.8215766E-1,8.188524E-1,4.3531466E-1,3.137317E-3,2.1803918E-1,5.307065E-1,8.561111E-1,5.5692303E-1,1.9999998E-2,8.25E-2,8.986781E-3,5.3684212E-2,7.548781E-2,3.9384615E-2,4.8571426E-2,-9.64286E-3,3.9215684E-2,-7.6923105E-3,7.499998E-3,-9.879865E-3,3.2E-2,7.9642855E-2,5.5087715E-2,1.4686802E-3,4.4999998E-2,-9.473687E-3,8.470588E-2,1.6842103E-2,-9.473687E-3,4.972973E-2,3.2692306E-2,-9.552139E-3,-8.428574E-3,3.0999998E-2,7.2733335E-2,3.0846152E-2,7.9166666E-2,-2.5000023E-3,-9.547963E-3,7.2E-2,5.8333334E-2,-8.333355E-4,5.3684212E-2,8.566978E-2,-9.166669E-3,2.6666665E-2,-6.6666687E-3,7.2E-2,3.749998E-3,7.96875E-2,6.0267176E-2,3.503846E-2,-2.6804148E-3,4.8689652E-2,8.66087E-2,3.749998E-3,6.1226994E-2,1.9919353E-2,-3.636603E-3,2.1272473E-2,6.0499996E-2,1.8432202E-2,-9.629632E-3,5.7865497E-2,8.668539E-2,-6.6666687E-3,3.297619E-2,7.223214E-2],"categories":[],"categories_nodes":[],"categories_segments":[],"categories_sizes":[],"default_left":[0,0,0,0,0,0,0,0,0,0,0,0,0,0,0,0,0,0,0,0,0,0,0,0,0,0,0,0,0,0,0,0,0,0,0,0,0,0,0,0,0,0,0,0,0,0,0,0,0,0,0,0,0,0,0,0,0,0,0,0,0,0,0,0,0,0,0,0,0,0,0,0,0,0,0,0,0,0,0,0,0,0,0,0,0,0,0,0,0,0,0,0,0,0,0,0,0,0,0,0,0,0,0,0,0,0,0,0,0,0,0,0,0,0,0,0,0,0,0,0,0],"id":2,"left_children":[1,3,5,7,9,11,13,15,17,19,21,23,25,27,29,31,33,35,37,39,41,43,45,47,49,51,-1,53,55,57,59,61,63,65,67,69,71,73,75,77,79,81,83,85,87,89,91,93,95,97,99,101,103,105,107,109,111,113,115,117,119,-1,-1,-1,-1,-1,-1,-1,-1,-1,-1,-1,-1,-1,-1,-1,-1,-1,-1,-1,-1,-1,-1,-1,-1,-1,-1,-1,-1,-1,-1,-1,-1,-1,-1,-1,-1,-1,-1,-1,-1,-1,-1,-1,-1,-1,-1,-1,-1,-1,-1,-1,-1,-1,-1,-1,-1,-1,-1,-1,-1],"loss_changes":[4.0823224E2,2.2806313E1,1.8686816E2,4.1901608E1,3.25381E1,2.0672058E1,1.7462E2,1.1692036E1,1.6471172E1,8.746231E0,5.6909473E1,7.5897064E0,1.5259811E1,6.3776558E1,2.0618744E1,4.2149644E0,8.995037E0,4.6988115E0,1.3650295E1,3.7261562E0,8.627838E0,1.985019E1,1.6697727E1,5.998581E0,1.1773572E0,5.8900604E0,0E0,2.3116028E1,5.0263546E1,1.4562874E1,7.8863983E0,1.353611E0,3.487216E0,4.3693466E0,1.897374E0,7.183017E0,3.5046577E-1,4.2204475E-1,1.4585777E1,5.350263E-1,3.8863077E0,4.3106146E0,4.6249847E0,1.3590451E0,1.1934135E1,1.0312698E1,3.2985148E0,1.3625E0,1.1294861E0,3.0773813E-1,9.539046E-1,3.707718E0,8.078079E0,1.5257866E1,4.470146E0,1.1827942E1,3.774526E1,3.2155275E0,1.1119209E1,1.8421783E0,7.0883636E0,0E0,0E0,0E0,0E0,0E0,0E0,0E0,0E0,0E0,0E0,0E0,0E0,0E0,0E0,0E0,0E0,0E0,0E0,0E0,0E0,0E0,0E0,0E0,0E0,0E0,0E0,0E0,0E0,0E0,0E0,0E0,0E0,0E0,0E0,0E0,0E0,0E0,0E0,0E0,0E0,0E0,0E0,0E0,0E0,0E0,0E0,0E0,0E0,0E0,0E0,0E0,0E0,0E0,0E0,0E0,0E0,0E0,0E0,0E0,0E0],"parents":[2147483647,0,0,1,1,2,2,3,3,4,4,5,5,6,6,7,7,8,8,9,9,10,10,11,11,12,12,13,13,14,14,15,15,16,16,17,17,18,18,19,19,20,20,21,21,22,22,23,23,24,24,25,25,27,27,28,28,29,29,30,30,31,31,32,32,33,33,34,34,35,35,36,36,37,37,38,38,39,39,40,40,41,41,42,42,43,43,44,44,45,45,46,46,47,47,48,48,49,49,50,50,51,51,52,52,53,53,54,54,55,55,56,56,57,57,58,58,59,59,60,60],"right_children":[2,4,6,8,10,12,14,16,18,20,22,24,26,28,30,32,34,36,38,40,42,44,46,48,50,52,-1,54,56,58,60,62,64,66,68,70,72,74,76,78,80,82,84,86,88,90,92,94,96,98,100,102,104,106,108,110,112,114,116,118,120,-1,-1,-1,-1,-1,-1,-1,-1,-1,-1,-1,-1,-1,-1,-1,-1,-1,-1,-1,-1,-1,-1,-1,-1,-1,-1,-1,-1,-1,-1,-1,-1,-1,-1,-1,-1,-1,-1,-1,-1,-1,-1,-1,-1,-1,-1,-1,-1,-1,-1,-1,-1,-1,-1,-1,-1,-1,-1,-1,-1],"split_conditions":[1.616164E-1,9.852637E-19,-9.219972E-2,-1.0818837E-1,-6.9667157E-19,-9.270061E-2,9.001587E-2,9.270428E-18,1.3940423E1,-7.576054E-2,-5.044973E-20,4.6269543E-4,5.9744543E-3,-2.978105E-3,9.520375E-2,-9.176469E-2,2.2325805E-1,9.968957E0,-1.5447409E-2,-4.5922615E-2,-8.629762E-1,1.390096E1,-3.21066E-3,-7.5406566E-2,2.5811588E-4,-9.889964E-2,-2.5066005E-3,3.9545186E-3,-8.728039E-2,2.6730301E0,-4.3934712E-1,-9.425999E-2,1.5919127E1,-1.6387725E-1,1.330696E-18,-3.7760545E-2,-9.764435E-2,6.619416E-19,9.83862E-22,2.403764E-3,-1.1076389E-5,1.7855276E1,8.049214E0,2.5892264E-4,1.2336607E-2,1.891745E-2,9.695993E-2,2.280909E-1,1.14840186E-4,7.546234E-2,7.491912E-5,-3.9911156E0,-1.5609052E-3,3.2501834E-4,1.8558705E-4,-1.5948167E-2,2.2464143E-2,2.2410737E-4,1.9253013E-3,1.7917147E1,3.2857444E-2,5.680275E-3,6.6731754E-3,2.8125083E-3,4.0391157E-3,8.176485E-3,8.07201E-3,3.15156E-3,-1.2548327E-3,7.6074484E-3,-5.5556195E-3,1.036861E-2,-3.6337152E-2,2.824247E-4,1.2474183E-2,1.0955078E-2,2.1568644E-4,1.1247576E-3,-3.2465588E-4,4.984226E-3,1.0779308E-3,-3.2465588E-4,3.846721E-3,8.814816E-3,-3.3392143E-2,-1.1362719E-2,1.2715364E-2,1.1133033E-2,5.1348316E-3,4.0426566E-3,5.4374273E-4,-6.2366845E-3,7.102925E-3,1.9776584E-3,7.393451E-4,4.5424653E-3,9.792092E-3,-3.7480626E-5,5.1810383E-3,-6.419182E-4,3.8474977E-3,5.5611017E-3,6.486186E-3,5.157145E-3,5.536664E-3,-6.360952E-5,8.858501E-4,5.5420487E-3,1.4813543E-4,6.0014105E-3,2.357306E-3,-2.8224706E-4,3.2016838E-3,1.2710151E-3,1.5410313E-3,-1.853117E-3,4.3931413E-3,6.726568E-3,-3.891492E-3,4.4285427E-3,8.01903E-3],"split_indices":[13,45,32,44,44,30,33,21,3,33,44,27,47,27,33,32,7,3,46,36,9,0,22,45,25,32,0,17,33,14,6,4,0,44,33,46,46,33,43,1,28,0,3,28,36,45,33,13,31,22,28,15,27,31,28,4,23,41,11,3,1,0,0,0,0,0,0,0,0,0,0,0,0,0,0,0,0,0,0,0,0,0,0,0,0,0,0,0,0,0,0,0,0,0,0,0,0,0,0,0,0,0,0,0,0,0,0,0,0,0,0,0,0,0,0,0,0,0,0,0,0],"split_type":[0,0,0,0,0,0,0,0,0,0,0,0,0,0,0,0,0,0,0,0,0,0,0,0,0,0,0,0,0,0,0,0,0,0,0,0,0,0,0,0,0,0,0,0,0,0,0,0,0,0,0,0,0,0,0,0,0,0,0,0,0,0,0,0,0,0,0,0,0,0,0,0,0,0,0,0,0,0,0,0,0,0,0,0,0,0,0,0,0,0,0,0,0,0,0,0,0,0,0,0,0,0,0,0,0,0,0,0,0,0,0,0,0,0,0,0,0,0,0,0,0],"sum_hessian":[3.192E4,2.4686E4,7.234E3,2.886E3,2.18E4,1.037E3,6.197E3,4.39E2,2.447E3,2.0472E4,1.328E3,3.73E2,6.64E2,5.203E3,9.94E2,2.61E2,1.78E2,1.898E3,5.49E2,5.3E1,2.0419E4,3.56E2,9.72E2,3.54E2,1.9E1,6.22E2,4.2E1,3.61E2,4.842E3,6.21E2,3.73E2,1.7E1,2.44E2,1.45E2,3.3E1,1.4E2,1.758E3,3.1E1,5.18E2,1.9E1,3.4E1,5.4E1,2.0365E4,7.8E1,2.78E2,6.2E1,9.1E2,1.6E1,3.38E2,1.3E1,6E0,1.02E2,5.2E2,2.4E2,1.21E2,2.85E2,4.557E3,2.54E2,3.67E2,1.79E2,1.94E2,6E0,1.1E1,2.26E2,1.8E1,8.1E1,6.4E1,6E0,2.7E1,5E1,9E1,1.1E1,1.747E3,4E0,2.7E1,5.6E1,4.62E2,1E0,1.8E1,1.6E1,1.8E1,1.8E1,3.6E1,2.5E1,2.034E4,6.9E1,9E0,1.49E2,1.29E2,3.5E1,2.7E1,9.06E2,4E0,5E0,1.1E1,1.8E1,3.2E2,1.1E1,2E0,2E0,4E0,7E0,9.5E1,2.61E2,2.59E2,9.6E1,1.44E2,1.14E2,7E0,1.62E2,1.23E2,3.835E3,7.22E2,1.9E1,2.35E2,2.6E1,3.41E2,1.77E2,2E0,8.3E1,1.11E2],"tree_param":{"num_deleted":"0","num_feature":"48","num_nodes":"121","size_leaf_vector":"1"}},{"base_weights":[-1.0745301E-2,-7.87071E-2,1.662113E-1,-8.347473E-2,1.17335744E-1,5.2334666E-1,1.2084974E-1,8.3333306E-2,-8.950398E-2,-7.4220985E-2,4.6173468E-1,7.897233E-1,4.323056E-1,5.0412245E-2,3.583426E-1,3.0783698E-1,-6.987182E-2,-9.053882E-2,3.1999996E-1,-9.96689E-3,7.499997E-2,1.0714263E-2,5.3372777E-1,2.22222E-2,8.1469387E-1,6.152091E-1,3.3202478E-1,6.5546104E-4,3.4430522E-1,7.142857E-1,3.0567598E-1,2.0198411E-1,6.9558823E-1,7.2E-2,-7.823278E-2,2.8363633E-1,-9.1486335E-2,-9.285717E-3,4.5E-1,2.4489773E-2,6.7499995E-2,5.2E-1,-9.583335E-3,6.225564E-1,1.9999997E-1,-8.750002E-3,4.4999998E-2,8.8875735E-1,6.415584E-1,8.127451E-1,4.87037E-1,5.4011625E-1,2.166134E-1,2.2137848E-1,-4.2959396E-2,4.643423E-1,3.7499975E-2,4.6292132E-1,8.657342E-1,1.7159088E-1,4.4195622E-1,1.4929575E-2,4.7749996E-2,8.4199995E-2,2.7368417E-2,-9.09692E-3,4.5454543E-2,-9.444447E-3,4.5526315E-2,-3.96392E-3,-9.659134E-3,-8.57143E-3,5.4166663E-2,-2.954548E-3,4.1666668E-2,-5.0000013E-3,6.7499995E-2,7.009091E-2,2.3749998E-2,-3.8888913E-3,4.0499996E-2,4.25E-2,8.945783E-2,6.871428E-2,1.6249998E-2,1.6249998E-2,8.589473E-2,7.775E-2,3.886179E-2,6.1013516E-2,1.0399998E-2,2.9311737E-2,-6.865674E-3,3.5093334E-2,1.2012446E-2,-5.0680777E-3,4.0821917E-2,4.0473588E-2,8.5301206E-2,4.2037036E-2,-6.871797E-3,2.9827584E-2,7.46875E-2,-7.5000017E-3,8.864286E-2,4.96951E-3,2.5720427E-2,2.9506493E-2,5.8473278E-2],"categories":[],"categories_nodes":[],"categories_segments":[],"categories_sizes":[],"default_left":[0,0,0,0,0,0,0,0,0,0,0,0,0,0,0,0,0,0,0,0,0,0,0,0,0,0,0,0,0,0,0,0,0,0,0,0,0,0,0,0,0,0,0,0,0,0,0,0,0,0,0,0,0,0,0,0,0,0,0,0,0,0,0,0,0,0,0,0,0,0,0,0,0,0,0,0,0,0,0,0,0,0,0,0,0,0,0,0,0,0,0,0,0,0,0,0,0,0,0,0,0,0,0,0,0,0,0,0,0],"id":3,"left_children":[1,3,5,7,9,11,13,15,17,19,21,23,25,27,29,31,33,35,37,-1,39,41,43,45,47,49,51,53,55,57,59,61,63,-1,65,67,69,-1,71,73,-1,75,-1,77,79,-1,-1,81,83,85,87,89,91,93,95,97,99,101,103,105,107,-1,-1,-1,-1,-1,-1,-1,-1,-1,-1,-1,-1,-1,-1,-1,-1,-1,-1,-1,-1,-1,-1,-1,-1,-1,-1,-1,-1,-1,-1,-1,-1,-1,-1,-1,-1,-1,-1,-1,-1,-1,-1,-1,-1,-1,-1,-1,-1],"loss_changes":[3.839043E2,2.1566803E1,1.4343826E2,2.2653412E1,3.618689E1,2.3861328E1,1.3148389E2,2.7056067E1,9.238342E0,1.3479439E0,6.3584747E0,4.830612E0,1.3478668E1,8.8674675E1,3.3487503E1,1.2952724E1,3.147041E0,7.711624E0,2.9937143E0,0E0,1.5593878E0,1.5692024E0,4.8854218E0,4.6180555E-1,2.5714417E0,6.2629547E0,1.1506805E1,4.9943737E1,3.231758E1,8.39312E0,2.8576462E1,3.5868635E0,3.9700317E0,0E0,3.1899047E0,3.6118813E0,5.7196045E0,0E0,2.1089287E0,1.050688E0,0E0,4.755E-1,0E0,3.8461723E0,1.8277222E0,0E0,0E0,7.601929E-2,1.5698357E0,2.9247894E0,4.3289604E0,5.1888046E0,6.8511314E0,1.118681E1,1.5112165E1,1.427327E1,1.0114478E1,3.9381256E0,2.8503876E0,8.2524605E0,1.61232E1,0E0,0E0,0E0,0E0,0E0,0E0,0E0,0E0,0E0,0E0,0E0,0E0,0E0,0E0,0E0,0E0,0E0,0E0,0E0,0E0,0E0,0E0,0E0,0E0,0E0,0E0,0E0,0E0,0E0,0E0,0E0,0E0,0E0,0E0,0E0,0E0,0E0,0E0,0E0,0E0,0E0,0E0,0E0,0E0,0E0,0E0,0E0,0E0],"parents":[2147483647,0,0,1,1,2,2,3,3,4,4,5,5,6,6,7,7,8,8,9,9,10,10,11,11,12,12,13,13,14,14,15,15,16,16,17,17,18,18,20,20,21,21,22,22,23,23,24,24,25,25,26,26,27,27,28,28,29,29,30,30,31,31,32,32,34,34,35,35,36,36,38,38,39,39,41,41,43,43,44,44,47,47,48,48,49,49,50,50,51,51,52,52,53,53,54,54,55,55,56,56,57,57,58,58,59,59,60,60],"right_children":[2,4,6,8,10,12,14,16,18,20,22,24,26,28,30,32,34,36,38,-1,40,42,44,46,48,50,52,54,56,58,60,62,64,-1,66,68,70,-1,72,74,-1,76,-1,78,80,-1,-1,82,84,86,88,90,92,94,96,98,100,102,104,106,108,-1,-1,-1,-1,-1,-1,-1,-1,-1,-1,-1,-1,-1,-1,-1,-1,-1,-1,-1,-1,-1,-1,-1,-1,-1,-1,-1,-1,-1,-1,-1,-1,-1,-1,-1,-1,-1,-1,-1,-1,-1,-1,-1,-1,-1,-1,-1,-1],"split_conditions":[1.2718064E-1,1.0509556E-1,-8.800303E-2,-9.764435E-2,-1.3522594E-18,-9.210313E-2,8.653908E-2,3.6656797E-6,9.368636E-2,3.5673883E-3,-2.696027E-18,1.9297028E-1,-1.490666E-4,1.7820786E1,-2.7171955E-3,2.8942944E-18,-7.364858E-1,-1.0857448E-1,5.616735E-1,-2.5657816E-2,6.7749046E-2,1.2745568E-1,-1.396255E-3,2.345714E-2,-9.557141E-2,-3.1315563E0,2.0927939E-1,-8.860057E-2,2.2426529E-2,-2.013475E-3,9.19757E-2,1.5026228E-4,4.1827727E-2,1.6653658E-3,6.41701E-1,1.3893268E1,6.793181E-7,-3.4200908E-3,-2.696027E-18,8.536452E-2,1.4662641E-2,1.6736653E-2,-5.349196E-4,-3.3749747E-18,1.803443E-4,-5.7446957E-4,9.7538234E-4,2.1516615E-1,1.1117273E-2,-6.242749E0,-9.838067E-2,3.684341E-5,1.3588244E-2,-2.3506391E-4,1.8311407E-4,2.192427E-2,1.4195415E-1,1.14160525E-2,3.2198184E0,1.9661134E-1,-4.058057E-2,4.2855754E-3,7.4001364E-3,7.193625E-3,4.7821356E-3,-2.1748247E-2,1.3921671E-2,-9.820873E-3,5.8954787E-3,-8.736217E-3,-3.362894E-2,-1.1517942E-3,5.9209196E-3,-3.6776222E-3,8.379024E-3,-3.8067102E-3,5.7527903E-3,8.60163E-3,8.61515E-3,9.6973404E-4,1.4263575E-2,3.6230744E-3,9.530116E-3,4.099226E-3,2.3884356E-3,5.979508E-3,7.1088495E-3,6.586689E-3,5.2268268E-3,5.9959865E-3,8.635997E-4,3.726104E-3,-3.872836E-4,4.0383427E-3,1.6907937E-3,-5.4085854E-4,2.8815174E-3,2.7032436E-3,4.73488E-3,1.7127835E-3,-3.3112778E-4,3.7063237E-3,5.422672E-3,-5.462587E-4,5.9374454E-3,4.915856E-4,2.98942E-3,4.704267E-3,5.142358E-3],"split_indices":[13,46,30,46,44,33,33,45,40,36,32,6,28,2,27,33,8,38,21,0,5,46,24,1,32,15,13,32,4,44,33,29,9,0,21,0,17,0,32,39,0,1,0,8,28,0,0,6,10,12,32,45,4,28,29,23,13,46,12,13,44,0,0,0,0,0,0,0,0,0,0,0,0,0,0,0,0,0,0,0,0,0,0,0,0,0,0,0,0,0,0,0,0,0,0,0,0,0,0,0,0,0,0,0,0,0,0,0,0],"split_type":[0,0,0,0,0,0,0,0,0,0,0,0,0,0,0,0,0,0,0,0,0,0,0,0,0,0,0,0,0,0,0,0,0,0,0,0,0,0,0,0,0,0,0,0,0,0,0,0,0,0,0,0,0,0,0,0,0,0,0,0,0,0,0,0,0,0,0,0,0,0,0,0,0,0,0,0,0,0,0,0,0,0,0,0,0,0,0,0,0,0,0,0,0,0,0,0,0,0,0,0,0,0,0,0,0,0,0,0,0],"sum_hessian":[3.192E4,2.3063E4,8.857E3,2.2516E4,5.47E2,9.97E2,7.86E3,7.85E2,2.1731E4,3.52E2,1.95E2,2.52E2,7.45E2,6.063E3,1.797E3,3.18E2,4.67E2,2.1677E4,5.4E1,3.01E2,5.1E1,2.7E1,1.68E2,8E0,2.44E2,2.62E2,4.83E2,5.186E3,8.77E2,2.3E2,1.567E3,2.51E2,6.7E1,4E0,4.63E2,5.4E1,2.1623E4,1.3E1,4.1E1,4.8E1,3E0,4E0,2.3E1,1.32E2,3.6E1,7E0,1E0,1.68E2,7.6E1,1.01E2,1.61E2,1.71E2,3.12E2,8.55E2,4.331E3,6.3E2,2.47E2,8.8E1,1.42E2,7.91E2,7.76E2,2.12E2,3.9E1,4.9E1,1.8E1,4.53E2,1E1,1.7E1,3.7E1,1.939E3,1.9684E4,6E0,3.5E1,4.3E1,5E0,1E0,3E0,1.09E2,2.3E1,1.7E1,1.9E1,3E0,1.65E2,6.9E1,7E0,7E0,9.4E1,3.9E1,1.22E2,1.47E2,2.4E1,2.46E2,6.6E1,3.74E2,4.81E2,4.259E3,7.2E1,5.48E2,8.2E1,5.3E1,1.94E2,5.7E1,3.1E1,3E0,1.39E2,3.27E2,4.64E2,3.84E2,3.92E2],"tree_param":{"num_deleted":"0","num_feature":"48","num_nodes":"109","size_leaf_vector":"1"}},{"base_weights":[-1.6666168E-2,-7.69044E-2,1.3956994E-1,-8.8506505E-2,8.40882E-3,4.932571E-1,1.0091145E-1,6.424729E-2,-9.135613E-2,-7.40741E-2,2.1444865E-1,7.5415015E-1,3.8651684E-1,5.787153E-2,4.1244853E-1,4.3604648E-1,-4.7386784E-2,-3.889132E-2,-9.823318E-2,-7.848751E-2,5.0666666E-1,4.347328E-1,1.0473482E-1,3.2692304E-1,7.995614E-1,5.7824266E-1,2.6649347E-1,2.1947674E-2,3.3560792E-1,1.9209725E-1,5.2437884E-1,6.9772726E-1,1.5813951E-1,3.8518515E-1,-9.1954045E-2,-8.839613E-2,8.388552E-2,-9.857348E-2,6.6249996E-1,-8.909981E-2,9.385963E-2,8.1E-2,-8.333336E-3,1.4393938E-1,5.299492E-1,-9.931975E-3,1.8298426E-1,-2.666669E-2,7.416667E-1,8.7531644E-1,6.197183E-1,7.923913E-1,4.412162E-1,4.265625E-1,1.0670101E-1,3.8114446E-3,3.2044816E-1,1.0125521E-1,4.3362674E-1,4.218487E-1,6.161135E-2,8.396946E-1,4.4299608E-1,2.4999999E-2,7.487179E-2,2.9642856E-2,-9.375002E-3,1.38461515E-2,5.733333E-2,6E-2,-9.961392E-3,7.2E-2,-9.080392E-3,6.408071E-4,7.208333E-2,1.5416664E-2,-9.891307E-3,7.714286E-2,-5.0000013E-3,1.0804595E-2,-9.880549E-3,-3.0681842E-3,4.962963E-2,2.6785692E-3,7.272727E-2,5.964912E-2,8.888887E-3,4.8780486E-2,1.4590641E-2,-9.285717E-3,4.4999998E-2,-5.0000013E-3,8.1818186E-2,8.815286E-2,-5.0000013E-3,1.3333331E-2,6.79365E-2,5.714284E-3,8.430233E-2,3.4051724E-2,7.818182E-2,5.0196078E-2,1.2749999E-2,-8.333336E-3,2.0310076E-2,1.8949937E-2,-2.6250272E-3,6.2434208E-2,9.466018E-3,8.5263155E-2,3.6199072E-3,5.320665E-2,1.5067565E-2,1.0612243E-2,6.338028E-2,5.235578E-4,5.7142854E-2,8.830357E-2,5.5499997E-2,4.710472E-2,-6.071431E-3],"categories":[],"categories_nodes":[],"categories_segments":[],"categories_sizes":[],"default_left":[0,0,0,0,0,0,0,0,0,0,0,0,0,0,0,0,0,0,0,0,0,0,0,0,0,0,0,0,0,0,0,0,0,0,0,0,0,0,0,0,0,0,0,0,0,0,0,0,0,0,0,0,0,0,0,0,0,0,0,0,0,0,0,0,0,0,0,0,0,0,0,0,0,0,0,0,0,0,0,0,0,0,0,0,0,0,0,0,0,0,0,0,0,0,0,0,0,0,0,0,0,0,0,0,0,0,0,0,0,0,0,0,0,0,0,0,0,0,0,0,0],"id":4,"left_children":[1,3,5,7,9,11,13,15,17,19,21,23,25,27,29,31,33,35,37,39,41,43,45,47,49,51,53,55,57,59,61,63,65,67,69,71,73,75,77,79,81,-1,-1,83,85,-1,87,89,91,93,95,97,99,101,103,105,107,109,111,113,115,117,119,-1,-1,-1,-1,-1,-1,-1,-1,-1,-1,-1,-1,-1,-1,-1,-1,-1,-1,-1,-1,-1,-1,-1,-1,-1,-1,-1,-1,-1,-1,-1,-1,-1,-1,-1,-1,-1,-1,-1,-1,-1,-1,-1,-1,-1,-1,-1,-1,-1,-1,-1,-1,-1,-1,-1,-1,-1,-1],"loss_changes":[3.004316E2,2.2805054E1,1.2140759E2,8.833984E0,4.6904446E1,2.4075317E1,1.0736506E2,1.5460694E1,7.179764E0,5.091528E0,1.9023193E1,4.6470337E0,1.4182106E1,7.021331E1,2.3872665E1,6.1438293E0,5.5683627E0,1.404162E1,4.622101E0,3.587716E0,2.7519996E0,7.1780586E0,8.448833E0,3.8326545E0,2.5638275E0,6.6636047E0,9.801949E0,3.3742207E1,1.8470703E1,9.837209E0,1.615387E1,8.1733704E-1,1.5256335E0,1.1739712E0,1.4431419E0,3.269228E0,3.2763176E1,1.5253754E0,6.594641E-1,3.5390482E0,5.728913E0,0E0,0E0,4.4909363E0,5.728733E0,0E0,4.2462263E0,5.1504767E-1,7.6780224E-1,9.522934E-1,1.9692173E0,3.3767128E0,4.809923E0,4.2653656E0,3.570862E0,3.281096E1,2.4436672E1,1.1651847E1,1.57407E1,7.8961563E0,6.0614305E0,1.1263275E0,7.2912445E0,0E0,0E0,0E0,0E0,0E0,0E0,0E0,0E0,0E0,0E0,0E0,0E0,0E0,0E0,0E0,0E0,0E0,0E0,0E0,0E0,0E0,0E0,0E0,0E0,0E0,0E0,0E0,0E0,0E0,0E0,0E0,0E0,0E0,0E0,0E0,0E0,0E0,0E0,0E0,0E0,0E0,0E0,0E0,0E0,0E0,0E0,0E0,0E0,0E0,0E0,0E0,0E0,0E0,0E0,0E0,0E0,0E0,0E0],"parents":[2147483647,0,0,1,1,2,2,3,3,4,4,5,5,6,6,7,7,8,8,9,9,10,10,11,11,12,12,13,13,14,14,15,15,16,16,17,17,18,18,19,19,20,20,21,21,22,22,23,23,24,24,25,25,26,26,27,27,28,28,29,29,30,30,31,31,32,32,33,33,34,34,35,35,36,36,37,37,38,38,39,39,40,40,43,43,44,44,46,46,47,47,48,48,49,49,50,50,51,51,52,52,53,53,54,54,55,55,56,56,57,57,58,58,59,59,60,60,61,61,62,62],"right_children":[2,4,6,8,10,12,14,16,18,20,22,24,26,28,30,32,34,36,38,40,42,44,46,48,50,52,54,56,58,60,62,64,66,68,70,72,74,76,78,80,82,-1,-1,84,86,-1,88,90,92,94,96,98,100,102,104,106,108,110,112,114,116,118,120,-1,-1,-1,-1,-1,-1,-1,-1,-1,-1,-1,-1,-1,-1,-1,-1,-1,-1,-1,-1,-1,-1,-1,-1,-1,-1,-1,-1,-1,-1,-1,-1,-1,-1,-1,-1,-1,-1,-1,-1,-1,-1,-1,-1,-1,-1,-1,-1,-1,-1,-1,-1,-1,-1,-1,-1,-1,-1],"split_conditions":[2.9934277E-3,4.309491E-2,-8.8790506E-2,-5.5797916E-2,1.3911521E1,-9.210313E-2,9.15761E-2,9.663094E-20,6.0829177E-4,6.41701E-1,4.4273547E-4,-2.5192149E-2,-1.490666E-4,1.7829865E1,1.9661134E-1,2.5277939E-2,-1.0818837E-1,1.3940423E1,2.5989437E-1,-9.543448E-7,6.8600434E-3,1.2698553E-17,2.1564811E-2,-4.883638E-3,-9.557141E-2,-3.1315563E0,-1.5948167E-2,1.8311407E-4,6.1983377E-4,-1.3345615E-4,-2.736973E-3,-7.384075E-4,-1.022259E-1,2.8942944E-18,7.98598E0,-1.5841142E-3,9.432109E-5,7.98598E0,2.7608495E-2,3.6656797E-6,2.5892264E-4,1.28275035E-2,-1.6880035E-4,1.7899422E1,-3.3749747E-18,-2.4398716E-2,-6.071874E-1,2.2361564E-2,1.230954E-2,5.196183E-2,-1.8207887E-4,-6.242749E0,2.317758E-3,2.9141983E-2,3.0684045E-5,-8.8960834E-2,-3.7056368E-2,-4.957526E-2,-3.153795E-3,-4.519659E-2,4.2088464E-2,1.5140004E-2,4.754829E-2,9.7356085E-3,1.2850404E-2,8.580002E-3,-2.7969468E-3,1.1300973E-2,8.300974E-3,1.465329E-2,-2.9081134E-2,4.9978434E-3,-2.406394E-2,4.8673642E-4,1.3858884E-2,4.839396E-3,-3.121887E-2,4.743248E-3,-4.0693284E-4,2.0566941E-3,-2.7730105E-2,-2.3996446E-3,1.5567618E-2,2.728833E-3,6.3787648E-3,6.4606443E-3,7.1401396E-3,4.9711796E-3,4.284748E-3,-3.2842768E-4,7.290542E-4,-7.8499315E-6,3.1516857E-3,8.660636E-3,-8.5209607E-4,2.803099E-3,3.787217E-3,4.6927393E-3,7.255038E-3,4.7041415E-3,6.3615083E-3,6.4738765E-3,2.0624578E-3,-3.424621E-4,1.5069579E-3,2.719689E-3,-2.088166E-4,4.4900808E-3,2.3398434E-3,3.3407442E-3,7.197082E-5,3.0876303E-3,2.1251119E-3,5.5223345E-3,4.4324487E-3,1.3509994E-4,8.185141E-3,6.044093E-3,1.5742421E-3,4.6140472E-3,-4.8777947E-4],"split_indices":[17,43,30,46,0,33,33,39,13,21,35,46,28,2,13,43,44,3,7,44,5,21,37,4,32,15,4,29,31,28,24,27,44,33,0,6,47,0,1,45,28,0,0,3,8,0,20,7,7,19,28,12,41,22,35,32,4,4,24,46,1,37,5,0,0,0,0,0,0,0,0,0,0,0,0,0,0,0,0,0,0,0,0,0,0,0,0,0,0,0,0,0,0,0,0,0,0,0,0,0,0,0,0,0,0,0,0,0,0,0,0,0,0,0,0,0,0,0,0,0,0],"split_type":[0,0,0,0,0,0,0,0,0,0,0,0,0,0,0,0,0,0,0,0,0,0,0,0,0,0,0,0,0,0,0,0,0,0,0,0,0,0,0,0,0,0,0,0,0,0,0,0,0,0,0,0,0,0,0,0,0,0,0,0,0,0,0,0,0,0,0,0,0,0,0,0,0,0,0,0,0,0,0,0,0,0,0,0,0,0,0,0,0,0,0,0,0,0,0,0,0,0,0,0,0,0,0,0,0,0,0,0,0,0,0,0,0,0,0,0,0,0,0,0,0],"sum_hessian":[3.192E4,2.3038E4,8.882E3,2.028E4,2.758E3,8.74E2,8.008E3,3.71E2,1.9909E4,1.97E3,7.88E2,2.52E2,6.22E2,7.037E3,9.71E2,8.5E1,2.86E2,2.308E3,1.7601E4,1.956E3,1.4E1,2.61E2,5.27E2,2.5E1,2.27E2,2.38E2,3.84E2,6.232E3,8.05E2,3.28E2,6.43E2,4.3E1,4.2E1,2.6E1,2.6E2,1.645E3,6.63E2,1.7594E4,7E0,1.843E3,1.13E2,9E0,5E0,6.5E1,1.96E2,1.46E2,3.81E2,1.4E1,1.1E1,1.57E2,7E1,9.1E1,1.47E2,1.91E2,1.93E2,5.876E3,3.56E2,2.38E2,5.67E2,1.18E2,2.1E2,1.3E2,5.13E2,5E0,3.8E1,2.7E1,1.5E1,1.2E1,1.4E1,2E0,2.58E2,4E0,1.641E3,5.92E2,7.1E1,2.3E1,1.7571E4,6E0,1E0,8.6E1,1.757E3,8.7E1,2.6E1,5.5E1,1E1,1.7E2,2.6E1,4E1,3.41E2,1.3E1,1E0,1E0,1E1,1.56E2,1E0,8E0,6.2E1,6E0,8.5E1,1.15E2,3.2E1,1.52E2,3.9E1,6.5E1,1.28E2,8.18E2,5.058E3,1.51E2,2.05E2,1.8E1,2.2E2,4.2E2,1.47E2,4.8E1,7E1,1.9E2,2E1,1.11E2,1.9E1,4.86E2,2.7E1],"tree_param":{"num_deleted":"0","num_feature":"48","num_nodes":"121","size_leaf_vector":"1"}},{"base_weights":[-2.1772524E-2,-7.725164E-2,1.2212088E-1,-8.825997E-2,3.6969678E-3,4.1913825E-1,8.451684E-2,-3.3541307E-2,-9.674776E-2,-7.40741E-2,1.9797209E-1,6.909091E-1,3.264075E-1,5.0160747E-2,4.1920978E-1,-6.369457E-2,1.5157066E-1,-9.7201824E-2,6.363636E-1,-7.848751E-2,5.0666666E-1,2.7154338E-1,-7.559526E-2,3.833333E-1,7.705E-1,5.3155893E-1,2.1425617E-1,8.996751E-3,2.421219E-1,8.022727E-1,3.3466002E-1,2.594808E-2,-8.8015206E-2,-6.417325E-2,5.7519376E-1,-2.491859E-2,-9.981696E-2,8E-2,-6.6666687E-3,1.0804595E-1,-8.7119214E-2,8.1E-2,-8.333336E-3,4.098726E-1,1.3009706E-1,5.833333E-1,-9.938653E-3,2.9166644E-2,6.451613E-1,1.6249998E-1,7.9170984E-1,7.1229506E-1,3.725352E-1,4.2348483E-1,1.3541074E-1,-1.8039081E-2,1.5416214E-1,3.34897E-1,3.358972E-2,8.362903E-1,2.4444443E-1,4.3697454E-2,4.053608E-1,-7.7586235E-3,4.6354167E-2,-8.85513E-3,4.4999998E-2,-8.729511E-3,4.5454543E-2,6.508621E-2,-9.285717E-3,4.6710525E-2,-9.424863E-3,-9.987591E-3,-3.1250024E-3,6.9879494E-3,7.2E-2,-9.766783E-3,7.631577E-3,1.9753084E-2,4.8162393E-2,3.4394884E-3,2.2745095E-2,-5.0000013E-3,7.2E-2,-9.473687E-3,4.1666668E-2,7.5555556E-2,-8.000002E-3,-8.000002E-3,4.25E-2,8.390411E-2,6.3125E-2,1.8181816E-2,7.580357E-2,6.60606E-2,2.8272724E-2,2.7999997E-2,7.710526E-2,1.898496E-2,-3.0681842E-3,8.335265E-3,-7.191741E-3,1.2533781E-2,8.2368426E-2,2.5592988E-2,7.729323E-2,3.1685393E-2,-5.000002E-3,4.0999997E-2,8.66087E-2,5.1999997E-2,-8.000002E-3,-5.8585885E-3,5.238095E-2,4.3051947E-2,-9.583335E-3],"categories":[],"categories_nodes":[],"categories_segments":[],"categories_sizes":[],"default_left":[0,0,0,0,0,0,0,0,0,0,0,0,0,0,0,0,0,0,0,0,0,0,0,0,0,0,0,0,0,0,0,0,0,0,0,0,0,0,0,0,0,0,0,0,0,0,0,0,0,0,0,0,0,0,0,0,0,0,0,0,0,0,0,0,0,0,0,0,0,0,0,0,0,0,0,0,0,0,0,0,0,0,0,0,0,0,0,0,0,0,0,0,0,0,0,0,0,0,0,0,0,0,0,0,0,0,0,0,0,0,0,0,0,0,0,0,0],"id":5,"left_children":[1,3,5,7,9,11,13,15,17,19,21,23,25,27,29,31,33,35,37,39,41,43,45,47,49,51,53,55,57,59,61,63,65,67,69,71,73,-1,-1,75,77,-1,-1,79,81,83,-1,85,87,89,91,93,95,97,99,101,103,105,107,109,111,113,115,-1,-1,-1,-1,-1,-1,-1,-1,-1,-1,-1,-1,-1,-1,-1,-1,-1,-1,-1,-1,-1,-1,-1,-1,-1,-1,-1,-1,-1,-1,-1,-1,-1,-1,-1,-1,-1,-1,-1,-1,-1,-1,-1,-1,-1,-1,-1,-1,-1,-1,-1,-1,-1,-1],"loss_changes":[2.5483731E2,2.0530594E1,9.9179276E1,9.416061E0,4.170035E1,2.4925583E1,9.065805E1,1.5219864E1,5.9062347E0,5.091528E0,1.5900497E1,5.89814E0,1.705008E1,5.6520042E1,2.3504211E1,5.1125956E0,3.4949463E1,3.3144379E0,1.318788E0,3.1603823E0,2.7519996E0,1.2116825E1,2.6916685E0,4.9886417E0,2.4504623E0,7.2936096E0,7.9270687E0,2.3122997E1,2.44235E1,2.3004074E0,1.2386765E1,2.2734245E1,5.7170296E-1,3.0860891E0,6.581421E0,2.0988813E1,6.530762E-2,0E0,0E0,1.9816688E0,3.2330809E0,0E0,0E0,4.6889076E0,2.8711238E0,5.553334E-1,0E0,1.1917764E0,2.5421066E0,5.4325E-1,9.3614197E-1,2.8224335E0,3.4869175E0,6.3670387E0,3.1976123E0,2.7139805E1,1.7747892E1,3.0034164E1,9.250256E0,1.2199478E0,8.462223E-1,5.874476E0,6.156807E0,0E0,0E0,0E0,0E0,0E0,0E0,0E0,0E0,0E0,0E0,0E0,0E0,0E0,0E0,0E0,0E0,0E0,0E0,0E0,0E0,0E0,0E0,0E0,0E0,0E0,0E0,0E0,0E0,0E0,0E0,0E0,0E0,0E0,0E0,0E0,0E0,0E0,0E0,0E0,0E0,0E0,0E0,0E0,0E0,0E0,0E0,0E0,0E0,0E0,0E0,0E0,0E0,0E0,0E0],"parents":[2147483647,0,0,1,1,2,2,3,3,4,4,5,5,6,6,7,7,8,8,9,9,10,10,11,11,12,12,13,13,14,14,15,15,16,16,17,17,18,18,19,19,20,20,21,21,22,22,23,23,24,24,25,25,26,26,27,27,28,28,29,29,30,30,31,31,32,32,33,33,34,34,35,35,36,36,39,39,40,40,43,43,44,44,45,45,47,47,48,48,49,49,50,50,51,51,52,52,53,53,54,54,55,55,56,56,57,57,58,58,59,59,60,60,61,61,62,62],"right_children":[2,4,6,8,10,12,14,16,18,20,22,24,26,28,30,32,34,36,38,40,42,44,46,48,50,52,54,56,58,60,62,64,66,68,70,72,74,-1,-1,76,78,-1,-1,80,82,84,-1,86,88,90,92,94,96,98,100,102,104,106,108,110,112,114,116,-1,-1,-1,-1,-1,-1,-1,-1,-1,-1,-1,-1,-1,-1,-1,-1,-1,-1,-1,-1,-1,-1,-1,-1,-1,-1,-1,-1,-1,-1,-1,-1,-1,-1,-1,-1,-1,-1,-1,-1,-1,-1,-1,-1,-1,-1,-1,-1,-1,-1,-1,-1,-1,-1],"split_conditions":[2.9934277E-3,4.309491E-2,-8.800303E-2,1.1152959E-3,1.3911521E1,-9.210313E-2,9.2535734E-2,1.4370386E-3,7.7985483E-3,6.41701E-1,1.2827389E-2,-3.7282377E-2,-1.490666E-4,1.7836843E1,-6.8978286E-1,4.89864E-23,1.3674604E1,-3.7760545E-2,2.7608495E-2,3.6656797E-6,6.8600434E-3,4.6161894E-2,-6.071874E-1,9.836967E-3,8.8781643E-10,-2.6466572E0,-4.39244E-2,8.301507E-2,2.2426529E-2,6.9666095E-2,1.6716188E-1,1.393729E1,4.319527E-3,5.563744E-2,1.80496E1,1.943905E-32,1.4303833E-1,4.2689266E-3,-3.6624074E-4,-9.0713025E-4,-9.543448E-7,1.1544752E-2,-1.5192032E-4,1.2698553E-17,4.1831476E-3,-1.3651967E-1,-1.1572312E-2,2.5654765E-2,-1.4484982E-3,-1.2165067E-3,1.0557022E0,-5.607989E0,-9.838067E-2,4.1134173E-1,1.3588244E-2,-8.429032E-2,1.5193463E-2,4.261952E-2,1.4195415E-1,1.253401E-4,-1.0375985E-2,-3.7282377E-2,4.32533E-2,-2.2177724E-2,9.217227E-3,-2.5180925E-2,1.6247511E-3,-1.6845664E-2,4.4980585E-3,1.1359897E-2,-3.647207E-2,1.1444676E-2,-2.905855E-2,-2.8082773E-2,1.0508898E-4,1.5493274E-3,5.6045176E-3,-2.4957094E-2,5.648998E-3,3.792675E-3,5.833914E-3,1.1513593E-3,4.349134E-3,-3.7081481E-3,5.4964065E-3,-6.6077732E-6,1.5185655E-3,3.2330863E-3,-2.0025372E-4,-5.477488E-4,9.692574E-3,7.797364E-3,3.7353837E-3,5.0209723E-3,4.979058E-3,5.4020686E-3,4.2337296E-3,5.417322E-3,8.870296E-3,1.6071892E-3,-1.2024523E-4,1.2980746E-3,-1.2806352E-3,1.6617548E-3,2.3594105E-3,2.0703971E-3,4.43848E-3,1.8814426E-3,-3.5100104E-4,5.80287E-3,5.0888266E-3,4.22039E-3,-7.485688E-4,-3.2044738E-4,7.2377394E-3,4.2058504E-3,-1.2152415E-3],"split_indices":[17,43,30,13,0,33,33,43,11,21,23,44,28,0,6,47,0,46,1,45,5,13,20,22,47,15,4,30,4,19,13,2,45,1,0,45,45,0,0,4,44,0,0,21,23,4,0,5,27,4,8,15,32,6,4,32,11,5,13,31,4,44,5,0,0,0,0,0,0,0,0,0,0,0,0,0,0,0,0,0,0,0,0,0,0,0,0,0,0,0,0,0,0,0,0,0,0,0,0,0,0,0,0,0,0,0,0,0,0,0,0,0,0,0,0,0,0],"split_type":[0,0,0,0,0,0,0,0,0,0,0,0,0,0,0,0,0,0,0,0,0,0,0,0,0,0,0,0,0,0,0,0,0,0,0,0,0,0,0,0,0,0,0,0,0,0,0,0,0,0,0,0,0,0,0,0,0,0,0,0,0,0,0,0,0,0,0,0,0,0,0,0,0,0,0,0,0,0,0,0,0,0,0,0,0,0,0,0,0,0,0,0,0,0,0,0,0,0,0,0,0,0,0,0,0,0,0,0,0,0,0,0,0,0,0,0,0],"sum_hessian":[3.192E4,2.3038E4,8.882E3,2.028E4,2.758E3,9.97E2,7.885E3,2.724E3,1.7556E4,1.97E3,7.88E2,2.52E2,7.45E2,7.152E3,7.33E2,2.343E3,3.81E2,1.7546E4,1E1,1.956E3,1.4E1,6.21E2,1.67E2,5.3E1,1.99E2,2.62E2,4.83E2,5.89E3,1.262E3,1.31E2,6.02E2,5E2,1.843E3,2.53E2,1.28E2,6.13E2,1.6933E4,8E0,2E0,8.6E1,1.87E3,9E0,5E0,3.13E2,3.08E2,5E0,1.62E2,2.3E1,3E1,7E0,1.92E2,1.21E2,1.41E2,1.31E2,3.52E2,4.966E3,9.24E2,8.73E2,3.89E2,1.23E2,8E0,1.18E2,4.84E2,4.05E2,9.5E1,1.842E3,1E0,2.43E2,1E1,1.15E2,1.3E1,7.5E1,5.38E2,1.6918E4,1.5E1,8.2E1,4E0,1.757E3,1.13E2,8E1,2.33E2,1.56E2,1.52E2,1E0,4E0,1.8E1,5E0,2.6E1,4E0,4E0,3E0,1.45E2,4.7E1,1E1,1.11E2,3.2E1,1.09E2,9.4E1,3.7E1,2.65E2,8.7E1,1.723E3,3.243E3,8.87E2,3.7E1,7.41E2,1.32E2,8.8E1,3.01E2,9E0,1.14E2,4E0,4E0,9.8E1,2E1,4.61E2,2.3E1],"tree_param":{"num_deleted":"0","num_feature":"48","num_nodes":"117","size_leaf_vector":"1"}},{"base_weights":[-2.7787374E-2,-7.798952E-2,1.0242033E-1,-8.761292E-2,3.0662068E-3,3.869714E-1,7.1319744E-2,-3.3760082E-2,-9.585132E-2,-7.058149E-2,1.8323942E-1,6.400826E-1,2.897476E-1,4.329505E-2,4.1421485E-1,-6.39829E-2,1.4274998E-1,-9.6296735E-2,5.230769E-1,-7.55659E-2,5.0666666E-1,3.5326084E-1,7.494251E-2,7.4179894E-1,2.722222E-1,8.296296E-1,2.6529604E-1,1.5871549E-2,2.687422E-1,8.2685184E-1,3.2389554E-1,3.0238703E-2,-8.208272E-2,-5.2734397E-2,4.868965E-1,2.0249997E-1,-9.696241E-2,8E-2,-8.000002E-3,-8.571431E-2,7.850465E-2,8.1E-2,-8.333336E-3,1.5131576E-1,4.2786068E-1,-1.2830213E-2,2.1052629E-1,8.2992125E-1,5.523809E-1,4.3055552E-1,-4.2105287E-2,2.6666665E-1,8.6399995E-2,6.577777E-1,2.3351061E-1,-2.4061978E-2,1.0648513E-1,3.6554173E-1,4.149375E-2,8.438095E-1,1.7499998E-1,5.984846E-2,4.1798362E-1,-6.4649708E-3,4.9531247E-2,-3.2142883E-3,-8.940283E-3,-7.520328E-3,4.5454543E-2,5.753968E-2,-9.5000025E-3,7.941174E-3,7.714286E-2,-9.724191E-3,4.6666663E-2,8.8749975E-3,-9.473345E-3,-3.703706E-3,4.222222E-2,5.7812477E-3,6E-2,6.229508E-2,3.4042552E-2,1.4838708E-2,-9.942199E-3,8.854165E-3,3.618421E-2,2.6666665E-2,8.368E-2,6.160714E-2,3.749998E-3,5.576923E-2,9.090907E-3,-9.444447E-3,4.4999998E-2,4.4999998E-2,-5.0000013E-3,7.525E-2,-8.333336E-3,2.0207545E-2,7.0285715E-2,-4.3157665E-3,1.5189308E-2,3.7004307E-2,2.7874094E-3,2.4441859E-2,7.514925E-2,2.1216214E-2,-3.3928596E-3,8.528846E-2,-5.0000013E-3,4.4999998E-2,-6.6666687E-3,6.504042E-4,7.1E-2,4.972868E-2,2.281818E-2],"categories":[],"categories_nodes":[],"categories_segments":[],"categories_sizes":[],"default_left":[0,0,0,0,0,0,0,0,0,0,0,0,0,0,0,0,0,0,0,0,0,0,0,0,0,0,0,0,0,0,0,0,0,0,0,0,0,0,0,0,0,0,0,0,0,0,0,0,0,0,0,0,0,0,0,0,0,0,0,0,0,0,0,0,0,0,0,0,0,0,0,0,0,0,0,0,0,0,0,0,0,0,0,0,0,0,0,0,0,0,0,0,0,0,0,0,0,0,0,0,0,0,0,0,0,0,0,0,0,0,0,0,0,0,0,0,0],"id":6,"left_children":[1,3,5,7,9,11,13,15,17,19,21,23,25,27,29,31,33,35,37,39,41,43,45,47,49,51,53,55,57,59,61,63,65,67,69,71,73,-1,-1,75,77,-1,-1,79,81,83,85,87,89,91,93,95,-1,97,99,101,103,105,107,109,111,113,115,-1,-1,-1,-1,-1,-1,-1,-1,-1,-1,-1,-1,-1,-1,-1,-1,-1,-1,-1,-1,-1,-1,-1,-1,-1,-1,-1,-1,-1,-1,-1,-1,-1,-1,-1,-1,-1,-1,-1,-1,-1,-1,-1,-1,-1,-1,-1,-1,-1,-1,-1,-1,-1,-1],"loss_changes":[2.0866617E2,1.797142E1,7.8584335E1,9.13353E0,3.246974E1,2.1346924E1,7.694479E1,1.4594012E1,4.974304E0,5.0360556E0,1.304661E1,8.853073E0,8.149319E0,4.577751E1,2.2279984E1,3.9845781E0,2.6935785E1,3.5697784E0,2.235077E0,2.7007627E0,2.7519996E0,4.093216E0,5.1794443E0,2.6963425E0,2.7056284E0,2.9203033E-1,7.4313164E0,2.3895649E1,1.7648857E1,1.0461502E0,1.2347137E1,1.6669073E1,7.1326923E-1,2.9520733E0,7.5218735E0,2.7398758E0,2.8511047E0,0E0,0E0,2.552784E0,4.265005E0,0E0,0E0,3.1537752E0,3.2165337E0,3.7141774E0,3.1243134E0,2.6891327E-1,2.0428543E0,1.5038371E0,5.318713E-1,1.9666666E-1,0E0,3.221695E0,8.179218E0,1.5408714E1,4.184118E1,2.6135208E1,3.109401E0,8.943405E-1,2.9583335E-1,4.5734E0,5.410576E0,0E0,0E0,0E0,0E0,0E0,0E0,0E0,0E0,0E0,0E0,0E0,0E0,0E0,0E0,0E0,0E0,0E0,0E0,0E0,0E0,0E0,0E0,0E0,0E0,0E0,0E0,0E0,0E0,0E0,0E0,0E0,0E0,0E0,0E0,0E0,0E0,0E0,0E0,0E0,0E0,0E0,0E0,0E0,0E0,0E0,0E0,0E0,0E0,0E0,0E0,0E0,0E0,0E0,0E0],"parents":[2147483647,0,0,1,1,2,2,3,3,4,4,5,5,6,6,7,7,8,8,9,9,10,10,11,11,12,12,13,13,14,14,15,15,16,16,17,17,18,18,19,19,20,20,21,21,22,22,23,23,24,24,25,25,26,26,27,27,28,28,29,29,30,30,31,31,32,32,33,33,34,34,35,35,36,36,39,39,40,40,43,43,44,44,45,45,46,46,47,47,48,48,49,49,50,50,51,51,53,53,54,54,55,55,56,56,57,57,58,58,59,59,60,60,61,61,62,62],"right_children":[2,4,6,8,10,12,14,16,18,20,22,24,26,28,30,32,34,36,38,40,42,44,46,48,50,52,54,56,58,60,62,64,66,68,70,72,74,-1,-1,76,78,-1,-1,80,82,84,86,88,90,92,94,96,-1,98,100,102,104,106,108,110,112,114,116,-1,-1,-1,-1,-1,-1,-1,-1,-1,-1,-1,-1,-1,-1,-1,-1,-1,-1,-1,-1,-1,-1,-1,-1,-1,-1,-1,-1,-1,-1,-1,-1,-1,-1,-1,-1,-1,-1,-1,-1,-1,-1,-1,-1,-1,-1,-1,-1,-1,-1,-1,-1,-1,-1],"split_conditions":[2.9934277E-3,4.910341E-2,-8.8790506E-2,1.1152959E-3,1.3911521E1,-2.9510253E-3,9.3329E-2,1.2339082E-3,7.7985483E-3,6.41701E-1,5.020689E-4,-4.2181486E-1,1.2127097E-3,1.7855276E1,2.4541037E-4,3.1130565E-23,1.3674604E1,-1.1644277E-1,2.7608495E-2,-3.118998E-3,6.8600434E-3,1.2698553E-17,3.5795115E-2,1.0252208E0,6.212927E-3,1.2591153E-5,-6.9616863E-4,2.3740271E-2,2.2426529E-2,3.2010134E-2,1.7381611E-1,1.393729E1,7.092876E-19,5.563744E-2,1.80496E1,6.603414E-4,1.5165596E-1,3.842032E-3,-3.296137E-4,3.6656797E-6,2.5892264E-4,1.0390275E-2,-1.367271E-4,1.5919127E1,3.1243434E-2,5.7519705E-4,5.830387E-4,8.8781643E-10,1.7195683E-2,3.5874255E-2,2.664665E-2,2.1114098E-2,9.313825E-3,1.3865825E1,-4.356343E-1,8.862473E-2,-1.7912732E-3,4.0703073E-2,1.4195415E-1,3.6098476E-2,5.2975286E-3,2.6254453E-2,1.3833845E-1,-1.849757E-2,7.926802E-3,-4.466132E-3,-2.5927916E-2,-1.5278644E-2,4.048252E-3,1.0121568E-2,-3.996351E-2,3.0851902E-3,5.857891E-3,-2.510688E-2,7.13799E-3,1.394397E-3,-2.2282619E-2,-2.055259E-3,1.3445961E-2,2.619579E-3,5.958363E-3,5.195565E-3,5.0768186E-3,4.1025137E-3,-6.3013746E-3,1.8879243E-3,5.2087503E-3,8.723319E-3,7.0156963E-3,3.1804608E-3,2.9370429E-3,3.777463E-3,3.2329434E-4,-8.438791E-4,3.5999657E-3,4.3653133E-3,-4.1568876E-4,5.3021307E-3,-1.0037065E-3,1.9774435E-3,6.7038E-3,-3.3981088E-4,9.834663E-4,4.425175E-3,9.234815E-4,2.1820783E-3,3.641175E-3,1.0445975E-3,-2.6988177E-4,4.817297E-3,-6.377697E-5,2.907735E-3,-7.456422E-4,5.885809E-4,4.3361126E-3,4.1132807E-3,3.7834705E-3],"split_indices":[17,43,30,13,0,26,33,43,11,21,35,21,37,0,41,47,0,46,1,44,5,21,37,6,45,37,28,1,4,46,13,2,13,1,0,4,46,0,0,45,28,0,0,0,9,35,35,47,23,22,1,1,0,0,21,33,27,5,13,4,19,23,38,0,0,0,0,0,0,0,0,0,0,0,0,0,0,0,0,0,0,0,0,0,0,0,0,0,0,0,0,0,0,0,0,0,0,0,0,0,0,0,0,0,0,0,0,0,0,0,0,0,0,0,0,0,0],"split_type":[0,0,0,0,0,0,0,0,0,0,0,0,0,0,0,0,0,0,0,0,0,0,0,0,0,0,0,0,0,0,0,0,0,0,0,0,0,0,0,0,0,0,0,0,0,0,0,0,0,0,0,0,0,0,0,0,0,0,0,0,0,0,0,0,0,0,0,0,0,0,0,0,0,0,0,0,0,0,0,0,0,0,0,0,0,0,0,0,0,0,0,0,0,0,0,0,0,0,0,0,0,0,0,0,0,0,0,0,0,0,0,0,0,0,0,0,0],"sum_hessian":[3.192E4,2.3038E4,8.882E3,2.0593E4,2.445E3,8.74E2,8.008E3,2.733E3,1.786E4,1.736E3,7.09E2,2.41E2,6.33E2,7.404E3,6.04E2,2.334E3,3.99E2,1.7848E4,1.2E1,1.722E3,1.4E1,2.75E2,4.34E2,1.88E2,5.3E1,2.6E1,6.07E2,6.602E3,8.02E2,1.07E2,4.97E2,3.76E2,1.958E3,2.55E2,1.44E2,3.9E1,1.7809E4,8E0,4E0,1.616E3,1.06E2,9E0,5E0,7.5E1,2E2,2.64E2,1.7E2,1.26E2,6.2E1,3.5E1,1.8E1,2E0,2.4E1,4.4E1,5.63E2,4.583E3,2.019E3,5.62E2,2.4E2,1.04E2,3E0,1.31E2,3.66E2,3.13E2,6.3E1,2.51E2,1.707E3,2.45E2,1E1,1.25E2,1.9E1,3.3E1,6E0,1.7801E4,8E0,7.9E1,1.537E3,8E1,2.6E1,6.3E1,1.2E1,6E1,1.4E2,9.2E1,1.72E2,9.5E1,7.5E1,2E0,1.24E2,5.5E1,7E0,2.5E1,1E1,1.7E1,1E0,1E0,1E0,3.9E1,5E0,5.29E2,3.4E1,4.135E3,4.48E2,4.63E2,1.556E3,4.29E2,1.33E2,7.3E1,1.67E2,1.03E2,1E0,1E0,2E0,1.22E2,9E0,2.57E2,1.09E2],"tree_param":{"num_deleted":"0","num_feature":"48","num_nodes":"117","size_leaf_vector":"1"}},{"base_weights":[-3.0888781E-2,-7.8032926E-2,9.1388024E-2,-9.753148E-3,-8.93669E-2,3.1261507E-1,6.0566787E-2,1.7671031E-1,-5.9113704E-2,-9.357496E-2,9.348312E-2,6.396135E-1,2.3534088E-1,3.6898002E-2,3.711956E-1,9.946138E-2,5.038168E-1,-8.4147535E-2,4.3897614E-2,5.1304346E-1,-9.429329E-2,3.1826085E-1,1.5105716E-2,-8.888892E-3,6.693467E-1,2.765847E-1,-6.2037062E-2,1.2239915E-2,2.817496E-1,7.9907405E-1,2.6651683E-1,-6.52672E-2,2.4493241E-1,2.637681E-1,7.587301E-1,-9.399353E-2,-8.298779E-3,5.333333E-1,-1.7920379E-2,-8.57143E-3,7.294117E-1,-9.760211E-2,3.3950593E-2,1.4310342E-1,4.87931E-1,-1.230793E-3,7.714286E-2,4.621212E-1,7.6641786E-1,3.5684004E-1,1.1215684E-1,-9.900003E-3,3.5555553E-1,-4.095069E-3,1.6088955E-1,5.724026E-1,2.9494358E-2,8.31E-1,3.5555553E-1,4.4633025E-1,9.342103E-2,-8.333336E-3,1.9999998E-2,1.0559004E-2,4.0808823E-2,1.4310342E-2,8.25E-2,8.140351E-2,1.9999998E-2,-7.4792267E-3,-9.858874E-3,-3.0000024E-3,4.083333E-2,8.1212126E-2,1.4399998E-2,1.8701298E-2,-5.984045E-3,8.4E-2,-6.6666687E-3,7.272727E-2,-9.807961E-3,-7.3490837E-3,4.198113E-2,4.64E-2,-9.705885E-3,5.714284E-3,5.3653844E-2,-9.299366E-3,8.402365E-3,3.033333E-2,5.783784E-2,5.9487175E-2,8.28125E-2,-5.714288E-3,3.9915074E-2,-5.866669E-3,1.8232042E-2,7.2E-2,-8.000002E-3,1.5374797E-2,-2.2739286E-3,5.447447E-4,2.6136363E-2,-2.3506057E-9,7.407563E-2,-4.754604E-3,8.387097E-2,8.40404E-2,-5.0000013E-3,6.7499995E-2,8.333332E-3,6.432989E-2,2.8606554E-2,-7.102806E-3,2.3688523E-2],"categories":[],"categories_nodes":[],"categories_segments":[],"categories_sizes":[],"default_left":[0,0,0,0,0,0,0,0,0,0,0,0,0,0,0,0,0,0,0,0,0,0,0,0,0,0,0,0,0,0,0,0,0,0,0,0,0,0,0,0,0,0,0,0,0,0,0,0,0,0,0,0,0,0,0,0,0,0,0,0,0,0,0,0,0,0,0,0,0,0,0,0,0,0,0,0,0,0,0,0,0,0,0,0,0,0,0,0,0,0,0,0,0,0,0,0,0,0,0,0,0,0,0,0,0,0,0,0,0,0,0,0,0,0,0],"id":7,"left_children":[1,3,5,7,9,11,13,15,17,19,21,23,25,27,29,31,33,35,37,39,41,43,45,-1,47,49,51,53,55,57,59,61,63,65,67,69,71,73,75,-1,77,79,81,83,85,87,-1,89,91,93,95,-1,97,99,101,103,105,107,109,111,113,-1,-1,-1,-1,-1,-1,-1,-1,-1,-1,-1,-1,-1,-1,-1,-1,-1,-1,-1,-1,-1,-1,-1,-1,-1,-1,-1,-1,-1,-1,-1,-1,-1,-1,-1,-1,-1,-1,-1,-1,-1,-1,-1,-1,-1,-1,-1,-1,-1,-1,-1,-1,-1,-1],"loss_changes":[1.8402005E2,1.7828583E1,6.054972E1,3.0208574E1,1.52122345E1,2.7291107E1,5.731881E1,1.7309433E1,6.6955967E0,8.464859E0,7.834977E0,4.5432663E0,1.0810364E1,4.3750835E1,2.451101E1,1.336351E1,7.815975E0,1.5585527E0,1.537957E1,3.0422215E0,8.190033E0,3.3478594E0,4.0906773E0,0E0,3.6488342E0,1.0160656E1,1.7022297E0,1.5990287E1,4.8593437E1,1.2337799E0,1.3808908E1,1.2722647E0,6.686327E0,4.5546794E0,1.7839279E0,1.5568161E-1,2.191236E0,6.069916E0,3.894242E0,0E0,1.5526276E0,7.4793396E0,2.0179161E1,4.5149355E0,1.1838312E0,2.550351E0,0E0,1.0429344E0,9.258423E-1,9.113556E0,3.0670218E0,0E0,1.4862221E0,1.7466427E1,1.0181446E1,2.9680756E1,2.2233723E1,8.7052155E-1,7.263888E-1,6.697609E0,5.3959284E0,0E0,0E0,0E0,0E0,0E0,0E0,0E0,0E0,0E0,0E0,0E0,0E0,0E0,0E0,0E0,0E0,0E0,0E0,0E0,0E0,0E0,0E0,0E0,0E0,0E0,0E0,0E0,0E0,0E0,0E0,0E0,0E0,0E0,0E0,0E0,0E0,0E0,0E0,0E0,0E0,0E0,0E0,0E0,0E0,0E0,0E0,0E0,0E0,0E0,0E0,0E0,0E0,0E0,0E0],"parents":[2147483647,0,0,1,1,2,2,3,3,4,4,5,5,6,6,7,7,8,8,9,9,10,10,11,11,12,12,13,13,14,14,15,15,16,16,17,17,18,18,19,19,20,20,21,21,22,22,24,24,25,25,26,26,27,27,28,28,29,29,30,30,31,31,32,32,33,33,34,34,35,35,36,36,37,37,38,38,40,40,41,41,42,42,43,43,44,44,45,45,47,47,48,48,49,49,50,50,52,52,53,53,54,54,55,55,56,56,57,57,58,58,59,59,60,60],"right_children":[2,4,6,8,10,12,14,16,18,20,22,24,26,28,30,32,34,36,38,40,42,44,46,-1,48,50,52,54,56,58,60,62,64,66,68,70,72,74,76,-1,78,80,82,84,86,88,-1,90,92,94,96,-1,98,100,102,104,106,108,110,112,114,-1,-1,-1,-1,-1,-1,-1,-1,-1,-1,-1,-1,-1,-1,-1,-1,-1,-1,-1,-1,-1,-1,-1,-1,-1,-1,-1,-1,-1,-1,-1,-1,-1,-1,-1,-1,-1,-1,-1,-1,-1,-1,-1,-1,-1,-1,-1,-1,-1,-1,-1,-1,-1,-1],"split_conditions":[2.9934277E-3,3.6656797E-6,-9.261148E-2,-1.8433979E-2,3.9081436E-1,-4.46336E-1,9.3329E-2,9.4323176E-1,1.3940423E1,2.1037076E-6,1.1293853E-3,-5.0049114E-1,5.9744543E-3,4.261952E-2,2.4541037E-4,1.1953211E1,8.90533E-5,6.397158E-20,9.83862E-22,9.968543E0,1.0509556E-1,5.6888465E-2,6.689309E-1,-3.4896733E-4,1.3361269E-4,-9.557141E-2,-1.8146218E-1,1.7829865E1,-2.8104825E-2,-2.3023922E-3,-2.0282483E-4,5.3445075E-4,1.2698553E-17,9.968224E0,-2.7586542E-2,7.5777215E-19,6.511058E-2,1.4614813E-18,-1.2997733E-19,-3.7100624E-2,-3.114244E-18,-1.0857448E-1,2.8854725E-1,1.8464016E-2,-2.696027E-18,6.8828814E-2,9.351248E-3,-1.0872706E-2,-5.8819923E0,1.4398079E-1,6.4581344E-3,-1.0033787E-3,-1.7679743E-1,-8.8960834E-2,4.057656E-3,1.3823761E1,9.680775E-3,3.6098476E-2,-1.5195476E-2,4.1309996E-3,6.3594006E-2,-7.90708E-3,1.0104359E-3,2.7824738E-3,5.6119044E-3,3.562107E-3,1.439471E-2,1.4697707E-2,7.09998E-3,-1.8100701E-2,-2.4695091E-2,-6.1030923E-3,1.620889E-2,1.1651649E-2,5.8079506E-3,5.244504E-3,-1.1187437E-2,1.2488418E-2,-2.9254556E-4,9.942193E-3,-2.2418533E-2,-9.189047E-3,5.8248746E-3,8.499321E-3,-2.3506598E-3,2.188623E-3,1.3878767E-2,-1.2046963E-2,2.4602185E-3,2.643341E-3,3.1550229E-3,7.360775E-3,7.4710804E-3,-1.290083E-4,3.9679194E-3,-1.6065539E-4,1.8176098E-3,4.927415E-3,-7.458866E-4,1.4590196E-3,-2.0143877E-4,4.1249983E-5,1.783967E-3,7.655776E-5,3.1529877E-3,-3.0901792E-4,2.031218E-3,4.432125E-3,-5.7399273E-5,2.9410005E-3,3.481263E-3,5.2605155E-3,3.404503E-3,-8.561222E-4,2.6771904E-3],"split_indices":[17,45,32,46,22,39,33,14,3,13,17,8,47,5,41,2,25,42,43,0,46,34,21,0,35,32,8,2,4,26,28,35,21,0,44,31,1,6,36,0,8,38,12,13,32,33,0,4,15,13,43,0,8,32,43,2,11,4,22,42,36,0,0,0,0,0,0,0,0,0,0,0,0,0,0,0,0,0,0,0,0,0,0,0,0,0,0,0,0,0,0,0,0,0,0,0,0,0,0,0,0,0,0,0,0,0,0,0,0,0,0,0,0,0,0],"split_type":[0,0,0,0,0,0,0,0,0,0,0,0,0,0,0,0,0,0,0,0,0,0,0,0,0,0,0,0,0,0,0,0,0,0,0,0,0,0,0,0,0,0,0,0,0,0,0,0,0,0,0,0,0,0,0,0,0,0,0,0,0,0,0,0,0,0,0,0,0,0,0,0,0,0,0,0,0,0,0,0,0,0,0,0,0,0,0,0,0,0,0,0,0,0,0,0,0,0,0,0,0,0,0,0,0,0,0,0,0,0,0,0,0,0,0],"sum_hessian":[3.192E4,2.3038E4,8.882E3,3.28E3,1.9758E4,1.085E3,7.797E3,6.86E2,2.594E3,1.9314E4,4.44E2,2.06E2,8.79E2,7.246E3,5.51E2,5.56E2,1.3E2,2.087E3,5.07E2,2.2E1,1.9292E4,1.14E2,3.3E2,8E0,1.98E2,7.72E2,1.07E2,6.584E3,6.62E2,1.07E2,4.44E2,2.61E2,2.95E2,6.8E1,6.2E1,1.847E3,2.4E2,5.6E1,4.51E2,6E0,1.6E1,1.8807E4,4.85E2,5.7E1,5.7E1,3.24E2,6E0,6.5E1,1.33E2,5.18E2,2.54E2,9.9E1,8E0,5.933E3,6.51E2,3.07E2,3.55E2,9.9E1,8E0,2.17E2,2.27E2,2.45E2,1.6E1,1.6E2,1.35E2,5.7E1,1.1E1,5.6E1,6E0,3.6E2,1.487E3,2.29E2,1.1E1,3.2E1,2.4E1,7.6E1,3.75E2,1.4E1,2E0,1E1,1.8797E4,3.8E2,1.05E2,2.4E1,3.3E1,6E0,5.1E1,1.56E2,1.68E2,2.9E1,3.6E1,3.8E1,9.5E1,4.8E1,4.7E2,7.4E1,1.8E2,4E0,4E0,6.26E2,5.307E3,2.56E2,3.95E2,7E1,2.37E2,3.25E2,3E1,9.8E1,1E0,3E0,5E0,9.6E1,1.21E2,1.06E2,1.21E2],"tree_param":{"num_deleted":"0","num_feature":"48","num_nodes":"115","size_leaf_vector":"1"}},{"base_weights":[-3.4522753E-2,-7.8793325E-2,7.823331E-2,-1.3251932E-2,-8.971399E-2,6.1195936E-2,3.746421E-1,1.5224087E-1,-5.9367705E-2,-9.689051E-2,1.2830459E-2,2.6477373E-1,3.0124536E-2,7.7340424E-1,2.7904037E-1,2.6238316E-1,-1.2543578E-2,-8.2543544E-2,3.7575733E-2,2.3999998E-1,-9.808189E-2,-5.3320143E-2,2.5287768E-1,5.193069E-1,2.0896326E-1,1.0947283E-2,2.7518654E-1,8.081395E-1,3.5555553E-1,1.7147885E-1,5.4690266E-1,1.7757007E-1,5.1203704E-1,1.5099998E-1,-9.946811E-3,-2.4561428E-2,-9.634733E-2,5.1186436E-1,-2.6544645E-2,-9.722224E-3,6.3666666E-1,-9.911754E-2,2.410714E-1,-6.178538E-2,5.9999996E-1,3.2175922E-1,1.269839E-2,5.58421E-1,-9.230772E-3,3.5809857E-1,1.4276825E-1,-4.2291973E-3,1.7320816E-1,5.624413E-1,8.54938E-2,8.188235E-1,-5.0000013E-3,6.7499995E-2,8.333331E-2,2.9720667E-1,-4.2452853E-2,6.40625E-1,1.6666643E-2,-9.767445E-3,2.1935482E-2,5.988372E-2,1.6521737E-2,9.213481E-3,5.75E-2,-4.493153E-3,1.8857142E-2,-9.69443E-3,4.4999998E-2,7.8857146E-2,1.0399998E-2,7.2E-2,-3.510395E-3,2.4444444E-2,7.681818E-2,2.6666665E-2,-9.917227E-3,6.9473684E-2,7.894714E-4,1.1157893E-2,-7.995573E-3,8.1E-2,-7.5000017E-3,4.4357143E-2,9.6103875E-3,6E-2,-1.6393466E-3,6.429687E-2,3.7777778E-2,2.5758926E-2,7.213115E-2,-5.1886817E-3,1.80855E-2,-2.364463E-3,1.3816486E-2,-1.6585389E-3,2.746073E-2,8.325758E-2,1.20731685E-2,1.1447788E-3,8.678571E-2,8.2976185E-2,-5.0000013E-3,4.4999998E-2,-8.000002E-3,4.9295772E-2,1.6697247E-2,2.8749997E-2,-6.86869E-3,7.763889E-2,2.2399997E-2,-9.375002E-3,6E-2],"categories":[],"categories_nodes":[],"categories_segments":[],"categories_sizes":[],"default_left":[0,0,0,0,0,0,0,0,0,0,0,0,0,0,0,0,0,0,0,0,0,0,0,0,0,0,0,0,0,0,0,0,0,0,0,0,0,0,0,0,0,0,0,0,0,0,0,0,0,0,0,0,0,0,0,0,0,0,0,0,0,0,0,0,0,0,0,0,0,0,0,0,0,0,0,0,0,0,0,0,0,0,0,0,0,0,0,0,0,0,0,0,0,0,0,0,0,0,0,0,0,0,0,0,0,0,0,0,0,0,0,0,0,0,0,0,0],"id":8,"left_children":[1,3,5,7,9,11,13,15,17,19,21,23,25,27,29,31,33,35,37,39,41,43,45,47,49,51,53,55,57,59,61,63,65,67,-1,69,71,73,75,-1,77,79,81,83,85,87,89,91,-1,93,95,97,99,101,103,105,-1,-1,107,109,111,113,115,-1,-1,-1,-1,-1,-1,-1,-1,-1,-1,-1,-1,-1,-1,-1,-1,-1,-1,-1,-1,-1,-1,-1,-1,-1,-1,-1,-1,-1,-1,-1,-1,-1,-1,-1,-1,-1,-1,-1,-1,-1,-1,-1,-1,-1,-1,-1,-1,-1,-1,-1,-1,-1,-1],"loss_changes":[1.5934863E2,1.6405365E1,4.5427326E1,2.5003277E1,1.4460434E1,5.3834225E1,1.8426018E1,1.2962202E1,5.759263E0,7.3937683E0,2.0434221E1,1.5901215E1,3.470835E1,1.0769844E0,1.1315638E1,8.971512E0,4.0949965E0,1.6528053E0,1.5067314E1,8.756611E0,6.4513702E0,5.6173563E0,4.595127E0,4.8839455E0,9.090355E0,1.6871655E1,2.915863E1,8.29422E-1,7.263888E-1,7.651413E0,5.6048546E0,3.713253E0,3.1522942E0,2.4429054E0,0E0,1.7407465E0,5.883026E-1,6.576666E0,2.8176622E0,0E0,1.3597174E0,3.9163208E-1,5.91843E0,3.1495607E0,1.9034996E0,5.8946857E0,1.0862348E0,2.658966E0,0E0,1.018198E1,4.7764416E0,1.7326517E1,1.1282068E1,2.5314857E1,1.8759674E1,8.4929276E-1,0E0,0E0,3.9533332E-1,4.481024E0,9.37283E-1,5.2560997E0,1.215625E0,0E0,0E0,0E0,0E0,0E0,0E0,0E0,0E0,0E0,0E0,0E0,0E0,0E0,0E0,0E0,0E0,0E0,0E0,0E0,0E0,0E0,0E0,0E0,0E0,0E0,0E0,0E0,0E0,0E0,0E0,0E0,0E0,0E0,0E0,0E0,0E0,0E0,0E0,0E0,0E0,0E0,0E0,0E0,0E0,0E0,0E0,0E0,0E0,0E0,0E0,0E0,0E0,0E0,0E0],"parents":[2147483647,0,0,1,1,2,2,3,3,4,4,5,5,6,6,7,7,8,8,9,9,10,10,11,11,12,12,13,13,14,14,15,15,16,16,17,17,18,18,19,19,20,20,21,21,22,22,23,23,24,24,25,25,26,26,27,27,28,28,29,29,30,30,31,31,32,32,33,33,35,35,36,36,37,37,38,38,40,40,41,41,42,42,43,43,44,44,45,45,46,46,47,47,49,49,50,50,51,51,52,52,53,53,54,54,55,55,58,58,59,59,60,60,61,61,62,62],"right_children":[2,4,6,8,10,12,14,16,18,20,22,24,26,28,30,32,34,36,38,40,42,44,46,48,50,52,54,56,58,60,62,64,66,68,-1,70,72,74,76,-1,78,80,82,84,86,88,90,92,-1,94,96,98,100,102,104,106,-1,-1,108,110,112,114,116,-1,-1,-1,-1,-1,-1,-1,-1,-1,-1,-1,-1,-1,-1,-1,-1,-1,-1,-1,-1,-1,-1,-1,-1,-1,-1,-1,-1,-1,-1,-1,-1,-1,-1,-1,-1,-1,-1,-1,-1,-1,-1,-1,-1,-1,-1,-1,-1,-1,-1,-1,-1,-1,-1],"split_conditions":[2.8416764E-3,3.6656797E-6,9.520375E-2,-1.3904359E-2,1.2693222E-1,-8.714097E-2,9.648176E-3,-8.4213685E-4,1.3938579E1,6.793181E-7,-1.3522594E-18,-5.996073E-1,4.32533E-2,-5.0049114E-1,4.274304E-2,-1.5707964E0,0E0,3.6634816E-18,9.83862E-22,1.1953095E1,6.128336E-1,6.689309E-1,1.09716214E-1,-2.1895752E0,-1.08461754E-4,1.7837458E1,-4.265023E-2,1.58505945E1,-1.5195476E-2,6.557232E-5,5.9744543E-3,1.1956502E1,4.6106984E-4,9.96791E0,-1.8648224E-2,1.1905009E-3,3.7746257E-1,1.4614813E-18,4.4909955E-4,-2.5865123E-2,-2.696027E-18,-6.4959E-1,4.0866647E-2,-1.5502956E-3,7.4014417E-3,-6.1173327E-18,1.9984667E-1,1.0252208E0,-2.0261705E-3,-5.455947E-1,6.923667E-5,8.862473E-2,1.0615049E-2,2.0494257E-4,1.33850165E-2,3.6098476E-2,-6.111014E-3,2.6468993E-3,-6.917657E-2,-2.3400846E-3,1.4861018E-2,-7.757969E-4,3.459252E-2,-1.8757189E-2,3.6387113E-3,1.1300431E-2,1.4158666E-2,2.0456673E-3,1.2100636E-2,-4.498208E-3,6.407078E-3,-2.2945251E-2,4.0280222E-4,9.7937705E-3,5.2271574E-3,3.250301E-3,-3.3858106E-3,2.2148013E-3,1.1706645E-2,2.0756244E-3,-2.0279637E-2,8.490746E-3,2.028439E-3,3.7987696E-3,-1.3159509E-2,8.416122E-3,-9.486902E-3,4.4390187E-3,4.698091E-3,2.180344E-3,-1.280631E-4,6.549172E-3,2.4240671E-3,3.3138928E-3,2.84799E-3,-1.3209587E-4,1.3417617E-3,-2.103754E-4,1.2925299E-3,-4.8559934E-5,2.0099974E-3,2.9837203E-3,1.5902327E-3,9.501515E-5,1.8279696E-3,4.155558E-3,-5.1659346E-5,3.133136E-3,-3.6597252E-5,3.434193E-3,3.2088377E-3,1.9024849E-3,-1.4718065E-4,6.231025E-3,2.4473907E-3,-7.7852013E-4,5.0643686E-4],"split_indices":[17,45,33,46,45,30,37,26,0,17,44,36,5,8,1,12,33,13,43,0,9,21,39,12,28,2,4,0,22,28,47,0,25,0,0,28,9,6,1,0,32,20,45,24,5,8,45,6,0,20,47,33,19,41,11,4,0,0,10,24,7,26,5,0,0,0,0,0,0,0,0,0,0,0,0,0,0,0,0,0,0,0,0,0,0,0,0,0,0,0,0,0,0,0,0,0,0,0,0,0,0,0,0,0,0,0,0,0,0,0,0,0,0,0,0,0,0],"split_type":[0,0,0,0,0,0,0,0,0,0,0,0,0,0,0,0,0,0,0,0,0,0,0,0,0,0,0,0,0,0,0,0,0,0,0,0,0,0,0,0,0,0,0,0,0,0,0,0,0,0,0,0,0,0,0,0,0,0,0,0,0,0,0,0,0,0,0,0,0,0,0,0,0,0,0,0,0,0,0,0,0,0,0,0,0,0,0,0,0,0,0,0,0,0,0,0,0,0,0,0,0,0,0,0,0,0,0,0,0,0,0,0,0,0,0,0,0],"sum_hessian":[3.192E4,2.2921E4,8.999E3,3.274E3,1.9647E4,8.511E3,4.88E2,7.13E2,2.561E3,1.8362E4,1.285E3,1.126E3,7.385E3,9.3E1,3.95E2,4.27E2,2.86E2,2.067E3,4.94E2,6.4E1,1.8298E4,1.008E3,2.77E2,2.01E2,9.25E2,6.85E3,5.35E2,8.5E1,8E0,2.83E2,1.12E2,3.2E2,1.07E2,9.9E1,1.87E2,3.98E2,1.669E3,5.8E1,4.36E2,3.5E1,2.9E1,1.8243E4,5.5E1,9.96E2,1.2E1,2.15E2,6.2E1,1.89E2,1.2E1,2.83E2,6.42E2,6.265E3,5.85E2,2.12E2,3.23E2,8.4E1,1E0,3E0,5E0,1.78E2,1.05E2,9.5E1,1.7E1,4.2E1,2.78E2,8.5E1,2.2E1,8.8E1,1.1E1,3.64E2,3.4E1,1.668E3,1E0,3.4E1,2.4E1,4E0,4.32E2,8E0,2.1E1,2E0,1.8241E4,1.8E1,3.7E1,9.4E1,9.02E2,9E0,3E0,1.39E2,7.6E1,2E0,6E1,1.27E2,6.2E1,2.23E2,6E1,1.05E2,5.37E2,5.514E3,7.51E2,2.04E2,3.81E2,1.31E2,8.1E1,2.96E2,2.7E1,8.3E1,1E0,1E0,4E0,7E1,1.08E2,7E0,9.8E1,7.1E1,2.4E1,1.5E1,2E0],"tree_param":{"num_deleted":"0","num_feature":"48","num_nodes":"117","size_leaf_vector":"1"}},{"base_weights":[-3.7655484E-2,-7.9622224E-2,6.923331E-2,-1.9664146E-2,-8.96122E-2,1.7723194E-1,2.6180834E-2,1.3509542E-1,-6.0269773E-2,-9.6672684E-2,1.1275249E-2,1.1767376E-1,5.358904E-1,-1.294046E-2,1.3792688E-1,7.622502E-2,3.8167936E-1,-7.404933E-2,1.0246303E-1,2.3999998E-1,-9.7863294E-2,-7.006883E-2,1.8216865E-1,8.306238E-2,3.4101692E-1,4.642855E-2,5.7485205E-1,1.2457384E-1,-3.675279E-2,1.15675315E-1,7.767857E-1,-6.884618E-2,2.0513697E-1,3.4782585E-2,4.513761E-1,-3.9598014E-2,-9.849895E-2,4.45614E-1,-3.129254E-2,-9.722224E-3,6.3666666E-1,4.611111E-1,-9.84083E-2,-7.779072E-2,4.4615382E-1,4.3367323E-2,3.0499998E-1,4.3377202E-2,1.6596432E-1,6.7310345E-1,1.9867526E-2,-5.416669E-2,5.2E-1,6.456274E-1,3.2236838E-1,8.4E-2,1.08840555E-1,-7.706301E-2,7.2379194E-2,-2.518659E-2,1.8554215E-1,3.2E-1,8.057692E-1,1.4482756E-2,-9.525864E-3,7.898088E-3,3.492647E-2,2.0999998E-2,-9.285717E-3,5.5555552E-2,1.4482756E-2,4.9117647E-2,-5.8316034E-3,-9.992766E-3,1.6666644E-3,5.6888886E-2,-1.5384638E-3,6E-2,-4.4137957E-3,2.4444444E-2,7.681818E-2,7.272727E-2,3.749998E-3,-9.8789735E-3,2.0869564E-2,6E-2,-8.006996E-3,6.0999997E-2,-7.5000017E-3,7.2E-2,2.552081E-3,4.9824562E-2,2.3597559E-2,1.8347802E-3,2.4577463E-2,-9.478697E-4,2.5651103E-2,7.428571E-2,-9.230772E-3,5.8333334E-2,-3.4246812E-4,4.4999998E-2,-9.56522E-3,-5.0000013E-3,6.7499995E-2,3.2692306E-2,6.777311E-2,3.7777778E-2,4.999998E-3,8.954543E-3,5.1612902E-2,-1.4053279E-3,-9.559724E-3,5.8636364E-2,6.1802953E-3,-5.2182563E-3,3.878788E-2,1.6234389E-2,8E-2,6E-2,-6.6666687E-3,8.22E-2,2.6666665E-2],"categories":[],"categories_nodes":[],"categories_segments":[],"categories_sizes":[],"default_left":[0,0,0,0,0,0,0,0,0,0,0,0,0,0,0,0,0,0,0,0,0,0,0,0,0,0,0,0,0,0,0,0,0,0,0,0,0,0,0,0,0,0,0,0,0,0,0,0,0,0,0,0,0,0,0,0,0,0,0,0,0,0,0,0,0,0,0,0,0,0,0,0,0,0,0,0,0,0,0,0,0,0,0,0,0,0,0,0,0,0,0,0,0,0,0,0,0,0,0,0,0,0,0,0,0,0,0,0,0,0,0,0,0,0,0,0,0,0,0,0,0,0,0],"id":9,"left_children":[1,3,5,7,9,11,13,15,17,19,21,23,25,27,29,31,33,35,37,39,41,43,45,47,49,51,53,55,57,59,61,63,65,67,69,71,73,75,77,-1,79,81,83,85,87,89,91,93,95,97,99,101,103,105,107,-1,109,111,113,115,117,119,121,-1,-1,-1,-1,-1,-1,-1,-1,-1,-1,-1,-1,-1,-1,-1,-1,-1,-1,-1,-1,-1,-1,-1,-1,-1,-1,-1,-1,-1,-1,-1,-1,-1,-1,-1,-1,-1,-1,-1,-1,-1,-1,-1,-1,-1,-1,-1,-1,-1,-1,-1,-1,-1,-1,-1,-1,-1,-1,-1,-1],"loss_changes":[1.4319589E2,1.3728058E1,4.1841843E1,2.05886E1,1.3996628E1,5.472802E1,2.8137724E1,9.856641E0,5.82658E0,7.384262E0,1.7889664E1,1.698588E1,6.93396E0,1.5617567E1,2.363599E1,1.03186E1,3.1515617E0,2.011776E0,9.33131E0,8.756611E0,5.6200104E0,3.510686E0,7.06217E0,6.2667894E0,3.1448193E1,1.3620595E0,5.831787E0,7.832799E0,1.7888058E1,1.5888977E1,4.8355103E-1,1.4811451E0,5.2817326E0,5.3388816E-1,3.4005718E0,9.914015E0,2.3185444E-1,3.2480354E0,1.2185372E0,0E0,1.3597174E0,2.0022097E0,2.1621552E0,1.376607E0,1.155808E0,2.3484294E0,2.8169327E0,6.53555E0,9.803965E0,7.810158E0,1.9837763E0,5.4501814E-1,4.755E-1,2.469345E0,1.1280842E0,0E0,5.376274E0,3.4659653E0,5.9270782E0,5.9972305E0,1.5250576E1,5.813333E-1,2.3580551E-1,0E0,0E0,0E0,0E0,0E0,0E0,0E0,0E0,0E0,0E0,0E0,0E0,0E0,0E0,0E0,0E0,0E0,0E0,0E0,0E0,0E0,0E0,0E0,0E0,0E0,0E0,0E0,0E0,0E0,0E0,0E0,0E0,0E0,0E0,0E0,0E0,0E0,0E0,0E0,0E0,0E0,0E0,0E0,0E0,0E0,0E0,0E0,0E0,0E0,0E0,0E0,0E0,0E0,0E0,0E0,0E0,0E0,0E0,0E0,0E0],"parents":[2147483647,0,0,1,1,2,2,3,3,4,4,5,5,6,6,7,7,8,8,9,9,10,10,11,11,12,12,13,13,14,14,15,15,16,16,17,17,18,18,19,19,20,20,21,21,22,22,23,23,24,24,25,25,26,26,27,27,28,28,29,29,30,30,31,31,32,32,33,33,34,34,35,35,36,36,37,37,38,38,40,40,41,41,42,42,43,43,44,44,45,45,46,46,47,47,48,48,49,49,50,50,51,51,52,52,53,53,54,54,56,56,57,57,58,58,59,59,60,60,61,61,62,62],"right_children":[2,4,6,8,10,12,14,16,18,20,22,24,26,28,30,32,34,36,38,40,42,44,46,48,50,52,54,56,58,60,62,64,66,68,70,72,74,76,78,-1,80,82,84,86,88,90,92,94,96,98,100,102,104,106,108,-1,110,112,114,116,118,120,122,-1,-1,-1,-1,-1,-1,-1,-1,-1,-1,-1,-1,-1,-1,-1,-1,-1,-1,-1,-1,-1,-1,-1,-1,-1,-1,-1,-1,-1,-1,-1,-1,-1,-1,-1,-1,-1,-1,-1,-1,-1,-1,-1,-1,-1,-1,-1,-1,-1,-1,-1,-1,-1,-1,-1,-1,-1,-1,-1,-1],"split_conditions":[2.8416764E-3,3.6656797E-6,-2.9315648E-3,-1.8433979E-2,1.2693222E-1,4.743525E-3,1.11390844E-4,9.4323176E-1,1.5916114E1,6.793181E-7,-3.2689422E-2,4.32533E-2,-5.8374265E-3,-8.8960834E-2,1.3971294E1,1.1953211E1,7.980238E0,-8.912157E-4,4.89864E-23,1.1953095E1,-8.824436E-2,6.689309E-1,1.3929719E1,1.7837458E1,-1.0375985E-2,3.4088932E-2,1.0981002E0,-5.399673E-1,8.34922E-2,2.1493343E-1,3.7595845E-4,-3.9982244E-1,1.2698553E-17,-3.2483622E-2,3.3661418E-2,1.6825633E-23,6.865316E-2,-1.9054319E-3,-1.8019116E-4,-2.3278613E-2,-2.696027E-18,2.970885E-2,1.0981002E0,-3.8417177E-3,7.4014417E-3,-1.7259119E-3,6.27315E-3,6.3767296E-4,1.0615049E-2,-3.065035E-3,1.22892246E-1,2.5504776E-3,-5.0447984E0,4.1105635E-5,1.4019393E-2,5.245626E-3,1.3540673E-1,-8.03912E-2,6.4932473E-4,9.695993E-2,6.081852E-1,3.3382688E-2,1.4664175E-2,1.8410981E-3,-1.0247893E-2,2.2831862E-3,4.6868464E-3,1.3897477E-3,-1.462547E-3,1.1360173E-2,1.858461E-3,9.853274E-3,-9.230982E-3,-2.0847265E-2,3.5559398E-3,1.2011084E-2,8.2951505E-4,7.775098E-3,-4.3815672E-3,1.9933225E-3,1.053598E-2,8.098901E-3,1.8171907E-3,-1.8225133E-2,3.6420263E-3,4.05685E-3,-1.3066967E-2,7.57451E-3,-8.538211E-3,6.9196406E-3,9.6067804E-4,4.853507E-3,3.0865478E-3,1.0006417E-4,4.2862915E-3,-3.9584644E-5,1.853947E-3,3.0652701E-3,-2.7163532E-3,4.183024E-3,1.0195623E-5,8.717775E-5,-1.8735066E-4,-2.2981167E-4,2.1459104E-3,1.1975013E-3,4.76364E-3,2.3463115E-3,1.4013622E-3,8.994752E-4,3.1081408E-3,-7.520557E-5,-2.5986605E-3,3.5216924E-4,5.868077E-4,-1.2197495E-4,5.2498104E-3,2.317193E-3,2.3355018E-3,3.5739124E-3,-1.6215444E-4,7.161838E-3,3.6581696E-3],"split_indices":[17,45,26,46,45,17,29,14,2,17,44,5,45,32,3,2,3,24,47,0,38,21,0,2,4,1,9,39,33,13,31,8,21,6,43,47,5,27,10,0,32,45,9,33,5,24,13,35,19,24,13,11,12,25,19,0,4,30,23,33,39,1,11,0,0,0,0,0,0,0,0,0,0,0,0,0,0,0,0,0,0,0,0,0,0,0,0,0,0,0,0,0,0,0,0,0,0,0,0,0,0,0,0,0,0,0,0,0,0,0,0,0,0,0,0,0,0,0,0,0,0,0,0],"split_type":[0,0,0,0,0,0,0,0,0,0,0,0,0,0,0,0,0,0,0,0,0,0,0,0,0,0,0,0,0,0,0,0,0,0,0,0,0,0,0,0,0,0,0,0,0,0,0,0,0,0,0,0,0,0,0,0,0,0,0,0,0,0,0,0,0,0,0,0,0,0,0,0,0,0,0,0,0,0,0,0,0,0,0,0,0,0,0,0,0,0,0,0,0,0,0,0,0,0,0,0,0,0,0,0,0,0,0,0,0,0,0,0,0,0,0,0,0,0,0,0,0,0,0],"sum_hessian":[3.192E4,2.2921E4,8.999E3,3.274E3,1.9647E4,2.564E3,6.435E3,6.8E2,2.594E3,1.8362E4,1.285E3,2.2E3,3.64E2,4.767E3,1.668E3,5.5E2,1.3E2,2.392E3,2.02E2,6.4E1,1.8298E4,8.71E2,4.14E2,1.906E3,2.94E2,2.7E1,3.37E2,7.03E2,4.064E3,1.613E3,5.5E1,2.59E2,2.91E2,2.2E1,1.08E2,9.94E2,1.398E3,5.6E1,1.46E2,3.5E1,2.9E1,1.7E1,1.8281E4,8.59E2,1.2E1,1.95E2,2.19E2,1.29E3,6.16E2,1.44E2,1.5E2,2.3E1,4E0,2.62E2,7.5E1,1.4E1,6.89E2,2.968E3,1.096E3,5.35E2,1.078E3,4E0,5.1E1,2.8E1,2.31E2,1.56E2,1.35E2,9E0,1.3E1,8E1,2.8E1,3.3E1,9.61E2,1.381E3,1.7E1,4.4E1,1.2E1,2E0,1.44E2,8E0,2.1E1,1E1,7E0,1.8259E4,2.2E1,2E0,8.57E2,9E0,3E0,4E0,1.91E2,5.6E1,1.63E2,1.149E3,1.41E2,2.1E2,4.06E2,1.32E2,1.2E1,5E0,1.45E2,1E0,2.2E1,1E0,3E0,2.5E1,2.37E2,6.2E1,1.3E1,6.59E2,3E1,6.75E2,2.293E3,2.1E1,1.075E3,5.03E2,3.2E1,1.04E3,3.8E1,2E0,2E0,4.9E1,2E0],"tree_param":{"num_deleted":"0","num_feature":"48","num_nodes":"123","size_leaf_vector":"1"}},{"base_weights":[-4.0412292E-2,-7.936046E-2,5.8788866E-2,-2.0580176E-2,-8.915414E-2,1.5423E-1,2.0742673E-2,1.3593493E-1,-5.6745607E-2,-9.2742085E-2,1.1127165E-1,1.11980945E-1,5.3818893E-1,1.3909157E-1,-1.0463314E-2,7.3425174E-2,4.2870367E-1,-7.99255E-2,3.9999977E-2,-9.6220925E-2,4.1020386E-2,2.1449272E-1,-4.214288E-2,8.191276E-2,3.172881E-1,4.7619026E-2,5.799145E-1,2.5114676E-1,8.513214E-2,-6.2764764E-2,1.0368517E-1,-5.2966125E-2,1.8241756E-1,1.3947366E-1,5.7746476E-1,-1.2030099E-2,-9.53688E-2,4.2711863E-1,-1.0065669E-2,2.2968748E-1,-9.732816E-2,-7.346941E-2,3.0608106E-1,1.7307669E-2,2.7884614E-1,-7.615387E-2,3.6363634E-1,6.494128E-2,3.0068964E-1,6.2482756E-1,1.9867526E-2,-9.285717E-3,2.8749996E-1,7.0409834E-1,4.4070795E-1,9.7131126E-2,4.4455957E-1,-2.7272964E-3,1.3506043E-1,1.1322621E-2,-9.235085E-2,8.832161E-2,7.885714E-1,1.2199998E-2,-9.946527E-3,6.178571E-2,1.321138E-2,4.999998E-3,7.2E-2,9.090907E-3,6.5573774E-2,-2.6246745E-3,2.7368417E-2,-9.650633E-3,4.25E-2,8.470588E-2,2.5116278E-2,4.0499996E-2,-2.899546E-3,-9.729732E-3,6.535714E-2,-9.828309E-3,2.2321427E-2,-9.624576E-3,5.8823507E-3,4.25E-2,1.4769228E-2,3.0999998E-2,-5.1162816E-3,6.277778E-2,2.3165466E-2,3.2E-2,-9.126986E-3,5.3749997E-2,-7.5000017E-3,1.9130433E-2,4.092637E-3,4.3302752E-2,-9.729732E-3,7.11811E-2,1.0526293E-3,5.8333334E-2,-3.4246812E-4,-7.5000017E-3,5.1999997E-2,7.3846154E-2,-8.333336E-3,5.2333333E-2,1.1249998E-2,3.1020407E-2,4.3367324E-3,5.578571E-2,1.4259256E-2,-7.132869E-3,4.9468065E-3,7.272727E-2,1.2337432E-2,5.8636364E-2,-1.6376901E-4,-9.385682E-3,2.4999768E-4,1.8816566E-2,4.0527782E-3,-6.6666687E-3,8.4242426E-2],"categories":[],"categories_nodes":[],"categories_segments":[],"categories_sizes":[],"default_left":[0,0,0,0,0,0,0,0,0,0,0,0,0,0,0,0,0,0,0,0,0,0,0,0,0,0,0,0,0,0,0,0,0,0,0,0,0,0,0,0,0,0,0,0,0,0,0,0,0,0,0,0,0,0,0,0,0,0,0,0,0,0,0,0,0,0,0,0,0,0,0,0,0,0,0,0,0,0,0,0,0,0,0,0,0,0,0,0,0,0,0,0,0,0,0,0,0,0,0,0,0,0,0,0,0,0,0,0,0,0,0,0,0,0,0,0,0,0,0,0,0,0,0,0,0],"id":10,"left_children":[1,3,5,7,9,11,13,15,17,19,21,23,25,27,29,31,33,35,37,39,41,43,45,47,49,51,53,55,57,59,61,63,65,67,69,71,73,75,77,79,81,83,85,87,89,91,93,95,97,99,101,-1,103,105,107,109,111,113,115,117,119,121,123,-1,-1,-1,-1,-1,-1,-1,-1,-1,-1,-1,-1,-1,-1,-1,-1,-1,-1,-1,-1,-1,-1,-1,-1,-1,-1,-1,-1,-1,-1,-1,-1,-1,-1,-1,-1,-1,-1,-1,-1,-1,-1,-1,-1,-1,-1,-1,-1,-1,-1,-1,-1,-1,-1,-1,-1,-1,-1,-1,-1,-1,-1],"loss_changes":[1.23337944E2,1.3193787E1,3.2677345E1,1.8545643E1,1.4139542E1,4.154891E1,2.377085E1,1.12235775E1,5.9706297E0,8.986359E0,5.4881616E0,1.4246483E1,5.1715927E0,8.098982E0,3.0418358E1,7.0077124E0,4.566286E0,2.2500458E0,9.985691E0,6.811569E0,1.489239E1,2.6219063E0,1.9598258E0,7.4732428E0,2.697081E1,7.3434526E-1,3.7349014E0,1.2944645E1,3.9834661E0,7.6597366E0,1.6776543E1,1.9321772E0,5.8982325E0,1.9377892E0,2.6443615E0,1.6278807E0,1.0762987E0,4.1468153E0,3.60244E0,8.934221E0,5.761444E0,1.0391719E0,2.7248735E0,1.0579813E0,2.4233618E0,8.0768013E-1,8.792045E-1,5.679005E0,7.679102E0,7.740448E0,1.9837763E0,0E0,7.1325004E-1,3.3626976E0,3.0054932E0,2.781716E0,6.5233917E0,1.185151E0,3.9173336E0,7.438765E0,3.569126E-1,7.469986E0,1.6681576E0,0E0,0E0,0E0,0E0,0E0,0E0,0E0,0E0,0E0,0E0,0E0,0E0,0E0,0E0,0E0,0E0,0E0,0E0,0E0,0E0,0E0,0E0,0E0,0E0,0E0,0E0,0E0,0E0,0E0,0E0,0E0,0E0,0E0,0E0,0E0,0E0,0E0,0E0,0E0,0E0,0E0,0E0,0E0,0E0,0E0,0E0,0E0,0E0,0E0,0E0,0E0,0E0,0E0,0E0,0E0,0E0,0E0,0E0,0E0,0E0,0E0,0E0],"parents":[2147483647,0,0,1,1,2,2,3,3,4,4,5,5,6,6,7,7,8,8,9,9,10,10,11,11,12,12,13,13,14,14,15,15,16,16,17,17,18,18,19,19,20,20,21,21,22,22,23,23,24,24,25,25,26,26,27,27,28,28,29,29,30,30,31,31,32,32,33,33,34,34,35,35,36,36,37,37,38,38,39,39,40,40,41,41,42,42,43,43,44,44,45,45,46,46,47,47,48,48,49,49,50,50,52,52,53,53,54,54,55,55,56,56,57,57,58,58,59,59,60,60,61,61,62,62],"right_children":[2,4,6,8,10,12,14,16,18,20,22,24,26,28,30,32,34,36,38,40,42,44,46,48,50,52,54,56,58,60,62,64,66,68,70,72,74,76,78,80,82,84,86,88,90,92,94,96,98,100,102,-1,104,106,108,110,112,114,116,118,120,122,124,-1,-1,-1,-1,-1,-1,-1,-1,-1,-1,-1,-1,-1,-1,-1,-1,-1,-1,-1,-1,-1,-1,-1,-1,-1,-1,-1,-1,-1,-1,-1,-1,-1,-1,-1,-1,-1,-1,-1,-1,-1,-1,-1,-1,-1,-1,-1,-1,-1,-1,-1,-1,-1,-1,-1,-1,-1,-1,-1,-1,-1,-1],"split_conditions":[2.8416764E-3,3.6656797E-6,-2.9315648E-3,-3.099581E-2,4.665531E-1,2.1169978E-1,-8.8960834E-2,9.4323176E-1,1.3938579E1,1.0509556E-1,8.5931E-4,4.32533E-2,1.8583211E-3,-5.162621E-1,8.34922E-2,1.1956502E1,-4.2998664E-2,3.6634816E-18,9.83862E-22,6.793181E-7,-1.3522594E-18,1.478157E-1,6.689309E-1,4.743525E-3,-1.0375985E-2,1.0322809E-2,5.124468E-1,9.98935E0,-6.2004387E-2,-8.3284244E-2,3.2936156E-2,-1.2233079E-2,4.8184735E-18,3.5983867E-3,7.980238E0,6.511058E-2,3.7746257E-1,-1.7758073E-18,-1.4578844E-2,1.195567E1,6.12862E-1,1.0283861E-3,-6.1173327E-18,4.785457E-1,4.04079E-2,-4.1062E-3,7.4014417E-3,1.4195415E-1,6.5894476E-3,-3.117422E-3,1.22892246E-1,-1.4441491E-4,1.58505945E1,7.880451E-3,1.450109E-4,1.7959276E-2,-1.8944006E0,-1.761436E-3,-4.102073E-1,6.4932473E-4,1.5422817E-1,-1.1743794E-4,2.0664501E-1,1.4753871E-3,-1.5212456E-2,5.268363E-3,2.6814973E-3,4.087925E-4,1.6726137E-3,4.316192E-4,1.09440265E-2,-2.5953732E-3,1.5271499E-2,-1.8642617E-2,1.2856185E-3,1.3168372E-2,4.9724802E-3,6.713932E-3,-1.8232517E-3,-1.86414E-2,9.265018E-3,-1.6410822E-2,3.0040573E-3,-1.5817069E-2,4.4028093E-3,6.146682E-3,4.393732E-3,5.0454554E-3,-1.6027729E-3,3.4455403E-3,4.177325E-3,7.330215E-3,-3.103912E-3,6.817061E-3,-7.684392E-3,2.3445592E-3,3.5907628E-4,2.590826E-3,-8.293808E-5,2.7594692E-3,1.9545946E-4,3.7647188E-3,9.176383E-6,-4.5716166E-4,1.5101553E-3,3.9996495E-3,-5.9211256E-5,4.454398E-3,3.7323474E-4,3.6836655E-3,9.482132E-4,5.8441455E-3,3.0668876E-3,-3.0383826E-4,6.631207E-4,2.5719414E-3,9.639215E-4,3.927302E-4,-1.0104229E-5,-1.9515979E-3,2.6800504E-4,1.3205224E-3,3.8607922E-4,-4.5583845E-4,2.7433073E-3],"split_indices":[17,45,26,46,21,13,32,14,0,46,41,5,5,38,33,0,40,13,43,17,44,45,21,17,4,40,8,3,10,32,23,30,9,1,3,1,9,32,46,0,10,30,8,21,9,26,5,13,37,24,13,0,0,44,47,5,14,27,36,23,4,28,13,0,0,0,0,0,0,0,0,0,0,0,0,0,0,0,0,0,0,0,0,0,0,0,0,0,0,0,0,0,0,0,0,0,0,0,0,0,0,0,0,0,0,0,0,0,0,0,0,0,0,0,0,0,0,0,0,0,0,0,0,0,0],"split_type":[0,0,0,0,0,0,0,0,0,0,0,0,0,0,0,0,0,0,0,0,0,0,0,0,0,0,0,0,0,0,0,0,0,0,0,0,0,0,0,0,0,0,0,0,0,0,0,0,0,0,0,0,0,0,0,0,0,0,0,0,0,0,0,0,0,0,0,0,0,0,0,0,0,0,0,0,0,0,0,0,0,0,0,0,0,0,0,0,0,0,0,0,0,0,0,0,0,0,0,0,0,0,0,0,0,0,0,0,0,0,0,0,0,0,0,0,0,0,0,0,0,0,0,0,0],"sum_hessian":[3.192E4,2.2921E4,8.999E3,3.274E3,1.9647E4,2.564E3,6.435E3,6.14E2,2.66E3,1.9302E4,3.45E2,2.311E3,2.53E2,1.342E3,5.093E3,5.07E2,1.07E2,2.146E3,5.14E2,1.8813E4,4.89E2,2.06E2,1.39E2,2.017E3,2.94E2,2E1,2.33E2,4.35E2,9.07E2,3.493E3,1.6E3,2.35E2,2.72E2,3.7E1,7E1,3.98E2,1.748E3,5.8E1,4.56E2,6.3E1,1.875E4,3.42E2,1.47E2,5.1E1,1.55E2,1.29E2,1E1,1.873E3,1.44E2,1.44E2,1.5E2,1.3E1,7E0,1.21E2,1.12E2,2.43E2,1.92E2,3.29E2,5.78E2,9.97E2,2.496E3,1.566E3,3.4E1,4.9E1,1.86E2,2.7E1,2.45E2,3.3E1,4E0,1E1,6E1,3.8E2,1.8E1,1.745E3,3E0,1.6E1,4.2E1,1.9E1,4.37E2,3.6E1,2.7E1,1.8695E4,5.5E1,2.92E2,5E1,8.3E1,6.4E1,9E0,4.2E1,1.7E1,1.38E2,4E0,1.25E2,7E0,3E0,2.98E2,1.575E3,1.08E2,3.6E1,1.26E2,1.8E1,5E0,1.45E2,3E0,4E0,1.16E2,5E0,8.9E1,2.3E1,4.8E1,1.95E2,1.39E2,5.3E1,1.42E2,1.87E2,1E1,5.68E2,2.1E1,9.76E2,2.457E3,3.9E1,5.06E2,1.06E3,2E0,3.2E1],"tree_param":{"num_deleted":"0","num_feature":"48","num_nodes":"125","size_leaf_vector":"1"}},{"base_weights":[-4.1540075E-2,-7.957859E-2,5.534442E-2,-8.283544E-2,9.137527E-2,-3.9762292E-2,9.413418E-2,-2.42443E-2,-9.28148E-2,-6.730772E-2,1.8138684E-1,-5.5006154E-2,1.9074072E-1,7.750968E-2,3.0492502E-1,1.05726846E-1,-5.834299E-2,2.3999998E-1,-9.393926E-2,4.1666666E-1,-8.609274E-2,4.0199998E-1,1.3155553E-1,2.5892854E-1,-6.23328E-2,7.05E-1,1.1748249E-1,1.8376224E-1,3.7127536E-2,5.2631575E-1,1.7643096E-1,5.626132E-2,3.1297708E-1,-8.031612E-2,3.2086592E-2,-9.722224E-3,6.3666666E-1,-9.6517436E-2,1.0129287E-2,-6.6666687E-3,6.7499995E-2,-9.931509E-3,2.4999999E-1,5.1388884E-1,1.0666665E-1,4.842105E-1,9.85507E-2,5.9999996E-1,2.0588212E-2,6.480261E-2,-8.0804236E-2,7.8823525E-1,1.7499998E-1,3.3709675E-1,-5.0000023E-2,4.1319793E-1,1.5215875E-1,1.3519851E-2,2.2790696E-1,3.0781248E-1,6.509259E-1,4.072289E-1,8.6511604E-2,-6.884618E-3,1.6746573E-2,2.1523807E-2,6.814815E-2,-9.523833E-4,-9.698227E-3,2.6043162E-2,-5.378381E-3,2.4444444E-2,7.681818E-2,-9.7419415E-3,2.1090908E-2,-6.356592E-3,3.75641E-2,6E-2,-7.5000017E-3,6.275862E-2,3.749998E-3,-9.090912E-3,5.1999997E-2,-8.000002E-3,6.4E-2,3.5810787E-3,2.5166664E-2,7.473684E-2,-8.000002E-3,4.1666668E-2,-6.206899E-3,-2.8823554E-3,1.822222E-2,8.053668E-4,-8.7583745E-3,-5.0000013E-3,8.4375E-2,-6.6666687E-3,4.4999998E-2,4.8780486E-2,4.0909066E-3,-7.375003E-3,6E-2,2.0588213E-3,4.9207315E-2,2.8482327E-2,8.525102E-3,8.7453205E-5,2.9216865E-2,3.0149698E-2,5.0714263E-3,7.7E-2,-9.714289E-3,7.11E-2,-8.888892E-3,3.2394364E-2,8.307692E-2,2.347222E-2,1.1805532E-3],"categories":[],"categories_nodes":[],"categories_segments":[],"categories_sizes":[],"default_left":[0,0,0,0,0,0,0,0,0,0,0,0,0,0,0,0,0,0,0,0,0,0,0,0,0,0,0,0,0,0,0,0,0,0,0,0,0,0,0,0,0,0,0,0,0,0,0,0,0,0,0,0,0,0,0,0,0,0,0,0,0,0,0,0,0,0,0,0,0,0,0,0,0,0,0,0,0,0,0,0,0,0,0,0,0,0,0,0,0,0,0,0,0,0,0,0,0,0,0,0,0,0,0,0,0,0,0,0,0,0,0,0,0,0,0,0,0,0,0],"id":11,"left_children":[1,3,5,7,9,11,13,15,17,19,21,23,25,27,29,31,33,35,37,39,41,43,45,47,49,51,53,55,57,59,61,63,65,67,69,-1,71,73,75,-1,-1,-1,77,79,81,83,85,87,89,91,93,95,97,99,101,103,105,107,109,111,113,115,117,-1,-1,-1,-1,-1,-1,-1,-1,-1,-1,-1,-1,-1,-1,-1,-1,-1,-1,-1,-1,-1,-1,-1,-1,-1,-1,-1,-1,-1,-1,-1,-1,-1,-1,-1,-1,-1,-1,-1,-1,-1,-1,-1,-1,-1,-1,-1,-1,-1,-1,-1,-1,-1,-1,-1,-1],"loss_changes":[1.1764424E2,1.2769882E1,3.320625E1,1.3150024E1,6.1397467E0,9.174366E0,2.237931E1,1.4520466E1,7.215393E0,1.4541411E0,2.9593172E0,5.644455E0,6.020317E0,2.5424183E1,1.3192081E1,6.963828E0,5.1588955E0,8.756611E0,5.1406555E0,7.9416656E-1,6.9586325E-1,1.5974112E0,2.571127E0,4.539948E0,5.622547E0,7.443533E-1,5.276616E0,1.1770714E1,1.9345503E1,4.455574E0,6.1284704E0,7.677319E0,4.571578E0,2.462572E0,9.974912E0,0E0,1.3597174E0,5.203964E0,1.2522394E1,0E0,0E0,0E0,7.2749996E-1,1.9263744E0,1.2722424E0,1.7212634E0,1.9795294E0,2.3646307E0,1.1389792E0,3.34729E0,1.2591457E0,8.33272E-1,2.9583335E-1,2.7475939E0,1.310125E0,6.0904007E0,1.2722057E1,1.3474001E1,6.1524467E0,1.2053379E1,4.8631134E0,2.6586742E0,2.377759E0,0E0,0E0,0E0,0E0,0E0,0E0,0E0,0E0,0E0,0E0,0E0,0E0,0E0,0E0,0E0,0E0,0E0,0E0,0E0,0E0,0E0,0E0,0E0,0E0,0E0,0E0,0E0,0E0,0E0,0E0,0E0,0E0,0E0,0E0,0E0,0E0,0E0,0E0,0E0,0E0,0E0,0E0,0E0,0E0,0E0,0E0,0E0,0E0,0E0,0E0,0E0,0E0,0E0,0E0,0E0,0E0],"parents":[2147483647,0,0,1,1,2,2,3,3,4,4,5,5,6,6,7,7,8,8,9,9,10,10,11,11,12,12,13,13,14,14,15,15,16,16,17,17,18,18,19,19,20,20,21,21,22,22,23,23,24,24,25,25,26,26,27,27,28,28,29,29,30,30,31,31,32,32,33,33,34,34,36,36,37,37,38,38,42,42,43,43,44,44,45,45,46,46,47,47,48,48,49,49,50,50,51,51,52,52,53,53,54,54,55,55,56,56,57,57,58,58,59,59,60,60,61,61,62,62],"right_children":[2,4,6,8,10,12,14,16,18,20,22,24,26,28,30,32,34,36,38,40,42,44,46,48,50,52,54,56,58,60,62,64,66,68,70,-1,72,74,76,-1,-1,-1,78,80,82,84,86,88,90,92,94,96,98,100,102,104,106,108,110,112,114,116,118,-1,-1,-1,-1,-1,-1,-1,-1,-1,-1,-1,-1,-1,-1,-1,-1,-1,-1,-1,-1,-1,-1,-1,-1,-1,-1,-1,-1,-1,-1,-1,-1,-1,-1,-1,-1,-1,-1,-1,-1,-1,-1,-1,-1,-1,-1,-1,-1,-1,-1,-1,-1,-1,-1,-1,-1],"split_conditions":[2.8416764E-3,3.9081436E-1,7.90416E-5,3.6656797E-6,-2.696027E-18,8.948622E-2,8.6193234E-2,-1.8433979E-2,6.793181E-7,-2.5145605E-3,5.339801E-2,1.3513557E-3,-1.1093335E-2,-8.167751E-2,4.6776524E-3,9.4323176E-1,1.3940423E1,1.1953095E1,1.0509556E-1,2.286025E-2,-7.06968E-4,1.1905009E-3,1.6746052E-3,8.1074424E-4,-8.714097E-2,9.001963E-3,4.2861115E-4,-9.838067E-2,1.7837458E1,3.1361746E-5,-5.9084814E-2,1.1953211E1,1.1805953E-18,3.6634816E-18,4.89864E-23,-1.9086609E-2,-2.696027E-18,6.609506E-1,-8.3123406E-20,-2.6462853E-3,2.4832727E-3,-5.8110585E-3,-6.643585E-4,-7.134167E-18,1.5863811E1,5.658221E-2,5.896532E-1,-2.714481E-3,-4.4879103E-1,-1.9355787E-2,4.026312E-4,-1.4921833E-3,1.0993243E-2,6.5946276E-3,7.722028E-5,7.972896E-3,-4.39244E-2,9.828715E-2,-3.117422E-3,-4.265023E-2,-1.8588137E-3,9.269001E-2,-4.495503E-2,-2.8499493E-3,2.7495583E-3,4.295355E-3,1.00942105E-2,-1.4997442E-3,-1.6987214E-2,5.1557054E-3,-1.2338824E-2,8.67492E-4,8.555884E-3,-1.4830415E-2,2.7949053E-3,-2.8431197E-3,5.881612E-3,6.931299E-3,-1.2684032E-2,4.304341E-3,1.8558383E-3,-1.0935012E-3,1.2767017E-3,-1.3601125E-3,8.513092E-3,4.2701288E-4,3.7868319E-3,3.703123E-4,-7.472635E-5,2.0362735E-4,-9.4147974E-5,-7.786758E-5,7.6975086E-4,5.5075867E-5,-6.813097E-4,-1.1486411E-4,1.3111186E-3,-4.037738E-4,8.904934E-4,1.5118829E-3,1.8503187E-3,-3.0742295E-4,2.191472E-3,4.8447686E-4,4.4520493E-3,2.7359265E-3,4.900332E-4,1.7874432E-5,2.6655984E-3,1.753013E-3,1.0187983E-3,2.3306785E-3,-5.847545E-4,3.5306201E-3,-6.774783E-4,3.8174242E-3,6.975925E-3,2.0119487E-3,2.7487494E-4],"split_indices":[17,22,25,45,32,32,32,46,17,24,7,5,44,30,37,14,3,0,46,9,26,28,47,31,30,43,31,32,2,35,46,2,9,13,47,0,32,9,44,0,0,0,26,20,2,46,21,24,20,40,23,34,4,43,25,11,4,33,24,4,26,4,4,0,0,0,0,0,0,0,0,0,0,0,0,0,0,0,0,0,0,0,0,0,0,0,0,0,0,0,0,0,0,0,0,0,0,0,0,0,0,0,0,0,0,0,0,0,0,0,0,0,0,0,0,0,0,0,0],"split_type":[0,0,0,0,0,0,0,0,0,0,0,0,0,0,0,0,0,0,0,0,0,0,0,0,0,0,0,0,0,0,0,0,0,0,0,0,0,0,0,0,0,0,0,0,0,0,0,0,0,0,0,0,0,0,0,0,0,0,0,0,0,0,0,0,0,0,0,0,0,0,0,0,0,0,0,0,0,0,0,0,0,0,0,0,0,0,0,0,0,0,0,0,0,0,0,0,0,0,0,0,0,0,0,0,0,0,0,0,0,0,0,0,0,0,0,0,0,0,0],"sum_hessian":[3.192E4,2.2921E4,8.999E3,2.2493E4,4.28E2,2.607E3,6.392E3,3.274E3,1.9219E4,1.55E2,2.73E2,2.446E3,1.61E2,5.926E3,4.66E2,6.8E2,2.594E3,6.4E1,1.9155E4,5E0,1.5E2,4.9E1,2.24E2,5.5E1,2.391E3,1.9E1,1.42E2,1.631E3,4.295E3,1.7E2,2.96E2,5.5E2,1.3E2,2.087E3,5.07E2,3.5E1,2.9E1,1.8692E4,4.63E2,2E0,3E0,1.45E2,5E0,3.5E1,1.4E1,1.8E1,2.06E2,2.2E1,3.3E1,3.03E2,2.088E3,1.6E1,3E0,6.1E1,8.1E1,1.96E2,1.435E3,3.823E3,4.72E2,6.3E1,1.07E2,8.2E1,2.14E2,2.59E2,2.91E2,1.04E2,2.6E1,3.98E2,1.689E3,1.38E2,3.69E2,8E0,2.1E1,1.8638E4,5.4E1,3.86E2,7.7E1,2E0,3E0,2.8E1,7E0,1E1,4E0,4E0,1.4E1,1.47E2,5.9E1,1.8E1,4E0,5E0,2.8E1,1.69E2,1.34E2,1.48E2,1.94E3,1E0,1.5E1,2E0,1E0,4E1,2.1E1,7.9E1,2E0,3.3E1,1.63E2,4.8E2,9.55E2,3.658E3,1.65E2,3.33E2,1.39E2,2.9E1,3.4E1,9.9E1,8E0,7E1,1.2E1,7.1E1,1.43E2],"tree_param":{"num_deleted":"0","num_feature":"48","num_nodes":"119","size_leaf_vector":"1"}},{"base_weights":[-4.3764316E-2,-7.936046E-2,4.6899974E-2,-8.361978E-2,5.6978393E-2,-3.1704973E-2,8.800336E-2,-2.8519107E-2,-9.3136035E-2,-7.5697236E-2,1.3168538E-1,-4.90941E-2,1.9324322E-1,3.359649E-1,7.27599E-2,8.641454E-2,-6.0538664E-2,8E-2,-9.355539E-2,-8.340083E-2,3.2E-1,8.681589E-2,5.386363E-1,1.0699998E-1,-6.728902E-2,3.433628E-1,3.7272703E-2,1.8762374E-1,5.4609925E-1,2.0264314E-1,5.465328E-2,1.7321426E-1,-1.919507E-2,-1.939197E-2,-9.76969E-2,2.2461537E-1,-9.4645716E-2,-9.128633E-2,1.9999997E-1,-6.6666687E-3,6E-2,-2.0915056E-2,1.5239997E-1,6.394737E-1,-8.57143E-3,3.2435894E-1,3.049325E-2,2.2931032E-1,-7.410504E-2,5.435897E-1,2.3466665E-1,6.363636E-1,-2.9000023E-2,2.822368E-1,-9.803924E-3,4.3163264E-1,7.886363E-1,3.2505965E-1,6.844083E-3,-2.2522017E-2,9.594974E-2,8.999998E-3,4.0582523E-2,1.0232556E-2,-9.94872E-3,2.9863013E-2,-3.965068E-3,-9.917233E-3,1.6666644E-3,-9.722224E-3,6.033333E-2,-9.74426E-3,1.6094396E-3,2.6666665E-2,-9.539751E-3,6E-2,-8.000002E-3,-5.000002E-3,3.25E-2,2.2277776E-2,-2.8169039E-3,2.2222202E-3,8.033333E-2,5.565217E-2,2.2321427E-2,-1.5168564E-3,2.0652173E-2,5.565217E-2,1.3888866E-3,-7.563798E-3,4.8571426E-2,6.535714E-2,2.4166664E-2,-9.615387E-3,4.02E-2,7.875E-2,1.7499998E-2,-7.558142E-3,2.3999998E-2,3.8016528E-2,-9.687503E-3,4.8539322E-2,-9.000002E-3,-5.0000013E-3,8.093023E-2,2.3154572E-2,6.0970873E-2,-3.8427971E-3,3.0285714E-2,4.748698E-3,-5.828169E-3,5.514975E-3,2.285714E-2],"categories":[],"categories_nodes":[],"categories_segments":[],"categories_sizes":[],"default_left":[0,0,0,0,0,0,0,0,0,0,0,0,0,0,0,0,0,0,0,0,0,0,0,0,0,0,0,0,0,0,0,0,0,0,0,0,0,0,0,0,0,0,0,0,0,0,0,0,0,0,0,0,0,0,0,0,0,0,0,0,0,0,0,0,0,0,0,0,0,0,0,0,0,0,0,0,0,0,0,0,0,0,0,0,0,0,0,0,0,0,0,0,0,0,0,0,0,0,0,0,0,0,0,0,0,0,0,0,0,0,0,0,0],"id":12,"left_children":[1,3,5,7,9,11,13,15,17,19,21,23,25,27,29,31,33,-1,35,37,39,41,43,45,47,49,51,53,55,57,59,61,63,65,67,69,71,73,75,-1,-1,77,79,81,-1,83,85,87,89,91,93,95,97,99,-1,101,103,105,107,109,111,-1,-1,-1,-1,-1,-1,-1,-1,-1,-1,-1,-1,-1,-1,-1,-1,-1,-1,-1,-1,-1,-1,-1,-1,-1,-1,-1,-1,-1,-1,-1,-1,-1,-1,-1,-1,-1,-1,-1,-1,-1,-1,-1,-1,-1,-1,-1,-1,-1,-1,-1,-1],"loss_changes":[1.03022354E2,1.3315826E1,2.9081158E1,1.1652634E1,6.898666E0,1.2100406E1,2.2314125E1,1.205764E1,7.173874E0,7.918098E-1,8.078793E0,8.15834E0,5.1851606E0,1.0558216E1,1.3085802E1,6.548481E0,3.915245E0,0E0,6.5938263E0,5.7024217E-1,5.813333E-1,2.8434925E0,2.824957E0,4.9789357E0,5.214595E0,2.3317585E0,4.385827E0,5.487216E0,3.5741005E0,1.6320686E1,1.558373E1,7.5512457E0,3.1617398E0,7.852627E0,2.2877121E-1,7.981227E0,5.8498535E0,3.800974E-1,8.32E-1,0E0,0E0,1.5555719E0,3.1832871E0,3.8255663E0,0E0,1.7073746E0,1.7955571E0,4.080595E0,2.1941862E0,1.1370878E0,4.1904516E0,6.2920475E-1,1.2711791E0,5.6799555E0,0E0,2.7919273E0,8.0303764E-1,1.1012035E1,3.536132E0,4.271233E0,1.7221312E1,0E0,0E0,0E0,0E0,0E0,0E0,0E0,0E0,0E0,0E0,0E0,0E0,0E0,0E0,0E0,0E0,0E0,0E0,0E0,0E0,0E0,0E0,0E0,0E0,0E0,0E0,0E0,0E0,0E0,0E0,0E0,0E0,0E0,0E0,0E0,0E0,0E0,0E0,0E0,0E0,0E0,0E0,0E0,0E0,0E0,0E0,0E0,0E0,0E0,0E0,0E0,0E0],"parents":[2147483647,0,0,1,1,2,2,3,3,4,4,5,5,6,6,7,7,8,8,9,9,10,10,11,11,12,12,13,13,14,14,15,15,16,16,18,18,19,19,20,20,21,21,22,22,23,23,24,24,25,25,26,26,27,27,28,28,29,29,30,30,31,31,32,32,33,33,34,34,35,35,36,36,37,37,38,38,41,41,42,42,43,43,45,45,46,46,47,47,48,48,49,49,50,50,51,51,52,52,53,53,55,55,56,56,57,57,58,58,59,59,60,60],"right_children":[2,4,6,8,10,12,14,16,18,20,22,24,26,28,30,32,34,-1,36,38,40,42,44,46,48,50,52,54,56,58,60,62,64,66,68,70,72,74,76,-1,-1,78,80,82,-1,84,86,88,90,92,94,96,98,100,-1,102,104,106,108,110,112,-1,-1,-1,-1,-1,-1,-1,-1,-1,-1,-1,-1,-1,-1,-1,-1,-1,-1,-1,-1,-1,-1,-1,-1,-1,-1,-1,-1,-1,-1,-1,-1,-1,-1,-1,-1,-1,-1,-1,-1,-1,-1,-1,-1,-1,-1,-1,-1,-1,-1,-1,-1],"split_conditions":[2.8416764E-3,4.4596888E-2,8.628731E-5,3.6656797E-6,-2.8732857E-2,8.9597724E-2,4.147388E-5,-1.3904359E-2,-1.0857448E-1,-7.06968E-4,8.618157E-4,-8.799038E-2,4.986799E-4,2.1781857E-1,-3.153795E-3,-1.0802618E-3,-8.1994425E-4,6.7662657E-3,6.793181E-7,1.1764236E-2,-2.958703E-2,1.478157E-1,1.5978049E-1,-3.1154191E-1,1.3513557E-3,6.463814E-3,-1.1430697E-2,1.4664175E-2,5.401329E-1,2.837581E-2,1.8208793E-1,-1.5707988E0,9.96906E0,9.83862E-22,6.865316E-2,1.1953095E1,1.0509556E-1,6.4581344E-3,4.9571205E-2,-1.1415628E-2,6.2381686E-3,7.574784E-4,7.923962E-4,8.079471E-2,-6.378651E-4,-3.1705346E-2,7.428017E-3,8.1074424E-4,1.9829117E1,9.123826E-5,5.6079087E-5,6.9793556E-3,6.730668E-5,2.2038254E-4,-2.6828195E-3,-1.7645767E0,1.7610954E-2,2.2290882E-2,3.2492742E-1,-2.5997183E-3,1.3971294E1,1.8653804E-3,7.53078E-3,1.6708913E-3,-1.5607712E-2,7.845422E-3,-5.479337E-3,-1.5401824E-2,3.6098552E-3,-1.7177949E-2,7.4104727E-3,-1.3569011E-2,3.4660925E-4,9.6458796E-4,-2.9838113E-3,1.2882337E-2,-1.3900957E-2,-1.1315974E-3,1.6200338E-3,3.7509964E-3,-1.9854515E-4,3.1230153E-4,4.980087E-3,2.0168405E-3,1.4660631E-3,-5.9989903E-5,7.7417487E-4,3.096634E-4,3.1906366E-5,-4.46949E-4,1.570207E-3,2.680519E-3,3.18004E-3,-2.1712783E-4,1.7758489E-3,1.194948E-3,1.9278527E-4,-3.4996282E-4,1.8363355E-3,1.7253982E-3,-3.9729118E-4,4.658367E-3,-6.569625E-4,-1.5640677E-3,5.543756E-3,1.2971216E-3,2.3796568E-3,-1.1951465E-4,2.0475627E-3,2.8105828E-4,-1.1200733E-3,7.1083405E-4,2.6695195E-3],"split_indices":[17,34,25,45,32,30,41,46,38,26,25,33,31,13,24,26,24,0,17,12,6,45,10,39,5,37,44,11,21,4,13,12,3,43,5,0,46,43,1,0,0,25,41,19,0,10,43,31,0,28,29,4,35,28,0,15,23,23,7,24,3,0,0,0,0,0,0,0,0,0,0,0,0,0,0,0,0,0,0,0,0,0,0,0,0,0,0,0,0,0,0,0,0,0,0,0,0,0,0,0,0,0,0,0,0,0,0,0,0,0,0,0,0],"split_type":[0,0,0,0,0,0,0,0,0,0,0,0,0,0,0,0,0,0,0,0,0,0,0,0,0,0,0,0,0,0,0,0,0,0,0,0,0,0,0,0,0,0,0,0,0,0,0,0,0,0,0,0,0,0,0,0,0,0,0,0,0,0,0,0,0,0,0,0,0,0,0,0,0,0,0,0,0,0,0,0,0,0,0,0,0,0,0,0,0,0,0,0,0,0,0,0,0,0,0,0,0,0,0,0,0,0,0,0,0,0,0,0,0],"sum_hessian":[3.192E4,2.2921E4,8.999E3,2.2227E4,6.94E2,3.09E3,5.909E3,3.274E3,1.8953E4,2.5E2,4.44E2,2.869E3,2.21E2,3.41E2,5.568E3,7.13E2,2.561E3,8E0,1.8945E4,2.46E2,4E0,4.01E2,4.3E1,2.99E2,2.57E3,1.12E2,1.09E2,2.01E2,1.4E2,6.8E2,4.888E3,3.91E2,3.22E2,1.216E3,1.345E3,6.4E1,1.8881E4,2.4E2,6E0,2E0,2E0,1.52E2,2.49E2,3.7E1,6E0,7.7E1,2.22E2,5.7E1,2.513E3,3.8E1,7.4E1,1E1,9.9E1,1.51E2,5E1,9.7E1,4.3E1,4.18E2,2.62E2,1.704E3,3.184E3,2.89E2,1.02E2,1.28E2,1.94E2,7.2E1,1.144E3,1.328E3,1.7E1,3.5E1,2.9E1,1.8416E4,4.65E2,2E0,2.38E2,2E0,4E0,1.41E2,1.1E1,1.79E2,7E1,8E0,2.9E1,2.2E1,5.5E1,1.77E2,4.5E1,2.2E1,3.5E1,2.507E3,6E0,2.7E1,1.1E1,2.5E1,4.9E1,7E0,3E0,8.5E1,1.4E1,1.2E2,3.1E1,8.8E1,9E0,1E0,4.2E1,3.16E2,1.02E2,2.28E2,3.4E1,5.76E2,1.128E3,2.436E3,7.48E2],"tree_param":{"num_deleted":"0","num_feature":"48","num_nodes":"113","size_leaf_vector":"1"}},{"base_weights":[-4.75236E-2,-7.965547E-2,3.29418E-2,-8.326931E-2,3.5982635E-2,2.4073453E-1,1.8315297E-2,-3.1773724E-2,-9.2197135E-2,-7.789858E-2,1.1127096E-1,4.9999975E-2,3.3128077E-1,5.866909E-3,2.1693225E-1,6.822032E-2,-5.938356E-2,-9.488867E-2,1.9864537E-2,-8.8518545E-2,3.4285712E-1,6.325965E-2,4.1964284E-1,5.7777774E-1,2.4193525E-2,3.706989E-1,-9.714289E-3,-1.3097826E-2,1.3174449E-1,4.0057468E-1,1.1914891E-1,1.578082E-1,-2.7034907E-2,-7.121727E-2,8.232321E-2,1.5769228E-1,-9.595813E-2,-5.2762456E-2,3.4024388E-1,-9.2105284E-2,1.1999998E-1,5.2E-1,-6.6666687E-3,-3.5838176E-2,1.5315787E-1,1.259259E-1,6.6999996E-1,-5.0000013E-3,6.6249996E-1,4.8571426E-1,6.1110873E-3,6.944442E-2,4.017804E-1,5.9365254E-2,-3.4832954E-2,1.9843748E-1,-4.335284E-3,5.8191484E-1,1.8518516E-1,7.205385E-2,5.393939E-1,3.2946426E-2,8.149604E-3,9.435481E-3,-9.502265E-3,-6.6519086E-4,-8.63779E-3,3.578947E-2,-2.8873263E-3,5.733333E-2,5.7812477E-3,1.6718749E-2,-9.687468E-3,4.5045023E-3,-9.5634945E-3,7.294118E-2,2.3484847E-2,5.714284E-3,-9.576926E-3,-7.5000017E-3,4.4999998E-2,6.7499995E-2,-5.0000013E-3,2.1538459E-2,-5.5900645E-3,3.2804877E-2,2.0183462E-3,2.9166646E-3,6.7499995E-2,1.6249998E-2,8.173913E-2,7.714286E-2,-5.0000013E-3,7.2E-2,-6.6666687E-3,-2.108436E-3,3.0666664E-2,-3.4375023E-3,7.2E-2,-3.1250024E-3,4.220497E-2,4.8070174E-2,4.3842657E-3,-6.7855227E-3,3.7232756E-3,1.2959718E-2,4.902985E-2,2.8199999E-2,-5.2525275E-3,-8.57143E-3,6.284091E-2,2.6562477E-3,7.388889E-2,1.1744679E-2,-9.841273E-3,6.178571E-2,8.333332E-3],"categories":[],"categories_nodes":[],"categories_segments":[],"categories_sizes":[],"default_left":[0,0,0,0,0,0,0,0,0,0,0,0,0,0,0,0,0,0,0,0,0,0,0,0,0,0,0,0,0,0,0,0,0,0,0,0,0,0,0,0,0,0,0,0,0,0,0,0,0,0,0,0,0,0,0,0,0,0,0,0,0,0,0,0,0,0,0,0,0,0,0,0,0,0,0,0,0,0,0,0,0,0,0,0,0,0,0,0,0,0,0,0,0,0,0,0,0,0,0,0,0,0,0,0,0,0,0,0,0,0,0,0,0,0,0,0,0],"id":13,"left_children":[1,3,5,7,9,11,13,15,17,19,21,23,25,27,29,31,33,35,37,39,41,43,45,47,49,51,-1,53,55,57,59,61,63,65,67,69,71,73,75,77,79,81,-1,83,85,87,89,-1,91,93,95,97,99,101,103,105,107,109,111,113,115,-1,-1,-1,-1,-1,-1,-1,-1,-1,-1,-1,-1,-1,-1,-1,-1,-1,-1,-1,-1,-1,-1,-1,-1,-1,-1,-1,-1,-1,-1,-1,-1,-1,-1,-1,-1,-1,-1,-1,-1,-1,-1,-1,-1,-1,-1,-1,-1,-1,-1,-1,-1,-1,-1,-1,-1],"loss_changes":[8.253451E1,9.536087E0,2.7683441E1,1.01670685E1,5.941824E0,1.0328346E1,2.1044312E1,9.031929E0,5.687973E0,1.263631E0,6.14728E0,2.6283154E0,6.892399E0,1.9125866E1,8.966772E0,6.046136E0,4.3038006E0,4.988144E0,1.0325759E1,2.1298623E-1,5.424762E-1,3.2304451E0,4.0335417E0,5.118058E-1,1.5492799E0,3.4552956E0,0E0,1.0968753E1,9.52113E0,6.688467E0,6.472527E0,4.754448E0,2.8480024E0,2.3153877E0,6.0775642E0,3.2049575E0,4.437866E0,1.5222645E0,3.1920528E0,1.5093207E-1,3.5549998E-1,4.755E-1,0E0,8.83986E-1,4.412022E0,1.4147685E0,2.111207E0,0E0,6.594641E-1,9.539046E-1,1.4777395E0,2.4562013E0,2.9711113E0,1.0489084E1,1.2750971E1,1.4081083E1,4.789091E0,2.9717083E0,7.0946007E0,2.3097382E0,1.1293831E0,0E0,0E0,0E0,0E0,0E0,0E0,0E0,0E0,0E0,0E0,0E0,0E0,0E0,0E0,0E0,0E0,0E0,0E0,0E0,0E0,0E0,0E0,0E0,0E0,0E0,0E0,0E0,0E0,0E0,0E0,0E0,0E0,0E0,0E0,0E0,0E0,0E0,0E0,0E0,0E0,0E0,0E0,0E0,0E0,0E0,0E0,0E0,0E0,0E0,0E0,0E0,0E0,0E0,0E0,0E0,0E0],"parents":[2147483647,0,0,1,1,2,2,3,3,4,4,5,5,6,6,7,7,8,8,9,9,10,10,11,11,12,12,13,13,14,14,15,15,16,16,17,17,18,18,19,19,20,20,21,21,22,22,23,23,24,24,25,25,27,27,28,28,29,29,30,30,31,31,32,32,33,33,34,34,35,35,36,36,37,37,38,38,39,39,40,40,41,41,43,43,44,44,45,45,46,46,48,48,49,49,50,50,51,51,52,52,53,53,54,54,55,55,56,56,57,57,58,58,59,59,60,60],"right_children":[2,4,6,8,10,12,14,16,18,20,22,24,26,28,30,32,34,36,38,40,42,44,46,48,50,52,-1,54,56,58,60,62,64,66,68,70,72,74,76,78,80,82,-1,84,86,88,90,-1,92,94,96,98,100,102,104,106,108,110,112,114,116,-1,-1,-1,-1,-1,-1,-1,-1,-1,-1,-1,-1,-1,-1,-1,-1,-1,-1,-1,-1,-1,-1,-1,-1,-1,-1,-1,-1,-1,-1,-1,-1,-1,-1,-1,-1,-1,-1,-1,-1,-1,-1,-1,-1,-1,-1,-1,-1,-1,-1,-1,-1,-1,-1,-1,-1],"split_conditions":[1.1874642E-1,4.4596888E-2,-9.6411295E-2,3.6656797E-6,-2.8732857E-2,-3.0650336E-2,8.9597724E-2,-1.3904359E-2,1.0509556E-1,-7.06968E-4,7.574784E-4,1.0695504E-4,5.9744543E-3,1.7869713E1,-9.7922275E-5,-1.3210357E-3,1.5916114E1,-7.944795E-2,-8.3123406E-20,3.2819223E-4,-2.9825507E-2,1.579528E-1,1.7844953E-2,2.1598548E-2,-3.2224567E0,-5.373724E-2,-1.312393E-3,-8.298999E-2,2.2426529E-2,1.7022043E-2,4.6474773E-1,-4.039344E-2,9.968957E0,3.6634816E-18,4.89864E-23,3.1952057E-2,6.793181E-7,1.5189941E-3,-2.5539398E-17,-1.4057809E-3,8.212361E-2,3.645139E-1,-1.0274065E-2,-2.6157615E-3,2.8076041E-3,2.488292E-1,3.111144E-4,-2.2871734E-3,1.3733651E1,9.916151E0,1.7724879E-1,5.461241E-4,1.5578868E-2,-1.2868668E-1,8.34922E-2,2.2290882E-2,1.9476978E-2,-2.4094418E-4,9.269001E-2,1.9607475E-2,8.320753E-6,3.9104545E-3,1.9895572E-3,1.6273499E-3,-1.1837053E-2,-8.329704E-4,-1.2660438E-2,7.03993E-3,-2.808483E-3,5.587229E-3,1.1826878E-3,4.8308037E-3,-1.2468971E-2,1.5441644E-3,-1.5724488E-2,9.403847E-3,4.7382587E-3,5.445212E-3,-2.7314902E-3,-3.5662295E-3,8.681297E-4,5.6143524E-3,-4.641831E-4,2.9726601E-3,-9.4386796E-4,8.395834E-3,5.133949E-4,5.977507E-4,5.2586677E-3,1.2650908E-3,3.298138E-3,2.9136657E-3,-3.425801E-3,4.1738274E-3,-1.8188239E-3,-1.8553024E-4,1.4086425E-3,-2.9630944E-4,5.702102E-3,4.6445793E-4,3.7276696E-3,5.098861E-3,3.3851675E-4,-8.40465E-4,3.2462453E-4,1.1911704E-3,2.069527E-3,1.6305859E-3,-3.1961576E-4,-2.131021E-3,2.3583304E-3,7.3095364E-4,6.207246E-3,5.159436E-4,-1.1101802E-3,4.5932117E-3,5.197966E-3],"split_indices":[13,34,32,45,32,10,30,46,46,26,25,25,47,3,28,26,2,32,44,29,12,45,46,1,14,45,0,30,4,37,36,10,3,13,47,45,17,11,20,28,1,7,0,24,11,19,35,0,2,0,22,25,1,4,33,23,23,45,4,1,34,0,0,0,0,0,0,0,0,0,0,0,0,0,0,0,0,0,0,0,0,0,0,0,0,0,0,0,0,0,0,0,0,0,0,0,0,0,0,0,0,0,0,0,0,0,0,0,0,0,0,0,0,0,0,0,0],"split_type":[0,0,0,0,0,0,0,0,0,0,0,0,0,0,0,0,0,0,0,0,0,0,0,0,0,0,0,0,0,0,0,0,0,0,0,0,0,0,0,0,0,0,0,0,0,0,0,0,0,0,0,0,0,0,0,0,0,0,0,0,0,0,0,0,0,0,0,0,0,0,0,0,0,0,0,0,0,0,0,0,0,0,0,0,0,0,0,0,0,0,0,0,0,0,0,0,0,0,0,0,0,0,0,0,0,0,0,0,0,0,0,0,0,0,0,0,0],"sum_hessian":[3.192E4,2.2811E4,9.109E3,2.212E4,6.91E2,5.98E2,8.511E3,3.269E3,1.8851E4,2.75E2,4.16E2,1.93E2,4.05E2,8.01E3,5.01E2,7.07E2,2.562E3,1.8409E4,4.42E2,2.69E2,6E0,3.61E2,5.5E1,8E0,1.85E2,3.71E2,3.4E1,6.962E3,1.048E3,1.73E2,3.28E2,3.64E2,3.43E2,2.365E3,1.97E2,7.7E1,1.8332E4,3.61E2,8.1E1,2.65E2,4E0,4E0,2E0,1.72E2,1.89E2,2.6E1,2.9E1,1E0,7E0,6E0,1.79E2,3.5E1,3.36E2,1.606E3,5.356E3,7.03E2,3.45E2,9.3E1,8E1,2.96E2,3.2E1,1.11E2,2.53E2,1.23E2,2.2E2,4.5E2,1.915E3,5.6E1,1.41E2,1.4E1,6.3E1,6.3E1,1.8269E4,1.1E2,2.51E2,1.6E1,6.5E1,6E0,2.59E2,3E0,1E0,3E0,1E0,1.2E1,1.6E2,8.1E1,1.08E2,2.3E1,3E0,7E0,2.2E1,6E0,1E0,4E0,2E0,1.65E2,1.4E1,3.1E1,4E0,1.5E1,3.21E2,5.6E1,1.55E3,3.673E3,1.683E3,5.7E2,1.33E2,4.9E1,2.96E2,6E0,8.7E1,6.3E1,1.7E1,2.34E2,6.2E1,2.7E1,5E0],"tree_param":{"num_deleted":"0","num_feature":"48","num_nodes":"117","size_leaf_vector":"1"}},{"base_weights":[-4.9340583E-2,-7.9185955E-2,2.6677754E-2,5.7301562E-2,-8.3039545E-2,-4.8964746E-2,5.753165E-2,3.0595237E-1,1.9012773E-2,-8.666144E-2,2.9640265E-2,5.6267384E-2,-6.573336E-2,4.1072343E-2,1.9417755E-1,5.098039E-1,-8.823552E-3,1.373684E-1,-4.3854773E-2,-3.987386E-2,-9.4238244E-2,3.0546386E-3,2.5270268E-1,-3.253591E-2,1.7880793E-1,1.5178569E-1,-7.125287E-2,1.5520932E-1,1.6022194E-2,3.7076268E-1,1.0154865E-1,2.4827585E-1,8.173913E-1,-9.677421E-3,6.7499995E-2,2.0071426E-1,-3.921571E-2,-6.715979E-2,3.333333E-1,9.07242E-3,-8.6914085E-2,-9.6694924E-2,1.6296273E-2,-5.4790445E-2,6.989617E-2,6.1999977E-2,6.2399995E-1,6E-2,-4.1545916E-2,2.7927926E-1,-9.7561E-3,7.714286E-2,6.1999977E-2,-7.993166E-2,4.93243E-2,3.4918916E-1,1.12455495E-1,-7.780466E-3,1.12163596E-1,6.05303E-1,7.238093E-2,1.2237739E-2,2.5389218E-1,6.285714E-2,1.2173911E-2,-5.0000013E-3,8.590909E-2,1.487603E-2,5.05E-2,-7.7551045E-3,6E-2,3.0999998E-2,-7.8419475E-3,6E-2,-8.888892E-3,2.048309E-2,-2.2816702E-3,-8.883085E-3,4.1666668E-2,1.5156249E-2,-9.756639E-3,-4.9371095E-3,2.5340905E-2,1.0769228E-2,-7.601354E-3,6.285714E-2,5.583036E-3,-2.954548E-3,6.285714E-2,7.2272725E-2,-7.5000017E-3,-5.049022E-3,4.25E-2,2.2061853E-2,6.4E-2,3.6923077E-2,-4.4736867E-3,1.1042921E-3,-8.775189E-3,7.633564E-4,3.4999996E-2,-9.411767E-3,3.9171595E-2,1.4062497E-2,-8.055558E-3,-1.5446059E-3,2.204918E-2,1.7438421E-2,-6.230553E-4,6.823529E-2,-9.285717E-3,5.454545E-2,1.6842083E-3,1.0814813E-2,-7.302634E-3,-1.3889125E-4,4.4270832E-2],"categories":[],"categories_nodes":[],"categories_segments":[],"categories_sizes":[],"default_left":[0,0,0,0,0,0,0,0,0,0,0,0,0,0,0,0,0,0,0,0,0,0,0,0,0,0,0,0,0,0,0,0,0,0,0,0,0,0,0,0,0,0,0,0,0,0,0,0,0,0,0,0,0,0,0,0,0,0,0,0,0,0,0,0,0,0,0,0,0,0,0,0,0,0,0,0,0,0,0,0,0,0,0,0,0,0,0,0,0,0,0,0,0,0,0,0,0,0,0,0,0,0,0,0,0,0,0,0,0,0,0,0,0,0,0,0,0],"id":14,"left_children":[1,3,5,7,9,11,13,15,17,19,21,23,25,27,29,31,33,35,37,39,41,43,45,47,49,51,53,55,57,59,61,63,65,-1,-1,67,69,71,73,75,77,79,81,83,85,87,89,-1,91,93,-1,-1,95,97,99,101,103,105,107,109,111,113,115,-1,-1,-1,-1,-1,-1,-1,-1,-1,-1,-1,-1,-1,-1,-1,-1,-1,-1,-1,-1,-1,-1,-1,-1,-1,-1,-1,-1,-1,-1,-1,-1,-1,-1,-1,-1,-1,-1,-1,-1,-1,-1,-1,-1,-1,-1,-1,-1,-1,-1,-1,-1,-1,-1],"loss_changes":[7.242435E1,1.2060959E1,2.1007612E1,5.9921217E0,9.1006775E0,4.605766E0,1.4370499E1,5.3945737E0,4.0761023E0,7.6530914E0,4.1207542E0,3.9124568E0,2.7121649E0,1.6314672E1,1.1199535E1,3.89964E0,2.1101754E0,2.133187E0,3.1693401E0,6.93575E0,5.049103E0,2.408764E0,5.20106E0,1.2160506E0,4.220087E0,3.0677352E0,2.300931E0,8.478037E0,1.0712972E1,1.6472069E1,6.146778E0,1.3189977E0,8.748617E-1,0E0,0E0,2.138115E0,1.2962625E0,1.4596952E0,2.417778E0,9.224943E0,1.5196323E0,3.9488373E0,6.318593E0,1.1599472E0,2.2359314E0,2.6119235E0,1.7794628E0,0E0,8.852543E-1,2.2075806E0,0E0,0E0,1.6561604E0,1.4580011E0,1.8525659E0,3.5245647E0,4.594737E0,6.570563E0,6.844616E0,7.1640625E0,2.7495794E0,2.346723E0,8.050213E0,0E0,0E0,0E0,0E0,0E0,0E0,0E0,0E0,0E0,0E0,0E0,0E0,0E0,0E0,0E0,0E0,0E0,0E0,0E0,0E0,0E0,0E0,0E0,0E0,0E0,0E0,0E0,0E0,0E0,0E0,0E0,0E0,0E0,0E0,0E0,0E0,0E0,0E0,0E0,0E0,0E0,0E0,0E0,0E0,0E0,0E0,0E0,0E0,0E0,0E0,0E0,0E0,0E0,0E0],"parents":[2147483647,0,0,1,1,2,2,3,3,4,4,5,5,6,6,7,7,8,8,9,9,10,10,11,11,12,12,13,13,14,14,15,15,16,16,17,17,18,18,19,19,20,20,21,21,22,22,23,23,24,24,25,25,26,26,27,27,28,28,29,29,30,30,31,31,32,32,35,35,36,36,37,37,38,38,39,39,40,40,41,41,42,42,43,43,44,44,45,45,46,46,48,48,49,49,52,52,53,53,54,54,55,55,56,56,57,57,58,58,59,59,60,60,61,61,62,62],"right_children":[2,4,6,8,10,12,14,16,18,20,22,24,26,28,30,32,34,36,38,40,42,44,46,48,50,52,54,56,58,60,62,64,66,-1,-1,68,70,72,74,76,78,80,82,84,86,88,90,-1,92,94,-1,-1,96,98,100,102,104,106,